
[
{"biases":[[],[0.35268908739089966,-1,0.31703668832778931,0.5,-0.0045429468154907227,-1,-1,0.73249995708465576,-0.36232912540435791,0.50797152519226074,0.35891085863113403,0.52441924810409546,1,-0.43615901470184326,0.42495748400688171,0.47966551780700684],[-0.32880645990371704,-0.16889327764511108,-1,0.54410243034362793,-0.61554902791976929,-0.65382134914398193]],"marker1":false,"weights":[[],[0,0,0.3234637975692749,-0.50837504863739014,-0.024964148178696632,0,0,0,0.47597268223762512,0,0,0,-0.34717094898223877,0.37368199229240417,0.18423393368721008,0,0,-0.053449034690856934,0.39227670431137085,0,0,-0.030390277504920959,0,0.45071843266487122,-0.25715932250022888,0,0,0.36396816372871399,0,0.18235576152801514,0,0.34306502342224121,-0.74057620763778687,0,0,-0.33774414658546448,0.977028489112854,0,0,-0.84964132308959961,0.39050641655921936,0,0.051014065742492676,0.26655113697052002,-0.17322158813476562,-0.083112485706806183,-0.52715921401977539,-0.013359771110117435,0,0,0.49389010667800903,-0.72400426864624023,0,-0.32921314239501953,-0.14051361382007599,0.45391562581062317,0.38697150349617004,0.63410794734954834,-0.31342592835426331,0,0.4839305579662323,0,0,0.38304567337036133,-0.14920175075531006,0,0,0,0,-0.28118500113487244,0,0,-0.45700731873512268,-0.28856849670410156,0,0,0,0,0.78533399105072021,0,0,0,-0.63198506832122803,0,0.96961331367492676,0,0,0.33226898312568665,0,0.004692902322858572,0.60509359836578369,-0.373259037733078,0,0,0,0,1,0,0,0,0,0,-0.09782930463552475,0,-0.28085035085678101,0,0.39536470174789429,0,0,0,0,-0.27587422728538513,0,0.30166220664978027,0,0,0,0,0,-0.38093045353889465,0,-0.41116535663604736,0.59494531154632568,0,-0.048592984676361084,0,0,0,0,0.290699303150177,0,-0.25150993466377258,-0.47587478160858154,-0.44712686538696289,0,-0.42686858773231506,0.021363934502005577,0.46945729851722717,1,0.2839207649230957,0,-0.42500624060630798,0,0.48739874362945557,0,0,0,0,0,-0.77458250522613525,-0.64172089099884033,-0.39534562826156616,0,-0.26710650324821472,0,0,0,-0.42763137817382812,0.34827843308448792,-0.16007161140441895,-0.96870362758636475,0,0,0.25929632782936096,0.49731427431106567,0,-0.84126740694046021,0,-0.29087024927139282,0,0,0,0,0,-0.82767927646636963,0,0.76495718955993652,0,0.48464909195899963,-0.34106388688087463,0,0.11482898145914078,0,0,0.61310422420501709,0.39814770221710205,0.038625180721282959,0.36645042896270752,0.42214789986610413,0,0,0,0,0.84253370761871338,-0.24538421630859375,0.088452190160751343,0,0.46250182390213013,-0.47183799743652344,0,0.63100719451904297,0.31925031542778015,0,0.25431028008460999,0,0,0,0.57111978530883789,-0.45613166689872742,0.25383549928665161,0,0.30535650253295898,-0.81794536113739014,0.46946975588798523,-0.4274154007434845,0,0,0.62144362926483154,0.5188022255897522,0,0,0,-0.079334855079650879,0.33863729238510132,0,0,0.46055695414543152,-0.28545993566513062,0.35288107395172119,0.42016968131065369,-0.49712255597114563,0,0.36136111617088318,0,0,0,-0.47819557785987854,0,-0.31005895137786865,0.77568817138671875,0,0,0,-0.26261523365974426,-0.47728496789932251,0,0.49288490414619446,0,-0.0074337916448712349,0,0,0.091596484184265137,0.30128493905067444,0,0.30921560525894165,0,0.14178983867168427,0,0,0.31725221872329712,-0.37459596991539001,0.4624248743057251,-0.34656664729118347,0,0,0.1257970780134201,0,0,0,0,-0.39505159854888916,-0.46076500415802002,0,0,0,0,0.34843093156814575,-0.71094763278961182,0,0.45708110928535461,0,0,0.29319953918457031,0,0,0,0.59147930145263672,0,0,0,0.8265373706817627,0,0.024327576160430908,0.47406682372093201,0,0,0,0.33475020527839661,-0.060655713081359863,0,0.4471001923084259,0.27089571952819824,0,0,0.42690655589103699,0.73645412921905518,0,0,0,0.38555091619491577,0,0,0,0,-0.49733254313468933,0,0.26084375381469727,0,-0.33845531940460205,0.49258837103843689,0.16867870092391968,0,0,0.84680378437042236,0.48169785737991333,0,0,-0.95799911022186279,0,0.42575371265411377,-0.56733024120330811,0.35768520832061768,0.13177615404129028,0.30157220363616943,0.40251585841178894,-0.012844684533774853,-0.20231503248214722,0,0.46143054962158203,-0.44628345966339111,-0.30361732840538025,-0.88888013362884521,-0.72278714179992676,0,0,-0.37080225348472595,-0.93768012523651123,0,0,0,0,0,-0.017105221748352051,0,0,0.46426695585250854,-0.18958304822444916,0.65412223339080811,-0.90000450611114502,0,0,0,0,0,0,-0.34612342715263367,0,0,0,0,0.065600275993347168,-0.42745089530944824,-0.40562662482261658,0,0,0,0,-0.35589930415153503,0,0,0,0.016834497451782227,0.48647588491439819,0.87478417158126831,0,0,-1,0.38849544525146484,0,0.73117327690124512,0.6458325982093811,0,0,0,-0.31765466928482056,0,0,0,0,0,0,0,0,0,0,0,-0.48428526520729065,-0.595100998878479,0,0.48744478821754456,0,0,-0.28438535332679749,-0.85717093944549561,0,0.42436978220939636,0.25999116897583008,0,-0.25056776404380798,0,1,-0.98485314846038818,0.49304333329200745,0,0,-0.14401018619537354,1,0,0,0,0.48782619833946228,-0.42252945899963379,0,0.76939517259597778,0.4493623673915863,0,0,0,0,-0.4141845703125,0,0,0,0,0,0.21231484413146973,0.22711455821990967,0,0.34198227524757385,0,-0.34298226237297058,-0.41656798124313354,0,0,0,0,0.95831209421157837,-0.12503990530967712,0,0,0.017797231674194336,0,0,0.26828914880752563,-0.039448022842407227,0,0,0,-0.33814868330955505,-0.21156913042068481,-0.34694012999534607,0,-0.19027161598205566,0,0.47727304697036743,0.039614103734493256,-0.30386573076248169,0,0.60809403657913208,0],[0,-0.10315043479204178,0,-0.013529062271118164,0.10852302610874176,0,0.64448899030685425,-0.42189797759056091,-0.58489084243774414,-0.0177566297352314,-0.0086140194907784462,0,0.45013031363487244,-0.21470783650875092,0,0,0.32326841354370117,-0.69684398174285889,0,-0.12855422496795654,0.78566747903823853,0.74935483932495117,-0.36813417077064514,0,0.025309789925813675,-0.32607933878898621,0,0,0,0.32188978791236877,0.59199213981628418,-0.54307955503463745,0.4390522837638855,0,0,-0.36569201946258545,0,0,-0.59170824289321899,-0.18544948101043701,0,0.84161221981048584,-0.72971069812774658,0.13817039132118225,0.12014146149158478,0.40229928493499756,-0.087278246879577637,0.73364406824111938,0.28162980079650879,-0.31147885322570801,0.44426345825195312,-0.48499378561973572,0.13001665472984314,-0.4698852002620697,-0.30106496810913086,0.43968707323074341,0.61656594276428223,0.47194588184356689,0,-0.60580605268478394,-1,0.43568006157875061,0.37654325366020203,-0.58911716938018799,0.59513479471206665,-0.70021617412567139,0,0.87178581953048706,-0.713675856590271,-0.70384109020233154,0,0.37879973649978638,0.58362579345703125,0.30702352523803711,-0.43481814861297607,-0.73167139291763306,0,-0.33273756504058838,0.43085366487503052,0,-0.51640582084655762,-0.011195819824934006,0.38809680938720703,0.039658598601818085,0.92508292198181152,-0.050795596092939377,0,1,0.07905307412147522,0.53688895702362061,0,-0.11649607121944427,0,-0.10260164737701416,0,0.68467652797698975]],"id":"5105BF7A-7AC7-4EC5-AC8E-96D550950EE0","generation":31,"inputCount":30,"hiddenCount":16,"outputCount":6},
{"biases":[[],[0.35268908739089966,-1,1,0.5,-0.0045429468154907227,-1,-1,0.73249995708465576,-0.36232912540435791,0.50797152519226074,0.35891085863113403,0.52441924810409546,1,-0.43615901470184326,0.42495748400688171,0.47966551780700684],[-0.32880645990371704,-0.16889327764511108,-1,0.54410243034362793,-0.61554902791976929,-0.65382134914398193]],"marker1":false,"weights":[[],[0,0,0.3234637975692749,-0.50837504863739014,-0.024964148178696632,0,0,0,0.47597268223762512,0,0,0,-0.34717094898223877,0.37368199229240417,0.18423393368721008,0,0,-0.053449034690856934,0.39227670431137085,0,0,-0.030390277504920959,0,0.45071843266487122,-0.25715932250022888,0,0,0.36396816372871399,0,0.18235576152801514,0,0.34306502342224121,-0.74057620763778687,0,0,-0.33774414658546448,0.977028489112854,0,0,-0.84964132308959961,0.39050641655921936,0,0.051014065742492676,0.26655113697052002,-0.17322158813476562,-0.083112485706806183,-0.52715921401977539,-0.013359771110117435,0,0,0.49389010667800903,-0.72400426864624023,0,-0.32921314239501953,-0.14051361382007599,0.45391562581062317,0.38697150349617004,0.63410794734954834,-0.31342592835426331,0,0.4839305579662323,0,0,0.38304567337036133,-0.14920175075531006,0,0,0,0,-0.28118500113487244,0,0,-0.45700731873512268,-0.28856849670410156,0,0,0,0,0.78533399105072021,0,0,0,-0.63198506832122803,0,0.96961331367492676,0,0,0.33226898312568665,0,-0.34874150156974792,0.60509359836578369,-0.373259037733078,0,0,0,0,1,0,0,0,0,0,-0.09782930463552475,0,-0.28085035085678101,0,0.39536470174789429,0,0,0,0,-0.27587422728538513,0,0.30166220664978027,0,0,0,0,0,-0.38093045353889465,0,-0.41116535663604736,0.59494531154632568,0,-0.048592984676361084,0,0,0,0,0.290699303150177,0,0,-0.47587478160858154,-0.44712686538696289,0,-0.42686858773231506,0.021363934502005577,0.46945729851722717,1,0.2839207649230957,0,-0.42500624060630798,0,0.48739874362945557,0,0,0,0,0,-0.77458250522613525,-0.64172089099884033,-0.39534562826156616,0,-0.26710650324821472,0,0,0,-0.42763137817382812,0.34827843308448792,-0.16007161140441895,-0.96870362758636475,0,0,0.25929632782936096,0.49731427431106567,0,-0.84126740694046021,0,-0.29087024927139282,0,0,0,0,0,-1,0,0.76495718955993652,0,0.48464909195899963,-0.34106388688087463,0,0.11482898145914078,0,0,0.61310422420501709,0.39814770221710205,0.038625180721282959,0.36645042896270752,0.42214789986610413,0,0,0,0,0.84253370761871338,-0.24538421630859375,0.088452190160751343,0,0.46250182390213013,-0.47183799743652344,0,0.63100719451904297,0.31925031542778015,0,0.25431028008460999,0,0,0,-0.35304218530654907,-0.45613166689872742,0.25383549928665161,0,0.30535650253295898,-0.81794536113739014,0.87903892993927002,-0.4274154007434845,0,0,0.62144362926483154,1,0,0,0,-0.079334855079650879,0.33863729238510132,0,0,0.46055695414543152,-0.28545993566513062,0.35288107395172119,0.42016968131065369,-0.49712255597114563,0,0.36136111617088318,0,0,0,-0.47819557785987854,0,-0.31005895137786865,0.77568817138671875,0,0,0,-0.26261523365974426,-0.47728496789932251,0,0.49288490414619446,0,-0.0074337916448712349,0,0,0.091596484184265137,0.30128493905067444,0,0.30921560525894165,0,0.14178983867168427,0,0,0.31725221872329712,-0.37459596991539001,0.4624248743057251,-0.34656664729118347,0,0,0.25159415602684021,0,0,0,0,-0.39505159854888916,-0.46076500415802002,0,0,0,0,0.34843093156814575,-0.71094763278961182,0,0.45708110928535461,0,0,0.29319953918457031,0,0,0,0.59147930145263672,0,0,0,0.8265373706817627,0,0.024327576160430908,0.47406682372093201,0,0,0,0.33475020527839661,-0.060655713081359863,0,0.4471001923084259,0.27089571952819824,0,0,0.42690655589103699,0.73645412921905518,0,0,0,0.38555091619491577,0,0,0,0,-0.49733254313468933,0,0.26084375381469727,0,-0.33845531940460205,0.49258837103843689,0.16867870092391968,0,0,0.84680378437042236,0.48169785737991333,0,0,-0.95799911022186279,0,0.42575371265411377,-0.56733024120330811,0.35768520832061768,0.13177615404129028,0.30157220363616943,0.40251585841178894,-0.012844684533774853,-0.20231503248214722,0,0.46143054962158203,-0.44628345966339111,-0.30361732840538025,-0.88888013362884521,-0.72278714179992676,0,0,-0.37080225348472595,-0.93768012523651123,0,0,0,0,0,-0.017105221748352051,0,0,0.46426695585250854,-0.18958304822444916,0.65412223339080811,-0.90000450611114502,0,0,0,0,0,0,-0.34612342715263367,0,0,0,0,0.065600275993347168,-0.42745089530944824,-0.40562662482261658,0,0,0,0,-0.35589930415153503,0,0,0,0.016834497451782227,0.48647588491439819,0.87478417158126831,0,0,-1,0.38849544525146484,0,0.73117327690124512,0.6458325982093811,0,0,0,-0.31765466928482056,0,0,0,0,0,0,0,0,0,0,0,-0.48428526520729065,-0.595100998878479,0,0.48744478821754456,0,0,-0.28438535332679749,-0.85717093944549561,0,0.42436978220939636,0.25999116897583008,0,-0.25056776404380798,0,1,-0.98485314846038818,0.49304333329200745,0,0,-0.14401018619537354,1,0,0,0,0.48782619833946228,-0.42252945899963379,0,0.76939517259597778,0.4493623673915863,0,0,0,0,-0.4141845703125,0,0,0,0,0,0.21231484413146973,0.22711455821990967,0,0.34198227524757385,0,-0.34298226237297058,-0.41656798124313354,0,0,0,0,0.46311637759208679,-0.12503990530967712,0,0,0.017797231674194336,0,0,0.26828914880752563,0.81083416938781738,0,0,0,-0.33814868330955505,-0.21156913042068481,-0.34694012999534607,0,-0.19027161598205566,0,0.47727304697036743,0.039614103734493256,-0.30386573076248169,0,0.60809403657913208,0],[0.97681427001953125,-0.10315043479204178,0,-0.013529062271118164,0.10852302610874176,0,0.64448899030685425,-0.42189797759056091,-0.58489084243774414,-0.0177566297352314,-0.0086140194907784462,0,0.45013031363487244,-0.21470783650875092,0,0,0.32326841354370117,-0.69684398174285889,0,-0.12855422496795654,0.78566747903823853,0.74935483932495117,-0.36813417077064514,0,0.025309789925813675,-0.32607933878898621,0,0,0,0.32188978791236877,0.59199213981628418,-0.54307955503463745,0.4390522837638855,0,0,-0.36569201946258545,0,0,-0.59170824289321899,-0.18544948101043701,0,0.84161221981048584,-0.72971069812774658,0.13817039132118225,0.12014146149158478,0.40229928493499756,-0.087278246879577637,0.73364406824111938,0.28162980079650879,-0.31147885322570801,0.44426345825195312,-0.48499378561973572,0.13001665472984314,-0.4698852002620697,-0.30106496810913086,0.43968707323074341,0.61656594276428223,0.47194588184356689,0,-0.60580605268478394,-1,0.43568006157875061,0.37654325366020203,-0.58911716938018799,0.59513479471206665,-0.70021617412567139,0,0.87178581953048706,-0.713675856590271,-0.70384109020233154,0,0.37879973649978638,0.58362579345703125,0.30702352523803711,-0.43481814861297607,-0.73167139291763306,0,-0.33273756504058838,0.43085366487503052,0,-0.51640582084655762,-0.011195819824934006,0.38809680938720703,0.039658598601818085,0.92508292198181152,-0.050795596092939377,0,1,0.07905307412147522,0.53688895702362061,0,-0.11649607121944427,0,-0.10260164737701416,0,0.68467652797698975]],"id":"2B2ACB28-3E1D-4AB3-9786-464FC0D17822","generation":30,"inputCount":30,"hiddenCount":16,"outputCount":6},
{"biases":[[],[0.35268908739089966,-1,0.31703668832778931,1,-0.0045429468154907227,-1,-1,0.73249995708465576,-0.36232912540435791,0.50797152519226074,0.35891085863113403,0.52441924810409546,1,-0.87231802940368652,0.42495748400688171,0.47966551780700684],[-0.32880645990371704,-0.16889327764511108,-0.67644363641738892,0.54410243034362793,0.92077624797821045,-0.65382134914398193]],"marker1":true,"weights":[[],[0,0,0.3234637975692749,-0.50837504863739014,-0.024964148178696632,0,0,0,0.47597268223762512,0,0,0,-0.34717094898223877,0.37368199229240417,0.18423393368721008,0,0,-0.053449034690856934,0.39227670431137085,0,0,-0.030390277504920959,0,0.45071843266487122,-0.25715932250022888,0,0,0.36396816372871399,0,0.18235576152801514,0,0.34306502342224121,-0.74057620763778687,0,0.40402713418006897,-0.33774414658546448,0.977028489112854,0,0,-0.84964132308959961,0.39050641655921936,0,0.051014065742492676,0.26655113697052002,-0.17322158813476562,-0.083112485706806183,-0.52715921401977539,-0.013359771110117435,0,0,0.49389010667800903,-0.72400426864624023,0,-0.32921314239501953,-0.14051361382007599,0.45391562581062317,0.38697150349617004,0.63410794734954834,-0.31342592835426331,0,0.4839305579662323,0,0,0.38304567337036133,-0.14920175075531006,0,0,0,0,-0.28118500113487244,0,0,-0.45700731873512268,-0.28856849670410156,0,0,0,0,0.78533399105072021,0,0,0,-0.63198506832122803,0,0.96961331367492676,0,0,0.33226898312568665,0,-0.34874150156974792,0.60509359836578369,-0.373259037733078,0,0,0,0,1,0,0,0,0,0,-0.09782930463552475,0,-0.28085035085678101,0,0.39536470174789429,0,0,0,0,-0.27587422728538513,0,0.30166220664978027,0,0,0,0,0,-0.38093045353889465,0,-0.41116535663604736,0.59494531154632568,0,-0.048592984676361084,0,0,0,0,-0.16732220351696014,0,0,-0.47587478160858154,-0.44712686538696289,0,-0.42686858773231506,0.021363934502005577,0.46945729851722717,1,0.2839207649230957,0,-0.42500624060630798,0,0.48739874362945557,0,0,-0.5202178955078125,0,0,-0.77458250522613525,-0.64172089099884033,-0.39534562826156616,0,-0.26710650324821472,0,0,0,-0.42763137817382812,0.34827843308448792,-0.16007161140441895,-0.96870362758636475,0,0,0.25929632782936096,0.49731427431106567,0,-0.84126740694046021,0,-0.29087024927139282,0,0,0,0,0,-0.82767927646636963,0,0.76495718955993652,0,0.48464909195899963,-0.34106388688087463,0,0.11482898145914078,0,0,0.61310422420501709,0.39814770221710205,0.038625180721282959,0.36645042896270752,0.42214789986610413,0,0,0,0,0.84253370761871338,-0.24538421630859375,0.088452190160751343,-0.40291783213615417,0.46250182390213013,-0.47183799743652344,0,0.63100719451904297,0.69319158792495728,0,0.25431028008460999,0,0,0,-0.35304218530654907,-0.45613166689872742,0.25383549928665161,0,0.30535650253295898,-0.81794536113739014,0.46946975588798523,-0.4274154007434845,0,0,0.62144362926483154,0.84732627868652344,0,0,0,-0.079334855079650879,0.33863729238510132,0,0,0.46055695414543152,-0.28545993566513062,0.35288107395172119,0.42016968131065369,-0.49712255597114563,0,0.36136111617088318,0,0,0,-0.47819557785987854,0,-0.31005895137786865,0.77568817138671875,0,0,0,-0.26261523365974426,-0.47728496789932251,0.32318812608718872,0.49288490414619446,0,-0.0074337916448712349,0,0,0.091596484184265137,0.30128493905067444,0,0.30921560525894165,0,0.14178983867168427,0,0,0.31725221872329712,-0.37459596991539001,0.4624248743057251,-0.34656664729118347,0,0,0.25159415602684021,0,0,0,0,-0.38204666972160339,-0.46076500415802002,0,0,0,0,0.34843093156814575,-0.71094763278961182,0,0,0,0,0.29319953918457031,0,0,0,0.59147930145263672,0,0,0,0.8265373706817627,0,0.024327576160430908,0.47406682372093201,0,0,0,0.33475020527839661,-0.060655713081359863,0,0.4471001923084259,0.27089571952819824,0,0,0.42690655589103699,0.73645412921905518,0,0,0,0.38555091619491577,0,0,0,0,-0.49733254313468933,0,0.26084375381469727,0.40709233283996582,-0.33845531940460205,0.49258837103843689,0.16867870092391968,0,0,0.84680378437042236,0.48169785737991333,0,0,-0.95799911022186279,0,0.42575371265411377,-0.56733024120330811,0.35768520832061768,0.13177615404129028,0.30157220363616943,0.40251585841178894,-0.012844684533774853,-0.20231503248214722,0,0.46143054962158203,-0.44628345966339111,-0.30361732840538025,-0.88888013362884521,-0.72278714179992676,0,0,-0.37080225348472595,-0.93768012523651123,-0.46980640292167664,0,0,0,0,-0.017105221748352051,0,0,0.46426695585250854,-0.18958304822444916,0.65412223339080811,-0.90000450611114502,0,0,0,0,0,0,-0.34612342715263367,0,0,0,0,0.065600275993347168,-0.42745089530944824,-0.40562662482261658,0,0,0,0,-0.35589930415153503,0,0,0,0.016834497451782227,0.48647588491439819,0.87478417158126831,0,0,-1,0,0,0.73117327690124512,0.6458325982093811,0,0,0,-0.31765466928482056,0,0,0,0,0,0,0,0,0,0,0,-0.48428526520729065,-0.595100998878479,0,0.48744478821754456,0,0,-0.28438535332679749,-0.85717093944549561,0,0.42436978220939636,0.25999116897583008,0,-0.25056776404380798,0,1,-0.98485314846038818,0.49304333329200745,0,0,-0.14401018619537354,1,0,0,0,0.48782619833946228,-0.42252945899963379,0,0.37971380352973938,0.4493623673915863,0,0,0,0,-0.4141845703125,0,0,0,0,0,0.21231484413146973,0.22711455821990967,0,0.34198227524757385,0,-0.34298226237297058,-0.41656798124313354,0,0,0,0,0.46311637759208679,-0.12503990530967712,0,0,0.017797231674194336,0,0,0.26828914880752563,-0.039448022842407227,0,0,0,-0.33814868330955505,-0.21156913042068481,-0.34694012999534607,0,-0.19027161598205566,0,0.47727304697036743,0.039614103734493256,-0.30386573076248169,0,0.60809403657913208,0],[0,-0.10315043479204178,0,-0.027058124542236328,0.10852302610874176,0,0.64448899030685425,-0.42189797759056091,-0.58489084243774414,-0.0177566297352314,-0.0086140194907784462,0,0.45013031363487244,-0.21470783650875092,0,0,0.32326841354370117,-0.69684398174285889,0,-0.12855422496795654,0.78566747903823853,0.74935483932495117,-0.36813417077064514,0,0.025309789925813675,0,0,0,0,0.32188978791236877,0.59199213981628418,-0.54307955503463745,0.4390522837638855,0,0,-0.36569201946258545,0,0,-0.59170824289321899,-0.18544948101043701,0,1,-0.72971069812774658,0.13817039132118225,0.12014146149158478,0.40229928493499756,-0.087278246879577637,0.73364406824111938,0.28162980079650879,-0.31147885322570801,0.44426345825195312,-0.48499378561973572,0.13001665472984314,-0.4698852002620697,-0.30106496810913086,0.43968707323074341,0.61656594276428223,0.47194588184356689,0,-0.60580605268478394,-1,0.43568006157875061,0.37654325366020203,-0.58911716938018799,0.59513479471206665,-0.70021617412567139,0,0.87178581953048706,-0.713675856590271,-0.70384109020233154,0,0.37879973649978638,0.58362579345703125,0.30702352523803711,-0.43481814861297607,-0.73167139291763306,0,-0.33273756504058838,0.43085366487503052,0,-0.51640582084655762,-0.011195819824934006,0.38809680938720703,0.039658598601818085,0.92508292198181152,-0.050795596092939377,0,1,0.07905307412147522,0.53688895702362061,0,-0.11649607121944427,0,-0.10260164737701416,0,0.68467652797698975]],"id":"6D690576-4A5C-4E2B-9044-FD9749D5626D","generation":30,"inputCount":30,"hiddenCount":16,"outputCount":6},
{"biases":[[],[0.35268908739089966,-0.81432425975799561,0.31703668832778931,1,-0.0045429468154907227,-1,-1,0.37098985910415649,-0.36232912540435791,0.50797152519226074,0.35891085863113403,0.52441924810409546,1,-0.43615901470184326,0.42495748400688171,0.47966551780700684],[-0.32880645990371704,-0.16889327764511108,-1,0.54410243034362793,-0.30777451395988464,-0.65382134914398193]],"marker1":false,"weights":[[],[0,0,0.3234637975692749,-0.50837504863739014,-0.049928296357393265,0,0,0,0.47597268223762512,0,0,0,-0.34717094898223877,0.37368199229240417,0.18423393368721008,0,0,-0.053449034690856934,0.39227670431137085,0,0,-0.030390277504920959,0,0.45071843266487122,-0.25715932250022888,0,0,0.36396816372871399,0,0.18235576152801514,0,0.34306502342224121,-0.74057620763778687,0,0,-0.33774414658546448,0.977028489112854,0,0,-0.84964132308959961,0.39050641655921936,0,0.051014065742492676,0.26655113697052002,-0.17322158813476562,-0.083112485706806183,-0.52715921401977539,-0.013359771110117435,0,0,0.49389010667800903,-0.72400426864624023,0,-0.32921314239501953,-0.14051361382007599,0.45391562581062317,0.38697150349617004,0.63410794734954834,-0.31342592835426331,0,0.4839305579662323,0,0,0.38304567337036133,-0.14920175075531006,0,0,0,0,-0.28118500113487244,0,0,-0.45700731873512268,-0.28856849670410156,0,0,0,0,0.78533399105072021,0,0,0,-0.63198506832122803,0,0.96961331367492676,0,0,0.33226898312568665,0,-0.34874150156974792,0.60509359836578369,-0.373259037733078,0,0,0,0,1,0,0,0,0,0,-0.09782930463552475,0,-0.28085035085678101,0,0.39536470174789429,0,0,0,0,-0.27587422728538513,0,0.30166220664978027,0,0,0,0,0,-0.38093045353889465,0,-0.41116535663604736,0.59494531154632568,0,-0.048592984676361084,0,0,0,0,0.290699303150177,0.30300626158714294,0,-0.47587478160858154,-0.44712686538696289,0,-0.42686858773231506,0.021363934502005577,0.46945729851722717,1,0.2839207649230957,0,-0.42500624060630798,0,0.48739874362945557,0,0,0,-0.35349202156066895,0,-0.77458250522613525,-0.64172089099884033,-0.39534562826156616,0,-0.26710650324821472,0,0,0,-0.42763137817382812,0.34827843308448792,-0.16007161140441895,-0.96870362758636475,0,0,0.25929632782936096,0.49731427431106567,0,-0.84126740694046021,0,-0.29087024927139282,0,0,0,0,0,-0.82767927646636963,0,0.76495718955993652,0,0.48464909195899963,-0.17053194344043732,0,0.11482898145914078,0,0,0.61310422420501709,0.39814770221710205,0.038625180721282959,0.36645042896270752,0.42214789986610413,0,0,0,0.4070860743522644,0.84253370761871338,-0.24538421630859375,0.088452190160751343,0,0.46250182390213013,-0.47183799743652344,0,0.63100719451904297,0.31925031542778015,0,0.25431028008460999,0,0,0,-0.35304218530654907,-0.45613166689872742,0.25383549928665161,0,0.30535650253295898,0,0.46946975588798523,-0.4274154007434845,0,0,0.62144362926483154,0.84732627868652344,0,0,0.2876211404800415,-0.079334855079650879,0.33863729238510132,0,0,0.46055695414543152,-0.28545993566513062,0.35288107395172119,0.42016968131065369,-0.49712255597114563,0,0.36136111617088318,0,0,0,-0.47819557785987854,0,-0.31005895137786865,0.77568817138671875,0,0,0,-0.26261523365974426,-0.47728496789932251,0,0.49288490414619446,0,-0.0074337916448712349,0,0,0.091596484184265137,0.30128493905067444,0,0.30921560525894165,0,0.14178983867168427,0,0,0.31725221872329712,-0.37459596991539001,0.4624248743057251,0.038707010447978973,0,0,0.25159415602684021,0,0,0,0,-0.79010319709777832,-0.46076500415802002,0,0,0,0,0.6873089075088501,-0.71094763278961182,0,0,0,0,0.29319953918457031,0,0,0,0.59147930145263672,0,0,0,0.8265373706817627,0,0.024327576160430908,0.47406682372093201,0,0,0,0.33475020527839661,-0.060655713081359863,0,0.4471001923084259,0.27089571952819824,0,0,0.42690655589103699,0.73645412921905518,0,0,0,0.38555091619491577,0,0,0,0,-0.49733254313468933,0,0.26084375381469727,0,-0.33845531940460205,0.49258837103843689,0.16867870092391968,0,0,0.84680378437042236,0.48169785737991333,0,0,-0.95799911022186279,0,0.42575371265411377,-0.56733024120330811,0.35768520832061768,0.13177615404129028,0.30157220363616943,0.40251585841178894,-0.012844684533774853,-0.20231503248214722,0,0.46143054962158203,-0.44628345966339111,-0.30361732840538025,-0.88888013362884521,-0.72278714179992676,0,0,-0.37080225348472595,-0.93768012523651123,0,0,0,0,0,-0.017105221748352051,0,0,0.46426695585250854,-0.18958304822444916,0.65412223339080811,-0.90000450611114502,0,0,0,0,0,0,-0.34612342715263367,0,0,0,0,0.065600275993347168,-0.42745089530944824,-0.40562662482261658,0,0,0,0,-0.35589930415153503,0,0,0,0.016834497451782227,0.48647588491439819,0.87478417158126831,0,0,-1,0,0,0.73117327690124512,0.6458325982093811,0,0,0,-0.31765466928482056,0,0,0,0,0,0,0,0,0,0,0,-0.48428526520729065,-0.595100998878479,0,0.48744478821754456,0,0,-0.28438535332679749,-0.85717093944549561,0,0.42436978220939636,0.25999116897583008,0,-0.25056776404380798,0,1,-0.98485314846038818,0.49304333329200745,0,0,-0.14401018619537354,1,0,0,0,0.48782619833946228,-0.42252945899963379,0,0.37971380352973938,0.4493623673915863,0,0,0,0,-0.4141845703125,0,0,0,0,0,0.21231484413146973,0.22711455821990967,0,0.34198227524757385,0,-0.34298226237297058,-0.41656798124313354,0,0,0,0,0.46311637759208679,-0.12503990530967712,0,0,0.017797231674194336,0,0,0.26828914880752563,-0.039448022842407227,0,0,0,-0.33814868330955505,-0.21156913042068481,-0.34694012999534607,0,-0.19027161598205566,0,0.47727304697036743,0.039614103734493256,-0.30386573076248169,0,0.60809403657913208,0],[-0.4224335253238678,-0.10315043479204178,0,0,0.10852302610874176,0,0.64448899030685425,-0.42189797759056091,-0.58489084243774414,-0.0177566297352314,-0.0086140194907784462,0,0.45013031363487244,-0.21470783650875092,0,0,0.32326841354370117,-0.69684398174285889,0,-0.25710844993591309,0.78566747903823853,0.74935483932495117,-0.36813417077064514,0,0.025309789925813675,0,0,0,0,0.32188978791236877,0.59199213981628418,-0.54307955503463745,0.4390522837638855,0,0,-0.36569201946258545,0,0,-0.59170824289321899,-0.18544948101043701,0,0.84161221981048584,-0.72971069812774658,0.13817039132118225,0.12014146149158478,0.40229928493499756,-0.087278246879577637,0.73364406824111938,0.28162980079650879,-0.31147885322570801,0.44426345825195312,-0.20857156813144684,0.13001665472984314,-0.4698852002620697,-0.30106496810913086,0.43968707323074341,0.61656594276428223,0.47194588184356689,0,-0.60580605268478394,-0.93098986148834229,0.43568006157875061,0.37654325366020203,-0.58911716938018799,0.59513479471206665,-0.70021617412567139,0,0.87178581953048706,-0.713675856590271,-0.70384109020233154,0,0.37879973649978638,0.58362579345703125,0.30702352523803711,-0.43481814861297607,-0.73167139291763306,0,-0.33273756504058838,0.71113824844360352,0,-0.51640582084655762,-0.011195819824934006,0.38809680938720703,0.039658598601818085,0.92508292198181152,-0.050795596092939377,0,1,0.07905307412147522,0.53688895702362061,0,-0.11649607121944427,0,-0.10260164737701416,0.42499333620071411,0.68467652797698975]],"id":"8277529E-D86E-4AC8-8DCA-75D303FBC66E","generation":30,"inputCount":30,"hiddenCount":16,"outputCount":6},
{"biases":[[],[0.35268908739089966,-1,0.31703668832778931,0.5,-0.0045429468154907227,-1,-1,0.73249995708465576,-0.36232912540435791,0.50797152519226074,0.35891085863113403,0.52441924810409546,1,-0.43615901470184326,0.42495748400688171,0.47966551780700684],[-0.32880645990371704,-0.16889327764511108,-1,0.54410243034362793,-0.61554902791976929,-0.65382134914398193]],"marker1":true,"weights":[[],[0,0,0.3234637975692749,-0.50837504863739014,-0.024964148178696632,0,0,0,0.47597268223762512,0,0,0,-0.34717094898223877,0.37368199229240417,0.18423393368721008,0,0,-0.053449034690856934,0.39227670431137085,0,0,-0.030390277504920959,0,0.45071843266487122,-0.25715932250022888,0,0,0.36396816372871399,0,0.18235576152801514,0,0.34306502342224121,-0.74057620763778687,0,0,-0.33774414658546448,0.977028489112854,0,0,-0.84964132308959961,0.39050641655921936,0,0.051014065742492676,0.26655113697052002,-0.17322158813476562,-0.083112485706806183,-0.52715921401977539,-0.013359771110117435,0,0,0.49389010667800903,-0.72400426864624023,0,-0.32921314239501953,-0.14051361382007599,0.45391562581062317,0.38697150349617004,0.63410794734954834,-0.31342592835426331,0,0.4839305579662323,0,0,0.38304567337036133,-0.14920175075531006,0,0,0,0,-0.28118500113487244,0,0,-0.45700731873512268,-0.28856849670410156,0,0,0,0,0.78533399105072021,0,0,0,-0.63198506832122803,0,0.96961331367492676,0,0,0.33226898312568665,0,0.004692902322858572,0.60509359836578369,-0.373259037733078,0,0,0,0,1,0,0,0,0,0,-0.09782930463552475,0,-0.28085035085678101,0,0.39536470174789429,0,0,0,0,-0.27587422728538513,0,0.30166220664978027,0,0,0,0,0,-0.38093045353889465,0,-0.41116535663604736,0.59494531154632568,0,-0.048592984676361084,0,0,0,0,0.290699303150177,0,-0.25150993466377258,-0.47587478160858154,-0.44712686538696289,0,-0.42686858773231506,0.021363934502005577,0.46945729851722717,1,0.2839207649230957,0,-0.42500624060630798,0,0.48739874362945557,0,0,0,0,0,-0.77458250522613525,-0.64172089099884033,-0.39534562826156616,0,-0.26710650324821472,0,0,0,-0.42763137817382812,0.34827843308448792,-0.16007161140441895,-0.96870362758636475,0,0,0.25929632782936096,0.49731427431106567,0,-0.84126740694046021,0,-0.29087024927139282,0,0,0,0,0,-0.82767927646636963,0,0.76495718955993652,0,0.48464909195899963,-0.34106388688087463,0,0.11482898145914078,0,0,0.61310422420501709,0.39814770221710205,0.038625180721282959,0.36645042896270752,0.42214789986610413,0,0,0,0,0.84253370761871338,-0.24538421630859375,0.088452190160751343,0,0.46250182390213013,-0.47183799743652344,0,0.63100719451904297,0.31925031542778015,0,0.25431028008460999,0,0,0,-0.35304218530654907,-0.45613166689872742,0.25383549928665161,0,0.30535650253295898,-0.81794536113739014,0.46946975588798523,-0.4274154007434845,0,0,0.62144362926483154,0.5188022255897522,0,0,0,-0.079334855079650879,0.33863729238510132,0,0,0.46055695414543152,-0.28545993566513062,0.35288107395172119,0.42016968131065369,-0.49712255597114563,0,0.36136111617088318,0,0,0,-0.47819557785987854,0,-0.31005895137786865,0.77568817138671875,0,0,0,-0.26261523365974426,-0.47728496789932251,0,0.49288490414619446,0,-0.0074337916448712349,0,0,0.091596484184265137,0.30128493905067444,0,0.30921560525894165,0,0.14178983867168427,0,0,0.31725221872329712,-0.37459596991539001,0.4624248743057251,-0.34656664729118347,0,0,0.1257970780134201,0,0,0,0,-0.39505159854888916,-0.46076500415802002,0,0,0,0,0.34843093156814575,-0.71094763278961182,0,0.45708110928535461,0,0,0.29319953918457031,0,0,0,0.59147930145263672,0,0,0,0.8265373706817627,0,0.024327576160430908,0.47406682372093201,0,0,0,0.33475020527839661,-0.060655713081359863,0,0.4471001923084259,0.27089571952819824,0,0,0.42690655589103699,0.73645412921905518,0,0,0,0.38555091619491577,0,0,0,0,-0.49733254313468933,0,0.26084375381469727,0,-0.33845531940460205,0.49258837103843689,0.16867870092391968,0,0,0.84680378437042236,0.48169785737991333,0,0,-0.95799911022186279,0,0.42575371265411377,-0.56733024120330811,0.35768520832061768,0.13177615404129028,0.30157220363616943,0.40251585841178894,-0.012844684533774853,-0.20231503248214722,0,0.46143054962158203,-0.44628345966339111,-0.30361732840538025,-0.88888013362884521,-0.72278714179992676,0,0,-0.37080225348472595,-0.93768012523651123,0,0,0,0,0,-0.017105221748352051,0,0,0.46426695585250854,-0.18958304822444916,0.65412223339080811,-0.90000450611114502,0,0,0,0,0,0,-0.34612342715263367,0,0,0,0,0.065600275993347168,-0.42745089530944824,-0.40562662482261658,0,0,0,0,-0.35589930415153503,0,0,0,0.016834497451782227,0.48647588491439819,0.87478417158126831,0,0,-1,0.38849544525146484,0,0.73117327690124512,0.6458325982093811,0,0,0,-0.31765466928482056,0,0,0,0,0,0,0,0,0,0,0,-0.48428526520729065,-0.595100998878479,0,0.48744478821754456,0,0,-0.28438535332679749,-0.85717093944549561,0,0.42436978220939636,0.25999116897583008,0,-0.25056776404380798,0,1,-0.98485314846038818,0.49304333329200745,0,0,-0.14401018619537354,1,0,0,0.28424078226089478,0.48782619833946228,-0.42252945899963379,0,0.76939517259597778,0.4493623673915863,0,0,0,0,-0.4141845703125,0,0,0,0,0,0.21231484413146973,0.22711455821990967,0,0.34198227524757385,0,-0.34298226237297058,-0.41656798124313354,0,0,0,0,0.46311637759208679,-0.12503990530967712,0,0,0.017797231674194336,0,0,0.26828914880752563,-0.039448022842407227,0,0,0,-0.33814868330955505,-0.21156913042068481,-0.34694012999534607,0,-0.19027161598205566,0,0.47727304697036743,0.039614103734493256,-0.30386573076248169,0,0.60809403657913208,0],[0,-0.10315043479204178,0,-0.013529062271118164,0.10852302610874176,0,0.64448899030685425,-0.42189797759056091,-0.58489084243774414,-0.0177566297352314,-0.0086140194907784462,0,0.45013031363487244,-0.21470783650875092,0,0,0.32326841354370117,-0.69684398174285889,0,-0.12855422496795654,0.78566747903823853,0.74935483932495117,-0.36813417077064514,0,0.025309789925813675,-0.32607933878898621,0,0,0,0.32188978791236877,0.59199213981628418,-0.54307955503463745,0.4390522837638855,0,0,-0.36569201946258545,0,0,-0.59170824289321899,-0.18544948101043701,0,0.84161221981048584,-0.72971069812774658,0.13817039132118225,0.12014146149158478,0.40229928493499756,-0.087278246879577637,0.73364406824111938,0.28162980079650879,-0.31147885322570801,0.44426345825195312,-0.48499378561973572,0.13001665472984314,-0.4698852002620697,-0.30106496810913086,0.43968707323074341,0.61656594276428223,0.47194588184356689,0,-0.60580605268478394,-1,0.43568006157875061,0.37654325366020203,-0.58911716938018799,0.59513479471206665,-0.70021617412567139,0,0.87178581953048706,-0.713675856590271,-0.70384109020233154,0,0.37879973649978638,0.58362579345703125,0.30702352523803711,-0.43481814861297607,-0.73167139291763306,0.46556609869003296,-0.33273756504058838,0.43085366487503052,0,-0.51640582084655762,-0.011195819824934006,0.38809680938720703,0.039658598601818085,0.92508292198181152,-0.050795596092939377,0,1,0.07905307412147522,0.53688895702362061,0,-0.11649607121944427,0,-0.10260164737701416,0,0.68467652797698975]],"id":"77975DFD-9147-43EB-9AB2-22019A5E0A74","generation":31,"inputCount":30,"hiddenCount":16,"outputCount":6},
{"biases":[[],[0.35268908739089966,-1,1,0.5,-0.0045429468154907227,-1,-1,0.73249995708465576,-0.36232912540435791,0.50797152519226074,0.35891085863113403,0.52441924810409546,1,-0.43615901470184326,0.42495748400688171,0.47966551780700684],[-0.32880645990371704,-0.16889327764511108,-1,0.54410243034362793,-0.61554902791976929,-0.65382134914398193]],"marker1":false,"weights":[[],[0,0,0.3234637975692749,-0.50837504863739014,-0.024964148178696632,0,0,0,0.47597268223762512,0,0,0,-0.34717094898223877,0.37368199229240417,0.18423393368721008,0,0,-0.053449034690856934,0.39227670431137085,0,0,-0.030390277504920959,0,0.45071843266487122,-0.25715932250022888,0,0,0.36396816372871399,0,0.18235576152801514,0,0.34306502342224121,-0.74057620763778687,0,0,-0.33774414658546448,0.977028489112854,0,0,-0.84964132308959961,0.39050641655921936,0,0.051014065742492676,0.26655113697052002,-0.17322158813476562,-0.083112485706806183,-0.52715921401977539,-0.013359771110117435,0,0,0.49389010667800903,-0.72400426864624023,0,-0.32921314239501953,-0.14051361382007599,0.45391562581062317,0.38697150349617004,0.63410794734954834,-0.31342592835426331,0,0.4839305579662323,0,0,0.38304567337036133,-0.14920175075531006,0,0,0,0,-0.28118500113487244,0,0,-0.45700731873512268,-0.28856849670410156,0,0,0,0,0.78533399105072021,0,0,0,-0.63198506832122803,0,0.96961331367492676,0,0,0.33226898312568665,0,-0.34874150156974792,0.60509359836578369,-0.373259037733078,0,0,0,0,1,0,0,0,0,0,-0.09782930463552475,0,-0.28085035085678101,0,0.39536470174789429,0,0,0,0,-0.27587422728538513,0,0.30166220664978027,0,0,0,0,0,-0.38093045353889465,0,-0.41116535663604736,0.59494531154632568,0,-0.048592984676361084,0,0,0,0,0.290699303150177,0,0,-0.47587478160858154,-0.44712686538696289,0,-0.42686858773231506,0.021363934502005577,0.46945729851722717,1,0.2839207649230957,0,-0.42500624060630798,0,0.48739874362945557,0,0,0,0,0,-0.77458250522613525,-0.64172089099884033,-0.39534562826156616,0,-0.26710650324821472,0,0,0,-0.42763137817382812,0.34827843308448792,-0.16007161140441895,-0.96870362758636475,0,0,0.25929632782936096,0.49731427431106567,0,-0.84126740694046021,0,-0.29087024927139282,0,0,0,0,0,-1,0,0.76495718955993652,0,0.48464909195899963,-0.34106388688087463,0,0.11482898145914078,0,0,0.61310422420501709,0.39814770221710205,0.038625180721282959,0.36645042896270752,0.42214789986610413,0,0,0,0,0.84253370761871338,-0.24538421630859375,0.088452190160751343,0,0.46250182390213013,-0.47183799743652344,0,0.63100719451904297,0.31925031542778015,0,0.25431028008460999,0,0,0,-0.35304218530654907,-0.45613166689872742,0.25383549928665161,0,0.30535650253295898,-0.81794536113739014,0.87903892993927002,-0.4274154007434845,0,0,0.62144362926483154,1,0,0,0,-0.079334855079650879,0.33863729238510132,0,0,0.46055695414543152,-0.28545993566513062,0.35288107395172119,0.42016968131065369,-0.49712255597114563,0,0.36136111617088318,0,0,0,-0.47819557785987854,0,-0.31005895137786865,0.77568817138671875,0,0,0,-0.26261523365974426,-0.47728496789932251,0,0.49288490414619446,0,-0.0074337916448712349,0,0,0.091596484184265137,0.30128493905067444,0,0.30921560525894165,0,0.14178983867168427,0,0,0.31725221872329712,-0.37459596991539001,0.4624248743057251,-0.34656664729118347,0,0,0.25159415602684021,0,0,0,0,-0.39505159854888916,-0.46076500415802002,0,0,0,0,0.34843093156814575,-0.71094763278961182,0,0.45708110928535461,0,0,0.29319953918457031,0,0,0,0.59147930145263672,0,0,0,0.8265373706817627,0,0.024327576160430908,0.47406682372093201,0,0,0,0.33475020527839661,-0.060655713081359863,0,0.4471001923084259,0.27089571952819824,0,0,0.42690655589103699,0.73645412921905518,0,0,0,0.38555091619491577,0,0,0,0,-0.49733254313468933,0,0.26084375381469727,0,-0.33845531940460205,0.49258837103843689,0.16867870092391968,0,0,0.84680378437042236,0.48169785737991333,0,0,-0.95799911022186279,0,0.42575371265411377,-0.56733024120330811,0.35768520832061768,0.13177615404129028,0.30157220363616943,0.40251585841178894,-0.012844684533774853,-0.20231503248214722,0,0.46143054962158203,-0.44628345966339111,-0.30361732840538025,-0.88888013362884521,-0.72278714179992676,0,0,-0.37080225348472595,-0.93768012523651123,0,0,0,0,0,-0.017105221748352051,0,0,0.46426695585250854,-0.18958304822444916,0.65412223339080811,-0.90000450611114502,0,0,0,0,0,0,-0.34612342715263367,0,0,0,0,0.065600275993347168,-0.42745089530944824,-0.40562662482261658,0,0,0,0,-0.35589930415153503,0,0,0,0.016834497451782227,0.48647588491439819,0.87478417158126831,0,0,-1,0.38849544525146484,0,0.73117327690124512,0.6458325982093811,0,0,0,-0.31765466928482056,0,0,0,0,0,0,0,0,0,0,0,-0.48428526520729065,-0.595100998878479,0,0.48744478821754456,0,0,-0.28438535332679749,-0.85717093944549561,0,0.42436978220939636,0.25999116897583008,0,-0.25056776404380798,0,1,-0.98485314846038818,0.49304333329200745,0,0,-0.14401018619537354,1,0,0,0,0.48782619833946228,-0.42252945899963379,0,0.76939517259597778,0.4493623673915863,0,0,0,0,-0.4141845703125,0,0,0,0,0,0.21231484413146973,0.22711455821990967,0,0.34198227524757385,0,-0.34298226237297058,-0.41656798124313354,0,0,0,0,0.46311637759208679,-0.12503990530967712,0,0,0.017797231674194336,0,0,0.26828914880752563,-0.039448022842407227,0,0,0,-0.33814868330955505,-0.21156913042068481,-0.34694012999534607,0,-0.19027161598205566,0,0.47727304697036743,0.039614103734493256,-0.30386573076248169,0,0.60809403657913208,0],[0,-0.10315043479204178,0,-0.013529062271118164,0.10852302610874176,0,0.64448899030685425,-0.42189797759056091,-0.58489084243774414,-0.0177566297352314,-0.0086140194907784462,0,0.45013031363487244,-0.21470783650875092,0,0,0.32326841354370117,-0.69684398174285889,0,-0.12855422496795654,0.78566747903823853,0.74935483932495117,-0.36813417077064514,0,0.025309789925813675,-0.32607933878898621,0,0,0,0.32188978791236877,0.59199213981628418,-0.54307955503463745,0.4390522837638855,0,0,-0.36569201946258545,0,0,-0.59170824289321899,-0.18544948101043701,0,0.84161221981048584,-0.30195963382720947,0.13817039132118225,0.12014146149158478,0.40229928493499756,-0.087278246879577637,0.73364406824111938,0.28162980079650879,-0.31147885322570801,0.44426345825195312,-0.48499378561973572,0.13001665472984314,-0.4698852002620697,-0.30106496810913086,0.43968707323074341,0.61656594276428223,0.47194588184356689,0,-0.60580605268478394,-1,0.43568006157875061,0.37654325366020203,-0.58911716938018799,0.59513479471206665,-0.70021617412567139,0,0.87178581953048706,-0.713675856590271,-0.70384109020233154,0,0.37879973649978638,0.58362579345703125,0.30702352523803711,-0.43481814861297607,-0.73167139291763306,0,-0.33273756504058838,0.43085366487503052,0,-0.51640582084655762,-0.011195819824934006,0.38809680938720703,0.039658598601818085,0.92508292198181152,-0.050795596092939377,0,1,0.07905307412147522,0.53688895702362061,0,-0.11649607121944427,0,-0.10260164737701416,0,0.68467652797698975]],"id":"BC123120-C820-41DC-A2B0-924E3026ECE2","generation":30,"inputCount":30,"hiddenCount":16,"outputCount":6},
{"biases":[[],[0.35268908739089966,-1,0.31703668832778931,1,-0.0045429468154907227,-1,-1,0.73249995708465576,-0.36232912540435791,0.50797152519226074,0.35891085863113403,0.52441924810409546,1,-0.87231802940368652,0.42495748400688171,0.47966551780700684],[-0.6922040581703186,-0.16889327764511108,-0.67644363641738892,0.54410243034362793,0.92077624797821045,-0.65382134914398193]],"marker1":false,"weights":[[],[0,0,0.3234637975692749,-0.50837504863739014,-0.024964148178696632,0,0,0,0.47597268223762512,0,0,0,-0.34717094898223877,0.37368199229240417,0.18423393368721008,0,0,-0.053449034690856934,0.39227670431137085,0,0,-0.030390277504920959,0,0.45071843266487122,-0.25715932250022888,0,0,0.36396816372871399,0,0.18235576152801514,0,0.34306502342224121,-0.74057620763778687,0,0.40402713418006897,-0.33774414658546448,0.977028489112854,0,0,-0.84964132308959961,0.39050641655921936,0,0.051014065742492676,0.26655113697052002,-0.17322158813476562,-0.083112485706806183,-0.52715921401977539,-0.013359771110117435,0,0,0.49389010667800903,-0.72400426864624023,0,-0.32921314239501953,-0.14051361382007599,0.45391562581062317,0.38697150349617004,0.63410794734954834,-0.31342592835426331,0,0.4839305579662323,0,0,0.38304567337036133,-0.14920175075531006,0,0,0,0,-0.28118500113487244,0,0,-0.45700731873512268,-0.28856849670410156,0,0,0,0,0.78533399105072021,0,0,0,-0.63198506832122803,0,0.96961331367492676,0,0,0.33226898312568665,0,-0.34874150156974792,0.60509359836578369,-0.373259037733078,0,0,0,0,1,0,0,0,0,0,-0.09782930463552475,0,-0.28085035085678101,0,0.39536470174789429,0,0,0,0,-0.27587422728538513,0,0.30166220664978027,0,0,0,0,0,-0.38093045353889465,0,-0.41116535663604736,0.59494531154632568,0,-0.048592984676361084,0,0,0,0,-0.16732220351696014,0,0,-0.47587478160858154,-0.44712686538696289,0,-0.42686858773231506,0.021363934502005577,0.46945729851722717,1,0.2839207649230957,0,-0.42500624060630798,0,0.48739874362945557,0,0,-0.5202178955078125,0,0,-0.77458250522613525,-0.64172089099884033,-0.39534562826156616,0,-0.26710650324821472,0,0,0,-0.42763137817382812,0.34827843308448792,-0.16007161140441895,-0.96870362758636475,0,0,0.25929632782936096,0.49731427431106567,0,-0.84126740694046021,0,-0.29087024927139282,0,0,0,0,0,-0.82767927646636963,0,0.76495718955993652,0,0.48464909195899963,-0.34106388688087463,0,0.11482898145914078,0,0,0.61310422420501709,0.39814770221710205,0.038625180721282959,0.36645042896270752,0.42214789986610413,0,0,0,0,0.84253370761871338,-0.24538421630859375,0.088452190160751343,-0.40291783213615417,0.46250182390213013,-0.47183799743652344,0,0.63100719451904297,0.31925031542778015,0,0.25431028008460999,0,0,0,-0.35304218530654907,-0.45613166689872742,0.25383549928665161,0,0.30535650253295898,-0.81794536113739014,0.46946975588798523,-0.4274154007434845,0,0,0.62144362926483154,0.84732627868652344,0,0,0,-0.079334855079650879,0.33863729238510132,0,0,0.46055695414543152,-0.28545993566513062,0.35288107395172119,0.42016968131065369,-0.49712255597114563,0,0.36136111617088318,0,0,0,-0.47819557785987854,0,-0.31005895137786865,0.77568817138671875,0,0,0,-0.26261523365974426,-0.47728496789932251,0.32318812608718872,0.49288490414619446,0,-0.0074337916448712349,0,0,0.091596484184265137,0.30128493905067444,0,0.30921560525894165,0,0.14178983867168427,0,0,0.31725221872329712,-0.37459596991539001,0.4624248743057251,-0.34656664729118347,0,0,0.25159415602684021,0,0,0,0,-0.38204666972160339,-0.46076500415802002,0,0,0,0,0.34843093156814575,-0.71094763278961182,0,0,0,0,0.29319953918457031,0,0,0,0.59147930145263672,0,0,0,0.8265373706817627,0,0.024327576160430908,0.47406682372093201,0,0,0,0.33475020527839661,-0.060655713081359863,0,0.4471001923084259,0.27089571952819824,0,0,0.42690655589103699,0.73645412921905518,0,0,0,0.38555091619491577,0,0,0,0,-0.49733254313468933,0,0.26084375381469727,0,-0.33845531940460205,0.49258837103843689,0.16867870092391968,-0.18106365203857422,0,0.84680378437042236,0.48169785737991333,0,0,-0.95799911022186279,0,0.42575371265411377,-0.56733024120330811,0.35768520832061768,0.13177615404129028,0.30157220363616943,0.40251585841178894,-0.012844684533774853,-0.20231503248214722,0,0.46143054962158203,-0.44628345966339111,-0.30361732840538025,-0.88888013362884521,-0.72278714179992676,0,0,-0.37080225348472595,-0.93768012523651123,-0.46980640292167664,0,0,0,0,-0.017105221748352051,0,0,0.46426695585250854,-0.18958304822444916,0.65412223339080811,-0.90000450611114502,0,0,0,0,0,0,-0.34612342715263367,0,0,0,0,0.065600275993347168,-0.42745089530944824,-0.40562662482261658,0,0,0,0,-0.35589930415153503,0,0,0,0.016834497451782227,0.48647588491439819,0.87478417158126831,0,0,-1,0,0,0.73117327690124512,0.6458325982093811,0,0,0,-0.31765466928482056,0,0,0,0,0,0,0,0,0,0,0,-0.48428526520729065,-0.595100998878479,0,0.48744478821754456,0,0,-0.28438535332679749,-0.85717093944549561,0,0.42436978220939636,0.25999116897583008,0,-0.25056776404380798,0,1,-0.98485314846038818,0.49304333329200745,0,0,-0.14401018619537354,1,0,0,0,0.48782619833946228,-0.42252945899963379,0,0.37971380352973938,0.4493623673915863,0,0,0,0,-0.4141845703125,0,0,0,0,0,0.21231484413146973,0.22711455821990967,0,0.34198227524757385,0,-0.34298226237297058,-0.41656798124313354,0,0,0,0,0.46311637759208679,-0.12503990530967712,0,0,0.017797231674194336,0,0,0.26828914880752563,-0.039448022842407227,0,0,0,-0.33814868330955505,-0.21156913042068481,-0.34694012999534607,0,-0.19027161598205566,0,0.47727304697036743,0.039614103734493256,-0.30386573076248169,0,0.60809403657913208,0],[0,-0.10315043479204178,0,-0.027058124542236328,-0.29956036806106567,0,0.64448899030685425,-0.42189797759056091,-0.58489084243774414,-0.0177566297352314,-0.0086140194907784462,0,0.45013031363487244,-0.21470783650875092,0,0,0.32326841354370117,-0.69684398174285889,0,-0.12855422496795654,0.78566747903823853,0.74935483932495117,-0.36813417077064514,0,0.025309789925813675,0,0,0,0,0.32188978791236877,0.59199213981628418,-0.54307955503463745,0.4390522837638855,0,0,-0.36569201946258545,0,0,-0.59170824289321899,-0.18544948101043701,0,0.84161221981048584,-0.72971069812774658,0.13817039132118225,0.12014146149158478,0.40229928493499756,-0.087278246879577637,0.73364406824111938,0.28162980079650879,-0.31147885322570801,0.44426345825195312,-0.48499378561973572,0.13001665472984314,-0.4698852002620697,-0.30106496810913086,0.43968707323074341,0.61656594276428223,0.47194588184356689,0,-0.60580605268478394,-1,0.43568006157875061,0.37654325366020203,-0.58911716938018799,0.59513479471206665,-0.70021617412567139,0,0.87178581953048706,-0.713675856590271,-0.70384109020233154,0,0.37879973649978638,0.151161789894104,0.30702352523803711,-0.43481814861297607,-0.73167139291763306,0,-0.33273756504058838,0.43085366487503052,0,-0.51640582084655762,-0.011195819824934006,0.38809680938720703,0.039658598601818085,0.92508292198181152,-0.050795596092939377,0,1,0.07905307412147522,0.53688895702362061,0,-0.11649607121944427,0,-0.10260164737701416,0,0.68467652797698975]],"id":"BF31209E-FA65-4F05-9A42-52C79BD378E9","generation":30,"inputCount":30,"hiddenCount":16,"outputCount":6},
{"biases":[[],[0.35268908739089966,-1,0.31703668832778931,1,-0.0045429468154907227,-0.35473179817199707,-1,0.73249995708465576,-0.36232912540435791,0.50797152519226074,0.35891085863113403,0.52441924810409546,1,-0.43615901470184326,0.42495748400688171,0.47966551780700684],[-0.32880645990371704,-0.16889327764511108,-0.67644363641738892,0.54410243034362793,0.92077624797821045,-0.65382134914398193]],"marker1":true,"weights":[[],[0,0,0.3234637975692749,-0.50837504863739014,-0.024964148178696632,0,0,0,0.47597268223762512,0,0,0,-0.34717094898223877,0.37368199229240417,0.18423393368721008,0,0,-0.053449034690856934,0.39227670431137085,0,0,-0.030390277504920959,0,0.45071843266487122,-0.25715932250022888,0,0,0.36396816372871399,0,0.18235576152801514,0,0.34306502342224121,-0.74057620763778687,0,0.40402713418006897,-0.33774414658546448,0.977028489112854,0,0,-0.84964132308959961,0.39050641655921936,0,0.051014065742492676,0.26655113697052002,-0.17322158813476562,-0.083112485706806183,-0.52715921401977539,-0.013359771110117435,0,0,0.49389010667800903,-0.72400426864624023,0,-0.32921314239501953,-0.14051361382007599,0.45391562581062317,0.38697150349617004,0.63410794734954834,-0.31342592835426331,0,0.4839305579662323,0,0,0.38304567337036133,-0.14920175075531006,0,0,0,0,-0.28118500113487244,0,0,-0.45700731873512268,-0.28856849670410156,0,0,0,0,0.78533399105072021,0,0,0,-0.63198506832122803,0,0.96961331367492676,0,0,0.33226898312568665,0,-0.34874150156974792,0.60509359836578369,-0.373259037733078,0,0,0,0,1,0,0,0,0,0,-0.09782930463552475,0,-0.28085035085678101,0,0.39536470174789429,0,0,0,0,-0.27587422728538513,0,0.30166220664978027,0,0,0,0,0,-0.38093045353889465,0,-0.41116535663604736,0.59494531154632568,0,-0.048592984676361084,0,0,0,0,-0.16732220351696014,0,0,-0.47587478160858154,-0.44712686538696289,0,-0.42686858773231506,0.021363934502005577,0.46945729851722717,1,0.2839207649230957,0,-0.42500624060630798,0,0.48739874362945557,0,0,-0.5202178955078125,0,0,-0.77458250522613525,-0.64172089099884033,-0.39534562826156616,0,-0.26710650324821472,0,0,0,-0.42763137817382812,0.34827843308448792,-0.16007161140441895,-0.96870362758636475,0,0,0.25929632782936096,0.49731427431106567,0,-0.84126740694046021,0,-0.29087024927139282,0,0,0,0,0,-0.82767927646636963,0,0.76495718955993652,0,0.48464909195899963,-0.34106388688087463,0,0.11482898145914078,0,0,0.61310422420501709,0.39814770221710205,0.038625180721282959,0.36645042896270752,0.42214789986610413,0,0,0,0,0.84253370761871338,-0.24538421630859375,0.088452190160751343,0,0.46250182390213013,-0.47183799743652344,0,0.63100719451904297,0.31925031542778015,0,0.25431028008460999,0,0,0,-0.35304218530654907,-0.45613166689872742,0.25383549928665161,0,0.30535650253295898,-0.81794536113739014,0.46946975588798523,-0.4274154007434845,0,0,0.62144362926483154,0.84732627868652344,0,0,0,-0.079334855079650879,0.33863729238510132,0,0,0.46055695414543152,-0.28545993566513062,0.35288107395172119,0.42016968131065369,-0.49712255597114563,0,0.36136111617088318,0,0,0,-0.47819557785987854,0,-0.31005895137786865,0.77568817138671875,0,0,0,-0.26261523365974426,-0.47728496789932251,0.32318812608718872,0.49288490414619446,0,-0.0074337916448712349,0,0,0.091596484184265137,0.30128493905067444,0,0.30921560525894165,0,0.14178983867168427,0,0,0.31725221872329712,-0.37459596991539001,0.4624248743057251,-0.34656664729118347,0,0,0.25159415602684021,0,0,0,0,-0.38204666972160339,-0.46076500415802002,0,0,0,0,0.34843093156814575,-0.71094763278961182,0,0,0,0,0.29319953918457031,0,0,0,0.59147930145263672,0,0,0,0.8265373706817627,0,0.024327576160430908,0.47406682372093201,0,0,0,0.33475020527839661,-0.060655713081359863,0,0.4471001923084259,0.27089571952819824,0,0,0.42690655589103699,0.73645412921905518,0,0,0,0.38555091619491577,0,0,0,0,-0.49733254313468933,0,0.26084375381469727,0,-0.33845531940460205,0.49258837103843689,0.16867870092391968,0,0,0.84680378437042236,0.48169785737991333,0,0,-0.95799911022186279,0,0.42575371265411377,-0.56733024120330811,0.35768520832061768,0.13177615404129028,0.30157220363616943,0.40251585841178894,-0.012844684533774853,-0.20231503248214722,0,0.46143054962158203,-0.44628345966339111,-0.30361732840538025,-0.88888013362884521,-0.72278714179992676,0,0,-0.37080225348472595,-0.93768012523651123,-0.46980640292167664,0,0,0,0,0.61112546920776367,0,0,0.46426695585250854,-0.18958304822444916,0.65412223339080811,-0.90000450611114502,0,0,0,0,0,0,-0.34612342715263367,0,0,0,0,0.065600275993347168,-0.42745089530944824,-0.40562662482261658,0,0,0,0,-0.35589930415153503,0,0,0,0.016834497451782227,0.48647588491439819,0.87478417158126831,0,0,-1,0,0,0.73117327690124512,0.6458325982093811,0,0,0,-0.31765466928482056,0,0,0,0,0,0,0,0,0,0,0,-0.48428526520729065,-0.595100998878479,0,0.48744478821754456,0,0,-0.28438535332679749,-0.85717093944549561,0,0.42436978220939636,0.25999116897583008,0,-0.25056776404380798,0,1,-0.98485314846038818,0.49304333329200745,0,0,-0.14401018619537354,1,0,0,0,0.48782619833946228,-0.42252945899963379,0,0.37971380352973938,0.4493623673915863,0,0,0,0,-0.4141845703125,0,0,0,0,0,0.21231484413146973,0.22711455821990967,0,0.34198227524757385,0,-0.34298226237297058,-0.41656798124313354,0,0,0,0,0.46311637759208679,-0.12503990530967712,0,0,0.017797231674194336,0,0,0.26828914880752563,-0.039448022842407227,0,0,0,-0.33814868330955505,-0.21156913042068481,-0.34694012999534607,0,-0.19027161598205566,0,0.47727304697036743,0.039614103734493256,-0.30386573076248169,0,0.60809403657913208,0],[0,-0.10315043479204178,0,-0.027058124542236328,0.10852302610874176,0,0.64448899030685425,-0.42189797759056091,-0.58489084243774414,-0.0177566297352314,-0.0086140194907784462,0,0.45013031363487244,-0.21470783650875092,0,0,0.32326841354370117,-0.69684398174285889,0,-0.12855422496795654,0.78566747903823853,0.74935483932495117,0.077002115547657013,0,0.025309789925813675,0,0,0,0,0.32188978791236877,0.59199213981628418,-0.54307955503463745,0.4390522837638855,0,0,-0.36569201946258545,0,0,-0.59170824289321899,-0.18544948101043701,0,1,-0.72971069812774658,0.13817039132118225,0.12014146149158478,0.40229928493499756,-0.087278246879577637,0.73364406824111938,0.28162980079650879,-0.31147885322570801,0.44426345825195312,-0.48499378561973572,0.13001665472984314,-0.4698852002620697,-0.30106496810913086,0.43968707323074341,0.61656594276428223,0.47194588184356689,0,-0.60580605268478394,-1,0.43568006157875061,0.37654325366020203,-0.58911716938018799,0.59513479471206665,-0.70021617412567139,0,0.87178581953048706,-0.713675856590271,-0.70384109020233154,0,0.37879973649978638,0.58362579345703125,-0.14855723083019257,-0.43481814861297607,-0.73167139291763306,0,-0.33273756504058838,0.43085366487503052,0,-0.51640582084655762,-0.011195819824934006,0.38809680938720703,0.039658598601818085,0.92508292198181152,-0.050795596092939377,0,1,0.07905307412147522,0.53688895702362061,0,-0.11649607121944427,0,-0.10260164737701416,0,0.68467652797698975]],"id":"B90DD61F-B83E-4556-B5DD-A079B326DB2E","generation":29,"inputCount":30,"hiddenCount":16,"outputCount":6},
{"biases":[[],[0.35268908739089966,-1,0.31703668832778931,0.5,-0.0045429468154907227,-1,-1,0.73249995708465576,-0.36232912540435791,0.50797152519226074,0.35891085863113403,0.52441924810409546,1,-0.43615901470184326,0.42495748400688171,0.47966551780700684],[-0.32880645990371704,-0.16889327764511108,-1,0.54410243034362793,-0.61554902791976929,-0.65382134914398193]],"marker1":true,"weights":[[],[0,0,0.3234637975692749,-0.50837504863739014,-0.024964148178696632,0,0,0,0.47597268223762512,0,0,0,-0.34717094898223877,0.37368199229240417,0.18423393368721008,0,0,-0.053449034690856934,0.39227670431137085,0,0,-0.030390277504920959,0,0.45071843266487122,-0.25715932250022888,0,0,0.36396816372871399,0,0.18235576152801514,0,0.34306502342224121,-0.74057620763778687,0,0,-0.33774414658546448,0.977028489112854,0,0,-0.84964132308959961,0.39050641655921936,0,0.051014065742492676,0.26655113697052002,-0.17322158813476562,-0.083112485706806183,-0.52715921401977539,-0.013359771110117435,0,0,0.49389010667800903,-0.72400426864624023,0,-0.32921314239501953,-0.14051361382007599,0.45391562581062317,0.38697150349617004,0.63410794734954834,-0.31342592835426331,0,0.4839305579662323,0,0,0.38304567337036133,-0.14920175075531006,0,0,0,0,-0.28118500113487244,0,0,-0.45700731873512268,-0.28856849670410156,0,0,0,0,0.78533399105072021,0,0,0,-0.63198506832122803,0,0.96961331367492676,0,0,0.33226898312568665,0,0.004692902322858572,0.60509359836578369,-0.373259037733078,0,0,0,0,1,0,0,0,0,0,-0.09782930463552475,0,-0.28085035085678101,0,0.39536470174789429,0,0,0,0,-0.27587422728538513,0,0.30166220664978027,0,0,0,0,0,-0.38093045353889465,0,-0.41116535663604736,0.59494531154632568,0,-0.048592984676361084,0,0,0,0,0.290699303150177,0,-0.25150993466377258,-0.47587478160858154,-0.44712686538696289,0,-0.42686858773231506,0.021363934502005577,0.46945729851722717,1,0.2839207649230957,0,-0.42500624060630798,0,0.48739874362945557,0,0,0,0,0,-0.77458250522613525,-0.64172089099884033,-0.39534562826156616,0,-0.26710650324821472,0,0,0,-0.42763137817382812,0.34827843308448792,-0.16007161140441895,-0.96870362758636475,0,0,0.25929632782936096,0.49731427431106567,0,-0.84126740694046021,0,-0.29087024927139282,0,0,0,0,0,-0.82767927646636963,0,0.76495718955993652,0,0.48464909195899963,-0.34106388688087463,0,0.11482898145914078,0,0,0.61310422420501709,0.39814770221710205,0.038625180721282959,0.36645042896270752,0.42214789986610413,0,0,0,0,0.84253370761871338,-0.24538421630859375,0.088452190160751343,0,0.46250182390213013,-0.47183799743652344,0,0.63100719451904297,0.31925031542778015,0,0.25431028008460999,0,0,0,-0.35304218530654907,-0.45613166689872742,0.25383549928665161,0,0.30535650253295898,-0.81794536113739014,0.46946975588798523,-0.4274154007434845,0,0,0.62144362926483154,0.5188022255897522,0,0,0,-0.079334855079650879,0.33863729238510132,0,0,0.46055695414543152,-0.28545993566513062,0.35288107395172119,0.42016968131065369,-0.49712255597114563,0,0.36136111617088318,0,0,0,-0.47819557785987854,0,-0.31005895137786865,0.77568817138671875,0,0,0,-0.26261523365974426,-0.47728496789932251,0,0.49288490414619446,0,-0.0074337916448712349,0,0,0.091596484184265137,0.30128493905067444,0,0.30921560525894165,0,0.14178983867168427,0,0,0.31725221872329712,-0.37459596991539001,0.4624248743057251,-0.34656664729118347,0,0,0.1257970780134201,0,0,0,0,-0.39505159854888916,-0.46076500415802002,0,0,0,0,0.34843093156814575,-0.71094763278961182,0,0.45708110928535461,0,0,0.29319953918457031,0,0,0,0.59147930145263672,0,0,0,0.8265373706817627,0,0.024327576160430908,0.47406682372093201,0,0,0,0.33475020527839661,-0.060655713081359863,0,0.4471001923084259,0.27089571952819824,0,0,0.42690655589103699,0.73645412921905518,0,0,0,0.38555091619491577,0,0,0,0,-0.49733254313468933,0,0.26084375381469727,0,-0.33845531940460205,0.49258837103843689,0.16867870092391968,0,0,0.84680378437042236,0.48169785737991333,0,0,-0.95799911022186279,0,0.42575371265411377,-0.56733024120330811,0.35768520832061768,0.13177615404129028,0.30157220363616943,0.40251585841178894,-0.012844684533774853,-0.20231503248214722,0,0.46143054962158203,-0.44628345966339111,-0.30361732840538025,-0.88888013362884521,-0.72278714179992676,0,0,-0.37080225348472595,-0.93768012523651123,0,0,0,0,0,-0.017105221748352051,0,0,0.46426695585250854,-0.18958304822444916,0.65412223339080811,-0.90000450611114502,0,0,0,0,0,0,-0.34612342715263367,0,0,0,0,0.065600275993347168,-0.42745089530944824,-0.40562662482261658,0,0,0,0,-0.35589930415153503,0,0,0,0.016834497451782227,0.48647588491439819,0.87478417158126831,0,0,-1,0.38849544525146484,0,0.73117327690124512,0.6458325982093811,0,0,0,-0.31765466928482056,0,0,0,0,0,0,0,0,0,0,0,-0.48428526520729065,-0.595100998878479,0,0.48744478821754456,0,0,-0.28438535332679749,-0.85717093944549561,0,0.42436978220939636,0.25999116897583008,0,-0.25056776404380798,0,1,-0.98485314846038818,0.49304333329200745,0,0,-0.14401018619537354,1,0,0,0,0.48782619833946228,-0.42252945899963379,0,0.76939517259597778,0.4493623673915863,0,0,0,0,-0.4141845703125,0,0,0,0,0,0.21231484413146973,0.22711455821990967,0,0.34198227524757385,0,-0.34298226237297058,-0.41656798124313354,0,0,0,0,0.46311637759208679,-0.12503990530967712,0,0,0.017797231674194336,0,0,0.26828914880752563,-0.039448022842407227,0,0,0,-0.33814868330955505,-0.21156913042068481,-0.34694012999534607,0,-0.19027161598205566,0,0.47727304697036743,0.039614103734493256,-0.30386573076248169,0,0.60809403657913208,0],[0,-0.10315043479204178,0,-0.013529062271118164,0.10852302610874176,0,0.64448899030685425,-0.42189797759056091,-0.58489084243774414,-0.0177566297352314,-0.0086140194907784462,0,0.45013031363487244,-0.21470783650875092,0,0,0.32326841354370117,-0.69684398174285889,0,-0.12855422496795654,0.78566747903823853,0.74935483932495117,-0.36813417077064514,0,0.025309789925813675,-0.32607933878898621,0,0,0,0.32188978791236877,0.59199213981628418,-0.54307955503463745,0.4390522837638855,0,0,-0.36569201946258545,0,0,-0.59170824289321899,-0.18544948101043701,0,0.84161221981048584,-0.72971069812774658,0.13817039132118225,0.12014146149158478,0.40229928493499756,-0.087278246879577637,0.73364406824111938,0.28162980079650879,-0.31147885322570801,0.44426345825195312,-0.48499378561973572,0.13001665472984314,-0.4698852002620697,-0.30106496810913086,0.43968707323074341,0.61656594276428223,0.47194588184356689,0,-0.60580605268478394,-1,0.43568006157875061,0.37654325366020203,-0.58911716938018799,0.59513479471206665,-0.70021617412567139,0,0.87178581953048706,-0.713675856590271,-0.70384109020233154,0,0.37879973649978638,0.58362579345703125,0.30702352523803711,-0.43481814861297607,-0.73167139291763306,0,-0.33273756504058838,0.43085366487503052,0,-0.51640582084655762,-0.011195819824934006,0.38809680938720703,0.039658598601818085,0.92508292198181152,-0.050795596092939377,0,1,0.07905307412147522,0.53688895702362061,0,-0.11649607121944427,0,-0.10260164737701416,0,0.68467652797698975]],"id":"12CB7133-2E08-4434-8912-763526EA062A","generation":30,"inputCount":30,"hiddenCount":16,"outputCount":6},
{"biases":[[],[0.35268908739089966,-1,0.31703668832778931,0.5,-0.0045429468154907227,-1,-1,0.73249995708465576,-0.36232912540435791,0.50797152519226074,0.35891085863113403,0.52441924810409546,1,-0.43615901470184326,0.42495748400688171,0.47966551780700684],[-0.32880645990371704,-0.16889327764511108,-1,0.54410243034362793,-0.61554902791976929,-0.65382134914398193]],"marker1":true,"weights":[[],[0,0,0.3234637975692749,-0.50837504863739014,-0.024964148178696632,0,0,0,0.47597268223762512,0,0,0,-0.34717094898223877,0.37368199229240417,0.18423393368721008,0,0,-0.053449034690856934,0.39227670431137085,0,0,-0.030390277504920959,0,0.45071843266487122,-0.25715932250022888,0,0,0.36396816372871399,0,0.18235576152801514,0,0.34306502342224121,-0.74057620763778687,0,0,-0.33774414658546448,0.977028489112854,0,0,-0.84964132308959961,0.39050641655921936,0,0.051014065742492676,0.26655113697052002,-0.17322158813476562,-0.083112485706806183,-0.52715921401977539,-0.013359771110117435,0,0,0.49389010667800903,-0.72400426864624023,0,-0.32921314239501953,-0.14051361382007599,0.45391562581062317,0.38697150349617004,0.63410794734954834,-0.31342592835426331,0,0.4839305579662323,0,0,0.38304567337036133,-0.14920175075531006,0,0,0,0,-0.28118500113487244,0,0,-0.45700731873512268,-0.28856849670410156,0,0,0,0,0.78533399105072021,0,0,0,-0.63198506832122803,0,0.96961331367492676,0,0,0.33226898312568665,0,0.004692902322858572,0.60509359836578369,-0.373259037733078,0,0,0,0,1,0,0,0,0,0,-0.09782930463552475,0,-0.28085035085678101,0,0.39536470174789429,0,0,0,0,-0.27587422728538513,0,0.30166220664978027,0,0,0,0,0,-0.38093045353889465,0,-0.41116535663604736,0.59494531154632568,0,-0.048592984676361084,0,0,0,0,0.290699303150177,0,-0.25150993466377258,-0.47587478160858154,-0.44712686538696289,0,-0.42686858773231506,0.021363934502005577,0.46945729851722717,1,0.2839207649230957,0,-0.42500624060630798,0,0.48739874362945557,0,0,0,0,0,-0.77458250522613525,-0.64172089099884033,-0.39534562826156616,0,-0.26710650324821472,0,0,0,-0.42763137817382812,0.34827843308448792,-0.16007161140441895,-0.96870362758636475,0,0,0.25929632782936096,0.49731427431106567,0,-0.44999843835830688,0,-0.29087024927139282,0,0,0,0,0,-0.82767927646636963,0,0.76495718955993652,0,0.48464909195899963,-0.34106388688087463,0,0.11482898145914078,0,0,0.61310422420501709,0.39814770221710205,0.038625180721282959,0.36645042896270752,0.42214789986610413,0,0,0,0,0.84253370761871338,-0.24538421630859375,0.088452190160751343,0,0.46250182390213013,-0.47183799743652344,0,0.63100719451904297,0.31925031542778015,0,0.25431028008460999,0,0,0,-0.35304218530654907,-0.45613166689872742,0.25383549928665161,0,0.30535650253295898,-0.81794536113739014,0.46946975588798523,-0.4274154007434845,0,0,0.62144362926483154,0.5188022255897522,0,0,0,-0.079334855079650879,0.33863729238510132,0,0,0.46055695414543152,-0.28545993566513062,0.35288107395172119,0.42016968131065369,-0.49712255597114563,0,0.36136111617088318,0,0,0,-0.47819557785987854,0,-0.31005895137786865,0.77568817138671875,0,0,0,-0.26261523365974426,-0.47728496789932251,0,0.49288490414619446,0,-0.0074337916448712349,0,0,0.091596484184265137,0.30128493905067444,0,0.30921560525894165,0,0.14178983867168427,0,0,0.31725221872329712,-0.37459596991539001,0.4624248743057251,-0.34656664729118347,0,0,0.1257970780134201,0,0,0,0,-0.39505159854888916,-0.46076500415802002,0,0,0,0,0.34843093156814575,-0.71094763278961182,0,0.45708110928535461,0,0,0.29319953918457031,0,0,0,0.59147930145263672,0,0,0,0.8265373706817627,0,0.024327576160430908,0.47406682372093201,0,0,0,0.33475020527839661,-0.060655713081359863,0,0.4471001923084259,0.27089571952819824,0,0,0.42690655589103699,0.73645412921905518,0,0,0,0.38555091619491577,0,0,0,0,-0.49733254313468933,0,0.26084375381469727,0,-0.33845531940460205,0.49258837103843689,0.16867870092391968,0,0,0.84680378437042236,0.48169785737991333,0,0,-0.95799911022186279,0,0.42575371265411377,-0.56733024120330811,0.35768520832061768,0.13177615404129028,0.30157220363616943,0.40251585841178894,-0.012844684533774853,-0.20231503248214722,0,0.46143054962158203,-0.44628345966339111,-0.30361732840538025,-0.88888013362884521,-0.72278714179992676,0,0,-0.37080225348472595,-0.93768012523651123,0,0,0,0,0,-0.017105221748352051,0,0,0.46426695585250854,-0.18958304822444916,0.65412223339080811,-0.90000450611114502,0,0,0,-0.4771750271320343,0,0,-0.34612342715263367,0,0,0,0,0.065600275993347168,-0.42745089530944824,-0.40562662482261658,0,0,0,0,-0.35589930415153503,0,0,0,0.016834497451782227,0.48647588491439819,0.87478417158126831,0,0,-1,0.38849544525146484,0,0.73117327690124512,0.6458325982093811,0,0,0,-0.31765466928482056,0,0,0,0,0,0,0,0,0,0,0,-0.48428526520729065,-0.595100998878479,0,0.48744478821754456,0,0,-0.28438535332679749,-0.85717093944549561,0,0.42436978220939636,0.25999116897583008,0,-0.25056776404380798,0,1,-0.98485314846038818,0.49304333329200745,0,0,-0.14401018619537354,1,0,0,0,0.48782619833946228,-0.42252945899963379,0,0.76939517259597778,0.4493623673915863,0,0,0,0,-0.4141845703125,0,0,0,0,0,0.21231484413146973,0.22711455821990967,0,0.34198227524757385,0,-0.34298226237297058,-0.41656798124313354,0,0,0,0,0.46311637759208679,-0.12503990530967712,0,0,0.017797231674194336,0,0,0.26828914880752563,-0.039448022842407227,0,0,0,-0.33814868330955505,-0.21156913042068481,-0.34694012999534607,0,-0.19027161598205566,0,0.47727304697036743,0.039614103734493256,-0.30386573076248169,0,0.60809403657913208,0],[0,-0.10315043479204178,0,-0.013529062271118164,0.10852302610874176,0,0.24770297110080719,-0.42189797759056091,-0.58489084243774414,-0.0177566297352314,-0.0086140194907784462,0,0.45013031363487244,-0.21470783650875092,0,0,0.32326841354370117,-0.69684398174285889,0,-0.12855422496795654,0.78566747903823853,0.74935483932495117,-0.36813417077064514,0,0.025309789925813675,-0.32607933878898621,0,0,0,0.32188978791236877,0.59199213981628418,-0.54307955503463745,0.4390522837638855,0,0,-0.36569201946258545,0,0,-0.59170824289321899,-0.18544948101043701,0,0.84161221981048584,-0.72971069812774658,0.13817039132118225,0.12014146149158478,0.40229928493499756,-0.087278246879577637,0.73364406824111938,0.28162980079650879,-0.31147885322570801,0.44426345825195312,-0.48499378561973572,0.13001665472984314,-0.4698852002620697,-0.30106496810913086,0.43968707323074341,0.61656594276428223,0.47194588184356689,0,-0.60580605268478394,-1,0.43568006157875061,0.37654325366020203,-0.58911716938018799,0.59513479471206665,-0.70021617412567139,0,0.87178581953048706,-0.713675856590271,-0.70384109020233154,0,0.37879973649978638,0.58362579345703125,0.30702352523803711,-0.43481814861297607,-0.73167139291763306,0,-0.33273756504058838,0.43085366487503052,0,-0.51640582084655762,-0.011195819824934006,0.38809680938720703,0.039658598601818085,0.92508292198181152,-0.050795596092939377,0,1,0.07905307412147522,0.53688895702362061,0,-0.11649607121944427,0,-0.10260164737701416,0,0.68467652797698975]],"id":"3FA5A2B9-A9E8-4C6E-B451-7B9DE23AC49A","generation":31,"inputCount":30,"hiddenCount":16,"outputCount":6},
{"biases":[[],[0.35268908739089966,-1,0.31703668832778931,0.5,-0.0045429468154907227,-1,-1,0.73249995708465576,-0.36232912540435791,0.81086283922195435,0.35891085863113403,0.52441924810409546,1,-0.43615901470184326,0.42495748400688171,0.47966551780700684],[-0.32880645990371704,-0.16889327764511108,-1,0.54410243034362793,-0.61554902791976929,-0.65382134914398193]],"marker1":false,"weights":[[],[0,0,0.3234637975692749,-0.50837504863739014,-0.024964148178696632,0,0,0,0.47597268223762512,0,0,0,-0.34717094898223877,0.37368199229240417,0.18423393368721008,0,0,-0.053449034690856934,0.39227670431137085,0,0,-0.030390277504920959,0,0.45071843266487122,-0.25715932250022888,0,0,0.36396816372871399,0,0.18235576152801514,0,0.34306502342224121,-0.74057620763778687,0,0,-0.33774414658546448,0.977028489112854,0,0,-0.84964132308959961,0.39050641655921936,0,0.051014065742492676,0.26655113697052002,-0.17322158813476562,-0.083112485706806183,-0.52715921401977539,-0.013359771110117435,0,0,0.49389010667800903,-0.72400426864624023,0,-0.32921314239501953,-0.14051361382007599,0.45391562581062317,0.38697150349617004,0.63410794734954834,-0.31342592835426331,0,0.4839305579662323,0,0,0.38304567337036133,-0.14920175075531006,0,0,0,0,-0.28118500113487244,0,0,-0.45700731873512268,-0.28856849670410156,0,0,0,0,0.78533399105072021,0,0,0,-0.63198506832122803,0,0.96961331367492676,0,0,0.33226898312568665,0,-0.34874150156974792,0.60509359836578369,-0.373259037733078,0,0,0,0,1,0,0,0,0,0,-0.09782930463552475,0,-0.28085035085678101,0,0.39536470174789429,0,0,0,0,-0.27587422728538513,0,0.30166220664978027,0,0,0,0,0,-0.38093045353889465,0,-0.41116535663604736,0.59494531154632568,0,-0.048592984676361084,0,0,0,0,0.290699303150177,0,0,-0.47587478160858154,-0.44712686538696289,0,-0.42686858773231506,0.021363934502005577,0.46945729851722717,1,0.2839207649230957,0,-0.42500624060630798,0,0.48739874362945557,0,0,0,0,0,-0.77458250522613525,-0.64172089099884033,-0.39534562826156616,0,-0.26710650324821472,0,0,0,-0.42763137817382812,0.34827843308448792,-0.16007161140441895,-0.96870362758636475,0,0,0.25929632782936096,0.49731427431106567,0,-0.84126740694046021,0,-0.29087024927139282,0,0,0,0,0,-0.82767927646636963,0,0.76495718955993652,0,0.48464909195899963,-0.34106388688087463,0,0.11482898145914078,0,0,0.61310422420501709,0.39814770221710205,0.038625180721282959,0.36645042896270752,0.42214789986610413,0,0,0,0,0.84253370761871338,-0.24538421630859375,0.088452190160751343,0,0.46250182390213013,-0.47183799743652344,0,0.63100719451904297,0.31925031542778015,0,0.25431028008460999,0,-0.36879393458366394,0,-0.35304218530654907,-0.45613166689872742,0.25383549928665161,0,0.30535650253295898,-0.81794536113739014,0.46946975588798523,-0.4274154007434845,0,0,0.62144362926483154,0.5188022255897522,0,0,0,-0.079334855079650879,0.33863729238510132,0,0,0.46055695414543152,-0.28545993566513062,0.35288107395172119,0.42016968131065369,-0.49712255597114563,0,0.36136111617088318,0,0,0,-0.47819557785987854,0,-0.31005895137786865,0.77568817138671875,0,0,0,-0.26261523365974426,-0.47728496789932251,0,0.49288490414619446,0,-0.0074337916448712349,0,0,0.091596484184265137,0.30128493905067444,0,0.30921560525894165,0,0.14178983867168427,0,0,0.31725221872329712,-0.37459596991539001,0.4624248743057251,-0.34656664729118347,0,0,0.25159415602684021,0,0,0,0,-0.39505159854888916,-0.46076500415802002,0,0,0,0,0.34843093156814575,-0.71094763278961182,0,0.45708110928535461,0,0,0.29319953918457031,0,0,0,0.59147930145263672,0,0,0,0.8265373706817627,0,0.024327576160430908,0.47406682372093201,0,0,0,0.33475020527839661,-0.060655713081359863,0,0.4471001923084259,0.27089571952819824,0,0,0.42690655589103699,0.73645412921905518,0,0,0,0.38555091619491577,0,0,0,0,-0.49733254313468933,0,0.26084375381469727,0,-0.33845531940460205,0.49258837103843689,0.16867870092391968,0,0,0.84680378437042236,0.48169785737991333,0,0,-0.95799911022186279,0,0.42575371265411377,-0.56733024120330811,0.35768520832061768,0.13177615404129028,0.30157220363616943,0.40251585841178894,-0.012844684533774853,-0.20231503248214722,0,0.46143054962158203,-0.44628345966339111,-0.30361732840538025,-0.88888013362884521,-0.72278714179992676,0,0,-0.37080225348472595,-0.93768012523651123,0,0,0,0,0,-0.017105221748352051,0,0,0.46426695585250854,-0.18958304822444916,0.65412223339080811,-0.90000450611114502,0,0,0,0,0,0,-0.34612342715263367,0,0,0,0,0.065600275993347168,-0.42745089530944824,-0.40562662482261658,0,0,0,0,-0.35589930415153503,0,0,0,0.016834497451782227,0.48647588491439819,0.87478417158126831,0,0,-1,0.38849544525146484,0,0.73117327690124512,0.6458325982093811,0,0,0,-0.31765466928482056,0,0,0,0,0,0,0,0,0,0,0,-0.48428526520729065,-0.595100998878479,0,0.48744478821754456,0,0,-0.28438535332679749,-0.85717093944549561,0,0.42436978220939636,0.25999116897583008,0,-0.25056776404380798,0,1,-0.98485314846038818,0.49304333329200745,0,0,-0.14401018619537354,1,0,0,0,0.48782619833946228,-0.42252945899963379,0,0.76939517259597778,0.4493623673915863,0,0,0,0,-0.4141845703125,0,0,0,0,0,0.21231484413146973,0.22711455821990967,0,0.34198227524757385,0,-0.34298226237297058,-0.41656798124313354,0,0,0,0,0.46311637759208679,-0.12503990530967712,0,0,0.017797231674194336,0,0,0.26828914880752563,-0.039448022842407227,0,0,0,-0.33814868330955505,-0.21156913042068481,-0.34694012999534607,0,-0.19027161598205566,0,0.47727304697036743,0.039614103734493256,-0.30386573076248169,0,0.60809403657913208,0],[0,-0.10315043479204178,0,-0.013529062271118164,0.10852302610874176,0,0.64448899030685425,-0.42189797759056091,-0.58489084243774414,-0.0177566297352314,-0.0086140194907784462,0,0.45013031363487244,-0.21470783650875092,0,0,0.32326841354370117,-0.69684398174285889,0,-0.12855422496795654,0.78566747903823853,0.74935483932495117,-0.36813417077064514,0,0.025309789925813675,-0.32607933878898621,0,0,0,0.32188978791236877,0.59199213981628418,-0.54307955503463745,0.4390522837638855,0,0,-0.36569201946258545,0,0,-0.59170824289321899,-0.18544948101043701,0,0.84161221981048584,-0.72971069812774658,0.13817039132118225,0.12014146149158478,0.40229928493499756,-0.087278246879577637,0.73364406824111938,0.28162980079650879,-0.31147885322570801,0.44426345825195312,-0.48499378561973572,0.13001665472984314,-0.4698852002620697,-0.30106496810913086,0.43968707323074341,0.61656594276428223,0.47194588184356689,0,-0.60580605268478394,-1,0.43568006157875061,0.37654325366020203,-0.58911716938018799,0.59513479471206665,-0.70021617412567139,0,0.87178581953048706,-0.713675856590271,-0.70384109020233154,0,0.37879973649978638,0.58362579345703125,0.30702352523803711,-0.43481814861297607,-0.73167139291763306,0,-0.33273756504058838,0.43085366487503052,0,-0.51640582084655762,-0.011195819824934006,0.38809680938720703,0.039658598601818085,0.92508292198181152,-0.050795596092939377,0,1,0.07905307412147522,0.53688895702362061,0,-0.11649607121944427,0,-0.10260164737701416,0,0.68467652797698975]],"id":"D49D21EA-5B59-4777-8E0C-6BE9C4FA69FD","generation":31,"inputCount":30,"hiddenCount":16,"outputCount":6},
{"biases":[[],[0.35268908739089966,-0.81432425975799561,0.31703668832778931,1,-0.036664862185716629,-1,-1,0.37098985910415649,-0.36232912540435791,-0.92574155330657959,0.35891085863113403,0.52441924810409546,1,-0.43615901470184326,0.42495748400688171,-1],[-0.32880645990371704,-0.16889327764511108,-1,0.54410243034362793,-0.61554902791976929,-0.65382134914398193]],"marker1":true,"weights":[[],[0,0,0.3234637975692749,-0.50837504863739014,-0.024964148178696632,0,0,0,0.47597268223762512,0,0,0,-0.34717094898223877,0.37368199229240417,0.18423393368721008,0,0,-0.053449034690856934,0.39227670431137085,0,0,-0.030390277504920959,0,0.45071843266487122,-0.25715932250022888,0,0,0.36396816372871399,0,0.18235576152801514,0,0.34306502342224121,-0.74057620763778687,0,0,-0.33774414658546448,0.977028489112854,0,0,-0.84964132308959961,0.39050641655921936,0,0.051014065742492676,0.26655113697052002,-0.17322158813476562,-0.083112485706806183,-0.52715921401977539,-0.013359771110117435,0,0,0.49389010667800903,-0.72400426864624023,0,-0.32921314239501953,-0.14051361382007599,0.45391562581062317,0.38697150349617004,0.63410794734954834,-0.31342592835426331,0,0.4839305579662323,0,0,0.38304567337036133,-0.14920175075531006,0,0,0,0,-0.28118500113487244,0,0,-0.45700731873512268,-0.28856849670410156,0,0,-0.43491074442863464,0,0.78533399105072021,0,0,0,-0.63198506832122803,0,0.96961331367492676,0,0,0.33226898312568665,0,-0.34874150156974792,0.60509359836578369,-0.373259037733078,0,0,0,0,1,0,0,0,0,0,-0.09782930463552475,0,-0.28085035085678101,0,0.39536470174789429,0,0,0,0,-0.27587422728538513,0,0.30166220664978027,0,0,0,0,0,-0.38093045353889465,0,-0.41116535663604736,0.59494531154632568,0,-0.048592984676361084,0,0,0,0,0.290699303150177,0,0,-0.47587478160858154,-0.44712686538696289,0,-0.42686858773231506,0.021363934502005577,0.46945729851722717,1,-0.024818545207381248,0,-0.42500624060630798,0,0.48739874362945557,0,0,0,0,0,-0.77458250522613525,-0.64172089099884033,-0.39534562826156616,0,-0.26710650324821472,0,0,0,-0.42763137817382812,0.34827843308448792,-0.16007161140441895,-0.96870362758636475,-0.60877740383148193,0,0.25929632782936096,0.49731427431106567,0,-0.84126740694046021,0,-0.29087024927139282,0,0,0,0,0,-0.82767927646636963,0,0,0,0.48464909195899963,-0.34106388688087463,0,0.11482898145914078,0,0,0.61310422420501709,0.39814770221710205,-0.28840160369873047,0.36645042896270752,0.42214789986610413,0,0,0,0,0.84253370761871338,-0.24538421630859375,0.088452190160751343,0,0.46250182390213013,-0.47183799743652344,0,0.63100719451904297,0.31925031542778015,0,0.25431028008460999,0,0,0,-0.35304218530654907,-0.45613166689872742,0.25383549928665161,0,0.30535650253295898,0,0.46946975588798523,-0.4274154007434845,0,0,0.62144362926483154,0.84732627868652344,0,0,0,-0.079334855079650879,0.33863729238510132,0,0,0.46055695414543152,-0.28545993566513062,0.35288107395172119,0.42016968131065369,-0.49712255597114563,0,0.36136111617088318,0,0,0,-0.47819557785987854,0,-0.31005895137786865,0.77568817138671875,0,0,0,-0.26261523365974426,-0.47728496789932251,0.29266270995140076,0.49288490414619446,0,-0.01486758328974247,0,0,0.091596484184265137,0.30128493905067444,0,0.62500840425491333,0,0.14178983867168427,0,0,0.31725221872329712,-0.37459596991539001,0.4624248743057251,-0.34656664729118347,0,0,0,0,0,0,0,-0.79010319709777832,-0.46076500415802002,0,0,0,0,0.34843093156814575,-0.71094763278961182,0,0,0,0,0.29319953918457031,0,0,0,0.59147930145263672,0,0,0,0.8265373706817627,0,0.024327576160430908,0.47406682372093201,0,0,0,0.33475020527839661,-0.060655713081359863,0,0.4471001923084259,0.27089571952819824,0,0,0.42690655589103699,0.73645412921905518,0,0,0,0.38555091619491577,0,0,0,0,-0.49733254313468933,0,0.26084375381469727,0,-0.33845531940460205,0,0.16867870092391968,0,0,0.84680378437042236,0.48169785737991333,0,0,-0.95799911022186279,0,0.42575371265411377,0.41051256656646729,0.35768520832061768,-0.27545374631881714,0.30157220363616943,0.40251585841178894,-0.012844684533774853,-0.20231503248214722,0,0.46143054962158203,-0.44628345966339111,-0.30361732840538025,-0.88888013362884521,-0.72278714179992676,0,0,-0.37080225348472595,-0.93768012523651123,0,-0.49530708789825439,0,0,0,0.29536214470863342,0,0,0.46426695585250854,-0.18958304822444916,0.65412223339080811,-0.90000450611114502,0,0,0.34179916977882385,0,0,0,-0.69224685430526733,0,0,0,0,0.065600275993347168,-0.42745089530944824,-0.40562662482261658,0,0,0,0,-0.35589930415153503,-0.93725574016571045,0,0,0.016834497451782227,0.48647588491439819,0.87478417158126831,0,0,-1,0,0.26368701457977295,0.73117327690124512,0.6458325982093811,0,0,0,-0.31765466928482056,0,0,0.34329229593276978,0,0,0,0,0,0,0,0,-0.48428526520729065,-0.595100998878479,0,0.48744478821754456,0,0,-0.28438535332679749,-0.85717093944549561,0,0.42436978220939636,0.25999116897583008,0,-0.25056776404380798,0,1,-0.98485314846038818,0.49304333329200745,0,0,-0.14401018619537354,1,0,0,0,0,-0.42252945899963379,0,0.37971380352973938,0.4493623673915863,0,0,0,0,-0.4141845703125,0,0,0,0,0,0.21231484413146973,0.22711455821990967,0,0.34198227524757385,0,-0.34298226237297058,-0.41656798124313354,0,0,0,0,0,-0.12503990530967712,0,0,0.017797231674194336,0,0,0.26828914880752563,-0.039448022842407227,0,0,0,-0.33814868330955505,-0.21156913042068481,-0.34694012999534607,0,-0.19027161598205566,0,0.47727304697036743,0.039614103734493256,-0.30386573076248169,0,0.60809403657913208,0],[0,-0.74267208576202393,0,0,0.10852302610874176,0,0.64448899030685425,-1,-0.58489084243774414,-0.0177566297352314,-0.0086140194907784462,-0.49761307239532471,0.45013031363487244,-0.21470783650875092,0,0,0.32326841354370117,-0.69684398174285889,0,-0.12855422496795654,0.78566747903823853,0.74935483932495117,-0.36813417077064514,0,0.025309789925813675,0,0,0,0,0.32188978791236877,0.32270076870918274,-0.54307955503463745,0.4390522837638855,0,0,-0.36569201946258545,0,0,-0.59170824289321899,-0.18544948101043701,0,1,-0.72971069812774658,0.13817039132118225,0.39423820376396179,0.40229928493499756,-0.087278246879577637,0.73364406824111938,0.72446513175964355,-0.31147885322570801,0.44426345825195312,-0.48499378561973572,0.13001665472984314,-0.4698852002620697,-0.30106496810913086,0.43968707323074341,0.61656594276428223,0.46034321188926697,0,-0.62851178646087646,-1,0.43568006157875061,0.37654325366020203,-0.58911716938018799,0.59513479471206665,-0.70021617412567139,0,0.87178581953048706,-0.713675856590271,-0.70384109020233154,0,0.37879973649978638,0.58362579345703125,0.30702352523803711,-0.43481814861297607,-0.73167139291763306,0,-0.33273756504058838,0.43085366487503052,0,-0.51640582084655762,-0.011195819824934006,0.38809680938720703,0.039658598601818085,0.92508292198181152,-0.050795596092939377,0,0.5,0.07905307412147522,0.53688895702362061,0,-0.11649607121944427,0,-0.10260164737701416,0,0.68467652797698975]],"id":"AE1BB15E-15C3-49D3-979B-97008F01ED2D","generation":29,"inputCount":30,"hiddenCount":16,"outputCount":6},
{"biases":[[],[0.35268908739089966,-0.81432425975799561,0.31703668832778931,1,-0.0045429468154907227,-1,-1,0.37098985910415649,-0.36232912540435791,0.50797152519226074,0.35891085863113403,0.52441924810409546,1,-0.43615901470184326,0.42495748400688171,0.47966551780700684],[-0.32880645990371704,-0.16889327764511108,-1,0.27205121517181396,0.00056069687707349658,-0.65382134914398193]],"marker1":false,"weights":[[],[0,0,0.3234637975692749,-0.50837504863739014,-0.049928296357393265,0,0,0,0.47597268223762512,0,0,0,-0.34717094898223877,0.37368199229240417,0.18423393368721008,0,0,-0.053449034690856934,0.39227670431137085,0,0,-0.030390277504920959,0,0.45071843266487122,-0.25715932250022888,0,0,0.36396816372871399,0,0.18235576152801514,0,0.34306502342224121,-0.74057620763778687,0,0,-0.33774414658546448,0.977028489112854,0,0,-0.84964132308959961,0.39050641655921936,0,0.051014065742492676,0.26655113697052002,-0.17322158813476562,-0.083112485706806183,-0.52715921401977539,-0.013359771110117435,0,0,0.49389010667800903,-0.72400426864624023,0,-0.32921314239501953,-0.14051361382007599,0.45391562581062317,0.38697150349617004,0.63410794734954834,-0.31342592835426331,0,0.4839305579662323,0,0,0.38304567337036133,-0.14920175075531006,0,0,0,0,-0.28118500113487244,0,0,-0.45700731873512268,-0.28856849670410156,0,0,0,0,0.78533399105072021,0,0,0,-0.63198506832122803,0,0.96961331367492676,0,0,0.33226898312568665,0,-0.34874150156974792,0.60509359836578369,-0.373259037733078,0,0,0,0,1,0,0,0,0,0,-0.09782930463552475,0,-0.28085035085678101,0,0.39536470174789429,0,0,0,0,-0.27587422728538513,0,0.30166220664978027,0,0,0,0,0,-0.38093045353889465,0,-0.41116535663604736,0.59494531154632568,0,-0.048592984676361084,0,0,0,0,0.290699303150177,0,0,-0.47587478160858154,-0.44712686538696289,0,-0.42686858773231506,0.021363934502005577,0.46945729851722717,1,0.2839207649230957,0,-0.42500624060630798,0,0.48739874362945557,0,0,0,0,0,-0.77458250522613525,-0.64172089099884033,-0.39534562826156616,0,-0.26710650324821472,0,0,0,-0.42763137817382812,0.34827843308448792,-0.16007161140441895,-0.96870362758636475,0,0,0.25929632782936096,0.49731427431106567,0,-0.84126740694046021,0,-0.29087024927139282,0,0,0,0,0,-0.82767927646636963,0,0.76495718955993652,0,0.48464909195899963,-0.17053194344043732,0,0.11482898145914078,0,0,0.61310422420501709,0.39814770221710205,0.038625180721282959,0.36645042896270752,0.42214789986610413,0,0,0,0.4070860743522644,0.84253370761871338,-0.24538421630859375,0.088452190160751343,0,0.46250182390213013,-0.47183799743652344,0,0.63100719451904297,0.31925031542778015,0,0.25431028008460999,0,0,0,-0.35304218530654907,-0.45613166689872742,0.25383549928665161,0,0.30535650253295898,0,0.46946975588798523,-0.4274154007434845,0,0,0.62144362926483154,0.84732627868652344,0,0,0.2876211404800415,-0.079334855079650879,0.33863729238510132,0,0,0.46055695414543152,-0.28545993566513062,0.35288107395172119,0.42016968131065369,-0.49712255597114563,0,0.36136111617088318,0,0,0,-0.47819557785987854,0,-0.31005895137786865,0.77568817138671875,0,0,0,-0.26261523365974426,-0.47728496789932251,0,0.49288490414619446,0,-0.0074337916448712349,0,0,0.091596484184265137,0.30128493905067444,0,0.30921560525894165,0,0.14178983867168427,0,0,0.31725221872329712,-0.37459596991539001,0.4624248743057251,-0.34656664729118347,0,0,0.25159415602684021,0,0,0,0,-0.79010319709777832,-0.46076500415802002,0,0,0,0,0.6873089075088501,-0.71094763278961182,0,0,0,0,0.29319953918457031,0,0,0,0.59147930145263672,0,0,0,0.8265373706817627,0,0.024327576160430908,0.47406682372093201,0,0,0,0.33475020527839661,-0.060655713081359863,0,0.4471001923084259,0.27089571952819824,0,0,0.42690655589103699,0.73645412921905518,0,0,0,0.38555091619491577,0,0,0,0,-0.49733254313468933,0,0.26084375381469727,0,-0.33845531940460205,0.49258837103843689,0.62884330749511719,0,0,0.84680378437042236,0.48169785737991333,0,0,-0.95799911022186279,0,0.42575371265411377,-0.56733024120330811,0.35768520832061768,0.13177615404129028,0.30157220363616943,0.40251585841178894,-0.012844684533774853,-0.20231503248214722,0,0.46143054962158203,-0.44628345966339111,-0.30361732840538025,-0.88888013362884521,-0.72278714179992676,0,0,-0.37080225348472595,-0.93768012523651123,0,0,0,0,0,-0.017105221748352051,0,0,0.46426695585250854,-0.18958304822444916,0.65412223339080811,-0.90000450611114502,0,0,0,0,0,0,-0.34612342715263367,0,0,0,0,0.065600275993347168,-0.42745089530944824,-0.40562662482261658,0,0,0,0,-0.35589930415153503,0,0,0,0.016834497451782227,0.48647588491439819,0.87478417158126831,0,0,-1,0,0,0.73117327690124512,0.6458325982093811,0,0,0,-0.31765466928482056,0,0,0,0,0,0,0,0,0,0,0,-0.48428526520729065,-0.595100998878479,0,0.48744478821754456,0,0,-0.28438535332679749,-0.85717093944549561,0,0.42436978220939636,0.25999116897583008,0,0.013780951499938965,0,1,-0.98485314846038818,0.49304333329200745,0,0,-0.14401018619537354,1,0,0,0,0.48782619833946228,-0.42252945899963379,0,0.37971380352973938,0.4493623673915863,0,0,0,0,-0.4141845703125,0,0,0,0,0,0.21231484413146973,0.22711455821990967,0,0.34198227524757385,0,-0.34298226237297058,-0.41656798124313354,0,0,0,0,0.46311637759208679,-0.12503990530967712,0,0,0.017797231674194336,0,0,0.26828914880752563,-0.039448022842407227,0,0,0,-0.33814868330955505,-0.21156913042068481,-0.34694012999534607,0,-0.19027161598205566,0,0.47727304697036743,0.039614103734493256,-0.30386573076248169,0,0.60809403657913208,0],[-0.4224335253238678,-0.10315043479204178,0,0,0.10852302610874176,0,0.64448899030685425,-0.42189797759056091,-1,-0.0177566297352314,-0.0086140194907784462,0,0.45013031363487244,-0.21470783650875092,0,0,0.32326841354370117,-0.69684398174285889,0,-0.25710844993591309,0.78566747903823853,0.74935483932495117,-0.36813417077064514,0,0.025309789925813675,0,0,0,0,0.32188978791236877,0.59199213981628418,-0.54307955503463745,0.4390522837638855,0,0,-0.36569201946258545,0,0,-0.59170824289321899,-0.18544948101043701,0,0.84161221981048584,-0.72971069812774658,0.13817039132118225,0.12014146149158478,0.40229928493499756,-0.087278246879577637,0.73364406824111938,0.28162980079650879,-0.31147885322570801,0.44426345825195312,-0.48499378561973572,0.13001665472984314,-0.4698852002620697,-0.30106496810913086,0.43968707323074341,0.61656594276428223,0.47194588184356689,0,-0.60580605268478394,-0.93098986148834229,0.43568006157875061,0.37654325366020203,-0.34415721893310547,0.2558857798576355,-0.70021617412567139,0,0.87178581953048706,-0.713675856590271,-0.70384109020233154,0,0.37879973649978638,0.58362579345703125,0.30702352523803711,-0.43481814861297607,-0.73167139291763306,0,-0.33273756504058838,0.43085366487503052,0,-0.51640582084655762,-0.011195819824934006,0.38809680938720703,0.039658598601818085,0.92508292198181152,-0.050795596092939377,0,1,0.07905307412147522,0.53688895702362061,0,-0.11649607121944427,0,-0.10260164737701416,0.42499333620071411,0.68467652797698975]],"id":"1814BA43-1F41-42DF-8F61-7EAE633BE34A","generation":30,"inputCount":30,"hiddenCount":16,"outputCount":6},
{"biases":[[],[0.35268908739089966,-1,0.31703668832778931,1,-0.0045429468154907227,-1,-1,0.73249995708465576,-0.36232912540435791,0.50797152519226074,0.35891085863113403,0.52441924810409546,1,-0.87231802940368652,0.42495748400688171,0.47966551780700684],[-0.32880645990371704,-0.16889327764511108,-0.67644363641738892,0.54410243034362793,0.92077624797821045,-0.65382134914398193]],"marker1":true,"weights":[[],[0,0,0.3234637975692749,-0.50837504863739014,-0.024964148178696632,0,0,0,0.47597268223762512,0,0,0,-0.34717094898223877,0.37368199229240417,0.18423393368721008,0,0,-0.053449034690856934,0.39227670431137085,0,0,-0.030390277504920959,0,0.45071843266487122,-0.25715932250022888,0,0,0.36396816372871399,0,0.18235576152801514,0,0.34306502342224121,-0.74057620763778687,0,0.40402713418006897,-0.33774414658546448,0.977028489112854,0,0,-0.84964132308959961,0.39050641655921936,0,0.051014065742492676,0.26655113697052002,-0.17322158813476562,-0.083112485706806183,-0.52715921401977539,-0.013359771110117435,0,0,0.49389010667800903,-0.72400426864624023,0,-0.32921314239501953,-0.14051361382007599,0.45391562581062317,0.38697150349617004,0.63410794734954834,-0.31342592835426331,0,0.4839305579662323,0,0,0.38304567337036133,-0.14920175075531006,0,0,0,0,-0.28118500113487244,0,0,-0.45700731873512268,-0.28856849670410156,0,0,0,0,0.78533399105072021,0,0,0,-0.63198506832122803,0,0.96961331367492676,0,0,0.33226898312568665,0,-0.34874150156974792,0.60509359836578369,-0.373259037733078,0,0,0,0,1,0,0,0,0,0,-0.09782930463552475,0,-0.28085035085678101,0,0.39536470174789429,0,0,0,0,-0.27587422728538513,0,0.30166220664978027,0,0,0,0,0,-0.38093045353889465,0,-0.41116535663604736,0.59494531154632568,0,-0.048592984676361084,0,0,0,0,-0.16732220351696014,0,0,-0.47587478160858154,-0.44712686538696289,0,-0.42686858773231506,0.021363934502005577,0.46945729851722717,1,0.2839207649230957,0,-0.42500624060630798,0,0.48739874362945557,0,0,-0.5202178955078125,0,0,-0.77458250522613525,-0.64172089099884033,-0.39534562826156616,0,-0.26710650324821472,0,0,0,-0.42763137817382812,0.34827843308448792,-0.16007161140441895,-0.96870362758636475,0,0,0.25929632782936096,0.49731427431106567,0,-0.84126740694046021,0,-0.29087024927139282,0,0,0,0,0,-0.82767927646636963,0,0.76495718955993652,0,0.48464909195899963,-0.34106388688087463,0,0.11482898145914078,0,0,0.61310422420501709,0.39814770221710205,0.038625180721282959,0.36645042896270752,0.42214789986610413,0,0,0,0,0.84253370761871338,-0.24538421630859375,0.088452190160751343,-0.40291783213615417,0.46250182390213013,-0.47183799743652344,0,0.63100719451904297,0.31925031542778015,0,0.25431028008460999,0,0,0,-0.35304218530654907,-0.45613166689872742,0.25383549928665161,0,0.30535650253295898,-0.81794536113739014,0.46946975588798523,-0.4274154007434845,0,0,0.62144362926483154,0.84732627868652344,0,0,0,-0.079334855079650879,0.33863729238510132,0,0,0.46055695414543152,-0.28545993566513062,0.35288107395172119,0.42016968131065369,-0.49712255597114563,0,0.36136111617088318,0,0,0,-0.47819557785987854,0,-0.31005895137786865,0.77568817138671875,0,0,0,-0.26261523365974426,-0.47728496789932251,0.32318812608718872,0.49288490414619446,0,-0.0074337916448712349,0,0,0.091596484184265137,0.30128493905067444,0,0.30921560525894165,0,0.14178983867168427,0,0,0.31725221872329712,-0.37459596991539001,0.4624248743057251,-0.34656664729118347,0,0,0.25159415602684021,0,0,0,0,-0.38204666972160339,-0.46076500415802002,0,0,0,0,0.34843093156814575,-0.71094763278961182,0,0,0,0,0.29319953918457031,0,0,0,0.59147930145263672,0,0,0,0.8265373706817627,0,0.024327576160430908,0.47406682372093201,0,0,0,0.33475020527839661,-0.060655713081359863,0,0.4471001923084259,0.27089571952819824,0,0,0.42690655589103699,0.73645412921905518,0,0,0,0.38555091619491577,0,0,0,0,-0.49733254313468933,0,0.26084375381469727,0,-0.33845531940460205,0.49258837103843689,0.16867870092391968,0,0,0.84680378437042236,0.48169785737991333,0,0,-0.95799911022186279,0,0.42575371265411377,-0.56733024120330811,0.35768520832061768,0.13177615404129028,0.30157220363616943,0.40251585841178894,-0.012844684533774853,-0.20231503248214722,0,0.46143054962158203,-0.44628345966339111,-0.30361732840538025,-0.88888013362884521,-0.72278714179992676,0,0,-0.37080225348472595,-0.93768012523651123,-0.46980640292167664,0,0,0,0,-0.017105221748352051,0,0,0.46426695585250854,-0.18958304822444916,0.65412223339080811,-0.90000450611114502,0,0,0,0,0,0,-0.34612342715263367,0,0,0,0,0.065600275993347168,-0.42745089530944824,-0.40562662482261658,0,0,0,0,-0.35589930415153503,0,0,0,0.016834497451782227,0.48647588491439819,0.87478417158126831,0,0,-1,0,0,0.73117327690124512,0.6458325982093811,0,0,0,-0.31765466928482056,0,0,0,0,0,0,0,0,0,0,0,-0.48428526520729065,-0.595100998878479,0,0.48744478821754456,0,0,-0.28438535332679749,-0.85717093944549561,0,0.42436978220939636,0.25999116897583008,0,-0.25056776404380798,0,1,-0.98485314846038818,0.49304333329200745,0,0,-0.14401018619537354,1,0,0,0,0.48782619833946228,-0.42252945899963379,0,0.37971380352973938,0.4493623673915863,0,0,0,0,-0.4141845703125,0,0,0,0,0,0.21231484413146973,0.22711455821990967,0,0.34198227524757385,0,-0.34298226237297058,-0.41656798124313354,0,0,0,0,0.46311637759208679,-0.12503990530967712,0,0,0.017797231674194336,0,0,0.26828914880752563,-0.039448022842407227,0,0,0,-0.33814868330955505,-0.21156913042068481,-0.34694012999534607,0,-0.19027161598205566,0,0.47727304697036743,0.039614103734493256,-0.30386573076248169,0,0.60809403657913208,0],[0,-0.10315043479204178,0,-0.027058124542236328,0.10852302610874176,0,0.64448899030685425,-0.42189797759056091,-0.58489084243774414,-0.0177566297352314,-0.0086140194907784462,0,0.45013031363487244,-0.21470783650875092,0,0,0.32326841354370117,-0.69684398174285889,0,-0.12855422496795654,0.78566747903823853,0.74935483932495117,-0.36813417077064514,0,0.025309789925813675,0,0,0,0,0.32188978791236877,0.59199213981628418,-0.54307955503463745,0.4390522837638855,0,0,-0.36569201946258545,0,0,-0.59170824289321899,-0.18544948101043701,0,0.84161221981048584,-0.72971069812774658,0.13817039132118225,0.12014146149158478,0.40229928493499756,-0.087278246879577637,0.73364406824111938,0.28162980079650879,-0.31147885322570801,0.44426345825195312,-0.48499378561973572,0.13001665472984314,-0.4698852002620697,-0.30106496810913086,0.43968707323074341,0.61656594276428223,0.47194588184356689,0,-0.60580605268478394,-1,0.43568006157875061,0.37654325366020203,-0.58911716938018799,0.59513479471206665,-0.70021617412567139,0,0.87178581953048706,-0.713675856590271,-0.70384109020233154,0,0.37879973649978638,0.58362579345703125,0.30702352523803711,-0.43481814861297607,-0.73167139291763306,0,-0.33273756504058838,0.43085366487503052,0,-0.51640582084655762,-0.011195819824934006,0.38809680938720703,0.039658598601818085,0.92508292198181152,-0.050795596092939377,0,1,0.07905307412147522,0.53688895702362061,0,-0.11649607121944427,0,-0.10260164737701416,0,0.68467652797698975]],"id":"3D60D091-F59D-4BED-8327-9056B92716D7","generation":29,"inputCount":30,"hiddenCount":16,"outputCount":6},
