
[
{"marker2":false,"marker1":false,"weights":[[],[0.40994167327880859,0,0.45632869005203247,0,0,0,0,0.052278280258178711,0,-0.15534031391143799,0,0,-0.48147457838058472,-0.363238126039505,0,0,0,0,0,0,0,0.29515677690505981,0.36583346128463745,0,0,0.30289867520332336,0,0,-0.0033766292035579681,0,0.35386732220649719,0,0,0,0,0,0.19401216506958008,-0.4332909882068634,0,0.17968277633190155,0,0.33532527089118958,0,-0.25165534019470215,0,-0.20270287990570068,0,0,0,-0.31851059198379517,0,0,-0.45986327528953552,0,0,0,0,0,0,-0.41790735721588135,0,0,0,0,-0.36632141470909119,0,0,0,0,0,0,0.35208410024642944,0.83688843250274658,-0.073915958404541016,0.25809401273727417,0.071545839309692383,0,0.13436207175254822,-0.38097286224365234,0,-1,-0.30709376931190491,0,0,0,0.93782323598861694,0,0,0,0.41716122627258301,0,-0.46045860648155212,0.46251478791236877,0,0,0,0,0,0,-0.46570906043052673,0.34910082817077637,0,0,-0.40483734011650085,0,0,0,0,0,-0.1159704402089119,0,0.20255434513092041,0,0.054481983184814453,0,-0.061370968818664551,0,0,0.40472888946533203,-0.12581688165664673,0,0,0.44810247421264648,0,0,0,0,0.37592345476150513,-0.18413086235523224,-0.16082888841629028,0,0,0,0.18566286563873291,0,0,0,0,-0.35841435194015503,0,0,-0.45058143138885498,-0.40637028217315674,0.35713937878608704,0.42361545562744141,0.30315810441970825,0,0,0.47211423516273499,0,-0.68400144577026367,0,0,0.25479927659034729,0,0,0.39238786697387695,0.6516568660736084,-0.31787851452827454,0,0,0,0.38444074988365173,-0.20440419018268585,0.2673487663269043,0,0.33980205655097961,0,0.47169563174247742,0,0,-0.30126175284385681,-0.39354375004768372,0,-0.3946460485458374,0,0,0,0,0,0,0,0,0,0,0,0,0,0,0.43496543169021606,0,0,0.33939310908317566,0,0.68862009048461914,0,0,0,0,0.25396248698234558,-0.37375664710998535,0,0,0,0,0,0,0,0,0.40700966119766235,0,0.37195137143135071,0.87787020206451416,-0.36907386779785156,0,0,0,0.055069297552108765,-0.39782026410102844,0.48265564441680908,0.2814452052116394,0,0,0,-0.26969686150550842,0,-0.85149049758911133,0,0,0,-0.2888481616973877,0,-0.48049092292785645,0,0,-0.35652625560760498,0,0,0,0,-0.38530009984970093,0,-0.44197055697441101,0,0,-0.80106973648071289,0,0.051670722663402557,0,-0.41212403774261475,0,0,0,0,0,0,0,0,0.41348204016685486,0,0.76854610443115234,0,0.43010666966438293,0.99095070362091064,-0.48795226216316223,0,0,0,-0.9109649658203125,0,0,0,0,0.34665080904960632,0,-0.31904140114784241,0,0.48562201857566833,0,0,-0.27164697647094727,-0.45952638983726501,0,-0.17721232771873474,0,0,0.36010664701461792,0,-1,-0.25472337007522583,0,0,0,0,-0.28602921962738037,0.77310526371002197,0,0,0,0,0,-0.42166218161582947,-0.18316248059272766,0,0,0,0,0.31528937816619873,0,0,0,0.081602349877357483,0,0,-0.57303416728973389,-0.45345306396484375,-0.27875003218650818,0.25921154022216797,-0.40015935897827148,0.13335633277893066,0.49390897154808044,0,0,0,-0.30915895104408264,0,-0.59603035449981689,0.42118781805038452,0,-0.27848878502845764,-0.47336453199386597,-0.089833617210388184,-0.38829979300498962,0.40875214338302612,0,0,0,-0.49711519479751587,-0.42093667387962341,0.75392389297485352,-0.38346371054649353,0,0,0,0,0,0.53038352727890015,0,0,-0.25026041269302368,0,0],[0,0,-0.19762502610683441,0,-0.71869349479675293,0,-1,0,0.35392928123474121,0,0,-0.44618904590606689,0,0.3716130256652832,0,0,0,0,0.34177315235137939,0,-1,0.40474459528923035,0.46021339297294617,-0.29152396321296692,0,0.81897008419036865,0,0,-0.15942287445068359,-0.80062752962112427,0,0,0,0,0.46981179714202881,0,0,-0.026402255520224571,0,0,0.42866936326026917,-0.51509773731231689,-0.30299580097198486,0,-0.418387770652771,-0.28066638112068176,-0.43985438346862793,0,-1,0,0,0,0,0.28059375286102295,0.49399763345718384,0,0,0,-0.66619139909744263,0.15957629680633545,0,-0.49987947940826416,-0.46637231111526489,0,-0.97485601902008057,0.32988262176513672,0.99363327026367188,-0.48389109969139099,0,0.39534664154052734,0.68609404563903809,0,-0.37116563320159912,-0.36125028133392334,-0.38149565458297729,0,0,0.45554697513580322,0.27981901168823242,0,-0.43210527300834656,-0.33356553316116333,0,0,0.74229401350021362,0,0,0,0,0,0,0,0,0,-0.098721981048583984,0,0.34316110610961914,0,0,-1,0.11877907067537308,0,0,0.06208646297454834,0,0.90099692344665527,-0.90392804145812988,0,0,0,0,0,0,0.40908867120742798,0.81142336130142212,0.27318906784057617,0,0,0,0,-0.40505924820899963,-0.064185500144958496,-0.16136491298675537,0,0,-0.44113874435424805,0,-0.15763019025325775]],"id":"8DBBE3F4-2881-408B-84C9-C088B501D0B0","generation":81,"biases":[[],[0.15299634635448456,0.33804064989089966,0.039495740085840225,0.059478312730789185,0,-0.73070013523101807,-0.29809311032295227,0.055555101484060287,0.10627651214599609,-0.056544769555330276,-0.67967462539672852,0.50176644325256348,-0.44089782238006592,0,-1,-0.410666823387146],[-0.15921381115913391,0.16288077831268311,-1,0.24703449010848999,-0.23767195641994476,0,0.5,0.23527371883392334]],"inputCount":22,"hiddenCount":16,"outputCount":8},
{"marker2":false,"marker1":false,"weights":[[],[0.40994167327880859,0,0.45632869005203247,0,0,0,0,0.052278280258178711,0,-0.15534031391143799,0,0,-0.48147457838058472,-0.363238126039505,0,0.72500705718994141,0,0,0,0,0,0.29515677690505981,0.36583346128463745,0,0,0.30289867520332336,0,0,-0.0033766292035579681,0,0.35386732220649719,0,0,0,0,0,0.19401216506958008,-0.4332909882068634,0,0.17968277633190155,0,0.33532527089118958,0,-0.25165534019470215,0,-0.20270287990570068,0,0,0,-0.31851059198379517,0,0,-0.45986327528953552,0,0,0,0,0,0,-0.41790735721588135,0,0,0,0,-0.36632141470909119,0,0,0,0,0,0,0.35208410024642944,0.83688843250274658,0.42548555135726929,0,0.071545839309692383,0,0.13436207175254822,-0.38097286224365234,0,-1,-0.30709376931190491,0,0,0,1,0,0,0,0.41716122627258301,0,-0.46045860648155212,0.46251478791236877,0,0,0,0,0,0,-0.46570906043052673,0.34910082817077637,0,0,-0.40483734011650085,0,0.59032058715820312,0,0,0,-0.1159704402089119,0,0.20255434513092041,0,0.10896396636962891,0,-0.061370968818664551,0,0,0.40472888946533203,-0.12581688165664673,0,0,0.44810247421264648,0,0,0,0,0.37592345476150513,-0.18413086235523224,-0.16082888841629028,0,0,0,0.37132573127746582,0,0,0,0,-0.35841435194015503,0,0,-0.90116286277770996,-0.40637028217315674,0.35713937878608704,0,0.30315810441970825,-0.4638507068157196,0,0,0,-0.68400144577026367,0,0,0.25479927659034729,0,0,0.39238786697387695,0.6516568660736084,0,0,0,0,0.38444074988365173,-0.20440419018268585,0.2673487663269043,0,0.33980205655097961,0.66214752197265625,0.47169563174247742,0,0,-0.30126175284385681,0,0,-0.3946460485458374,0,0,0,0,0,-0.43489065766334534,-0.29467794299125671,0,0,0,0,0.48549896478652954,0,0,0.43496543169021606,0,0,0.33939310908317566,0,0.68862009048461914,0,0,-0.47282993793487549,0,0.25396248698234558,-0.37375664710998535,0,0,0,0,0,0,0,0,0.40700966119766235,0,0.37195137143135071,0.87787020206451416,-0.36907386779785156,0,0,0,0.055069297552108765,-0.39782026410102844,0.48265564441680908,0.2814452052116394,0,0,0,0,0,-0.42574524879455566,0,0,0,-0.2888481616973877,0,-0.48049092292785645,0,0,-0.35652625560760498,0,0,0,0,-0.38530009984970093,0,-0.44197055697441101,0,0,-0.80106973648071289,0,0.051670722663402557,0,0.0142209492623806,0,0,0,0,0,0,0,0,0.41348204016685486,0,0.40517371892929077,0,0.43010666966438293,0.99095070362091064,-0.48795226216316223,0,0,0,-0.9109649658203125,0,0,0,0,0,0,-0.31904140114784241,0,0.48562201857566833,0,0,-0.27164697647094727,-0.76938366889953613,0,-0.17721232771873474,0,0,0.36010664701461792,0,-1,0,0,0,0,0,-0.28602921962738037,0.77310526371002197,0,0,0,0,0,-0.42166218161582947,-0.36632496118545532,0,0,0,0,0.31528937816619873,0,-0.38216975331306458,0,0.081602349877357483,0,0,-0.57303416728973389,-0.45345306396484375,-0.27875003218650818,0.25921154022216797,-0.40015935897827148,0.13335633277893066,0.49390897154808044,0,0,0,-0.30915895104408264,0,-0.59603035449981689,0.42118781805038452,0,-0.27848878502845764,-0.95763528347015381,-0.089833617210388184,-0.38829979300498962,0.40875214338302612,0,0,0,-0.49711519479751587,-0.42093667387962341,0.75392389297485352,-0.38346371054649353,0.15393447875976562,0,0,0,0,0.53038352727890015,0,0,-0.25026041269302368,0,0],[0,0,-0.19762502610683441,0,-0.71869349479675293,0,-0.50898253917694092,0,0.35392928123474121,0,0,-0.44618904590606689,0,0.3716130256652832,0,0,-0.32632991671562195,-0.37253060936927795,0.34177315235137939,0,-1,0.40474459528923035,-0.92121052742004395,-0.29152396321296692,0,0.81897008419036865,0.47940778732299805,0,-0.079711437225341797,-0.80062752962112427,0,0,0,0,0.93962359428405762,0,0,-0.026402255520224571,0,0,0.42866936326026917,-0.51509773731231689,-0.30299580097198486,0,-0.418387770652771,-0.28066638112068176,-0.43985438346862793,0,-1,0,0.98718917369842529,-0.44780322909355164,0,0.28059375286102295,0.49399763345718384,0,0,0,-0.66619139909744263,0.15957629680633545,0,-0.49987947940826416,-0.46637231111526489,0,-0.97485601902008057,0.66848933696746826,0.99363327026367188,-0.48389109969139099,0,0.39534664154052734,0.68609404563903809,0,-0.37116563320159912,-0.36125028133392334,0,0,0,0.45554697513580322,0.27981901168823242,0,-0.43210527300834656,-0.33356553316116333,0,0,0.74229401350021362,-0.28037562966346741,0,0,0,0,0,0,0,0,-0.098721981048583984,0,0.34316110610961914,0,0,-1,0.11877907067537308,0,0,-0.17838656902313232,0,0.90099692344665527,-0.59952390193939209,0,0,-0.48274767398834229,0.54991292953491211,0,0,0.40908867120742798,0.81142336130142212,0.27318906784057617,0,0,0,0,-0.20252962410449982,-0.064185500144958496,-0.16136491298675537,0,0,-0.44113874435424805,0,-0.15763019025325775]],"id":"38131D89-9C9E-49CE-B12D-60A6F5A32637","generation":77,"biases":[[],[0.15299634635448456,0.77561146020889282,0.039495740085840225,0.059478312730789185,0,-0.73070013523101807,-0.29809311032295227,-0.33364534378051758,0.10627651214599609,-0.056544769555330276,-0.67967462539672852,0.50176644325256348,-0.44089782238006592,0,-0.81358802318572998,-0.16665451228618622],[0.1122891902923584,0.16288077831268311,-1,0.24703449010848999,-0.23767195641994476,0,0.15388278663158417,0.23527371883392334]],"inputCount":22,"hiddenCount":16,"outputCount":8},
{"marker2":false,"marker1":false,"weights":[[],[0.40994167327880859,0,0.45632869005203247,0,0,0,0,0.052278280258178711,0,-0.15534031391143799,0,0,-0.48147457838058472,-0.363238126039505,0,0,0,0,0,0,0,0.29515677690505981,0.36583346128463745,0,0,0.30289867520332336,0,0,-0.0033766292035579681,0,0.35386732220649719,0,0,0,0,0,0.19401216506958008,-0.4332909882068634,0,0.17968277633190155,0,0.33532527089118958,0,-0.25165534019470215,0,-0.20270287990570068,0,0,0,-0.31851059198379517,0,0,-0.45986327528953552,0,0,0,0,0,0,-0.41790735721588135,0,0,0,0,-0.36632141470909119,0,0,0,0,0,0,0.35208410024642944,0.83688843250274658,-0.073915958404541016,0.25809401273727417,0.071545839309692383,0,0.13436207175254822,-0.38097286224365234,0,-1,-0.30709376931190491,0,0,0,0.93782323598861694,0,0,0,0.41716122627258301,0,-0.46045860648155212,0.46251478791236877,0,0,0,0,0,0,-0.46570906043052673,0.34910082817077637,0,0,-0.40483734011650085,0,0,0,0,0,-0.1159704402089119,0,0.20255434513092041,0,0.054481983184814453,0,-0.061370968818664551,0,0,0.40472888946533203,-0.12581688165664673,0,0,0.44810247421264648,0,0,0,0,0.37592345476150513,-0.18413086235523224,-0.16082888841629028,0,0,0,0.18566286563873291,0,0,0,0,-0.35841435194015503,0,0,-0.45058143138885498,-0.40637028217315674,0.35713937878608704,0.42361545562744141,0.30315810441970825,0,0,0.47211423516273499,0,-0.68400144577026367,0,0,0.25479927659034729,0,0,0.39238786697387695,0.6516568660736084,-0.31787851452827454,0,0,0,0.38444074988365173,-0.20440419018268585,0.2673487663269043,0,0.33980205655097961,0,0.47169563174247742,0,0,-0.30126175284385681,-0.39354375004768372,0,-0.3946460485458374,0,0,0,0,0,0,0,0,0,0,0,0,0,0,0.43496543169021606,0,0,0.33939310908317566,0,0.68862009048461914,0,0,0,0,0.25396248698234558,-0.37375664710998535,0,0,0,0,0,0,0,0,0.40700966119766235,0,0.37195137143135071,0.87787020206451416,-0.36907386779785156,0,0,0,0.055069297552108765,-0.39782026410102844,0.48265564441680908,0.2814452052116394,0.11001050472259521,0,0,-0.26969686150550842,0,-0.85149049758911133,0,0,0,-0.2888481616973877,0,-0.48049092292785645,0,0,-0.35652625560760498,0,0,0,0,-0.38530009984970093,0,-0.44197055697441101,0,0,-0.80106973648071289,0,0.051670722663402557,0,-0.41212403774261475,0,0,0,0,0,0,0,0,0.41348204016685486,0,0.76854610443115234,0,0.43010666966438293,0.99095070362091064,-0.48795226216316223,0,0,0,-0.9109649658203125,0,0,0,0,0.34665080904960632,0,-0.31904140114784241,0,0.48562201857566833,0,0,-0.27164697647094727,-0.22976319491863251,0,-0.17721232771873474,0,0,0.36010664701461792,0,-1,-0.25472337007522583,0,0,0,0,-0.28602921962738037,0.77310526371002197,0,0,0,0,0,-0.42166218161582947,-0.18316248059272766,0,0,0,0,0.31528937816619873,0,0,0,0.081602349877357483,0,0,-0.57303416728973389,-0.45345306396484375,-0.27875003218650818,0.25921154022216797,-0.40015935897827148,0.13335633277893066,0.49390897154808044,0,0,0,-0.30915895104408264,0,-0.59603035449981689,0.42118781805038452,0,-0.27848878502845764,0,-0.089833617210388184,-0.38829979300498962,0.40875214338302612,0,0,0,-0.49711519479751587,-0.42093667387962341,0.75392389297485352,-0.38346371054649353,0,0,0,0,0,0.53038352727890015,0,0,-0.25026041269302368,0,0],[0,0,-0.19762502610683441,0,-0.71869349479675293,0,-1,0,0.35392928123474121,0,0,-0.44618904590606689,0,0.3716130256652832,0,0,0,0,0.34177315235137939,0,-1,0.40474459528923035,0.43215599656105042,-0.29152396321296692,0,0.81897008419036865,0,0,-0.15942287445068359,-0.80062752962112427,0,0,0,0,0.46981179714202881,0,0,-0.026402255520224571,0,0,0.42866936326026917,-0.51509773731231689,-0.30299580097198486,0,-0.418387770652771,-0.28066638112068176,-0.43985438346862793,0,-1,0,0,0,0,0.28059375286102295,0.49399763345718384,0,0,0,-0.66619139909744263,0.15957629680633545,0,-0.49987947940826416,-0.46637231111526489,0,-0.97485601902008057,0.32988262176513672,0.99363327026367188,-0.48389109969139099,0,0.39534664154052734,0.68609404563903809,0,-0.37116563320159912,-0.36125028133392334,-0.38149565458297729,0,0,0.45554697513580322,0.27981901168823242,0,-0.43210527300834656,-0.33356553316116333,0,0,0.74229401350021362,0,0,0,0,0,0,0,0,0,-0.098721981048583984,0,0.34316110610961914,0,0,-1,0.11877907067537308,0,0,0.06208646297454834,0,0.90099692344665527,-0.90392804145812988,0,0,0,0,0,0,0.40908867120742798,0.81142336130142212,0.27318906784057617,0,0,0,0,-0.40505924820899963,-0.064185500144958496,-0.16136491298675537,0,0,-0.44113874435424805,0,-0.15763019025325775]],"id":"B5705D08-2263-403B-863F-12848DC95642","generation":81,"biases":[[],[0.15299634635448456,0.33804064989089966,0.039495740085840225,0.059478312730789185,0,-0.73070013523101807,-0.29809311032295227,0.055555101484060287,0.10627651214599609,-0.056544769555330276,-0.67967462539672852,0.50176644325256348,-0.44089782238006592,0,-1,-0.410666823387146],[-0.15921381115913391,0.16288077831268311,-1,0.24703449010848999,-0.23767195641994476,0,0.5,0.23527371883392334]],"inputCount":22,"hiddenCount":16,"outputCount":8},
{"marker2":false,"marker1":false,"weights":[[],[0.40994167327880859,0,0.45632869005203247,0,0,0,0,0.052278280258178711,0,-0.15534031391143799,0,0,-0.48147457838058472,-0.363238126039505,0,0.72500705718994141,0,0,0,0,0,0.29515677690505981,0.36583346128463745,0,0,0.30289867520332336,0,0,-0.0033766292035579681,0,0.35386732220649719,0,0,0,0,0,0.19401216506958008,-0.4332909882068634,0,0.17968277633190155,0,0.33532527089118958,0,-0.25165534019470215,0,-0.20270287990570068,0,0,0,-0.66189074516296387,0,0,-0.45986327528953552,0,0,0,0,0,0,-0.41790735721588135,0,0,0,0,-0.36632141470909119,0,0,0,0,0,0,0.35208410024642944,0.83688843250274658,0.42548555135726929,0,0.071545839309692383,0,0.13436207175254822,-0.38097286224365234,0,-1,-0.30709376931190491,0,0,0,1,0,0,0,0.41716122627258301,0,-0.46045860648155212,0.46251478791236877,0,0,0,0,0,0,-0.46570906043052673,0.34910082817077637,0,0,-0.40483734011650085,0,0.59032058715820312,0,0,0,-0.1159704402089119,0,0.20255434513092041,0,0.10896396636962891,0,-0.061370968818664551,0,0,0.40472888946533203,-0.12581688165664673,0,0,0.44810247421264648,0,0,0,0,0.37592345476150513,-0.18413086235523224,-0.16082888841629028,0,0,0,0.37132573127746582,0,0,0,0,-0.35841435194015503,0,0,-0.90116286277770996,-0.40637028217315674,0.35713937878608704,0,0.30315810441970825,-0.4638507068157196,0,0,0,-0.68400144577026367,0,0,0.25479927659034729,0,0,0.39238786697387695,0.6516568660736084,0,0,0,0,0.38444074988365173,-0.20440419018268585,0.2673487663269043,0,0.33980205655097961,0.66214752197265625,0.47169563174247742,0,0,-0.30126175284385681,0,0,-0.3946460485458374,0,0,0,0,0,-0.43489065766334534,-0.29467794299125671,0,0,0,0,0.48549896478652954,0,0,0.43496543169021606,0,0,0.33939310908317566,0,0.68862009048461914,0,0,-0.47282993793487549,0,0.25396248698234558,-0.37375664710998535,0,0,0,0,0,0,0,0,0.40700966119766235,0,0.37195137143135071,0.87787020206451416,-0.36907386779785156,0,0,0,0.055069297552108765,-0.39782026410102844,0.48265564441680908,0.2814452052116394,0,0,0,0,0,-0.42574524879455566,0,0,0,-0.2888481616973877,0,-0.48049092292785645,-0.34746468067169189,0,-0.35652625560760498,0,0,0,0,-0.38530009984970093,0,-0.44197055697441101,0,0,-0.80106973648071289,0,0.051670722663402557,0,0.0142209492623806,0,0,0,0,0,0,0,0,0.41348204016685486,0,0.40517371892929077,0,0.43010666966438293,0.99095070362091064,-0.48795226216316223,0,0,0,-0.9109649658203125,0,0,0,0,0,0,-0.31904140114784241,0,0.48562201857566833,0,0,-0.27164697647094727,-0.76938366889953613,0,-0.17721232771873474,0,0,0.36010664701461792,0,-1,0,0,0,0,0,-0.28602921962738037,0.77310526371002197,0,0,0,0,0,-0.42166218161582947,-0.36632496118545532,0,0,0,0,0.31528937816619873,0,-0.38216975331306458,0,0.081602349877357483,0,0,-0.57303416728973389,-0.45345306396484375,-0.27875003218650818,0.25921154022216797,-0.40015935897827148,0.13335633277893066,0.49390897154808044,0,0,0,-0.30915895104408264,0,-0.59603035449981689,0.42118781805038452,0,-0.27848878502845764,-0.95763528347015381,-0.089833617210388184,-0.38829979300498962,0.40875214338302612,0,0,0,-0.49711519479751587,-0.42093667387962341,0.75392389297485352,-0.38346371054649353,0,0,0,0,0,0.53038352727890015,0,0,-0.25026041269302368,0,0],[0,0,-0.19762502610683441,0,-0.71869349479675293,0,-0.50898253917694092,0,0.35392928123474121,0,0,-0.44618904590606689,0,0.3716130256652832,0,0,-0.32632991671562195,-0.37253060936927795,0.34177315235137939,0,-1,0.40474459528923035,-0.92121052742004395,-0.29152396321296692,0,0.81897008419036865,0.47940778732299805,0,-0.079711437225341797,-0.80062752962112427,0,0,0,0,0.93962359428405762,0,0,-0.026402255520224571,0,0,0.42866936326026917,-0.51509773731231689,-0.30299580097198486,0,-0.418387770652771,-0.28066638112068176,-0.43985438346862793,0,-1,0,0.98718917369842529,-0.44780322909355164,0,0.28059375286102295,0.49399763345718384,0,0,0,-0.66619139909744263,0.15957629680633545,0,-0.49987947940826416,-0.46637231111526489,0,-0.97485601902008057,0.66848933696746826,0.99363327026367188,-0.48389109969139099,0,0.39534664154052734,0.68609404563903809,0,-0.37116563320159912,-0.36125028133392334,0,0,0,0.45554697513580322,0.27981901168823242,0,-0.43210527300834656,-0.33356553316116333,0,0,0.74229401350021362,-0.28037562966346741,0,0,0,0,0,0,0,0,-0.098721981048583984,0,0.34316110610961914,0,0,-1,0.11877907067537308,0,0,-0.17838656902313232,0,0.90099692344665527,-0.59952390193939209,0,0,-0.48274767398834229,0.54991292953491211,0,0,0.40908867120742798,0.81142336130142212,0.27318906784057617,0,0,0,0,-0.20252962410449982,-0.064185500144958496,0.18464937806129456,0,0,-0.44113874435424805,0,-0.15763019025325775]],"id":"74FCB340-4B1A-44A6-9305-A93A2B6010BD","generation":77,"biases":[[],[0.15299634635448456,0.77561146020889282,0.039495740085840225,0.059478312730789185,0,-0.73070013523101807,-0.29809311032295227,-0.33364534378051758,0.10627651214599609,-0.056544769555330276,-0.67967462539672852,0.50176644325256348,-0.44089782238006592,-0.49396809935569763,-0.81358802318572998,-0.16665451228618622],[0.1122891902923584,0.16288077831268311,-1,0.24703449010848999,-0.23767195641994476,0,0.15388278663158417,0.23527371883392334]],"inputCount":22,"hiddenCount":16,"outputCount":8},
{"marker2":false,"marker1":false,"weights":[[],[0.40994167327880859,0,0.45632869005203247,0,0,0,0,0.052278280258178711,0,-0.15534031391143799,0,0,-0.48147457838058472,-0.363238126039505,0,0,0,0,0,0,0,0.29515677690505981,0.36583346128463745,0,0,0.30289867520332336,0,0,-0.0033766292035579681,0,0.35386732220649719,0,0,0,0,0,0.19401216506958008,-0.4332909882068634,0,0.17968277633190155,0,0.33532527089118958,0,-0.25165534019470215,0,-0.20270287990570068,0,0,0,-0.31851059198379517,0,0,-0.45986327528953552,0,0,0,0,0,0,-0.41790735721588135,0,0,0,0,-0.36632141470909119,0,0,0,0,0,0,0.35208410024642944,1,-0.073915958404541016,0.25809401273727417,0.071545839309692383,0,0.13436207175254822,-0.38097286224365234,0,-1,-0.30709376931190491,0,0,0,0.93782323598861694,0,0,0,0.41716122627258301,0,-0.46045860648155212,0.46251478791236877,0,0,0,0,0,0,-0.46570906043052673,0.34910082817077637,0,0,-0.40483734011650085,0,0,0,0,0,-0.1159704402089119,0,0.20255434513092041,0,0.054481983184814453,0,-0.061370968818664551,0,0,0.40472888946533203,-0.12581688165664673,0,0,0.44810247421264648,0,0,0,0,0.37592345476150513,-0.18413086235523224,-0.16082888841629028,0,0,0,0.37132573127746582,0,0,0,0,-0.35841435194015503,0,0,-0.45058143138885498,-0.40637028217315674,0.35713937878608704,0,0.30315810441970825,0,0,0,0,-0.68400144577026367,0,0,0.25479927659034729,0,0,0.39238786697387695,0.6516568660736084,0,0,0.44824019074440002,0,0.38444074988365173,-0.20440419018268585,0.2673487663269043,0,0.33980205655097961,0,0.47169563174247742,0,0,-0.30126175284385681,-0.39354375004768372,0,-0.3946460485458374,0,0,0,0,0,0,0,0,0,0,0,0,0,0,0.43496543169021606,0,0,0.33939310908317566,0,0.68862009048461914,0,0,0,0,0.25396248698234558,-0.37375664710998535,0,0,0,0,0,0,0,0,0.40700966119766235,0,0.37195137143135071,0.87787020206451416,-0.36907386779785156,0,0,0,0.055069297552108765,-0.39782026410102844,0.48265564441680908,0.2814452052116394,0,0,0,-0.26969686150550842,0,-0.85149049758911133,0,0,0,-0.2888481616973877,0,-0.48049092292785645,0,0,-0.76646625995635986,0,0,0,0,-0.38530009984970093,0,-0.44197055697441101,0,0,-0.80106973648071289,0,0.051670722663402557,0,-0.41212403774261475,0,0,0,0,-0.54608011245727539,0,0,0,0.41348204016685486,0,0.76854610443115234,0,0.43010666966438293,0.99095070362091064,-0.48795226216316223,0,0,0,-0.9109649658203125,0,0,0,0,0.34665080904960632,0,-0.31904140114784241,0,0.48562201857566833,0,0,-0.27164697647094727,-0.45952638983726501,0,-0.17721232771873474,0,0,0.36010664701461792,0,-1,-0.25472337007522583,0,0,0,0,-0.28602921962738037,0.77310526371002197,0,0,0,0,0,-0.42166218161582947,-0.18316248059272766,0,0,0,0,0.31528937816619873,0,0,-0.16819727420806885,0.081602349877357483,0,0,-0.57303416728973389,-0.45345306396484375,-0.27875003218650818,0.25921154022216797,-0.40015935897827148,0.13335633277893066,0.49390897154808044,0,0,0,-0.30915895104408264,0,-0.59603035449981689,0.42118781805038452,0,-0.27848878502845764,0,-0.089833617210388184,-0.38829979300498962,0.40875214338302612,0,0,0,-0.49711519479751587,-0.42093667387962341,0.75392389297485352,-0.38346371054649353,0,0,0,0,0,0.53038352727890015,0,0,-0.25026041269302368,0,0],[0,0,-0.19762502610683441,0,-0.71869349479675293,0,-1,0,0.35392928123474121,0,0,-0.44618904590606689,0,0.3716130256652832,0,0,0,0,0.34177315235137939,0,-1,0.40474459528923035,0,-0.29152396321296692,0,0.81897008419036865,0,0,-0.15942287445068359,-0.80062752962112427,0,0,0,0,0.46981179714202881,0,0,-0.026402255520224571,0,0,0.42866936326026917,-0.51509773731231689,-0.30299580097198486,0,-0.418387770652771,-0.28066638112068176,-0.43985438346862793,0,-1,0,0,0,0,0.28059375286102295,0.49399763345718384,0,0,0,-0.66619139909744263,0.15957629680633545,0,-0.49987947940826416,-0.46637231111526489,0,-0.97485601902008057,0.32988262176513672,0.99363327026367188,-0.7584456205368042,0,0.39534664154052734,0.68609404563903809,0,-0.37116563320159912,-0.36125028133392334,-0.38149565458297729,0,0,0.45554697513580322,0.27981901168823242,0,-0.43210527300834656,-0.33356553316116333,0,0,0.37114700675010681,0,0,0,0,0,0,0,0,0,-0.098721981048583984,0,0.34316110610961914,0,0,-1,0.11877907067537308,0,0,0.06208646297454834,0,0.90099692344665527,-0.90392804145812988,0,0,0,0,-0.46987223625183105,0,0.40908867120742798,0.81142336130142212,0.27318906784057617,0,0,0,0,-0.40505924820899963,-0.064185500144958496,-0.16136491298675537,0,0,-0.44113874435424805,0,-0.15763019025325775]],"id":"5F05F592-8630-4A0B-9C3D-226E3D7814A3","generation":80,"biases":[[],[0.15299634635448456,0.33804064989089966,0.039495740085840225,0.059478312730789185,0,-0.73070013523101807,-0.29809311032295227,0.055555101484060287,0.10627651214599609,-0.056544769555330276,-0.67967462539672852,0.50176644325256348,-0.44089782238006592,0,-1,-0.410666823387146],[0.14435315132141113,0.32576155662536621,-1,0.24703449010848999,-0.23767195641994476,0,0.5,0.23527371883392334]],"inputCount":22,"hiddenCount":16,"outputCount":8},
{"marker2":false,"marker1":false,"weights":[[],[0.40994167327880859,0,0.45632869005203247,0,0,0,0,0.052278280258178711,0,-0.15534031391143799,0,0,-0.48147457838058472,-0.363238126039505,0,0,0,0,0,0,0,0.29515677690505981,0.36583346128463745,0,0,0.30289867520332336,0,0,-0.0033766292035579681,0,0.35386732220649719,0,0,0,0,0,0.19401216506958008,-0.4332909882068634,0,0.17968277633190155,0,0.33532527089118958,0,-0.25165534019470215,0,-0.20270287990570068,0,0,0,-0.31851059198379517,0,0,-0.45986327528953552,0,0,0,0,0,0,-0.41790735721588135,0,0,0,0,-0.36632141470909119,0,0,0,0,0,0,-0.10486941039562225,0.83688843250274658,-0.073915958404541016,0.25809401273727417,0.071545839309692383,0,0.13436207175254822,-0.38097286224365234,0,-1,-0.30709376931190491,0,0,0,0.93782323598861694,0,0,0,0.41716122627258301,0,-0.46045860648155212,0.46251478791236877,0,0,0,0,0,0,-0.46570906043052673,0.34910082817077637,0,0,-0.40483734011650085,0,0,0,0,0,-0.1159704402089119,0,0.20255434513092041,0,0.054481983184814453,0,-0.061370968818664551,0,0,0.40472888946533203,-0.12581688165664673,0,0,0.44810247421264648,0,0,0,0,0.37592345476150513,-0.18413086235523224,-0.16082888841629028,0,0,0.44337320327758789,0.18566286563873291,0,0,0,0,-0.35841435194015503,0,0,-0.45058143138885498,-0.40637028217315674,0.35713937878608704,0.42361545562744141,0.30315810441970825,0,0,0.47211423516273499,0,-0.68400144577026367,0,0,0.25479927659034729,0,0,0.39238786697387695,0.6516568660736084,-0.31787851452827454,0,0,0,0.38444074988365173,-0.20440419018268585,0.2673487663269043,0,0.33980205655097961,0,0.47169563174247742,0,0,-0.30126175284385681,-0.39354375004768372,0,-0.3946460485458374,0,0,0,0,0,0,0,0,0,0,0,0,0,0,0.43496543169021606,0,0,0.33939310908317566,0,0.68862009048461914,0,0,0,0,0.25396248698234558,-0.37375664710998535,0,0,0,0,0,0,0,0,0.40700966119766235,0,0.37195137143135071,0.87787020206451416,-0.36907386779785156,0,0,0,0.055069297552108765,-0.39782026410102844,0.48265564441680908,0.2814452052116394,0,0.76012122631072998,0,-0.26969686150550842,0,-0.85149049758911133,0,0,0,-0.2888481616973877,0,-0.48049092292785645,0,0,-0.35652625560760498,0,0,0,0,-0.38530009984970093,0,-0.44197055697441101,0,0,-0.80106973648071289,0,0.051670722663402557,0,-0.41212403774261475,0,0,0,0,0,0,0,0,0.41348204016685486,0,0.76854610443115234,0,0.43010666966438293,0.99095070362091064,-0.48795226216316223,0,0,0,-0.9109649658203125,0,0,0,0,0.34665080904960632,0,-0.31904140114784241,0,0.48562201857566833,0,0,-0.27164697647094727,-0.45952638983726501,0,-0.17721232771873474,0,0,0.36010664701461792,0,-1,-0.25472337007522583,0,0,0,0,-0.28602921962738037,0.77310526371002197,0,0,0,0,0,-0.42166218161582947,-0.18316248059272766,0,0,0,0,0.31528937816619873,0,0,0,0.081602349877357483,0,0,-0.57303416728973389,-0.45345306396484375,-0.27875003218650818,0.25921154022216797,-0.40015935897827148,0.13335633277893066,0.49390897154808044,0,0,0,-0.30915895104408264,0,-0.59603035449981689,0.42118781805038452,0,-0.27848878502845764,0,-0.089833617210388184,-0.38829979300498962,0.40875214338302612,0,0,0,-0.49711519479751587,-0.42093667387962341,0.75392389297485352,-0.38346371054649353,0,0,0,0,0,0.53038352727890015,0,0,-0.25026041269302368,0,0],[0,0,-0.19762502610683441,0,-0.71869349479675293,0,-1,0,0.35392928123474121,0,0,-0.44618904590606689,0,0.3716130256652832,0,0,0,0,0.34177315235137939,0,-1,0.40474459528923035,0,-0.29152396321296692,0,0.81897008419036865,0,0,-0.15942287445068359,-0.80062752962112427,0,0,0,0,0.46981179714202881,0,0,-0.026402255520224571,0,0,0.42866936326026917,-0.51509773731231689,-0.30299580097198486,0,-0.418387770652771,-0.28066638112068176,-0.43985438346862793,0,-1,0,0,0,0,0.28059375286102295,0.49399763345718384,0,0,0,-0.66619139909744263,0.15957629680633545,0,-0.49987947940826416,-0.46637231111526489,0,-0.97485601902008057,0.32988262176513672,0.99363327026367188,-0.48389109969139099,0,0.39534664154052734,0.68609404563903809,0,-0.37116563320159912,-0.36125028133392334,-0.38149565458297729,0,0,0.45554697513580322,0.27981901168823242,0,-0.43210527300834656,-0.33356553316116333,0,0,0.74229401350021362,0,0,0,0,0,0,0,0,0,-0.098721981048583984,0,0.34316110610961914,0,0,-1,0.11877907067537308,0,0,0.06208646297454834,0,0.90099692344665527,-0.90392804145812988,0,0,0,0,0,0,0.40908867120742798,0.81142336130142212,0.27318906784057617,0,0,0,0,-0.40505924820899963,-0.064185500144958496,-0.16136491298675537,0,0,-0.44113874435424805,0,-0.15763019025325775]],"id":"CD7EE515-76B7-4B1D-8344-C457237267BB","generation":80,"biases":[[],[0.15299634635448456,0.33804064989089966,0.039495740085840225,0.059478312730789185,0,-0.73070013523101807,-0.29809311032295227,0.055555101484060287,0.10627651214599609,-0.056544769555330276,-0.67967462539672852,0.50176644325256348,-0.22044891119003296,0,-1,-0.410666823387146],[-0.15921381115913391,0.16288077831268311,-1,0.24703449010848999,-0.23767195641994476,0,0.5,0.23527371883392334]],"inputCount":22,"hiddenCount":16,"outputCount":8},
{"marker2":false,"marker1":false,"weights":[[],[0.40994167327880859,0,0.45632869005203247,0,0,0,0,0.052278280258178711,0,-0.15534031391143799,0,0,-0.48147457838058472,-0.363238126039505,0,0,0,0,0,0,0,0.29515677690505981,0.36583346128463745,0,0,0.30289867520332336,0,0,-0.0033766292035579681,0,0.35386732220649719,0,0,0,0,0,0.19401216506958008,-0.4332909882068634,0,0.17968277633190155,0,0.33532527089118958,0,-0.25165534019470215,0,-0.20270287990570068,0,0,0,-0.31851059198379517,0,0,-0.45986327528953552,0,0,0,0,0,0,-0.41790735721588135,0,0,0,0,-0.36632141470909119,0,0,0,0,0,0,0.35208410024642944,0.83688843250274658,-0.073915958404541016,0.25809401273727417,0.071545839309692383,0,0.13436207175254822,-0.38097286224365234,0,-1,-0.30709376931190491,0,0,0,0.93782323598861694,0,0,0,0.41716122627258301,-0.2869354784488678,-0.46045860648155212,0.46251478791236877,0,0,0,0,0,0,-0.46570906043052673,0.34910082817077637,0,0,-0.40483734011650085,0,0,0,0,0,-0.1159704402089119,0,0.20255434513092041,0,0.054481983184814453,0,-0.061370968818664551,0,0,0.40472888946533203,-0.12581688165664673,0,0,0.44810247421264648,0,0,0,0,0.37592345476150513,-0.18413086235523224,-0.16082888841629028,0,0,0,0.18566286563873291,0,0,0,0,-0.35841435194015503,0,0,-0.45058143138885498,-0.40637028217315674,0.35713937878608704,0.42361545562744141,0.30315810441970825,0,0,0.47211423516273499,0,-0.68400144577026367,0,0,0.25479927659034729,0,0,0.39238786697387695,0.6516568660736084,-0.31787851452827454,0,0,0,0.38444074988365173,-0.20440419018268585,0.2673487663269043,0,0.33980205655097961,0,0.47169563174247742,0,0,-0.30126175284385681,-0.39354375004768372,0,-0.3946460485458374,0,0,0,0,0,0,0,0,0,0,0,0,0,0,0.43496543169021606,0,0,0.33939310908317566,0,0.68862009048461914,0,0,0,0,0.25396248698234558,-0.37375664710998535,0,0,0,0,0,0,0,0,0.40700966119766235,0,0.37195137143135071,0.87787020206451416,-0.36907386779785156,0,0,0,0.055069297552108765,-0.39782026410102844,0.48265564441680908,0.2814452052116394,0.11001050472259521,0,0,-0.26969686150550842,0,-0.85149049758911133,0,0,0,-0.2888481616973877,0,-0.48049092292785645,0,0,-0.35652625560760498,0,0,0,0,-0.38530009984970093,0,-0.44197055697441101,0,0,-0.80106973648071289,0,0.051670722663402557,0,-0.41212403774261475,0,0,0,0,0,0,0,0,0.41348204016685486,0,0.76854610443115234,0,0.43010666966438293,0.99095070362091064,-0.48795226216316223,0,0,0,-0.9109649658203125,0,0,0,0,0.34665080904960632,0,-0.31904140114784241,0,0.48562201857566833,0,0,-0.27164697647094727,-0.45952638983726501,0,-0.17721232771873474,0,0,0.36010664701461792,0,-1,-0.25472337007522583,0,0,0,0,-0.28602921962738037,0.77310526371002197,0,0,0,0,0,-0.42166218161582947,-0.18316248059272766,0,0,0,0,0.31528937816619873,0,0,0,0.081602349877357483,0,0,-0.57303416728973389,-0.45345306396484375,-0.27875003218650818,0.25921154022216797,-0.40015935897827148,0.13335633277893066,0.49390897154808044,0,0,0,-0.30915895104408264,0,-0.59603035449981689,0.42118781805038452,0,-0.27848878502845764,0,-0.089833617210388184,-0.38829979300498962,0.40875214338302612,0,0,0,-0.49711519479751587,-0.42093667387962341,0.75392389297485352,-0.38346371054649353,0,0,0,0,0,0.53038352727890015,0,0,-0.25026041269302368,0,0],[0,0,-0.19762502610683441,0,-0.71869349479675293,0,-1,0,0.35392928123474121,0,0,-0.44618904590606689,0,0.3716130256652832,0,0,0,0,0.34177315235137939,0,-1,0.40474459528923035,0.43215599656105042,-0.29152396321296692,0,0.81897008419036865,0,0,-0.15942287445068359,-0.80062752962112427,0,0,0,0,0.46981179714202881,0,0,-0.026402255520224571,0.55134308338165283,0,0.42866936326026917,-0.51509773731231689,-0.30299580097198486,0,-0.418387770652771,-0.28066638112068176,-0.43985438346862793,0,-1,0,0,0,0,0.28059375286102295,0.49399763345718384,0,0,0,-0.66619139909744263,0.15957629680633545,0,-0.49987947940826416,-0.46637231111526489,0,-0.97485601902008057,0.32988262176513672,0.99363327026367188,-0.48389109969139099,0,0.39534664154052734,0.68609404563903809,0,-0.37116563320159912,-0.36125028133392334,-0.38149565458297729,0,0,0.45554697513580322,0.27981901168823242,0,-0.43210527300834656,-0.33356553316116333,0,0,0.74229401350021362,0,0,0,0,0,0,0,0,0,-0.098721981048583984,0,0.34316110610961914,0,0,-1,0.11877907067537308,0,0,0.06208646297454834,0,0.90099692344665527,-0.90392804145812988,0,0,0,0,0,0,0.40908867120742798,0.81142336130142212,0.27318906784057617,0,0,0,0,-0.40505924820899963,-0.064185500144958496,-0.16136491298675537,0,0,-0.44113874435424805,0,-0.15763019025325775]],"id":"14CC58A8-B789-4095-A94C-99287DC69FD7","generation":80,"biases":[[],[0.15299634635448456,0.33804064989089966,0.039495740085840225,0.059478312730789185,0,-0.73070013523101807,-0.29809311032295227,0.055555101484060287,0.10627651214599609,-0.056544769555330276,-0.67967462539672852,0.50176644325256348,-0.44089782238006592,0,-1,-0.410666823387146],[-0.15921381115913391,0.16288077831268311,-1,0.24703449010848999,-0.23767195641994476,0,0.5,0.23527371883392334]],"inputCount":22,"hiddenCount":16,"outputCount":8},
{"marker2":false,"marker1":false,"weights":[[],[0.40994167327880859,0,0.45632869005203247,0,0,0,0,0.052278280258178711,0,-0.15534031391143799,0,0,-0.48147457838058472,-0.363238126039505,0,0,0,0,0,0,0,0.29515677690505981,0.36583346128463745,0,0,0.30289867520332336,0,0,-0.0033766292035579681,0,0.35386732220649719,0,0,0,0,0,0.19401216506958008,-0.4332909882068634,0,0.17968277633190155,0,0.33532527089118958,0,-0.25165534019470215,0,-0.20270287990570068,0,0,0,-0.31851059198379517,0,0,-0.45986327528953552,0,0,0,0,0,0,-0.41790735721588135,0,0,0,0,-0.36632141470909119,0,0,0,0,0,0,0.35208410024642944,0.83688843250274658,-0.073915958404541016,0.25809401273727417,0.071545839309692383,0,0.13436207175254822,-0.38097286224365234,0,-1,-0.30709376931190491,0,0,0,0.93782323598861694,0,0,0,0.41716122627258301,0,-0.46045860648155212,0.46251478791236877,0,0,0,0,0,0,-0.46570906043052673,0.34910082817077637,0,0,-0.40483734011650085,0,0,0,0,0,-0.1159704402089119,0,0.20255434513092041,0,0.054481983184814453,0,-0.061370968818664551,0,0,0.40472888946533203,-0.12581688165664673,0,0,0.44810247421264648,0,0,0,0,0.37592345476150513,-0.18413086235523224,-0.16082888841629028,0,0,0,0.18566286563873291,0,0,0,0,-0.35841435194015503,0,0,-0.45058143138885498,-0.40637028217315674,0.35713937878608704,0.42361545562744141,0.30315810441970825,0,0,0.47211423516273499,0,-0.68400144577026367,0,0,0.25479927659034729,0,0,0.39238786697387695,0.6516568660736084,-0.31787851452827454,0,0,0,0.38444074988365173,-0.20440419018268585,0.2673487663269043,0,0.33980205655097961,0,0.47169563174247742,0,0,-0.30126175284385681,-0.39354375004768372,0,-0.3946460485458374,0,0,0,0,0,0,0,0,0,0,0,0,0,0,0.43496543169021606,0,0,0.33939310908317566,0,0.68862009048461914,0,0,0,0,0.25396248698234558,-0.37375664710998535,0,0,0,0,0,0,0,0,0.40700966119766235,0,0.37195137143135071,0.87787020206451416,-0.36907386779785156,0,0,0,0.055069297552108765,-0.39782026410102844,0.48265564441680908,0.2814452052116394,0.11001050472259521,0,0,-0.26969686150550842,0,-0.85149049758911133,0,0,0,-0.2888481616973877,0,-0.48049092292785645,0,0,-0.35652625560760498,0,0,0,0,-0.38530009984970093,0,-0.44197055697441101,0,0,-0.80106973648071289,0,0.051670722663402557,0,-0.41212403774261475,0,0,0,0,0,0,0,0,0.41348204016685486,0,0.76854610443115234,0,0.43010666966438293,-0.29415881633758545,-0.48795226216316223,0,0,0,-0.9109649658203125,0,0,0,0,0.34665080904960632,0,-0.31904140114784241,0,0.48562201857566833,0,0,-0.27164697647094727,-0.45952638983726501,0,-0.17721232771873474,0,0,0.36010664701461792,0,-1,-0.25472337007522583,0,0,0,0,-0.28602921962738037,0.77310526371002197,0,0,0,0,0,-0.42166218161582947,-0.18316248059272766,0,0,0,0,0.31528937816619873,0,0,0,0.081602349877357483,0,0,-0.57303416728973389,-0.45345306396484375,-0.27875003218650818,0.25921154022216797,-0.40015935897827148,0.13335633277893066,0.49390897154808044,0,0,0,-0.30915895104408264,0,-0.59603035449981689,0.42118781805038452,0,-0.27848878502845764,0,-0.089833617210388184,-0.38829979300498962,0.40875214338302612,0,0,0,-0.49711519479751587,-0.42093667387962341,0.75392389297485352,-0.38346371054649353,0,0,0,0,0,0.086277872323989868,0,0,-0.25026041269302368,0,0],[0,0,-0.19762502610683441,0,-0.71869349479675293,0,-1,0,0.35392928123474121,0,0,-0.44618904590606689,0,0.3716130256652832,0,0,0,0,0.34177315235137939,0,-1,0.40474459528923035,0.43215599656105042,-0.29152396321296692,0,0.81897008419036865,0,0,-0.15942287445068359,-0.80062752962112427,0,0,0,0,0.46981179714202881,0,0,-0.026402255520224571,0,0,0.42866936326026917,-0.51509773731231689,-0.30299580097198486,0,-0.418387770652771,-0.28066638112068176,-0.43985438346862793,0,-1,0,0,0,0,0.28059375286102295,0.49399763345718384,0,0,0,-0.66619139909744263,0.15957629680633545,0,-0.49987947940826416,-0.46637231111526489,0,-0.97485601902008057,0.32988262176513672,0.99363327026367188,-0.48389109969139099,0,0.39534664154052734,0.68609404563903809,0,-0.37116563320159912,-0.36125028133392334,-0.38149565458297729,0,0,0.45554697513580322,0.27981901168823242,0,-0.43210527300834656,-0.33356553316116333,0,0,0.74229401350021362,0,0,0,0,0,0,0,0,0,-0.098721981048583984,0,0.34316110610961914,0,0,-1,0.11877907067537308,0,0,0.06208646297454834,0,0.90099692344665527,-0.90392804145812988,0,0,0,0,0,0,0.40908867120742798,0.81142336130142212,0.27318906784057617,0,0,0,0,-0.073827944695949554,-0.064185500144958496,-0.16136491298675537,0,0,-0.44113874435424805,0,-0.15763019025325775]],"id":"7FB3210C-A3A6-4317-84CC-C9F8CBFD261E","generation":81,"biases":[[],[0.15299634635448456,0.33804064989089966,0.039495740085840225,0.059478312730789185,0,-0.73070013523101807,-0.29809311032295227,0.055555101484060287,0.10627651214599609,-0.056544769555330276,-0.67967462539672852,0.50176644325256348,-0.44089782238006592,0,-1,-0.410666823387146],[-0.15921381115913391,0.16288077831268311,-1,0.24703449010848999,-0.23767195641994476,0,0.5,0.23527371883392334]],"inputCount":22,"hiddenCount":16,"outputCount":8},
{"marker2":false,"marker1":false,"weights":[[],[0.40994167327880859,0,0.45632869005203247,0,0,0,0,0.052278280258178711,0,-0.15534031391143799,-0.45862573385238647,0,-0.48147457838058472,-0.363238126039505,0,0.72500705718994141,0,0,0,0,0,0.29515677690505981,0.36583346128463745,0,0,0.30289867520332336,0,0,-0.0033766292035579681,0,0.35386732220649719,0,0,0,0,0,0.19401216506958008,-0.4332909882068634,0,0.17968277633190155,0,0.33532527089118958,0,-0.25165534019470215,0,-0.20270287990570068,0,0,0,-0.31851059198379517,0,0,-0.45986327528953552,0,0,0,0,0,0,-0.41790735721588135,0,0,0,0,-0.36632141470909119,0,0,0,0,0,0,0.35208410024642944,0.83688843250274658,0.42548555135726929,0,0.071545839309692383,0,0.13436207175254822,-0.38097286224365234,0,-1,-0.30709376931190491,0,0,0,1,0,0,0,0.41716122627258301,0,-0.46045860648155212,0.46251478791236877,0,0,0,0,0,0,-0.46570906043052673,0.34910082817077637,0,0,-0.40483734011650085,0,0.59032058715820312,0,0,0,-0.1159704402089119,0,0.20255434513092041,0,0.10896396636962891,0,-0.061370968818664551,0,0,0.40472888946533203,-0.12581688165664673,0,0,0.44810247421264648,0,0,0,0,0.37592345476150513,-0.18413086235523224,-0.16082888841629028,0,0,0,0.37132573127746582,0,0,0,0,-0.35841435194015503,0,0,-0.90116286277770996,-0.40637028217315674,0.35713937878608704,0,0.30315810441970825,-0.4638507068157196,0,0,0,-0.68400144577026367,0,0,0.25479927659034729,0,0,0.39238786697387695,0.6516568660736084,0,0,0,0,0.38444074988365173,-0.20440419018268585,0.2673487663269043,0,0.33980205655097961,0.66214752197265625,0.47169563174247742,0,0,-0.30126175284385681,0,0,-0.3946460485458374,0,0,0,0,0,-0.43489065766334534,-0.29467794299125671,0,0,0,0,0,0,0,0.43496543169021606,0,0,0.33939310908317566,0,0.68862009048461914,0,0,-0.47282993793487549,0,0.25396248698234558,-0.37375664710998535,0,0,0,0,0,0,0,0,0.40700966119766235,0,0.37195137143135071,0.87787020206451416,-0.36907386779785156,0,0,0,0.055069297552108765,-0.39782026410102844,0.48265564441680908,0.2814452052116394,0,0,0,0,0,-0.42574524879455566,0,0,0,-0.2888481616973877,0,-0.48049092292785645,0,0,-0.35652625560760498,0,0,0,0,-0.38530009984970093,0,-0.44197055697441101,0,0,-0.80106973648071289,0,0.051670722663402557,0,0.0142209492623806,0,0,0,0,0,0,0,0,0.41348204016685486,0,0.40517371892929077,0,0.43010666966438293,0.99095070362091064,-0.48795226216316223,0,0,0,-0.9109649658203125,0,0,0,0,0,0,-0.31904140114784241,0,0.48562201857566833,0,0,-0.27164697647094727,-0.76938366889953613,0,-0.17721232771873474,0,0,0.36010664701461792,0,-1,0,0,0,0,0,-0.28602921962738037,0.77310526371002197,0,0,0,0,0,-0.42166218161582947,-0.36632496118545532,0,0,0,0,0.31528937816619873,0,0,0,0.081602349877357483,0,0,-0.57303416728973389,-0.45345306396484375,-0.27875003218650818,0.25921154022216797,-0.40015935897827148,0.13335633277893066,0.49390897154808044,0,0,0,-0.30915895104408264,0,-0.59603035449981689,0.42118781805038452,0,-0.27848878502845764,-0.95763528347015381,-0.089833617210388184,-0.38829979300498962,0.40875214338302612,0,0,0,-0.49711519479751587,-0.42093667387962341,0.75392389297485352,-0.38346371054649353,0,0,0,0,0,0.53038352727890015,0,0,-0.25026041269302368,0,0],[0,0,-0.19762502610683441,0,-0.71869349479675293,0,-0.50898253917694092,0,0.35392928123474121,0,0,-0.44618904590606689,0,0.3716130256652832,0,0,-0.32632991671562195,-0.37253060936927795,0.34177315235137939,0,-1,0.40474459528923035,-0.92121052742004395,-0.29152396321296692,0,0.81897008419036865,0.47940778732299805,0,-0.079711437225341797,-0.80062752962112427,0,0,0,0,0.93962359428405762,0,0,-0.026402255520224571,0,0,0.75557953119277954,-0.51509773731231689,-0.30299580097198486,0,-0.418387770652771,-0.28066638112068176,-0.43985438346862793,0,-1,0,0.98718917369842529,-0.44780322909355164,0,0.28059375286102295,0.49399763345718384,0,0,0.42204791307449341,-0.66619139909744263,0.15957629680633545,0,-0.49987947940826416,-0.46637231111526489,0,-0.97485601902008057,0.66848933696746826,0.99363327026367188,-0.48389109969139099,0,0.39534664154052734,0.68609404563903809,0,-0.37116563320159912,-0.36125028133392334,0,0,0,0.45554697513580322,0.27981901168823242,0,-0.43210527300834656,-0.33356553316116333,0,0,0.74229401350021362,-0.28037562966346741,0,0,0,0,0,0,0,0,-0.098721981048583984,0,0.34316110610961914,0,0,-1,0.11877907067537308,0,0,-0.17838656902313232,0,0.90099692344665527,-0.59952390193939209,0,0,-0.48274767398834229,0.54991292953491211,0,0,0.40908867120742798,0.81142336130142212,0.27318906784057617,0,0,0,0,-0.20252962410449982,-0.064185500144958496,-0.16136491298675537,0,0,-0.44113874435424805,0,-0.15763019025325775]],"id":"B02D1F59-F7B5-4647-8AD7-2DD7ECCA3678","generation":78,"biases":[[],[0.15299634635448456,0.77561146020889282,0.039495740085840225,0.059478312730789185,0,-0.73070013523101807,-0.29809311032295227,-0.33364534378051758,0.10627651214599609,-0.056544769555330276,-0.67967462539672852,0.50176644325256348,-0.44089782238006592,0,-0.81358802318572998,-0.16665451228618622],[0.1122891902923584,0.16288077831268311,-1,0.24703449010848999,-0.23767195641994476,0,0.15388278663158417,0.23527371883392334]],"inputCount":22,"hiddenCount":16,"outputCount":8},
{"marker2":false,"marker1":false,"weights":[[],[0.40994167327880859,0,0.45632869005203247,0,0,0,0,0.052278280258178711,0,-0.15534031391143799,0,0,-0.48147457838058472,-0.363238126039505,0,0,0,0,0,0,0,0.29515677690505981,0.36583346128463745,0,0,0.30289867520332336,0,0,-0.0033766292035579681,0,0.35386732220649719,0,0,0,0,0,0.19401216506958008,-0.4332909882068634,0,0.17968277633190155,0,0.33532527089118958,0,-0.25165534019470215,0,-0.20270287990570068,0,0,0,-0.31851059198379517,0,0,-0.45986327528953552,0,0,0,0,0,0,-0.41790735721588135,0,0,0,0,-0.36632141470909119,0,0,0,0,0,0,0.35208410024642944,0.83688843250274658,-0.073915958404541016,0.25809401273727417,0.071545839309692383,0,0.13436207175254822,-0.38097286224365234,0,-1,-0.30709376931190491,0,0,0,0.93782323598861694,0,0,0,0.41716122627258301,0,-0.46045860648155212,0.46251478791236877,0,0,0,0,0,0,-0.46570906043052673,0.34910082817077637,0,0,-0.40483734011650085,0,0,0,0,0,-0.1159704402089119,0,0.20255434513092041,0,0.054481983184814453,0,-0.061370968818664551,0,0,0.40472888946533203,-0.12581688165664673,0,0,0.44810247421264648,0,0,0,0,0.37592345476150513,-0.18413086235523224,-0.16082888841629028,0,0,0,0.18566286563873291,0,0,0,0,-0.35841435194015503,0,0,-0.45058143138885498,-0.40637028217315674,0.35713937878608704,0.42361545562744141,0.30315810441970825,0,0,0.47211423516273499,0,-0.68400144577026367,0,0,0.25479927659034729,0,0,0.39238786697387695,0.6516568660736084,-0.31787851452827454,0,0,0,0.38444074988365173,-0.20440419018268585,0.2673487663269043,0,0.33980205655097961,0,0.47169563174247742,0,0,-0.30126175284385681,-0.39354375004768372,0,-0.3946460485458374,0,0,0,0,0,0,0,0,0,0,0,0,0,0,0.43496543169021606,0,0,0.33939310908317566,0,0.68862009048461914,0,0,0,0,0.25396248698234558,-0.37375664710998535,0,0,0,0,0,0,0,0,0.40700966119766235,0,0.37195137143135071,0.87787020206451416,-0.36907386779785156,0,0,0,0.055069297552108765,-0.39782026410102844,0.48265564441680908,0.2814452052116394,0,0,0,-0.26969686150550842,0,-0.85149049758911133,0,0,0,-0.2888481616973877,0,-0.48049092292785645,0,0,-0.35652625560760498,0,0,0,0,-0.38530009984970093,0,-0.44197055697441101,0,0,-0.80106973648071289,0,0.051670722663402557,0,-0.41212403774261475,0,0,0,0,0,0,0,0,0.41348204016685486,0,0.76854610443115234,0,0.43010666966438293,0.99095070362091064,-0.48795226216316223,0,0,0,-0.9109649658203125,0,0,0,0,0.34665080904960632,0,-0.31904140114784241,0,0.48562201857566833,0,0,-0.27164697647094727,-0.45952638983726501,0,-0.17721232771873474,0,0,0.36010664701461792,0,-1,-0.25472337007522583,0,0,0,0,-0.28602921962738037,0.77310526371002197,0,0,0,0,0,-0.42166218161582947,-0.18316248059272766,0,0,0,0,0.31528937816619873,0,0,0,0.081602349877357483,0,0,-0.57303416728973389,-0.45345306396484375,-0.27875003218650818,0.25921154022216797,-0.40015935897827148,0.13335633277893066,0.49390897154808044,0,0,0,-0.30915895104408264,0,-0.59603035449981689,0.42118781805038452,0,-0.27848878502845764,-0.47336453199386597,-0.089833617210388184,-0.38829979300498962,0.40875214338302612,0,0,0,-0.49711519479751587,-0.42093667387962341,0.75392389297485352,-0.38346371054649353,0,0,0,0,0,0.53038352727890015,0,0,-0.25026041269302368,0,0],[0,0,-0.19762502610683441,0,-0.71869349479675293,0,-1,0,0.35392928123474121,0,0,-0.44618904590606689,0,0.3716130256652832,0,0,0,0,0.34177315235137939,0,-1,0.40474459528923035,0.46021339297294617,-0.29152396321296692,0,0.81897008419036865,0,0,-0.15942287445068359,-0.80062752962112427,0,0,0,0,0.46981179714202881,0,0,-0.026402255520224571,0,0,0.42866936326026917,-0.51509773731231689,-0.30299580097198486,0,-0.418387770652771,-0.28066638112068176,-0.43985438346862793,0,-1,0,0,0,0,0.28059375286102295,0.49399763345718384,0,0,0,-0.66619139909744263,0.15957629680633545,0,-0.49987947940826416,-0.46637231111526489,0,-0.97485601902008057,0.32988262176513672,0.99363327026367188,-0.48389109969139099,0,0.39534664154052734,0.68609404563903809,0,-0.37116563320159912,-0.36125028133392334,-0.38149565458297729,0,0,0.45554697513580322,0.27981901168823242,0,-0.43210527300834656,-0.33356553316116333,0,0,0.74229401350021362,0,0,0,0,0,0,0,0,0,-0.098721981048583984,0,0.34316110610961914,0,0,-1,0.11877907067537308,0,0,0.06208646297454834,0,0.90099692344665527,-0.90392804145812988,0,0,0,0,0,0,0.40908867120742798,0.81142336130142212,0.27318906784057617,0,0,0,0,-0.40505924820899963,-0.064185500144958496,-0.16136491298675537,0,0,-0.44113874435424805,0,-0.15763019025325775]],"id":"9802478E-2056-44B6-A606-16EA5E82DEDC","generation":81,"biases":[[],[0.15299634635448456,0.33804064989089966,0.039495740085840225,0.059478312730789185,0,-0.73070013523101807,-0.29809311032295227,0.055555101484060287,0.10627651214599609,-0.056544769555330276,-0.67967462539672852,0.50176644325256348,-0.44089782238006592,0,-1,-0.410666823387146],[-0.15921381115913391,0.16288077831268311,-1,0.24703449010848999,-0.23767195641994476,0,0.5,0.23527371883392334]],"inputCount":22,"hiddenCount":16,"outputCount":8},
{"marker2":false,"marker1":false,"weights":[[],[0.40994167327880859,0,0.45632869005203247,0,0,0,0,0.052278280258178711,0,-0.15534031391143799,0,0,-0.48147457838058472,-0.363238126039505,0,0,0,0,0,0,0,0.29515677690505981,0.36583346128463745,0,0,0.30289867520332336,0,0,-0.0033766292035579681,0,0.35386732220649719,0,0,0,0,0,0.19401216506958008,-0.4332909882068634,0,0.17968277633190155,0,0.33532527089118958,0,-0.25165534019470215,0,-0.20270287990570068,0,0,0,-0.31851059198379517,0,0,-0.45986327528953552,0,0,0,0,0,0,-0.41790735721588135,0,0,0,0,-0.36632141470909119,0,0,0,0,0,0,0.35208410024642944,1,-0.073915958404541016,0.25809401273727417,0.071545839309692383,0,0.13436207175254822,-0.38097286224365234,0,-1,-0.30709376931190491,0,0,0,0.93782323598861694,0,0,0,0.41716122627258301,0,-0.46045860648155212,0.46251478791236877,0,0,0,0,0,0,-0.46570906043052673,0.34910082817077637,0,0,-0.40483734011650085,0,0,0,0,0,-0.1159704402089119,0,0.20255434513092041,0,0.054481983184814453,0,-0.061370968818664551,0,0,0.40472888946533203,-0.062908440828323364,0,0,0.44810247421264648,0,0,0,0,0.37592345476150513,-0.18413086235523224,-0.16082888841629028,0,0,0,0.37132573127746582,0,0,-0.30813804268836975,0,-0.35841435194015503,0,0,-0.45058143138885498,-0.40637028217315674,0.35713937878608704,0,0.30315810441970825,0,0,0,0,-0.68400144577026367,0,0,0.25479927659034729,0,0,0.39238786697387695,0.6516568660736084,0,0,0,0,0.38444074988365173,-0.20440419018268585,0.2673487663269043,0,-0.73212623596191406,0,0.47169563174247742,0,0,-0.30126175284385681,-0.39354375004768372,0,-0.3946460485458374,0,0,0,0,0,0,0,0,0,0,0,0,0,0,0.43496543169021606,0,0,0.33939310908317566,0,0.68862009048461914,0,0,0,0,0.25396248698234558,-0.37375664710998535,0,0,0,0,0,0,0,0,0.40700966119766235,0,0.37195137143135071,0.87787020206451416,-0.36907386779785156,0,0,0,0.055069297552108765,-0.39782026410102844,0.48265564441680908,0.2814452052116394,0,0,0,-0.26969686150550842,0,-0.85149049758911133,0,0,0,-0.2888481616973877,0,-0.48049092292785645,0,0,-0.76646625995635986,0,0,0,0,-0.38530009984970093,0,-0.44197055697441101,0,0,-0.80106973648071289,0,0.051670722663402557,0,-0.41212403774261475,0,0,0,0,0,0,0,0,0.41348204016685486,0,0.76854610443115234,0,0.43010666966438293,0.99095070362091064,-0.48795226216316223,0,0,0,-0.9109649658203125,0,0,0,0,0.34665080904960632,0,-0.31904140114784241,0,0.48562201857566833,0,0,-0.27164697647094727,-0.45952638983726501,0,-0.17721232771873474,0,0,0.36010664701461792,0,-1,-0.25472337007522583,0,0,0,0,-0.28602921962738037,0.77310526371002197,0,0,0,0,0,-0.42166218161582947,-0.18316248059272766,0,0,0,0,0.31528937816619873,0,0,0,0.081602349877357483,0,0,-0.57303416728973389,-0.45345306396484375,-0.27875003218650818,0.25921154022216797,-0.40015935897827148,0.13335633277893066,0.49390897154808044,0,0,0,-0.30915895104408264,0,-0.59603035449981689,0.42118781805038452,0,-0.27848878502845764,0,-0.089833617210388184,-0.38829979300498962,0.40875214338302612,0,0,0,-0.49711519479751587,-0.42093667387962341,0.75392389297485352,-0.38346371054649353,0,0,0,0,0,0.53038352727890015,0,0,-0.25026041269302368,0,0],[0,0,-0.19762502610683441,0,-0.71869349479675293,0,-0.5,0,0.35392928123474121,0,0,-0.44618904590606689,0,0.3716130256652832,0,0,0,0,0.34177315235137939,0,-1,0.40474459528923035,0,-0.29152396321296692,0,1,0,0,-0.15942287445068359,-0.80062752962112427,0,0,0,0,0.46981179714202881,0,0,-0.026402255520224571,0,0,0.42866936326026917,-0.51509773731231689,-0.30299580097198486,0,-0.418387770652771,-0.28066638112068176,-0.43985438346862793,0,-1,0,0,0,0,0.28059375286102295,0.49399763345718384,0,0,0,-0.66619139909744263,0.15957629680633545,0,-0.49987947940826416,-0.46637231111526489,0,-0.97485601902008057,0.32988262176513672,0.99363327026367188,-0.48389109969139099,0,0.39534664154052734,0.68609404563903809,0,-0.37116563320159912,-0.36125028133392334,-0.38149565458297729,0,0,0.91109395027160645,0.27981901168823242,0,-0.43210527300834656,-0.33356553316116333,0,0,0.74229401350021362,0,0,0,0,0,0,0,0,0,-0.098721981048583984,0,0.34316110610961914,0,0,-1,0.11877907067537308,0,0,0.06208646297454834,0,0.90099692344665527,-0.90392804145812988,0,0,0,0,0,0,0.40908867120742798,0.81142336130142212,0.27318906784057617,0,0,0,0,-0.40505924820899963,-0.064185500144958496,-0.16136491298675537,0,0,-0.44113874435424805,0,-0.15763019025325775]],"id":"C58A1C26-A791-4B7E-9F0E-F6BE61B15600","generation":80,"biases":[[],[0.15299634635448456,0.33804064989089966,0.039495740085840225,0.059478312730789185,0,-0.73070013523101807,-0.29809311032295227,0.055555101484060287,0.10627651214599609,-0.056544769555330276,-0.67967462539672852,0.50176644325256348,-0.042376894503831863,0,-1,-0.410666823387146],[0.14435315132141113,0.16288077831268311,-1,0.24703449010848999,-0.23767195641994476,0,0.5,0.23527371883392334]],"inputCount":22,"hiddenCount":16,"outputCount":8},
{"marker2":false,"marker1":false,"weights":[[],[0.40994167327880859,0,0.45632869005203247,0,0,0,0,0.052278280258178711,0,-0.15534031391143799,0,0,-0.48147457838058472,-0.363238126039505,0,0,0,0,0,0,0,0.29515677690505981,0.36583346128463745,0,0,0.30289867520332336,0,0,-0.0033766292035579681,0,0.35386732220649719,0,0,0,0,0,0.19401216506958008,-0.4332909882068634,0,0.17968277633190155,0,0.33532527089118958,0,-0.25165534019470215,0,-0.20270287990570068,0,0,0,-0.31851059198379517,0,0,-0.45986327528953552,0,0,0,0,0,0,-0.41790735721588135,0,0,0,0,-0.36632141470909119,0,0,0,0,0,0,0.35208410024642944,1,-0.073915958404541016,0.25809401273727417,0.071545839309692383,0,0.13436207175254822,-0.38097286224365234,0,-1,-0.30709376931190491,0,0,0,0.93782323598861694,0,0,0,0.41716122627258301,0,-0.46045860648155212,0.46251478791236877,0,0,0,0,0,0,-0.46570906043052673,0.34910082817077637,0,0,-0.40483734011650085,0,0,0,0,0,-0.1159704402089119,0,0.20255434513092041,0,0.054481983184814453,0,-0.061370968818664551,0,0,0.40472888946533203,-0.12581688165664673,0,0,0.44810247421264648,0,0,0,0,0.37592345476150513,-0.18413086235523224,-0.16082888841629028,0,0,0,0.37132573127746582,0,0,0,0,-0.35841435194015503,0,0,-0.45058143138885498,-0.40637028217315674,0.35713937878608704,0,0.30315810441970825,0,0,0,0,-0.68400144577026367,0,0,0.25479927659034729,0,0,0.39238786697387695,0.6516568660736084,0,0,0.44824019074440002,0,0.38444074988365173,-0.20440419018268585,0.2673487663269043,0,0.33980205655097961,0,0.47169563174247742,0,0,-0.30126175284385681,-0.39354375004768372,0,-0.3946460485458374,0,0,0,0,0,0,0,0,0,0,0,0,0,0,0.43496543169021606,0,0,0.33939310908317566,0,0.68862009048461914,0,0,0,0,0.25396248698234558,-0.37375664710998535,0,0,0,0,0,0,0,0,0.40700966119766235,0,0.37195137143135071,0.87787020206451416,-0.36907386779785156,0,0,0,0.055069297552108765,-0.39782026410102844,0.48265564441680908,0.2814452052116394,0,0,0,-0.26969686150550842,0,-0.85149049758911133,0,0,0,-0.2888481616973877,0,-0.48049092292785645,0,0,-0.76646625995635986,0,0,0,0,-0.38530009984970093,0,-0.44197055697441101,0,0,-0.80106973648071289,0,0.051670722663402557,0,-0.41212403774261475,0,0,0,0,-0.54608011245727539,0,0,0,0.41348204016685486,0,0.76854610443115234,0,0.43010666966438293,0.99095070362091064,-0.48795226216316223,0,0,0,-0.9109649658203125,0,0,0,0,0.34665080904960632,0,-0.31904140114784241,0,0.48562201857566833,0,0,-0.27164697647094727,-0.45952638983726501,0,-0.17721232771873474,0,0,0.36010664701461792,0,-1,-0.25472337007522583,0,0,0,0,-0.28602921962738037,0.77310526371002197,0,0,0,0,0,-0.42166218161582947,-0.18316248059272766,0,0,0,0,0.31528937816619873,0,0,0,0.081602349877357483,0,0,-0.57303416728973389,-0.45345306396484375,-0.27875003218650818,0.25921154022216797,-0.40015935897827148,0.13335633277893066,0.49390897154808044,0,0,0,-0.30915895104408264,0,-0.59603035449981689,0.42118781805038452,0,-0.27848878502845764,0,-0.089833617210388184,-0.38829979300498962,0.40875214338302612,0,0,0,-0.49711519479751587,-0.42093667387962341,0.75392389297485352,-0.38346371054649353,0,0,0,0,0,0.53038352727890015,0,0,-0.25026041269302368,0,0],[0,0,-0.19762502610683441,0,-0.71869349479675293,0,-1,0,0.35392928123474121,0,0,-0.44618904590606689,0,0.3716130256652832,0,0,0,0,0.34177315235137939,0,-1,0.40474459528923035,0,-0.29152396321296692,0,0.81897008419036865,0,0,-0.15942287445068359,-0.80062752962112427,0,0,0,0,0.46981179714202881,0,0,-0.026402255520224571,0,0,0.42866936326026917,-0.51509773731231689,-0.30299580097198486,0,-0.418387770652771,-0.28066638112068176,-0.43985438346862793,0,-1,0,0,0,0,0.28059375286102295,0.49399763345718384,0,0,0,-0.66619139909744263,0.15957629680633545,0,-0.49987947940826416,-0.46637231111526489,0,-0.97485601902008057,0.32988262176513672,0.99363327026367188,-0.48389109969139099,0,0.39534664154052734,0.68609404563903809,0,-0.37116563320159912,-0.36125028133392334,-0.38149565458297729,0,0,0.45554697513580322,0.27981901168823242,0,-0.43210527300834656,-0.33356553316116333,0,0,0.37114700675010681,0,0,0,0,0,0,0,0,0,-0.098721981048583984,0,0.34316110610961914,0,0,-1,0.11877907067537308,0,0,0.06208646297454834,0,0.90099692344665527,-0.90392804145812988,0,0,0,0,-0.46987223625183105,0,0.40908867120742798,0.81142336130142212,0.27318906784057617,0,0,0,0,-0.40505924820899963,-0.064185500144958496,-0.16136491298675537,0,0,-0.44113874435424805,0,-0.15763019025325775]],"id":"8551EB9B-6DFC-4305-A298-15EB1476E6AD","generation":79,"biases":[[],[0.15299634635448456,0.33804064989089966,0.039495740085840225,0.059478312730789185,0,-0.73070013523101807,-0.29809311032295227,0.055555101484060287,0.10627651214599609,-0.056544769555330276,-0.67967462539672852,0.50176644325256348,-0.44089782238006592,0,-1,-0.410666823387146],[0.14435315132141113,0.16288077831268311,-1,0.24703449010848999,-0.23767195641994476,0,0.5,0.23527371883392334]],"inputCount":22,"hiddenCount":16,"outputCount":8},
{"marker2":false,"marker1":false,"weights":[[],[0.40994167327880859,0,0.45632869005203247,0,0,0,0,0.052278280258178711,0,-0.15534031391143799,0,0,-0.48147457838058472,-0.363238126039505,0,0,0,0,0,0,0,0.29515677690505981,0.36583346128463745,0,0,0.30289867520332336,0,0,-0.0033766292035579681,0,0.35386732220649719,0,0,0,0,0,0.19401216506958008,-0.4332909882068634,0,0.17968277633190155,0,0.33532527089118958,0,-0.25165534019470215,0,-0.20270287990570068,0,0,0,-0.31851059198379517,0,0,-0.45986327528953552,0,0,0,0,0,0,-0.41790735721588135,0,0,0,0,-0.36632141470909119,0,0,0,0,0,0,0.35208410024642944,0.83688843250274658,-0.073915958404541016,0.25809401273727417,0.071545839309692383,0,0.13436207175254822,-0.38097286224365234,0,-1,-0.30709376931190491,0,0,0,0.93782323598861694,0,0,0,0.41716122627258301,0,-0.46045860648155212,0.46251478791236877,0,0,0,0,0,0,-0.46570906043052673,0.34910082817077637,0,0,-0.40483734011650085,0,0,0,0,0,-0.1159704402089119,0,0.20255434513092041,0,0.054481983184814453,0,-0.061370968818664551,0,0,0.40472888946533203,-0.12581688165664673,0,0,0.44810247421264648,0,0,0,0,0.37592345476150513,-0.18413086235523224,-0.16082888841629028,0,0,0,0.18566286563873291,0,0,0,0,-0.35841435194015503,0,0,-0.45058143138885498,-0.40637028217315674,0.35713937878608704,0.42361545562744141,0.30315810441970825,0,0,0.47211423516273499,0,-0.68400144577026367,0,0,0.25479927659034729,0,0,0.39238786697387695,0.6516568660736084,-0.31787851452827454,0,0,0,0.38444074988365173,-0.20440419018268585,0.2673487663269043,0,0.33980205655097961,0,0.47169563174247742,0,0,-0.30126175284385681,-0.39354375004768372,0,-0.3946460485458374,0,0,0,0,0,0,0,0,0,0,0,0,0,0,0.43496543169021606,0,0,0.33939310908317566,0,0.68862009048461914,0,0,0,0,0.25396248698234558,-0.37375664710998535,0,0,0,0,0,0,0,0,0.40700966119766235,0,0.37195137143135071,0.87787020206451416,-0.36907386779785156,0,0,0,0.055069297552108765,-0.39782026410102844,0.48265564441680908,0.2814452052116394,0,0,0,-0.26969686150550842,0,-0.85149049758911133,0,0,0,-0.2888481616973877,0,-0.48049092292785645,0,0,-0.35652625560760498,0,0,0,0,-0.38530009984970093,0,-0.44197055697441101,0,0,-0.80106973648071289,0,0.051670722663402557,0,-0.41212403774261475,0,0,0,0,0,0,0,0,0.41348204016685486,0,0.76854610443115234,0,0.43010666966438293,0.99095070362091064,-0.48795226216316223,0,0,0,-0.9109649658203125,0,0,0,0,0.34665080904960632,0,-0.31904140114784241,0,0.48562201857566833,0,0,-0.27164697647094727,-0.45952638983726501,0,-0.17721232771873474,0,0,0.36010664701461792,0,-1,-0.25472337007522583,0,0,0,0,-0.28602921962738037,0.77310526371002197,0,0,0,0,0,-0.42166218161582947,-0.18316248059272766,0,0,0,0,0.31528937816619873,0,0,0,0.081602349877357483,0,0,-0.57303416728973389,-0.45345306396484375,-0.27875003218650818,0.25921154022216797,-0.40015935897827148,0.13335633277893066,0.49390897154808044,0,0,0,-0.30915895104408264,0,-0.59603035449981689,0.42118781805038452,0,-0.27848878502845764,0,-0.089833617210388184,-0.38829979300498962,0.40875214338302612,0,0,0,-0.49711519479751587,-0.42093667387962341,0.75392389297485352,-0.38346371054649353,0,0,0,0,0,0.53038352727890015,0,0,-0.25026041269302368,0,0],[0,0,-0.19762502610683441,0,-0.71869349479675293,0,-1,0,0.35392928123474121,0,0,-0.44618904590606689,0,0.3716130256652832,0,0,0,0,0.34177315235137939,0,-1,0.40474459528923035,0,-0.29152396321296692,0,0.81897008419036865,0,0,-0.15942287445068359,-0.80062752962112427,0,0,0,0,0.46981179714202881,0,0,-0.026402255520224571,0,0,0.42866936326026917,-0.51509773731231689,-0.30299580097198486,0,-0.418387770652771,-0.28066638112068176,-0.43985438346862793,0,-1,0,0,0,0,0.28059375286102295,0.49399763345718384,0,0,0,-0.66619139909744263,0.15957629680633545,0,-0.49987947940826416,-0.46637231111526489,0,-0.97485601902008057,0.32988262176513672,0.99363327026367188,-0.48389109969139099,0,0.39534664154052734,0.68609404563903809,0,-0.37116563320159912,-0.36125028133392334,-0.38149565458297729,0,0,0.45554697513580322,0.27981901168823242,0,-0.43210527300834656,-0.33356553316116333,0,0,0.74229401350021362,0,0,0,0,0,0,0,0,0,-0.098721981048583984,0,0.34316110610961914,0,0,-1,0.11877907067537308,0,0,0.06208646297454834,0,0.90099692344665527,-0.90392804145812988,0,0,0,0,0,0,0.40908867120742798,0.81142336130142212,0.27318906784057617,0,0,0,0,-0.40505924820899963,-0.064185500144958496,-0.16136491298675537,0,0,-0.44113874435424805,0,-0.15763019025325775]],"id":"B3859FDF-F549-4F78-AF13-C2B7BB5371B9","generation":80,"biases":[[],[0.15299634635448456,0.33804064989089966,0.039495740085840225,0.059478312730789185,0,-0.73070013523101807,-0.29809311032295227,0.055555101484060287,0.10627651214599609,-0.056544769555330276,-0.67967462539672852,0.50176644325256348,-0.44089782238006592,0,-1,-0.410666823387146],[-0.15921381115913391,0.16288077831268311,-1,0.24703449010848999,-0.23767195641994476,0,0.5,-0.13249406218528748]],"inputCount":22,"hiddenCount":16,"outputCount":8},
{"marker2":false,"marker1":false,"weights":[[],[0.40994167327880859,0,0.45632869005203247,0,0,0,0,0.052278280258178711,0,-0.15534031391143799,0,0,-0.48147457838058472,-0.363238126039505,0,0,0,0,0,0,0,0.29515677690505981,0.36583346128463745,0,0,0.30289867520332336,0,0,-0.0033766292035579681,0,0.35386732220649719,0,0,0,0,0,0.19401216506958008,-0.4332909882068634,0,0.17968277633190155,0,0.33532527089118958,0,-0.25165534019470215,0,-0.20270287990570068,0,0,0,-0.31851059198379517,0,0,-0.45986327528953552,0,0,0,0,0,0,-0.41790735721588135,0,0,0,0,-0.36632141470909119,0,0,0,0,0,0,0.35208410024642944,0.83688843250274658,-0.073915958404541016,0.25809401273727417,0.071545839309692383,0,0.13436207175254822,-0.38097286224365234,0,-1,-0.30709376931190491,0,0,0,0.93782323598861694,0,0,0,0.41716122627258301,0,-0.46045860648155212,0.46251478791236877,0,0,0,0,0,0,-0.46570906043052673,0.34910082817077637,0,0,-0.40483734011650085,0,0,0,0,0,-0.1159704402089119,0,0.20255434513092041,0,0.054481983184814453,0,-0.061370968818664551,0,0,0.40472888946533203,-0.12581688165664673,0,0,0.44810247421264648,0,0,0,0,0.37592345476150513,-0.18413086235523224,-0.16082888841629028,0,0,0,0.18566286563873291,0,0,0,0,-0.35841435194015503,0,0,-0.45058143138885498,-0.40637028217315674,0.35713937878608704,0.42361545562744141,0.30315810441970825,0,0,0.47211423516273499,0,-0.68400144577026367,0,0,0.25479927659034729,0,0,0.39238786697387695,0.6516568660736084,-0.31787851452827454,0,0,0,0.38444074988365173,-0.20440419018268585,0.2673487663269043,0,0.33980205655097961,0,0.47169563174247742,0,0,-0.30126175284385681,-0.39354375004768372,0,-0.3946460485458374,0,0,0,0,0,0,0,0,0,0,0,0,0,0,0.43496543169021606,0,0,0.33939310908317566,0,0.68862009048461914,0,0,0,0,0.25396248698234558,-0.37375664710998535,0,0,0,0,0,0,0,0,0.40700966119766235,0,0.37195137143135071,0.87787020206451416,-0.36907386779785156,0,0,0,0.055069297552108765,-0.39782026410102844,0.48265564441680908,0.2814452052116394,0.11001050472259521,0,0,-0.26969686150550842,0,-0.85149049758911133,0,0,0,-0.2888481616973877,0,-0.48049092292785645,0,0,-0.35652625560760498,0,0,0,0,-0.38530009984970093,0,-0.44197055697441101,0,0,-0.80106973648071289,0,0.051670722663402557,0,-0.41212403774261475,0,0,0,0,0,0,0,0,0.41348204016685486,0,0.76854610443115234,0,0.43010666966438293,0.99095070362091064,-0.48795226216316223,0,0,0,-0.9109649658203125,0,0,0,0,0.34665080904960632,0,-0.31904140114784241,0,0.48562201857566833,0,0,-0.27164697647094727,-0.45952638983726501,0,-0.17721232771873474,0,0,0.36010664701461792,0,-1,-0.25472337007522583,0,0,0,0,-0.28602921962738037,0.77310526371002197,0,0,0,0,0,-0.42166218161582947,-0.18316248059272766,0,0,0,0,0.31528937816619873,0,0,0,0.081602349877357483,0,0,-0.57303416728973389,-0.45345306396484375,-0.27875003218650818,0.25921154022216797,-0.40015935897827148,0.13335633277893066,0.49390897154808044,0,0,0,-0.30915895104408264,0,-0.59603035449981689,0.42118781805038452,0,-0.27848878502845764,0,-0.089833617210388184,-0.38829979300498962,0.40875214338302612,0,0,0,-0.49711519479751587,-0.42093667387962341,0.75392389297485352,-0.38346371054649353,0,0,0,0,0,0.53038352727890015,0,0,-0.25026041269302368,0,0],[0,0,-0.19762502610683441,0,-0.71869349479675293,0,-1,0,0.35392928123474121,0,0,-0.44618904590606689,0,0.3716130256652832,0,0,0,0,0.34177315235137939,0,-1,0.40474459528923035,0.43215599656105042,-0.29152396321296692,0,0.81897008419036865,0,0,-0.15942287445068359,-0.80062752962112427,0,0,0,0,0.46981179714202881,0,0,-0.026402255520224571,0,0,0.42866936326026917,-0.51509773731231689,-0.30299580097198486,0,-0.418387770652771,-0.28066638112068176,-0.43985438346862793,0,-1,0,0,0,0,0.28059375286102295,0.49399763345718384,0,0,0,-0.66619139909744263,0.15957629680633545,0,-0.49987947940826416,-0.46637231111526489,0,-0.97485601902008057,0.32988262176513672,0.99363327026367188,-0.48389109969139099,0,0.39534664154052734,0.68609404563903809,0,-0.37116563320159912,-0.36125028133392334,-0.38149565458297729,0,0,0.45554697513580322,0.27981901168823242,0,-0.43210527300834656,-0.33356553316116333,0,0,0.74229401350021362,0,0,0,0,0,0,0,0,0,-0.098721981048583984,0,0.34316110610961914,0,0,-1,0.11877907067537308,0,0,0.06208646297454834,0,0.90099692344665527,-0.90392804145812988,0,0,0,0,0,0,0.40908867120742798,0.81142336130142212,0.27318906784057617,0,0,0,0,-0.40505924820899963,-0.064185500144958496,-0.16136491298675537,0,0,-0.44113874435424805,0,-0.15763019025325775]],"id":"B374C188-3A13-4685-9E8A-DAA48B1683E7","generation":81,"biases":[[],[0.15299634635448456,0.33804064989089966,0.039495740085840225,0.059478312730789185,0,-0.73070013523101807,-0.29809311032295227,0.055555101484060287,0.10627651214599609,-0.056544769555330276,-0.67967462539672852,0.50176644325256348,-0.44089782238006592,0,-1,-0.410666823387146],[-0.15921381115913391,0.16288077831268311,-1,0.24703449010848999,-0.23767195641994476,0,0.5,0.23527371883392334]],"inputCount":22,"hiddenCount":16,"outputCount":8},
{"marker2":false,"marker1":false,"weights":[[],[0.40994167327880859,0,0.45632869005203247,0,0,0,0,0.052278280258178711,0,-0.15534031391143799,0,0,-0.48147457838058472,-0.363238126039505,0,0,0,0,0,0,0,0.29515677690505981,0.36583346128463745,0,0,0.30289867520332336,0,0,-0.0033766292035579681,0,0.35386732220649719,0,0,0,0,0,0.19401216506958008,-0.4332909882068634,0,0.17968277633190155,0,0.33532527089118958,0,-0.25165534019470215,0,-0.20270287990570068,0,0,0,-0.31851059198379517,0,0,-0.45986327528953552,0,0,0,0,0,0,-0.41790735721588135,0,0,0,0,-0.36632141470909119,0,0,0,0,0,0,0.35208410024642944,0.83688843250274658,-0.073915958404541016,0.25809401273727417,0.071545839309692383,0,0.13436207175254822,-0.38097286224365234,0,-1,-0.30709376931190491,0,0,0,0.93782323598861694,0,0,0,0.41716122627258301,0,-0.46045860648155212,0.46251478791236877,0,0,0,0,0,0,-0.46570906043052673,0.34910082817077637,0,0,-0.40483734011650085,0,0,0,0,0,-0.1159704402089119,0,0.20255434513092041,0,0.054481983184814453,0,-0.061370968818664551,0,0,0.40472888946533203,-0.12581688165664673,0,0,0.44810247421264648,0,0,0,0,0.37592345476150513,-0.18413086235523224,-0.16082888841629028,0,0,0,0.18566286563873291,0,0,0,0,-0.35841435194015503,0,0,-0.45058143138885498,-0.40637028217315674,0.35713937878608704,0.42361545562744141,0.30315810441970825,0,0,0.47211423516273499,0,-0.68400144577026367,0,0,0.25479927659034729,0,0,0.39238786697387695,0.6516568660736084,-0.31787851452827454,0,0,0,0.38444074988365173,-0.20440419018268585,0.2673487663269043,0,0.33980205655097961,0,0.47169563174247742,0,0,-0.30126175284385681,-0.39354375004768372,0,-0.3946460485458374,0,0,0,0,0,0,0,0,0,0,0,0,0,0,0.43496543169021606,0,0,0.33939310908317566,0,0.68862009048461914,0,0,0,0,0.25396248698234558,-0.37375664710998535,0,0,0,0,0,0,0,0,0.40700966119766235,0,0.37195137143135071,0.87787020206451416,-0.36907386779785156,0,0,0,0.055069297552108765,-0.39782026410102844,0.48265564441680908,0.2814452052116394,0,0,0,-0.26969686150550842,0,-0.85149049758911133,0,0,0,-0.2888481616973877,0,-0.48049092292785645,0,0,-0.35652625560760498,0,0,0,0,-0.38530009984970093,0,-0.44197055697441101,0,0,-0.80106973648071289,0,0.051670722663402557,0,-0.41212403774261475,0,0,0,0,0,0,0,0,0.41348204016685486,0,0.76854610443115234,0,0.43010666966438293,0.99095070362091064,-0.48795226216316223,0,0,0,-0.9109649658203125,0,0,0,0,0.34665080904960632,0,-0.31904140114784241,0,0.48562201857566833,0,0,-0.27164697647094727,-0.45952638983726501,0,-0.17721232771873474,0,0,0.36010664701461792,0,-1,-0.25472337007522583,0,0,0,0,-0.28602921962738037,0.77310526371002197,0,0,0,0,0,-0.42166218161582947,-0.18316248059272766,0,0,0,0,0.31528937816619873,0,0,0,0.081602349877357483,0,0,-0.57303416728973389,-0.45345306396484375,-0.27875003218650818,0.25921154022216797,-0.40015935897827148,0.13335633277893066,0.49390897154808044,0,0,0,-0.30915895104408264,0,-0.59603035449981689,0.42118781805038452,0,-0.27848878502845764,-0.47336453199386597,-0.089833617210388184,-0.38829979300498962,0.40875214338302612,0,0,0,-0.49711519479751587,-0.42093667387962341,0.75392389297485352,-0.38346371054649353,0,0,0,0,0,0.53038352727890015,0,0,-0.25026041269302368,0,0],[0,0,-0.19762502610683441,0,-0.71869349479675293,0,-1,0,0.35392928123474121,0,0,-0.44618904590606689,0,0.3716130256652832,0,0,0,0,0.34177315235137939,0,-1,0.40474459528923035,0.46021339297294617,-0.29152396321296692,0,0.81897008419036865,0,0,-0.15942287445068359,-0.80062752962112427,0,0,0,0,0.46981179714202881,0,0,-0.026402255520224571,0,0,0.42866936326026917,-0.51509773731231689,-0.30299580097198486,0,-0.418387770652771,-0.28066638112068176,-0.43985438346862793,0,-1,0,0,0,0,0.28059375286102295,0.49399763345718384,0,0,0,-0.66619139909744263,0.15957629680633545,0,-0.49987947940826416,-0.46637231111526489,0,-0.97485601902008057,0.32988262176513672,0.99363327026367188,-0.48389109969139099,0,0.39534664154052734,0.68609404563903809,0,-0.37116563320159912,-0.36125028133392334,-0.38149565458297729,0,0,0.45554697513580322,0.27981901168823242,0,-0.43210527300834656,-0.33356553316116333,0,0,0.74229401350021362,0,0,0,0,0,0,0,0,0,-0.098721981048583984,0,0.34316110610961914,0,0,-1,0.11877907067537308,0,0,0.06208646297454834,0,0.90099692344665527,-0.90392804145812988,0,0,0,0,0,0,0.40908867120742798,0.81142336130142212,0.27318906784057617,0,0,0,0,-0.40505924820899963,-0.064185500144958496,-0.16136491298675537,0,0,-0.44113874435424805,0,-0.15763019025325775]],"id":"2EDB775D-A41F-4899-AB24-4D393261830F","generation":80,"biases":[[],[0.15299634635448456,0.33804064989089966,0.039495740085840225,0.059478312730789185,0,-0.73070013523101807,-0.29809311032295227,0.055555101484060287,0.10627651214599609,-0.056544769555330276,-0.67967462539672852,0.50176644325256348,-0.44089782238006592,0,-1,-0.410666823387146],[-0.15921381115913391,0.16288077831268311,-1,0.24703449010848999,-0.23767195641994476,0,0.5,0.23527371883392334]],"inputCount":22,"hiddenCount":16,"outputCount":8},
{"marker2":false,"marker1":false,"weights":[[],[0.40994167327880859,0,0.45632869005203247,0,0,0,0,0.052278280258178711,0,-0.15534031391143799,0,0,-0.48147457838058472,-0.363238126039505,0,0,0,0,0,0,0,0.29515677690505981,0.36583346128463745,0,0,0.30289867520332336,0,0,-0.0033766292035579681,0,0.35386732220649719,0,0,0,0,0,0.19401216506958008,-0.4332909882068634,0,0.17968277633190155,0,0.33532527089118958,0,-0.25165534019470215,0,-0.20270287990570068,0,0,0,-0.31851059198379517,0,0,-0.45986327528953552,0,0,0,0,0,0,-0.41790735721588135,0,0,0,0,-0.36632141470909119,0,0,0,0,0,0,0.35208410024642944,1,-0.073915958404541016,0.25809401273727417,0.071545839309692383,0,0.13436207175254822,-0.38097286224365234,0,-1,-0.30709376931190491,0,0,0,0.93782323598861694,0,0,0,0.41716122627258301,0,-0.46045860648155212,0.46251478791236877,0,0,0,0,0,0,-0.46570906043052673,0.34910082817077637,0,0,-0.40483734011650085,0,0,0,0,0,-0.1159704402089119,0,0.20255434513092041,0,0.054481983184814453,0,-0.061370968818664551,0,0,0.40472888946533203,-0.12581688165664673,0,0,0.44810247421264648,0,0,0,0,0.37592345476150513,-0.18413086235523224,-0.16082888841629028,0,0,0,0.37132573127746582,0,0,0,0,-0.35841435194015503,0,0,-0.45058143138885498,-0.40637028217315674,0.35713937878608704,0,0.30315810441970825,0,0,0,0,-0.68400144577026367,0,0,0.25479927659034729,0,0,0.39238786697387695,0.6516568660736084,0,0,0.44824019074440002,0,0.38444074988365173,-0.20440419018268585,0.2673487663269043,0,0.33980205655097961,0,0.47169563174247742,0,0,-0.30126175284385681,-0.39354375004768372,0,-0.3946460485458374,0,0,0,0,0,0,0,0,0,0,0,0,0,0,0.43496543169021606,0,0,0.33939310908317566,0,0.68862009048461914,0,0,0,0,0.25396248698234558,-0.37375664710998535,0,0,0,0,0,0.25157523155212402,0,0,0.40700966119766235,0,0.37195137143135071,0.87787020206451416,-0.36907386779785156,0,0,0,0.055069297552108765,-0.39782026410102844,0.48265564441680908,0.2814452052116394,0,0,0,-0.26969686150550842,0,-0.85149049758911133,0,0,0,-0.2888481616973877,0,-0.48049092292785645,0,0,-0.76646625995635986,0,0,0,0,-0.38530009984970093,0,-0.44197055697441101,0,0,-0.80106973648071289,0,0.051670722663402557,0,-0.41212403774261475,0,0,0,0,-0.54608011245727539,0,0,0,0.41348204016685486,0,0.76854610443115234,0,0.43010666966438293,0.99095070362091064,-0.48795226216316223,0,0,0,-0.9109649658203125,0,0,0,0,0.34665080904960632,0,-0.31904140114784241,0,0.48562201857566833,0,0,-0.27164697647094727,-0.45952638983726501,0,-0.17721232771873474,0,0,0.36010664701461792,0,-1,-0.25472337007522583,0,0,0,0,-0.28602921962738037,0.77310526371002197,0,0,0,0,0,-0.42166218161582947,-0.18316248059272766,0,0,0,0,0.31528937816619873,0,0,0,0.081602349877357483,0,0,-0.57303416728973389,-0.45345306396484375,-0.27875003218650818,0.25921154022216797,-0.40015935897827148,0.13335633277893066,0.49390897154808044,0,0,0,-0.30915895104408264,0,-0.59603035449981689,0.42118781805038452,0,-0.27848878502845764,0,-0.089833617210388184,-0.38829979300498962,0.40875214338302612,0,0,0,-0.49711519479751587,-0.42093667387962341,0.75392389297485352,-0.38346371054649353,0,0,0,0,0,0.53038352727890015,0,0,-0.25026041269302368,0,0],[0,0,-0.19762502610683441,0,-0.71869349479675293,0,-1,0,0.35392928123474121,0,0,-0.44618904590606689,0,0.3716130256652832,0,0,0,0,0.68354630470275879,0,-1,0.40474459528923035,0,-0.29152396321296692,0,0.81897008419036865,0,0,-0.15942287445068359,-0.80062752962112427,0,0,0,0,0.46981179714202881,0,0,-0.026402255520224571,0,0,0.42866936326026917,-0.51509773731231689,-0.30299580097198486,0,-0.418387770652771,-0.28066638112068176,-0.43985438346862793,0,-1,0,0,0,0,0.28059375286102295,0.49399763345718384,0,0,0,-0.66619139909744263,0.15957629680633545,0,-0.49987947940826416,-0.46637231111526489,0,-0.97485601902008057,0.32988262176513672,0.99363327026367188,-0.48389109969139099,0,0.39534664154052734,0.68609404563903809,0,-0.37116563320159912,-0.36125028133392334,-0.38149565458297729,0,0,0.45554697513580322,0.27981901168823242,0,-0.43210527300834656,-0.33356553316116333,0,0,0.37114700675010681,0,0,0,0,0,0,0,0,0,-0.21396112442016602,0,0.34316110610961914,0,0,-1,0.11877907067537308,0,0,0.06208646297454834,0,0.90099692344665527,-0.90392804145812988,0,0,0,0,-0.46987223625183105,0,0.40908867120742798,0.81142336130142212,0.27318906784057617,0,0,0,0,-0.40505924820899963,-0.064185500144958496,-0.16136491298675537,0,0,-0.44113874435424805,0,-0.15763019025325775]],"id":"1683C1F0-4BAB-4740-97B1-AB395A9019F9","generation":80,"biases":[[],[0.15299634635448456,0.33804064989089966,0.039495740085840225,0.059478312730789185,0,-0.73070013523101807,-0.29809311032295227,0.055555101484060287,0.10627651214599609,-0.056544769555330276,-0.67967462539672852,0.50176644325256348,-0.44089782238006592,0,-1,-0.410666823387146],[0.14435315132141113,0.16288077831268311,-1,0.24703449010848999,-0.23767195641994476,0,0.5,0.23527371883392334]],"inputCount":22,"hiddenCount":16,"outputCount":8},
{"marker2":false,"marker1":false,"weights":[[],[0.40994167327880859,0,0.45632869005203247,0,0,0,0,0.052278280258178711,0,-0.15534031391143799,-0.45862573385238647,0,-0.48147457838058472,-0.363238126039505,0,0.72500705718994141,0,0,0,0,0,0.57247889041900635,0.36583346128463745,0,0,0.30289867520332336,0,0,-0.0033766292035579681,0,0.35386732220649719,0,0,0,0,0,0.19401216506958008,-0.4332909882068634,0,0.17968277633190155,0,0.33532527089118958,0,-0.25165534019470215,0,-0.20270287990570068,0,0,0,-0.31851059198379517,0,0,-0.45986327528953552,0,0,0,0,0,0,-0.41790735721588135,0,0,0,0,-0.36632141470909119,0,0,0,0,0,0,0.35208410024642944,0.83688843250274658,0.42548555135726929,0,0.071545839309692383,0,0.13436207175254822,-0.38097286224365234,0,-1,-0.30709376931190491,0,0,0,1,0,0,0,0.41716122627258301,0,-0.46045860648155212,0.46251478791236877,0,0,0,0,0,0,-0.46570906043052673,0.34910082817077637,0,0,-0.40483734011650085,0,0.59032058715820312,0,0,0,-0.1159704402089119,0,0.20255434513092041,0,0.10896396636962891,0,-0.061370968818664551,0,0,0.40472888946533203,-0.12581688165664673,0,0,0.44810247421264648,0,0,0,0,0.37592345476150513,-0.18413086235523224,-0.16082888841629028,0,0,0,0.37132573127746582,0,0,0,0,-0.35841435194015503,0,0,-0.90116286277770996,-0.40637028217315674,0.35713937878608704,0,0.30315810441970825,-0.4638507068157196,0,0,0,-0.68400144577026367,0,0,0.25479927659034729,0,0,0.39238786697387695,0.6516568660736084,0,0,0,0,0.38444074988365173,-0.20440419018268585,0.2673487663269043,0,0.33980205655097961,0.66214752197265625,0.47169563174247742,0,0,-0.30126175284385681,0,0,-0.3946460485458374,0,0,0,0,0,-0.43489065766334534,-0.29467794299125671,0,0,0,0,0,0,0,0.43496543169021606,0,0,0.33939310908317566,0,0.68862009048461914,0,0,-0.47282993793487549,0,0.25396248698234558,-0.37375664710998535,0,0,0,0,0,0,0,0,0.40700966119766235,0,0.37195137143135071,0.87787020206451416,-0.36907386779785156,0,0,0,0.055069297552108765,-0.39782026410102844,0.48265564441680908,0.2814452052116394,0,0,0,0,0,-0.42574524879455566,0,0,0,-0.2888481616973877,0,-0.48049092292785645,0,0,-0.35652625560760498,0,0,0,0,-0.38530009984970093,0,-0.44197055697441101,0,0,-0.80106973648071289,0,0.051670722663402557,0,0.0142209492623806,0,0,0,0,0,0,0,0,0.41348204016685486,0,0.40517371892929077,0,0.43010666966438293,0.99095070362091064,-0.48795226216316223,0,0,0,-0.9109649658203125,0,0,0,0,0,0,-0.31904140114784241,0,0.48562201857566833,0,0,-0.27164697647094727,-0.76938366889953613,0,-0.088606163859367371,0,0,0.36010664701461792,0,-1,0,0,0,0,0,-0.28602921962738037,0.77310526371002197,0,0,0,0,0,-0.42166218161582947,-0.36632496118545532,0,0,0,0,0.31528937816619873,0,0,0,0.081602349877357483,0,0,-0.57303416728973389,-0.45345306396484375,-0.27875003218650818,0.25921154022216797,-0.40015935897827148,0.13335633277893066,0.49390897154808044,0,0,0,-0.30915895104408264,0,-0.59603035449981689,0.42118781805038452,0,-0.27848878502845764,-0.95763528347015381,-0.089833617210388184,-0.38829979300498962,0.40875214338302612,0,0,0,-0.49711519479751587,-0.42093667387962341,0.75392389297485352,-0.38346371054649353,0,0,0,0,0,0.53038352727890015,0,0,-0.25026041269302368,0,0],[0,0,-0.19762502610683441,0,-0.71869349479675293,0,-0.50898253917694092,0,0.35392928123474121,0,0,-0.44618904590606689,0,0.3716130256652832,0,0,-0.32632991671562195,-0.37253060936927795,0.34177315235137939,0,-1,0.40474459528923035,-0.92121052742004395,-0.29152396321296692,0,0.81897008419036865,0.47940778732299805,0,-0.079711437225341797,-0.80062752962112427,0,0,0,0,0.93962359428405762,0,0,-0.026402255520224571,0,0,0.75557953119277954,-0.51509773731231689,-0.30299580097198486,0,-0.418387770652771,-0.28066638112068176,-0.43985438346862793,0,-1,0,0.98718917369842529,-0.44780322909355164,0,0.28059375286102295,0.49399763345718384,0,0,0.42204791307449341,-0.66619139909744263,0.15957629680633545,0,-0.49987947940826416,-0.46637231111526489,0,-0.97485601902008057,0.66848933696746826,0.99363327026367188,-0.48389109969139099,0,0.39534664154052734,0.68609404563903809,0,-0.37116563320159912,-0.36125028133392334,0,0,0,0.45554697513580322,0.27981901168823242,0,-0.43210527300834656,-0.33356553316116333,0,0,0.74229401350021362,-0.28037562966346741,0,0,0,0,0,0,0,0,-0.098721981048583984,0,0.34316110610961914,0,0,-1,0.11877907067537308,0,0,-0.17838656902313232,0,0.90099692344665527,-0.59952390193939209,0,0,-0.48274767398834229,0.54991292953491211,0,0,0.40908867120742798,0.81142336130142212,0.27318906784057617,0,0,0,0,-0.20252962410449982,-0.064185500144958496,-0.16136491298675537,0,0,-0.44113874435424805,0,-0.15763019025325775]],"id":"14F583D4-98B4-4E8E-903A-F0164783AFC0","generation":78,"biases":[[],[0.15299634635448456,0.77561146020889282,0.039495740085840225,0.059478312730789185,0,-0.73070013523101807,-0.29809311032295227,-0.33364534378051758,0.10627651214599609,-0.056544769555330276,-0.67967462539672852,0.50176644325256348,-0.44089782238006592,0,-0.81358802318572998,-0.16665451228618622],[0.1122891902923584,0.16288077831268311,-1,0.24703449010848999,-0.23767195641994476,0,0.15388278663158417,0.23527371883392334]],"inputCount":22,"hiddenCount":16,"outputCount":8},
{"marker2":false,"marker1":false,"weights":[[],[0.40994167327880859,0,0.45632869005203247,0,0,0,0,0.052278280258178711,0,-0.15534031391143799,0,0,-0.48147457838058472,-0.363238126039505,0,0,0,0,0,0,0,0.29515677690505981,0.36583346128463745,0,0,0.30289867520332336,0,0,-0.0033766292035579681,0,0.35386732220649719,0,0,0,0,0,0.19401216506958008,-0.4332909882068634,0,0.17968277633190155,0,0.33532527089118958,0,-0.25165534019470215,0,-0.20270287990570068,0,0,0,-0.31851059198379517,0,0,-0.45986327528953552,0,0,0,0,0,0,-0.41790735721588135,0,0,0,0,-0.36632141470909119,0,0,0,0,0,0,0.35208410024642944,0.83688843250274658,-0.073915958404541016,0.25809401273727417,0.071545839309692383,0,0.13436207175254822,-0.38097286224365234,0,-1,-0.30709376931190491,0,0,0,0.93782323598861694,0,0,0,0.41716122627258301,0,-0.46045860648155212,0.46251478791236877,0,0,0,0,0,0,-0.46570906043052673,0.34910082817077637,0,0,-0.40483734011650085,0,0,0,0,0,-0.1159704402089119,0,0.20255434513092041,0,0.054481983184814453,0,-0.061370968818664551,0,0,0.40472888946533203,-0.12581688165664673,0,0,0.44810247421264648,0,0,0,0,0.37592345476150513,-0.18413086235523224,-0.16082888841629028,0,0,0,0.18566286563873291,0,0,0,0,-0.35841435194015503,0,0,-0.45058143138885498,-0.40637028217315674,0.35713937878608704,0.42361545562744141,0.30315810441970825,0,0,0.47211423516273499,0,-0.68400144577026367,0,0,0.25479927659034729,0,0,0.39238786697387695,0.6516568660736084,-0.31787851452827454,0,0,0,0.38444074988365173,-0.20440419018268585,0.2673487663269043,0,0.33980205655097961,0,0.47169563174247742,0,0,-0.30126175284385681,-0.39354375004768372,0,-0.3946460485458374,0,0,0,0,0,0,0,0,0,0,0,0,0,0,0.43496543169021606,0,0,0.33939310908317566,0,0.68862009048461914,0,0,0,0,0.25396248698234558,-0.37375664710998535,0,0,0,0,0,0,0,0,0.40700966119766235,0,0.37195137143135071,0.87787020206451416,-0.36907386779785156,0,0,0,0.055069297552108765,-0.39782026410102844,0.48265564441680908,0.2814452052116394,0.11001050472259521,0,0,-0.26969686150550842,0,-0.85149049758911133,0,0,0,-0.2888481616973877,0,-0.48049092292785645,0,0,-0.35652625560760498,0,0,0,0,-0.38530009984970093,0,-0.44197055697441101,0,0,-0.80106973648071289,0,0.051670722663402557,0,-0.41212403774261475,0,0,0,0,0,0,0,0,0.41348204016685486,0,0.76854610443115234,0,0.43010666966438293,0.99095070362091064,-0.48795226216316223,0,0,0,-0.9109649658203125,0,0,0,0,0.34665080904960632,0,-0.31904140114784241,0,0.48562201857566833,0,0,-0.27164697647094727,-0.45952638983726501,0,-0.17721232771873474,0,0,0.36010664701461792,0,-1,-0.25472337007522583,0,0,0,0,-0.28602921962738037,0.77310526371002197,0,0,0,0,0,-0.42166218161582947,-0.18316248059272766,0,0,0,0,0.31528937816619873,0,0,0,0.081602349877357483,0,0,-0.57303416728973389,-0.45345306396484375,-0.27875003218650818,0.25921154022216797,-0.40015935897827148,0.13335633277893066,0.49390897154808044,0,0,0,-0.30915895104408264,0,-0.59603035449981689,0.42118781805038452,0,-0.27848878502845764,0,-0.089833617210388184,-0.38829979300498962,0.40875214338302612,0,0,0,-0.49711519479751587,-0.42093667387962341,0.75392389297485352,-0.38346371054649353,0,0,0,0,0,0.53038352727890015,0,0,-0.25026041269302368,0,0],[0,0,-0.19762502610683441,0,-0.71869349479675293,0,-1,0,0.35392928123474121,0,0,-0.44618904590606689,0,0.3716130256652832,0,0,0,0,0.34177315235137939,0,-1,0.40474459528923035,0.43215599656105042,-0.29152396321296692,0,0.81897008419036865,0,0,-0.15942287445068359,-0.80062752962112427,0,0,0,0,0.46981179714202881,0,0,-0.026402255520224571,0,0,0.42866936326026917,-0.51509773731231689,-0.30299580097198486,0,-0.418387770652771,-0.28066638112068176,-0.43985438346862793,0,-1,0,0,0,0,0.28059375286102295,0.49399763345718384,0,0,0,-0.66619139909744263,0.15957629680633545,0,-0.49987947940826416,-0.46637231111526489,0,-0.97485601902008057,0.32988262176513672,0.99363327026367188,-0.48389109969139099,0,0.39534664154052734,0.68609404563903809,0,-0.37116563320159912,-0.36125028133392334,-0.38149565458297729,0,0,0.45554697513580322,0.27981901168823242,0,-0.43210527300834656,-0.33356553316116333,0,0,0.74229401350021362,0,0,0,0,0,0,0,0,0,-0.098721981048583984,0,0.34316110610961914,0,0,-1,0.11877907067537308,0,0,0.06208646297454834,0,0.90099692344665527,-0.90392804145812988,0,0,0,0,0,0,0.40908867120742798,0.81142336130142212,0.27318906784057617,0,0,0,0,-0.40505924820899963,-0.064185500144958496,-0.16136491298675537,0,0,-0.44113874435424805,0,-0.15763019025325775]],"id":"063FA467-D18A-42B9-82D5-07982EB6B725","generation":80,"biases":[[],[0.15299634635448456,0.33804064989089966,0.039495740085840225,0.059478312730789185,0,-0.73070013523101807,-0.29809311032295227,0.055555101484060287,0.10627651214599609,-0.056544769555330276,-0.67967462539672852,0.50176644325256348,-0.44089782238006592,0,-1,-0.410666823387146],[-0.15921381115913391,0.16288077831268311,-1,0.24703449010848999,-0.23767195641994476,0,0.5,0.23527371883392334]],"inputCount":22,"hiddenCount":16,"outputCount":8},
{"marker2":false,"marker1":false,"weights":[[],[0.40994167327880859,0,0.45632869005203247,0,0,0,0,0.052278280258178711,0,-0.15534031391143799,0,0,-0.48147457838058472,-0.363238126039505,0,0,0,0,0,0,0,0.29515677690505981,0.36583346128463745,0,0,0.30289867520332336,0,0,-0.0033766292035579681,0,0.35386732220649719,0,0,0,0,0,0.19401216506958008,-0.4332909882068634,0,0.17968277633190155,0,0.33532527089118958,0,-0.25165534019470215,0,-0.20270287990570068,0,0,0,-0.31851059198379517,0,0,-0.45986327528953552,0,0,0,0,0,0,-0.41790735721588135,0,0,0,0,-0.36632141470909119,0,0,0,0,0,0,0.35208410024642944,0.83688843250274658,-0.073915958404541016,0.25809401273727417,0.071545839309692383,0,0.13436207175254822,-0.38097286224365234,0,-1,-0.30709376931190491,0,0,0,0.93782323598861694,0,0,0,0.41716122627258301,0,-0.46045860648155212,0.46251478791236877,0,0,0,0,0,0,-0.46570906043052673,0.34910082817077637,0,0,-0.40483734011650085,0,0,0,0,0,-0.1159704402089119,0,0.20255434513092041,0,0.054481983184814453,0,-0.061370968818664551,0,0,0.40472888946533203,-0.12581688165664673,0,0,0.44810247421264648,0,0,0,0,0.37592345476150513,-0.18413086235523224,-0.16082888841629028,0,0,0,0.18566286563873291,0,0,0,0,-0.35841435194015503,0,0,-0.45058143138885498,-0.40637028217315674,0.35713937878608704,0.42361545562744141,0.30315810441970825,0,0,0.47211423516273499,0,-0.68400144577026367,0,0,0.25479927659034729,0,0,0.39238786697387695,0.6516568660736084,-0.31787851452827454,0,0,0,0.38444074988365173,-0.20440419018268585,0.2673487663269043,0,0.33980205655097961,0,0.47169563174247742,0,0,-0.30126175284385681,-0.39354375004768372,0,-0.3946460485458374,0,0,0,0,0,0,0,0,0,0,0,0,0,0,0.43496543169021606,0,0,0.33939310908317566,0,0.68862009048461914,0,0,0,0,0.25396248698234558,-0.37375664710998535,0,0,0,0,0,0,0,0,0.40700966119766235,0,0.37195137143135071,0.87787020206451416,-0.36907386779785156,0,0,0,0.055069297552108765,-0.39782026410102844,0.48265564441680908,0.2814452052116394,0,0,0,-0.26969686150550842,0,-0.85149049758911133,0,0,0,-0.2888481616973877,0,-0.48049092292785645,0,0,-0.35652625560760498,0,0,0,0,-0.38530009984970093,0,-0.44197055697441101,0,0,-0.80106973648071289,0,0.051670722663402557,0,-0.41212403774261475,0,0,0,0,0,0,0,0,0.41348204016685486,0,0.76854610443115234,0,0.43010666966438293,0.99095070362091064,-0.48795226216316223,0,0,0,-0.9109649658203125,0,0,0,0,0.34665080904960632,0,-0.31904140114784241,0,0.48562201857566833,0,0,-0.27164697647094727,-0.45952638983726501,0,-0.17721232771873474,0,0,0.36010664701461792,0,-1,-0.25472337007522583,0,0,0,0,-0.28602921962738037,0.77310526371002197,0,0,0,0,0,-0.42166218161582947,-0.18316248059272766,0,0,0,0,0.31528937816619873,0,0,0,0.081602349877357483,0,0,-0.57303416728973389,-0.45345306396484375,-0.27875003218650818,0.25921154022216797,-0.40015935897827148,0.13335633277893066,0.49390897154808044,0,0,0,-0.30915895104408264,0,-0.59603035449981689,0.42118781805038452,0,-0.27848878502845764,0,-0.089833617210388184,-0.38829979300498962,0.40875214338302612,0,0,0,-0.49711519479751587,-0.42093667387962341,0.75392389297485352,-0.38346371054649353,0,0,0,0,0,0.53038352727890015,0,0,-0.25026041269302368,0,0],[0,0,-0.19762502610683441,0,-0.71869349479675293,0,-1,0,0.35392928123474121,0,0,-0.44618904590606689,0,0.3716130256652832,0,0,0,0,0.34177315235137939,0,-1,0.40474459528923035,0,-0.29152396321296692,0,0.81897008419036865,0,0,-0.15942287445068359,-0.80062752962112427,0,0,0,0,0.46981179714202881,0,0,-0.026402255520224571,0,0,0.42866936326026917,-0.51509773731231689,-0.30299580097198486,0,-0.418387770652771,-0.28066638112068176,-0.43985438346862793,0,-1,0,0,0,0,0.28059375286102295,0.49399763345718384,0,0,0,-0.66619139909744263,0.15957629680633545,0,-0.49987947940826416,-0.46637231111526489,0,-0.97485601902008057,0.32988262176513672,0.99363327026367188,-0.48389109969139099,0,0.39534664154052734,0.68609404563903809,0,-0.37116563320159912,-0.36125028133392334,-0.38149565458297729,0,0,0.45554697513580322,0.27981901168823242,0,-0.43210527300834656,-0.33356553316116333,0,0,0.74229401350021362,0,0,0,0,0,0,0,0,0,-0.098721981048583984,0,0.34316110610961914,0,0,-1,0.11877907067537308,0,0,0.06208646297454834,0,0.90099692344665527,-0.90392804145812988,0,0,0,0,0,0,0.40908867120742798,0.81142336130142212,0.27318906784057617,0,0,0,0,-0.40505924820899963,-0.064185500144958496,-0.16136491298675537,0,0,-0.44113874435424805,0,-0.15763019025325775]],"id":"1CBAC05D-7093-4639-AF2C-F57AF827A9D5","generation":80,"biases":[[],[0.15299634635448456,0.33804064989089966,0.039495740085840225,0.059478312730789185,0,-0.73070013523101807,-0.29809311032295227,0.055555101484060287,0.10627651214599609,-0.056544769555330276,-0.67967462539672852,0.50176644325256348,-0.44089782238006592,0,-1,-0.410666823387146],[-0.15921381115913391,0.16288077831268311,-1,0.24703449010848999,-0.23767195641994476,0,0.5,0.23527371883392334]],"inputCount":22,"hiddenCount":16,"outputCount":8},
{"marker2":false,"marker1":false,"weights":[[],[0.40994167327880859,0,0.45632869005203247,0,0,0,0,0.052278280258178711,0,-0.15534031391143799,0,0,-0.48147457838058472,-0.363238126039505,0,0,0,0,0,0,0,0.29515677690505981,0.36583346128463745,0,0,0.30289867520332336,0,0,-0.0033766292035579681,0,0.35386732220649719,0,0,0,0,0,0.19401216506958008,-0.4332909882068634,0,0.17968277633190155,0,0.33532527089118958,0,-0.25165534019470215,0,-0.20270287990570068,0,0,0,-0.31851059198379517,0,0,-0.45986327528953552,0,0,0,0,0,0,-0.41790735721588135,0,0,0,0,-0.36632141470909119,0,0,0,0,0,0,0.35208410024642944,0.83688843250274658,-0.073915958404541016,0.25809401273727417,0.071545839309692383,0,0.13436207175254822,-0.38097286224365234,0,-1,-0.30709376931190491,0,0,0,0.93782323598861694,0,0,0,0.41716122627258301,0,-0.46045860648155212,0.46251478791236877,0,0,0,0,0,0,-0.46570906043052673,0.34910082817077637,0,0,-0.40483734011650085,0,0,0,0,0,-0.1159704402089119,0,0.20255434513092041,0,0.054481983184814453,0,-0.061370968818664551,0,0,0.40472888946533203,-0.12581688165664673,0,0,0.44810247421264648,0,0,0,0,0.37592345476150513,-0.18413086235523224,-0.16082888841629028,0,0,0,0.18566286563873291,0,0,0,0,-0.35841435194015503,0,0,-0.45058143138885498,-0.40637028217315674,0.35713937878608704,0.42361545562744141,0.30315810441970825,0,0,0.47211423516273499,0,-0.68400144577026367,0,0,0.25479927659034729,0,0,0.39238786697387695,0.6516568660736084,-0.31787851452827454,0,0,0,0.38444074988365173,-0.20440419018268585,0.2673487663269043,0,0.33980205655097961,0,0.47169563174247742,0,0,-0.30126175284385681,-0.39354375004768372,0,-0.3946460485458374,0,0,0,0,0,0,0,0,0,0,0,0,0,0,0.43496543169021606,0,0,0.33939310908317566,0,0.68862009048461914,0,0,0,0,0.25396248698234558,-0.37375664710998535,0,0,0,0,0,0,0,0,0.40700966119766235,0,0.37195137143135071,0.87787020206451416,-0.36907386779785156,0,0,0,0.055069297552108765,-0.39782026410102844,0.48265564441680908,0.2814452052116394,0.11001050472259521,0,0,-0.26969686150550842,0,-0.85149049758911133,0,0,0,-0.2888481616973877,0,-0.48049092292785645,0,0,-0.35652625560760498,0,0,0,0,-0.38530009984970093,0,-0.44197055697441101,0,0,-0.80106973648071289,0,0.051670722663402557,0,-0.41212403774261475,0,0,0,0,0,0,0,0,0.41348204016685486,0,0.76854610443115234,0,0.43010666966438293,0.99095070362091064,-0.48795226216316223,0,0,0,-0.9109649658203125,0,0,0,0,0.34665080904960632,0,-0.31904140114784241,0,0.48562201857566833,0,0,-0.27164697647094727,-0.45952638983726501,0,-0.17721232771873474,0,0,0.36010664701461792,0,-1,-0.25472337007522583,0,0,0,0,-0.28602921962738037,0.77310526371002197,0,0,0,0,0,-0.42166218161582947,-0.18316248059272766,0,0,0,0,0.31528937816619873,0,0,0,0.081602349877357483,0,0,-0.57303416728973389,-0.45345306396484375,-0.27875003218650818,0.25921154022216797,-0.40015935897827148,0.13335633277893066,0.49390897154808044,0,0,0,-0.30915895104408264,0,-0.59603035449981689,0.42118781805038452,0,-0.27848878502845764,0,-0.089833617210388184,-0.38829979300498962,0.40875214338302612,0,0,0,-0.49711519479751587,-0.42093667387962341,0.75392389297485352,-0.38346371054649353,0,0,0,0,0,0.53038352727890015,0,0,-0.25026041269302368,0,0],[0,0,-0.19762502610683441,0,-0.71869349479675293,0,-1,0,0.35392928123474121,0,0,-0.44618904590606689,0,0.3716130256652832,0,0,0,0,0.34177315235137939,0,-1,0.40474459528923035,0.43215599656105042,-0.29152396321296692,0,0.81897008419036865,0,0,-0.15942287445068359,-0.80062752962112427,0,0,0,0,0.46981179714202881,0,0,-0.026402255520224571,0,0,0.42866936326026917,-0.51509773731231689,-0.30299580097198486,0,-0.418387770652771,-0.28066638112068176,-0.43985438346862793,0,-1,0,0,0,0,0.28059375286102295,0.49399763345718384,0,0,0,-0.66619139909744263,0.15957629680633545,0,-0.49987947940826416,-0.46637231111526489,0,-0.97485601902008057,0.32988262176513672,0.99363327026367188,-0.48389109969139099,0,0.39534664154052734,0.68609404563903809,0,-0.37116563320159912,-0.36125028133392334,-0.38149565458297729,0,0,0.45554697513580322,0.27981901168823242,0,-0.43210527300834656,-0.33356553316116333,0,0,0.74229401350021362,0,0,0,0,0,0,0,0,0,-0.098721981048583984,0,0.34316110610961914,0,0,-1,0.11877907067537308,0,0,0.06208646297454834,0,0.90099692344665527,-0.90392804145812988,0,0,0,0,0,0,0.40908867120742798,0.81142336130142212,0.27318906784057617,0,0,0,0,-0.40505924820899963,-0.064185500144958496,-0.16136491298675537,0,0,-0.44113874435424805,0,-0.15763019025325775]],"id":"73AE44E4-24CA-4B59-89FF-D16186090FF3","generation":81,"biases":[[],[0.15299634635448456,0.33804064989089966,0.039495740085840225,0.059478312730789185,0,-0.73070013523101807,-0.29809311032295227,0.055555101484060287,0.10627651214599609,-0.056544769555330276,-0.67967462539672852,0.50176644325256348,-0.44089782238006592,0,-1,-0.410666823387146],[-0.15921381115913391,0.16288077831268311,-1,0.24703449010848999,-0.23767195641994476,0,0.5,0.23527371883392334]],"inputCount":22,"hiddenCount":16,"outputCount":8}
]

