
[
{"marker2":false,"marker1":false,"weights":[[],[-0.46910089254379272,-0.5931738018989563,0,0,-0.95833337306976318,-0.62963616847991943,0,0.14651858806610107,0,0.8426470160484314,0,0.20643234252929688,-1,0.76338803768157959,-0.47522294521331787,0,0.41691595315933228,0.26683247089385986,0.27414238452911377,0,-0.33137151598930359,0.45836958289146423,0,-0.36150288581848145,0.82117658853530884,0,0.048537731170654297,-0.27654799818992615,-0.75279784202575684,0.54967594146728516,0,-0.97681659460067749,-0.37598428130149841,0,-0.58373582363128662,-1,0,0.23923568427562714,-1,0.42576247453689575,-0.43428707122802734,0.93464905023574829,0.14551800489425659,0.39114546775817871,0.029844144359230995,0,-0.32323575019836426,-0.083746984601020813,0,0.37347802519798279,-0.30915990471839905,-0.20824918150901794,0.48526531457901001,0.099504649639129639,-0.074627086520195007,-0.24718673527240753,0,0,-0.12437226623296738,-0.16821412742137909,-0.92078989744186401,0,0.43449169397354126,0.53086048364639282,-1,0,0,-0.2887846827507019,-0.27900412678718567,-1,0,-0.25346779823303223,0,-0.61646139621734619,0.17424952983856201,0,0.6122206449508667,-0.16565069556236267,0.1704915314912796,0,0.062727555632591248,0,0,-0.30525663495063782,0,0,0,0.30664980411529541,0.85029268264770508,0,0.24294324219226837,1,0.19332382082939148,-0.21760666370391846,-1,0.47604444622993469,0,1,0,0.30194559693336487,0.66411608457565308,0.96863335371017456,0,0.38988843560218811,0.7581864595413208,0.3150690495967865,0.46748724579811096,0,0,-0.98682022094726562,0.39473682641983032,0.63630080223083496,0,-0.23765969276428223,0.83627414703369141,-0.25440505146980286,0,0,-1,0,0,0.02209925651550293,0.46118491888046265,-0.911865234375,-0.37732461094856262,0.68330568075180054,0,0.076869100332260132,0,-1,0.9657818078994751,0,0,-0.13123567402362823,-0.21756482124328613,0,0.55089139938354492,0.71446573734283447,0.3097604513168335,-0.40291643142700195,0,-0.26494550704956055,0,0.25374871492385864,0.53452664613723755,0,0.38255032896995544,0,-0.29738783836364746,0,-0.46397173404693604,0.32288956642150879,-0.44225910305976868,0.8923797607421875,0.44536077976226807,0,-1,0.059122614562511444,-0.90118694305419922,0.15100005269050598,-0.98219871520996094,-1,-0.22830462455749512,-0.75837445259094238,-0.4864809513092041,-0.46023967862129211,0,-1,0.29834738373756409,-0.16257233917713165,-0.044759403914213181,-0.19612805545330048,0.31376099586486816,0.4256361722946167,0,-0.6540597677230835,-0.51941078901290894,-0.33650979399681091,0,0,0.22609785199165344,0.12030857801437378,-0.28226554393768311,1,0.34631568193435669,0,0,-1,0,0,0.34220165014266968,-0.41570675373077393,0,-0.80870699882507324,0.036942455917596817,-1,0.23744630813598633,0,0.95362347364425659,-0.12675642967224121,-0.079890608787536621,0.3890136182308197,-0.34543824195861816,0,0.42136642336845398,0,0,0.38121509552001953,0,-0.13366076350212097,0,0.25462800264358521,0.50904923677444458,0.37586069107055664,-0.93582135438919067,0.40878608822822571,-0.26433071494102478,0.23246622085571289,0,0.67253983020782471,0.33377978205680847,0.43930909037590027,0.021782517433166504,0,0,-1,0,0.42400449514389038,-0.32980620861053467,0,0.051767662167549133,0,-0.76848876476287842,0,0,0,-1,0.97084498405456543,-0.43213015794754028,0.44954636693000793,0.7743830680847168,-0.098962992429733276,0.3697967529296875,0.21113067865371704,0.39271783828735352,-0.12767896056175232,0,-0.33731678128242493,0.34247764945030212,-0.00236734957434237,0,-0.32983294129371643,-0.75909024477005005,0,0.7000725269317627,-0.32713505625724792,-0.88377523422241211,0,-0.26037022471427917,-0.25374794006347656,-0.15637591481208801,0,0.26626014709472656,0.5755651593208313,-0.6431242823600769,-0.84963595867156982,-0.35093775391578674,-0.19967092573642731,0,-0.30282717943191528,-0.40567973256111145,-0.010702908039093018,-0.046696223318576813,0,0,0.26832127571105957,0.48460933566093445,-0.77798527479171753,0.50951093435287476,-0.63152748346328735,-0.50286030769348145,0.013650176115334034,0.57534706592559814,0,0,0,0.40954187512397766,-0.79587197303771973,0.16549435257911682,0.1345227062702179,0,0.27207878232002258,1,0.96576392650604248,0,0,-0.61055415868759155,0,-0.64537739753723145,0,-0.36004197597503662,0.32634800672531128,-1,0.63040703535079956,0.31220880150794983,0,0.058274727314710617,0,0.33036836981773376,0,-0.49587813019752502,0.69249808788299561,1,0,-0.33278346061706543,0,-0.33218994736671448,0,0.94372808933258057,-0.33747443556785583,-0.044759240001440048,-0.30102938413619995,0.78612041473388672,0,0.065992981195449829,0.52320986986160278,0.44001689553260803,-0.34024849534034729,0.4090004563331604,0.28360801935195923,0.11360030621290207,0.50093233585357666,0.35881006717681885,0,0,1,-0.34271106123924255,-0.52395111322402954,0.77152681350708008,0.30065774917602539,1,0.32847708463668823,-0.082672320306301117,-0.36252507567405701,0,-0.0087064504623413086,-0.51817667484283447,-0.95341038703918457,-0.27238970994949341,0,0.28447675704956055,0],[0,0,-0.42125740647315979,0.41042986512184143,-0.23501460254192352,-0.65731960535049438,-0.38274917006492615,0.71674627065658569,-0.26630115509033203,-0.4652341902256012,0.85449963808059692,0.1623099148273468,0.68528068065643311,1,0,0.76673680543899536,0,1,0.38837799429893494,-0.52892458438873291,1,0.38772472739219666,0.16966646909713745,0,0.43887239694595337,-0.19067831337451935,0,0,0.56970947980880737,0.332206130027771,-0.39176309108734131,0,-0.98005294799804688,-0.58611255884170532,0.5,0.6985243558883667,-0.37418809533119202,-0.84761792421340942,0.6185343861579895,-0.081866204738616943,1,0.54189091920852661,-0.18232618272304535,0.22688277065753937,0,-0.38112378120422363,0.26182389259338379,-0.27696967124938965,0.61775118112564087,-0.58995270729064941,0.34528434276580811,-0.3325054943561554,-0.18681435286998749,0.37667199969291687,0.41630133986473083,-0.82882654666900635,0.26469925045967102,0,-0.10277247428894043,0.50482571125030518,0,0.38536638021469116,1,-0.25805366039276123,0.85818278789520264,0.48324775695800781,0.72721260786056519,0.82406437397003174,-0.52509093284606934,0,1,0.13317432999610901,-0.29311054944992065,-0.30056720972061157,-0.65871196985244751,0.79504334926605225,0.42819905281066895,0.089280486106872559,-0.5,-1,-0.64408302307128906,0.42287814617156982,0,0.41149848699569702,0.96200060844421387,-0.61808925867080688,0,-0.43141260743141174,0.12318325042724609,-0.4320792555809021,0.46563714742660522,0,-0.15109327435493469,0,0.13451874256134033,-0.032518621534109116,0,0,0,0,-0.47261631488800049,-0.19482779502868652,0.29785874485969543,-0.027125239372253418,-0.11069369316101074,-0.48298227787017822,-0.26520165801048279,-0.80133199691772461,0.9388616681098938,0.2213251143693924,0,0.068776465952396393,0,-0.89550220966339111,0.38151633739471436,0.29774582386016846,-0.23959898948669434,0,0.010140387341380119,-0.11881411820650101,0,0.3246612548828125,0,0.60616624355316162,-0.038596928119659424,0.00063967873575165868,0.20358327031135559,0]],"id":"0CE6C2EA-03E3-4A6B-8DF6-F6A7EB07B031","generation":320,"biases":[[],[1,-0.82936733961105347,-0.0065774614922702312,-0.81131899356842041,-0.082263432443141937,0.097438864409923553,0.38775497674942017,-1,1,-0.86476039886474609,-0.0022170543670654297,0.77910858392715454,-0.039813518524169922,-0.92854416370391846,-1,-0.91491043567657471],[-0.031150480732321739,-0.3527335524559021,-1,0,-1,0.14570200443267822,-0.83481287956237793,0.090859413146972656]],"inputCount":22,"hiddenCount":16,"outputCount":8},
{"marker2":false,"marker1":false,"weights":[[],[-0.46910089254379272,-0.5931738018989563,0,0,-0.95833337306976318,-0.62963616847991943,0,0.14651858806610107,0,0.8426470160484314,0,0.20643234252929688,-1,0.76338803768157959,-0.47522294521331787,0,0.41691595315933228,0.26683247089385986,0.27414238452911377,0,-0.33137151598930359,0.45836958289146423,0,-0.36150288581848145,0.82117658853530884,0,0.048537731170654297,-0.27654799818992615,-0.75279784202575684,0.54967594146728516,0,-0.97681659460067749,-0.11641356348991394,0,-0.58373582363128662,-1,0,0.23923568427562714,-1,0.42576247453689575,-0.43428707122802734,0.93464905023574829,0.14551800489425659,0.39114546775817871,0.029844144359230995,0,-0.32323575019836426,-0.083746984601020813,0,0.37347802519798279,-0.30915990471839905,-0.20824918150901794,0,0.099504649639129639,-0.074627086520195007,-0.24718673527240753,0,0,-0.12437226623296738,-0.16821412742137909,-0.92078989744186401,0,0.43449169397354126,0.53086048364639282,-1,0,0,-0.2887846827507019,-0.27900412678718567,-1,0,-0.25346779823303223,0,-0.61646139621734619,0.17424952983856201,0,0.6122206449508667,-0.16565069556236267,0.1704915314912796,0,0.062727555632591248,0,0,-0.30525663495063782,0,0,0,0.30664980411529541,0.85029268264770508,0,0.24294324219226837,1,0.19332382082939148,-0.21760666370391846,-1,0.47604444622993469,-0.34295380115509033,1,0,0.30194559693336487,0.66411608457565308,0.96863335371017456,0,0.38988843560218811,0.7581864595413208,0.3150690495967865,0.46748724579811096,0,0,-0.98682022094726562,0.39473682641983032,0.63630080223083496,0,-0.47531938552856445,0.83627414703369141,-0.25440505146980286,0,0,-1,0,0,0.02209925651550293,0.46118491888046265,-0.911865234375,-0.37732461094856262,0.68330568075180054,0,0.076869100332260132,0,-1,0.9657818078994751,0,0,-0.13123567402362823,-0.21756482124328613,0,0.55089139938354492,0.71446573734283447,0.3097604513168335,-0.40291643142700195,0,-0.26494550704956055,0,0.25374871492385864,0.53452664613723755,0,0.38255032896995544,0,-0.29738783836364746,0,-0.46397173404693604,0.32288956642150879,-0.44225910305976868,0.8923797607421875,0.44536077976226807,0,-1,0.059122614562511444,-0.90118694305419922,0.15100005269050598,-0.98219871520996094,-1,-0.22830462455749512,-0.75837445259094238,-0.4864809513092041,-0.46023967862129211,0,-1,0.29834738373756409,-0.16257233917713165,-0.044759403914213181,-0.19612805545330048,0.31376099586486816,0.4256361722946167,0,-0.6540597677230835,-0.51941078901290894,-0.33650979399681091,0,0,0.22609785199165344,0.12030857801437378,-0.28226554393768311,1,0.34631568193435669,0,0,-1,0,0,0.34220165014266968,-0.41570675373077393,0,-0.80870699882507324,0.036942455917596817,-1,0.23744630813598633,0,0.95362347364425659,-0.12675642967224121,-0.079890608787536621,0.3890136182308197,-0.34543824195861816,0,0.42136642336845398,0,0,0.38121509552001953,0,-0.13366076350212097,0,0.25462800264358521,0.50904923677444458,0.37586069107055664,-0.93582135438919067,0.40878608822822571,-0.26433071494102478,0.23246622085571289,0,0.67253983020782471,0.33377978205680847,0.43930909037590027,0.021782517433166504,0,0,-1,-0.48798692226409912,0.42400449514389038,-0.32980620861053467,0,0.051767662167549133,0,-0.76848876476287842,0,0,0,-1,0.97084498405456543,-0.43213015794754028,0.44954636693000793,0.7743830680847168,-0.098962992429733276,0.3697967529296875,0.21113067865371704,0.39271783828735352,-0.12767896056175232,0,-0.33731678128242493,0.34247764945030212,-0.00236734957434237,0,-0.32983294129371643,-0.75909024477005005,0,0.7000725269317627,-0.32713505625724792,-0.88377523422241211,0,-0.26037022471427917,-0.25374794006347656,-0.15637591481208801,0,0.26626014709472656,0.5755651593208313,-0.6431242823600769,-0.84963595867156982,-0.35093775391578674,-0.19967092573642731,0,-0.30282717943191528,-0.40567973256111145,-0.010702908039093018,-0.046696223318576813,0,0,0.26832127571105957,0.48460933566093445,-0.77798527479171753,0.50951093435287476,-0.63152748346328735,-0.50286030769348145,0.013650176115334034,0.57534706592559814,0,0.19686496257781982,0,0.40954187512397766,-0.79587197303771973,0.16549435257911682,0.1345227062702179,0,0.27207878232002258,1,0.96576392650604248,0,0,-0.61055415868759155,0,-0.64537739753723145,0,-0.36004197597503662,0.32634800672531128,-1,0.63040703535079956,0.31220880150794983,0,0.058274727314710617,0,0.33036836981773376,0,-0.49587813019752502,0.69249808788299561,1,0,-0.33278346061706543,0,-0.66437989473342896,0,0.94372808933258057,-0.33747443556785583,-0.044759240001440048,-0.30102938413619995,0.78612041473388672,0,0.065992981195449829,0.52320986986160278,0.44001689553260803,-0.34024849534034729,0.4090004563331604,0.28360801935195923,0.11360030621290207,0.50093233585357666,0.35881006717681885,0,0,1,-0.34271106123924255,-0.52395111322402954,0.77152681350708008,0.30065774917602539,1,0.32847708463668823,-0.082672320306301117,-0.36252507567405701,0,-0.0087064504623413086,-0.51817667484283447,-0.95341038703918457,-0.27238970994949341,0,0.28447675704956055,0],[0,0,-0.42125740647315979,0.41042986512184143,-0.23501460254192352,-0.65731960535049438,-0.38274917006492615,0.71674627065658569,-0.26630115509033203,-0.4652341902256012,0.85449963808059692,0.1623099148273468,0.68528068065643311,1,0,0.76673680543899536,0,1,0.77675598859786987,-0.52892458438873291,1,0.38772472739219666,0.16966646909713745,0,0.43887239694595337,-0.19067831337451935,0,0,0.56970947980880737,0,-0.39176309108734131,0,-0.98005294799804688,-0.58611255884170532,0.5,0.6985243558883667,-0.37418809533119202,-0.55886244773864746,0.6185343861579895,0.23046207427978516,1,0.54189091920852661,-0.18232618272304535,0.22688277065753937,0,-0.38112378120422363,0.26182389259338379,-0.27696967124938965,0.61775118112564087,-0.58995270729064941,0.34528434276580811,-0.3325054943561554,-0.18681435286998749,0.37667199969291687,0.41630133986473083,-0.82882654666900635,0.26469925045967102,0,-0.94981926679611206,0.50482571125030518,0,0.38536638021469116,1,-0.25805366039276123,0.85818278789520264,0.48324775695800781,0.72721260786056519,0.82406437397003174,-0.52509093284606934,0,1,0.13317432999610901,-0.29311054944992065,-0.30056720972061157,-0.65871196985244751,0.79504334926605225,0.42819905281066895,0.089280486106872559,-0.5,-1,-0.64408302307128906,0.42287814617156982,0,0.41149848699569702,0.96200060844421387,-0.61808925867080688,0,-0.43141260743141174,0.12318325042724609,-0.4320792555809021,0.46563714742660522,0,-0.15109327435493469,0,0.13451874256134033,-0.065037243068218231,0,0,0,0,-0.47261631488800049,-0.19482779502868652,0.29785874485969543,-0.027125239372253418,-0.11069369316101074,-0.48298227787017822,-0.3221358060836792,-0.80133199691772461,0.9388616681098938,0.2213251143693924,0,0.068776465952396393,0,-0.89550220966339111,0.38151633739471436,0.29774582386016846,-0.23959898948669434,0,0.010140387341380119,-0.11881411820650101,0,0.3246612548828125,0,0.60616624355316162,-0.038596928119659424,0.38973662257194519,0.20358327031135559,0]],"id":"EA688AA3-A51A-4E47-813B-F78B08A3542C","generation":322,"biases":[[],[1,-0.82936733961105347,-0.0065774614922702312,-0.81131899356842041,-0.082263432443141937,-0.28979802131652832,0.38775497674942017,-1,1,-0.86476039886474609,-0.0022170543670654297,0.77910858392715454,-0.039813518524169922,-0.92854416370391846,-1,-0.91491043567657471],[-0.031150480732321739,-0.3527335524559021,-1,0,-1,-0.32168790698051453,-0.83481287956237793,0.090859413146972656]],"inputCount":22,"hiddenCount":16,"outputCount":8},
{"marker2":false,"marker1":false,"weights":[[],[-0.46910089254379272,-0.5931738018989563,0,0,-0.95833337306976318,-0.62963616847991943,0,0.14651858806610107,0,0.8426470160484314,0,0.20643234252929688,-1,0.76338803768157959,-0.47522294521331787,0,0.41691595315933228,0.26683247089385986,0.27414238452911377,0,-0.33137151598930359,0.45836958289146423,0,-0.36150288581848145,0.82117658853530884,0,0.048537731170654297,-0.27654799818992615,-0.75279784202575684,0.54967594146728516,0,-0.97681659460067749,-0.37598428130149841,0,-0.58373582363128662,-1,0,0.23923568427562714,-1,0.42576247453689575,-0.43428707122802734,0.93464905023574829,0.14551800489425659,0.39114546775817871,0.029844144359230995,0,-0.32323575019836426,-0.083746984601020813,0,-0.37448418140411377,-0.30915990471839905,-0.20824918150901794,0,0.099504649639129639,-0.074627086520195007,-0.24718673527240753,0,0,-0.12437226623296738,-0.16821412742137909,-0.92078989744186401,0,0.21724584698677063,0.53086048364639282,-1,0,0,-0.2887846827507019,-0.27900412678718567,-1,0,-0.25346779823303223,0,-0.61646139621734619,0.17424952983856201,0,0.6122206449508667,-0.16565069556236267,0.1704915314912796,0,0.062727555632591248,0,0,-0.30525663495063782,0,0,0,0.30664980411529541,0.85029268264770508,0,0.24294324219226837,1,0.19332382082939148,-0.21760666370391846,-1,0.47604444622993469,-0.34295380115509033,1,0,0.30194559693336487,0.66411608457565308,0.96863335371017456,0,0.38988843560218811,0.7581864595413208,0.3150690495967865,0.46748724579811096,0,0,-0.98682022094726562,0.39473682641983032,0.63630080223083496,0,-0.47531938552856445,0.83627414703369141,-0.25440505146980286,0,0,-1,0,0,0.02209925651550293,0.46118491888046265,-0.911865234375,-0.37732461094856262,0.68330568075180054,0,0.076869100332260132,0,-1,0.9657818078994751,0,0,-0.13123567402362823,-0.21756482124328613,0,0.55089139938354492,0.71446573734283447,0.3097604513168335,-0.40291643142700195,0,-0.26494550704956055,0,0.25374871492385864,0.53452664613723755,0,0.38255032896995544,0,-0.29738783836364746,0,-0.46397173404693604,0.32288956642150879,-0.44225910305976868,0.8923797607421875,0.44536077976226807,0,-1,0.059122614562511444,-0.90118694305419922,0.15100005269050598,-0.98219871520996094,-1,-0.22830462455749512,-0.75837445259094238,-0.4864809513092041,-0.46023967862129211,0,-1,0.29834738373756409,-0.16257233917713165,-0.044759403914213181,-0.19612805545330048,0.31376099586486816,0.4256361722946167,0,-0.6540597677230835,-0.51941078901290894,-0.33650979399681091,0,0,0.22609785199165344,0.12030857801437378,-0.28226554393768311,1,0.34631568193435669,0,0,-1,0,0,0.34220165014266968,-0.41570675373077393,0,-0.80870699882507324,0.036942455917596817,-1,0.23744630813598633,0,0.95362347364425659,-0.12675642967224121,-0.079890608787536621,0.3890136182308197,-0.34543824195861816,0,0.42136642336845398,0,0,0.38121509552001953,0,-0.13366076350212097,0,0.25462800264358521,0.50904923677444458,0.37586069107055664,-0.93582135438919067,0.40878608822822571,-0.52866142988204956,0.23246622085571289,0,0.67253983020782471,0.33377978205680847,0.43930909037590027,0.021782517433166504,0,0,-1,-0.48798692226409912,0.42400449514389038,-0.32980620861053467,0,0.051767662167549133,0,-0.76848876476287842,0,0,0,-1,0.97084498405456543,-0.43213015794754028,0.44954636693000793,0.7743830680847168,-0.098962992429733276,0.3697967529296875,0.21113067865371704,0.39271783828735352,-0.12767896056175232,0,-0.33731678128242493,0.34247764945030212,-0.00236734957434237,0,-0.32983294129371643,-0.75909024477005005,0,0.7000725269317627,-0.32713505625724792,-0.88377523422241211,0,-0.26037022471427917,-0.25374794006347656,-0.15637591481208801,0,0.26626014709472656,0.5755651593208313,-0.6431242823600769,-0.84963595867156982,-0.35093775391578674,-0.19967092573642731,0,-0.30282717943191528,-0.40567973256111145,-0.010702908039093018,-0.046696223318576813,0,0,0.26832127571105957,0.48460933566093445,-0.77798527479171753,0.50951093435287476,-0.63152748346328735,-0.50286030769348145,0.013650176115334034,0.57534706592559814,0,0,0,0.40954187512397766,-0.79587197303771973,0.16549435257911682,0.1345227062702179,0,0.27207878232002258,1,0.96576392650604248,0,0,-0.61055415868759155,0,-0.64537739753723145,0,-0.36004197597503662,0.32634800672531128,-1,0.63040703535079956,0.31220880150794983,0,0.058274727314710617,0,0.33036836981773376,0,-0.49587813019752502,0.69249808788299561,1,0,-0.33278346061706543,0,-0.33218994736671448,0,0.94372808933258057,-0.33747443556785583,-0.044759240001440048,-0.30102938413619995,0.78612041473388672,0,0.065992981195449829,0.52320986986160278,0.44001689553260803,-0.34024849534034729,0.4090004563331604,0.28360801935195923,0.11360030621290207,0.50093233585357666,0.35881006717681885,0,0,1,-0.34271106123924255,-0.52395111322402954,0.77152681350708008,0.30065774917602539,1,0.031899824738502502,-0.082672320306301117,-0.36252507567405701,0,-0.0087064504623413086,-0.51817667484283447,-0.95341038703918457,-0.27238970994949341,0,0.28447675704956055,0],[0,0,-0.42125740647315979,0.41042986512184143,-0.23501460254192352,-0.65731960535049438,-0.38274917006492615,0.71674627065658569,-0.26630115509033203,-0.4652341902256012,0.85449963808059692,0.1623099148273468,0.68528068065643311,1,0,0.76673680543899536,0,1,0.38837799429893494,-0.52892458438873291,1,0.38772472739219666,0.16966646909713745,0,0.43887239694595337,-0.19067831337451935,0,0,0.56970947980880737,0,-0.39176309108734131,0,-0.98005294799804688,-0.58611255884170532,0.5,0.6985243558883667,-0.37418809533119202,-0.55886244773864746,0.6185343861579895,0.23046207427978516,1,0.54189091920852661,-0.18232618272304535,0.22688277065753937,0,-0.38112378120422363,0.26182389259338379,-0.27696967124938965,0.61775118112564087,-0.58995270729064941,0.34528434276580811,-0.3325054943561554,-0.18681435286998749,0.37667199969291687,0.41630133986473083,-0.82882654666900635,0.26469925045967102,0,-0.94981926679611206,0.50482571125030518,0,0.38536638021469116,1,-0.25805366039276123,0.85818278789520264,0.48324775695800781,0.72721260786056519,0.82406437397003174,-0.52509093284606934,0,1,0.13317432999610901,-0.29311054944992065,-0.30056720972061157,-0.65871196985244751,0.79504334926605225,0.42819905281066895,0.089280486106872559,-0.5,-1,-0.64408302307128906,0.42287814617156982,0,0.41149848699569702,0.96200060844421387,-0.61808925867080688,0,-0.43141260743141174,0.12318325042724609,-0.4320792555809021,0.46563714742660522,0,-0.15109327435493469,0,0.13451874256134033,-0.065037243068218231,0,0,0,0,-0.47261631488800049,-0.19482779502868652,0.29785874485969543,-0.027125239372253418,-0.11069369316101074,-0.48298227787017822,-0.3221358060836792,-0.80133199691772461,0.9388616681098938,0.2213251143693924,0,0.068776465952396393,0,-0.89550220966339111,0.38151633739471436,0.29774582386016846,-0.23959898948669434,0,0.010140387341380119,-0.11881411820650101,0,0.3246612548828125,0,0.60616624355316162,-0.038596928119659424,0.38973662257194519,0.20358327031135559,0]],"id":"E28063DC-C936-407B-89CF-9216494ECBFF","generation":321,"biases":[[],[1,-0.82936733961105347,-0.0065774614922702312,-0.81131899356842041,-0.082263432443141937,-0.28979802131652832,0.38775497674942017,-1,1,-0.86476039886474609,-0.0022170543670654297,0.77910858392715454,-0.039813518524169922,-0.92854416370391846,-1,-0.91491043567657471],[-0.031150480732321739,-0.3527335524559021,-1,0,-1,-0.32168790698051453,-0.83481287956237793,0.090859413146972656]],"inputCount":22,"hiddenCount":16,"outputCount":8},
{"marker2":false,"marker1":false,"weights":[[],[-0.46910089254379272,-0.5931738018989563,0,0,-0.95833337306976318,-1,0,0.14651858806610107,0,0.8426470160484314,0,0.20643234252929688,-1,0.76338803768157959,-0.47522294521331787,0,0.49099135398864746,0.26683247089385986,0.27414238452911377,0,0.042329110205173492,0.45836958289146423,0,-0.36150288581848145,1,0,0.048537731170654297,-0.27654799818992615,-0.75279784202575684,0.54967594146728516,0,-0.97681659460067749,-0.37598428130149841,0,-0.2027897834777832,-1,0,0.23923568427562714,-1,0.42576247453689575,-0.43428707122802734,0.93464905023574829,0.48951670527458191,0.39114546775817871,0.029844144359230995,0,-0.32323575019836426,-0.16749396920204163,0,0.37347802519798279,-0.30915990471839905,-0.41649836301803589,0,0.19900929927825928,-0.074627086520195007,-0.24718673527240753,0,0,-0.12437226623296738,-0.16821412742137909,-0.92078989744186401,0,0.43449169397354126,0.2727644145488739,-1,0,0,-0.2887846827507019,-0.27900412678718567,-1,-0.33333694934844971,0,0,-0.61646139621734619,0.17424952983856201,0,0.6122206449508667,-0.16565069556236267,0.1704915314912796,0,0.062727555632591248,0,0,0,0.37085536122322083,0,0,0.30664980411529541,0.85029268264770508,0,0.48588648438453674,1,0.19332382082939148,-0.21760666370391846,-0.98932516574859619,0.52215921878814697,0,1,0,0.60389119386672974,0.66411608457565308,0.96863335371017456,0,0.13868235051631927,0.7581864595413208,0.3150690495967865,0.46748724579811096,0,0,-0.98682022094726562,0.39473682641983032,0.63630080223083496,0,-0.23765969276428223,0.83627414703369141,-0.25440505146980286,0,0,-1,-0.94244551658630371,0,0.02209925651550293,0.46118491888046265,-0.911865234375,0,0.68330568075180054,0,0.076869100332260132,0,-0.88397073745727539,0.9657818078994751,0,0,-0.13123567402362823,-0.21879076957702637,0,0.55089139938354492,1,0.3097604513168335,-0.40291643142700195,0,-0.13247275352478027,0,0.25374871492385864,-0.28035545349121094,0,0.38255032896995544,0,0.15635588765144348,0,0,0.32288956642150879,-0.39828416705131531,0.8923797607421875,0.44536077976226807,0,-1,-0.91803210973739624,-0.90118694305419922,0.15100005269050598,-0.98219871520996094,-1,-0.22830462455749512,-0.13945592939853668,-0.4864809513092041,-0.46023967862129211,0,-1,0.59669476747512817,-0.16257233917713165,-0.044759403914213181,-0.19612805545330048,0.31376099586486816,0.4256361722946167,-0.33036237955093384,-0.6540597677230835,-0.51941078901290894,-0.33650979399681091,0,0,0.22609785199165344,0.12030857801437378,-0.28226554393768311,1,0.34631568193435669,0,0,-1,0,0,0.34220165014266968,-0.05420168861746788,0,-0.80870699882507324,0.036942455917596817,-1,0.23744630813598633,0,0.47983068227767944,0.20581990480422974,-0.079890608787536621,0.3890136182308197,-0.34543824195861816,0,0.42136642336845398,0,0,0.38121509552001953,0,-0.13366076350212097,0,0.25462800264358521,0.50904923677444458,-0.044991292059421539,-0.93582135438919067,0.40878608822822571,-0.26433071494102478,0.23246622085571289,0,0.67253983020782471,0.33377978205680847,0.43930909037590027,-0.24129951000213623,0,0,-1,0,0.42400449514389038,0.45070111751556396,0,0.40109884738922119,0,-0.76848876476287842,0,0,0,-1,0.97084498405456543,-0.43213015794754028,0.22477318346500397,0.7743830680847168,0.69750559329986572,0,0.56471610069274902,0.39271783828735352,0.304880291223526,0.38917544484138489,-0.62018954753875732,0.34247764945030212,-0.00236734957434237,0,-0.79931914806365967,-0.35312104225158691,0,0.7000725269317627,-0.32713505625724792,-0.88377523422241211,0,-0.26037022471427917,0.17780551314353943,-0.15637591481208801,-0.36002552509307861,-0.42551529407501221,0.28778257966041565,0.17528335750102997,-0.84963595867156982,-0.35093775391578674,-0.5135807991027832,0,-0.6253541111946106,-0.40567973256111145,-0.010702908039093018,-0.046696223318576813,0,0,0.26832127571105957,0.026509204879403114,-1,0.50951093435287476,-0.63152748346328735,-0.087202675640583038,0.49441614747047424,0.57534706592559814,0,0,0.41624090075492859,-0.11856842041015625,-0.79587197303771973,0.16549435257911682,0.40285339951515198,0,0.27207878232002258,1,0.96576392650604248,0.87661707401275635,0,-0.61055415868759155,0,0,0,-0.36004197597503662,0.32634800672531128,0,0.31020510196685791,0.31220880150794983,0,0.33030813932418823,0,0,0,-0.93320626020431519,0.69249808788299561,1,0,-0.33278346061706543,0,-0.66437989473342896,0.29254528880119324,0.94372808933258057,-0.33747443556785583,-0.044759240001440048,-0.30102938413619995,0.78612041473388672,0,0.065992981195449829,0.52320986986160278,0.88003379106521606,-0.34024849534034729,0.4090004563331604,0,0.11360030621290207,0.50093233585357666,0.35881006717681885,0,0,1,0.12478410452604294,-0.52395111322402954,0.77152681350708008,0.30065774917602539,1,0.32847708463668823,-0.082672320306301117,-0.36252507567405701,-0.28119730949401855,-0.0087064504623413086,-0.065905369818210602,-0.95341038703918457,-0.27238970994949341,0,0.28447675704956055,0],[0,0,-0.42125740647315979,0.41042986512184143,-0.23501460254192352,-0.65731960535049438,-0.38274917006492615,0.24046008288860321,-0.26630115509033203,-0.4652341902256012,-0.25394058227539062,0.1623099148273468,0.88425308465957642,1,0,0.86848580837249756,0,0.63438248634338379,0.38837799429893494,-0.52892458438873291,-0.26122760772705078,0,0.16966646909713745,0,0.43887239694595337,-0.19067831337451935,0,0,0.56970947980880737,0,-0.39176309108734131,0,-0.49002647399902344,-0.58611255884170532,1,0.6985243558883667,-0.37418809533119202,-0.55886244773864746,0.6185343861579895,0.23046207427978516,1,0.089381277561187744,-0.46148008108139038,0.22688277065753937,0,-0.38112378120422363,0.26182389259338379,-0.27696967124938965,0.61775118112564087,-0.58995270729064941,0.34528434276580811,-0.1662527471780777,-0.18681435286998749,0.37667199969291687,0.20815066993236542,-0.48182076215744019,0.55909055471420288,0,-0.94981926679611206,0.50482571125030518,0,0,1,-0.25805366039276123,0.85818278789520264,0.48324775695800781,0.72721260786056519,0.82406437397003174,-0.52509093284606934,0,0.76394009590148926,-0.17256517708301544,0,-0.30056720972061157,-0.46923625469207764,0.5272412896156311,0.74929153919219971,-0.39786714315414429,-0.5,-0.5,-1,0.42287814617156982,0,0.43209338188171387,0.96200060844421387,-0.28900489211082458,0,-0.43141260743141174,0.12318325042724609,-0.4320792555809021,0.46563714742660522,0,-0.48898869752883911,0,0.13451874256134033,-0.032518621534109116,0,0,0.59369051456451416,0,-0.47261631488800049,-0.19482779502868652,0.29785874485969543,-0.33768931031227112,-0.11069369316101074,-0.48298227787017822,-0.26520165801048279,-0.80133199691772461,0.9388616681098938,0.71588528156280518,0,0.068776465952396393,-0.28932160139083862,-0.89550220966339111,0.38151633739471436,0.29774582386016846,-0.11979949474334717,-0.33009719848632812,0.0050701936706900597,-0.11881411820650101,0,0.3246612548828125,0,0.29894179105758667,-0.038596928119659424,0.37316179275512695,0.19304652512073517,0]],"id":"2D4BD818-8C9B-4DC8-9516-727408EE462B","generation":319,"biases":[[],[0.98228061199188232,-0.41468366980552673,-0.0065774614922702312,-0.81131899356842041,-0.082263432443141937,0.15597568452358246,0.77550995349884033,-1,1,-0.4641273021697998,-0.0022170543670654297,0.46735858917236328,-0.039813518524169922,-0.5,-1,-0.91491043567657471],[-0.3341071605682373,-0.3527335524559021,-0.89941555261611938,-0.49567469954490662,-0.26730740070343018,-0.64337581396102905,-0.83481287956237793,0.090859413146972656]],"inputCount":22,"hiddenCount":16,"outputCount":8},
{"marker2":false,"marker1":false,"weights":[[],[-0.46910089254379272,-0.5931738018989563,0,0,-0.95833337306976318,-1,0,0.14651858806610107,0,0.8426470160484314,0,0.53563827276229858,-1,0.76338803768157959,-0.47522294521331787,0,0.49099135398864746,0.26683247089385986,0.27414238452911377,0,-0.33137151598930359,0.22918479144573212,0,-0.36150288581848145,1,0,-0.068716287612915039,-0.27654799818992615,-0.75279784202575684,0.54967594146728516,0,-0.97681659460067749,-0.37598428130149841,0,-0.2027897834777832,-1,0,0.23923568427562714,-1,0.42576247453689575,-0.43428707122802734,0.93464905023574829,0.48951670527458191,0.39114546775817871,0.029844144359230995,0.47554704546928406,-0.32323575019836426,-0.083746984601020813,0,0.37347802519798279,-0.30915990471839905,-0.41649836301803589,0,0.19900929927825928,-0.074627086520195007,-0.24718673527240753,0,0,-0.12437226623296738,-0.16821412742137909,-0.92078989744186401,-0.28151023387908936,0.43449169397354126,0.2727644145488739,-1,0,0,-0.2887846827507019,-0.27900412678718567,-1,-0.33333694934844971,0,0,-0.61646139621734619,0.17424952983856201,0,0.6122206449508667,-0.16565069556236267,0.1704915314912796,0,0.062727555632591248,0,0,0,0,0,0,0.30664980411529541,0.85029268264770508,0,0.48588648438453674,1,0.19332382082939148,-0.21760666370391846,-0.98932516574859619,0.52215921878814697,0,1,0.25953471660614014,0.60389119386672974,0.66411608457565308,0.96863335371017456,0,0.13868235051631927,0.7581864595413208,0.3150690495967865,0.46748724579811096,0,0,-0.98682022094726562,0.39473682641983032,0.63630080223083496,0,-0.23765969276428223,-0.34900069236755371,-0.25440505146980286,0,0,-1,-0.47122275829315186,0,0.02209925651550293,0.46118491888046265,-0.911865234375,0,0.25933104753494263,0,-0.3876742422580719,0,-0.88397073745727539,0.9657818078994751,0,0,-0.13123567402362823,-0.21879076957702637,0,0.55089139938354492,0.97547084093093872,0.3097604513168335,-0.40291643142700195,0,-0.13247275352478027,0,0.25374871492385864,0.53452664613723755,0,0.38255032896995544,0,0.15635588765144348,0,0,0.32288956642150879,-0.39828416705131531,0.8923797607421875,0.44536077976226807,0,-1,-0.91803210973739624,-0.90118694305419922,0.15100005269050598,-0.98219871520996094,-1,-0.22830462455749512,-0.27891185879707336,-0.4864809513092041,-0.46023967862129211,0,-1,0.59669476747512817,-0.16257233917713165,-0.044759403914213181,-0.19612805545330048,0.31376099586486816,0.4256361722946167,-0.33036237955093384,-0.6540597677230835,-0.51941078901290894,-0.33650979399681091,0,0,0.22609785199165344,0.12030857801437378,-0.28226554393768311,1,0.34631568193435669,0,0,-1,0,0,0.34220165014266968,-0.05420168861746788,0,-0.80870699882507324,0.036942455917596817,-1,0.23744630813598633,0,0.47983068227767944,-0.12675642967224121,-0.079890608787536621,0.3890136182308197,-0.34543824195861816,0,0.42136642336845398,0,0,0.38121509552001953,0,-0.13366076350212097,0,0.25462800264358521,0.50904923677444458,-0.044991292059421539,-0.93582135438919067,0.40878608822822571,-0.26433071494102478,0.23246622085571289,0,0.67253983020782471,0.33377978205680847,0.43930909037590027,-0.24129951000213623,0,0,-1,0,0.42400449514389038,0.13520480692386627,0,0.40109884738922119,0,-0.76848876476287842,0,0,0,-1,0.97084498405456543,-0.43213015794754028,0.44954636693000793,0.43772843480110168,0.69750559329986572,0,0.42226135730743408,0.39271783828735352,0.304880291223526,0.38917544484138489,-0.62018954753875732,0.34247764945030212,-0.00236734957434237,0,-0.79931914806365967,-0.35312104225158691,0,0.7000725269317627,-0.32713505625724792,-0.88377523422241211,0,-0.26037022471427917,0.17780551314353943,-0.15637591481208801,-0.36002552509307861,-0.42551529407501221,0.5755651593208313,0.17528335750102997,-0.84963595867156982,-0.35093775391578674,-0.5135807991027832,0,-0.6253541111946106,-0.40567973256111145,-0.010702908039093018,-0.046696223318576813,0,0,0.26832127571105957,0.48460933566093445,-0.77798527479171753,0.50951093435287476,-0.63152748346328735,-0.50286030769348145,0.49441614747047424,0.57534706592559814,0,0,0.41624090075492859,0.81908375024795532,-0.39793598651885986,0.16549435257911682,0.40285339951515198,0,0.27207878232002258,1,0.96576392650604248,0.87661707401275635,0,-0.61055415868759155,0,0,0,-0.36004197597503662,0.32634800672531128,0,0.15510255098342896,0.31220880150794983,0,0.33030813932418823,0,0,0,-0.65923225879669189,0.69249808788299561,1,0,-0.33278346061706543,0,0.68830204010009766,0.29254528880119324,0.94372808933258057,-0.33747443556785583,-0.044759240001440048,-0.29260540008544922,0.78612041473388672,0,0.065992981195449829,0.52320986986160278,0.88003379106521606,-0.34024849534034729,0.4090004563331604,0,0.11360030621290207,0.50093233585357666,0.35881006717681885,0,0,1,0.12478410452604294,-0.52395111322402954,0.77152681350708008,0.30065774917602539,1,0.32847708463668823,-0.082672320306301117,-0.36252507567405701,-0.28119730949401855,-0.0087064504623413086,-0.065905369818210602,-0.95341038703918457,-0.27238970994949341,0,0.28447675704956055,-0.17856240272521973],[0,0,-0.42125740647315979,0.41042986512184143,-0.23501460254192352,-0.65731960535049438,-0.38274917006492615,0.24046008288860321,-0.26630115509033203,-0.4652341902256012,-0.25394058227539062,-0.19603662192821503,0.88425308465957642,1,0,0.86848580837249756,0,0.63438248634338379,0.38837799429893494,-0.52892458438873291,0.40372598171234131,0,0.16966646909713745,0,0.43887239694595337,-0.19067831337451935,0,0,0.56970947980880737,0,-0.39176309108734131,0,-0.49002647399902344,-0.58611255884170532,1,0.6985243558883667,-0.37418809533119202,-0.55886244773864746,0.6185343861579895,0.23046207427978516,1,0.044690638780593872,-0.46148008108139038,0.22688277065753937,0,-0.38112378120422363,0.26182389259338379,-0.27696967124938965,0.61775118112564087,-0.58995270729064941,0.34528434276580811,-0.3325054943561554,-0.18681435286998749,0.37667199969291687,0.20815066993236542,-0.48182076215744019,0.55909055471420288,0,-0.94981926679611206,0.50482571125030518,0,0,1,-0.25805366039276123,0.85818278789520264,0.48324775695800781,0.72721260786056519,0.82406437397003174,-0.52509093284606934,0,0.76394009590148926,0.13317432999610901,0,-0.30056720972061157,-0.46923625469207764,0.5272412896156311,0.74929153919219971,-0.39786714315414429,-0.5,-0.5,-1,0.42287814617156982,0,0.43209338188171387,1,-0.28900489211082458,0,-0.43141260743141174,0.12318325042724609,-0.4320792555809021,0.46563714742660522,0,-0.48898869752883911,0,0.13451874256134033,-0.032518621534109116,0,0,0.29684525728225708,0,-0.47261631488800049,-0.19482779502868652,0.29785874485969543,-0.027125239372253418,-0.11069369316101074,-0.48298227787017822,-0.26520165801048279,-0.80133199691772461,0.64307677745819092,0.71588528156280518,0,0.068776465952396393,-0.28932160139083862,-0.89550220966339111,0.38151633739471436,0.29774582386016846,-0.23959898948669434,0,0.0050701936706900597,-0.11881411820650101,0,0.3246612548828125,0,0.29894179105758667,0.33421286940574646,0.37316179275512695,0.19304652512073517,0]],"id":"3428D752-8C89-4777-B04E-DBA6C56ECEFD","generation":319,"biases":[[],[0.98228061199188232,-0.41468366980552673,-0.0065774614922702312,-0.81131899356842041,-0.082263432443141937,0.11497801542282104,0.40798738598823547,-1,1,-0.4641273021697998,-0.0022170543670654297,0.23367929458618164,-0.039813518524169922,-1,-1,-0.91491043567657471],[-0.44004222750663757,-0.3527335524559021,-0.89941555261611938,0.47775566577911377,-0.26730740070343018,-0.64337581396102905,-0.83481287956237793,0.090859413146972656]],"inputCount":22,"hiddenCount":16,"outputCount":8},
{"marker2":false,"marker1":false,"weights":[[],[-0.46910089254379272,-0.5931738018989563,0,0,-0.95833337306976318,-1,0,0.14651858806610107,0,0.8426470160484314,0,0.53563827276229858,-1,0.76338803768157959,-0.47522294521331787,0,0.49099135398864746,0.26683247089385986,0.27414238452911377,0,-0.33137151598930359,0.22918479144573212,0,-0.36150288581848145,1,0,-0.068716287612915039,-0.27654799818992615,-0.75279784202575684,0.54967594146728516,0,-0.97681659460067749,-0.37598428130149841,0,-0.2027897834777832,-1,0,0.23923568427562714,-1,0.42576247453689575,-0.43428707122802734,0.93464905023574829,0.48951670527458191,0.39114546775817871,0.029844144359230995,-0.31950545310974121,-0.32323575019836426,-0.083746984601020813,0,0.37347802519798279,-0.30915990471839905,-0.41649836301803589,0,0.19900929927825928,-0.074627086520195007,-0.24718673527240753,0,0,-0.12437226623296738,-0.16821412742137909,-0.92078989744186401,0,0.43449169397354126,0.2727644145488739,-1,0,0,-0.2887846827507019,0.24480891227722168,-1,-0.33333694934844971,0,0,-0.61646139621734619,0.17424952983856201,0,0.6122206449508667,0.088263541460037231,0.1704915314912796,0,0.062727555632591248,0,0,0,0,0,0,0.30664980411529541,0.85029268264770508,0,0.48588648438453674,1,0.19332382082939148,-0.21760666370391846,-0.98932516574859619,0.52215921878814697,0,1,0,0.60389119386672974,0.66411608457565308,0.96863335371017456,0,0.13868235051631927,0.7581864595413208,0.3150690495967865,0.46748724579811096,0,0,-0.98682022094726562,0.39473682641983032,0.63630080223083496,0,-0.23765969276428223,0.83627414703369141,-0.25440505146980286,0,0,-1,-0.47122275829315186,0,0.02209925651550293,0.46118491888046265,-0.911865234375,0,0.25933104753494263,0,-0.3876742422580719,0,-1,0.9657818078994751,0,0,-0.13123567402362823,-0.21879076957702637,0,0.55089139938354492,0.97547084093093872,0.3097604513168335,-0.40291643142700195,0,-0.13247275352478027,0,0.25374871492385864,0.53452664613723755,0,0.38255032896995544,0,0.15635588765144348,0,0,0.32288956642150879,-0.39828416705131531,0.8923797607421875,0.44536077976226807,0,-1,-0.91803210973739624,-1,0.15100005269050598,-0.98219871520996094,-1,-0.22830462455749512,-0.27891185879707336,-0.4864809513092041,-0.46023967862129211,0,-1,0.59669476747512817,-0.16257233917713165,-0.044759403914213181,-0.19612805545330048,0.31376099586486816,0.4256361722946167,-0.33036237955093384,-0.6540597677230835,-0.51941078901290894,-0.33650979399681091,0,0,0.22609785199165344,0.12030857801437378,-0.28226554393768311,1,0.34631568193435669,0,0,-1,0,0,0.34220165014266968,-0.05420168861746788,0,-0.80870699882507324,0.036942455917596817,-1,0.23744630813598633,0,0.47983068227767944,-0.12675642967224121,-0.079890608787536621,0.3890136182308197,-0.34543824195861816,0,0.42136642336845398,0,0,0.38121509552001953,0,-0.13366076350212097,0,0.25462800264358521,0.50904923677444458,-0.044991292059421539,-0.93582135438919067,0.40878608822822571,-0.26433071494102478,0.23246622085571289,0,0.67253983020782471,0.33377978205680847,0.43930909037590027,-0.24129951000213623,0,0,-1,0,0.42400449514389038,-0.32980620861053467,0,0.40109884738922119,0,-0.76848876476287842,0,0,0,-1,0.97084498405456543,-0.43213015794754028,0.44954636693000793,0.13556444644927979,0.69750559329986572,0,0.42226135730743408,0.39271783828735352,0.304880291223526,0.38917544484138489,-0.62018954753875732,0.34247764945030212,-0.00236734957434237,0,-0.79931914806365967,-0.35312104225158691,0,0.7000725269317627,-0.32713505625724792,-0.88377523422241211,0,-0.26037022471427917,0.17780551314353943,-0.15637591481208801,-0.36002552509307861,-0.42551529407501221,0.5755651593208313,0.17528335750102997,-0.84963595867156982,-0.35093775391578674,-0.5135807991027832,0,-0.6253541111946106,-0.40567973256111145,-0.010702908039093018,-0.046696223318576813,0,0,0.26832127571105957,0.48460933566093445,-0.77798527479171753,0.50951093435287476,-0.63152748346328735,-0.50286030769348145,0.49441614747047424,0.57534706592559814,0,0,0.41624090075492859,0.81908375024795532,-0.79587197303771973,0.16549435257911682,0.40285339951515198,0,0.27207878232002258,1,0.96576392650604248,0.87661707401275635,0,-0.61055415868759155,0,0,0,-0.36004197597503662,0.32634800672531128,0,0.15510255098342896,0.31220880150794983,0,0.33030813932418823,0,0,0,-0.65923225879669189,0.69249808788299561,1,0,-0.33278346061706543,0,-0.66437989473342896,0.29254528880119324,0.94372808933258057,-0.33747443556785583,-0.044759240001440048,-0.30102938413619995,0.78612041473388672,0,0.065992981195449829,0.52320986986160278,0.88003379106521606,-0.34024849534034729,0.4090004563331604,0,0.11360030621290207,0.50093233585357666,0.35881006717681885,0,0,1,0.12478410452604294,-0.52395111322402954,0.77152681350708008,0.30065774917602539,1,0.32847708463668823,-0.082672320306301117,-0.36252507567405701,-0.28119730949401855,-0.0087064504623413086,-0.065905369818210602,-0.95341038703918457,-0.27238970994949341,0,0.28447675704956055,-0.17856240272521973],[0,0,-0.42125740647315979,0.41042986512184143,-0.23501460254192352,-0.65731960535049438,-0.38274917006492615,0.24046008288860321,-0.26630115509033203,-0.4652341902256012,-0.25394058227539062,0.1623099148273468,1,1,0,0.86848580837249756,0,0.63438248634338379,0.38837799429893494,-0.52892458438873291,0.40372598171234131,0,0.16966646909713745,0,0.43887239694595337,-0.19067831337451935,0,0,0.56970947980880737,0,-0.39176309108734131,0,-0.49002647399902344,-0.58611255884170532,0.36620104312896729,0.6985243558883667,-0.37418809533119202,-0.55886244773864746,0.6185343861579895,0.23046207427978516,1,0.044690638780593872,-0.46148008108139038,0.22688277065753937,0,-0.38112378120422363,0.26182389259338379,-0.27696967124938965,0.61775118112564087,-0.58995270729064941,0.34528434276580811,-0.1662527471780777,0.21539396047592163,0.37667199969291687,0.20815066993236542,-0.48182076215744019,0.55909055471420288,0,-0.94981926679611206,0.50482571125030518,0,0,1,-0.25805366039276123,0.85818278789520264,0.48324775695800781,0.72721260786056519,1,-0.52509093284606934,0,0.76394009590148926,0.13317432999610901,0,-0.30056720972061157,-0.46923625469207764,0.5272412896156311,0.74929153919219971,-0.79573428630828857,-0.5,-0.5,-1,0.42287814617156982,0,0.43209338188171387,1,-0.28900489211082458,0,-0.43141260743141174,0.12318325042724609,-0.4320792555809021,0.46563714742660522,0,-0.48898869752883911,0,0.13451874256134033,-0.032518621534109116,0,0,0.29684525728225708,0,-0.47261631488800049,-0.19482779502868652,0.29785874485969543,-0.027125239372253418,-0.11069369316101074,-0.48298227787017822,-0.26520165801048279,-0.80133199691772461,0.9388616681098938,0.71588528156280518,0,0.068776465952396393,-0.28932160139083862,-0.89550220966339111,0.38151633739471436,0.29774582386016846,-0.23959898948669434,0,0.0050701936706900597,-0.11881411820650101,0,0.3246612548828125,0,0.29894179105758667,0.33421286940574646,0.37316179275512695,0.19304652512073517,0]],"id":"56A7871B-8601-4018-8E88-C4ACCD41E034","generation":318,"biases":[[],[0.98228061199188232,-0.41468366980552673,-0.0065774614922702312,-0.81131899356842041,-0.082263432443141937,0.11497801542282104,0.40798738598823547,-1,1,-0.4641273021697998,-0.0022170543670654297,0.46735858917236328,-0.039813518524169922,-1,-1,-0.91491043567657471],[-0.44004222750663757,-0.3527335524559021,-0.89941555261611938,-0.49567469954490662,-0.26730740070343018,-0.64337581396102905,-0.83481287956237793,0.090859413146972656]],"inputCount":22,"hiddenCount":16,"outputCount":8},
{"marker2":false,"marker1":false,"weights":[[],[-0.46910089254379272,-0.5931738018989563,0,0,-0.95833337306976318,-1,0,0.14651858806610107,0,0.8426470160484314,0,0.53563827276229858,-1,0.76338803768157959,-0.47522294521331787,0,0.49099135398864746,0.26683247089385986,0.27414238452911377,0,-0.33137151598930359,0.22918479144573212,0,-0.36150288581848145,1,0,-0.068716287612915039,-0.27654799818992615,-0.75279784202575684,0.54967594146728516,0,-0.97681659460067749,-0.37598428130149841,0,-0.2027897834777832,-1,0,0.23923568427562714,-1,0.42576247453689575,-0.43428707122802734,0.93464905023574829,0.48951670527458191,0.39114546775817871,0.029844144359230995,-0.31950545310974121,-0.32323575019836426,-0.083746984601020813,0,0.37347802519798279,-0.30915990471839905,-0.41649836301803589,0,0.19900929927825928,-0.074627086520195007,-0.24718673527240753,0,0,-0.12437226623296738,-0.16821412742137909,-0.92078989744186401,0,0.43449169397354126,0.2727644145488739,-1,0,0,-0.2887846827507019,0.24480891227722168,-1,-0.33333694934844971,0,0,-0.61646139621734619,0.17424952983856201,0,0.6122206449508667,0.088263541460037231,0.1704915314912796,0,0.062727555632591248,0,0,0,0,0,0,0.30664980411529541,0.85029268264770508,0,0.48588648438453674,1,0.19332382082939148,-0.21760666370391846,-0.98932516574859619,0.52215921878814697,0,1,0,0.60389119386672974,0.66411608457565308,0.96863335371017456,0,0.13868235051631927,0.7581864595413208,0.3150690495967865,0.46748724579811096,0,0,-0.98682022094726562,0.39473682641983032,0.63630080223083496,0,-0.23765969276428223,0.83627414703369141,-0.25440505146980286,0,0,-1,-0.47122275829315186,0,0.02209925651550293,0.46118491888046265,-0.911865234375,0,0.25933104753494263,0,-0.3876742422580719,0,-1,0.9657818078994751,0,0,-0.13123567402362823,-0.21879076957702637,0,0.55089139938354492,0.97547084093093872,0.3097604513168335,-0.40291643142700195,0,-0.13247275352478027,0,0.25374871492385864,0.53452664613723755,0,0.38255032896995544,0,0.15635588765144348,0,0,0.32288956642150879,-0.39828416705131531,0.8923797607421875,0.44536077976226807,0,-1,-0.91803210973739624,-1,0.15100005269050598,-0.98219871520996094,-1,-0.22830462455749512,-0.27891185879707336,-0.4864809513092041,-0.46023967862129211,0,-1,0.59669476747512817,-0.16257233917713165,-0.044759403914213181,-0.19612805545330048,0.31376099586486816,0.4256361722946167,-0.33036237955093384,-0.6540597677230835,-0.51941078901290894,-0.33650979399681091,0,0,0.22609785199165344,0.12030857801437378,-0.28226554393768311,1,0.34631568193435669,0,0,-1,0,0,0.34220165014266968,-0.05420168861746788,0,-0.80870699882507324,0.036942455917596817,-1,0.23744630813598633,0,0.47983068227767944,-0.12675642967224121,-0.079890608787536621,0.3890136182308197,-0.34543824195861816,0,0.42136642336845398,0,0,0.38121509552001953,0,-0.13366076350212097,0,0.25462800264358521,0.50904923677444458,-0.044991292059421539,-0.93582135438919067,0.40878608822822571,-0.60989516973495483,0.23246622085571289,0,0.67253983020782471,0.33377978205680847,0.43930909037590027,-0.24129951000213623,0,0,-1,0,0.42400449514389038,-0.32980620861053467,0,0.40109884738922119,0,-0.76848876476287842,0,0,0,-1,0.97084498405456543,-0.43213015794754028,0.44954636693000793,0.43772843480110168,0.69750559329986572,0,0.42226135730743408,0.39271783828735352,0.304880291223526,0.38917544484138489,-0.62018954753875732,0.34247764945030212,-0.00236734957434237,0,-0.79931914806365967,-0.35312104225158691,0,0.7000725269317627,-0.32713505625724792,-0.88377523422241211,0,-0.26037022471427917,0.17780551314353943,-0.15637591481208801,-0.36002552509307861,-0.42551529407501221,0.5755651593208313,0.17528335750102997,-0.84963595867156982,-0.35093775391578674,-0.5135807991027832,0,-0.6253541111946106,-0.40567973256111145,-0.010702908039093018,-0.046696223318576813,0,0,0.26832127571105957,0.48460933566093445,-0.77798527479171753,0.50951093435287476,-0.63152748346328735,-0.50286030769348145,0.49441614747047424,0.57534706592559814,0,0,0.41624090075492859,0.81908375024795532,-0.79587197303771973,0.16549435257911682,0.40285339951515198,0,0.27207878232002258,1,0.96576392650604248,0.87661707401275635,0,-0.61055415868759155,0,0,0,-0.36004197597503662,0.32634800672531128,0,0.15510255098342896,0.31220880150794983,0,0.33030813932418823,0,0,0,-0.65923225879669189,0.69249808788299561,1,0,-0.33278346061706543,0,-0.66437989473342896,0.29254528880119324,0.94372808933258057,-0.33747443556785583,-0.044759240001440048,-0.30102938413619995,0.78612041473388672,0,0.065992981195449829,0.52320986986160278,0.88003379106521606,-0.34024849534034729,0.4090004563331604,0,0.11360030621290207,0.50093233585357666,0.35881006717681885,0,0,1,0.12478410452604294,-0.52395111322402954,0.77152681350708008,0.30065774917602539,1,0.32847708463668823,-0.082672320306301117,-0.36252507567405701,-0.28119730949401855,-0.0087064504623413086,-0.065905369818210602,-0.95341038703918457,-0.27238970994949341,0,0.28447675704956055,-0.17856240272521973],[0,0,-0.42125740647315979,0.41042986512184143,-0.23501460254192352,-0.65731960535049438,-0.38274917006492615,0.24046008288860321,-0.26630115509033203,-0.4652341902256012,-0.25394058227539062,0.1623099148273468,1,1,0,0.86848580837249756,0,0.63438248634338379,0.38837799429893494,-0.52892458438873291,0.40372598171234131,0,0.16966646909713745,0,0.43887239694595337,-0.19067831337451935,0,0,0.56970947980880737,0,-0.39176309108734131,0,-0.49002647399902344,-0.58611255884170532,1,0.6985243558883667,-0.37418809533119202,-0.55886244773864746,0.6185343861579895,0.23046207427978516,1,0.044690638780593872,-0.46148008108139038,0.22688277065753937,0,-0.38112378120422363,0.26182389259338379,-0.27696967124938965,0.61775118112564087,-0.58995270729064941,0.34528434276580811,-0.1662527471780777,0.21539396047592163,0.37667199969291687,0.20815066993236542,-0.48182076215744019,0.55909055471420288,0,-0.94981926679611206,0.50482571125030518,0,0,1,-0.25805366039276123,0.85818278789520264,0.48324775695800781,0.72721260786056519,1,-0.52509093284606934,0,0.76394009590148926,0.13317432999610901,0,-0.30056720972061157,-0.46923625469207764,0.5272412896156311,0.74929153919219971,-0.39786714315414429,-0.5,-0.5,-1,0.42287814617156982,0,0.43209338188171387,1,-0.28900489211082458,0,-0.43141260743141174,0.12318325042724609,-0.4320792555809021,0.46563714742660522,0,-0.48898869752883911,0,0.13451874256134033,-0.032518621534109116,0,0,0.29684525728225708,0,-0.47261631488800049,-0.19482779502868652,0.29785874485969543,-0.027125239372253418,-0.11069369316101074,-0.48298227787017822,-0.26520165801048279,-0.80133199691772461,0.9388616681098938,0.71588528156280518,0,0.068776465952396393,-0.28932160139083862,-0.89550220966339111,0.38151633739471436,0.29774582386016846,-0.23959898948669434,0,0.0050701936706900597,-0.11881411820650101,0,0.3246612548828125,0,0.29894179105758667,0.33421286940574646,0.37316179275512695,0.19304652512073517,0]],"id":"05AA3D80-24F9-4DA3-A428-0A37F1FB05CF","generation":318,"biases":[[],[0.98228061199188232,-0.41468366980552673,-0.0065774614922702312,-0.81131899356842041,-0.082263432443141937,0.11497801542282104,0.40798738598823547,-1,1,-0.4641273021697998,-0.0022170543670654297,0.46735858917236328,-0.039813518524169922,-1,-1,-0.91491043567657471],[-0.44004222750663757,-0.3527335524559021,-0.89941555261611938,-0.49567469954490662,-0.26730740070343018,-0.64337581396102905,-0.83481287956237793,0.090859413146972656]],"inputCount":22,"hiddenCount":16,"outputCount":8},
{"marker2":false,"marker1":false,"weights":[[],[-0.46910089254379272,-0.5931738018989563,0,0,-0.95833337306976318,-1,0,0.14651858806610107,0,0.8426470160484314,0,0.20643234252929688,-1,0.76338803768157959,-0.47522294521331787,0,0.49099135398864746,0.26683247089385986,0.27414238452911377,0,0.042329110205173492,0.45836958289146423,0,-0.36150288581848145,1,0,0.048537731170654297,-0.27654799818992615,-0.75279784202575684,0.54967594146728516,0,-0.97681659460067749,-0.37598428130149841,0,-0.2027897834777832,-1,0,0.23923568427562714,-1,0.42576247453689575,-0.43428707122802734,0.93464905023574829,0.48951670527458191,0.39114546775817871,0.029844144359230995,0,-0.32323575019836426,-0.16749396920204163,0,0.37347802519798279,-0.30915990471839905,-0.41649836301803589,0,0.19900929927825928,-0.074627086520195007,-0.24718673527240753,0,0,-0.12437226623296738,-0.16821412742137909,-0.92078989744186401,0,0.43449169397354126,0.2727644145488739,-1,0,0,-0.2887846827507019,-0.27900412678718567,-1,-0.33333694934844971,0,0,-0.61646139621734619,0.17424952983856201,0,0.6122206449508667,-0.16565069556236267,0.1704915314912796,0,0.062727555632591248,0,0,0,0.37085536122322083,0,0,0.30664980411529541,0.85029268264770508,0,0.48588648438453674,1,0.19332382082939148,-0.21760666370391846,-0.98932516574859619,0.52215921878814697,0,1,0,0.60389119386672974,0.66411608457565308,0.96863335371017456,0,0.13868235051631927,0.7581864595413208,0.3150690495967865,0.46748724579811096,0,0,-0.98682022094726562,0.39473682641983032,0.63630080223083496,0,-0.23765969276428223,0.83627414703369141,-0.25440505146980286,0,0,-1,-0.47122275829315186,0,0.02209925651550293,0.46118491888046265,-0.911865234375,0,0.68330568075180054,0,0.076869100332260132,0,-0.88397073745727539,0.9657818078994751,0,0,-0.13123567402362823,-0.21879076957702637,0,0.55089139938354492,1,0.3097604513168335,-0.40291643142700195,0,-0.13247275352478027,0,0.25374871492385864,-0.28035545349121094,0,0.38255032896995544,0,0.15635588765144348,0,0,0.32288956642150879,-0.39828416705131531,0.8923797607421875,0.44536077976226807,0,-1,-0.91803210973739624,-0.90118694305419922,0.15100005269050598,-0.98219871520996094,-1,-0.22830462455749512,-0.13945592939853668,-0.4864809513092041,-0.46023967862129211,0,-1,0.59669476747512817,-0.16257233917713165,-0.044759403914213181,-0.19612805545330048,0.31376099586486816,0.0054085324518382549,-0.33036237955093384,-0.6540597677230835,-0.51941078901290894,-0.33650979399681091,0,0,0.22609785199165344,0.12030857801437378,-0.28226554393768311,1,0.34631568193435669,0,0,-1,0,0,0.34220165014266968,-0.05420168861746788,0,-0.80870699882507324,0.036942455917596817,-1,0.23744630813598633,0,0.47983068227767944,0.20581990480422974,-0.079890608787536621,0.3890136182308197,-0.34543824195861816,0,0.42136642336845398,0,0,0.38121509552001953,0,-0.13366076350212097,0,0.25462800264358521,0.50904923677444458,-0.044991292059421539,-0.93582135438919067,0.40878608822822571,-0.26433071494102478,0.23246622085571289,0,0.67253983020782471,0.33377978205680847,0.43930909037590027,-0.24129951000213623,0,0,-1,0,0.42400449514389038,0.45070111751556396,0,0.40109884738922119,0,-0.76848876476287842,0,0,0,-1,0.97084498405456543,-0.43213015794754028,0.22477318346500397,0.7743830680847168,0.69750559329986572,0,0.21113067865371704,0.39271783828735352,0.304880291223526,0.38917544484138489,-0.62018954753875732,0.34247764945030212,-0.00236734957434237,0,-0.79931914806365967,-0.35312104225158691,0,0.7000725269317627,-0.32713505625724792,-0.88377523422241211,0,-0.26037022471427917,0.17780551314353943,-0.15637591481208801,-0.36002552509307861,-0.42551529407501221,0.28778257966041565,0.17528335750102997,-0.84963595867156982,-0.35093775391578674,-0.5135807991027832,0,-0.6253541111946106,-0.40567973256111145,-0.010702908039093018,-0.046696223318576813,0,0,0.26832127571105957,0.026509204879403114,-1,0.50951093435287476,-0.63152748346328735,-0.087202675640583038,0.49441614747047424,0.57534706592559814,0,0,0.41624090075492859,-0.11856842041015625,-0.79587197303771973,0.16549435257911682,0.40285339951515198,0,0.27207878232002258,1,0.96576392650604248,0.87661707401275635,0,-0.61055415868759155,0,0,0,-0.36004197597503662,0.32634800672531128,0,0.31020510196685791,0.31220880150794983,0,0.33030813932418823,0,0,0,-0.93320626020431519,0.69249808788299561,1,0,-0.33278346061706543,0,-0.66437989473342896,0.29254528880119324,0.94372808933258057,-0.33747443556785583,-0.044759240001440048,-0.30102938413619995,0.78612041473388672,0,0.065992981195449829,0.52320986986160278,0.88003379106521606,-0.34024849534034729,0.4090004563331604,0,0.11360030621290207,0.50093233585357666,0.35881006717681885,0,0,1,0.12478410452604294,-0.52395111322402954,0.77152681350708008,0.30065774917602539,1,0.32847708463668823,-0.082672320306301117,-0.36252507567405701,-0.28119730949401855,-0.0087064504623413086,-0.065905369818210602,-0.95341038703918457,-0.27238970994949341,0,0.28447675704956055,0],[0,0,-0.42125740647315979,0.41042986512184143,-0.23501460254192352,-0.65731960535049438,-0.38274917006492615,0.24046008288860321,-0.26630115509033203,-0.4652341902256012,-0.25394058227539062,0.1623099148273468,0.88425308465957642,1,0,0.86848580837249756,0,0.63438248634338379,0.38837799429893494,-0.52892458438873291,-0.57996988296508789,0,0.16966646909713745,0,0.43887239694595337,-0.19067831337451935,0,0,0.56970947980880737,0,-0.39176309108734131,0,-0.49002647399902344,-0.58611255884170532,1,0.6985243558883667,-0.37418809533119202,-0.55886244773864746,0.6185343861579895,0.23046207427978516,1,0.089381277561187744,-0.46148008108139038,0.22688277065753937,0,-0.38112378120422363,0.26182389259338379,-0.27696967124938965,0.61775118112564087,-0.58995270729064941,0.34528434276580811,-0.1662527471780777,-0.18681435286998749,0.37667199969291687,0.20815066993236542,-0.48182076215744019,0.55909055471420288,0,-0.94981926679611206,0.50482571125030518,0,0,1,-0.25805366039276123,0.85818278789520264,0.48324775695800781,0.72721260786056519,0.82406437397003174,-0.52509093284606934,0,0.76394009590148926,-0.17256517708301544,0,-0.30056720972061157,-0.46923625469207764,0.5272412896156311,0.74929153919219971,-0.39786714315414429,-0.5,-0.5,-1,0.42287814617156982,0,0.43209338188171387,0.96200060844421387,-0.28900489211082458,0,-0.43141260743141174,0.12318325042724609,-0.4320792555809021,0.46563714742660522,0,-0.48898869752883911,0,0.13451874256134033,-0.032518621534109116,0,0,0.59369051456451416,0,-0.47261631488800049,-0.19482779502868652,0.29785874485969543,-0.33768931031227112,-0.11069369316101074,-0.48298227787017822,-0.26520165801048279,-0.80133199691772461,0.9388616681098938,0.71588528156280518,0,0.068776465952396393,-0.28932160139083862,-0.89550220966339111,0.38151633739471436,0.29774582386016846,-0.23959898948669434,0,0.0050701936706900597,-0.11881411820650101,0,0.3246612548828125,0,0.29894179105758667,-0.038596928119659424,0.37316179275512695,0.19304652512073517,0]],"id":"8656B200-E17A-4D0B-B3E5-0893338B3A70","generation":318,"biases":[[],[0.98228061199188232,-0.41468366980552673,-0.0065774614922702312,-0.81131899356842041,-0.082263432443141937,0.15597568452358246,0.77550995349884033,-1,1,-0.4641273021697998,-0.0022170543670654297,0.46735858917236328,-0.039813518524169922,-0.5,-1,-0.91491043567657471],[-0.3341071605682373,-0.3527335524559021,-0.89941555261611938,-0.49567469954490662,-0.26730740070343018,-0.64337581396102905,-0.83481287956237793,0.090859413146972656]],"inputCount":22,"hiddenCount":16,"outputCount":8},
{"marker2":false,"marker1":false,"weights":[[],[-0.46910089254379272,-0.5931738018989563,0,0,-0.95833337306976318,-1,0,0.14651858806610107,0,0.8426470160484314,0,0.20643234252929688,-1,0.76338803768157959,-0.47522294521331787,0,0.49099135398864746,0.26683247089385986,0.27414238452911377,0,0.042329110205173492,0.45836958289146423,0,-0.36150288581848145,1,0,0.048537731170654297,-0.27654799818992615,-0.75279784202575684,0.54967594146728516,0,-0.97681659460067749,-0.37598428130149841,0,-0.2027897834777832,-1,0,0.23923568427562714,-1,0.42576247453689575,-0.43428707122802734,0.93464905023574829,0.48951670527458191,0.39114546775817871,0.029844144359230995,0,-0.32323575019836426,-0.083746984601020813,0,0.37347802519798279,-0.30915990471839905,-0.41649836301803589,0,0.19900929927825928,-0.074627086520195007,-0.24718673527240753,0,0,-0.12437226623296738,-0.16821412742137909,-0.92078989744186401,0,0.43449169397354126,0.2727644145488739,-1,0,0,-0.2887846827507019,-0.27900412678718567,-1,-0.33333694934844971,0,0,-0.61646139621734619,0.17424952983856201,0,0.6122206449508667,-0.16565069556236267,0.1704915314912796,0,0.062727555632591248,0,0,0,0.37085536122322083,0,0,0.30664980411529541,0.85029268264770508,0,0.48588648438453674,1,0.19332382082939148,-0.21760666370391846,-0.98932516574859619,0.52215921878814697,0,1,0,0.60389119386672974,0.66411608457565308,0.96863335371017456,0,-0.32267734408378601,0.7581864595413208,0.3150690495967865,0.46748724579811096,0,0,-0.98682022094726562,0.39473682641983032,0.63630080223083496,0,-0.23765969276428223,0.83627414703369141,-0.25440505146980286,0,0,-1,-0.47122275829315186,0,0.02209925651550293,0.46118491888046265,-0.911865234375,0,0.68330568075180054,0,0.076869100332260132,0,-0.88397073745727539,0.9657818078994751,0,0,-0.59628766775131226,-0.21879076957702637,0,0.55089139938354492,0.97547084093093872,0.3097604513168335,-0.40291643142700195,0,-0.13247275352478027,0,0.25374871492385864,0.53452664613723755,0,0.38255032896995544,0,0.15635588765144348,0,0,0.32288956642150879,-0.39828416705131531,0.8923797607421875,0.44536077976226807,0,-1,-0.91803210973739624,-0.90118694305419922,0.15100005269050598,-0.98219871520996094,-1,-0.22830462455749512,-0.13945592939853668,-0.4864809513092041,-0.46023967862129211,0,-1,0.59669476747512817,-0.16257233917713165,-0.044759403914213181,-0.19612805545330048,0.31376099586486816,0.4256361722946167,-0.33036237955093384,-0.6540597677230835,-0.51941078901290894,-0.33650979399681091,0,0,0.22609785199165344,0.12030857801437378,-0.28226554393768311,1,0.34631568193435669,0,0,-1,0,0,0.34220165014266968,-0.05420168861746788,0,-0.80870699882507324,0.036942455917596817,-1,0.23744630813598633,0,0.47983068227767944,0.20581990480422974,-0.079890608787536621,0.3890136182308197,-0.34543824195861816,0,0.42136642336845398,0,0,0.38121509552001953,0,-0.13366076350212097,0,0.25462800264358521,0.50904923677444458,-0.044991292059421539,-0.93582135438919067,0.40878608822822571,-0.26433071494102478,0.23246622085571289,0,0.67253983020782471,0.33377978205680847,0.43930909037590027,-0.24129951000213623,0,0,-1,0,0.42400449514389038,-0.32980620861053467,0,0.40109884738922119,0,-0.76848876476287842,0,0,0,-1,0.97084498405456543,-0.43213015794754028,0.44954636693000793,0.7743830680847168,0.69750559329986572,0,0.21113067865371704,0.39271783828735352,0.304880291223526,0.38917544484138489,-0.62018954753875732,0.34247764945030212,-0.00236734957434237,0,-0.79931914806365967,-0.35312104225158691,0,0.7000725269317627,-0.32713505625724792,-0.88377523422241211,0,-0.26037022471427917,0.17780551314353943,-0.15637591481208801,-0.36002552509307861,-0.42551529407501221,0.28778257966041565,0.17528335750102997,-0.84963595867156982,-0.35093775391578674,-0.5135807991027832,0,-0.6253541111946106,-0.40567973256111145,-0.010702908039093018,-0.046696223318576813,0,0,0.26832127571105957,0.48460933566093445,-1,0.50951093435287476,-0.63152748346328735,-0.50286030769348145,0.49441614747047424,0.57534706592559814,0,0,0.41624090075492859,0.81908375024795532,-0.79587197303771973,0.16549435257911682,0.40285339951515198,0,0.27207878232002258,1,0.96576392650604248,0.87661707401275635,0,-0.61055415868759155,0,0,0,-0.36004197597503662,0.32634800672531128,0,0.15510255098342896,0.31220880150794983,0,0.33030813932418823,0,0,0,-0.65923225879669189,0.69249808788299561,1,0,-0.33278346061706543,0,-0.66437989473342896,0.29254528880119324,0.94372808933258057,-0.33747443556785583,-0.044759240001440048,-0.30102938413619995,0.78612041473388672,0,0.065992981195449829,0.52320986986160278,0.88003379106521606,-0.34024849534034729,0.4090004563331604,0,0.11360030621290207,0.50093233585357666,0.35881006717681885,0,0,1,0.12478410452604294,-0.52395111322402954,0.77152681350708008,0.30065774917602539,1,0.32847708463668823,-0.082672320306301117,-0.36252507567405701,-0.28119730949401855,-0.0087064504623413086,-0.065905369818210602,-0.95341038703918457,-0.27238970994949341,0,0.28447675704956055,0],[0,0,-0.42125740647315979,0.41042986512184143,-0.23501460254192352,-0.65731960535049438,-0.38274917006492615,0.24046008288860321,-0.26630115509033203,-0.4652341902256012,-0.25394058227539062,0.1623099148273468,0.88425308465957642,1,0,0.86848580837249756,0,0.63438248634338379,0.38837799429893494,-0.52892458438873291,0.40372598171234131,0,0.16966646909713745,0,-0.050513967871665955,-0.61269646883010864,0,0,0.56970947980880737,0,-0.39176309108734131,0,-0.075736835598945618,-0.58611255884170532,1,0.34926217794418335,-0.37418809533119202,-0.55886244773864746,0.6185343861579895,0.23046207427978516,1,0.044690638780593872,-0.46148008108139038,0.22688277065753937,0,-0.38112378120422363,0.26182389259338379,-0.27696967124938965,0.61775118112564087,-0.58995270729064941,0.34528434276580811,-0.1662527471780777,-0.18681435286998749,0.37667199969291687,0.20815066993236542,-0.48182076215744019,0.55909055471420288,0,-0.94981926679611206,0.50482571125030518,0,0,1,-0.25805366039276123,0.85818278789520264,0.48324775695800781,0.72721260786056519,0.82406437397003174,-0.52509093284606934,0,0.76394009590148926,-0.17256517708301544,0,-0.30056720972061157,-0.46923625469207764,0.5272412896156311,0.74929153919219971,-0.39786714315414429,-0.5,-0.5,-1,0.42287814617156982,0,0.43209338188171387,0.96200060844421387,-0.28900489211082458,0,-0.43141260743141174,0.12318325042724609,-0.4320792555809021,0.46563714742660522,0,-0.48898869752883911,0,0.13451874256134033,-0.032518621534109116,0,0,0.29684525728225708,0,-0.47261631488800049,-0.19482779502868652,0.29785874485969543,-0.33768931031227112,-0.11069369316101074,-0.48298227787017822,-0.26520165801048279,-0.80133199691772461,0.9388616681098938,0.71588528156280518,0,0.068776465952396393,-0.28932160139083862,-0.89550220966339111,0.38151633739471436,0.29774582386016846,-0.23959898948669434,0,0.0050701936706900597,-0.11881411820650101,0,0.3246612548828125,0,0.29894179105758667,-0.038596928119659424,0.37316179275512695,0.19304652512073517,0]],"id":"1252779F-0081-4622-A91E-49F5CFCE1A25","generation":318,"biases":[[],[0.98228061199188232,-0.41468366980552673,-0.0065774614922702312,-0.81131899356842041,-0.082263432443141937,0.26912215352058411,0.77550995349884033,-1,1,-0.4641273021697998,-0.0022170543670654297,0.46735858917236328,-0.039813518524169922,-0.5,-1,-0.91491043567657471],[-0.3341071605682373,-0.3527335524559021,-0.89941555261611938,-0.49567469954490662,-0.26730740070343018,-0.64337581396102905,-0.83481287956237793,0.090859413146972656]],"inputCount":22,"hiddenCount":16,"outputCount":8},
{"marker2":false,"marker1":false,"weights":[[],[-0.46910089254379272,-0.5931738018989563,0,0,-0.95833337306976318,-0.62963616847991943,0,0.14651858806610107,0,0.8426470160484314,0,0.20643234252929688,-1,0.76338803768157959,-0.47522294521331787,0,0.41691595315933228,0.26683247089385986,0.27414238452911377,0,-0.33137151598930359,0.45836958289146423,0,-0.36150288581848145,0.82117658853530884,0,0.048537731170654297,-0.27654799818992615,-0.75279784202575684,0.54967594146728516,0,-0.97681659460067749,-0.37598428130149841,0,-0.58373582363128662,-1,0,0.23923568427562714,-1,0.42576247453689575,-0.43428707122802734,0.93464905023574829,0.14551800489425659,0.39114546775817871,0.029844144359230995,0,-0.32323575019836426,-0.083746984601020813,0,0.37347802519798279,-0.30915990471839905,-0.20824918150901794,0,0.099504649639129639,-0.074627086520195007,-0.24718673527240753,0,0,-0.12437226623296738,-0.16821412742137909,-0.92078989744186401,0,0.43449169397354126,0.53086048364639282,-1,0,0,-0.2887846827507019,-0.27900412678718567,-1,0,-0.25346779823303223,0,-0.61646139621734619,0.17424952983856201,0,0.6122206449508667,-0.16565069556236267,0.1704915314912796,0,0.062727555632591248,0,0,-0.30525663495063782,0,0,0,0.30664980411529541,0.85029268264770508,0,0.24294324219226837,1,0.19332382082939148,-0.21760666370391846,-1,0.47604444622993469,-0.34295380115509033,1,0,0.30194559693336487,0.66411608457565308,0.96863335371017456,0,0.38988843560218811,0.7581864595413208,0.3150690495967865,0.46748724579811096,0,0,-0.98682022094726562,0.39473682641983032,0.63630080223083496,0,-0.47531938552856445,0.83627414703369141,-0.25440505146980286,0,0,-1,0,0,0.02209925651550293,0.46118491888046265,-0.911865234375,-0.37732461094856262,0.68330568075180054,0,0.076869100332260132,0,-1,0.9657818078994751,0,0,-0.13123567402362823,-0.21756482124328613,0,0.55089139938354492,0.71446573734283447,0.3097604513168335,-0.40291643142700195,0,-0.26494550704956055,0,0.25374871492385864,0.53452664613723755,0,0.38255032896995544,0,-0.29738783836364746,0,-0.46397173404693604,0.32288956642150879,-0.44225910305976868,0.8923797607421875,0.44536077976226807,0,-1,0.059122614562511444,-0.90118694305419922,0.15100005269050598,-0.98219871520996094,-1,-0.22830462455749512,-0.75837445259094238,-0.4864809513092041,-0.46023967862129211,0,-1,0.29834738373756409,-0.16257233917713165,-0.044759403914213181,-0.19612805545330048,0.31376099586486816,0.4256361722946167,0,-0.6540597677230835,-0.51941078901290894,-0.33650979399681091,0,0,0.22609785199165344,0.12030857801437378,-0.28226554393768311,1,0.34631568193435669,0,0,-1,0,0,0.34220165014266968,-0.41570675373077393,0,-0.80870699882507324,0.036942455917596817,-1,0.23744630813598633,0,0.95362347364425659,-0.12675642967224121,-0.079890608787536621,0.3890136182308197,-0.34543824195861816,0,0.42136642336845398,0,0,0.38121509552001953,0,-0.13366076350212097,0,0.25462800264358521,0.50904923677444458,0.37586069107055664,-0.93582135438919067,0.40878608822822571,-0.26433071494102478,0.23246622085571289,0,0.67253983020782471,0.33377978205680847,0.43930909037590027,0.021782517433166504,0,0,-1,-0.48798692226409912,0.42400449514389038,-0.32980620861053467,0,0.051767662167549133,0,-0.76848876476287842,0,0,0,-1,0.97084498405456543,-0.43213015794754028,0.44954636693000793,0.7743830680847168,-0.098962992429733276,0.3697967529296875,0.21113067865371704,0.39271783828735352,-0.12767896056175232,0,-0.33731678128242493,0.34247764945030212,-0.00236734957434237,0,-0.32983294129371643,-0.75909024477005005,0,0.7000725269317627,-0.32713505625724792,-0.88377523422241211,0,-0.26037022471427917,-0.25374794006347656,-0.15637591481208801,0,0.26626014709472656,0.5755651593208313,-0.6431242823600769,-0.84963595867156982,-0.35093775391578674,-0.19967092573642731,0,-0.30282717943191528,-0.40567973256111145,-0.010702908039093018,-0.046696223318576813,0,0,0.26832127571105957,0.48460933566093445,-0.77798527479171753,0.50951093435287476,-0.63152748346328735,-0.50286030769348145,0.013650176115334034,0.57534706592559814,0,0,0,0.40954187512397766,-0.79587197303771973,0.16549435257911682,0.1345227062702179,0,0.27207878232002258,1,0.96576392650604248,0,0,-0.61055415868759155,0,-0.64537739753723145,0,-0.36004197597503662,0.32634800672531128,-1,0.63040703535079956,0.31220880150794983,0,0.058274727314710617,0,0.33036836981773376,0,-0.49587813019752502,0.69249808788299561,1,0,-0.33278346061706543,0,-0.33218994736671448,0,0.94372808933258057,-0.33747443556785583,-0.044759240001440048,-0.30102938413619995,0.78612041473388672,0,0.065992981195449829,0.52320986986160278,0.44001689553260803,-0.34024849534034729,0.4090004563331604,0.28360801935195923,0.11360030621290207,0.50093233585357666,0.35881006717681885,0,0,1,-0.34271106123924255,-0.52395111322402954,0.77152681350708008,0.30065774917602539,1,0.031899824738502502,-0.082672320306301117,-0.36252507567405701,0,-0.0087064504623413086,-0.51817667484283447,-0.95341038703918457,-0.27238970994949341,0,0.28447675704956055,0],[0,0,-0.42125740647315979,0.41042986512184143,-0.23501460254192352,-0.65731960535049438,-0.38274917006492615,0.71674627065658569,-0.26630115509033203,-0.4652341902256012,0.85449963808059692,0.1623099148273468,0.68528068065643311,1,0,0.76673680543899536,0,1,0.38837799429893494,-0.52892458438873291,1,0.38772472739219666,0.16966646909713745,0,0.43887239694595337,-0.19067831337451935,0,0,0.56970947980880737,0,-0.39176309108734131,0,-0.98005294799804688,-0.58611255884170532,0.5,0.6985243558883667,-0.37418809533119202,-0.55886244773864746,0.6185343861579895,0.23046207427978516,1,0.54189091920852661,-0.18232618272304535,0.22688277065753937,0,-0.38112378120422363,0.26182389259338379,-0.27696967124938965,0.61775118112564087,-0.58995270729064941,0.34528434276580811,-0.3325054943561554,-0.18681435286998749,0.37667199969291687,0.41630133986473083,-0.82882654666900635,0.26469925045967102,0,-0.94981926679611206,0.50482571125030518,0,0.38536638021469116,1,-0.25805366039276123,0.85818278789520264,0.48324775695800781,0.72721260786056519,0.82406437397003174,-0.52509093284606934,0,1,0.13317432999610901,-0.29311054944992065,-0.30056720972061157,-0.65871196985244751,0.79504334926605225,0.42819905281066895,0.089280486106872559,-0.5,-1,-0.64408302307128906,0.42287814617156982,0,0.41149848699569702,0.96200060844421387,-0.61808925867080688,0,-0.43141260743141174,0.12318325042724609,-0.4320792555809021,0.46563714742660522,0,-0.15109327435493469,0,0.13451874256134033,-0.065037243068218231,0,0,0,0,-0.47261631488800049,-0.19482779502868652,0.29785874485969543,-0.027125239372253418,-0.11069369316101074,-0.48298227787017822,-0.3221358060836792,-0.80133199691772461,0.9388616681098938,0.2213251143693924,0,0.068776465952396393,0,-0.89550220966339111,0.38151633739471436,0.29774582386016846,-0.23959898948669434,0,0.010140387341380119,-0.11881411820650101,0,0.3246612548828125,0,0.60616624355316162,-0.038596928119659424,0.38973662257194519,0.20358327031135559,0]],"id":"123C3BC2-AD2F-41EC-BE2F-4AC99B246214","generation":320,"biases":[[],[1,-0.82936733961105347,-0.0065774614922702312,-0.81131899356842041,-0.082263432443141937,-0.28979802131652832,0.81339764595031738,-1,1,-0.86476039886474609,-0.0022170543670654297,0.77910858392715454,-0.039813518524169922,-0.92854416370391846,-1,-0.91491043567657471],[-0.031150480732321739,-0.3527335524559021,-1,0,-1,-0.32168790698051453,-0.83481287956237793,0.090859413146972656]],"inputCount":22,"hiddenCount":16,"outputCount":8},
{"marker2":false,"marker1":false,"weights":[[],[-0.46910089254379272,-0.5931738018989563,0,0,-0.95833337306976318,-0.62963616847991943,0,0.14651858806610107,0,0.8426470160484314,0,0.20643234252929688,-1,0.76338803768157959,-0.47522294521331787,0,0.41691595315933228,0.26683247089385986,0.27414238452911377,0,-0.33137151598930359,0.45836958289146423,0,-0.36150288581848145,0.82117658853530884,0,0.048537731170654297,-0.27654799818992615,-0.75279784202575684,0.54967594146728516,0,-0.97681659460067749,-0.37598428130149841,0,-0.58373582363128662,-1,0,0.23923568427562714,-1,0.42576247453689575,-0.43428707122802734,0.93464905023574829,0.14551800489425659,0.39114546775817871,0.029844144359230995,0,-0.32323575019836426,-0.083746984601020813,0,0.37347802519798279,-0.30915990471839905,-0.20824918150901794,0.48526531457901001,0.099504649639129639,-0.074627086520195007,-0.24718673527240753,0,0,-0.12437226623296738,-0.16821412742137909,-0.92078989744186401,0,0.43449169397354126,0.53086048364639282,-1,0,0,-0.2887846827507019,-0.27900412678718567,-1,0,-0.25346779823303223,0,-0.61646139621734619,0.17424952983856201,0,0.6122206449508667,-0.16565069556236267,0.1704915314912796,0,0.062727555632591248,0,0,-0.30525663495063782,0,0,0,0.30664980411529541,0.85029268264770508,0,0.24294324219226837,1,0.19332382082939148,-0.21760666370391846,-1,0.47604444622993469,0,1,0,0.30194559693336487,0.66411608457565308,0.96863335371017456,0,0.38988843560218811,0.7581864595413208,0.3150690495967865,0.46748724579811096,0,0,-0.98682022094726562,0.39473682641983032,0.63630080223083496,0,-0.23765969276428223,0.83627414703369141,-0.25440505146980286,0,0,-1,0,0,0.02209925651550293,0.46118491888046265,-0.911865234375,-0.37732461094856262,0.68330568075180054,0,0.076869100332260132,0,-1,0.9657818078994751,0,0,-0.13123567402362823,-0.21756482124328613,0,0.55089139938354492,0.71446573734283447,0.3097604513168335,-0.40291643142700195,0,-0.26494550704956055,0,0.25374871492385864,0.53452664613723755,0,0.38255032896995544,0,-0.29738783836364746,0,-0.46397173404693604,0.32288956642150879,-0.44225910305976868,0.8923797607421875,0.44536077976226807,0,-1,0.059122614562511444,-0.90118694305419922,0.15100005269050598,-0.98219871520996094,-1,-0.22830462455749512,-0.75837445259094238,-0.4864809513092041,-0.46023967862129211,0,-1,0.29834738373756409,-0.16257233917713165,-0.044759403914213181,-0.19612805545330048,0.31376099586486816,0.4256361722946167,0,-0.6540597677230835,-0.51941078901290894,-0.33650979399681091,0,0,0.22609785199165344,0.12030857801437378,-0.28226554393768311,1,0.34631568193435669,0,0,-1,0,0,0.34220165014266968,-0.41570675373077393,0,-0.80870699882507324,0.036942455917596817,-1,0.23744630813598633,0,0.95362347364425659,-0.12675642967224121,-0.079890608787536621,0.3890136182308197,-0.34543824195861816,0,0.42136642336845398,0,0,0.38121509552001953,0,-0.13366076350212097,0,0.25462800264358521,0.50904923677444458,0.37586069107055664,-0.93582135438919067,0.40878608822822571,-0.26433071494102478,0.23246622085571289,0,0.67253983020782471,0.33377978205680847,0.43930909037590027,0.021782517433166504,0,0,-1,0,0.42400449514389038,-0.32980620861053467,0,0.051767662167549133,0,-0.76848876476287842,0,0,0,-1,0.97084498405456543,-0.43213015794754028,0.44954636693000793,0.7743830680847168,-0.098962992429733276,0.3697967529296875,0.21113067865371704,0.39271783828735352,-0.12767896056175232,0,-0.33731678128242493,0.34247764945030212,-0.00236734957434237,0,-0.32983294129371643,-0.75909024477005005,0,0.7000725269317627,-0.32713505625724792,-0.88377523422241211,0,-0.26037022471427917,-0.25374794006347656,-0.15637591481208801,0,0.26626014709472656,0.5755651593208313,-0.6431242823600769,-0.84963595867156982,-0.35093775391578674,-0.19967092573642731,0,-0.30282717943191528,-0.40567973256111145,-0.010702908039093018,-0.046696223318576813,0,0,0.26832127571105957,0.48460933566093445,-0.77798527479171753,0.50951093435287476,-0.63152748346328735,-0.50286030769348145,0.013650176115334034,0.57534706592559814,0,0,0,0.40954187512397766,-0.79587197303771973,0.16549435257911682,0.1345227062702179,0,0.27207878232002258,1,0.96576392650604248,0,0,-0.61055415868759155,0,-0.64537739753723145,0,-0.36004197597503662,0.32634800672531128,-1,0.63040703535079956,0.31220880150794983,0,0.058274727314710617,0,0.33036836981773376,0,-0.49587813019752502,0.69249808788299561,1,0,-0.33278346061706543,0,-0.33218994736671448,0,0.94372808933258057,-0.33747443556785583,-0.044759240001440048,-0.30102938413619995,0.78612041473388672,0,0.065992981195449829,0.52320986986160278,0.44001689553260803,-0.34024849534034729,0.4090004563331604,0.28360801935195923,0.11360030621290207,0.50093233585357666,0.35881006717681885,0,0,1,-0.34271106123924255,-0.52395111322402954,0.77152681350708008,0.30065774917602539,1,0.32847708463668823,-0.082672320306301117,-0.36252507567405701,0,-0.0087064504623413086,-0.51817667484283447,-0.95341038703918457,-0.27238970994949341,0,0.28447675704956055,0],[0,0,-0.42125740647315979,0.41042986512184143,-0.23501460254192352,-0.65731960535049438,-0.38274917006492615,0.71674627065658569,-0.26630115509033203,-0.4652341902256012,0.85449963808059692,0.1623099148273468,0.68528068065643311,1,0,0.76673680543899536,0,1,0.38837799429893494,-0.52892458438873291,1,0.38772472739219666,0.16966646909713745,0,0.43887239694595337,-0.19067831337451935,0,0,0.56970947980880737,0,-0.39176309108734131,0,-0.98005294799804688,-0.58611255884170532,0.5,0.6985243558883667,-0.37418809533119202,-0.84761792421340942,0.6185343861579895,-0.081866204738616943,1,0.54189091920852661,-0.18232618272304535,0.22688277065753937,0,-0.38112378120422363,0.26182389259338379,-0.27696967124938965,0.61775118112564087,-0.58995270729064941,0.34528434276580811,-0.3325054943561554,-0.18681435286998749,0.37667199969291687,0.41630133986473083,-0.82882654666900635,0.26469925045967102,0,-0.10277247428894043,0.50482571125030518,0,0.38536638021469116,1,-0.25805366039276123,0.85818278789520264,0.48324775695800781,0.72721260786056519,0.82406437397003174,-0.52509093284606934,0,1,0.13317432999610901,-0.29311054944992065,-0.30056720972061157,-0.65871196985244751,0.79504334926605225,0.42819905281066895,0.089280486106872559,-0.5,-1,-0.64408302307128906,0.42287814617156982,0,0.41149848699569702,0.96200060844421387,-0.61808925867080688,0,-0.43141260743141174,0.12318325042724609,-0.4320792555809021,0.46563714742660522,0,-0.15109327435493469,0,0.13451874256134033,-0.032518621534109116,0,0,0,0,-0.47261631488800049,-0.19482779502868652,0.29785874485969543,-0.027125239372253418,-0.11069369316101074,-0.48298227787017822,-0.26520165801048279,-0.80133199691772461,0.9388616681098938,0.2213251143693924,0,0.068776465952396393,0,-0.89550220966339111,0.38151633739471436,0.29774582386016846,-0.23959898948669434,0,0.010140387341380119,-0.11881411820650101,0,0.3246612548828125,0,0.60616624355316162,-0.038596928119659424,0.00063967873575165868,0.20358327031135559,0]],"id":"63C75DFF-4F2E-4A4F-8623-E9789E79937E","generation":319,"biases":[[],[1,-0.82936733961105347,-0.0065774614922702312,-0.81131899356842041,-0.082263432443141937,0.097438864409923553,0.38775497674942017,-1,1,-0.86476039886474609,-0.0022170543670654297,0.77910858392715454,-0.039813518524169922,-0.92854416370391846,-1,-0.91491043567657471],[-0.031150480732321739,-0.3527335524559021,-1,0,-1,-0.32168790698051453,-0.83481287956237793,0.090859413146972656]],"inputCount":22,"hiddenCount":16,"outputCount":8},
{"marker2":false,"marker1":false,"weights":[[],[-0.46910089254379272,-0.5931738018989563,0,0,-0.95833337306976318,-1,0,0.14651858806610107,0,0.8426470160484314,0,0.53563827276229858,-1,0.76338803768157959,-0.47522294521331787,0,0.49099135398864746,0.26683247089385986,0.27414238452911377,0,-0.33137151598930359,0.22918479144573212,0,-0.36150288581848145,1,0,-0.068716287612915039,-0.27654799818992615,-0.75279784202575684,0.54967594146728516,0,-0.97681659460067749,-0.37598428130149841,0,-0.2027897834777832,-1,0,0.23923568427562714,-1,0.42576247453689575,-0.43428707122802734,0.93464905023574829,0.48951670527458191,0.39114546775817871,0.029844144359230995,-0.31950545310974121,-0.32323575019836426,-0.083746984601020813,0,0.37347802519798279,-0.30915990471839905,-0.41649836301803589,0,0.19900929927825928,-0.074627086520195007,-0.24718673527240753,0,0,-0.12437226623296738,-0.16821412742137909,-0.92078989744186401,0,0.43449169397354126,0.2727644145488739,-1,0,0,-0.2887846827507019,0.24480891227722168,-1,-0.33333694934844971,0,0,-0.61646139621734619,0.17424952983856201,0,0.6122206449508667,0.088263541460037231,0.1704915314912796,0,0.062727555632591248,0,0,0,0,0,0,0.30664980411529541,0.85029268264770508,0,0.48588648438453674,1,0.19332382082939148,-0.21760666370391846,-0.98932516574859619,0.52215921878814697,0,1,0,0.60389119386672974,0.66411608457565308,0.96863335371017456,0,0.13868235051631927,0.7581864595413208,0.3150690495967865,0.46748724579811096,0,0,-0.98682022094726562,0.39473682641983032,0.63630080223083496,0,-0.23765969276428223,0.83627414703369141,-0.25440505146980286,0,0,-1,-0.47122275829315186,0,0.02209925651550293,0.46118491888046265,-0.911865234375,0,0.25933104753494263,0,-0.3876742422580719,0,-1,0.9657818078994751,0,0,-0.13123567402362823,-0.21879076957702637,0,0.55089139938354492,0.97547084093093872,0.3097604513168335,-0.40291643142700195,0,-0.13247275352478027,0,0.25374871492385864,0.53452664613723755,0,0.38255032896995544,0,0.15635588765144348,0,0,0.32288956642150879,-0.39828416705131531,0.8923797607421875,0.44536077976226807,0,-1,-0.91803210973739624,-1,0.15100005269050598,-0.98219871520996094,-1,-0.22830462455749512,-0.27891185879707336,-0.4864809513092041,-0.46023967862129211,0,-1,0.59669476747512817,-0.16257233917713165,-0.044759403914213181,-0.19612805545330048,0.31376099586486816,0.4256361722946167,-0.33036237955093384,-0.6540597677230835,-0.51941078901290894,-0.33650979399681091,0,0,0.22609785199165344,0.12030857801437378,-0.28226554393768311,1,0.34631568193435669,0,0,-1,0,0,0.34220165014266968,-0.05420168861746788,0,-0.80870699882507324,0.036942455917596817,-1,0.23744630813598633,0,0.47983068227767944,-0.12675642967224121,-0.079890608787536621,0.3890136182308197,-0.34543824195861816,0,0.42136642336845398,0,0,0.38121509552001953,0,-0.13366076350212097,0,0.25462800264358521,0.50904923677444458,-0.044991292059421539,-0.93582135438919067,0.40878608822822571,-0.26433071494102478,0.23246622085571289,0,0.67253983020782471,0.33377978205680847,0.43930909037590027,-0.24129951000213623,0,0,-1,0,0.42400449514389038,-0.32980620861053467,0,0.40109884738922119,0,-0.76848876476287842,0,0,0,-1,0.97084498405456543,-0.43213015794754028,0.44954636693000793,0.13556444644927979,0.69750559329986572,0,0.42226135730743408,0.39271783828735352,0.304880291223526,0.38917544484138489,-0.62018954753875732,0.34247764945030212,-0.00236734957434237,0,-0.79931914806365967,-0.35312104225158691,0,0.7000725269317627,-0.32713505625724792,-0.88377523422241211,0,-0.26037022471427917,0.17780551314353943,-0.15637591481208801,-0.36002552509307861,-0.42551529407501221,0.5755651593208313,0.17528335750102997,-0.84963595867156982,-0.35093775391578674,-0.5135807991027832,0,-0.6253541111946106,-0.40567973256111145,-0.010702908039093018,-0.046696223318576813,0,0,0.26832127571105957,0.48460933566093445,-0.77798527479171753,0.50951093435287476,-0.63152748346328735,-0.50286030769348145,0.49441614747047424,0.57534706592559814,0,0,0.41624090075492859,0.81908375024795532,-0.79587197303771973,0.16549435257911682,0.40285339951515198,0,0.27207878232002258,1,0.96576392650604248,0.87661707401275635,0,-0.61055415868759155,0,0,0,-0.36004197597503662,0.32634800672531128,0,0.15510255098342896,0.31220880150794983,0,0.33030813932418823,0,0,0,-0.65923225879669189,0.69249808788299561,1,0,-0.33278346061706543,0,-0.66437989473342896,0.29254528880119324,0.94372808933258057,-0.33747443556785583,-0.044759240001440048,-0.30102938413619995,0.78612041473388672,0,0.065992981195449829,0.52320986986160278,0.88003379106521606,-0.34024849534034729,0.4090004563331604,0,0.11360030621290207,0.50093233585357666,0.35881006717681885,0,0,1,0.12478410452604294,-0.52395111322402954,0.77152681350708008,0.30065774917602539,1,0.32847708463668823,-0.082672320306301117,-0.36252507567405701,-0.28119730949401855,-0.0087064504623413086,-0.065905369818210602,-0.95341038703918457,-0.27238970994949341,0,0.28447675704956055,-0.17856240272521973],[0,0,-0.42125740647315979,0.41042986512184143,-0.23501460254192352,-0.65731960535049438,-0.38274917006492615,0.24046008288860321,-0.26630115509033203,-0.4652341902256012,-0.25394058227539062,0.1623099148273468,1,1,0,0.86848580837249756,0,0.63438248634338379,0.38837799429893494,-0.52892458438873291,0.40372598171234131,0,0.16966646909713745,0,0.43887239694595337,-0.19067831337451935,0,0,0.56970947980880737,0,-0.39176309108734131,0,-0.49002647399902344,-0.58611255884170532,0.36620104312896729,0.6985243558883667,-0.37418809533119202,-0.55886244773864746,0.6185343861579895,0.23046207427978516,1,0.044690638780593872,-0.46148008108139038,0.22688277065753937,0,-0.38112378120422363,0.26182389259338379,-0.27696967124938965,0.61775118112564087,-0.58995270729064941,0.34528434276580811,-0.1662527471780777,0.21539396047592163,0.37667199969291687,0.20815066993236542,-0.48182076215744019,0.55909055471420288,0,-0.94981926679611206,0.50482571125030518,0,0,1,-0.25805366039276123,0.85818278789520264,0.48324775695800781,0.72721260786056519,1,-0.52509093284606934,0,0.76394009590148926,0.13317432999610901,0,-0.30056720972061157,-0.46923625469207764,0.5272412896156311,0.74929153919219971,-0.79573428630828857,-0.5,-0.5,-1,0.42287814617156982,0,0.43209338188171387,1,-0.28900489211082458,0,-0.43141260743141174,0.12318325042724609,-0.4320792555809021,0.46563714742660522,0,-0.48898869752883911,0,0.13451874256134033,-0.032518621534109116,0,0,0.29684525728225708,0,-0.47261631488800049,-0.19482779502868652,0.29785874485969543,-0.027125239372253418,-0.11069369316101074,-0.48298227787017822,-0.26520165801048279,-0.80133199691772461,0.9388616681098938,0.71588528156280518,0,0.068776465952396393,-0.28932160139083862,-0.89550220966339111,0.38151633739471436,0.29774582386016846,-0.23959898948669434,0,0.0050701936706900597,-0.11881411820650101,0,0.3246612548828125,0,0.29894179105758667,0.33421286940574646,0.37316179275512695,0.19304652512073517,0]],"id":"B1D8582D-E863-46A3-B5D9-D8A26FA4E83E","generation":319,"biases":[[],[0.98228061199188232,-0.41468366980552673,-0.0065774614922702312,-0.81131899356842041,-0.082263432443141937,0.11497801542282104,0.40798738598823547,-1,1,-0.4641273021697998,-0.0022170543670654297,0.46735858917236328,-0.039813518524169922,-1,-1,-0.45212998986244202],[-0.44004222750663757,-0.3527335524559021,-0.89941555261611938,-0.49567469954490662,-0.26730740070343018,-0.64337581396102905,-0.83481287956237793,0.090859413146972656]],"inputCount":22,"hiddenCount":16,"outputCount":8},
{"marker2":false,"marker1":false,"weights":[[],[-0.46910089254379272,-0.5931738018989563,0,0,-0.95833337306976318,-0.62963616847991943,0,0.14651858806610107,0,0.8426470160484314,0,0.20643234252929688,-1,0.76338803768157959,-0.47522294521331787,0,0.41691595315933228,0.26683247089385986,0.27414238452911377,0,-0.33137151598930359,0.45836958289146423,0,-0.36150288581848145,0.82117658853530884,0,0.048537731170654297,-0.27654799818992615,-0.75279784202575684,0.54967594146728516,0,-0.97681659460067749,-0.37598428130149841,0,-0.58373582363128662,-1,0,0.23923568427562714,-1,0.42576247453689575,-0.43428707122802734,0.93464905023574829,0.14551800489425659,0.39114546775817871,0.029844144359230995,0,-0.32323575019836426,-0.083746984601020813,0,0.37347802519798279,-0.30915990471839905,-0.20824918150901794,0.48526531457901001,0.099504649639129639,-0.074627086520195007,-0.24718673527240753,0,0,-0.12437226623296738,-0.16821412742137909,-0.92078989744186401,0,0.43449169397354126,0.53086048364639282,-1,0,0,-0.2887846827507019,-0.27900412678718567,-1,0,-0.25346779823303223,0,-0.61646139621734619,0.17424952983856201,0,0.6122206449508667,-0.16565069556236267,0.1704915314912796,0,0.062727555632591248,0,0,-0.30525663495063782,0,0,0,0.30664980411529541,0.85029268264770508,0,0.24294324219226837,1,0.19332382082939148,-0.21760666370391846,-1,0.47604444622993469,0,1,0,0.30194559693336487,0.66411608457565308,0.96863335371017456,0,0.38988843560218811,0.7581864595413208,0.3150690495967865,0.46748724579811096,0,0,-0.98682022094726562,0.39473682641983032,0.63630080223083496,0,-0.23765969276428223,0.83627414703369141,-0.25440505146980286,0,0,-1,0,0,0.02209925651550293,0.46118491888046265,-0.911865234375,-0.37732461094856262,0.68330568075180054,0,0.076869100332260132,0,-1,0.9657818078994751,0,0,-0.13123567402362823,-0.21756482124328613,0,0.55089139938354492,0.71446573734283447,0.3097604513168335,-0.40291643142700195,0,-0.26494550704956055,0,0.25374871492385864,0.53452664613723755,0,0.38255032896995544,0,-0.29738783836364746,0,-0.46397173404693604,0.32288956642150879,-0.44225910305976868,0.8923797607421875,0.44536077976226807,0,-1,0.059122614562511444,-0.90118694305419922,0.15100005269050598,-0.98219871520996094,-1,-0.22830462455749512,-0.75837445259094238,-0.4864809513092041,-0.46023967862129211,0,-1,0.29834738373756409,-0.16257233917713165,-0.044759403914213181,-0.19612805545330048,0.31376099586486816,0.4256361722946167,0,-0.6540597677230835,-0.51941078901290894,-0.33650979399681091,0,0,0.22609785199165344,0.12030857801437378,-0.28226554393768311,1,0.34631568193435669,0,0,-1,0,0,0.34220165014266968,-0.41570675373077393,0,-0.80870699882507324,0.036942455917596817,-1,0.23744630813598633,0,0.95362347364425659,-0.12675642967224121,-0.079890608787536621,0.3890136182308197,-0.34543824195861816,0,0.42136642336845398,0,0,0.38121509552001953,0,-0.13366076350212097,0,0.25462800264358521,0.50904923677444458,0.37586069107055664,-0.93582135438919067,0.40878608822822571,-0.26433071494102478,0.23246622085571289,0,0.67253983020782471,0.33377978205680847,0.43930909037590027,0.021782517433166504,0,0,-1,0,0.42400449514389038,-0.32980620861053467,0,0.051767662167549133,0,-0.76848876476287842,0,0,0,-1,0.97084498405456543,-0.43213015794754028,0.44954636693000793,0.7743830680847168,-0.098962992429733276,0.3697967529296875,0.21113067865371704,0.39271783828735352,-0.12767896056175232,0,-0.33731678128242493,0.34247764945030212,-0.00236734957434237,0,-0.32983294129371643,-0.75909024477005005,0,0.7000725269317627,-0.32713505625724792,-0.88377523422241211,0,-0.26037022471427917,-0.25374794006347656,-0.15637591481208801,0,0.26626014709472656,0.5755651593208313,-0.6431242823600769,-0.84963595867156982,-0.35093775391578674,-0.19967092573642731,0,-0.30282717943191528,-0.40567973256111145,-0.010702908039093018,-0.046696223318576813,0,0,0.26832127571105957,0.48460933566093445,-0.77798527479171753,0.50951093435287476,-0.63152748346328735,-0.50286030769348145,0.013650176115334034,0.57534706592559814,0,0,0,0.40954187512397766,-0.79587197303771973,0.16549435257911682,0.1345227062702179,0,0.27207878232002258,1,0.96576392650604248,0,0,-0.61055415868759155,0,-0.64537739753723145,0,-0.36004197597503662,0.32634800672531128,-1,0.63040703535079956,0.31220880150794983,0,0.058274727314710617,0,0.33036836981773376,0,-0.49587813019752502,0.69249808788299561,1,0,-0.33278346061706543,0,-0.33218994736671448,0,0.94372808933258057,-0.33747443556785583,-0.044759240001440048,-0.30102938413619995,0.78612041473388672,0,0.065992981195449829,0.52320986986160278,0.44001689553260803,-0.34024849534034729,0.4090004563331604,0.28360801935195923,0.11360030621290207,0.50093233585357666,0.35881006717681885,0,0,1,-0.34271106123924255,-0.52395111322402954,0.77152681350708008,0.30065774917602539,1,0.32847708463668823,-0.082672320306301117,-0.36252507567405701,0,-0.0087064504623413086,-0.51817667484283447,-0.95341038703918457,-0.27238970994949341,0,0.28447675704956055,0],[0,0,-0.42125740647315979,0.41042986512184143,-0.23501460254192352,-0.65731960535049438,-0.38274917006492615,0.71674627065658569,-0.26630115509033203,-0.4652341902256012,0.85449963808059692,0.1623099148273468,0.68528068065643311,1,0,0.76673680543899536,0,1,0.38837799429893494,-0.52892458438873291,1,0.38772472739219666,0.16966646909713745,0,0.43887239694595337,-0.19067831337451935,0,0,0.56970947980880737,0,-0.39176309108734131,0,-0.98005294799804688,-0.58611255884170532,0.5,0.6985243558883667,-0.37418809533119202,-0.55886244773864746,0.6185343861579895,-0.081866204738616943,1,0.54189091920852661,-0.18232618272304535,0.22688277065753937,0,-0.38112378120422363,0.26182389259338379,-0.27696967124938965,0.61775118112564087,-0.58995270729064941,0.34528434276580811,-0.3325054943561554,-0.18681435286998749,0.37667199969291687,0.41630133986473083,-0.82882654666900635,0.26469925045967102,0,-0.10277247428894043,0.50482571125030518,0,0.38536638021469116,1,-0.25805366039276123,0.85818278789520264,0.48324775695800781,0.72721260786056519,0.82406437397003174,-0.52509093284606934,0,1,0.13317432999610901,-0.29311054944992065,-0.30056720972061157,-0.65871196985244751,0.79504334926605225,0.42819905281066895,0.089280486106872559,-0.5,-1,-0.64408302307128906,0.42287814617156982,0,0.41149848699569702,0.96200060844421387,-0.61808925867080688,0,-0.43141260743141174,0.12318325042724609,-0.4320792555809021,0.46563714742660522,0,-0.15109327435493469,0,0.13451874256134033,-0.032518621534109116,0,0,0,0,-0.47261631488800049,-0.19482779502868652,0.29785874485969543,-0.027125239372253418,-0.11069369316101074,-0.48298227787017822,-0.26520165801048279,-0.80133199691772461,0.9388616681098938,0.2213251143693924,0,0.068776465952396393,0,-0.89550220966339111,0.38151633739471436,0.29774582386016846,-0.23959898948669434,0,0.010140387341380119,-0.11881411820650101,0,0.3246612548828125,0,0.60616624355316162,-0.038596928119659424,0.00063967873575165868,0.20358327031135559,0]],"id":"8454AF86-C3F0-4E31-8C5F-66EC5A38DAA5","generation":319,"biases":[[],[1,-0.82936733961105347,-0.0065774614922702312,-0.81131899356842041,-0.082263432443141937,0.097438864409923553,0.38775497674942017,-1,1,-0.86476039886474609,-0.0022170543670654297,0.77910858392715454,-0.039813518524169922,-0.92854416370391846,-1,-0.91491043567657471],[-0.031150480732321739,-0.3527335524559021,-1,0,-1,-0.32168790698051453,-0.83481287956237793,0.090859413146972656]],"inputCount":22,"hiddenCount":16,"outputCount":8},
