[
{"marker2":false,"marker1":false,"weights":[[],[-1,-0.5931738018989563,0,0,0.49938303232192993,0,0,0,0.49969008564949036,0.39625254273414612,0,-0.23193950951099396,-0.19620130956172943,-0.48426169157028198,-0.073137179017066956,0.055905580520629883,0.033776469528675079,0.41248586773872375,-1,0,0.07458515465259552,0,0,-0.36150288581848145,0.41058829426765442,0,0.048537731170654297,0,-0.43432405591011047,0.55145531892776489,0,-0.97681659460067749,-0.74465209245681763,0.38851702213287354,-0.1013948917388916,-0.51457566022872925,0,0.95694273710250854,-0.84123367071151733,0.42576247453689575,0.67865252494812012,-0.72384762763977051,0.24475835263729095,0,-0.73340326547622681,0,0,-0.18275724351406097,-0.33542460203170776,-0.29969915747642517,0,0,0,-0.92251116037368774,0.24248313903808594,0.48462176322937012,0,0,-0.12437226623296738,-0.16821412742137909,-0.17673203349113464,0,0,0.64641910791397095,-1,0,0,-0.2887846827507019,0,-1,0.2914574146270752,0,-0.28302708268165588,0,-0.20481722056865692,0.48774120211601257,0.38506165146827698,-0.33130139112472534,0.3409830629825592,0,-0.24849802255630493,0,-0.16900384426116943,0.42848938703536987,0,0,0,0,1,0,0.48588648438453674,0.95802938938140869,0.21542572975158691,-0.21760666370391846,-0.37842381000518799,0.47604444622993469,0,0.41780900955200195,0,0.30194559693336487,1,0.96863335371017456,0,0.38988843560218811,0.42772889137268066,0,0.46748724579811096,0.25122976303100586,0,-0.27707904577255249,0.40347856283187866,0.3712659478187561,0,0,0.48160949349403381,0.1455463171005249,-0.34134066104888916,0,-0.50359082221984863,0,0.32365655899047852,0.28735655546188354,0,-0.911865234375,-0.27985519170761108,0.34165284037590027,0,0.41364783048629761,0.26082348823547363,0,0.48289090394973755,-0.3248029351234436,0,-0.26247134804725647,-0.21756482124328613,0,0.55089139938354492,1,-0.60656297206878662,-0.80583286285400391,0.39961498975753784,0.54664671421051025,-0.36193200945854187,0,0.53452664613723755,0,0,0,-0.60917037725448608,0,0.75455772876739502,0.32288956642150879,0,0.44618988037109375,-0.31752213835716248,0,-0.59254074096679688,-0.4384867250919342,-1,-0.33213099837303162,-1,-0.83010625839233398,-0.22830462455749512,-0.27891185879707336,0,0,0.30311673879623413,-1,-0.26097232103347778,0.28956335783004761,0.40885525941848755,-0.19612805545330048,0.31376099586486816,-0.052546795457601547,0,-0.75539851188659668,-0.13025757670402527,-0.33650979399681091,0,0,0,0.015251815319061279,-0.27035465836524963,0.60114306211471558,0.69263136386871338,0,0,-0.77090412378311157,0,0,0,-0.45129719376564026,0,-0.80870699882507324,0.4558565616607666,-1,0.11872315406799316,0,0.90016359090805054,-0.12675642967224121,-0.94606798887252808,0.14560312032699585,0,0,0.42136642336845398,0,0.39224603772163391,0.42523068189620972,0,-0.5575903058052063,0,0.26634681224822998,0.84739601612091064,0.29838404059410095,-0.45206591486930847,-0.42259600758552551,-0.52866142988204956,-0.31078881025314331,0.32534313201904297,0.67253983020782471,0.62185138463973999,0.87861818075180054,0,0.42940217256546021,0,0.061873782426118851,0,0.84800899028778076,0,0,0.2005494236946106,0,0,0,-0.37647527456283569,-0.39136239886283875,-0.37632569670677185,0.62983202934265137,-0.43213015794754028,0.44954636693000793,0.31651487946510315,-0.43356338143348694,0,-0.10011768341064453,-0.70491290092468262,0.304880291223526,-0.29557329416275024,0,0,0,0.48171225190162659,-0.79931914806365967,-0.70624208450317383,0,0,-0.32713505625724792,0,-0.46731430292129517,0.046092621982097626,-0.37737619876861572,-0.31275182962417603,0.79034233093261719,-0.44859448075294495,0.5755651593208313,0.58194410800933838,0,0.26079779863357544,0.77998030185699463,0.64617860317230225,-0.30282717943191528,0,-0.021405816078186035,0,0,0,0.26832127571105957,0,-0.344859778881073,1,0.018817465752363205,-0.50286030769348145,0.49441614747047424,0.30485805869102478,-0.38749933242797852,0,0.33650025725364685,0.1394188404083252,-0.79587197303771973,-0.26761829853057861,0.11495518684387207,0,0,0.80558311939239502,0,0,0,-0.61055415868759155,0,-0.20968273282051086,-0.30486369132995605,0.9857977032661438,0.32634800672531128,0,0.68133223056793213,0.5,0,0,0.48734259605407715,0.28840482234954834,0,-0.017129790037870407,0.69249808788299561,1,0,0,0,-0.66193109750747681,0,0.34545490145683289,-0.47898709774017334,-0.47037389874458313,-1,1,0,-0.4981461763381958,0.86835581064224243,0.088404200971126556,-0.98283612728118896,0.8180009126663208,0,0.44349539279937744,0.039166461676359177,0.35881006717681885,0,0,-0.71100234985351562,-0.17135553061962128,-0.17175877094268799,0.39264735579490662,0,1,0.32847708463668823,-0.16534464061260223,0,0,-0.0087064504623413086,-1,-0.95341038703918457,0,0,-0.76689910888671875,0],[-0.26893115043640137,0,0,-0.33757781982421875,-0.95961129665374756,-0.65731960535049438,0,-0.35350698232650757,0,-0.4652341902256012,0,0,0.55494391918182373,0.67023098468780518,0,0,0,0.63438248634338379,0,-0.52892458438873291,0,0,0.3393329381942749,0,0,0,0,0,0.19929321110248566,0.3447929322719574,0.56610041856765747,0,-0.49002647399902344,-0.82243454456329346,1,0.42587441205978394,0,0.36981365084648132,0.30926719307899475,0.55735194683074951,0.84587836265563965,0,-0.1603725403547287,-0.39021110534667969,0,0,-0.043517708778381348,0.47456526756286621,0.4871445894241333,-0.58995270729064941,0.69056868553161621,-0.3325054943561554,-0.56191259622573853,-0.078457772731781006,0.81847071647644043,-0.70224761962890625,0.62326860427856445,0,-1,0.072816967964172363,0,-0.70120608806610107,0.82464730739593506,0.43101760745048523,0.85818278789520264,0.50836509466171265,-0.077886477112770081,0.82406437397003174,-0.86466300487518311,-0.4741656482219696,-0.9122617244720459,0.4551108181476593,0,-0.60113441944122314,0,0.40120097994804382,0.72632318735122681,-0.39786714315414429,-1,-0.32812047004699707,-0.28722220659255981,0,0.14097142219543457,0.43209338188171387,0.96200060844421387,-1,0.383687824010849,-0.46237799525260925,0.30077770352363586,-0.98384034633636475,0.46563714742660522,0,-0.0068543120287358761,0,0.37185993790626526,-0.054853051900863647,0,0,0,0,-0.5,-0.19482779502868652,0.29785874485969543,-0.82068043947219849,0.43542778491973877,0,-0.066300414502620697,0.36801519989967346,0.4694308340549469,-0.18688514828681946,0,-1,0,-1,0,-0.393790602684021,-0.93619608879089355,0.33149734139442444,0.021619081497192383,-0.1464911550283432,0.31244692206382751,0.1561296284198761,0.54237735271453857,0.32334816455841064,-0.34216487407684326,-0.40862756967544556,0.22247767448425293,0.21668896079063416]],"id":"6FE4DE0A-FBE6-462E-BC05-B0073FA33648","generation":198,"biases":[[],[-0.3172229528427124,-0.32400938868522644,1,-0.011852859519422054,0.86722201108932495,1,0.69761431217193604,-0.53525316715240479,0.42384070158004761,0.86019879579544067,0.72065055370330811,-0.43048733472824097,0.018201336264610291,0.68587416410446167,-1,0.0057341568171977997],[0.024435339495539665,0.15061473846435547,-0.40701636672019958,-0.16087506711483002,1,0.29608118534088135,-0.98246896266937256,-0.5]],"inputCount":22,"hiddenCount":16,"outputCount":8},
{"marker2":false,"marker1":false,"weights":[[],[-1,-0.5931738018989563,0,0,0.49938303232192993,0,0,0,0.49969008564949036,0.39625254273414612,0,-0.23193950951099396,-0.19620130956172943,-0.48426169157028198,-0.073137179017066956,0.055905580520629883,0.033776469528675079,0.41248586773872375,-1,0,0.07458515465259552,0,0,-0.36150288581848145,0.41058829426765442,0,0.048537731170654297,0,-0.43432405591011047,0.55145531892776489,0,-0.97681659460067749,-0.74465209245681763,0.38851702213287354,-0.1013948917388916,-0.51457566022872925,0,0.95694273710250854,-0.84123367071151733,0.42576247453689575,0.67865252494812012,-0.72384762763977051,0.24475835263729095,0,-0.73340326547622681,0,0,-0.18275724351406097,-0.33542460203170776,-0.29969915747642517,0,0,0,-0.92251116037368774,0.24248313903808594,0.48462176322937012,0,0,-0.12437226623296738,-0.16821412742137909,-0.17673203349113464,0,0,0.64641910791397095,-1,0,0,-0.2887846827507019,0,-1,0.2914574146270752,0,-0.1105504035949707,0,-0.20481722056865692,0.48774120211601257,0.38506165146827698,-0.33130139112472534,0.3409830629825592,0,-0.24849802255630493,0,-0.16900384426116943,0.42848938703536987,0,0,0,0,1,0,0.48588648438453674,0.95802938938140869,0.21542572975158691,-0.21760666370391846,-0.37842381000518799,0.47604444622993469,0,0.41780900955200195,0,0.30194559693336487,1,0.96863335371017456,0,0.38988843560218811,0.42772889137268066,0,0.46748724579811096,0.25122976303100586,0,-0.27707904577255249,0.40347856283187866,0.3712659478187561,-0.28863376379013062,0,0.48160949349403381,0.1455463171005249,-0.34134066104888916,0,-0.50359082221984863,0,0.32365655899047852,0.28735655546188354,0,-0.911865234375,-0.27985519170761108,0.34165284037590027,0,0.41364783048629761,0.26082348823547363,0,0.48289090394973755,-0.3248029351234436,0,-0.26247134804725647,-0.21756482124328613,0,0.55089139938354492,1,-0.60656297206878662,-0.80583286285400391,0.39961498975753784,0.54664671421051025,-0.36193200945854187,0,0.53452664613723755,0,0,0,-0.60917037725448608,0,0.75455772876739502,0.32288956642150879,0,0.44618988037109375,-0.31752213835716248,0,-0.59254074096679688,-0.4384867250919342,-1,-0.33213099837303162,-1,-0.83010625839233398,-0.22830462455749512,-0.27891185879707336,0,0,0.30311673879623413,-1,-0.26097232103347778,0.28956335783004761,0.40885525941848755,-0.19612805545330048,0.31376099586486816,-0.052546795457601547,0,-0.75539851188659668,-0.13025757670402527,-0.33650979399681091,0,0,0,0.015251815319061279,-0.27035465836524963,0.60114306211471558,0.69263136386871338,0,0,-0.77090412378311157,0,0,0,-0.45129719376564026,0,-0.80870699882507324,0.4558565616607666,-1,0.11872315406799316,0,0.90016359090805054,-0.12675642967224121,-0.94606798887252808,0.14560312032699585,0,0,0.42136642336845398,0,0.85913568735122681,0.42523068189620972,0,-0.5575903058052063,0,0.26634681224822998,0.84739601612091064,0.29838404059410095,-0.45206591486930847,-0.42259600758552551,-0.52866142988204956,-0.31078881025314331,0.32534313201904297,0.67253983020782471,0.62185138463973999,0.87861818075180054,0,0.42940217256546021,0,0.061873782426118851,0,0.84800899028778076,0,0,0.2005494236946106,0,0,0,-0.37647527456283569,-0.39136239886283875,-0.37632569670677185,0.62983202934265137,-0.43213015794754028,0.44954636693000793,0.31651487946510315,-0.43356338143348694,0,-0.10011768341064453,-0.70491290092468262,0.304880291223526,-0.29557329416275024,0,0,0,0.48171225190162659,-0.79931914806365967,-0.70624208450317383,0,0,-0.32713505625724792,0,-0.46731430292129517,0.046092621982097626,-0.37737619876861572,-0.31275182962417603,0.79034233093261719,-0.44859448075294495,0.5755651593208313,0.58194410800933838,0,0.26079779863357544,0.77998030185699463,0.64617860317230225,-0.30282717943191528,0,-0.021405816078186035,0,0,0,0.26832127571105957,0,-0.344859778881073,1,0.018817465752363205,-0.50286030769348145,0.49441614747047424,0.30485805869102478,-0.38749933242797852,0,0.33650025725364685,0.1394188404083252,-0.79587197303771973,-0.26761829853057861,0.11495518684387207,0,0,0.80558311939239502,0,0,0,-0.61055415868759155,0,-0.20968273282051086,-0.30486369132995605,0.9857977032661438,0.32634800672531128,0,0.68133223056793213,0.5,0,0,0.48734259605407715,0.28840482234954834,0,-0.017129790037870407,0.69249808788299561,1,0,0,0,-0.66193109750747681,0,0.34545490145683289,-0.47898709774017334,-0.47037389874458313,-1,1,0,-0.4981461763381958,0.86835581064224243,0.088404200971126556,-0.98283612728118896,0.8180009126663208,0,0.44349539279937744,0.039166461676359177,0.35881006717681885,0,0,-0.71100234985351562,-0.17135553061962128,-0.17175877094268799,0.39264735579490662,0,1,0.32847708463668823,-0.16534464061260223,0,0,-0.0087064504623413086,-1,-0.95341038703918457,0,0,-0.76689910888671875,0],[-0.26893115043640137,0,0,-0.33757781982421875,-0.95961129665374756,-0.65731960535049438,0,-0.35350698232650757,0,-0.4652341902256012,0,0,0.55494391918182373,0.67023098468780518,0,0,0,0.63438248634338379,0,-0.52892458438873291,0,0,0.3393329381942749,0,0,0,0,0,0.19929321110248566,0.3447929322719574,0.56610041856765747,0,-0.49002647399902344,-0.82243454456329346,1,0.42587441205978394,0,0.36981365084648132,0.30926719307899475,0.55735194683074951,0.84587836265563965,0,-0.1603725403547287,-0.39021110534667969,0,0,-0.043517708778381348,0.47456526756286621,0.4871445894241333,-0.58995270729064941,0.69056868553161621,-0.3325054943561554,-0.56191259622573853,-0.078457772731781006,0.81847071647644043,-0.70224761962890625,0.62326860427856445,0,-1,0.072816967964172363,0,-0.70120608806610107,0.82464730739593506,0.43101760745048523,0.85818278789520264,0.50836509466171265,-0.077886477112770081,0.82406437397003174,-0.86466300487518311,-0.4741656482219696,-0.9122617244720459,0.4551108181476593,0,-0.60113441944122314,0,0.40120097994804382,0.72632318735122681,-0.39786714315414429,-1,-0.32812047004699707,-0.28722220659255981,0,0.14097142219543457,0.43209338188171387,0.96200060844421387,-1,0.383687824010849,-0.46237799525260925,0.30077770352363586,-0.98384034633636475,0.46563714742660522,0,-0.0068543120287358761,0,0.37185993790626526,-0.054853051900863647,0,0,0,0,-0.5,-0.19482779502868652,0.29785874485969543,-0.82068043947219849,0.43542778491973877,0,-0.066300414502620697,0.36801519989967346,0.4694308340549469,-0.18688514828681946,0,-1,0,-1,0,-0.393790602684021,-0.93619608879089355,0.33149734139442444,0.021619081497192383,-0.1464911550283432,0.31244692206382751,0.1561296284198761,0.54237735271453857,0.32334816455841064,-0.34216487407684326,-0.40862756967544556,0.22247767448425293,0.21668896079063416]],"id":"D4BEECFC-1BE5-4388-B69A-80A784EA09B4","generation":198,"biases":[[],[-0.3172229528427124,-0.32400938868522644,1,-0.011852859519422054,0.86722201108932495,1,0.69761431217193604,-0.53525316715240479,0.42384070158004761,0.86019879579544067,0.72065055370330811,-0.43048733472824097,0.018201336264610291,0.68587416410446167,-1,0.0057341568171977997],[0.024435339495539665,0.15061473846435547,-0.40701636672019958,-0.16087506711483002,1,0.29608118534088135,-0.98246896266937256,-0.5]],"inputCount":22,"hiddenCount":16,"outputCount":8},
{"marker2":false,"marker1":false,"weights":[[],[-1,-0.5931738018989563,0,0,0.49938303232192993,0,0,0,0.49969008564949036,0.39625254273414612,0,-0.23193950951099396,-0.19620130956172943,-0.48426169157028198,-0.073137179017066956,-0.33925393223762512,0.41691595315933228,0.41248586773872375,-1,0,0.07458515465259552,0,0,-0.36150288581848145,0.41058829426765442,0,0.048537731170654297,0,-0.43432405591011047,0.55145531892776489,0,-0.97681659460067749,-0.74465209245681763,0.38851702213287354,-0.1013948917388916,-0.51457566022872925,0,0.95694273710250854,-0.84123367071151733,0.42576247453689575,0.67865252494812012,-0.72384762763977051,0.24475835263729095,0,-0.26130419969558716,0,0,-0.18275724351406097,-0.33542460203170776,-0.61559569835662842,0,0,0,-0.92251116037368774,0.24248313903808594,0.48462176322937012,0,0,-0.12437226623296738,-0.16821412742137909,-0.17673203349113464,0,0,0.64641910791397095,-1,0,0,-0.2887846827507019,0,-1,0.2914574146270752,0,-0.28302708268165588,0,-0.20481722056865692,0.48774120211601257,0.38506165146827698,-0.33130139112472534,0.3409830629825592,0,-0.24849802255630493,0,-0.16900384426116943,0.42848938703536987,0,0,0,0,1,0,0.48588648438453674,0.95802938938140869,0.21542572975158691,-0.21760666370391846,-0.37842381000518799,0.47604444622993469,0,0.41780900955200195,0,0.30194559693336487,1,0.96863335371017456,0,0.38988843560218811,0.42772889137268066,0,0.46748724579811096,0.25122976303100586,0,-0.27707904577255249,0.40347856283187866,0.3712659478187561,0,0,0.48160949349403381,0.1455463171005249,0,0,-0.50359082221984863,0,0.32365655899047852,0.28735655546188354,0,-0.911865234375,-0.27985519170761108,0.34165284037590027,0,0.41364783048629761,0.26082348823547363,0,0.48289090394973755,-0.3248029351234436,0,-0.26247134804725647,-0.21756482124328613,0,0.55089139938354492,1,-0.60656297206878662,-0.80583286285400391,0.39961498975753784,0.54664671421051025,-0.36193200945854187,0,0.53452664613723755,0,0,0,-0.11223272234201431,0,0.75455772876739502,0.32288956642150879,0,0.44618988037109375,-0.31752213835716248,0,-0.59254074096679688,-0.4384867250919342,-1,-0.33213099837303162,-1,-0.83010625839233398,-0.22830462455749512,-0.27891185879707336,0,0,0.30311673879623413,-1,-0.26097232103347778,0.28956335783004761,0.40885525941848755,-0.19612805545330048,0.31376099586486816,-0.052546795457601547,0,-0.75539851188659668,-0.13025757670402527,-0.33650979399681091,0,0,0,0.015251815319061279,-0.27035465836524963,0.60114306211471558,0.69263136386871338,0,0,-0.77090412378311157,0,0,0,-0.45129719376564026,0,-0.80870699882507324,0.4558565616607666,-1,0.11872315406799316,0,0.90016359090805054,-0.12675642967224121,-0.94606798887252808,0.14560312032699585,0,0,0.42136642336845398,0,0.39224603772163391,0.42523068189620972,0,-0.5575903058052063,0,0.26634681224822998,0.84739601612091064,0.29838404059410095,-0.45206591486930847,-0.42259600758552551,-0.52866142988204956,-0.31078881025314331,0.32534313201904297,0.67253983020782471,0.62185138463973999,0.87861818075180054,0,0.42940217256546021,0,0.061873782426118851,0,0.84800899028778076,0,0,0.2005494236946106,0,0,0,-0.37647527456283569,-0.39136239886283875,-0.37632569670677185,0.62983202934265137,-0.43213015794754028,0.44954636693000793,0.31651487946510315,-0.43356338143348694,0,-0.10011768341064453,-0.70491290092468262,0.304880291223526,-0.29557329416275024,0,0,0,0.48171225190162659,-0.79931914806365967,-1,0,0,-0.32713505625724792,0,-0.46731430292129517,0.046092621982097626,-0.37737619876861572,-0.31275182962417603,0.79034233093261719,-0.44859448075294495,0.5755651593208313,0.58194410800933838,0,0.26079779863357544,0.77998030185699463,0.64617860317230225,-0.30282717943191528,0,-0.021405816078186035,0,0,0,0.26832127571105957,0,-0.344859778881073,1,0.018817465752363205,-0.50286030769348145,0.49441614747047424,0.30485805869102478,-0.38749933242797852,0,0.33650025725364685,0.1394188404083252,-0.79587197303771973,-0.26761829853057861,0.11495518684387207,0,0,0.80558311939239502,0,0,0,-0.61055415868759155,0,-0.20968273282051086,-0.30486369132995605,0.9857977032661438,0.32634800672531128,0,0.68133223056793213,0.5,0,0,0.48734259605407715,0.28840482234954834,0,-0.017129790037870407,0.69249808788299561,1,0,0,0,-0.66193109750747681,0,0.062218427658081055,-0.47898709774017334,-0.47037389874458313,-1,1,0,-0.4981461763381958,0.86835581064224243,0.088404200971126556,-0.98283612728118896,0.8180009126663208,0,0.44349539279937744,0.039166461676359177,0.35881006717681885,0,0,-0.71100234985351562,-0.17135553061962128,-0.17175877094268799,0.39264735579490662,0,1,0.32847708463668823,-0.16534464061260223,0,0,-0.0087064504623413086,-1,-0.95341038703918457,0,0,-0.76689910888671875,0],[-0.26893115043640137,0,0,-0.33757781982421875,-0.95961129665374756,-0.65731960535049438,0,-0.35350698232650757,0,-0.4652341902256012,0,0,0.55494391918182373,0.67023098468780518,0,0,0,0.63438248634338379,0,-0.52892458438873291,0,0,0.3393329381942749,0,0,0,0,0,0.19929321110248566,0.3447929322719574,0.56610041856765747,0,-0.49002647399902344,-0.82243454456329346,1,0.42587441205978394,0,0.36981365084648132,0.30926719307899475,0.55735194683074951,0.84587836265563965,0,-0.1603725403547287,-0.39021110534667969,0,0,-0.043517708778381348,0.47456526756286621,0.4871445894241333,-0.58995270729064941,0.69056868553161621,-0.3325054943561554,-0.56191259622573853,-0.078457772731781006,0.81847071647644043,-0.70224761962890625,0.62326860427856445,0,-1,0.072816967964172363,0,-0.70120608806610107,0.82464730739593506,0.43101760745048523,0.85818278789520264,0.50836509466171265,-0.077886477112770081,0.82406437397003174,-0.86466300487518311,-0.4741656482219696,-0.9122617244720459,0.4551108181476593,0,-0.60113441944122314,0,0.40120097994804382,0.72632318735122681,-0.39786714315414429,-1,-0.32812047004699707,-0.28722220659255981,0,0.14097142219543457,0.43209338188171387,0.96200060844421387,-1,0.383687824010849,-0.46237799525260925,0.30077770352363586,-0.98384034633636475,0.46563714742660522,0,-0.0068543120287358761,0,0.37185993790626526,-0.054853051900863647,0,0,0,0,-0.5,-0.19482779502868652,0.29785874485969543,-0.82068043947219849,0.43542778491973877,0,-0.066300414502620697,0.36801519989967346,0.4694308340549469,-0.18688514828681946,0,-1,0,-0.89550220966339111,0,-0.393790602684021,-0.93619608879089355,0.33149734139442444,0.021619081497192383,-0.1464911550283432,0.31244692206382751,0.1561296284198761,0.54237735271453857,0.32334816455841064,-0.34216487407684326,-0.40862756967544556,0.22247767448425293,0.21668896079063416]],"id":"36F14538-87C9-4A01-9BDF-346D3381226F","generation":197,"biases":[[],[0.1292918473482132,-0.32400938868522644,1,-0.011852859519422054,0.86722201108932495,1,0.69761431217193604,-0.53525316715240479,0.42384070158004761,0.86019879579544067,-0.48643672466278076,-0.43048733472824097,0.018201336264610291,0.68587416410446167,-1,0.0057341568171977997],[0.04887067899107933,0.15061473846435547,-0.092383474111557007,-0.16087506711483002,1,0.29608118534088135,-0.98246896266937256,-0.5]],"inputCount":22,"hiddenCount":16,"outputCount":8},
{"marker2":false,"marker1":false,"weights":[[],[-1,-0.5931738018989563,0,0,0.49938303232192993,0,0,0,0.49969008564949036,0.39625254273414612,0,-0.23193950951099396,-0.19620130956172943,-0.48426169157028198,-0.073137179017066956,0.055905580520629883,0.033776469528675079,0.41248586773872375,-1,0,0.07458515465259552,0,0,-0.36150288581848145,0.41058829426765442,0,0.048537731170654297,0,-0.43432405591011047,0.55145531892776489,0,-0.97681659460067749,-0.74465209245681763,0.38851702213287354,-0.1013948917388916,-0.51457566022872925,0,1,-0.84123367071151733,0.42576247453689575,0.67865252494812012,-0.72384762763977051,0.24475835263729095,0,-0.26130419969558716,0,0,-0.18275724351406097,-0.33542460203170776,-0.29969915747642517,0,0,0,-0.92251116037368774,0.24248313903808594,0.48462176322937012,0,0,-0.12437226623296738,-0.16821412742137909,-0.17673203349113464,0,0,0.64641910791397095,-1,0,0,-0.2887846827507019,0,-1,0.2914574146270752,0,-0.28302708268165588,0,-0.20481722056865692,0.48774120211601257,0.38506165146827698,-0.33130139112472534,0.3409830629825592,0,-0.24849802255630493,0,-0.16900384426116943,0.42848938703536987,0,0,0,0,1,0,0.48588648438453674,0.95802938938140869,0.21542572975158691,-0.21760666370391846,-0.37842381000518799,0.47604444622993469,0,0.41780900955200195,0,0.30194559693336487,1,0.96863335371017456,0,0.38988843560218811,0.42772889137268066,0,0.46748724579811096,0.25122976303100586,0,-0.27707904577255249,0.40347856283187866,0.3712659478187561,0,0,0.48160949349403381,0.1455463171005249,-0.34134066104888916,0,-0.50359082221984863,0,0.32365655899047852,0.28735655546188354,0,-0.911865234375,-0.27985519170761108,0.34165284037590027,0,0.41364783048629761,0.26082348823547363,0,0.48289090394973755,-0.3248029351234436,0,-0.26247134804725647,-0.21756482124328613,0,0.55089139938354492,1,-0.60656297206878662,-0.80583286285400391,0.39961498975753784,0.54664671421051025,-0.36193200945854187,0,0.53452664613723755,0,0,0,-0.60917037725448608,0,0.75455772876739502,0.32288956642150879,0,0.44618988037109375,-0.31752213835716248,0,-0.59254074096679688,-0.4384867250919342,-1,-0.33213099837303162,-1,-0.83010625839233398,-0.22830462455749512,-0.27891185879707336,0,0,0.30311673879623413,-1,-0.26097232103347778,0.28956335783004761,0.40885525941848755,-0.19612805545330048,0.31376099586486816,-0.052546795457601547,0,-0.75539851188659668,-0.13025757670402527,-0.33650979399681091,0,0,0,0.015251815319061279,-0.27035465836524963,0.60114306211471558,0.69263136386871338,0,0,-0.77090412378311157,0,0,0,-0.45129719376564026,0,-0.80870699882507324,0.4558565616607666,-1,0.11872315406799316,0,0.90016359090805054,-0.12675642967224121,-0.94606798887252808,0.14560312032699585,0,0,0.42136642336845398,0,0.39224603772163391,0.42523068189620972,0,-0.5575903058052063,0,0.26634681224822998,0.84739601612091064,0.29838404059410095,-0.45206591486930847,-0.42259600758552551,-0.52866142988204956,-0.31078881025314331,0.32534313201904297,0.67253983020782471,0.62185138463973999,0.87861818075180054,0,0.42940217256546021,0,0.061873782426118851,0,0.84800899028778076,0,0,0.2005494236946106,0,0,0,-0.37647527456283569,-0.39136239886283875,-0.37632569670677185,0.62983202934265137,-0.43213015794754028,0.44954636693000793,0.31651487946510315,-0.43356338143348694,0,-0.10011768341064453,-0.70491290092468262,0.304880291223526,-0.29557329416275024,0,0,0,0.48171225190162659,-0.79931914806365967,-0.70624208450317383,0,0,-0.32713505625724792,0,-0.46731430292129517,0.046092621982097626,-0.37737619876861572,-0.31275182962417603,0.79034233093261719,-0.44859448075294495,0.5755651593208313,0.58194410800933838,0,0.26079779863357544,0.77998030185699463,0.64617860317230225,-0.30282717943191528,0,-0.021405816078186035,0,0,0,0.26832127571105957,0,-0.344859778881073,1,0.018817465752363205,-0.50286030769348145,0.49441614747047424,0.30485805869102478,-0.38749933242797852,0,0.33650025725364685,0.1394188404083252,-0.79587197303771973,-0.26761829853057861,0.11495518684387207,0,0,0.80558311939239502,0,0,0,-0.61055415868759155,0,-0.20968273282051086,-0.30486369132995605,0.9857977032661438,0.32634800672531128,0,0.68133223056793213,0.5,0,0,0.48734259605407715,0.28840482234954834,0,-0.017129790037870407,0.69249808788299561,0.87481462955474854,0,0,0,-0.66193109750747681,0,-0.84889733791351318,-0.47898709774017334,-0.47037389874458313,-1,1,0,-0.4981461763381958,0.86835581064224243,0.088404200971126556,-0.98283612728118896,0.39558795094490051,0,0.44349539279937744,0.039166461676359177,0.35881006717681885,0,0,-0.35550117492675781,-0.17135553061962128,-0.17175877094268799,0.39264735579490662,0,1,0.32847708463668823,-0.16534464061260223,0,0,-0.0087064504623413086,-1,-0.95341038703918457,0,0,-0.76689910888671875,0],[-0.26893115043640137,0,0,-0.33757781982421875,-0.95961129665374756,-0.65731960535049438,0,-0.35350698232650757,0,-0.4652341902256012,0,0,0.55494391918182373,0.67023098468780518,0,0,0,0.63438248634338379,0,-0.52892458438873291,0,0,0.3393329381942749,0,0,0,0,0,0.19929321110248566,0.3447929322719574,0.56610041856765747,0,-0.49002647399902344,-0.82243454456329346,1,0.42587441205978394,0,0.36981365084648132,0.30926719307899475,0.55735194683074951,0.84587836265563965,0,-0.1603725403547287,-0.39021110534667969,0,0,-0.043517708778381348,0.47456526756286621,0.4871445894241333,-0.58995270729064941,0.69056868553161621,-0.3325054943561554,-0.56191259622573853,-0.078457772731781006,0.81847071647644043,-0.70224761962890625,0.62326860427856445,0,-1,0.072816967964172363,0,-0.70120608806610107,0.82464730739593506,0.43101760745048523,0.85818278789520264,0.50836509466171265,-0.077886477112770081,0.82406437397003174,-0.86466300487518311,-0.4741656482219696,-0.9122617244720459,0.4551108181476593,0,-0.60113441944122314,0,0.40120097994804382,0.72632318735122681,-0.39786714315414429,-1,-0.32812047004699707,-0.28722220659255981,0,0.14097142219543457,0.43209338188171387,0.96200060844421387,-1,0.383687824010849,-0.46237799525260925,0.30077770352363586,-0.98384034633636475,0.46563714742660522,0,-0.0068543120287358761,0,0.37185993790626526,-0.054853051900863647,0,0,0,0,-0.5,-0.19482779502868652,0.29785874485969543,-0.82068043947219849,0.43542778491973877,0,-0.066300414502620697,0.36801519989967346,0.4694308340549469,-0.18688514828681946,0,-1,0,-1,0,-0.393790602684021,-0.93619608879089355,0.33149734139442444,0.021619081497192383,-0.1464911550283432,0.31244692206382751,0.1561296284198761,0.54237735271453857,0.32334816455841064,-0.34216487407684326,-0.40862756967544556,0.22247767448425293,0.21668896079063416]],"id":"6CB2EDC5-BAAA-4920-BA34-3CA899ABC1E1","generation":198,"biases":[[],[-0.3172229528427124,-0.32400938868522644,1,-0.011852859519422054,0.86722201108932495,1,0.69761431217193604,-0.53525316715240479,0.42384070158004761,0.86019879579544067,0.72065055370330811,-0.43048733472824097,0.018201336264610291,0.68587416410446167,-1,0.0057341568171977997],[0.04887067899107933,0.15061473846435547,-0.092383474111557007,-0.16087506711483002,1,0.29608118534088135,-0.98246896266937256,-0.5]],"inputCount":22,"hiddenCount":16,"outputCount":8},
{"marker2":false,"marker1":false,"weights":[[],[-1,-0.5931738018989563,0,0,0.49938303232192993,0,0,0,0.49969008564949036,0.39625254273414612,0,-0.23193950951099396,-0.19620130956172943,-0.48426169157028198,-0.073137179017066956,0.055905580520629883,0.033776469528675079,0.41248586773872375,-1,0,0.07458515465259552,0,0,-0.36150288581848145,0.41058829426765442,0,0.048537731170654297,0,-0.43432405591011047,0.55145531892776489,0,-0.97681659460067749,-0.74465209245681763,0.38851702213287354,-0.1013948917388916,-0.51457566022872925,0,1,-0.84123367071151733,0.42576247453689575,0.67865252494812012,-0.72384762763977051,0.24475835263729095,0,-0.26130419969558716,0,0,-0.18275724351406097,-0.33542460203170776,-0.29969915747642517,0,0,0,-0.92251116037368774,0.24248313903808594,0.48462176322937012,0,0,-0.12437226623296738,-0.16821412742137909,-0.17673203349113464,0,0,0.64641910791397095,-1,0,0,-0.2887846827507019,0,-1,0.2914574146270752,0,-0.28302708268165588,0,-0.20481722056865692,0.48774120211601257,0.38506165146827698,-0.33130139112472534,0.3409830629825592,0,-0.24849802255630493,0,-0.16900384426116943,0.42848938703536987,0,0,0,0,1,0,0.48588648438453674,0.95802938938140869,0.21542572975158691,-0.21760666370391846,-0.37842381000518799,0.47604444622993469,0,0.41780900955200195,0,0.30194559693336487,1,0.96863335371017456,0,0.38988843560218811,0.42772889137268066,0,0.46748724579811096,0.25122976303100586,0,-0.27707904577255249,0.40347856283187866,0.3712659478187561,0,0,0.48160949349403381,0.1455463171005249,-0.34134066104888916,0,-0.50359082221984863,0,0.32365655899047852,0.28735655546188354,0,-0.911865234375,-0.27985519170761108,0.34165284037590027,0,0.41364783048629761,0.26082348823547363,0,0.48289090394973755,-0.3248029351234436,0,-0.26247134804725647,-0.21756482124328613,0,0.55089139938354492,1,-0.60656297206878662,-0.80583286285400391,0.39961498975753784,0.54664671421051025,-0.36193200945854187,0,0.53452664613723755,0,0,0,-0.60917037725448608,0,0.75455772876739502,0.32288956642150879,0,0.44618988037109375,-0.31752213835716248,0,-0.59254074096679688,-0.4384867250919342,-1,-0.33213099837303162,-1,-0.83010625839233398,-0.22830462455749512,-0.27891185879707336,0,0,0.30311673879623413,-0.5,-0.26097232103347778,0.28956335783004761,0.40885525941848755,-0.19612805545330048,0.31376099586486816,-0.052546795457601547,0,-0.75539851188659668,-0.13025757670402527,-0.33650979399681091,0,0,0,0.015251815319061279,-0.27035465836524963,0.60114306211471558,0.69263136386871338,0,0,-0.77090412378311157,0,0,0,-0.45129719376564026,0,-0.80870699882507324,0.4558565616607666,-1,0.11872315406799316,0,0.90016359090805054,-0.12675642967224121,-0.55244714021682739,0.14560312032699585,0,0,0.42136642336845398,0,0.39224603772163391,0.42523068189620972,0,-0.5575903058052063,0,0.26634681224822998,0.84739601612091064,0.29838404059410095,-0.45206591486930847,-0.42259600758552551,-0.52866142988204956,-0.31078881025314331,0.32534313201904297,0.67253983020782471,0.62185138463973999,0.87861818075180054,0,0.42940217256546021,0,0.061873782426118851,0,0.84800899028778076,0,0,0.2005494236946106,0,0,0,-0.37647527456283569,-0.39136239886283875,-0.37632569670677185,0.62983202934265137,-0.43213015794754028,0.44954636693000793,0.31651487946510315,-0.43356338143348694,0,-0.10011768341064453,-0.70491290092468262,0.304880291223526,-0.29557329416275024,0.31035739183425903,0,0,0.48171225190162659,-0.79931914806365967,-0.70624208450317383,0,0,-0.32713505625724792,0,-0.46731430292129517,0.046092621982097626,-0.37737619876861572,-0.31275182962417603,0.79034233093261719,-0.44859448075294495,0.5755651593208313,0.58194410800933838,0,0.26079779863357544,0.77998030185699463,0.64617860317230225,-0.30282717943191528,0,-0.021405816078186035,0,0,0,0.26832127571105957,0,-0.344859778881073,1,0.018817465752363205,-0.50286030769348145,0.49441614747047424,0.30485805869102478,-0.38749933242797852,0,0.33650025725364685,0.1394188404083252,-0.79587197303771973,-0.26761829853057861,0.11495518684387207,0,0,0.80558311939239502,0,0,0,-0.61055415868759155,0,-0.20968273282051086,-0.30486369132995605,0.9857977032661438,0.32634800672531128,0,0.68133223056793213,0.5,0,0,0.48734259605407715,0.28840482234954834,0,-0.017129790037870407,0.69249808788299561,0.87481462955474854,0,0,0,-0.66193109750747681,0,0.34545490145683289,-0.47898709774017334,-0.47037389874458313,-1,1,0,-0.4981461763381958,0.86835581064224243,0.088404200971126556,-0.98283612728118896,0.39558795094490051,0,0.44349539279937744,0.039166461676359177,0.35881006717681885,0,0,-0.71100234985351562,-0.17135553061962128,-0.17175877094268799,0.39264735579490662,0,1,0.32847708463668823,-0.16534464061260223,0,0,-0.0087064504623413086,-1,-0.95341038703918457,0,0,-0.76689910888671875,0],[-0.26893115043640137,0,0,-0.33757781982421875,-0.95961129665374756,-0.65731960535049438,0,-0.35350698232650757,0,-0.4652341902256012,0,0,0.55494391918182373,0.67023098468780518,0,0,0,0.63438248634338379,0,-0.52892458438873291,0,0,0.3393329381942749,0,0,0,0,0,0.19929321110248566,0.3447929322719574,0.56610041856765747,0,-0.49002647399902344,-0.82243454456329346,1,0.42587441205978394,0,0.36981365084648132,0.30926719307899475,0.55735194683074951,0.84587836265563965,0,-0.1603725403547287,-0.39021110534667969,0,0,-0.043517708778381348,0.47456526756286621,0.4871445894241333,-0.58995270729064941,0.69056868553161621,-0.3325054943561554,-0.56191259622573853,-0.078457772731781006,0.81847071647644043,-0.70224761962890625,0.62326860427856445,0,-1,0.072816967964172363,0,-0.70120608806610107,0.82464730739593506,0.43101760745048523,0.85818278789520264,0.50836509466171265,-0.077886477112770081,0.82406437397003174,-0.86466300487518311,-0.4741656482219696,-0.9122617244720459,0.4551108181476593,0,-0.60113441944122314,0,0.40120097994804382,0.72632318735122681,-0.39786714315414429,-1,-0.32812047004699707,-0.28722220659255981,0,0.14097142219543457,0.43209338188171387,0.96200060844421387,-1,0.383687824010849,-0.46237799525260925,0.30077770352363586,-0.98384034633636475,0.46563714742660522,0,-0.0068543120287358761,0,0.37185993790626526,-0.054853051900863647,0,0,0,0,-0.5,-0.19482779502868652,0.29785874485969543,-0.82068043947219849,0.43542778491973877,0,-0.066300414502620697,0.36801519989967346,0.4694308340549469,-0.18688514828681946,0,-1,0,-1,0,-0.393790602684021,-0.93619608879089355,0.33149734139442444,0.021619081497192383,-0.1464911550283432,0.31244692206382751,0.1561296284198761,0.54237735271453857,0.32334816455841064,-0.34216487407684326,-0.40862756967544556,0.22247767448425293,0.21668896079063416]],"id":"7A60E03C-6BDD-430D-861E-C5A19225B50C","generation":197,"biases":[[],[-0.3172229528427124,-0.32400938868522644,1,-0.011852859519422054,0.86722201108932495,1,0.69761431217193604,-0.53525316715240479,0.42384070158004761,0.86019879579544067,0.72065055370330811,-0.43048733472824097,0.018201336264610291,0.68587416410446167,-1,0.0057341568171977997],[0.04887067899107933,0.15061473846435547,-0.092383474111557007,-0.16087506711483002,1,0.29608118534088135,-0.98246896266937256,-0.5]],"inputCount":22,"hiddenCount":16,"outputCount":8},
{"marker2":false,"marker1":false,"weights":[[],[-1,-0.5931738018989563,0,0,0.49938303232192993,0,0,0,0.49969008564949036,0.39625254273414612,0,-0.23193950951099396,-0.19620130956172943,-0.48426169157028198,-0.073137179017066956,0.055905580520629883,0.033776469528675079,0.41248586773872375,-1,0,0.07458515465259552,0,0,-0.36150288581848145,0.41058829426765442,0,0.048537731170654297,0,-0.43432405591011047,0.55145531892776489,0,-0.97681659460067749,-0.74465209245681763,0.38851702213287354,-0.1013948917388916,-0.51457566022872925,0,1,-0.84123367071151733,0.42576247453689575,0.67865252494812012,-0.72384762763977051,0.24475835263729095,0,-0.26130419969558716,0,0,-0.18275724351406097,-0.33542460203170776,-0.29969915747642517,0,0,0,-0.92251116037368774,0.24248313903808594,0.48462176322937012,0,0,-0.12437226623296738,-0.16821412742137909,-0.17673203349113464,0,0,0.64641910791397095,-1,0,0,-0.2887846827507019,0,-1,0.2914574146270752,0,-0.28302708268165588,-0.79599630832672119,-0.20481722056865692,0.48774120211601257,0.38506165146827698,-0.33130139112472534,0.3409830629825592,0,-0.24849802255630493,0,-0.16900384426116943,0.42848938703536987,0,0,0,0,1,0,0.48588648438453674,0.95802938938140869,0.21542572975158691,-0.21760666370391846,-0.37842381000518799,0.47604444622993469,0,0.41780900955200195,0,0.30194559693336487,1,0.96863335371017456,0,0.38988843560218811,0.42772889137268066,0,0.46748724579811096,0.25122976303100586,0,-0.27707904577255249,0.40347856283187866,0.3712659478187561,0,0,0.48160949349403381,0.1455463171005249,-0.34134066104888916,0,-0.50359082221984863,0,0.32365655899047852,0.28735655546188354,0,-0.60606157779693604,-0.27985519170761108,0.34165284037590027,0,0.41364783048629761,0.26082348823547363,0,0.48289090394973755,-0.3248029351234436,0,-0.26247134804725647,-0.21756482124328613,0,0.55089139938354492,1,-0.60656297206878662,-0.80583286285400391,0.39961498975753784,0.54664671421051025,-0.36193200945854187,0,0.53452664613723755,0,0,0,-0.60917037725448608,0,0.75455772876739502,0.32288956642150879,0,0.44618988037109375,-0.31752213835716248,0,-0.59254074096679688,-0.4384867250919342,-1,-0.33213099837303162,-1,-0.83010625839233398,-0.22830462455749512,-0.27891185879707336,0,0,0.30311673879623413,-1,-0.26097232103347778,0.28956335783004761,0.40885525941848755,-0.19612805545330048,0.31376099586486816,-0.052546795457601547,0,-0.75539851188659668,-0.13025757670402527,-0.33650979399681091,0,0,0,0.015251815319061279,-0.27035465836524963,0.60114306211471558,0.69263136386871338,0,0,-0.77090412378311157,0,0,0,-0.45129719376564026,0,-0.80870699882507324,0.4558565616607666,-1,0.11872315406799316,0,0.90016359090805054,-0.12675642967224121,-0.94606798887252808,0.14560312032699585,0,0,0.42136642336845398,0,0.39224603772163391,0.42523068189620972,0,-0.5575903058052063,0,0.26634681224822998,0.84739601612091064,0.29838404059410095,-0.45206591486930847,-0.42259600758552551,-0.52866142988204956,-0.31078881025314331,0.32534313201904297,0.67253983020782471,0.62185138463973999,0.87861818075180054,0,0.42940217256546021,0,0.061873782426118851,0,0.84800899028778076,0,0,0.2005494236946106,0,0,0,-0.37647527456283569,-0.39136239886283875,-0.37632569670677185,0.62983202934265137,-0.43213015794754028,0.44954636693000793,0.31651487946510315,-0.43356338143348694,0,-0.10011768341064453,-0.70491290092468262,0.304880291223526,-0.29557329416275024,0,0,0,0.48171225190162659,-0.79931914806365967,-0.70624208450317383,0,0,-0.32713505625724792,0,-0.46731430292129517,0.046092621982097626,-0.37737619876861572,-0.31275182962417603,0.79034233093261719,-0.44859448075294495,0.5755651593208313,0.58194410800933838,0,0.26079779863357544,0.77998030185699463,0.64617860317230225,-0.30282717943191528,0,-0.021405816078186035,0,0,0,0.26832127571105957,0,-0.344859778881073,1,0.018817465752363205,-0.50286030769348145,0.49441614747047424,0.30485805869102478,-0.38749933242797852,0,0.33650025725364685,0.1394188404083252,-0.79587197303771973,-0.26761829853057861,0.11495518684387207,0,0,0.80558311939239502,0,0,0,-0.61055415868759155,0,-0.20968273282051086,-0.30486369132995605,0.9857977032661438,0.32634800672531128,0,0.68133223056793213,0.5,0,0,0.48734259605407715,0.28840482234954834,0,-0.017129790037870407,0.69249808788299561,0.87481462955474854,0,0,0,-0.66193109750747681,0,-0.84889733791351318,-0.47898709774017334,-0.47037389874458313,-1,1,0,-0.4981461763381958,0.86835581064224243,0.088404200971126556,-0.98283612728118896,0.39558795094490051,0,0.44349539279937744,0.039166461676359177,0.35881006717681885,0,0,-0.35550117492675781,-0.17135553061962128,-0.17175877094268799,0.39264735579490662,0,1,0.32847708463668823,-0.16534464061260223,0,0,-0.0087064504623413086,-1,-0.95341038703918457,0,0,-0.76689910888671875,0],[-0.26893115043640137,0,0,-0.33757781982421875,-0.95961129665374756,-0.65731960535049438,0,-0.35350698232650757,0,-0.4652341902256012,0,0,0.55494391918182373,0.67023098468780518,0,0,0,0.63438248634338379,0,-0.52892458438873291,0,0,0.3393329381942749,0,0,0,0,0,-0.24374735355377197,0.3447929322719574,0.56610041856765747,0,-0.49002647399902344,-0.82243454456329346,1,0.42587441205978394,0,0.36981365084648132,0.30926719307899475,0.55735194683074951,0.84587836265563965,0,-0.1603725403547287,-0.39021110534667969,0,0,-0.043517708778381348,0.47456526756286621,0.4871445894241333,-0.58995270729064941,0.69056868553161621,-0.3325054943561554,-0.56191259622573853,-0.078457772731781006,0.81847071647644043,-0.70224761962890625,0.62326860427856445,0,-1,0.072816967964172363,0,-0.70120608806610107,0.82464730739593506,0.43101760745048523,0.85818278789520264,0.50836509466171265,-0.077886477112770081,0.82406437397003174,-0.86466300487518311,-0.4741656482219696,-0.9122617244720459,0.4551108181476593,0,-0.60113441944122314,0,0.40120097994804382,0.72632318735122681,-0.39786714315414429,-1,-0.32812047004699707,-0.28722220659255981,0,0.14097142219543457,0.43209338188171387,0.96200060844421387,-1,0.383687824010849,-0.46237799525260925,0.30077770352363586,-0.98384034633636475,0.46563714742660522,0,-0.0068543120287358761,0,0.37185993790626526,-0.054853051900863647,0,0,0,0,-0.5,-0.19482779502868652,0.29785874485969543,-0.82068043947219849,0.43542778491973877,0,-0.066300414502620697,0.36801519989967346,0.4694308340549469,-0.18688514828681946,0,-1,0,-1,0,-0.393790602684021,-0.93619608879089355,0.33149734139442444,0.021619081497192383,-0.1464911550283432,0.31244692206382751,0.1561296284198761,0.54237735271453857,0.32334816455841064,-0.34216487407684326,-0.40862756967544556,0.22247767448425293,0.21668896079063416]],"id":"18CBF94D-C944-4E7F-9F1C-D6651E575246","generation":198,"biases":[[],[-0.3172229528427124,-0.32400938868522644,1,-0.011852859519422054,0.86722201108932495,1,0.69761431217193604,-0.53525316715240479,0.42384070158004761,0.86019879579544067,0.72065055370330811,-0.43048733472824097,0.018201336264610291,0.68587416410446167,-1,0.0057341568171977997],[0.04887067899107933,0.15061473846435547,-0.092383474111557007,-0.16087506711483002,1,0.29608118534088135,-0.98246896266937256,-0.5]],"inputCount":22,"hiddenCount":16,"outputCount":8},
{"marker2":false,"marker1":false,"weights":[[],[-1,-0.5931738018989563,0,0,0.49938303232192993,0,0,0,0.49969008564949036,0.39625254273414612,0,-0.23193950951099396,-0.19620130956172943,-0.48426169157028198,-0.073137179017066956,0.055905580520629883,0.033776469528675079,0.41248586773872375,-1,0,0.07458515465259552,0,0,-0.36150288581848145,0.41058829426765442,0,0.048537731170654297,0,-0.43432405591011047,0.55145531892776489,0,-0.97681659460067749,-0.74465209245681763,0.38851702213287354,-0.1013948917388916,-0.51457566022872925,0,1,-0.84123367071151733,0.42576247453689575,0.67865252494812012,-0.72384762763977051,0.24475835263729095,0,-0.26130419969558716,0,0,-0.18275724351406097,-0.33542460203170776,-0.29969915747642517,0,0,0,-0.92251116037368774,0.24248313903808594,0.48462176322937012,0,0,-0.12437226623296738,-0.16821412742137909,-0.17673203349113464,0,0,0.64641910791397095,-1,0,0,-0.2887846827507019,0,-1,0.2914574146270752,0,-0.28302708268165588,0,-0.20481722056865692,0.48774120211601257,0.38506165146827698,-0.33130139112472534,0.3409830629825592,0,-0.24849802255630493,0,-0.16900384426116943,0.42848938703536987,0,0,0,0,1,0,0.48588648438453674,0.95802938938140869,0.21542572975158691,-0.21760666370391846,-0.37842381000518799,0.47604444622993469,0,0.41780900955200195,0,0.30194559693336487,1,0.96863335371017456,0,0.38988843560218811,0.42772889137268066,0,0.46748724579811096,0.25122976303100586,0,-0.27707904577255249,0.40347856283187866,0.3712659478187561,0,0,0.48160949349403381,0.1455463171005249,-0.34134066104888916,0,-0.50359082221984863,0,0.32365655899047852,0.28735655546188354,0,-0.911865234375,-0.27985519170761108,0.34165284037590027,0,0.41364783048629761,0.26082348823547363,0,0.48289090394973755,-0.3248029351234436,0,-0.26247134804725647,-0.21756482124328613,0,0.55089139938354492,1,-0.60656297206878662,-0.80583286285400391,0.39961498975753784,0.88053691387176514,-0.36193200945854187,0,0.53452664613723755,0,0,0,-0.60917037725448608,0,0.75455772876739502,0.32288956642150879,0,0.44618988037109375,-0.31752213835716248,0,-0.59254074096679688,-0.4384867250919342,-1,-0.33213099837303162,-1,-0.83010625839233398,-0.22830462455749512,-0.27891185879707336,0,0,0.30311673879623413,-1,-0.26097232103347778,0.28956335783004761,0.40885525941848755,-0.19612805545330048,0.31376099586486816,-0.052546795457601547,0,-0.75539851188659668,-0.13025757670402527,-0.33650979399681091,0,0,0,0.015251815319061279,-0.27035465836524963,0.60114306211471558,0.69263136386871338,0,0,-0.77090412378311157,0,0,0,-0.45129719376564026,0,-0.80870699882507324,0.4558565616607666,-1,0.11872315406799316,0,0.90016359090805054,-0.12675642967224121,-0.94606798887252808,0.14560312032699585,0,0,0.42136642336845398,0,0.39224603772163391,0.42523068189620972,0,-0.5575903058052063,0,0.26634681224822998,0.84739601612091064,0.29838404059410095,-0.45206591486930847,-0.42259600758552551,-0.52866142988204956,-0.31078881025314331,0.32534313201904297,0.67253983020782471,0.62185138463973999,0.87861818075180054,0,0.42940217256546021,0,0.061873782426118851,0,0.84800899028778076,0,0,0.2005494236946106,0,0,0,-0.37647527456283569,-0.39136239886283875,-0.37632569670677185,0.62983202934265137,-0.43213015794754028,0.44954636693000793,0.31651487946510315,-0.43356338143348694,0,-0.10011768341064453,-0.70491290092468262,0.304880291223526,-0.29557329416275024,0,0,0,0.48171225190162659,-0.79931914806365967,-0.70624208450317383,0,0,-0.32713505625724792,0,-0.46731430292129517,0.046092621982097626,-0.37737619876861572,-0.31275182962417603,0.79034233093261719,-0.44859448075294495,0.5755651593208313,0.58194410800933838,0,0.26079779863357544,0.77998030185699463,0.64617860317230225,-0.30282717943191528,0,-0.021405816078186035,0,0,0,0.26832127571105957,0,-0.344859778881073,1,0.018817465752363205,-0.50286030769348145,0.49441614747047424,0.30485805869102478,-0.38749933242797852,0,0.33650025725364685,0.1394188404083252,-0.79587197303771973,-0.26761829853057861,0.11495518684387207,0,0,0.80558311939239502,0,0,0,-0.61055415868759155,0,-0.20968273282051086,-0.30486369132995605,0.9857977032661438,0.32634800672531128,0,0.68133223056793213,0.5,0,0,0.48734259605407715,0.28840482234954834,0,-0.017129790037870407,0.69249808788299561,0.87481462955474854,0,0,0,-0.66193109750747681,0,0.34545490145683289,-0.47898709774017334,-0.47037389874458313,-1,1,0,-0.4981461763381958,0.86835581064224243,0.088404200971126556,-0.98283612728118896,0.39558795094490051,0,0.44349539279937744,0.039166461676359177,0.35881006717681885,0,0,-0.71100234985351562,-0.17135553061962128,-0.17175877094268799,0.39264735579490662,0,1,0.32847708463668823,-0.16534464061260223,0,0,-0.0087064504623413086,-1,-0.95341038703918457,0,0,-0.76689910888671875,0],[-0.26893115043640137,0,0,-0.33757781982421875,-0.95961129665374756,-0.65731960535049438,0,-0.35350698232650757,0,-0.4652341902256012,0,0,0.55494391918182373,0.67023098468780518,0,0,0,0.63438248634338379,0,-0.52892458438873291,0,0,0.3393329381942749,0,0,0,0,0,0.19929321110248566,0.3447929322719574,0.56610041856765747,0,-0.49002647399902344,-0.82243454456329346,1,0.42587441205978394,0,0.36981365084648132,0.30926719307899475,0.55735194683074951,0.84587836265563965,0,-0.1603725403547287,-0.39021110534667969,0,0,-0.043517708778381348,0.47456526756286621,0.4871445894241333,-0.58995270729064941,0.69056868553161621,-0.3325054943561554,-0.56191259622573853,-0.078457772731781006,0.81847071647644043,-0.70224761962890625,0.62326860427856445,0,-1,0.14563393592834473,0,-0.70120608806610107,0.82464730739593506,0.43101760745048523,0.85818278789520264,0.50836509466171265,-0.077886477112770081,0.82406437397003174,-0.86466300487518311,-0.4741656482219696,-0.9122617244720459,0.4551108181476593,0,-0.60113441944122314,0,0.40120097994804382,0.72632318735122681,-0.39786714315414429,-1,-0.32812047004699707,-0.28722220659255981,0,0.14097142219543457,0.43209338188171387,0.96200060844421387,-1,0.383687824010849,-0.46237799525260925,0.30077770352363586,-0.98384034633636475,0.46563714742660522,0,-0.0068543120287358761,0,0.37185993790626526,-0.054853051900863647,0,0,0,0,-0.5,-0.19482779502868652,0.29785874485969543,-0.82068043947219849,0.43542778491973877,0,-0.066300414502620697,0.36801519989967346,0.4694308340549469,-0.18688514828681946,0,-1,0,-1,0,-0.393790602684021,-0.93619608879089355,0.33149734139442444,0.021619081497192383,-0.1464911550283432,0.31244692206382751,0.1561296284198761,0.54237735271453857,0.32334816455841064,-0.34216487407684326,-0.40862756967544556,0.22247767448425293,0.21668896079063416]],"id":"66EEA64D-8A42-4F99-8C86-1F8B7FDDBF5C","generation":197,"biases":[[],[-0.3172229528427124,-0.32400938868522644,1,-0.011852859519422054,0.86722201108932495,1,0.69761431217193604,-0.53525316715240479,0.42384070158004761,0.86019879579544067,0.72065055370330811,-0.43048733472824097,0.018201336264610291,0.68587416410446167,-1,0.0057341568171977997],[0.04887067899107933,0.15061473846435547,-0.092383474111557007,-0.16087506711483002,1,0.29608118534088135,-0.98246896266937256,-0.5]],"inputCount":22,"hiddenCount":16,"outputCount":8},
{"marker2":false,"marker1":false,"weights":[[],[-1,-0.5931738018989563,0,0,0.49938303232192993,0,0,0,0.49969008564949036,0.39625254273414612,0,-0.23193950951099396,-0.19620130956172943,-0.48426169157028198,-0.073137179017066956,0.055905580520629883,0.41691595315933228,0.41248586773872375,-1,0,0.07458515465259552,0,0,-0.36150288581848145,0.41058829426765442,0,0.048537731170654297,0,-0.43432405591011047,0.55145531892776489,0,-0.97681659460067749,-0.74465209245681763,0.38851702213287354,-0.1013948917388916,-0.51457566022872925,0,0.95694273710250854,-0.84123367071151733,0.42576247453689575,0.67865252494812012,-0.72384762763977051,0.24475835263729095,0,-0.26130419969558716,0,0,-0.18275724351406097,-0.33542460203170776,-0.61559569835662842,0,0,0,-0.92251116037368774,0.24248313903808594,0.48462176322937012,0,0,-0.12437226623296738,-0.16821412742137909,-0.17673203349113464,0,0,0.64641910791397095,-1,0,0,-0.2887846827507019,0,-1,0.2914574146270752,0,-0.28302708268165588,0,-0.20481722056865692,0.48774120211601257,0.38506165146827698,-0.33130139112472534,0.3409830629825592,0,-0.24849802255630493,0,-0.16900384426116943,0.42848938703536987,0,0,0,0,1,0,0.48588648438453674,0.95802938938140869,0.21542572975158691,-0.21760666370391846,-0.37842381000518799,0.47604444622993469,0,0.41780900955200195,0,0.30194559693336487,1,0.96863335371017456,0,0.38988843560218811,0.42772889137268066,0,0.46748724579811096,0.25122976303100586,0,-0.27707904577255249,0.40347856283187866,0.3712659478187561,0,0,0.48160949349403381,0.1455463171005249,0,0,-0.50359082221984863,0,0.32365655899047852,0.28735655546188354,0,-0.911865234375,-0.27985519170761108,0.34165284037590027,0,0.41364783048629761,0.26082348823547363,0,0.48289090394973755,-0.3248029351234436,0,-0.26247134804725647,-0.21756482124328613,0,0.55089139938354492,1,-0.60656297206878662,-0.80583286285400391,0.39961498975753784,0.54664671421051025,-0.36193200945854187,0,0.53452664613723755,0,0,0,-0.60917037725448608,0,0.75455772876739502,0.32288956642150879,0,0.44618988037109375,-0.31752213835716248,0,-0.59254074096679688,-0.4384867250919342,-1,-0.33213099837303162,-1,-0.83010625839233398,-0.22830462455749512,-0.27891185879707336,0,0,0.30311673879623413,-1,-0.26097232103347778,0.28956335783004761,0.40885525941848755,-0.19612805545330048,0.31376099586486816,-0.052546795457601547,0,-0.75539851188659668,-0.13025757670402527,-0.33650979399681091,0,0,0,0.015251815319061279,-0.27035465836524963,0.60114306211471558,0.69263136386871338,0,0,-0.77090412378311157,0,0,0,-0.45129719376564026,0,-0.80870699882507324,0.4558565616607666,-1,0.11872315406799316,0,0.90016359090805054,-0.12675642967224121,-0.94606798887252808,0.14560312032699585,0,0,0.42136642336845398,0,0.39224603772163391,0.42523068189620972,0,-0.5575903058052063,0,0.26634681224822998,0.84739601612091064,0.29838404059410095,-0.45206591486930847,-0.42259600758552551,-0.52866142988204956,-0.31078881025314331,0.32534313201904297,0.67253983020782471,0.62185138463973999,0.87861818075180054,0,0.42940217256546021,0,0.061873782426118851,0,0.84800899028778076,0,0,0.2005494236946106,0,0,0,-0.37647527456283569,-0.39136239886283875,-0.37632569670677185,0.62983202934265137,-0.43213015794754028,0.44954636693000793,0.31651487946510315,-0.43356338143348694,0,-0.10011768341064453,-0.70491290092468262,0.304880291223526,-0.29557329416275024,0,0,0,0.48171225190162659,-0.79931914806365967,-1,0,0,-0.32713505625724792,0,-0.46731430292129517,0.046092621982097626,-0.37737619876861572,-0.31275182962417603,0.79034233093261719,-0.44859448075294495,0.5755651593208313,0.58194410800933838,0,0.26079779863357544,0.77998030185699463,0.64617860317230225,-0.30282717943191528,0,-0.021405816078186035,0,0,0,0.26832127571105957,0,-0.344859778881073,1,0.018817465752363205,-0.50286030769348145,0.49441614747047424,0.30485805869102478,-0.38749933242797852,0,0.33650025725364685,0.1394188404083252,-0.79587197303771973,-0.26761829853057861,0.11495518684387207,0,0,0.80558311939239502,0,0,0,-0.61055415868759155,0,-0.20968273282051086,-0.30486369132995605,0.9857977032661438,0.32634800672531128,0,0.68133223056793213,0.5,0,0,0.48734259605407715,0.28840482234954834,0,-0.017129790037870407,0.69249808788299561,1,0,0,0,-0.66193109750747681,0,0.062218427658081055,-0.47898709774017334,-0.47037389874458313,-1,1,0,-0.4981461763381958,0.86835581064224243,0.088404200971126556,-0.98283612728118896,0.8180009126663208,0,0.44349539279937744,0.039166461676359177,0.35881006717681885,0,0,-0.71100234985351562,-0.17135553061962128,-0.17175877094268799,0.39264735579490662,0,1,0.32847708463668823,-0.16534464061260223,0,0,-0.0087064504623413086,-1,-0.95341038703918457,0,0,-0.76689910888671875,0],[-0.26893115043640137,0,0,-0.33757781982421875,-0.95961129665374756,-0.65731960535049438,0,-0.35350698232650757,0,-0.4652341902256012,0,0,0.55494391918182373,0.67023098468780518,0,0,0,0.63438248634338379,0,-0.52892458438873291,0,0,0.3393329381942749,0,0,0,0,0,0.19929321110248566,0.3447929322719574,0.56610041856765747,0,-0.49002647399902344,-0.82243454456329346,1,0.42587441205978394,0,0.36981365084648132,0.30926719307899475,0.55735194683074951,0.84587836265563965,0,-0.1603725403547287,-0.39021110534667969,0,0,-0.043517708778381348,0.47456526756286621,0.4871445894241333,-0.58995270729064941,0.69056868553161621,-0.3325054943561554,-0.56191259622573853,-0.078457772731781006,0.81847071647644043,-0.70224761962890625,0.62326860427856445,0,-1,0.072816967964172363,0,-0.70120608806610107,0.82464730739593506,0.43101760745048523,0.85818278789520264,0.50836509466171265,-0.077886477112770081,0.82406437397003174,-0.86466300487518311,-0.4741656482219696,-0.9122617244720459,0.4551108181476593,0,-0.60113441944122314,0,0.40120097994804382,0.72632318735122681,-0.39786714315414429,-1,-0.32812047004699707,-0.28722220659255981,0,0.14097142219543457,0.43209338188171387,0.96200060844421387,-1,0.383687824010849,-0.46237799525260925,0.30077770352363586,-0.98384034633636475,0.46563714742660522,0,-0.0068543120287358761,0,0.37185993790626526,-0.054853051900863647,0,0,0,0,-0.5,-0.19482779502868652,0.29785874485969543,-0.82068043947219849,0.43542778491973877,0,-0.066300414502620697,0.36801519989967346,0.4694308340549469,-0.18688514828681946,0,-1,0,-0.89550220966339111,0,-0.393790602684021,-0.93619608879089355,0.33149734139442444,0.021619081497192383,-0.1464911550283432,0.31244692206382751,0.1561296284198761,0.54237735271453857,0.32334816455841064,-0.34216487407684326,-0.40862756967544556,0.22247767448425293,0.21668896079063416]],"id":"A206516E-2123-4363-A6C6-D6C917C88D82","generation":196,"biases":[[],[0.1292918473482132,-0.32400938868522644,1,-0.011852859519422054,0.86722201108932495,1,0.69761431217193604,-0.53525316715240479,0.42384070158004761,0.86019879579544067,0.72065055370330811,-0.43048733472824097,0.018201336264610291,0.68587416410446167,-1,0.0057341568171977997],[0.04887067899107933,0.15061473846435547,-0.092383474111557007,-0.16087506711483002,1,0.29608118534088135,-0.98246896266937256,-0.5]],"inputCount":22,"hiddenCount":16,"outputCount":8},
{"marker2":false,"marker1":false,"weights":[[],[-1,-0.5931738018989563,0,0,0.49938303232192993,0,0,0,0.49969008564949036,0.39625254273414612,0,-0.23193950951099396,-0.19620130956172943,-0.48426169157028198,-0.073137179017066956,0.055905580520629883,0.033776469528675079,0.41248586773872375,-1,0,0.07458515465259552,0,0,-0.36150288581848145,0.41058829426765442,0,0.048537731170654297,0,-0.43432405591011047,0.55145531892776489,0,-0.97681659460067749,-0.74465209245681763,0.38851702213287354,-0.1013948917388916,-0.51457566022872925,0,0.95694273710250854,-0.84123367071151733,0.42576247453689575,0.67865252494812012,-0.72384762763977051,0.24475835263729095,0,-0.73340326547622681,0,0,-0.18275724351406097,-0.33542460203170776,-0.29969915747642517,0,0,0,-0.92251116037368774,0.24248313903808594,0.48462176322937012,0,0,-0.12437226623296738,-0.16821412742137909,-0.17673203349113464,0,0,0.64641910791397095,-1,0,0,-0.2887846827507019,0,-1,0.2914574146270752,0,-0.28302708268165588,0,-0.20481722056865692,0.48774120211601257,0.38506165146827698,-0.33130139112472534,0.3409830629825592,0,-0.24849802255630493,0,-0.16900384426116943,0.42848938703536987,0,0,0,0,1,0,0.48588648438453674,0.95802938938140869,0.21542572975158691,-0.21760666370391846,-0.37842381000518799,0.47604444622993469,0,0.41780900955200195,0,0.30194559693336487,1,0.96863335371017456,0,0.38988843560218811,0.42772889137268066,0,0.46748724579811096,0.25122976303100586,0,-0.27707904577255249,0.40347856283187866,0.3712659478187561,0,0,0.48160949349403381,0.1455463171005249,-0.34134066104888916,0,-0.50359082221984863,0,0.32365655899047852,0.28735655546188354,0,-0.911865234375,-0.27985519170761108,0.34165284037590027,0,0.41364783048629761,0.26082348823547363,0,0.48289090394973755,-0.3248029351234436,0,-0.26247134804725647,-0.21756482124328613,0,0.55089139938354492,1,-0.60656297206878662,-0.80583286285400391,0.39961498975753784,0.54664671421051025,-0.36193200945854187,0,0.53452664613723755,0,0,0,-0.60917037725448608,0,0.75455772876739502,0.32288956642150879,0,0.44618988037109375,-0.31752213835716248,0,-0.59254074096679688,-0.4384867250919342,-1,-0.33213099837303162,-1,-0.83010625839233398,-0.22830462455749512,-0.27891185879707336,0,0,0.30311673879623413,-1,-0.26097232103347778,0.28956335783004761,0.40885525941848755,-0.19612805545330048,0.31376099586486816,-0.052546795457601547,0,-0.75539851188659668,-0.13025757670402527,-0.33650979399681091,0,0,0,0.015251815319061279,-0.27035465836524963,0.60114306211471558,0.69263136386871338,0,0,-0.77090412378311157,0,0,0,-0.45129719376564026,0,-0.80870699882507324,0.4558565616607666,-1,0.11872315406799316,0,0.90016359090805054,-0.12675642967224121,-0.94606798887252808,0.14560312032699585,0,0,0.42136642336845398,0,0.39224603772163391,0.42523068189620972,0,-0.5575903058052063,0,0.26634681224822998,0.84739601612091064,0.29838404059410095,-0.45206591486930847,-0.42259600758552551,-0.52866142988204956,-0.31078881025314331,0.32534313201904297,0.67253983020782471,0.62185138463973999,0.87861818075180054,0,0.42940217256546021,0,0.061873782426118851,0,0.84800899028778076,0,0,0.2005494236946106,0,0,0,-0.37647527456283569,-0.39136239886283875,-0.37632569670677185,0.62983202934265137,-0.43213015794754028,0.44954636693000793,0.31651487946510315,-0.43356338143348694,0,-0.10011768341064453,-0.70491290092468262,0.304880291223526,-0.92135822772979736,0,0,0,0.48171225190162659,-0.79931914806365967,-0.70624208450317383,0,0,-0.32713505625724792,0,-0.46731430292129517,0.046092621982097626,-0.37737619876861572,-0.31275182962417603,0.79034233093261719,-0.44859448075294495,0.5755651593208313,0.58194410800933838,0,0.26079779863357544,0.77998030185699463,0.64617860317230225,-0.30282717943191528,0,-0.021405816078186035,0,0,0,0.26832127571105957,0,-0.344859778881073,1,0.018817465752363205,-0.50286030769348145,0.49441614747047424,0.30485805869102478,-0.38749933242797852,0,0.33650025725364685,0.1394188404083252,-0.79587197303771973,-0.26761829853057861,0.11495518684387207,0,0,0.80558311939239502,0,0,0,-0.61055415868759155,0,-0.20968273282051086,-0.30486369132995605,0.9857977032661438,0.32634800672531128,0,0.68133223056793213,0.5,0,0,0.48734259605407715,0.28840482234954834,0,-0.017129790037870407,0.69249808788299561,1,0,0,0,-0.66193109750747681,0,0.34545490145683289,-0.47898709774017334,-0.47037389874458313,-1,1,0,-0.4981461763381958,0.86835581064224243,0.088404200971126556,-0.98283612728118896,0.8180009126663208,0,0.44349539279937744,0.039166461676359177,0.35881006717681885,0,0,-0.71100234985351562,-0.17135553061962128,-0.17175877094268799,0.39264735579490662,0,1,0.32847708463668823,-0.16534464061260223,0,0,-0.0087064504623413086,-1,-0.95341038703918457,0,0,-0.76689910888671875,0],[-0.26893115043640137,0,0,-0.33757781982421875,-0.95961129665374756,-0.65731960535049438,0,-0.35350698232650757,0,-0.4652341902256012,0,0,0.55494391918182373,0.67023098468780518,0,0,0,0.63438248634338379,0,-0.52892458438873291,0,0,0.3393329381942749,0,0,0,0,0.14691042900085449,0.19929321110248566,-0.13131928443908691,0.90157335996627808,0,-0.49002647399902344,-0.82243454456329346,1,0.42587441205978394,0,0.36981365084648132,0.30926719307899475,0.55735194683074951,0.84587836265563965,0,-0.1603725403547287,-0.39021110534667969,0,0,-0.043517708778381348,0.47456526756286621,0.4871445894241333,-0.58995270729064941,0.69056868553161621,-0.3325054943561554,-0.56191259622573853,-0.078457772731781006,0.81847071647644043,-0.70224761962890625,0.62326860427856445,0,-1,0.072816967964172363,0,-0.70120608806610107,0.82464730739593506,0.43101760745048523,0.85818278789520264,0.50836509466171265,-0.077886477112770081,0.82406437397003174,-0.86466300487518311,-0.4741656482219696,-0.9122617244720459,0.4551108181476593,0,-0.60113441944122314,0,0.40120097994804382,0.72632318735122681,-0.39786714315414429,-0.68338221311569214,-0.32812047004699707,-0.28722220659255981,0,0.14097142219543457,0.43209338188171387,0.96200060844421387,-1,0.383687824010849,-0.46237799525260925,0.30077770352363586,-0.98384034633636475,0.46563714742660522,0,-0.0068543120287358761,0,0.70247745513916016,-0.054853051900863647,0,0,0,0,-0.5,-0.19482779502868652,0.29785874485969543,-0.82068043947219849,0.43542778491973877,0,-0.066300414502620697,0.36801519989967346,0.4694308340549469,-0.18688514828681946,0,-1,0,-1,0,-0.393790602684021,-0.93619608879089355,0.33149734139442444,0.021619081497192383,-0.1464911550283432,0.31244692206382751,0.1561296284198761,0.54237735271453857,0.32334816455841064,-0.34216487407684326,-0.40862756967544556,0.22247767448425293,0.21668896079063416]],"id":"C4EB01BC-BA4F-4857-BEBE-4F3CB9F6400F","generation":198,"biases":[[],[-0.3172229528427124,-0.32400938868522644,1,-0.011852859519422054,0.86722201108932495,1,0.69761431217193604,-0.53525316715240479,0.42384070158004761,0.86019879579544067,0.72065055370330811,-0.43048733472824097,0.018201336264610291,0.68587416410446167,-1,0.0057341568171977997],[0.024435339495539665,0.15061473846435547,-0.092383474111557007,-0.16087506711483002,1,0.29608118534088135,-0.98246896266937256,-0.43313062191009521]],"inputCount":22,"hiddenCount":16,"outputCount":8},
{"marker2":false,"marker1":false,"weights":[[],[-1,-0.5931738018989563,0,0,0.49938303232192993,0,0,0,0.49969008564949036,0.39625254273414612,0,-0.23193950951099396,-0.19620130956172943,-0.48426169157028198,-0.073137179017066956,0.055905580520629883,0.41691595315933228,0.41248586773872375,-1,0,0.07458515465259552,0,0,-0.36150288581848145,0.41058829426765442,0,0.048537731170654297,0,-0.79701197147369385,0.55145531892776489,0,-0.97681659460067749,-0.74465209245681763,0.38851702213287354,-0.1013948917388916,-0.51457566022872925,0.48058196902275085,0.95694273710250854,-0.84123367071151733,0.42576247453689575,0.67865252494812012,-0.72384762763977051,0.24475835263729095,0,-0.26130419969558716,0,0,-0.18275724351406097,-0.33542460203170776,-0.61559569835662842,0,0,0,-0.92251116037368774,0.24248313903808594,0.48462176322937012,0,0,-0.12437226623296738,-0.16821412742137909,-0.17673203349113464,0,0,0.64641910791397095,-1,0,0,-0.2887846827507019,0,-1,0.2914574146270752,0,-0.28302708268165588,0,-0.20481722056865692,0.48774120211601257,0.38506165146827698,-0.33130139112472534,0.3409830629825592,0,-0.24849802255630493,0,-0.16900384426116943,0.42848938703536987,0,0,0,0,1,0,0.48588648438453674,0.95802938938140869,0.21542572975158691,-0.21760666370391846,-0.37842381000518799,0.47604444622993469,0,0.41780900955200195,0,0.30194559693336487,1,0.96863335371017456,0,0.38988843560218811,0.42772889137268066,0,0.46748724579811096,0.25122976303100586,0,-0.27707904577255249,0.40347856283187866,0.3712659478187561,0,0,0.48160949349403381,0.1455463171005249,0,0,-0.50359082221984863,0,0.32365655899047852,0.28735655546188354,0,-0.911865234375,-0.27985519170761108,0.34165284037590027,0,0.41364783048629761,0.26082348823547363,0,0.48289090394973755,-0.3248029351234436,0,-0.26247134804725647,-0.21756482124328613,0,0.55089139938354492,1,-0.60656297206878662,-0.80583286285400391,0.39961498975753784,0.54664671421051025,0,0,0.53452664613723755,0,0,0,-0.60917037725448608,0,0.75455772876739502,0.32288956642150879,0,0.44618988037109375,-0.31752213835716248,0,-0.59254074096679688,-0.4384867250919342,-1,-0.33213099837303162,-1,-0.83010625839233398,-0.22830462455749512,-0.27891185879707336,0,0,0.30311673879623413,-1,-0.26097232103347778,0.28956335783004761,0.40885525941848755,-0.19612805545330048,0.31376099586486816,-0.052546795457601547,0,-0.75539851188659668,-0.13025757670402527,-0.33650979399681091,0,0,0,0.015251815319061279,-0.27035465836524963,0.60114306211471558,0.69263136386871338,0,0,-0.77090412378311157,0,0,0,-0.45129719376564026,0,-0.80870699882507324,0.4558565616607666,-1,0.11872315406799316,0,0.90016359090805054,-0.12675642967224121,-0.94606798887252808,0.14560312032699585,0,0,0.42136642336845398,0,0.39224603772163391,0.42523068189620972,0,-0.5575903058052063,0,0.26634681224822998,0.84739601612091064,0.29838404059410095,-0.45206591486930847,-0.42259600758552551,-0.52866142988204956,-0.31078881025314331,0.32534313201904297,0.67253983020782471,0.62185138463973999,0.87861818075180054,0,0.42940217256546021,0,0.061873782426118851,0,0.84800899028778076,0,0,0.2005494236946106,0.39540937542915344,0,0,-0.37647527456283569,0,-0.37632569670677185,0.62983202934265137,-0.43213015794754028,0.22477318346500397,0.31651487946510315,-0.43356338143348694,0,-0.10011768341064453,-1,0.304880291223526,-0.29557329416275024,0,0,0,0.48171225190162659,-0.79931914806365967,-0.70624208450317383,0,0,-0.32713505625724792,0,-0.46731430292129517,0.046092621982097626,-0.37737619876861572,-0.31275182962417603,0.79034233093261719,-0.44859448075294495,0.5755651593208313,0.58194410800933838,-0.43203040957450867,0.26079779863357544,0.77998030185699463,0.64617860317230225,-0.30282717943191528,0,-0.021405816078186035,0,0,0,0.26832127571105957,0,-0.344859778881073,1,0.018817465752363205,-0.50286030769348145,0.49441614747047424,0.30485805869102478,-0.38749933242797852,0,0.33650025725364685,0.1394188404083252,-0.79587197303771973,-0.26761829853057861,0.11495518684387207,0,0,0.80558311939239502,0,0,0,-0.61055415868759155,0,-0.20968273282051086,-0.30486369132995605,0.9857977032661438,0.32634800672531128,0,0.68133223056793213,0.5,0,0,0.48734259605407715,0.28840482234954834,0,-0.017129790037870407,0.69249808788299561,1,0,0,0,-0.66193109750747681,0,0.34545490145683289,-0.47898709774017334,-0.47037389874458313,-1,1,0,-0.4981461763381958,0.86835581064224243,0.088404200971126556,-0.98283612728118896,0.8180009126663208,0,0.44349539279937744,0.039166461676359177,0.35881006717681885,0,0,-0.71100234985351562,-0.17135553061962128,-0.17175877094268799,0.39264735579490662,0,1,0.32847708463668823,-0.16534464061260223,0,0,-0.0087064504623413086,-1,-0.95341038703918457,0,0,-0.76689910888671875,0],[-0.26893115043640137,0,0,-0.33757781982421875,-0.95961129665374756,-0.65731960535049438,0,-0.35350698232650757,0,-0.4652341902256012,0,0,0.55494391918182373,0.67023098468780518,0,0,0,0.63438248634338379,0,-0.52892458438873291,0,0,0.3393329381942749,0,0,0,0,0,0.19929321110248566,0.3447929322719574,0.56610041856765747,0,-0.49002647399902344,-0.52043110132217407,1,0.42587441205978394,0,0.36981365084648132,0.30926719307899475,0.55735194683074951,0.84587836265563965,0,-0.1603725403547287,-0.39021110534667969,0,0,-0.043517708778381348,0.47456526756286621,0.4871445894241333,-0.58995270729064941,0.69056868553161621,-0.3325054943561554,-0.56191259622573853,-0.078457772731781006,0.81847071647644043,-0.70224761962890625,0.62326860427856445,0,-1,0.072816967964172363,0,-0.70120608806610107,0.82464730739593506,0.43101760745048523,0.85818278789520264,0.50836509466171265,-0.077886477112770081,0.82406437397003174,-0.86466300487518311,-0.4741656482219696,-0.9122617244720459,0.4551108181476593,0,-0.60113441944122314,0,0.40120097994804382,0.72632318735122681,-0.39786714315414429,-1,-0.32812047004699707,-0.28722220659255981,0,0.14097142219543457,0.43209338188171387,0.96200060844421387,-1,0.383687824010849,-0.46237799525260925,0.30077770352363586,-0.98384034633636475,0.46563714742660522,0,-0.0068543120287358761,0,0.37185993790626526,-0.054853051900863647,0,0,0,0,-0.94706308841705322,-0.19482779502868652,0.29785874485969543,-0.82068043947219849,0.43542778491973877,0,-0.066300414502620697,0.36801519989967346,0.4694308340549469,-0.18688514828681946,0,-1,0,-1,0,-0.393790602684021,-0.93619608879089355,0.33149734139442444,0.021619081497192383,-0.1464911550283432,0.31244692206382751,0.85488712787628174,0.54237735271453857,0.32334816455841064,-0.34216487407684326,-0.40862756967544556,0.22247767448425293,0.21668896079063416]],"id":"6505EBA8-0507-4DF8-B24D-EFE72D27E0D2","generation":197,"biases":[[],[0.1292918473482132,-0.32400938868522644,0.80009686946868896,-0.011852859519422054,0.86722201108932495,1,0.69761431217193604,-0.53525316715240479,0.42384070158004761,0.86019879579544067,0.72065055370330811,-0.43048733472824097,0.018201336264610291,0.68587416410446167,-1,0.0057341568171977997],[0.04887067899107933,0.15061473846435547,-0.092383474111557007,-0.16087506711483002,1,0.29608118534088135,-0.98246896266937256,-0.5]],"inputCount":22,"hiddenCount":16,"outputCount":8},
{"marker2":false,"marker1":false,"weights":[[],[-1,-0.5931738018989563,0,0,0.49938303232192993,0,0,0,0.49969008564949036,0.39625254273414612,0,-0.23193950951099396,-0.19620130956172943,-0.48426169157028198,-0.073137179017066956,0.055905580520629883,0.41691595315933228,0.41248586773872375,-1,0,0.07458515465259552,0,0,-0.36150288581848145,0.41058829426765442,0,0.048537731170654297,0,-0.43432405591011047,0.55145531892776489,0,-0.97681659460067749,-0.74465209245681763,0.38851702213287354,-0.1013948917388916,-0.51457566022872925,0,0.95694273710250854,-0.84123367071151733,0.42576247453689575,0.67865252494812012,-0.72384762763977051,0.24475835263729095,0,-0.26130419969558716,0,0,-0.18275724351406097,-0.33542460203170776,-0.61559569835662842,0,0,0,-0.92251116037368774,0.24248313903808594,0.48462176322937012,0,0,-0.12437226623296738,-0.16821412742137909,-0.17673203349113464,0,0,0.64641910791397095,-1,0,0,-0.2887846827507019,0,-1,0.2914574146270752,0,-0.28302708268165588,0,-0.20481722056865692,0.48774120211601257,0.38506165146827698,-0.33130139112472534,0.3409830629825592,0,-0.24849802255630493,0,-0.16900384426116943,0.42848938703536987,0,0,0,0,1,0,0.48588648438453674,0.95802938938140869,0.21542572975158691,-0.21760666370391846,-0.37842381000518799,0.47604444622993469,0,0.41780900955200195,0,0.30194559693336487,1,0.96863335371017456,0,0.38988843560218811,0.42772889137268066,0,0.46748724579811096,0.25122976303100586,0,-0.27707904577255249,0.40347856283187866,0.3712659478187561,0,0,0.48160949349403381,0.1455463171005249,0,0,-0.50359082221984863,0,0.32365655899047852,0.28735655546188354,0,-0.911865234375,-0.27985519170761108,0.34165284037590027,0,0.41364783048629761,0.26082348823547363,0,0.48289090394973755,-0.3248029351234436,0,-0.26247134804725647,-0.21756482124328613,0,0.55089139938354492,1,-0.60656297206878662,-0.80583286285400391,0.39961498975753784,0.54664671421051025,-0.36193200945854187,0,0.53452664613723755,0,0,0,-0.60917037725448608,0,0.75455772876739502,0.32288956642150879,0,0.44618988037109375,-0.31752213835716248,0,-0.59254074096679688,-0.4384867250919342,-1,-0.33213099837303162,-1,-0.83010625839233398,-0.22830462455749512,-0.27891185879707336,0,0,0.30311673879623413,-1,-0.26097232103347778,0.28956335783004761,0.40885525941848755,-0.19612805545330048,0.31376099586486816,-0.052546795457601547,0,-0.75539851188659668,-0.13025757670402527,-0.33650979399681091,0,0,0,0.015251815319061279,-0.27035465836524963,0.60114306211471558,0.69263136386871338,0,0,-0.77090412378311157,0,0,0,-0.45129719376564026,0,-0.80870699882507324,0.4558565616607666,-1,0.11872315406799316,0,0.90016359090805054,-0.12675642967224121,-0.94606798887252808,0.14560312032699585,0,0,0.42136642336845398,0,0.39224603772163391,0.42523068189620972,0,-0.5575903058052063,0,0.26634681224822998,0.84739601612091064,0.29838404059410095,-0.45206591486930847,-0.42259600758552551,-0.52866142988204956,-0.31078881025314331,0.32534313201904297,0.67253983020782471,0.62185138463973999,0.87861818075180054,0,0.42940217256546021,0,0.061873782426118851,0,0.84800899028778076,0,0,0.2005494236946106,0,0,0,-0.37647527456283569,-0.39136239886283875,-0.37632569670677185,0.62983202934265137,-0.43213015794754028,0.44954636693000793,0.31651487946510315,-0.43356338143348694,0,-0.10011768341064453,-0.70491290092468262,0.304880291223526,-0.29557329416275024,0,0,0,0.48171225190162659,-0.79931914806365967,-1,0,0,-0.32713505625724792,0,-0.46731430292129517,0.046092621982097626,-0.37737619876861572,-0.31275182962417603,0.79034233093261719,-0.44859448075294495,0.5755651593208313,0.58194410800933838,0,0.26079779863357544,0.77998030185699463,0.64617860317230225,-0.30282717943191528,0,-0.021405816078186035,0,0,0,0.26832127571105957,0,-0.344859778881073,1,0.018817465752363205,-0.50286030769348145,0.49441614747047424,0.30485805869102478,-0.38749933242797852,0,0.33650025725364685,0.1394188404083252,-0.79587197303771973,-0.26761829853057861,0.11495518684387207,0,0,0.80558311939239502,0,0,0,-0.61055415868759155,0,-0.20968273282051086,-0.30486369132995605,0.9857977032661438,0.32634800672531128,0,0.68133223056793213,0.5,0,0,0.48734259605407715,0.28840482234954834,0,-0.017129790037870407,0.69249808788299561,1,0,0,0,-0.66193109750747681,0,0.062218427658081055,-0.47898709774017334,-0.47037389874458313,-1,1,0,-0.4981461763381958,0.86835581064224243,0.088404200971126556,-0.98283612728118896,0.8180009126663208,0,0.44349539279937744,0.039166461676359177,0.35881006717681885,0,0,-0.71100234985351562,-0.17135553061962128,-0.17175877094268799,0.39264735579490662,0,1,0.32847708463668823,-0.16534464061260223,0,0,-0.0087064504623413086,-1,-0.95341038703918457,0,0,-0.76689910888671875,0],[-0.26893115043640137,0,0,-0.33757781982421875,-0.95961129665374756,-0.65731960535049438,0,-0.35350698232650757,0,-0.4652341902256012,0,0,0.55494391918182373,0.67023098468780518,0,0,0,0.63438248634338379,0,-0.52892458438873291,0,0,0.3393329381942749,0,0,0,0,0,0.19929321110248566,0.3447929322719574,0.56610041856765747,0,-0.49002647399902344,-0.82243454456329346,1,0.42587441205978394,0,0.36981365084648132,0.30926719307899475,0.55735194683074951,0.84587836265563965,0,-0.1603725403547287,-0.39021110534667969,0,0,-0.043517708778381348,0.47456526756286621,0.4871445894241333,-0.58995270729064941,0.69056868553161621,-0.3325054943561554,-0.56191259622573853,-0.078457772731781006,0.81847071647644043,-0.70224761962890625,0.62326860427856445,0,-1,0.072816967964172363,0,-0.70120608806610107,0.82464730739593506,0.43101760745048523,0.85818278789520264,0.50836509466171265,-0.077886477112770081,0.82406437397003174,-0.86466300487518311,-0.4741656482219696,-1,0.4551108181476593,0,-0.60113441944122314,0,0.40120097994804382,0.72632318735122681,-0.39786714315414429,-1,-0.32812047004699707,-0.28722220659255981,0,0.14097142219543457,0.43209338188171387,0.96200060844421387,-1,0.383687824010849,-0.46237799525260925,0.30077770352363586,-0.98384034633636475,0.46563714742660522,0,-0.0068543120287358761,0,0.37185993790626526,-0.054853051900863647,0,0,0,0,-0.5,-0.19482779502868652,0.29785874485969543,-0.82068043947219849,0.43542778491973877,0,-0.066300414502620697,0.36801519989967346,0.4694308340549469,-0.18688514828681946,0,-1,0,-0.89550220966339111,0,-0.393790602684021,-0.93619608879089355,0.33149734139442444,0.021619081497192383,-0.1464911550283432,0.72200340032577515,0.1561296284198761,0.54237735271453857,0.32334816455841064,-0.34216487407684326,-0.40862756967544556,0.22247767448425293,0.21668896079063416]],"id":"CFFA1D16-791F-45EE-8D20-F904887162F0","generation":196,"biases":[[],[0.1292918473482132,-0.32400938868522644,1,-0.011852859519422054,0.86722201108932495,1,0.69761431217193604,-0.53525316715240479,0.42384070158004761,0.86019879579544067,0.72065055370330811,-0.43048733472824097,0.018201336264610291,0.68587416410446167,-1,0.0057341568171977997],[0.04887067899107933,0.15061473846435547,-0.092383474111557007,-0.16087506711483002,1,0.29608118534088135,-0.98246896266937256,-0.5]],"inputCount":22,"hiddenCount":16,"outputCount":8},
{"marker2":false,"marker1":false,"weights":[[],[-1,-0.5931738018989563,0,0,0.49938303232192993,0,0,0,0.49969008564949036,0.39625254273414612,0,-0.23193950951099396,-0.19620130956172943,-0.48426169157028198,-0.073137179017066956,0.055905580520629883,0.033776469528675079,0.41248586773872375,-1,0,0.07458515465259552,0,0,-0.36150288581848145,0.41058829426765442,0,0.048537731170654297,0,-0.43432405591011047,0.55145531892776489,0,-0.97681659460067749,-0.74465209245681763,0.38851702213287354,-0.1013948917388916,-0.51457566022872925,0,0.95694273710250854,-0.84123367071151733,0.42576247453689575,0.67865252494812012,-0.72384762763977051,0.24475835263729095,0,-0.73340326547622681,0,0,-0.18275724351406097,-0.33542460203170776,-0.29969915747642517,0,0,0,-0.92251116037368774,0.24248313903808594,0.48462176322937012,0,0,-0.12437226623296738,-0.16821412742137909,-0.17673203349113464,0,0,0.64641910791397095,-1,0,0,-0.2887846827507019,0,-1,0.2914574146270752,0,-0.28302708268165588,0,-0.20481722056865692,0.48774120211601257,0.38506165146827698,-0.33130139112472534,0.3409830629825592,0,-0.24849802255630493,0,-0.16900384426116943,0.42848938703536987,0,0,0,0,1,0,0.48588648438453674,0.95802938938140869,0.21542572975158691,-0.21760666370391846,-0.37842381000518799,0.47604444622993469,0,0.41780900955200195,0,0.30194559693336487,1,0.96863335371017456,0,0.38988843560218811,0.42772889137268066,0,0.46748724579811096,0.25122976303100586,0,-0.27707904577255249,0.40347856283187866,0.3712659478187561,0,0,0.48160949349403381,0.1455463171005249,-0.34134066104888916,0,-0.50359082221984863,0,0.32365655899047852,0.28735655546188354,0,-0.911865234375,-0.27985519170761108,0.34165284037590027,0,0.41364783048629761,0.26082348823547363,0,0.48289090394973755,-0.3248029351234436,0,-0.26247134804725647,-0.21756482124328613,0,0.55089139938354492,1,-0.60656297206878662,-0.80583286285400391,0.39961498975753784,0.54664671421051025,-0.36193200945854187,0,0.53452664613723755,0,0,0,-0.60917037725448608,0,0.75455772876739502,0.32288956642150879,0,0.44618988037109375,-0.31752213835716248,0,-0.59254074096679688,-0.4384867250919342,-1,-0.33213099837303162,-1,-0.83010625839233398,-0.22830462455749512,-0.27891185879707336,0,0,0.30311673879623413,-1,-0.26097232103347778,0.28956335783004761,0.40885525941848755,-0.19612805545330048,0.31376099586486816,-0.052546795457601547,0,-0.75539851188659668,-0.13025757670402527,-0.33650979399681091,0,0,0,0.015251815319061279,-0.27035465836524963,0.60114306211471558,0.69263136386871338,0,0,-0.77090412378311157,0,0,0,-0.45129719376564026,0,-0.80870699882507324,0.4558565616607666,-1,0.11872315406799316,0,0.90016359090805054,-0.12675642967224121,-0.94606798887252808,0.14560312032699585,0,0,0.42136642336845398,0,0.39224603772163391,0.42523068189620972,0,-0.5575903058052063,0,0.26634681224822998,0.84739601612091064,0.29838404059410095,-0.45206591486930847,-0.42259600758552551,-0.52866142988204956,-0.31078881025314331,0.32534313201904297,0.67253983020782471,0.62185138463973999,0.87861818075180054,0,0.42940217256546021,0,0.061873782426118851,0,0.84800899028778076,0,0,0.2005494236946106,0,0,0,-0.37647527456283569,-0.39136239886283875,-0.37632569670677185,0.62983202934265137,-0.43213015794754028,0.44954636693000793,0.31651487946510315,-0.43356338143348694,0,-0.10011768341064453,-0.70491290092468262,0.304880291223526,-0.29557329416275024,0,0,0,0.48171225190162659,-0.79931914806365967,-0.70624208450317383,0,0,-0.32713505625724792,0,-0.46731430292129517,0.046092621982097626,-0.37737619876861572,-0.31275182962417603,0.79034233093261719,-0.44859448075294495,0.5755651593208313,0.58194410800933838,0,0.26079779863357544,0.77998030185699463,0.64617860317230225,-0.30282717943191528,0,-0.021405816078186035,0,0,0,0.26832127571105957,0,-0.344859778881073,1,0.018817465752363205,-0.50286030769348145,0.49441614747047424,0.30485805869102478,-0.38749933242797852,0,0.33650025725364685,0.1394188404083252,-0.79587197303771973,-0.26761829853057861,0.11495518684387207,0,0,0.80558311939239502,0,0,0,-0.61055415868759155,0,-0.20968273282051086,-0.30486369132995605,0.9857977032661438,0.32634800672531128,0,0.68133223056793213,0.5,0,0,0.48734259605407715,0.28840482234954834,0,-0.017129790037870407,0.69249808788299561,1,0,0,0,-0.66193109750747681,0,0.34545490145683289,-0.47898709774017334,-0.47037389874458313,-1,1,0,-0.4981461763381958,0.86835581064224243,0.088404200971126556,-0.98283612728118896,0.8180009126663208,0,0.44349539279937744,0.039166461676359177,0.35881006717681885,0,0,-0.71100234985351562,-0.17135553061962128,-0.17175877094268799,0.39264735579490662,0,1,0.32847708463668823,-0.16534464061260223,0,0,-0.0087064504623413086,-1,-0.95341038703918457,0,0,-0.76689910888671875,0],[-0.26893115043640137,0,0,-0.33757781982421875,-0.95961129665374756,-0.65731960535049438,0,-0.35350698232650757,0,-0.4652341902256012,0,0,0.55494391918182373,0.67023098468780518,0,0,0,0.63438248634338379,0,-0.52892458438873291,0,0,0.3393329381942749,0,0,0,0,0,0.19929321110248566,-0.13131928443908691,0.90157335996627808,0,-0.49002647399902344,-0.82243454456329346,1,0.42587441205978394,0,0.36981365084648132,0.30926719307899475,0.55735194683074951,0.84587836265563965,0,-0.1603725403547287,-0.39021110534667969,0,0,-0.043517708778381348,0.47456526756286621,0.4871445894241333,-0.58995270729064941,0.69056868553161621,-0.3325054943561554,-0.56191259622573853,-0.078457772731781006,0.81847071647644043,-0.70224761962890625,0.62326860427856445,0,-1,0.072816967964172363,0,-0.70120608806610107,0.82464730739593506,0.43101760745048523,0.85818278789520264,0.50836509466171265,-0.077886477112770081,0.82406437397003174,-0.86466300487518311,-0.4741656482219696,-0.9122617244720459,0.4551108181476593,0,-0.60113441944122314,0,0.40120097994804382,0.72632318735122681,-0.39786714315414429,-0.68338221311569214,-0.32812047004699707,-0.28722220659255981,0,0.14097142219543457,0.43209338188171387,0.96200060844421387,-1,0.383687824010849,-0.46237799525260925,0.30077770352363586,-0.98384034633636475,0.46563714742660522,0,-0.0068543120287358761,0,0.37185993790626526,-0.054853051900863647,0,0,0,0,-0.5,-0.19482779502868652,0.29785874485969543,-0.82068043947219849,0.43542778491973877,0,-0.066300414502620697,0.36801519989967346,0.4694308340549469,-0.18688514828681946,0,-1,0,-1,0,-0.393790602684021,-0.93619608879089355,0.33149734139442444,0.021619081497192383,-0.1464911550283432,0.31244692206382751,0.1561296284198761,0.54237735271453857,0.32334816455841064,-0.34216487407684326,-0.40862756967544556,0.22247767448425293,0.21668896079063416]],"id":"99594E2B-AA57-479E-9D55-D68AD1F48237","generation":197,"biases":[[],[-0.3172229528427124,-0.32400938868522644,1,-0.011852859519422054,0.86722201108932495,1,0.69761431217193604,-0.53525316715240479,0.42384070158004761,0.86019879579544067,0.72065055370330811,-0.43048733472824097,0.018201336264610291,0.68587416410446167,-1,0.0057341568171977997],[0.024435339495539665,0.15061473846435547,-0.092383474111557007,-0.16087506711483002,1,0.29608118534088135,-0.98246896266937256,-0.5]],"inputCount":22,"hiddenCount":16,"outputCount":8},
{"marker2":false,"marker1":false,"weights":[[],[-1,-0.5931738018989563,0,0,0.49938303232192993,0,0,0,0.49969008564949036,0.39625254273414612,0,-0.23193950951099396,-0.19620130956172943,-0.48426169157028198,-0.073137179017066956,0.055905580520629883,0.41691595315933228,0.41248586773872375,-1,0,0.07458515465259552,0,0,-0.36150288581848145,0.82117658853530884,0,0.048537731170654297,0,-0.43432405591011047,0.55145531892776489,0,-0.97681659460067749,-0.74465209245681763,0.38851702213287354,-0.1013948917388916,-0.51457566022872925,0,0.95694273710250854,-0.84123367071151733,0.42576247453689575,0.67865252494812012,-0.72384762763977051,0.24475835263729095,0,-0.26130419969558716,0,0,-0.18275724351406097,-0.33542460203170776,-0.61559569835662842,0,0,0,-0.92251116037368774,0.24248313903808594,0.48462176322937012,0,0,-0.12437226623296738,-0.16821412742137909,-0.17673203349113464,0,0,0.64641910791397095,-1,0,0,-0.2887846827507019,0,-1,0.2914574146270752,0,-0.28302708268165588,0,-0.20481722056865692,0.48774120211601257,0.38506165146827698,-0.33130139112472534,0.3409830629825592,0,-0.24849802255630493,0,-0.16900384426116943,0.42848938703536987,0,0,0,0,1,0,0.48588648438453674,0.95802938938140869,0.21542572975158691,-0.21760666370391846,-0.37842381000518799,0.47604444622993469,0,0.41780900955200195,0,0.30194559693336487,1,0.96863335371017456,0,0.38988843560218811,0.42772889137268066,0,0.46748724579811096,0.25122976303100586,0,-0.27707904577255249,0.40347856283187866,0.3712659478187561,0,0,0.48160949349403381,0.1455463171005249,0,0,-0.50359082221984863,0,0.32365655899047852,0.28735655546188354,0,-0.911865234375,-0.27985519170761108,0.34165284037590027,0,0.41364783048629761,0.26082348823547363,0,0.48289090394973755,-0.3248029351234436,0,-0.26247134804725647,-0.21756482124328613,0,0.55089139938354492,1,-0.60656297206878662,-0.80583286285400391,0.39961498975753784,0.54664671421051025,0,0,0.53452664613723755,0,0,0,-0.60917037725448608,0,0.75455772876739502,0.32288956642150879,0,0.44618988037109375,-0.31752213835716248,0,-0.59254074096679688,-0.4384867250919342,-1,-0.33213099837303162,-1,-0.83010625839233398,-0.22830462455749512,-0.27891185879707336,0,0,0.30311673879623413,-1,-0.26097232103347778,0.28956335783004761,0.40885525941848755,-0.39225611090660095,0.31376099586486816,-0.052546795457601547,0,-0.75539851188659668,-0.13025757670402527,-0.33650979399681091,0,0,0,0.015251815319061279,-0.27035465836524963,0.60114306211471558,0.69263136386871338,0,-0.21043466031551361,-0.77090412378311157,0,0,0,-0.45129719376564026,0,-0.80870699882507324,0.4558565616607666,-1,0.11872315406799316,0,0.90016359090805054,-0.12675642967224121,-0.94606798887252808,0.14560312032699585,0,0,0.42136642336845398,0,0.39224603772163391,0.42523068189620972,0,-0.5575903058052063,0,0.26634681224822998,0.84739601612091064,0.29838404059410095,-0.45206591486930847,-0.42259600758552551,-0.52866142988204956,-0.31078881025314331,0.32534313201904297,0.67253983020782471,0.62185138463973999,0.87861818075180054,0,0.42940217256546021,0,0.061873782426118851,0,0.84800899028778076,0,0,0.2005494236946106,0,0,0,-0.37647527456283569,0,-0.37632569670677185,0.62983202934265137,-0.43213015794754028,0.44954636693000793,0.31651487946510315,-0.43356338143348694,0,-0.10011768341064453,-0.70491290092468262,0.304880291223526,-0.29557329416275024,0,0,0,0,-0.79931914806365967,-0.70624208450317383,0,0,0.003133418969810009,0,-0.46731430292129517,0.046092621982097626,-0.37737619876861572,-0.31275182962417603,0.79034233093261719,-0.44859448075294495,0.5755651593208313,0.58194410800933838,0,0.26079779863357544,0.77998030185699463,-0.068282246589660645,-0.30282717943191528,0,-0.021405816078186035,0,0,0,0.26832127571105957,0,-0.344859778881073,1,0.018817465752363205,-0.50286030769348145,0.49441614747047424,0.30485805869102478,-0.38749933242797852,0,0.33650025725364685,0.1394188404083252,-0.79587197303771973,-0.26761829853057861,0.11495518684387207,0,0,0.80558311939239502,0,0,0,-0.61055415868759155,0,-0.20968273282051086,-0.30486369132995605,0.4928988516330719,0.32634800672531128,0,0.68133223056793213,0.5,0,0.99828338623046875,0.48734259605407715,0.28840482234954834,0,-0.017129790037870407,0.69249808788299561,1,0,0,0,-0.66193109750747681,0,0.34545490145683289,-0.47898709774017334,-0.47037389874458313,-1,1,0,-0.4981461763381958,0.86835581064224243,0.088404200971126556,-0.98283612728118896,0.8180009126663208,0,0.44349539279937744,0.039166461676359177,0.35881006717681885,0,0,-0.71100234985351562,-0.17135553061962128,-0.17175877094268799,0.39264735579490662,0,1,0.32847708463668823,-0.16534464061260223,0,0,-0.0087064504623413086,-1,-0.95341038703918457,0,0,-0.76689910888671875,0],[-0.26893115043640137,0,0,-0.33757781982421875,-0.95961129665374756,-0.65731960535049438,0,-0.35350698232650757,0,-0.4652341902256012,0,0,0.55494391918182373,0.67023098468780518,0,0,0,0.63438248634338379,0,-0.52892458438873291,0,0,0.3393329381942749,0,0,0,0,0,0.19929321110248566,0.3447929322719574,0.56610041856765747,0,-0.49002647399902344,-0.44272717833518982,1,0.42587441205978394,0,0.36981365084648132,0.30926719307899475,0.55735194683074951,0.84587836265563965,0,-0.1603725403547287,-0.39021110534667969,0,0,-0.043517708778381348,0.47456526756286621,0.061193834990262985,-0.58995270729064941,0.69056868553161621,-0.3325054943561554,-0.56191259622573853,-0.078457772731781006,0.81847071647644043,-0.70224761962890625,0.62326860427856445,0,-1,0.072816967964172363,0,-0.70120608806610107,0.82464730739593506,0.43101760745048523,0.40116414427757263,0.50836509466171265,-0.077886477112770081,0.82406437397003174,-0.86466300487518311,-0.4741656482219696,-0.9122617244720459,0.4551108181476593,0,-0.60113441944122314,0,0.40120097994804382,1,-0.39786714315414429,-1,-0.32812047004699707,-0.28722220659255981,0,0.14097142219543457,0.43209338188171387,0.96200060844421387,-1,0.383687824010849,-0.46237799525260925,0.30077770352363586,-0.98384034633636475,0.46563714742660522,0,-0.0068543120287358761,0,0.37185993790626526,-0.054853051900863647,0,0,0,0,-1,-0.19482779502868652,-0.91451513767242432,-0.82068043947219849,0.43542778491973877,0,-0.066300414502620697,0.36801519989967346,0.4694308340549469,-0.18688514828681946,0,-1,0,-0.89550220966339111,0,-0.393790602684021,-0.93619608879089355,0.33149734139442444,0.021619081497192383,-0.1464911550283432,0.31244692206382751,0.1561296284198761,0.54237735271453857,0.32334816455841064,-0.34216487407684326,-0.40862756967544556,0.22247767448425293,0.21668896079063416]],"id":"173CE72A-979A-47CC-A904-328FE36A9E7B","generation":196,"biases":[[],[0.25858369469642639,-0.32400938868522644,0.80009686946868896,-0.011852859519422054,0.86722201108932495,1,0.69761431217193604,-0.53525316715240479,0.42384070158004761,0.86019879579544067,0.72065055370330811,-0.43048733472824097,0.018201336264610291,0.68587416410446167,-1,0.0057341568171977997],[0.04887067899107933,0.12801925837993622,-0.092383474111557007,-0.16087506711483002,1,0.29608118534088135,-0.98246896266937256,-0.5]],"inputCount":22,"hiddenCount":16,"outputCount":8},
{"marker2":false,"marker1":false,"weights":[[],[-1,-0.5931738018989563,0,0,0.49938303232192993,0,0,0,0.49969008564949036,0.39625254273414612,0,-0.23193950951099396,-0.19620130956172943,-0.48426169157028198,-0.073137179017066956,0.055905580520629883,0.033776469528675079,0.41248586773872375,-1,0,0.07458515465259552,0,0,-0.36150288581848145,0.41058829426765442,0,0.048537731170654297,0,-0.43432405591011047,0.55145531892776489,0,-0.97681659460067749,-0.74465209245681763,0.38851702213287354,-0.1013948917388916,-0.51457566022872925,0,1,-0.84123367071151733,0.42576247453689575,0.67865252494812012,-0.72384762763977051,0.24475835263729095,0,-0.26130419969558716,0,0,-0.18275724351406097,-0.33542460203170776,-0.29969915747642517,0,0,0,-0.92251116037368774,0.24248313903808594,0.48462176322937012,0,0,-0.12437226623296738,-0.16821412742137909,-0.17673203349113464,0,0,0.64641910791397095,-1,0,0,-0.2887846827507019,0,-1,0.2914574146270752,0,-0.28302708268165588,0,-0.20481722056865692,0.48774120211601257,0.38506165146827698,-0.33130139112472534,0.3409830629825592,0,-0.24849802255630493,0,-0.16900384426116943,0.42848938703536987,0,0,0,0,1,0,0.48588648438453674,0.95802938938140869,0.21542572975158691,-0.21760666370391846,-0.37842381000518799,0.47604444622993469,0,0.41780900955200195,0,0.30194559693336487,1,0.96863335371017456,0,0.38988843560218811,0.42772889137268066,0,0.46748724579811096,0.25122976303100586,0,-0.27707904577255249,0.40347856283187866,0.3712659478187561,0,0,0.48160949349403381,0.1455463171005249,-0.34134066104888916,0,-0.50359082221984863,0,0.32365655899047852,0.28735655546188354,0,-0.911865234375,-0.27985519170761108,0.34165284037590027,0,0.41364783048629761,0.26082348823547363,0,0.48289090394973755,-0.3248029351234436,0,-0.26247134804725647,-0.21756482124328613,0,0.55089139938354492,1,-0.60656297206878662,-0.80583286285400391,0.39961498975753784,0.54664671421051025,-0.36193200945854187,0,0.53452664613723755,0,0,0,-0.60917037725448608,0,0.75455772876739502,0.32288956642150879,0,0.44618988037109375,-0.31752213835716248,0,-0.59254074096679688,-0.4384867250919342,-1,-0.33213099837303162,-1,-0.83010625839233398,-0.22830462455749512,-0.27891185879707336,0,0,0.30311673879623413,-1,-0.26097232103347778,0.28956335783004761,0.40885525941848755,-0.19612805545330048,0.31376099586486816,-0.052546795457601547,0,-0.75539851188659668,-0.13025757670402527,-0.33650979399681091,0,0,0,0.015251815319061279,-0.27035465836524963,0.60114306211471558,0.69263136386871338,0,0,-0.77090412378311157,0,0,0,-0.45129719376564026,0,-0.80870699882507324,0.4558565616607666,-1,0.11872315406799316,0,0.90016359090805054,-0.12675642967224121,-0.94606798887252808,0.14560312032699585,0,0,0.42136642336845398,0,0.39224603772163391,0.42523068189620972,0,-0.5575903058052063,0,0.26634681224822998,0.84739601612091064,0.29838404059410095,-0.45206591486930847,-0.42259600758552551,-0.52866142988204956,-0.31078881025314331,0.32534313201904297,0.67253983020782471,0.62185138463973999,0.87861818075180054,0,0.42940217256546021,0,0.061873782426118851,0,0.84800899028778076,0,0,0.2005494236946106,0,0,0,-0.37647527456283569,-0.39136239886283875,-0.37632569670677185,0.62983202934265137,-0.43213015794754028,0.44954636693000793,0.31651487946510315,-0.43356338143348694,0,-0.10011768341064453,-0.70491290092468262,0.304880291223526,-0.29557329416275024,0,0,0,0.48171225190162659,-0.79931914806365967,-0.70624208450317383,0,0,-0.32713505625724792,0,-0.46731430292129517,0.046092621982097626,-0.37737619876861572,-0.31275182962417603,0.79034233093261719,-0.44859448075294495,0.5755651593208313,0.58194410800933838,0,0.26079779863357544,0.77998030185699463,0.64617860317230225,-0.30282717943191528,0,-0.021405816078186035,0,0,0,0.26832127571105957,0,-0.344859778881073,1,0.018817465752363205,-0.50286030769348145,0.49441614747047424,0.30485805869102478,-0.38749933242797852,0,0.33650025725364685,0.1394188404083252,-0.79587197303771973,-0.26761829853057861,0.11495518684387207,0,0,0.80558311939239502,0,0,0,-0.61055415868759155,0,-0.20968273282051086,-0.30486369132995605,0.9857977032661438,0.32634800672531128,0,0.68133223056793213,0.5,0,0,0.48734259605407715,0.28840482234954834,0,-0.017129790037870407,0.69249808788299561,0.87481462955474854,0.36805319786071777,0,0,-0.66193109750747681,0,0.34545490145683289,-0.47898709774017334,-0.47037389874458313,-1,1,0,-0.4981461763381958,0.86835581064224243,0.088404200971126556,-0.98283612728118896,0.39558795094490051,0,0.44349539279937744,0.039166461676359177,0.35881006717681885,0,0,-0.71100234985351562,-0.17135553061962128,-0.17175877094268799,0.39264735579490662,0,1,0.32847708463668823,-0.16534464061260223,0,0,-0.0087064504623413086,-1,-0.95341038703918457,0,0,-0.76689910888671875,0],[-0.26893115043640137,0,0,-0.33757781982421875,-0.95961129665374756,-0.65731960535049438,0,-0.35350698232650757,0,-0.4652341902256012,0,0,0.55494391918182373,0.67023098468780518,0,0,0,0.63438248634338379,0,-0.52892458438873291,0,0,0.3393329381942749,0,0,0,0,0,0.19929321110248566,0.3447929322719574,0.56610041856765747,0,-0.49002647399902344,-0.82243454456329346,1,0.42587441205978394,0,0.36981365084648132,0.30926719307899475,0.55735194683074951,0.84587836265563965,0,-0.1603725403547287,-0.39021110534667969,0,0,-0.043517708778381348,0.47456526756286621,0.4871445894241333,-0.58995270729064941,0.69056868553161621,-0.3325054943561554,-0.56191259622573853,-0.078457772731781006,0.81847071647644043,-0.70224761962890625,0.62326860427856445,0,-1,0.072816967964172363,0,-0.70120608806610107,0.82464730739593506,0.43101760745048523,0.85818278789520264,0.50836509466171265,-0.077886477112770081,0.82406437397003174,-0.86466300487518311,-0.4741656482219696,-0.9122617244720459,0.4551108181476593,0,-0.60113441944122314,0,0.40120097994804382,0.72632318735122681,-0.39786714315414429,-1,-0.32812047004699707,-0.28722220659255981,0,0.14097142219543457,0.43209338188171387,0.96200060844421387,-1,0.383687824010849,-0.46237799525260925,0.30077770352363586,-0.98384034633636475,0.46563714742660522,0,-0.0068543120287358761,0,0.37185993790626526,-0.054853051900863647,0,0,0,0,-0.5,-0.19482779502868652,0.29785874485969543,-0.82068043947219849,0.43542778491973877,0,-0.066300414502620697,0.36801519989967346,0.4694308340549469,-0.18688514828681946,0,-1,0,-1,0,-0.393790602684021,-0.93619608879089355,0.33149734139442444,0.021619081497192383,-0.1464911550283432,0.31244692206382751,0.1561296284198761,0.54237735271453857,0.32334816455841064,-0.34216487407684326,-0.40862756967544556,0.22247767448425293,0.21668896079063416]],"id":"CD003DC8-A31D-428E-B6E2-CE2D56FD8CE6","generation":197,"biases":[[],[-0.3172229528427124,-0.32400938868522644,1,-0.011852859519422054,0.86722201108932495,1,0.69761431217193604,-0.53525316715240479,0.42384070158004761,0.86019879579544067,0.72065055370330811,-0.43048733472824097,0.018201336264610291,0.68587416410446167,-1,0.0057341568171977997],[0.04887067899107933,0.15061473846435547,-0.092383474111557007,-0.16087506711483002,1,0.29608118534088135,-0.98246896266937256,-0.5]],"inputCount":22,"hiddenCount":16,"outputCount":8},
