
[
{"biases":[[],[-0.3776700496673584,-1.833712100982666,-0.37125086784362793,0.32024550437927246,0.71812772750854492,-0.48838901519775391,0.73739850521087646,-1.4733412265777588,-1.5428318977355957,0.69514966011047363,1.670046329498291,1.1328301429748535,-1.709080696105957,-0.14306354522705078],[1.4713890552520752,2,1.2849874496459961,0.87286734580993652,2,1.477888822555542,-1.4291903972625732,0.91938585042953491],[1.0692561864852905,1.378171443939209,-0.77654051780700684,-0.34017443656921387,1.4122612476348877,-2,0.096996188163757324,-1.9100980758666992]],"weights":[[],[1.0801959037780762,0.14160609245300293,-0.99241542816162109,0.94793438911437988,-0.16161990165710449,-0.3174898624420166,0.19055342674255371,-1.975374698638916,-1.4165120124816895,0.1236114501953125,0.2964935302734375,-0.021707296371459961,1.8922724723815918,1.0309576988220215,0.89687037467956543,-0.56938958168029785,1.8445913791656494,0.24226021766662598,0.86316704750061035,-1.101830005645752,1.6430375576019287,0.60537099838256836,-0.077874898910522461,0.51173758506774902,1.6180419921875,1.1497507095336914,-0.31500768661499023,-0.80148434638977051,-1.4411652088165283,1.2685616016387939,-1.7266991138458252,0.67814373970031738,-0.72104382514953613,1.8608214855194092,-0.57137084007263184,0.83499383926391602,-1.847987174987793,-0.46388936042785645,1.6688394546508789,-0.92549872398376465,0.2072293758392334,0.50612401962280273,0.80217289924621582,1.7680401802062988,-0.79685664176940918,-1.9838254451751709,0.56799030303955078,1.432938814163208,1.7771227359771729,1.0490913391113281,-1.9655458927154541,-0.35324907302856445,-0.40124964714050293,1.485867977142334,-0.86753201484680176,-1.7330877780914307,-0.097246408462524414,-1.7919912338256836,-1.4395194053649902,-1.0170578956604004,-0.12989401817321777,-1.5895736217498779,1.6515955924987793,-0.16557121276855469,-1.6787936687469482,-0.35519576072692871,-1.7054586410522461,1.7679369449615479,0.077194929122924805,-1.1105239391326904,0.10492181777954102,1.036874532699585,-0.33907318115234375,-0.81331300735473633,1.4924969673156738,-1.7589366436004639,-0.30078864097595215,0.14169001579284668,-1.8950986862182617,0.21446871757507324,-1.9702987670898438,0.97097587585449219,1.6133568286895752,1.2644715309143066,1.9799141883850098,-1.9736502170562744,-0.44828462600708008,-0.087630033493041992,0.4807436466217041,-1.2749133110046387,-1.1331043243408203,0.86200094223022461,0.11436200141906738,-1.2644896507263184,1.1852257251739502,-1.1779336929321289,-1.5756168365478516,-1.0386712551116943,0.76824712753295898,-1.4342374801635742,-1.4209074974060059,1.6064872741699219,0.44295525550842285,1.620563268661499,-1.3125081062316895,0.055468320846557617,-0.95768046379089355,-0.41095447540283203,0.32650232315063477,0.040200710296630859,0.43655705451965332,-0.071339607238769531,-1.0885715484619141,1.2607696056365967,-1.3602902889251709,1.8979969024658203,0.24835920333862305,-1.3944249153137207,1.8262312412261963,1.0826563835144043,1.0237569808959961,-1.6030347347259521,0.08381962776184082,-1.7420251369476318,-1.2702152729034424,-0.92230510711669922,1.7121908664703369,0.41104507446289062,1.9275476932525635,0.12553024291992188,1.6328060626983643,1.4010026454925537,0.344573974609375,1.4867165088653564,-0.5357365608215332,0.57431364059448242,-0.35314559936523438,-0.50191378593444824,1.9051065444946289,1.4022285938262939,-0.087909936904907227,1.0465099811553955,0.98480844497680664,0.23462653160095215,0.87580156326293945,0.020162105560302734,0.094567537307739258,-1.1960492134094238,-1.4646077156066895,0.47593092918395996,-1.287813663482666,0.49067807197570801,-1.6191606521606445,-1.5661160945892334,1.8351640701293945,-1.0632047653198242,1.1779425144195557,-2,0.98213696479797363,-0.31227421760559082,0.7333681583404541,0.79775452613830566,0.72039222717285156,1.3632242679595947,-0.80986380577087402,-1.8573424816131592,0.69119358062744141,-1.1277256011962891,1.7886807918548584,-1.7286081314086914,1.846444845199585,2,0.73364090919494629,1.2426385879516602,0.68764925003051758,0.4676051139831543,0.89595341682434082,-1.7993664741516113,-0.40435194969177246,-1.3579180240631104,-0.29098653793334961,1.7417538166046143,1.9364392757415771,-1.4207813739776611,0.51596736907958984,1.7134380340576172,1.1975302696228027,-0.091619491577148438,-0.66557168960571289,-1.4222488403320312,1.6437017917633057,-1.1226401329040527,-0.70748209953308105,-0.60085010528564453,1.5873112678527832,-1.6082189083099365,-1.032696008682251,0.33410334587097168,1.6691958904266357,0.43472409248352051,-0.1363217830657959,1.5170409679412842,0.38086676597595215,-1.7147703170776367,-0.56680774688720703,-1.7219200134277344,-1.7421855926513672,1.939927339553833,-0.017369508743286133,-0.50049448013305664,-1.3918330669403076,1.9842166900634766,1.1493446826934814,0.74636530876159668,-1.6325476169586182,-1.0912222862243652,1.7037239074707031,-1.0673151016235352,0.94887471199035645,-1.3516767024993896,-0.082751274108886719,1.4908058643341064,-1.0707638263702393,-0.43822121620178223,-1.0597636699676514,-0.8780057430267334,0.55065035820007324,-0.68777155876159668,0.76222586631774902,-0.73825192451477051,-0.57707881927490234,-1.2261614799499512,1.0314483642578125,-0.9437413215637207,0.75580048561096191,-1.0740551948547363,-0.60165953636169434,0.82534599304199219,1.5410475730895996,1.1467490196228027,-1.775822639465332,0.19715189933776855,1.7807033061981201,0.70117670297622681,1.2570638656616211,-0.78539276123046875,-0.9065403938293457,-1.4117393493652344,-0.54586005210876465,-1.6520648002624512,-1.0840983390808105,-0.65050029754638672,0.1034853458404541,-1.2373285293579102,-1.6474258899688721,0.2842261791229248,1.8766350746154785,0.44577336311340332,-0.10404133796691895,-0.23101806640625,-2,-0.90384244918823242,-0.03094935417175293,0.46174979209899902,-0.23224544525146484,1.7755773067474365,0.24345064163208008,-0.054523706436157227,-0.54727387428283691,0.79769730567932129,-1.0919523239135742,1.0380203723907471,-1.6040537357330322,-0.87680578231811523,-1.556891918182373,0.71040987968444824,1.5397007465362549,-1.4387869834899902,0.37643718719482422,1.6043136119842529,0.18396806716918945,-1.8236844539642334,-0.66272139549255371,-1.1014394760131836,1.9904117584228516,-0.62373924255371094,-1.1045095920562744,1.0282697677612305,-0.57850170135498047,-1.9258716106414795,-0.62170553207397461,-1.1719121932983398,-1.3547415733337402,1.0271060466766357,1.6029863357543945,1.9532272815704346,-0.5028679370880127,1.3311028480529785,-0.59977602958679199,1.977686882019043,-1.8821661472320557,-0.18080997467041016,-1.1079256534576416,-1.4772703647613525,-1.881688117980957,1.7104568481445312,-0.15009188652038574,1.7534682750701904,0.7949368953704834,1.1702017784118652,1.3412883281707764,1.8944435119628906,0.91752082109451294,0.69130945205688477,-1.6598222255706787,0.47124600410461426,1.954993724822998,0.045535802841186523,-0.27501630783081055,-1.8696272373199463,0.12049961090087891,-1.9355552196502686,-0.1708768755197525,1.9225375652313232,1.5955133438110352,-1.6887006759643555,0.022777318954467773,-0.57734775543212891,0.47524070739746094,-1.5712382793426514,-1.4504885673522949,0.72275924682617188,0.71063864231109619,-0.010771512985229492,0.60575318336486816,0.95466446876525879,-1.3138606548309326,-1.7270262241363525,-0.96168851852416992,1.3439345359802246,-0.48427200317382812,1.6504707336425781,1.2282054424285889,-0.13558673858642578,1.3873867988586426,1.5527386665344238,0.66348958015441895,0.91704607009887695,-0.15557408332824707,1.3733987808227539,0.71817922592163086,0.88243460655212402,-0.94154810905456543,0.59506011009216309,1.8303756713867188,1.6735086441040039,1.0115728378295898,1.5164921283721924,1.1308841705322266,0.88543891906738281,1.3064992427825928,0.59628748893737793,-1.6506667137145996,0.15629076957702637,-0.86847925186157227,1.8014266490936279,2,1.7934942245483398,-1.4673652648925781,-0.40692305564880371,-1.5556559562683105,1.9300177097320557,-1.1845159530639648,-1.8443927764892578,0.99296808242797852,-0.1128239631652832,-0.69205379486083984,1.5384731292724609,0.2825920581817627,0.96451497077941895,-1.055086612701416,0.45701074600219727,1.8095369338989258,-0.010573387145996094,1.2858970165252686,-0.52220630645751953,-1.5535304546356201,1.9904050827026367,-0.74200677871704102,-0.77032709121704102,-1.2584090232849121,1.8124904632568359,1.8353872299194336,1.5571005344390869,-1.4023315906524658,0.43745183944702148,-0.67313694953918457,0.50162029266357422,0.54188799858093262,-1.2182223796844482,-1.0969414710998535,1.9309749603271484,0.84055066108703613,0.6566779613494873,1.2873063087463379,-0.53114175796508789,-1.5234708786010742,1.8953483104705811,0.53251838684082031,-1.5161633491516113,0.30715036392211914,-1.8976263999938965,-0.99678492546081543,1.6137180328369141,0.087108612060546875,-0.51905536651611328,-1.9062371253967285,1.6057014465332031,-1.2536909580230713,-0.79396533966064453],[-0.31613063812255859,1.5569241046905518,-1.7208783626556396,-1.5565865039825439,-0.57538890838623047,0.18757724761962891,1.7893993854522705,-1.6488800048828125,1.1655111312866211,0.41957211494445801,1.902651309967041,0.32399916648864746,-0.14884448051452637,0.05282282829284668,1.3932037353515625,-1.0321217775344849,1.6547911167144775,-0.2667388916015625,1.6704487800598145,-1.4342186450958252,-1.5581977367401123,-1.2696962356567383,-0.69220232963562012,0.58034682273864746,-1.4260613918304443,-1.0978944301605225,0.27200746536254883,0.5477144718170166,1.6897292137145996,-0.38142824172973633,0.29790663719177246,-1.1688206195831299,-1.9634521007537842,-1.8717975616455078,0.036926507949829102,0.31732916831970215,1.9051344394683838,-1.147671103477478,-0.29402256011962891,1.9102652072906494,1.0219171047210693,-0.52973532676696777,-1.9544336795806885,-1.9373810291290283,0.12758564949035645,1.0053348541259766,0.87469577789306641,0.96996569633483887,1.5573604106903076,0.16643118858337402,1.8044012784957886,1.8928782939910889,-0.32668542861938477,0.89144420623779297,1.3818936347961426,1.2437965869903564,0.93113398551940918,-0.77564287185668945,0.95928382873535156,-1.7734553813934326,-0.8714909553527832,1.6614770889282227,0.93465185165405273,1.4629771709442139,-0.17507767677307129,-0.43170928955078125,0.10484409332275391,-0.6935272216796875,0.14287590980529785,0.040486812591552734,0.091954469680786133,2,0.23743581771850586,-0.41959106922149658,-1.5837488174438477,-0.97208422422409058,1.5043127536773682,-0.4569404125213623,-1.0795620679855347,-1.6510300636291504,0.19208574295043945,0.80331683158874512,0.1703345775604248,-0.84067773818969727,1.3311014175415039,0.074866294860839844,-1.5368359088897705,-1.3258056640625,0.23318862915039062,0.54654169082641602,1.6232297420501709,1.0373239517211914,0.44639277458190918,0.75650691986083984,-1.0445268154144287,1.2158684730529785,-0.82730841636657715,1.6247467994689941,-1.5825753211975098,1.8348429203033447,1.0551507472991943,0.28882980346679688,-1.3457539081573486,0.79501605033874512,1.4402563571929932,-0.52184104919433594,0.19664144515991211,1.5914658308029175,-0.93936276435852051,1.6536400318145752,0.18969784677028656,1.7218258380889893],[-0.098463535308837891,0.054607748985290527,1.63018798828125,0.58022832870483398,0.94491952657699585,-0.33414125442504883,-1.8337850570678711,0.46766471862792969,-0.21898388862609863,-1.2484340667724609,-1.6150641441345215,-2,1.2816283702850342,1.0497241020202637,-0.32040166854858398,1.9894897937774658,1.4525620937347412,-0.33953142166137695,-1.6692829132080078,0.3235023021697998,-1.8676784038543701,-0.21475410461425781,1.0985863208770752,1.2733492851257324,1.5758185386657715,2,-0.61436915397644043,1.5729548931121826,1.3561484813690186,-0.26777410507202148,1.0568611621856689,-1.5225462913513184,1.2485740184783936,-1.7471203804016113,-0.24635004997253418,-0.78202438354492188,1.2048182487487793,0.094153404235839844,-1.3567078113555908,0.28126287460327148,0.010188579559326172,-0.66966438293457031,1.4781839847564697,0.30976080894470215,0.29358756542205811,-0.0039286613464355469,-0.95188426971435547,0.50921487808227539,-0.031955480575561523,1.7573933601379395,-1.6630208492279053,0.76950931549072266,1.6848843097686768,-1.2314670085906982,-0.1667456179857254,0.54530453681945801,1.6778782606124878,-1.8315815925598145,-1.0341997146606445,0.4073944091796875,0.32464194297790527,-1.1479218006134033,-0.91170024871826172,-1.9773945808410645]],"id":"3C3AF78E-A44E-4AFE-AA66-EC59DD231B75","generation":28,"hiddenCounts":[14,8],"inputCount":30,"outputCount":8},
{"biases":[[],[-0.7553400993347168,-2,-0.37125086784362793,0.32024550437927246,0.71812772750854492,-0.48838901519775391,1.3781869411468506,-1.4733412265777588,-1.5428318977355957,0.69514966011047363,1.670046329498291,1.1328301429748535,-2,-0.14306354522705078],[-1.1640539169311523,1.0113685131072998,1.133049488067627,0.15640807151794434,0.28572273254394531,1.8638730049133301,-1.4291903972625732,1.1702888011932373],[2,1.7346127033233643,-1.1109846830368042,-0.34017443656921387,1.4122612476348877,-2,0.3879847526550293,-0.54518914222717285]],"weights":[[],[1.0801959037780762,0.14160609245300293,-0.99241542816162109,0.94793438911437988,-0.16161990165710449,-0.3174898624420166,-0.26236632466316223,-1.975374698638916,-1.4165120124816895,0.1236114501953125,0.2964935302734375,-0.021707296371459961,1.8922724723815918,1.0309576988220215,0.89687037467956543,-0.56938958168029785,1.8445913791656494,0.24226021766662598,0.86316704750061035,-1.101830005645752,1.6430375576019287,0.60537099838256836,-0.077874898910522461,1.1903276443481445,1.6180419921875,1.1497507095336914,-0.31500768661499023,-0.80148434638977051,-1.4411652088165283,1.2685616016387939,-1.7266991138458252,0.67814373970031738,-0.72104382514953613,1.8608214855194092,-0.57137084007263184,0.83499383926391602,-1.847987174987793,-0.46388936042785645,1.6688394546508789,-0.92549872398376465,0.2072293758392334,0.50612401962280273,0.80217289924621582,1.7680401802062988,-0.79685664176940918,-1.9838254451751709,0.56799030303955078,1.432938814163208,1.7771227359771729,1.0490913391113281,-1.4752633571624756,-0.35324907302856445,-0.40124964714050293,1.485867977142334,-0.86753201484680176,-1.7330877780914307,-0.097246408462524414,-1.7919912338256836,-1.4395194053649902,-1.0170578956604004,-0.12989401817321777,-1.5895736217498779,-1.2517790794372559,-0.16557121276855469,-1.6787936687469482,-0.35519576072692871,-1.7054586410522461,1.7679369449615479,0.077194929122924805,-1.1105239391326904,0.10492181777954102,1.036874532699585,-0.33907318115234375,-0.81331300735473633,1.4924969673156738,-1.7589366436004639,-0.30078864097595215,0.14169001579284668,-1.8950986862182617,0.21446871757507324,-1.5643088817596436,0.97097587585449219,1.6133568286895752,1.2644715309143066,1.9799141883850098,-1.9736502170562744,-0.44828462600708008,-0.087630033493041992,0.4807436466217041,-1.2749133110046387,-1.1331043243408203,0.86200094223022461,0.11436200141906738,-1.2644896507263184,1.1852257251739502,-1.1779336929321289,-1.5756168365478516,-1.0386712551116943,0.76824712753295898,-1.4342374801635742,-1.4209074974060059,1.6064872741699219,0.44295525550842285,1.620563268661499,-1.3125081062316895,0.027734160423278809,-0.95768046379089355,-0.41095447540283203,0.32650232315063477,0.080401420593261719,0.43655705451965332,-0.071339607238769531,-1.5258387327194214,1.2607696056365967,-1.3602902889251709,1.8979969024658203,0.24835920333862305,-1.3944249153137207,1.8262312412261963,1.0826563835144043,1.0237569808959961,-1.6030347347259521,0.08381962776184082,-1.7420251369476318,-1.2702152729034424,-0.92230510711669922,1.2555088996887207,0.82209014892578125,1.9275476932525635,0.12553024291992188,1.6328060626983643,1.4010026454925537,0.344573974609375,1.4867165088653564,-0.5357365608215332,0.57431364059448242,-0.35314559936523438,-0.50191378593444824,1.9051065444946289,1.4022285938262939,-0.087909936904907227,1.0465099811553955,0.98480844497680664,-0.23758706450462341,0.87580156326293945,0.020162105560302734,0.094567537307739258,-1.1960492134094238,-1.4646077156066895,0.47593092918395996,-1.287813663482666,0.49067807197570801,-1.6191606521606445,-1.5661160945892334,1.8351640701293945,-1.0632047653198242,1.1779425144195557,-1.9486386775970459,0.98213696479797363,-0.31227421760559082,0.7333681583404541,0.79775452613830566,0.72039222717285156,1.3632242679595947,-0.80986380577087402,-1.8573424816131592,0.69119358062744141,-0.56386280059814453,1.7886807918548584,-1.7286081314086914,1.846444845199585,1.7561914920806885,0.73364090919494629,1.2426385879516602,0.68764925003051758,0.4676051139831543,0.89595341682434082,-1.7993664741516113,-0.40435194969177246,-1.3579180240631104,-0.29098653793334961,1.7417538166046143,1.9364392757415771,-1.4207813739776611,0.51596736907958984,1.7134380340576172,1.1975302696228027,-0.091619491577148438,-0.66557168960571289,-1.4222488403320312,1.6437017917633057,-1.1226401329040527,-0.70748209953308105,-0.60085010528564453,1.5873112678527832,-1.6082189083099365,-1.032696008682251,0.33410334587097168,1.6691958904266357,0.43472409248352051,-0.1363217830657959,1.5170409679412842,-0.10992904007434845,-1.7147703170776367,-0.56680774688720703,-1.7219200134277344,-1.7421855926513672,1.939927339553833,-0.017369508743286133,-0.50049448013305664,-1.3918330669403076,1.9842166900634766,1.1493446826934814,0.74636530876159668,-1.6325476169586182,-1.0912222862243652,1.7037239074707031,-1.0673151016235352,0.94887471199035645,-1.3516767024993896,-0.082751274108886719,1.4908058643341064,-1.402961254119873,-0.43822121620178223,-1.0597636699676514,-0.8780057430267334,0.55065035820007324,-1.1189190149307251,0.76222586631774902,-0.73825192451477051,-0.57707881927490234,-1.5689083337783813,1.0314483642578125,-0.9437413215637207,1.5116009712219238,-1.0740551948547363,-0.60165953636169434,0.82534599304199219,1.5410475730895996,1.1467490196228027,-1.775822639465332,0.19715189933776855,1.7807033061981201,0.21554112434387207,1.2570638656616211,-0.78539276123046875,-0.9065403938293457,-1.4117393493652344,-0.54586005210876465,-1.6520648002624512,-0.69532346725463867,-0.65050029754638672,0.1034853458404541,-1.2373285293579102,-1.6474258899688721,0.2842261791229248,1.8766350746154785,0.44577336311340332,-0.10404133796691895,-0.23101806640625,-1.7961833477020264,-0.90384244918823242,-0.03094935417175293,0.46174979209899902,-0.23224544525146484,1.7755773067474365,0.24345064163208008,-0.054523706436157227,-0.54727387428283691,0.79769730567932129,-0.63464736938476562,1.0380203723907471,-1.6040537357330322,-0.87680578231811523,-1.556891918182373,0.71040987968444824,1.5397007465362549,-1.4387869834899902,0.37643718719482422,1.6043136119842529,0.18396806716918945,-1.8236844539642334,-0.66272139549255371,-2,1.9904117584228516,-0.62373924255371094,-1.1045095920562744,1.0282697677612305,-0.57850170135498047,-1.9258716106414795,-0.62170553207397461,-1.1719121932983398,-1.3547415733337402,1.0271060466766357,1.6029863357543945,1.9532272815704346,-0.5028679370880127,1.3311028480529785,-0.59977602958679199,1.977686882019043,-1.8821661472320557,-0.56730884313583374,-1.1079256534576416,-1.4772703647613525,-1.881688117980957,1.7104568481445312,-0.15009188652038574,1.7534682750701904,0.7949368953704834,1.1702017784118652,1.3412883281707764,1.8944435119628906,0.59590029716491699,0.69130945205688477,-1.6598222255706787,0.47124600410461426,1.954993724822998,0.045535802841186523,-0.27501630783081055,-1.8696272373199463,0.12049961090087891,-1.9355552196502686,0.1302025318145752,1.9225375652313232,1.5955133438110352,-1.6887006759643555,0.022777318954467773,-1.6390316486358643,0.47524070739746094,-1.5712382793426514,-1.4504885673522949,0.72275924682617188,0.40680837631225586,-0.010771512985229492,0.60575318336486816,0.95466446876525879,-1.3138606548309326,-1.7270262241363525,-0.96168851852416992,1.3439345359802246,-0.48427200317382812,1.6504707336425781,1.2282054424285889,-0.13558673858642578,1.3873867988586426,1.5527386665344238,0.66348958015441895,0.91704607009887695,-0.15557408332824707,1.3733987808227539,0.71817922592163086,0.88243460655212402,-0.94154810905456543,0.59506011009216309,1.8303756713867188,1.182914137840271,1.0115728378295898,1.5164921283721924,1.1308841705322266,0.88543891906738281,1.3064992427825928,0.59628748893737793,-1.6506667137145996,0.15629076957702637,-0.86847925186157227,1.8014266490936279,1.8585343360900879,1.7934942245483398,-1.4673652648925781,-0.40692305564880371,-1.5556559562683105,1.9300177097320557,-1.1845159530639648,-1.3938454389572144,0.99296808242797852,-0.1128239631652832,-0.69205379486083984,1.5384731292724609,0.2825920581817627,0.96451497077941895,-1.055086612701416,0.45701074600219727,1.8095369338989258,-0.010573387145996094,1.2858970165252686,-0.52220630645751953,-1.5535304546356201,1.9904050827026367,-0.74200677871704102,-0.77032709121704102,-1.2584090232849121,1.8124904632568359,1.8353872299194336,1.5571005344390869,-1.4023315906524658,0.43745183944702148,-0.67313694953918457,0.50162029266357422,0.54188799858093262,-1.2182223796844482,-1.0969414710998535,1.9309749603271484,0.84055066108703613,0.6566779613494873,1.2873063087463379,-0.53114175796508789,-1.5234708786010742,1.8953483104705811,0.53251838684082031,-1.5161633491516113,0.30715036392211914,-1.8976263999938965,-0.99678492546081543,1.6137180328369141,0.043554306030273438,-0.51905536651611328,-1.9062371253967285,0.80285072326660156,-1.2536909580230713,-0.79396533966064453],[-0.31613063812255859,1.5569241046905518,-1.7208783626556396,-1.5565865039825439,-0.57538890838623047,0.18757724761962891,1.7893993854522705,-1.6488800048828125,1.1655111312866211,0.41957211494445801,1.902651309967041,0.32399916648864746,-0.14884448051452637,0.54911357164382935,1.7374299764633179,-0.57975149154663086,1.6547911167144775,0.091505937278270721,2,-1.4342186450958252,-1.5581977367401123,-0.63484811782836914,-0.69220232963562012,0.1167597621679306,-1.4260613918304443,-1.0978944301605225,0.27200746536254883,0.5477144718170166,1.6897292137145996,-0.38142824172973633,0.29790663719177246,-1.1688206195831299,-1.9634521007537842,-1.8717975616455078,0.036926507949829102,0.31732916831970215,1.45501708984375,-0.70015549659729004,-0.58804512023925781,1.9102652072906494,0.51095855236053467,-0.52973532676696777,-2,-1.9373810291290283,0.84025424718856812,1.0053348541259766,0.87469577789306641,0.96996569633483887,1.8486799001693726,0.5311129093170166,1.4826335906982422,1.8928782939910889,-0.32668542861938477,0.89144420623779297,1.3818936347961426,1.2437965869903564,1.3517806529998779,-0.77564287185668945,-0.95004415512084961,-1.7734553813934326,-0.8714909553527832,1.6614770889282227,0.93465185165405273,1.4629771709442139,-0.17507767677307129,-0.43170928955078125,-0.25162070989608765,-1.387054443359375,0.14287590980529785,0.040486812591552734,0.091954469680786133,1.5794405937194824,0.23743581771850586,-0.83918213844299316,-1.5837488174438477,-1.2562434673309326,1.5043127536773682,-0.9399116039276123,-1.3781538009643555,-1.6510300636291504,0.19208574295043945,0.80331683158874512,0.1703345775604248,-0.84067773818969727,1.3311014175415039,0.074866294860839844,-1.5368359088897705,-1.3258056640625,0.23318862915039062,0.025318417698144913,1.6232297420501709,0.5186619758605957,0.44639277458190918,0.31335434317588806,-1.0445268154144287,1.2158684730529785,-1.337496280670166,1.6247467994689941,-2,1.8348429203033447,0.52757537364959717,0.28882980346679688,-1.3457539081573486,0.79501605033874512,1.4402563571929932,-0.52184104919433594,0.19664144515991211,1.3261017799377441,-0.93936276435852051,2,-0.18672561645507812,1.7218258380889893],[-0.098463535308837891,0.10921549797058105,1.63018798828125,1.160456657409668,0.55927133560180664,-0.33414125442504883,-1.8337850570678711,0.46766471862792969,-0.21898388862609863,-1.2484340667724609,-1.6150641441345215,-1.1891763210296631,1.2816283702850342,1.0497241020202637,-0.32040166854858398,1.9894897937774658,2,-0.33953142166137695,-1.6692829132080078,-1.5159456729888916,-1.8676784038543701,-0.42950820922851562,1.0985863208770752,1.2733492851257324,1.5758185386657715,1.2331721782684326,-0.61436915397644043,1.5729548931121826,1.3561484813690186,-0.26777410507202148,1.0568611621856689,-1.5225462913513184,1.2485740184783936,-2,0.12411212921142578,-1.5640487670898438,0.60240912437438965,0.50970977544784546,-1.3567078113555908,-0.56316059827804565,0.040754318237304688,-0.25660860538482666,1.4781839847564697,0.30976080894470215,0.58717513084411621,-0.39626863598823547,-0.95188426971435547,0.2546074390411377,-0.031955480575561523,2,-1.6630208492279053,0.38475465774536133,1.6848843097686768,-1.2314670085906982,0.2305140495300293,0.54530453681945801,0.73626691102981567,-0.99185585975646973,-0.51709985733032227,0.4073944091796875,0.32464194297790527,-2,-0.91170024871826172,-1.7805442810058594]],"id":"FAC4C80D-5029-4935-9220-B410099FC067","generation":48,"hiddenCounts":[14,8],"inputCount":30,"outputCount":8},
{"biases":[[],[-0.99958920478820801,-1.833712100982666,-0.37125086784362793,0.32024550437927246,0.71812772750854492,-0.48838901519775391,0.73739850521087646,-1.4733412265777588,-1.5428318977355957,0.69514966011047363,1.670046329498291,1.1328301429748535,-1.709080696105957,-0.14306354522705078],[1.4713890552520752,2,1.2849874496459961,0.87286734580993652,2,1.477888822555542,-1.4291903972625732,0.91938585042953491],[1.0692561864852905,1.378171443939209,-0.77654051780700684,-0.34017443656921387,1.4122612476348877,-2,0.096996188163757324,-1.9100980758666992]],"weights":[[],[1.0801959037780762,0.14160609245300293,-0.99241542816162109,0.94793438911437988,-0.16161990165710449,-0.3174898624420166,0.19055342674255371,-1.975374698638916,-1.4165120124816895,0.1236114501953125,0.2964935302734375,-0.021707296371459961,1.8922724723815918,1.0309576988220215,0.89687037467956543,-0.56938958168029785,1.8445913791656494,0.24226021766662598,0.86316704750061035,-1.101830005645752,1.6430375576019287,0.60537099838256836,-0.077874898910522461,0.51173758506774902,1.6180419921875,1.1497507095336914,-0.31500768661499023,-0.80148434638977051,-1.4411652088165283,1.2685616016387939,-1.7266991138458252,0.67814373970031738,-0.72104382514953613,1.8608214855194092,-0.57137084007263184,0.83499383926391602,-1.847987174987793,-0.46388936042785645,1.6688394546508789,-0.92549872398376465,0.2072293758392334,0.50612401962280273,0.80217289924621582,1.7680401802062988,-0.79685664176940918,-1.9838254451751709,0.56799030303955078,1.432938814163208,1.7771227359771729,1.0490913391113281,-1.9655458927154541,-0.35324907302856445,-0.40124964714050293,1.485867977142334,-0.86753201484680176,-1.7330877780914307,-0.097246408462524414,-1.7919912338256836,-1.4395194053649902,-1.0170578956604004,-0.12989401817321777,-1.5895736217498779,1.6515955924987793,-0.16557121276855469,-1.6787936687469482,-0.35519576072692871,-1.7054586410522461,1.7679369449615479,0.077194929122924805,-1.1105239391326904,0.10492181777954102,1.036874532699585,-0.33907318115234375,-0.81331300735473633,1.4924969673156738,-1.7589366436004639,-0.30078864097595215,0.14169001579284668,-1.8950986862182617,0.21446871757507324,-1.9702987670898438,0.97097587585449219,1.6133568286895752,1.2644715309143066,1.9799141883850098,-1.9736502170562744,-0.44828462600708008,-0.087630033493041992,0.4807436466217041,-1.2749133110046387,-1.1331043243408203,0.86200094223022461,0.11436200141906738,-1.2644896507263184,1.1852257251739502,-1.1779336929321289,-1.5756168365478516,-0.74818617105484009,0.76824712753295898,-1.4342374801635742,-1.4209074974060059,1.6064872741699219,0.44295525550842285,1.620563268661499,-1.3125081062316895,0.055468320846557617,-0.95768046379089355,-0.41095447540283203,0.32650232315063477,0.040200710296630859,0.43655705451965332,-0.071339607238769531,-1.0885715484619141,1.2607696056365967,-1.3602902889251709,1.8979969024658203,0.24835920333862305,-1.3944249153137207,1.8262312412261963,1.0826563835144043,1.0237569808959961,-1.6030347347259521,0.08381962776184082,-1.7420251369476318,-1.2702152729034424,-0.92230510711669922,1.7121908664703369,0.41104507446289062,1.9275476932525635,0.12553024291992188,1.6328060626983643,1.4010026454925537,0.344573974609375,1.4867165088653564,-0.5357365608215332,0.57431364059448242,-0.35314559936523438,-0.50191378593444824,1.9051065444946289,1.4022285938262939,-0.087909936904907227,1.0465099811553955,0.98480844497680664,0.23462653160095215,0.87580156326293945,0.020162105560302734,0.094567537307739258,-1.1960492134094238,-1.4646077156066895,0.47593092918395996,-1.287813663482666,0.49067807197570801,-1.6191606521606445,-1.5661160945892334,1.8351640701293945,-1.0632047653198242,1.1779425144195557,-1.9486386775970459,0.98213696479797363,-0.31227421760559082,0.7333681583404541,0.79775452613830566,0.72039222717285156,1.3632242679595947,-0.80986380577087402,-1.8573424816131592,0.69119358062744141,-1.1277256011962891,1.7886807918548584,-1.7286081314086914,1.846444845199585,2,0.73364090919494629,1.2426385879516602,0.68764925003051758,0.4676051139831543,0.89595341682434082,-1.7993664741516113,-0.40435194969177246,-1.3579180240631104,-0.29098653793334961,1.7417538166046143,1.9364392757415771,-1.4207813739776611,0.51596736907958984,1.7134380340576172,1.1975302696228027,-0.091619491577148438,-0.66557168960571289,-1.4222488403320312,1.6437017917633057,-1.1226401329040527,-0.70748209953308105,-0.60085010528564453,1.5873112678527832,-1.6082189083099365,-1.032696008682251,0.33410334587097168,1.6691958904266357,0.43472409248352051,-0.1363217830657959,1.5170409679412842,0.38086676597595215,-1.7147703170776367,-0.56680774688720703,-1.7219200134277344,-1.7421855926513672,1.939927339553833,-0.017369508743286133,-0.50049448013305664,-1.3918330669403076,1.9842166900634766,1.1493446826934814,0.74636530876159668,-1.6325476169586182,-1.0912222862243652,1.7037239074707031,-1.0673151016235352,0.94887471199035645,-1.3516767024993896,-0.082751274108886719,1.4908058643341064,-1.0707638263702393,-0.43822121620178223,-1.0597636699676514,-0.8780057430267334,0.55065035820007324,-0.68777155876159668,0.76222586631774902,-0.73825192451477051,-0.57707881927490234,-1.2261614799499512,1.0314483642578125,-0.9437413215637207,0.75580048561096191,-1.0740551948547363,-0.60165953636169434,0.82534599304199219,1.5410475730895996,1.1467490196228027,-1.775822639465332,0.19715189933776855,1.7807033061981201,0.70117670297622681,1.2570638656616211,-0.78539276123046875,-0.9065403938293457,-1.4117393493652344,-0.54586005210876465,-1.6520648002624512,-1.0840983390808105,-0.65050029754638672,0.1034853458404541,-1.2373285293579102,-1.6474258899688721,0.2842261791229248,1.8766350746154785,0.44577336311340332,-0.10404133796691895,-0.23101806640625,-2,-0.90384244918823242,-0.03094935417175293,0.46174979209899902,-0.23224544525146484,1.7755773067474365,0.24345064163208008,-0.054523706436157227,-0.54727387428283691,0.79769730567932129,-1.0919523239135742,1.0380203723907471,-1.6040537357330322,-0.87680578231811523,-1.556891918182373,0.71040987968444824,1.5397007465362549,-1.4387869834899902,0.37643718719482422,1.6043136119842529,0.18396806716918945,-1.8236844539642334,-0.66272139549255371,-1.1014394760131836,1.9904117584228516,-0.62373924255371094,-1.1045095920562744,1.0282697677612305,-0.57850170135498047,-1.9258716106414795,-0.62170553207397461,-1.1719121932983398,-1.3547415733337402,1.0271060466766357,1.6029863357543945,1.9532272815704346,-0.5028679370880127,1.3311028480529785,-0.59977602958679199,1.977686882019043,-1.8821661472320557,-0.18080997467041016,-1.1079256534576416,-1.4772703647613525,-1.881688117980957,1.7104568481445312,-0.15009188652038574,1.7534682750701904,0.7949368953704834,1.1702017784118652,1.3412883281707764,1.8944435119628906,0.91752082109451294,0.69130945205688477,-1.6598222255706787,0.47124600410461426,1.954993724822998,0.045535802841186523,-0.27501630783081055,-1.8696272373199463,0.12049961090087891,-1.9355552196502686,-0.1708768755197525,1.9225375652313232,1.5955133438110352,-1.6887006759643555,0.022777318954467773,-0.57734775543212891,0.47524070739746094,-1.5712382793426514,-1.4504885673522949,0.72275924682617188,0.71063864231109619,-0.010771512985229492,0.60575318336486816,0.95466446876525879,-1.3138606548309326,-1.7270262241363525,-0.96168851852416992,1.3439345359802246,-0.48427200317382812,1.6504707336425781,1.2282054424285889,-0.13558673858642578,1.3873867988586426,1.5527386665344238,0.66348958015441895,0.91704607009887695,-0.15557408332824707,1.3733987808227539,0.71817922592163086,0.88243460655212402,-0.94154810905456543,0.59506011009216309,1.8303756713867188,1.6735086441040039,1.0115728378295898,1.5164921283721924,1.1308841705322266,0.88543891906738281,1.3064992427825928,0.59628748893737793,-1.6506667137145996,0.15629076957702637,-0.86847925186157227,1.8014266490936279,2,1.7934942245483398,-1.4673652648925781,-0.40692305564880371,-1.5556559562683105,1.9300177097320557,-1.1845159530639648,-1.8443927764892578,0.99296808242797852,-0.1128239631652832,-0.69205379486083984,1.5384731292724609,0.2825920581817627,0.96451497077941895,-1.055086612701416,0.45701074600219727,1.8095369338989258,-0.010573387145996094,1.2858970165252686,-0.52220630645751953,-1.5535304546356201,1.9904050827026367,-0.74200677871704102,-0.77032709121704102,-1.2584090232849121,1.8124904632568359,1.8353872299194336,1.5571005344390869,-1.4023315906524658,0.43745183944702148,-0.67313694953918457,0.50162029266357422,0.54188799858093262,-1.2182223796844482,-1.0969414710998535,1.9309749603271484,0.84055066108703613,0.6566779613494873,1.2873063087463379,-0.53114175796508789,-1.5234708786010742,1.8953483104705811,0.53251838684082031,-1.5161633491516113,0.30715036392211914,-1.8976263999938965,-0.99678492546081543,1.6137180328369141,0.087108612060546875,-0.51905536651611328,-1.9062371253967285,1.6057014465332031,-1.2536909580230713,-0.79396533966064453],[-0.31613063812255859,1.5569241046905518,-1.7208783626556396,-1.5565865039825439,-0.57538890838623047,0.18757724761962891,1.7893993854522705,-1.6488800048828125,1.1655111312866211,0.41957211494445801,1.902651309967041,0.32399916648864746,-0.14884448051452637,0.05282282829284668,1.3932037353515625,-1.0321217775344849,1.6547911167144775,-0.2667388916015625,1.6704487800598145,-1.4342186450958252,-1.5581977367401123,-1.2696962356567383,-0.69220232963562012,0.58034682273864746,-1.4260613918304443,-1.0978944301605225,0.27200746536254883,0.5477144718170166,1.6897292137145996,-0.38142824172973633,0.29790663719177246,-1.1688206195831299,-1.9634521007537842,-1.8717975616455078,0.036926507949829102,0.31732916831970215,1.9051344394683838,-1.147671103477478,-0.29402256011962891,1.9102652072906494,1.0219171047210693,-0.52973532676696777,-1.9544336795806885,-1.9373810291290283,0.12758564949035645,1.0053348541259766,0.87469577789306641,0.96996569633483887,1.5573604106903076,0.16643118858337402,1.8044012784957886,1.8928782939910889,-0.32668542861938477,0.89144420623779297,1.3818936347961426,1.2437965869903564,0.93113398551940918,-0.77564287185668945,0.95928382873535156,-1.7734553813934326,-0.8714909553527832,1.6614770889282227,0.93465185165405273,1.4629771709442139,-0.17507767677307129,-0.43170928955078125,0.10484409332275391,-0.6935272216796875,0.14287590980529785,0.040486812591552734,0.091954469680786133,2,0.23743581771850586,-0.41959106922149658,-1.5837488174438477,-0.97208422422409058,1.5043127536773682,-0.4569404125213623,-1.0795620679855347,-1.6510300636291504,0.19208574295043945,0.80331683158874512,0.1703345775604248,-0.84067773818969727,1.3311014175415039,0.074866294860839844,-1.5368359088897705,-1.3258056640625,0.23318862915039062,0.54654169082641602,1.6232297420501709,1.0373239517211914,0.44639277458190918,0.75650691986083984,-1.0445268154144287,1.2158684730529785,-0.82730841636657715,1.6247467994689941,-1.5825753211975098,1.8348429203033447,1.0551507472991943,0.28882980346679688,-1.3457539081573486,0.79501605033874512,1.4402563571929932,-0.52184104919433594,0.19664144515991211,1.5914658308029175,-0.93936276435852051,1.6536400318145752,0.18969784677028656,1.7218258380889893],[-0.098463535308837891,0.054607748985290527,1.63018798828125,0.58022832870483398,0.94491952657699585,-0.33414125442504883,-1.8337850570678711,0.46766471862792969,-0.21898388862609863,-1.2484340667724609,-1.6150641441345215,-2,1.2816283702850342,1.0497241020202637,-0.32040166854858398,1.9894897937774658,1.4525620937347412,-0.33953142166137695,-1.6692829132080078,0.3235023021697998,-1.8676784038543701,-0.21475410461425781,1.0985863208770752,1.2733492851257324,1.5758185386657715,2,-0.61436915397644043,1.5729548931121826,1.3561484813690186,-0.26777410507202148,1.0568611621856689,-1.5225462913513184,1.2485740184783936,-1.7471203804016113,-0.24635004997253418,-0.78202438354492188,1.2048182487487793,0.094153404235839844,-1.3567078113555908,0.28126287460327148,0.010188579559326172,-0.66966438293457031,1.4781839847564697,0.30976080894470215,0.29358756542205811,-0.0039286613464355469,-0.95188426971435547,0.50921487808227539,-0.031955480575561523,1.7573933601379395,-1.6630208492279053,0.76950931549072266,1.6848843097686768,-1.2314670085906982,-0.1667456179857254,0.54530453681945801,1.6778782606124878,-2,-1.0341997146606445,0.4073944091796875,0.32464194297790527,-1.1479218006134033,-0.91170024871826172,-1.9773945808410645]],"id":"E2D00B0B-52BF-4B1D-988B-FECF302395AA","generation":28,"hiddenCounts":[14,8],"inputCount":30,"outputCount":8},
{"biases":[[],[-0.3776700496673584,-1.833712100982666,-0.37125086784362793,0.32024550437927246,0.71812772750854492,-0.48838901519775391,1.4747970104217529,-1.4733412265777588,-1.5428318977355957,0.69514966011047363,1.670046329498291,1.1328301429748535,-2,-0.14306354522705078],[1.4713890552520752,1.7574210166931152,1.2849874496459961,0.15640807151794434,1.5156905651092529,1.8638730049133301,-0.76730823516845703,1.1702888011932373],[1.5670177936553955,1.378171443939209,-0.77654051780700684,-0.68034887313842773,-0.086901664733886719,-2,0.19399237632751465,-1.9100980758666992]],"weights":[[],[1.0801959037780762,0.14160609245300293,-0.99241542816162109,0.94793438911437988,-0.16161990165710449,-0.3174898624420166,0.19055342674255371,-1.975374698638916,-1.4165120124816895,0.1236114501953125,0.2964935302734375,-0.021707296371459961,1.8922724723815918,1.0309576988220215,0.89687037467956543,-0.56938958168029785,1.8445913791656494,0.24226021766662598,0.86316704750061035,-1.101830005645752,1.6430375576019287,0.60537099838256836,-0.077874898910522461,0.51173758506774902,1.6180419921875,1.1497507095336914,-0.31500768661499023,-0.80148434638977051,-1.4411652088165283,1.2685616016387939,-1.7266991138458252,0.67814373970031738,-0.72104382514953613,1.8608214855194092,-0.57137084007263184,0.83499383926391602,-1.847987174987793,-0.46388936042785645,1.6688394546508789,-0.92549872398376465,0.2072293758392334,0.50612401962280273,0.80217289924621582,1.7680401802062988,-0.79685664176940918,-1.9838254451751709,0.56799030303955078,1.432938814163208,1.7771227359771729,1.0490913391113281,-1.9655458927154541,-0.35324907302856445,-0.40124964714050293,1.485867977142334,-0.86753201484680176,-1.7330877780914307,-0.097246408462524414,-1.7919912338256836,-1.4395194053649902,-1.0170578956604004,-0.12989401817321777,-1.5895736217498779,-1.2517790794372559,-0.16557121276855469,-1.6787936687469482,-0.35519576072692871,-1.7054586410522461,1.7679369449615479,0.077194929122924805,-1.1105239391326904,0.10492181777954102,1.036874532699585,-0.33907318115234375,-0.81331300735473633,1.4924969673156738,-1.7589366436004639,-0.30078864097595215,0.14169001579284668,-1.8950986862182617,0.21446871757507324,-1.9702987670898438,0.97097587585449219,1.6133568286895752,1.2644715309143066,1.9799141883850098,-1.9736502170562744,-0.44828462600708008,-0.087630033493041992,0.4807436466217041,-1.2749133110046387,-1.1331043243408203,0.86200094223022461,0.11436200141906738,-1.2644896507263184,1.1852257251739502,-1.1779336929321289,-1.5756168365478516,-1.0386712551116943,0.76824712753295898,-1.4342374801635742,-1.4209074974060059,1.6064872741699219,0.44295525550842285,1.620563268661499,-1.3125081062316895,0.055468320846557617,-0.95768046379089355,-0.41095447540283203,0.32650232315063477,0.080401420593261719,0.43655705451965332,-0.071339607238769531,-1.0885715484619141,1.2607696056365967,-1.3602902889251709,1.8979969024658203,0.24835920333862305,-1.3944249153137207,1.8262312412261963,1.0826563835144043,1.0237569808959961,-1.6030347347259521,0.08381962776184082,-1.7420251369476318,-1.2702152729034424,-0.92230510711669922,1.7121908664703369,0.41104507446289062,1.9275476932525635,0.12553024291992188,1.6328060626983643,1.4010026454925537,0.344573974609375,1.4867165088653564,-0.5357365608215332,0.57431364059448242,-0.35314559936523438,-0.50191378593444824,1.9051065444946289,1.4022285938262939,-0.087909936904907227,1.0465099811553955,0.98480844497680664,0.23462653160095215,0.87580156326293945,0.020162105560302734,0.094567537307739258,-1.1960492134094238,-1.4646077156066895,0.47593092918395996,-1.287813663482666,0.49067807197570801,-1.6191606521606445,-1.5661160945892334,1.8351640701293945,-1.0632047653198242,1.1779425144195557,-1.9486386775970459,0.98213696479797363,-0.31227421760559082,0.7333681583404541,0.79775452613830566,0.72039222717285156,1.3632242679595947,-0.80986380577087402,-1.8573424816131592,0.69119358062744141,-1.1277256011962891,1.7886807918548584,-1.7286081314086914,1.846444845199585,1.7561914920806885,0.73364090919494629,1.2426385879516602,0.68764925003051758,0.4676051139831543,0.89595341682434082,-1.7993664741516113,-0.40435194969177246,-1.3579180240631104,-0.29098653793334961,2,1.9364392757415771,-1.4207813739776611,0.51596736907958984,1.7134380340576172,1.1975302696228027,-0.091619491577148438,-0.66557168960571289,-1.4222488403320312,1.6437017917633057,-1.1226401329040527,-0.70748209953308105,-0.60085010528564453,1.5873112678527832,-1.6082189083099365,-1.032696008682251,0.33410334587097168,1.6691958904266357,0.43472409248352051,-0.1363217830657959,1.5170409679412842,0.38086676597595215,-1.7147703170776367,-0.56680774688720703,-1.7219200134277344,-1.7421855926513672,1.939927339553833,-0.017369508743286133,-0.50049448013305664,-1.3918330669403076,1.9842166900634766,1.1493446826934814,0.74636530876159668,-1.6325476169586182,-1.0912222862243652,1.7037239074707031,-1.0673151016235352,0.94887471199035645,-1.3516767024993896,-0.082751274108886719,1.4908058643341064,-1.0707638263702393,-0.43822121620178223,-1.0597636699676514,-0.8780057430267334,0.55065035820007324,-0.68777155876159668,0.76222586631774902,-0.73825192451477051,-0.57707881927490234,-1.2261614799499512,1.0314483642578125,-0.9437413215637207,0.75580048561096191,-1.0740551948547363,-0.60165953636169434,0.82534599304199219,1.5410475730895996,1.1467490196228027,-1.775822639465332,0.19715189933776855,1.7807033061981201,0.70117670297622681,1.2570638656616211,-0.78539276123046875,-0.9065403938293457,-1.4117393493652344,-0.54586005210876465,-1.6520648002624512,-1.0840983390808105,-0.65050029754638672,0.1034853458404541,-1.2373285293579102,-1.6474258899688721,0.2842261791229248,1.8766350746154785,0.44577336311340332,-0.10404133796691895,-0.23101806640625,-2,-0.90384244918823242,-0.03094935417175293,0.46174979209899902,-0.23224544525146484,1.7755773067474365,0.24345064163208008,-0.054523706436157227,-0.54727387428283691,0.79769730567932129,-0.63464736938476562,1.0380203723907471,-1.6040537357330322,-0.87680578231811523,-1.556891918182373,0.71040987968444824,1.5397007465362549,-1.4387869834899902,0.37643718719482422,1.6043136119842529,0.18396806716918945,-1.8236844539642334,-0.66272139549255371,-1.1014394760131836,1.9904117584228516,-0.62373924255371094,-1.1045095920562744,1.0282697677612305,-0.57850170135498047,-1.9258716106414795,-0.62170553207397461,-1.1719121932983398,-1.3547415733337402,1.0271060466766357,1.6029863357543945,1.9532272815704346,-0.5028679370880127,1.3311028480529785,-0.59977602958679199,1.977686882019043,-1.8821661472320557,-0.18080997467041016,-1.1079256534576416,-1.4772703647613525,-1.881688117980957,1.7104568481445312,-0.15009188652038574,1.7534682750701904,0.7949368953704834,1.1702017784118652,1.3412883281707764,1.8944435119628906,0.59590029716491699,0.69130945205688477,-1.6598222255706787,0.47124600410461426,1.954993724822998,0.045535802841186523,-0.27501630783081055,-1.8696272373199463,0.12049961090087891,-1.9355552196502686,0.1302025318145752,1.9225375652313232,1.5955133438110352,-1.6887006759643555,0.022777318954467773,-1.6390316486358643,0.47524070739746094,-1.5712382793426514,-0.9801982045173645,0.72275924682617188,0.40680837631225586,-0.010771512985229492,0.60575318336486816,0.95466446876525879,-1.3138606548309326,-1.7270262241363525,-0.96168851852416992,1.3439345359802246,-0.48427200317382812,1.6504707336425781,1.2282054424285889,-0.13558673858642578,1.3873867988586426,1.5527386665344238,0.66348958015441895,0.91704607009887695,-0.15557408332824707,1.3733987808227539,0.71817922592163086,0.88243460655212402,-0.94154810905456543,0.59506011009216309,1.8303756713867188,1.6735086441040039,1.0115728378295898,1.5164921283721924,1.1308841705322266,0.88543891906738281,1.3064992427825928,0.59628748893737793,-1.6506667137145996,0.15629076957702637,-0.86847925186157227,1.8014266490936279,2,1.7934942245483398,-1.4673652648925781,-0.40692305564880371,-1.5556559562683105,1.9300177097320557,-1.1845159530639648,-1.8443927764892578,0.99296808242797852,-0.1128239631652832,-0.69205379486083984,1.5384731292724609,0.2825920581817627,0.96451497077941895,-1.055086612701416,0.45701074600219727,1.8095369338989258,-0.010573387145996094,1.2858970165252686,-0.52220630645751953,-1.5535304546356201,1.9904050827026367,-0.74200677871704102,-0.77032709121704102,-1.2584090232849121,1.8124904632568359,1.8353872299194336,1.5571005344390869,-1.4023315906524658,0.43745183944702148,-0.67313694953918457,0.50162029266357422,0.54188799858093262,-1.2182223796844482,-1.0969414710998535,1.9309749603271484,0.84055066108703613,0.6566779613494873,1.2873063087463379,-0.53114175796508789,-1.5234708786010742,1.8953483104705811,0.53251838684082031,-1.5161633491516113,0.30715036392211914,-1.8976263999938965,-0.99678492546081543,1.6137180328369141,0.043554306030273438,-0.51905536651611328,-1.9062371253967285,0.80285072326660156,-1.2536909580230713,-0.79396533966064453],[-0.31613063812255859,1.5569241046905518,-1.7208783626556396,-1.5565865039825439,-0.57538890838623047,0.18757724761962891,1.7893993854522705,-1.6488800048828125,1.1655111312866211,0.41957211494445801,-0.38822007179260254,0.32399916648864746,-0.14884448051452637,0.05282282829284668,1.3932037353515625,-0.57975149154663086,1.6547911167144775,-0.2667388916015625,1.6704487800598145,-1.4342186450958252,-1.5581977367401123,0.21341252326965332,-0.69220232963562012,0.58034682273864746,-1.4260613918304443,-1.0978944301605225,0.27200746536254883,0.5477144718170166,1.6897292137145996,-0.38142824172973633,0.29790663719177246,-1.1688206195831299,-1.9634521007537842,-1.8717975616455078,0.036926507949829102,0.31732916831970215,1.9051344394683838,-0.70015549659729004,-0.29402256011962891,1.9102652072906494,1.0219171047210693,-0.52973532676696777,-1.9544336795806885,-1.9373810291290283,0.12758564949035645,1.0053348541259766,0.87469577789306641,0.96996569633483887,1.5573604106903076,0.16643118858337402,1.4826335906982422,1.8928782939910889,-0.32668542861938477,0.89144420623779297,1.3818936347961426,1.2437965869903564,0.93113398551940918,-0.77564287185668945,0.66216439008712769,-1.7734553813934326,-0.8714909553527832,1.6614770889282227,0.93465185165405273,1.4629771709442139,-0.64454501867294312,-0.43170928955078125,0.10484409332275391,-0.6935272216796875,0.14287590980529785,0.040486812591552734,0.091954469680786133,2,0.23743581771850586,-0.83918213844299316,-1.5837488174438477,-1.2562434673309326,1.5043127536773682,-0.4569404125213623,-1.3781538009643555,-1.6510300636291504,0.19208574295043945,0.80331683158874512,0.1703345775604248,-0.84067773818969727,1.3311014175415039,0.074866294860839844,-1.5368359088897705,-1.3258056640625,0.23318862915039062,-0.45594215393066406,1.6232297420501709,1.0373239517211914,0.44639277458190918,0.75650691986083984,-1.0445268154144287,1.2158684730529785,-0.82730841636657715,1.6247467994689941,-1.5825753211975098,1.8348429203033447,0.58016026020050049,0.28882980346679688,-1.3457539081573486,0.79501605033874512,1.4402563571929932,-0.52184104919433594,0.19664144515991211,1.3261017799377441,-0.93936276435852051,1.6536400318145752,-0.18672561645507812,1.7218258380889893],[-0.098463535308837891,0.054607748985290527,1.2578237056732178,0.96217215061187744,0.49397778511047363,-0.33414125442504883,-1.8337850570678711,0.46766471862792969,-0.21898388862609863,-1.2484340667724609,-1.6150641441345215,-2,1.5636492967605591,1.0497241020202637,-0.32040166854858398,1.9894897937774658,1.4525620937347412,-0.33953142166137695,-1.6692829132080078,0.3235023021697998,-1.8676784038543701,-0.21475410461425781,1.0985863208770752,1.2733492851257324,1.5758185386657715,1.2331721782684326,-0.61436915397644043,1.5729548931121826,1.3561484813690186,-0.26777410507202148,1.0568611621856689,-1.5225462913513184,1.2485740184783936,-1.7471203804016113,-0.24635004997253418,-0.78202438354492188,1.2048182487487793,0.094153404235839844,-1.3567078113555908,-0.12295365333557129,0.020377159118652344,-0.66966438293457031,1.4781839847564697,0.30976080894470215,0.58717513084411621,-0.0039286613464355469,-0.95188426971435547,1.0184297561645508,-0.031955480575561523,1.7573933601379395,-1.6630208492279053,1.2114266157150269,1.6848843097686768,-1.2314670085906982,-0.1667456179857254,0.54530453681945801,1.6778782606124878,-0.99185585975646973,-1.0341997146606445,0.4073944091796875,0.32464194297790527,-1.4794812202453613,-0.91170024871826172,-1.9773945808410645]],"id":"F3C52279-421A-4825-9FD5-E70F6F7A6640","generation":25,"hiddenCounts":[14,8],"inputCount":30,"outputCount":8},
{"biases":[[],[-0.3776700496673584,-1.833712100982666,-0.37125086784362793,0.32024550437927246,0.71812772750854492,-0.48838901519775391,1.4747970104217529,-1.4733412265777588,-1.5428318977355957,0.69514966011047363,1.670046329498291,1.1328301429748535,-2,-0.14306354522705078],[1.4713890552520752,1.7574210166931152,1.2849874496459961,0.15640807151794434,1.5156905651092529,1.8638730049133301,-0.76730823516845703,1.1702888011932373],[1.5670177936553955,1.378171443939209,-0.77654051780700684,-0.68034887313842773,-0.086901664733886719,-2,0.19399237632751465,-1.9100980758666992]],"weights":[[],[1.0801959037780762,0.14160609245300293,-0.99241542816162109,0.94793438911437988,-0.16161990165710449,-0.3174898624420166,0.19055342674255371,-1.975374698638916,-1.4165120124816895,0.1236114501953125,0.2964935302734375,-0.021707296371459961,1.8922724723815918,1.0309576988220215,0.89687037467956543,-0.56938958168029785,1.8445913791656494,0.24226021766662598,0.86316704750061035,-1.101830005645752,1.6430375576019287,0.60537099838256836,-0.077874898910522461,0.51173758506774902,1.6180419921875,1.1497507095336914,-0.31500768661499023,-0.80148434638977051,-1.4411652088165283,1.2685616016387939,-1.7266991138458252,0.67814373970031738,-0.72104382514953613,1.8608214855194092,-0.57137084007263184,0.83499383926391602,-1.847987174987793,-0.46388936042785645,1.6688394546508789,-0.92549872398376465,0.2072293758392334,0.50612401962280273,0.80217289924621582,1.7680401802062988,-0.79685664176940918,-1.9838254451751709,0.56799030303955078,1.432938814163208,1.7771227359771729,1.0490913391113281,-1.9655458927154541,-0.35324907302856445,-0.40124964714050293,1.485867977142334,-0.86753201484680176,-1.7330877780914307,-0.097246408462524414,-1.7919912338256836,-1.4395194053649902,-1.0170578956604004,-0.12989401817321777,-1.5895736217498779,-1.2517790794372559,-0.16557121276855469,-1.6787936687469482,-0.35519576072692871,-1.7054586410522461,1.7679369449615479,0.077194929122924805,-1.1105239391326904,0.10492181777954102,1.036874532699585,-0.33907318115234375,-0.81331300735473633,1.4924969673156738,-1.7589366436004639,-0.30078864097595215,0.14169001579284668,-1.8950986862182617,0.21446871757507324,-1.9702987670898438,0.97097587585449219,1.6133568286895752,1.2644715309143066,1.9799141883850098,-1.9736502170562744,-0.44828462600708008,-0.087630033493041992,0.4807436466217041,-1.2749133110046387,-1.1331043243408203,0.86200094223022461,0.11436200141906738,-1.2644896507263184,1.1852257251739502,-1.1779336929321289,-1.5756168365478516,-1.0386712551116943,0.76824712753295898,-1.4342374801635742,-1.4209074974060059,1.6064872741699219,0.44295525550842285,1.620563268661499,-1.3125081062316895,0.055468320846557617,-0.95768046379089355,-0.41095447540283203,0.32650232315063477,0.080401420593261719,0.43655705451965332,-0.071339607238769531,-1.0885715484619141,1.2607696056365967,-1.3602902889251709,1.8979969024658203,0.24835920333862305,-1.3944249153137207,1.8262312412261963,1.0826563835144043,1.0237569808959961,-2,0.08381962776184082,-1.7420251369476318,-1.2702152729034424,-0.92230510711669922,1.7121908664703369,0.41104507446289062,1.9275476932525635,0.12553024291992188,1.6328060626983643,1.4010026454925537,0.344573974609375,1.4867165088653564,-0.5357365608215332,0.57431364059448242,-0.35314559936523438,-0.50191378593444824,1.9051065444946289,1.4022285938262939,-0.087909936904907227,1.0465099811553955,0.98480844497680664,0.23462653160095215,0.87580156326293945,0.020162105560302734,0.094567537307739258,-1.1960492134094238,-1.4646077156066895,0.47593092918395996,-1.287813663482666,0.49067807197570801,-1.6191606521606445,-1.5661160945892334,1.8351640701293945,-1.0632047653198242,1.1779425144195557,-1.9486386775970459,0.98213696479797363,-0.31227421760559082,0.7333681583404541,0.79775452613830566,0.72039222717285156,1.3632242679595947,-0.80986380577087402,-1.8573424816131592,0.69119358062744141,-1.1277256011962891,1.7886807918548584,-1.7286081314086914,1.846444845199585,1.7561914920806885,0.73364090919494629,1.2426385879516602,0.68764925003051758,0.4676051139831543,0.89595341682434082,-1.7993664741516113,-0.40435194969177246,-1.3579180240631104,-0.29098653793334961,1.7417538166046143,1.9364392757415771,-1.4207813739776611,0.51596736907958984,1.7134380340576172,1.1975302696228027,-0.091619491577148438,-0.66557168960571289,-1.4222488403320312,1.6437017917633057,-1.1226401329040527,-0.70748209953308105,-0.60085010528564453,1.5873112678527832,-1.6082189083099365,-1.032696008682251,0.33410334587097168,1.6691958904266357,0.43472409248352051,-0.1363217830657959,1.5170409679412842,0.38086676597595215,-1.7147703170776367,-0.56680774688720703,-1.7219200134277344,-1.7421855926513672,1.939927339553833,-0.017369508743286133,-0.50049448013305664,-1.3918330669403076,1.9842166900634766,1.1493446826934814,0.74636530876159668,-1.6325476169586182,-1.0912222862243652,1.7037239074707031,-1.0673151016235352,0.94887471199035645,-1.3516767024993896,-0.082751274108886719,1.4908058643341064,-1.0707638263702393,-0.43822121620178223,-1.0597636699676514,-0.8780057430267334,0.55065035820007324,-0.68777155876159668,0.76222586631774902,-0.73825192451477051,-0.57707881927490234,-1.2261614799499512,1.0314483642578125,-0.9437413215637207,0.75580048561096191,-1.0740551948547363,-0.60165953636169434,0.82534599304199219,1.5410475730895996,1.1467490196228027,-1.775822639465332,0.19715189933776855,1.7807033061981201,0.70117670297622681,1.2570638656616211,-0.78539276123046875,-0.9065403938293457,-1.4117393493652344,-0.54586005210876465,-1.6520648002624512,-1.0840983390808105,-0.65050029754638672,0.1034853458404541,-1.2373285293579102,-1.6474258899688721,0.2842261791229248,1.8766350746154785,0.44577336311340332,-0.10404133796691895,-0.23101806640625,-2,-0.90384244918823242,-0.03094935417175293,0.46174979209899902,-0.23224544525146484,1.7755773067474365,0.24345064163208008,-0.054523706436157227,-0.54727387428283691,0.79769730567932129,-0.63464736938476562,1.0380203723907471,-1.6040537357330322,-0.87680578231811523,-1.556891918182373,0.71040987968444824,1.5397007465362549,-1.4387869834899902,0.37643718719482422,1.6043136119842529,0.18396806716918945,-1.8236844539642334,-0.66272139549255371,-1.1014394760131836,1.9904117584228516,-0.62373924255371094,-1.1045095920562744,1.0282697677612305,-0.57850170135498047,-1.9258716106414795,-0.62170553207397461,-1.1719121932983398,-1.3547415733337402,1.0271060466766357,1.6029863357543945,1.9532272815704346,-0.5028679370880127,1.3311028480529785,-0.59977602958679199,1.977686882019043,-1.8821661472320557,-0.18080997467041016,-1.1079256534576416,-1.4772703647613525,-1.881688117980957,1.7104568481445312,-0.15009188652038574,1.7534682750701904,0.7949368953704834,1.1702017784118652,1.3412883281707764,1.8944435119628906,0.59590029716491699,0.69130945205688477,-1.6598222255706787,0.47124600410461426,1.954993724822998,0.045535802841186523,-0.27501630783081055,-1.8696272373199463,0.12049961090087891,-1.9355552196502686,0.1302025318145752,1.9225375652313232,1.5955133438110352,-1.6887006759643555,0.022777318954467773,-1.6390316486358643,0.47524070739746094,-1.5712382793426514,-0.9801982045173645,0.72275924682617188,0.40680837631225586,-0.010771512985229492,0.60575318336486816,0.95466446876525879,-1.3138606548309326,-1.7270262241363525,-0.96168851852416992,1.3439345359802246,-0.48427200317382812,1.6504707336425781,1.2282054424285889,-0.13558673858642578,1.3873867988586426,1.5527386665344238,0.66348958015441895,0.91704607009887695,-0.15557408332824707,1.3733987808227539,0.71817922592163086,0.88243460655212402,-0.94154810905456543,0.59506011009216309,1.8303756713867188,1.6735086441040039,1.0115728378295898,1.5164921283721924,1.1308841705322266,0.88543891906738281,1.3064992427825928,0.59628748893737793,-1.6506667137145996,0.15629076957702637,-0.86847925186157227,1.8014266490936279,2,1.7934942245483398,-1.4673652648925781,-0.40692305564880371,-1.5556559562683105,1.9300177097320557,-1.1845159530639648,-1.8443927764892578,0.99296808242797852,-0.1128239631652832,-0.69205379486083984,1.5384731292724609,0.2825920581817627,0.96451497077941895,-1.055086612701416,0.45701074600219727,1.8095369338989258,-0.010573387145996094,1.2858970165252686,-0.52220630645751953,-1.5535304546356201,1.9904050827026367,-0.74200677871704102,-0.77032709121704102,-1.2584090232849121,1.8124904632568359,1.8353872299194336,1.5571005344390869,-1.4023315906524658,0.43745183944702148,-0.67313694953918457,0.50162029266357422,0.54188799858093262,-1.2182223796844482,-1.0969414710998535,1.9309749603271484,0.84055066108703613,0.6566779613494873,1.2873063087463379,-0.53114175796508789,-1.5234708786010742,1.8953483104705811,0.53251838684082031,-1.5161633491516113,0.30715036392211914,-1.8976263999938965,-0.99678492546081543,1.6137180328369141,0.043554306030273438,-0.51905536651611328,-1.9062371253967285,0.80285072326660156,-1.2536909580230713,-0.79396533966064453],[-0.31613063812255859,1.5569241046905518,-1.7208783626556396,-1.5565865039825439,-0.57538890838623047,0.18757724761962891,1.7893993854522705,-1.6488800048828125,1.1655111312866211,0.41957211494445801,1.902651309967041,0.58750128746032715,-0.14884448051452637,0.05282282829284668,1.3932037353515625,-0.57975149154663086,1.6547911167144775,-0.2667388916015625,1.6704487800598145,-1.4342186450958252,-1.5581977367401123,0.21341252326965332,-0.69220232963562012,0.58034682273864746,-1.4260613918304443,-1.0978944301605225,0.27200746536254883,0.5477144718170166,1.6897292137145996,-0.38142824172973633,0.74153536558151245,-1.1688206195831299,-1.9634521007537842,-1.8717975616455078,0.036926507949829102,0.31732916831970215,1.9051344394683838,-0.70015549659729004,-0.29402256011962891,1.9102652072906494,1.0219171047210693,-0.52973532676696777,-1.9544336795806885,-1.9373810291290283,0.12758564949035645,1.0053348541259766,0.87469577789306641,0.96996569633483887,1.5573604106903076,0.16643118858337402,1.4826335906982422,1.8928782939910889,-0.32668542861938477,-1.1940629482269287,1.3818936347961426,1.2437965869903564,0.93113398551940918,-0.77564287185668945,0.95928382873535156,-1.7734553813934326,-0.8714909553527832,1.6614770889282227,0.93465185165405273,1.4629771709442139,-0.64454501867294312,-0.43170928955078125,0.10484409332275391,-0.6935272216796875,0.14287590980529785,0.040486812591552734,0.091954469680786133,2,0.23743581771850586,-0.83918213844299316,-1.5837488174438477,-1.2562434673309326,1.5043127536773682,-0.4569404125213623,-1.3781538009643555,-1.6510300636291504,0.19208574295043945,0.80331683158874512,0.1703345775604248,-0.84067773818969727,1.3311014175415039,0.074866294860839844,-1.5368359088897705,-1.3258056640625,0.23318862915039062,-0.45594215393066406,1.6232297420501709,1.0373239517211914,0.44639277458190918,0.75650691986083984,-1.0445268154144287,1.2158684730529785,-0.82730841636657715,1.6247467994689941,-1.5825753211975098,1.8348429203033447,0.58016026020050049,0.28882980346679688,-1.3457539081573486,0.79501605033874512,1.4402563571929932,-0.52184104919433594,0.19664144515991211,1.3261017799377441,-0.93936276435852051,1.6536400318145752,-0.18672561645507812,1.7218258380889893],[-0.098463535308837891,0.054607748985290527,1.2578237056732178,0.96217215061187744,0.49397778511047363,-0.33414125442504883,-1.8337850570678711,0.46766471862792969,-0.21898388862609863,-1.2484340667724609,-1.909522533416748,-2,1.5636492967605591,1.0497241020202637,-0.32040166854858398,1.9894897937774658,1.4525620937347412,-0.33953142166137695,-1.6692829132080078,0.3235023021697998,-1.8676784038543701,-0.21475410461425781,1.0985863208770752,1.2733492851257324,1.5758185386657715,1.2331721782684326,-0.61436915397644043,1.5729548931121826,1.3561484813690186,-0.26777410507202148,1.0568611621856689,-1.5225462913513184,1.2485740184783936,-1.7471203804016113,-0.24635004997253418,-0.78202438354492188,1.2048182487487793,0.094153404235839844,-1.3567078113555908,-0.12295365333557129,0.020377159118652344,-0.66966438293457031,1.4781839847564697,0.30976080894470215,0.58717513084411621,-0.0039286613464355469,-0.95188426971435547,1.0184297561645508,-0.031955480575561523,1.7573933601379395,-1.6630208492279053,1.2114266157150269,1.6848843097686768,-1.2314670085906982,-0.1667456179857254,0.54530453681945801,1.6778782606124878,-0.99185585975646973,-1.0341997146606445,0.4073944091796875,0.32464194297790527,-1.4794812202453613,-0.91170024871826172,-1.9773945808410645]],"id":"63713857-B4B7-440F-8B11-5A33CD6BA0BB","generation":26,"hiddenCounts":[14,8],"inputCount":30,"outputCount":8},
{"biases":[[],[-0.3776700496673584,-1.833712100982666,-0.37125086784362793,0.32024550437927246,0.71812772750854492,-0.48838901519775391,1.4747970104217529,-1.4733412265777588,-1.5428318977355957,0.69514966011047363,1.670046329498291,1.1328301429748535,-2,-0.14306354522705078],[1.4713890552520752,1.4828526973724365,2,0.15640807151794434,1.5156905651092529,1.8638730049133301,-0.76730823516845703,1.1702888011932373],[1.5670177936553955,1.378171443939209,-0.77654051780700684,-0.68034887313842773,-0.086901664733886719,-2,0.19399237632751465,-1.9100980758666992]],"weights":[[],[1.0801959037780762,0.14160609245300293,-0.99241542816162109,0.94793438911437988,-0.16161990165710449,-0.3174898624420166,0.19055342674255371,-1.975374698638916,-1.4165120124816895,0.1236114501953125,0.2964935302734375,-0.021707296371459961,1.8922724723815918,1.0309576988220215,0.89687037467956543,-0.56938958168029785,1.8445913791656494,0.24226021766662598,0.86316704750061035,-1.101830005645752,1.6430375576019287,0.60537099838256836,-0.077874898910522461,0.51173758506774902,0.80902099609375,1.1497507095336914,-0.31500768661499023,-0.80148434638977051,-1.4411652088165283,1.2685616016387939,-1.7266991138458252,0.67814373970031738,-0.72104382514953613,1.8608214855194092,-0.57137084007263184,0.83499383926391602,-1.847987174987793,-0.46388936042785645,1.6688394546508789,-0.92549872398376465,0.2072293758392334,0.50612401962280273,0.80217289924621582,1.7680401802062988,-0.79685664176940918,-1.9838254451751709,0.56799030303955078,1.432938814163208,1.7771227359771729,1.0490913391113281,-1.9655458927154541,-0.35324907302856445,-0.40124964714050293,1.485867977142334,-0.86753201484680176,-1.7330877780914307,-0.097246408462524414,-1.7919912338256836,-1.4395194053649902,-1.0170578956604004,-0.12989401817321777,-1.5895736217498779,-1.2517790794372559,-0.16557121276855469,-1.6787936687469482,-0.35519576072692871,-1.7054586410522461,1.7679369449615479,0.077194929122924805,-1.1105239391326904,0.10492181777954102,1.036874532699585,-0.33907318115234375,-0.81331300735473633,1.4924969673156738,-1.7589366436004639,-0.30078864097595215,0.14169001579284668,-1.8950986862182617,0.21446871757507324,-1.9702987670898438,0.97097587585449219,1.6133568286895752,1.2644715309143066,1.9799141883850098,-1.9736502170562744,-0.44828462600708008,-0.087630033493041992,0.4807436466217041,-1.2749133110046387,-1.1331043243408203,0.86200094223022461,0.11436200141906738,-1.2644896507263184,1.1852257251739502,-1.1779336929321289,-1.5756168365478516,-1.0386712551116943,0.76824712753295898,-1.4342374801635742,-1.4209074974060059,1.6064872741699219,0.44295525550842285,1.620563268661499,-1.3125081062316895,0.055468320846557617,-0.95768046379089355,-0.41095447540283203,0.32650232315063477,0.080401420593261719,0.43655705451965332,-0.071339607238769531,-1.0885715484619141,1.2607696056365967,-1.3602902889251709,1.8979969024658203,0.24835920333862305,-1.3944249153137207,1.8262312412261963,1.0826563835144043,1.0237569808959961,-1.6030347347259521,0.08381962776184082,-1.7420251369476318,-1.2702152729034424,-0.92230510711669922,1.7121908664703369,0.41104507446289062,1.9275476932525635,0.12553024291992188,1.6328060626983643,1.4010026454925537,0.344573974609375,1.4867165088653564,-0.5357365608215332,0.57431364059448242,-0.35314559936523438,-0.50191378593444824,1.9051065444946289,1.4022285938262939,-0.087909936904907227,1.0465099811553955,0.98480844497680664,0.23462653160095215,0.87580156326293945,0.020162105560302734,0.094567537307739258,-1.1960492134094238,-1.4646077156066895,0.47593092918395996,-1.287813663482666,0.49067807197570801,-1.6191606521606445,-1.5661160945892334,1.8351640701293945,-1.0632047653198242,1.1779425144195557,-1.9486386775970459,0.98213696479797363,-0.31227421760559082,0.7333681583404541,0.79775452613830566,0.72039222717285156,1.3632242679595947,-0.80986380577087402,-1.8573424816131592,0.69119358062744141,-1.1277256011962891,1.7886807918548584,-1.7286081314086914,1.846444845199585,1.7561914920806885,0.73364090919494629,1.2426385879516602,0.68764925003051758,0.4676051139831543,0.89595341682434082,-1.7993664741516113,-0.40435194969177246,-1.3579180240631104,-0.29098653793334961,1.7417538166046143,1.9364392757415771,-1.4207813739776611,0.51596736907958984,1.7134380340576172,1.1975302696228027,-0.091619491577148438,-0.66557168960571289,-1.4222488403320312,1.6437017917633057,-1.1226401329040527,-0.70748209953308105,-0.60085010528564453,1.5873112678527832,-1.6082189083099365,-1.032696008682251,0.33410334587097168,1.6691958904266357,0.43472409248352051,-0.1363217830657959,1.5170409679412842,0.38086676597595215,-1.7147703170776367,-0.28340387344360352,-1.7219200134277344,-1.7421855926513672,1.939927339553833,-0.017369508743286133,-0.50049448013305664,-1.3918330669403076,1.9842166900634766,1.1493446826934814,0.74636530876159668,-1.6325476169586182,-1.0912222862243652,1.7037239074707031,-1.0673151016235352,0.94887471199035645,-1.3516767024993896,-0.082751274108886719,1.4908058643341064,-1.0707638263702393,-0.43822121620178223,-1.0597636699676514,-0.8780057430267334,0.55065035820007324,-0.68777155876159668,0.76222586631774902,-0.73825192451477051,-0.57707881927490234,-1.2261614799499512,1.0314483642578125,-0.9437413215637207,0.75580048561096191,-1.0740551948547363,-0.60165953636169434,0.82534599304199219,1.5410475730895996,1.1467490196228027,-1.775822639465332,0.19715189933776855,1.7807033061981201,0.70117670297622681,1.2570638656616211,-0.78539276123046875,-0.9065403938293457,-1.4117393493652344,-0.54586005210876465,-1.6520648002624512,-1.0840983390808105,-0.65050029754638672,0.1034853458404541,-1.2373285293579102,-1.6474258899688721,0.2842261791229248,1.8766350746154785,0.44577336311340332,-0.10404133796691895,-0.23101806640625,-2,-0.90384244918823242,-0.03094935417175293,0.46174979209899902,-0.23224544525146484,1.7755773067474365,0.24345064163208008,-0.054523706436157227,-0.54727387428283691,0.79769730567932129,-0.63464736938476562,1.0380203723907471,-1.6040537357330322,-0.87680578231811523,-1.556891918182373,0.71040987968444824,1.5397007465362549,-1.4387869834899902,0.37643718719482422,1.6043136119842529,0.18396806716918945,-1.8236844539642334,-0.66272139549255371,-1.1014394760131836,1.9904117584228516,-0.62373924255371094,-1.1045095920562744,1.0282697677612305,-0.57850170135498047,-1.9258716106414795,-0.62170553207397461,-1.1719121932983398,-1.3547415733337402,1.0271060466766357,1.6029863357543945,1.9532272815704346,-0.5028679370880127,1.3311028480529785,-0.59977602958679199,1.977686882019043,-1.8821661472320557,-0.18080997467041016,-1.1079256534576416,-1.4772703647613525,-1.881688117980957,1.7104568481445312,-0.15009188652038574,1.7534682750701904,0.7949368953704834,1.1702017784118652,1.3412883281707764,1.8944435119628906,0.59590029716491699,0.69130945205688477,-1.6598222255706787,0.47124600410461426,1.954993724822998,0.045535802841186523,-0.27501630783081055,-1.8696272373199463,0.12049961090087891,-1.9355552196502686,0.1302025318145752,1.9225375652313232,1.5955133438110352,-1.6887006759643555,0.022777318954467773,-1.6390316486358643,0.47524070739746094,-1.5712382793426514,-0.9801982045173645,0.72275924682617188,0.40680837631225586,-0.010771512985229492,0.60575318336486816,0.95466446876525879,-1.3138606548309326,-1.7270262241363525,-0.96168851852416992,1.3439345359802246,-0.48427200317382812,1.6504707336425781,1.2282054424285889,-0.13558673858642578,1.3873867988586426,1.5527386665344238,0.66348958015441895,0.91704607009887695,-0.15557408332824707,1.3733987808227539,0.71817922592163086,0.88243460655212402,-0.94154810905456543,0.59506011009216309,1.8303756713867188,1.6735086441040039,1.0115728378295898,1.5164921283721924,1.1308841705322266,0.88543891906738281,1.3064992427825928,0.59628748893737793,-1.6506667137145996,0.15629076957702637,-0.86847925186157227,1.8014266490936279,2,1.7934942245483398,-1.4673652648925781,-0.40692305564880371,-1.5556559562683105,1.9300177097320557,-1.1845159530639648,-1.8443927764892578,0.99296808242797852,-0.1128239631652832,-0.69205379486083984,1.5384731292724609,0.2825920581817627,0.96451497077941895,-1.055086612701416,0.45701074600219727,1.8095369338989258,-0.010573387145996094,1.2858970165252686,-0.52220630645751953,-1.5535304546356201,1.9904050827026367,-0.74200677871704102,-0.77032709121704102,-1.2584090232849121,1.8124904632568359,1.8353872299194336,1.5571005344390869,-1.4023315906524658,0.43745183944702148,-0.67313694953918457,0.50162029266357422,0.54188799858093262,-1.2182223796844482,-1.0969414710998535,1.9309749603271484,0.84055066108703613,0.6566779613494873,1.2873063087463379,-0.53114175796508789,-1.5234708786010742,1.8953483104705811,0.53251838684082031,-1.5161633491516113,0.30715036392211914,-1.8976263999938965,-0.99678492546081543,1.6137180328369141,0.043554306030273438,-0.51905536651611328,-1.9062371253967285,0.80285072326660156,-1.2536909580230713,-0.79396533966064453],[-0.31613063812255859,1.5569241046905518,-1.7208783626556396,-1.5565865039825439,-0.57538890838623047,0.18757724761962891,1.7893993854522705,-1.6488800048828125,1.1655111312866211,0.41957211494445801,1.902651309967041,0.32399916648864746,-0.14884448051452637,0.05282282829284668,1.3932037353515625,-0.57975149154663086,1.6547911167144775,-0.2667388916015625,1.6704487800598145,-1.4342186450958252,-1.5581977367401123,0.21341252326965332,-0.69220232963562012,0.58034682273864746,-1.4260613918304443,-1.0978944301605225,0.27200746536254883,0.5477144718170166,1.6897292137145996,-0.38142824172973633,0.29790663719177246,-1.1688206195831299,-1.9634521007537842,-1.8717975616455078,0.036926507949829102,0.31732916831970215,1.9051344394683838,-0.70015549659729004,-0.29402256011962891,1.9102652072906494,1.0219171047210693,-0.52973532676696777,-1.9544336795806885,-1.9373810291290283,0.12758564949035645,1.0053348541259766,0.87469577789306641,0.96996569633483887,1.5573604106903076,0.16643118858337402,1.4826335906982422,1.8928782939910889,-0.32668542861938477,0.89144420623779297,1.3818936347961426,1.2437965869903564,0.93113398551940918,-0.77564287185668945,0.95928382873535156,-1.7734553813934326,-0.8714909553527832,1.6614770889282227,0.93465185165405273,1.4629771709442139,-0.64454501867294312,-0.43170928955078125,0.10484409332275391,-0.6935272216796875,0.14287590980529785,0.040486812591552734,0.091954469680786133,2,0.23743581771850586,-0.83918213844299316,-1.5837488174438477,-1.2562434673309326,1.5043127536773682,-0.91388082504272461,-1.3781538009643555,-1.6510300636291504,0.19208574295043945,0.80331683158874512,0.1703345775604248,-0.84067773818969727,1.3311014175415039,0.074866294860839844,-1.5368359088897705,-1.3258056640625,0.23318862915039062,-0.45594215393066406,1.6232297420501709,1.0373239517211914,0.44639277458190918,0.75650691986083984,-1.0445268154144287,1.2158684730529785,-0.82730841636657715,2,-1.5825753211975098,1.8348429203033447,0.58016026020050049,0.28882980346679688,-1.3457539081573486,0.79501605033874512,1.4402563571929932,-0.52184104919433594,0.19664144515991211,1.3261017799377441,-0.93936276435852051,1.6536400318145752,-0.18672561645507812,1.7218258380889893],[-0.098463535308837891,-0.13556575775146484,1.2578237056732178,0.96217215061187744,0.49397778511047363,-0.33414125442504883,-1.8337850570678711,0.46766471862792969,-0.21898388862609863,-1.2484340667724609,-1.6150641441345215,-2,1.5636492967605591,1.0497241020202637,-0.32040166854858398,1.9894897937774658,1.4525620937347412,-0.33953142166137695,-1.6692829132080078,0.3235023021697998,-1.8676784038543701,-0.21475410461425781,1.0985863208770752,1.2733492851257324,1.5758185386657715,1.2331721782684326,-0.61436915397644043,1.5729548931121826,1.3561484813690186,-0.26777410507202148,1.0568611621856689,-1.5225462913513184,1.2485740184783936,-1.7471203804016113,-0.24635004997253418,-0.78202438354492188,1.2048182487487793,0.094153404235839844,-1.3567078113555908,1.3671066761016846,0.020377159118652344,-0.66966438293457031,1.4781839847564697,0.30976080894470215,0.58717513084411621,-0.0039286613464355469,-0.95188426971435547,1.0184297561645508,-0.031955480575561523,1.7573933601379395,-1.6630208492279053,1.2114266157150269,1.9725059270858765,-1.2314670085906982,-0.1667456179857254,0.54530453681945801,1.6778782606124878,-0.99185585975646973,-1.0341997146606445,0.4073944091796875,0.32464194297790527,-1.8158364295959473,-0.91170024871826172,-1.9773945808410645]],"id":"E5FA3A2B-2762-4AAD-8B5A-8C27288EE7BD","generation":27,"hiddenCounts":[14,8],"inputCount":30,"outputCount":8},
{"biases":[[],[-0.3776700496673584,-1.833712100982666,-0.37125086784362793,0.32024550437927246,0.71812772750854492,-0.48838901519775391,1.4747970104217529,-1.4733412265777588,-1.5428318977355957,0.69514966011047363,1.670046329498291,1.1328301429748535,-2,-0.14306354522705078],[1.4713890552520752,1.7574210166931152,1.2849874496459961,0.15640807151794434,1.5156905651092529,1.8638730049133301,-0.76730823516845703,1.1702888011932373],[1.5670177936553955,1.378171443939209,-0.77654051780700684,-0.68034887313842773,-0.086901664733886719,-2,0.19399237632751465,-1.9100980758666992]],"weights":[[],[1.0801959037780762,0.14160609245300293,-0.99241542816162109,0.94793438911437988,-0.16161990165710449,-0.3174898624420166,0.19055342674255371,-1.975374698638916,-1.4165120124816895,0.1236114501953125,0.2964935302734375,-0.021707296371459961,1.8922724723815918,1.0309576988220215,0.89687037467956543,-0.56938958168029785,1.8445913791656494,0.24226021766662598,0.86316704750061035,-1.101830005645752,1.6430375576019287,0.60537099838256836,-0.077874898910522461,0.51173758506774902,1.6180419921875,1.1497507095336914,-0.31500768661499023,-0.80148434638977051,-1.4411652088165283,1.2685616016387939,-1.7266991138458252,0.67814373970031738,-0.72104382514953613,1.8608214855194092,-0.57137084007263184,0.83499383926391602,-1.847987174987793,-0.46388936042785645,1.6688394546508789,-0.92549872398376465,0.2072293758392334,0.50612401962280273,0.80217289924621582,1.7680401802062988,-0.79685664176940918,-1.9838254451751709,0.56799030303955078,1.432938814163208,1.7771227359771729,1.0490913391113281,-1.9655458927154541,-0.35324907302856445,-0.40124964714050293,1.485867977142334,-0.86753201484680176,-1.7330877780914307,-0.097246408462524414,-1.7919912338256836,-1.4395194053649902,-1.0170578956604004,-0.12989401817321777,-1.5895736217498779,-1.2517790794372559,-0.16557121276855469,-1.6787936687469482,-0.35519576072692871,-1.7054586410522461,1.7679369449615479,0.077194929122924805,-1.1105239391326904,0.10492181777954102,1.036874532699585,-0.33907318115234375,-0.81331300735473633,1.4924969673156738,-1.7589366436004639,-0.30078864097595215,0.14169001579284668,-1.8950986862182617,0.21446871757507324,-1.9702987670898438,0.97097587585449219,1.6133568286895752,1.2644715309143066,1.9799141883850098,-1.9736502170562744,-0.44828462600708008,-0.087630033493041992,0.4807436466217041,-1.2749133110046387,-1.1331043243408203,0.86200094223022461,0.11436200141906738,-1.2644896507263184,1.1852257251739502,-1.1779336929321289,-1.5756168365478516,-1.0386712551116943,0.45595750212669373,-1.4342374801635742,-1.4209074974060059,1.6064872741699219,0.44295525550842285,1.620563268661499,-1.3125081062316895,0.055468320846557617,-0.95768046379089355,-0.41095447540283203,0.32650232315063477,0.080401420593261719,0.43655705451965332,-0.071339607238769531,-1.0885715484619141,1.2607696056365967,-1.3602902889251709,1.8979969024658203,0.24835920333862305,-1.3944249153137207,1.8262312412261963,1.0826563835144043,1.0237569808959961,-1.6030347347259521,0.08381962776184082,-1.7420251369476318,-1.2702152729034424,-0.92230510711669922,1.7121908664703369,0.41104507446289062,1.9275476932525635,0.12553024291992188,1.6328060626983643,1.4010026454925537,0.344573974609375,1.4867165088653564,-0.5357365608215332,0.57431364059448242,-0.35314559936523438,-0.50191378593444824,1.9051065444946289,1.4022285938262939,-0.087909936904907227,1.0465099811553955,0.98480844497680664,0.23462653160095215,0.87580156326293945,0.020162105560302734,0.094567537307739258,-1.1960492134094238,-1.4646077156066895,0.47593092918395996,-1.287813663482666,0.49067807197570801,-1.6191606521606445,-1.5661160945892334,1.8351640701293945,-1.0632047653198242,1.1779425144195557,-1.9486386775970459,0.98213696479797363,-0.31227421760559082,0.7333681583404541,0.79775452613830566,0.72039222717285156,1.3632242679595947,-0.80986380577087402,-1.8573424816131592,0.69119358062744141,-1.1277256011962891,1.7886807918548584,-1.7286081314086914,1.846444845199585,1.7561914920806885,0.73364090919494629,1.2426385879516602,0.68764925003051758,0.4676051139831543,0.89595341682434082,-1.7993664741516113,-0.40435194969177246,-1.3579180240631104,-0.29098653793334961,1.7417538166046143,1.9364392757415771,-1.4207813739776611,0.51596736907958984,1.7134380340576172,1.1975302696228027,-0.091619491577148438,-0.66557168960571289,-1.4222488403320312,1.6437017917633057,-1.1226401329040527,-0.70748209953308105,-0.60085010528564453,1.5873112678527832,-1.6082189083099365,-1.032696008682251,0.33410334587097168,1.6691958904266357,0.43472409248352051,-0.1363217830657959,1.5170409679412842,0.38086676597595215,-1.7147703170776367,-0.56680774688720703,-1.7219200134277344,-1.7421855926513672,1.939927339553833,-0.017369508743286133,-0.50049448013305664,-1.3918330669403076,1.9842166900634766,1.1493446826934814,0.74636530876159668,-1.6325476169586182,-1.0912222862243652,1.7037239074707031,-1.0673151016235352,0.94887471199035645,-1.3516767024993896,-0.082751274108886719,1.4908058643341064,-1.0707638263702393,-0.43822121620178223,-1.0597636699676514,-0.8780057430267334,-0.035168647766113281,-0.68777155876159668,0.76222586631774902,-0.73825192451477051,-0.57707881927490234,-1.2261614799499512,1.0314483642578125,-0.9437413215637207,0.75580048561096191,-1.0740551948547363,-0.60165953636169434,0.82534599304199219,1.5410475730895996,1.1467490196228027,-1.775822639465332,0.19715189933776855,1.7807033061981201,0.70117670297622681,1.2570638656616211,-0.78539276123046875,-0.9065403938293457,-1.4117393493652344,-0.54586005210876465,-1.6520648002624512,-1.0840983390808105,-0.65050029754638672,0.1034853458404541,-1.2373285293579102,-1.6474258899688721,0.2842261791229248,1.8766350746154785,0.44577336311340332,-0.10404133796691895,-0.23101806640625,-2,-0.90384244918823242,-0.03094935417175293,0.46174979209899902,-0.23224544525146484,1.7755773067474365,0.24345064163208008,-0.054523706436157227,-0.54727387428283691,0.79769730567932129,-0.63464736938476562,1.0380203723907471,-1.6040537357330322,-0.87680578231811523,-1.556891918182373,0.71040987968444824,1.5397007465362549,-1.4387869834899902,0.37643718719482422,1.6043136119842529,0.18396806716918945,-1.8236844539642334,-0.66272139549255371,-1.1014394760131836,1.9904117584228516,-0.62373924255371094,-1.1045095920562744,1.0282697677612305,-0.57850170135498047,-1.9258716106414795,-0.62170553207397461,-1.1719121932983398,-1.3547415733337402,1.0271060466766357,1.6029863357543945,1.9532272815704346,-0.5028679370880127,1.3311028480529785,-0.59977602958679199,1.977686882019043,-1.8821661472320557,-0.18080997467041016,-1.1079256534576416,-1.4772703647613525,-1.881688117980957,1.7104568481445312,-0.15009188652038574,1.7534682750701904,0.7949368953704834,1.1702017784118652,1.3412883281707764,1.8944435119628906,0.59590029716491699,0.69130945205688477,-1.6598222255706787,0.47124600410461426,1.954993724822998,0.045535802841186523,-0.27501630783081055,-1.8696272373199463,0.12049961090087891,-1.9355552196502686,0.1302025318145752,1.9225375652313232,1.5955133438110352,-1.6887006759643555,0.022777318954467773,-1.6390316486358643,0.47524070739746094,-1.5712382793426514,-0.9801982045173645,0.72275924682617188,0.40680837631225586,-0.010771512985229492,0.60575318336486816,0.95466446876525879,-1.3138606548309326,-1.7270262241363525,-0.96168851852416992,1.3439345359802246,-0.48427200317382812,1.6504707336425781,1.2282054424285889,-0.13558673858642578,1.3873867988586426,1.5527386665344238,0.66348958015441895,0.91704607009887695,-0.15557408332824707,1.3733987808227539,0.71817922592163086,0.88243460655212402,-0.94154810905456543,0.59506011009216309,1.8303756713867188,1.6735086441040039,1.0115728378295898,1.5164921283721924,1.1308841705322266,0.88543891906738281,1.3064992427825928,0.59628748893737793,-1.6506667137145996,0.15629076957702637,-0.86847925186157227,1.8014266490936279,2,1.7934942245483398,-1.4673652648925781,-0.40692305564880371,-1.5556559562683105,1.9300177097320557,-1.1845159530639648,-1.8443927764892578,0.99296808242797852,-0.1128239631652832,-0.69205379486083984,1.5384731292724609,0.2825920581817627,0.96451497077941895,-1.055086612701416,0.45701074600219727,1.8095369338989258,-0.010573387145996094,1.2858970165252686,-0.52220630645751953,-1.5535304546356201,1.9904050827026367,-0.74200677871704102,-0.77032709121704102,-1.2584090232849121,1.8124904632568359,1.8353872299194336,1.5571005344390869,-1.4023315906524658,0.43745183944702148,-0.67313694953918457,0.50162029266357422,0.54188799858093262,-1.2182223796844482,-1.0969414710998535,1.9309749603271484,0.84055066108703613,0.6566779613494873,1.2873063087463379,-0.53114175796508789,-1.5234708786010742,1.8953483104705811,0.53251838684082031,-1.5161633491516113,0.30715036392211914,-1.8976263999938965,-0.99678492546081543,1.6137180328369141,0.043554306030273438,-0.51905536651611328,-1.9062371253967285,0.80285072326660156,-1.2536909580230713,-0.79396533966064453],[-0.31613063812255859,1.5569241046905518,-1.7208783626556396,-1.5565865039825439,-0.57538890838623047,0.18757724761962891,1.7893993854522705,-1.6488800048828125,1.1655111312866211,0.41957211494445801,1.902651309967041,0.32399916648864746,-0.14884448051452637,0.05282282829284668,1.3932037353515625,-0.57975149154663086,1.6547911167144775,-0.2667388916015625,1.6704487800598145,-1.4342186450958252,-1.5581977367401123,0.21341252326965332,-0.69220232963562012,0.58034682273864746,-1.4260613918304443,-1.0978944301605225,0.27200746536254883,0.5477144718170166,1.6897292137145996,-0.38142824172973633,0.29790663719177246,-1.1688206195831299,-1.9634521007537842,-1.8717975616455078,0.036926507949829102,0.31732916831970215,1.9051344394683838,-0.70015549659729004,-0.29402256011962891,1.9102652072906494,1.0219171047210693,-0.52973532676696777,-1.9544336795806885,-1.9373810291290283,0.12758564949035645,1.0053348541259766,0.87469577789306641,0.96996569633483887,1.5573604106903076,0.16643118858337402,1.4826335906982422,1.8928782939910889,-0.32668542861938477,0.89144420623779297,1.3818936347961426,1.2437965869903564,0.93113398551940918,-0.77564287185668945,0.95928382873535156,-1.7734553813934326,-0.8714909553527832,1.6614770889282227,0.93465185165405273,1.4629771709442139,-0.64454501867294312,-0.43170928955078125,0.10484409332275391,-0.6935272216796875,0.14287590980529785,0.040486812591552734,0.091954469680786133,2,0.23743581771850586,-0.83918213844299316,-1.5837488174438477,-1.2562434673309326,1.5043127536773682,-0.4569404125213623,-1.3781538009643555,-1.6510300636291504,0.19208574295043945,0.80331683158874512,0.1703345775604248,-0.84067773818969727,1.3311014175415039,0.074866294860839844,-1.5368359088897705,-1.3258056640625,0.23318862915039062,-0.45594215393066406,1.6232297420501709,1.0373239517211914,0.44639277458190918,0.75650691986083984,-1.0445268154144287,1.2158684730529785,-0.82730841636657715,1.6247467994689941,-1.5825753211975098,1.8348429203033447,0.58016026020050049,0.28882980346679688,-1.3457539081573486,0.79501605033874512,1.4402563571929932,-0.52184104919433594,0.19664144515991211,1.3261017799377441,-0.93936276435852051,1.6536400318145752,-0.18672561645507812,1.7218258380889893],[-0.098463535308837891,0.054607748985290527,1.2578237056732178,0.96217215061187744,0.49397778511047363,-0.33414125442504883,-1.8337850570678711,0.46766471862792969,-0.21898388862609863,-1.2484340667724609,-1.6150641441345215,-2,1.5636492967605591,1.0497241020202637,-0.32040166854858398,1.9894897937774658,1.4525620937347412,-0.33953142166137695,-1.6692829132080078,0.3235023021697998,-1.8676784038543701,-0.21475410461425781,1.0985863208770752,1.2733492851257324,1.5758185386657715,1.2331721782684326,-0.61436915397644043,1.5729548931121826,1.3561484813690186,-0.26777410507202148,1.0568611621856689,-1.5225462913513184,1.2485740184783936,-1.7471203804016113,-0.24635004997253418,-0.78202438354492188,1.2048182487487793,0.094153404235839844,-1.3567078113555908,-0.12295365333557129,0.020377159118652344,-0.66966438293457031,1.4781839847564697,0.30976080894470215,0.58717513084411621,-0.0039286613464355469,-0.95188426971435547,1.0184297561645508,-0.031955480575561523,1.7573933601379395,-1.6630208492279053,1.2114266157150269,1.6848843097686768,-1.2314670085906982,-0.1667456179857254,0.54530453681945801,1.6778782606124878,-0.99185585975646973,-1.0341997146606445,0.4073944091796875,0.32464194297790527,-1.4794812202453613,-0.91170024871826172,-1.9773945808410645]],"id":"58C41559-0212-4698-A575-3EF9F4515F5F","generation":25,"hiddenCounts":[14,8],"inputCount":30,"outputCount":8},
{"biases":[[],[-0.3776700496673584,-1.833712100982666,-0.37125086784362793,0.32024550437927246,0.71812772750854492,-0.48838901519775391,1.4747970104217529,-1.4733412265777588,-1.5428318977355957,0.69514966011047363,1.670046329498291,1.1328301429748535,-2,-0.14306354522705078],[1.4713890552520752,1.4828526973724365,2,0.15640807151794434,1.5156905651092529,1.8638730049133301,-0.76730823516845703,1.1702888011932373],[1.5670177936553955,1.378171443939209,-0.77654051780700684,-0.68034887313842773,-0.086901664733886719,-2,0.19399237632751465,-1.9100980758666992]],"weights":[[],[1.0801959037780762,0.14160609245300293,-0.99241542816162109,0.94793438911437988,-0.16161990165710449,-0.3174898624420166,0.19055342674255371,-1.975374698638916,-1.4165120124816895,0.1236114501953125,0.2964935302734375,-0.021707296371459961,1.8922724723815918,1.0309576988220215,0.89687037467956543,-0.56938958168029785,1.8445913791656494,0.24226021766662598,0.86316704750061035,-1.101830005645752,1.6430375576019287,0.60537099838256836,-0.077874898910522461,0.51173758506774902,0.80902099609375,1.1497507095336914,-0.31500768661499023,-0.80148434638977051,-1.4411652088165283,1.2685616016387939,-1.7266991138458252,0.67814373970031738,-0.72104382514953613,1.8608214855194092,-0.57137084007263184,0.83499383926391602,-1.847987174987793,-0.46388936042785645,1.6688394546508789,-0.92549872398376465,0.2072293758392334,0.50612401962280273,0.80217289924621582,1.7680401802062988,-0.79685664176940918,-1.9838254451751709,0.56799030303955078,1.432938814163208,1.7771227359771729,1.0490913391113281,-1.9655458927154541,-0.35324907302856445,-0.40124964714050293,1.485867977142334,-0.86753201484680176,-1.7330877780914307,-0.097246408462524414,-1.7919912338256836,-1.4395194053649902,-1.0170578956604004,-0.12989401817321777,-1.5895736217498779,-1.2517790794372559,-0.16557121276855469,-1.6787936687469482,-0.35519576072692871,-1.7054586410522461,1.7679369449615479,0.077194929122924805,-1.1105239391326904,0.10492181777954102,1.036874532699585,-0.33907318115234375,-0.81331300735473633,1.4924969673156738,-1.7589366436004639,-0.30078864097595215,0.14169001579284668,-1.8950986862182617,0.21446871757507324,-1.9702987670898438,0.97097587585449219,1.6133568286895752,1.2644715309143066,1.9799141883850098,-1.9736502170562744,-0.44828462600708008,-0.087630033493041992,0.4807436466217041,-1.2749133110046387,-1.1331043243408203,0.86200094223022461,0.11436200141906738,-1.2644896507263184,1.1852257251739502,-1.1779336929321289,-1.5756168365478516,-1.0386712551116943,0.76824712753295898,-1.4342374801635742,-1.4209074974060059,1.6064872741699219,0.44295525550842285,1.620563268661499,-1.3125081062316895,0.055468320846557617,-0.95768046379089355,-0.41095447540283203,0.32650232315063477,0.080401420593261719,0.43655705451965332,-0.071339607238769531,-1.0885715484619141,1.2607696056365967,-1.3602902889251709,1.8979969024658203,0.24835920333862305,-1.3944249153137207,1.8262312412261963,1.0826563835144043,1.0237569808959961,-1.6030347347259521,0.08381962776184082,-1.7420251369476318,-1.2702152729034424,-0.92230510711669922,1.7121908664703369,0.41104507446289062,1.9275476932525635,0.12553024291992188,1.6328060626983643,1.4010026454925537,0.344573974609375,1.4867165088653564,-0.5357365608215332,0.57431364059448242,-0.35314559936523438,-0.50191378593444824,1.9051065444946289,1.4022285938262939,-0.087909936904907227,1.0465099811553955,0.98480844497680664,0.23462653160095215,0.87580156326293945,0.020162105560302734,0.094567537307739258,-1.1960492134094238,-1.4646077156066895,0.47593092918395996,-1.287813663482666,0.49067807197570801,-1.6191606521606445,-1.5661160945892334,1.8351640701293945,-1.0632047653198242,1.1779425144195557,-1.9486386775970459,0.98213696479797363,-0.31227421760559082,0.7333681583404541,0.79775452613830566,0.72039222717285156,1.3632242679595947,-0.80986380577087402,-1.8573424816131592,0.69119358062744141,-1.1277256011962891,1.7886807918548584,-1.7286081314086914,1.846444845199585,1.7561914920806885,0.73364090919494629,1.2426385879516602,0.68764925003051758,0.4676051139831543,0.89595341682434082,-1.7993664741516113,-0.40435194969177246,-1.3579180240631104,-0.29098653793334961,1.7417538166046143,1.9364392757415771,-1.4207813739776611,0.51596736907958984,1.7134380340576172,1.1975302696228027,-0.091619491577148438,-0.66557168960571289,-1.4222488403320312,1.6437017917633057,-1.1226401329040527,-0.70748209953308105,-0.60085010528564453,1.5873112678527832,-1.6082189083099365,-1.032696008682251,0.33410334587097168,1.6691958904266357,0.43472409248352051,-0.1363217830657959,1.5170409679412842,0.38086676597595215,-1.7147703170776367,-0.28340387344360352,-1.7219200134277344,-1.7421855926513672,1.939927339553833,-0.017369508743286133,-0.50049448013305664,-1.3918330669403076,1.9842166900634766,1.1493446826934814,0.74636530876159668,-1.6325476169586182,-1.0912222862243652,1.7037239074707031,-1.0673151016235352,0.94887471199035645,-1.3516767024993896,-0.082751274108886719,1.4908058643341064,-1.0707638263702393,-0.43822121620178223,-1.0597636699676514,-0.8780057430267334,0.55065035820007324,-0.68777155876159668,0.76222586631774902,-0.73825192451477051,-0.57707881927490234,-1.2261614799499512,1.0314483642578125,-0.9437413215637207,0.75580048561096191,-1.0740551948547363,-0.60165953636169434,0.82534599304199219,1.5410475730895996,1.1467490196228027,-1.775822639465332,0.19715189933776855,1.7807033061981201,0.70117670297622681,1.2570638656616211,-0.78539276123046875,-0.9065403938293457,-1.4117393493652344,-0.54586005210876465,-1.6520648002624512,-1.0840983390808105,-0.65050029754638672,0.1034853458404541,-1.2373285293579102,-1.6474258899688721,0.2842261791229248,1.8766350746154785,0.44577336311340332,-0.10404133796691895,-0.23101806640625,-2,-0.90384244918823242,-0.03094935417175293,0.46174979209899902,-0.23224544525146484,1.7755773067474365,0.24345064163208008,-0.054523706436157227,-0.54727387428283691,0.79769730567932129,-0.63464736938476562,1.0380203723907471,-1.6040537357330322,-0.87680578231811523,-1.556891918182373,0.71040987968444824,1.5397007465362549,-1.4387869834899902,0.37643718719482422,1.6043136119842529,0.18396806716918945,-1.8236844539642334,-0.66272139549255371,-1.1014394760131836,1.9904117584228516,-0.62373924255371094,-1.1045095920562744,1.0282697677612305,-0.57850170135498047,-1.9258716106414795,-0.62170553207397461,-1.1719121932983398,-1.3547415733337402,1.0271060466766357,1.6029863357543945,1.9532272815704346,-0.5028679370880127,1.3311028480529785,-0.59977602958679199,1.977686882019043,-1.8821661472320557,-0.18080997467041016,-1.1079256534576416,-1.4772703647613525,-1.881688117980957,1.7104568481445312,-0.15009188652038574,1.7534682750701904,0.7949368953704834,1.1702017784118652,1.3412883281707764,1.8944435119628906,0.59590029716491699,0.69130945205688477,-1.6598222255706787,0.47124600410461426,1.954993724822998,0.045535802841186523,-0.27501630783081055,-1.8696272373199463,0.12049961090087891,-1.9355552196502686,0.1302025318145752,1.9225375652313232,1.5955133438110352,-1.6887006759643555,0.022777318954467773,-1.6390316486358643,0.47524070739746094,-1.5712382793426514,-0.9801982045173645,0.72275924682617188,0.40680837631225586,-0.010771512985229492,0.60575318336486816,0.95466446876525879,-1.3138606548309326,-1.7270262241363525,-0.96168851852416992,1.3439345359802246,-0.48427200317382812,1.6504707336425781,1.2282054424285889,-0.13558673858642578,1.3873867988586426,1.5527386665344238,0.66348958015441895,0.91704607009887695,-0.15557408332824707,1.3733987808227539,0.71817922592163086,0.88243460655212402,-0.94154810905456543,0.59506011009216309,1.8303756713867188,1.6735086441040039,1.0115728378295898,1.5164921283721924,1.1308841705322266,0.88543891906738281,1.3064992427825928,0.59628748893737793,-1.6506667137145996,0.15629076957702637,-0.86847925186157227,1.8014266490936279,2,1.7934942245483398,-1.4673652648925781,-0.40692305564880371,-1.5556559562683105,1.9300177097320557,-1.1845159530639648,-1.8443927764892578,0.99296808242797852,-0.1128239631652832,-0.69205379486083984,1.5384731292724609,0.2825920581817627,0.96451497077941895,-1.055086612701416,0.45701074600219727,1.8095369338989258,-0.010573387145996094,1.2858970165252686,-0.52220630645751953,-1.5535304546356201,1.9904050827026367,-0.74200677871704102,-0.77032709121704102,-1.2584090232849121,1.8124904632568359,1.8353872299194336,1.5571005344390869,-1.4023315906524658,0.43745183944702148,-0.67313694953918457,0.50162029266357422,0.54188799858093262,-1.2182223796844482,-1.0969414710998535,1.9309749603271484,0.84055066108703613,0.6566779613494873,1.2873063087463379,-0.53114175796508789,-1.5234708786010742,1.8953483104705811,0.53251838684082031,-1.5161633491516113,0.30715036392211914,-1.8976263999938965,-0.99678492546081543,1.6137180328369141,0.043554306030273438,-0.51905536651611328,-1.9062371253967285,0.80285072326660156,-1.2536909580230713,-0.79396533966064453],[-0.31613063812255859,1.5569241046905518,-1.7208783626556396,-1.5565865039825439,-0.57538890838623047,0.18757724761962891,1.7893993854522705,-1.6488800048828125,1.1655111312866211,0.41957211494445801,1.902651309967041,0.32399916648864746,-0.14884448051452637,0.05282282829284668,1.3932037353515625,-0.57975149154663086,1.6547911167144775,-0.2667388916015625,1.6704487800598145,-1.4342186450958252,-1.5581977367401123,0.21341252326965332,-0.69220232963562012,0.58034682273864746,-1.4260613918304443,-1.0978944301605225,0.27200746536254883,0.5477144718170166,1.6897292137145996,-0.38142824172973633,0.29790663719177246,-1.1688206195831299,-1.9634521007537842,-1.8717975616455078,0.036926507949829102,0.31732916831970215,1.9051344394683838,-0.70015549659729004,-0.29402256011962891,1.9102652072906494,1.0219171047210693,-0.52973532676696777,-1.9544336795806885,-1.9373810291290283,0.12758564949035645,1.0053348541259766,0.87469577789306641,0.96996569633483887,1.5573604106903076,0.16643118858337402,1.4826335906982422,1.8928782939910889,-0.32668542861938477,0.89144420623779297,1.3818936347961426,1.2437965869903564,0.93113398551940918,-0.77564287185668945,0.95928382873535156,-1.7734553813934326,-0.8714909553527832,1.6614770889282227,0.93465185165405273,1.4629771709442139,-0.64454501867294312,-0.43170928955078125,0.10484409332275391,-0.6935272216796875,0.14287590980529785,0.040486812591552734,0.091954469680786133,2,0.23743581771850586,-0.83918213844299316,-1.5837488174438477,-1.2562434673309326,1.5043127536773682,-0.91388082504272461,-1.3781538009643555,-1.6510300636291504,0.19208574295043945,0.80331683158874512,0.1703345775604248,-0.84067773818969727,1.3311014175415039,0.074866294860839844,-1.5368359088897705,-1.3258056640625,0.23318862915039062,-0.45594215393066406,1.6232297420501709,1.0373239517211914,0.44639277458190918,0.75650691986083984,-1.0445268154144287,1.2158684730529785,-0.82730841636657715,2,-1.5825753211975098,1.8348429203033447,0.58016026020050049,0.28882980346679688,-1.3457539081573486,0.79501605033874512,1.4402563571929932,-0.52184104919433594,0.19664144515991211,1.3261017799377441,-0.93936276435852051,1.6536400318145752,-0.18672561645507812,1.7218258380889893],[-0.098463535308837891,-0.13556575775146484,1.2578237056732178,0.96217215061187744,0.49397778511047363,-0.33414125442504883,-1.8337850570678711,0.46766471862792969,-0.21898388862609863,-1.2484340667724609,-1.6150641441345215,-2,1.5636492967605591,1.0497241020202637,-0.32040166854858398,1.9894897937774658,1.4525620937347412,-0.33953142166137695,-1.6692829132080078,0.3235023021697998,-1.8676784038543701,-0.21475410461425781,1.0985863208770752,1.2733492851257324,1.5758185386657715,1.2331721782684326,-0.61436915397644043,1.5729548931121826,1.3561484813690186,-0.26777410507202148,1.0568611621856689,-1.5225462913513184,1.2485740184783936,-1.7471203804016113,-0.24635004997253418,-0.78202438354492188,1.2048182487487793,0.094153404235839844,-1.3567078113555908,1.3671066761016846,0.020377159118652344,-0.66966438293457031,1.4781839847564697,0.30976080894470215,0.58717513084411621,-0.0039286613464355469,-0.95188426971435547,1.0184297561645508,-0.031955480575561523,1.7573933601379395,-1.6630208492279053,1.2114266157150269,1.9725059270858765,-1.2314670085906982,-0.1667456179857254,0.54530453681945801,1.6778782606124878,-0.99185585975646973,-1.0341997146606445,0.4073944091796875,0.32464194297790527,-1.8158364295959473,-0.91170024871826172,-1.9773945808410645]],"id":"4F33C25B-B0CD-4F3D-802E-19C68CCE9B56","generation":26,"hiddenCounts":[14,8],"inputCount":30,"outputCount":8},
