
[
{"biases":[[],[0.61071884632110596,-0.22176051139831543,-0.070320367813110352,1,0.41997909545898438,1,0.5,0.049905449151992798,0.29435735940933228,-0.15423963963985443,1,-0.29378616809844971,-1,1,-0.62602055072784424,0.40931928157806396,-0.41424331068992615,0.15546244382858276,0.040679275989532471,-0.76531004905700684,0.50270217657089233,-0.27295386791229248,1,0.22979363799095154],[-0.32877629995346069,-0.07980559766292572,0.91798406839370728,1,0.5,-0.3785862922668457,-0.098999738693237305,1,-0.61871105432510376,-0.32980060577392578,0.12931537628173828,-0.92209100723266602],[-1,-0.10016734898090363,-0.43939307332038879,0.25747573375701904,0.47301608324050903,0.56564867496490479,-0.19925767183303833,-1]],"weights":[[],[0.83471083641052246,0.23415458202362061,0.17623376846313477,0.83597588539123535,-0.13221269845962524,0.63587343692779541,-0.9471735954284668,0.11822164058685303,-0.72527265548706055,0.3061671257019043,0.7829359769821167,0.90638339519500732,1,0.86246895790100098,0.53011834621429443,0.93449509143829346,-0.26897251605987549,0.077516078948974609,0.14006876945495605,0.3318864107131958,-0.035900354385375977,-0.57409608364105225,0.022897958755493164,-0.47490525245666504,-0.50750279426574707,0.073002934455871582,-0.84689033031463623,0.4064018726348877,0.41522550582885742,0.78853309154510498,-0.16709542274475098,-0.77447378635406494,0.77021479606628418,0.76954472064971924,0.29576468467712402,0.046635150909423828,-0.56744086742401123,-0.9558863639831543,-0.28558540344238281,0.92856490612030029,-0.29932701587677002,-0.6501929759979248,0.46565008163452148,0.46384024620056152,0.32681706547737122,0.93388521671295166,-0.41338264942169189,-0.34027540683746338,-0.60024845600128174,-0.37590456008911133,0.59420275688171387,-0.34125983715057373,-0.38934326171875,-0.49976587295532227,0.53663468360900879,0.046949386596679688,-0.10785936564207077,-0.37868070602416992,-0.14480309188365936,0.44518101215362549,-0.12537467479705811,0.2949211597442627,0.1160968542098999,-0.53260362148284912,0.63197028636932373,-0.45124983787536621,-0.49427735805511475,-0.45092272758483887,-0.027807235717773438,0.46182727813720703,-0.46890425682067871,-0.82280147075653076,0.46197417378425598,-0.018207669258117676,0.90611302852630615,-0.0069859027862548828,-0.19828963279724121,-0.3794935941696167,0.21865721046924591,0.18526405096054077,-0.35532879829406738,-0.69602310657501221,0.74225974082946777,-0.85596215724945068,0.025901556015014648,0.4119952917098999,-0.30887418985366821,0.35259795188903809,-0.38375377655029297,-0.34340190887451172,-0.67637801170349121,0.85736513137817383,0.91062676906585693,-0.029362082481384277,-0.27443921566009521,-0.55513477325439453,-0.89399826526641846,0.56658852100372314,-0.13853967189788818,-0.82393383979797363,-0.43370664119720459,-0.45009756088256836,-0.63047480583190918,-1,0.81746292114257812,-0.59461379051208496,0.19047534465789795,0.45122358202934265,0.63027095794677734,-0.40919995307922363,0.66928887367248535,-0.38845312595367432,-0.66295516490936279,0.73053061962127686,0.14814317226409912,0.059529542922973633,0.1317894458770752,-0.43821847438812256,-0.89268898963928223,-1,0.4462311863899231,0.17189168930053711,-0.57932507991790771,-0.2857433557510376,-0.19448018074035645,0.89790987968444824,-0.22187244892120361,-0.29247450828552246,-0.25650811195373535,-0.95513850450515747,0.69682037830352783,0.019708752632141113,0.10078664869070053,-0.98438310623168945,-0.60315001010894775,-0.90945184230804443,-0.8620525598526001,0.59499156475067139,-0.67774415016174316,-0.6287226676940918,-0.59550321102142334,0.8198474645614624,0.0063936710357666016,0.80645382404327393,-0.80184781551361084,-0.61003673076629639,-0.066138148307800293,0.46820414066314697,0.26267468929290771,-0.28274059295654297,0.19899415969848633,-0.74405884742736816,0.36235237121582031,0.20515525341033936,-0.62701821327209473,0.23906505107879639,-0.27931118011474609,0.35358226299285889,0.25607800483703613,0.38347703218460083,0.79023849964141846,-0.78617513179779053,-0.91454434394836426,0.92367053031921387,-0.91539514064788818,0.40694409608840942,-0.6725085973739624,-0.79000568389892578,-0.18480956554412842,0.70529067516326904,-0.87079763412475586,0.61771988868713379,0.17220854759216309,-0.51045596599578857,0.6777644157409668,-0.95627415180206299,0.46600109338760376,0.25715100765228271,0.95740377902984619,-0.097296833992004395,-0.910957932472229,0.61284899711608887,-0.17666608095169067,-0.016330957412719727,0.49549150466918945,0.86007571220397949,-0.17125129699707031,0.23296694457530975,-0.47964441776275635,-0.85338795185089111,0.2873685359954834,-0.59280216693878174,-0.50517547130584717,-0.51149976253509521,0.9730372428894043,-0.064015030860900879,0.63982951641082764,-0.64720332622528076,0.45199012756347656,-0.19124555587768555,0.95607185363769531,-0.75857985019683838,0.6223376989364624,-0.51932978630065918,0.26517796516418457,-0.84740257263183594,-0.26646459102630615,0.91465187072753906,-0.2028128057718277,-0.32224118709564209,-0.11341904103755951,0.26208078861236572,0.89826250076293945,-0.35412335395812988,-0.12727272510528564,0.47110560536384583,0.62726223468780518,0.27403759956359863,0.59047770500183105,-0.27141451835632324,0.039591312408447266,-0.56212031841278076,0.81062912940979004,0.061515331268310547,0.4610896110534668,-0.76779448986053467,-0.98864269256591797,0.4942396879196167,0.12028205394744873,-0.39611241221427917,0.40781927108764648,-0.76166379451751709,-0.89333081245422363,-0.7070164680480957,-0.82070386409759521,0.84676152467727661,0.10951352119445801,0.062050938606262207,-0.61332070827484131,0.96076762676239014,0.77436947822570801,0.73548984527587891,0.37931382656097412,-0.35608780384063721,0.91367113590240479,-0.080689854919910431,-0.1057431697845459,-0.18796622753143311,0.93357527256011963,-0.23917269706726074,0.22714626789093018,0.075965762138366699,-0.85484945774078369,0.097517728805541992,-0.39845645427703857,0.46996235847473145,-0.99469590187072754,0.76639449596405029,-0.20463204383850098,-0.007350921630859375,-0.61877119541168213,-0.7026524543762207,0.90731477737426758,-0.28614246845245361,-0.83027005195617676,-0.45794987678527832,-0.33717918395996094,-0.84663403034210205,-0.5020749568939209,-0.69090437889099121,-0.99327564239501953,0.64682447910308838,-0.28477442264556885,0.99905145168304443,-0.7429124116897583,0.32446539402008057,-0.36954224109649658,-0.19071638584136963,-0.027706623077392578,0.14289867877960205,-0.43915951251983643,-0.34601044654846191,0.45557236671447754,0.2840893566608429,-0.49245810508728027,0.38046538829803467,0.58780276775360107,-0.72129952907562256,0.37448382377624512,0.40846538543701172,-0.019118666648864746,-0.14493870735168457,0.25419294834136963,-0.10747838020324707,-0.33725547790527344,0.757781982421875,0.1756209135055542,0.58012712001800537,0.33308440446853638,-0.78341007232666016,-0.35619676113128662,0.91836822032928467,0.25530242919921875,-0.84221875667572021,-0.97927844524383545,-0.99347937107086182,0.99616026878356934,0.68150591850280762,0.71380174160003662,-0.99869954586029053,-0.52534902095794678,0.78282392024993896,-0.82794249057769775,0.67424607276916504,0.34098422527313232,0.22163784503936768,0.55456185340881348,-0.43512153625488281,-0.12352383136749268,-0.65931344032287598,-0.56366634368896484,-0.067865133285522461,-0.89501857757568359,0.86118650436401367,0.12940269708633423,-0.427777498960495,0.4138338565826416,-0.081867940723896027,0.44533872604370117,0.41553068161010742,-0.60207438468933105,0.21796929836273193,-0.7223128080368042,-0.84881925582885742,-0.27945280075073242,0.80960142612457275,-1,0.45692479610443115,-0.60088944435119629,0.6203690767288208,-0.71386241912841797,-0.17989778518676758,-0.99794161319732666,0.46576297283172607,0.85335338115692139,-0.15669047832489014,0.71214747428894043,0.53180599212646484,-0.20231246948242188,0.16435873508453369,-0.058586359024047852,0.46944820880889893,0.13369119167327881,-0.2131887674331665,0.40418124198913574,0.12507398426532745,0.96854281425476074,0.80404758453369141,-0.2155916690826416,0.0019251108169555664,0.036304235458374023,-0.47804057598114014,-0.62346470355987549,-0.75813519954681396,-0.1905982494354248,0.89475631713867188,0.83507835865020752,0.18981301784515381,-0.75533056259155273,-0.35563898086547852,0.099956631660461426,0.14289236068725586,-0.07223665714263916,-0.36160624027252197,-0.48743915557861328,0.47417771816253662,-0.0089015960693359375,1,-0.36275815963745117,-0.64231634140014648,0.24078905582427979,-0.49370956420898438,0.77358746528625488,0.11605501174926758,-0.93870371580123901,0.44416570663452148,0.97949862480163574,-0.43480992317199707,0.95365095138549805,0.83355069160461426,-0.99961209297180176,0.0013344287872314453,-0.6182093620300293,-0.31138837337493896,-0.70038747787475586,-0.78820884227752686,0.097438693046569824,0.18582510948181152,0.77752101421356201,0.20035374164581299,-0.97937202453613281,-0.75849056243896484,-0.2753446102142334,-0.58808362483978271,-0.98345792293548584,0.70690906047821045,-0.71439564228057861,0.40165567398071289,0.7322845458984375,-0.84328269958496094,-0.98926448822021484,0.026289701461791992,0.96293735504150391,0.094941973686218262,0.23401212692260742,-0.26386344432830811,0.82292580604553223,0.48854333162307739,-0.48492896556854248,-0.079880714416503906,-0.1991877555847168,-0.43072646856307983,-0.089298844337463379,0.88168537616729736,-0.42724186182022095,-0.039005637168884277,0.096050381660461426,-0.79021751880645752,0.18052518367767334,-0.80684566497802734,0.93530213832855225,0.47371625900268555,-0.5380016565322876,0.95978659391403198,-0.13835099339485168,-0.078915834426879883,-1,-0.26254260540008545,0.78046572208404541,-0.2441554069519043,-0.77884465456008911,0.33146631717681885,0.57403796911239624,0.91987717151641846,-0.26423633098602295,0.59476590156555176,0.44067597389221191,0.001800537109375,-0.23796713352203369,-0.1075061559677124,0.73841845989227295,-0.93875968456268311,0.3114166259765625,0.88415634632110596,0.33761990070343018,0.076332807540893555,0.55993354320526123,-0.28643327951431274,-0.2885194718837738,0.82004165649414062,-0.47220242023468018,0.61649990081787109,0.21221339702606201,-0.26707613468170166,0.37905490398406982,0.65795624256134033,-0.98324185609817505,0.026975870132446289,0.43007361888885498,0.84830081462860107,-0.87248611450195312,-0.20728054642677307,0.17948031425476074,-0.87503445148468018,-0.19546341896057129,-0.63414096832275391,-0.077528715133666992,-0.79598057270050049,0.83972537517547607,-0.4697934091091156,-0.17764317989349365,-0.054571628570556641,-0.10191738605499268,0.072756052017211914,0.041405059397220612,0.22445714473724365,0.70852541923522949,-0.42039227485656738,0.54367107152938843,-0.048665285110473633,-0.72595065832138062,0.32362210750579834,0.50004839897155762,0.20724010467529297,-0.567099928855896,0.3405381441116333,0.4631466269493103,0.95449113845825195,0.89458572864532471,-0.55849301815032959,-0.86365401744842529,0.3696972131729126,-1,0.8361886739730835,0.081946134567260742,0.69156813621520996,-1,0.76867842674255371,0.10600578784942627,-0.23736786842346191,0.5294872522354126,-0.20301485061645508,-0.83865165710449219,1,0.013175487518310547,0.21322286128997803,-0.28731846809387207,0.19163894653320312,-0.25247621536254883,-0.53500628471374512,-1,-0.19922149181365967,-0.0058782100677490234,0.36683467030525208,-0.19308257102966309,-0.2479000985622406,0.47697943449020386,-0.92162466049194336,0.36336517333984375,0.75758194923400879,0.32978498935699463,-0.067628383636474609,-0.57563269138336182,0.0029902458190917969,0.98962581157684326,0.20828533172607422,-0.047561764717102051,0.59870588779449463,-0.18099057674407959,-0.76574981212615967,-0.6553952693939209,0.96885693073272705,0.1837763786315918,-0.86899936199188232,0.5480305552482605,-0.39915955066680908,0.12000524997711182,0.17233836650848389,-0.45103979110717773,-0.8254019021987915,-0.49070262908935547,-0.2905048131942749,0.2042548656463623,0.13890039920806885,-0.52605283260345459,0.2455066442489624,0.68930232524871826,-0.50136208534240723,-0.43726563453674316,0.77986586093902588,0.34107232093811035,0.57410871982574463,0.2556757926940918,0.82013070583343506,0.71112668514251709,0.66546213626861572,-0.25871813297271729,-0.55866527557373047,-0.055046916007995605,-0.25056758522987366,0.8049476146697998,-1,-0.14360761642456055,0.20836752653121948,-0.63075923919677734,0.47455120086669922,0.73933970928192139,-0.94847428798675537,0.48840081691741943,0.65212762355804443,0.27076888084411621,0.42567813396453857,0.41828274726867676,0.074150443077087402,-0.15720212459564209,0.71992439031600952,-0.37910473346710205,0.22207486629486084,-0.41767317056655884,-0.97640311717987061,-0.075455307960510254,-0.13546775281429291,0.84814620018005371,-0.61868667602539062,0.49660801887512207,-0.11380410194396973,0.028439760208129883,-0.72446072101593018,-0.97899031639099121,-0.73329997062683105,-0.0032279491424560547,-0.96835672855377197,0.078044652938842773,0.16163420677185059,-0.63356280326843262,-0.64578902721405029,-0.22505223751068115,0.60637855529785156,0.39049020409584045,-0.035551786422729492,0.30561518669128418,0.39353072643280029,-0.66225099563598633,-0.94295024871826172,-0.74660384654998779,-0.40858876705169678,0.25107800960540771,0.10792851448059082,-0.4266200065612793,-0.96420764923095703,0.95564806461334229,1,-0.36494499444961548,0.76016473770141602,0.21018731594085693,0.40332376956939697,0.18398433923721313,-0.57861208915710449,0.98620724678039551,-0.72414052486419678,0.28496718406677246,-0.61551904678344727,0.2631499171257019,-0.46668529510498047,-0.6323474645614624,-0.1938624382019043,-0.83980286121368408,0.85264766216278076,-1,0.36171233654022217,-0.80323970317840576,0.2056700736284256,-0.2094728946685791,-0.039093255996704102,0.56568443775177002,-0.88313460350036621,-0.17948365211486816,-0.065214395523071289,-0.80150294303894043,-0.51967525482177734,-0.072233676910400391,0.73510086536407471,-0.50577032566070557,-0.44232788681983948,0.40135133266448975,-0.71250760555267334,0.26407718658447266,0.92615199089050293,0.56624090671539307,0.64459741115570068,-0.090423703193664551,0.38470244407653809,-0.11251449584960938,0.45465362071990967,0.57405853271484375,-0.5576319694519043,0.69837594032287598,-0.23392951488494873,0.68869936466217041,0.78049027919769287,1,-0.10605335235595703,0.13756668567657471,0.12925219535827637,-0.99029767513275146,0.73915344476699829,-0.30221080780029297,0.50476562976837158,-0.3757634162902832,0.14552664756774902,-0.93379676342010498,-0.54351913928985596,-0.16624724864959717,-1,0.16053187847137451,-0.61391139030456543,-0.012598037719726562,-0.14333009719848633,1,0.324684739112854,-0.99895429611206055,-0.67872262001037598,-0.3721545934677124,0.42715167999267578,-0.51503068208694458,1,-0.53227734565734863,0.20819389820098877,-0.38647902011871338,0.5209047794342041,0.56892669200897217,-1,0.50381696224212646,1,0.69355595111846924,-0.33395016193389893,-0.24977076053619385,0.84642302989959717,0.79749250411987305,0.77109360694885254,0.95750510692596436,-0.64008438587188721,0.056456446647644043,0.37058770656585693,-0.2090374231338501,0.11995840072631836,-0.32912552356719971,-0.85924315452575684,0.94816279411315918,0.87939572334289551],[-0.49142551422119141,-0.97461545467376709,0.85872495174407959,-0.23144316673278809,-0.68049502372741699,-0.92988348007202148,-0.91771697998046875,0.86072611808776855,-0.6064453125,0.98981165885925293,-0.77939987182617188,0.019210696220397949,0.71488618850708008,1,-0.2639164924621582,0.032978653907775879,-0.4757688045501709,1,0.079956412315368652,1,0.52312600612640381,-1,-0.85434579849243164,-1,-0.82836568355560303,-0.40699854493141174,0.34390479326248169,0.41988217830657959,0.95303559303283691,0.78222441673278809,1,0.9528927206993103,-1,0.70211184024810791,0.66021108627319336,0.3354494571685791,-0.30076593160629272,1,0.4306025505065918,-0.11874891817569733,-0.86365985870361328,-0.15243661403656006,1,1,-0.31531453132629395,-0.13468527793884277,-1,0.93797051906585693,0.19707727432250977,-0.22044266760349274,1,0.63203489780426025,-0.75649511814117432,0.17359817028045654,-0.87830352783203125,0.064630746841430664,0.047314643859863281,-1,-0.22821879386901855,0.32155847549438477,0.061689198017120361,-0.37644198536872864,0.74709105491638184,0.049718379974365234,-0.88818371295928955,-1,-0.099478244781494141,-0.78942692279815674,-0.88978946208953857,0.77053791284561157,-0.60105180740356445,-0.43634533882141113,-0.24315395951271057,0.8710474967956543,0.43830549716949463,-0.95372247695922852,0.31337225437164307,0.88993394374847412,0.30663132667541504,-0.02544616162776947,0.83851385116577148,-0.8618701696395874,0.80798602104187012,-0.69111144542694092,-0.44497275352478027,-0.65311574935913086,0.6978304386138916,-0.15719366073608398,-0.79490935802459717,0.033921957015991211,-0.20753777027130127,-0.11747920513153076,-0.048609256744384766,-0.1884305477142334,0.34429526329040527,-0.075653083622455597,-0.98944532871246338,0.73386871814727783,-0.19452071189880371,-0.35685503482818604,-0.25296059250831604,-0.32189750671386719,-0.57695472240447998,-0.24157121777534485,-0.87526094913482666,-0.37253093719482422,0.1867213100194931,0.11174564063549042,0.97919166088104248,-0.5,-1,0.03339405357837677,-0.26127010583877563,-0.072148799896240234,-0.13620871305465698,-0.88590812683105469,-0.069113850593566895,0.97724318504333496,-0.39345192909240723,0.42715442180633545,-0.03652036190032959,0.65221321582794189,-0.787727952003479,0.73568964004516602,-0.68056172132492065,-0.23267048597335815,-0.31037229299545288,0.4883263111114502,0.53474545478820801,0.27122807502746582,1,0.63977146148681641,0.30022454261779785,0.78348016738891602,0.80125856399536133,-0.81477189064025879,0.62527167797088623,0.19571524858474731,0.92942309379577637,-0.30357050895690918,-0.38371050357818604,0.81030905246734619,0.65604352951049805,0.50877457857131958,0.43713438510894775,-0.53028666973114014,0.39172828197479248,-0.55611574649810791,0.090010583400726318,1,-0.043200850486755371,-0.88349413871765137,0.32222408056259155,0.63125514984130859,-0.80483758449554443,0.5187079906463623,-0.65538465976715088,-0.39107668399810791,0.31174153089523315,0.43911254405975342,0.3163529634475708,-0.53497213125228882,0.37931740283966064,-0.18665456771850586,0.69898271560668945,-0.02978062629699707,-0.58515393733978271,-0.2392430305480957,0.11920403689146042,-0.90390515327453613,0.48637354373931885,-0.5819244384765625,-0.60633325576782227,0.17079097032546997,-0.1888434886932373,-0.19145035743713379,0.22847986221313477,0.99374198913574219,-0.4519401490688324,0.87517130374908447,-0.26671266555786133,0.77699053287506104,0.98952591419219971,-1,0.22127652168273926,0.9871596097946167,-1,-0.73932445049285889,-0.47712498903274536,-0.62163424491882324,0.58915364742279053,-0.76205122470855713,1,-0.96934080123901367,-0.38720771670341492,0.07611382007598877,-0.087145090103149414,-0.33737087249755859,0.3768315315246582,-1,0.047235488891601562,-0.0016247025923803449,-0.40192723274230957,-0.21640434861183167,0.33474612236022949,-0.94939351081848145,0.91165006160736084,0.040960326790809631,-0.95642423629760742,0.3125883936882019,0.1231868714094162,-0.51314330101013184,-1,1,0.59043872356414795,0.321449875831604,0.24196279048919678,0.35710418224334717,-0.052123904228210449,0.45249900221824646,-0.12239634990692139,0.98156279325485229,-0.23640131950378418,0.57412928342819214,0.33686888217926025,0.71093368530273438,0.12821948528289795,-0.16030323505401611,0.17143028974533081,0.47309744358062744,0.94786155223846436,0.13779246807098389,-0.41286313533782959,-0.36060130596160889,-0.38123634457588196,0.58811473846435547,0.1650540828704834,-0.74131512641906738,-0.11884081363677979,0.85863816738128662,0.47459173202514648,0.61668252944946289,0.49253380298614502,0.43934929370880127,-0.21243917942047119,0.61997139453887939,-0.4722059965133667,0.62064874172210693,-0.17787899076938629,-0.62441045045852661,-0.98975324630737305,-1,-0.098477840423583984,0.91595423221588135,-0.061502933502197266,-0.84018123149871826,0.61328136920928955,0.59642612934112549,-0.92839968204498291,-0.0057828426361083984,0.53179383277893066,0.44514346122741699,0.59544360637664795,-1,0.43351456522941589,0.053102970123291016,-0.82852709293365479,-0.15923154354095459,-0.44767177104949951,0.89525091648101807,0.28297817707061768,-0.040244102478027344,1,0.35435611009597778,-0.021052718162536621,0.4192696213722229,0.20017218589782715,-0.97982525825500488,0.019412849098443985,0.69760453701019287,0.30746927857398987,0.028532451018691063,-0.45522224903106689,0.86136829853057861,-0.93107414245605469,-0.93406796455383301,0.29914712905883789,-0.74091070890426636],[0.050382494926452637,0.65847897529602051,0.10116636753082275,-1,0.15303096175193787,0.039660513401031494,0.11215126514434814,0.76026380062103271,-0.74294757843017578,0.22961436212062836,-0.22103700041770935,-0.51730501651763916,0.811279296875,-1,1,-0.82670485973358154,-0.68518936634063721,-0.35350090265274048,0.48843741416931152,-1,0.020440073683857918,-0.33662861585617065,-0.67553508281707764,0.19075863063335419,0.90507400035858154,0.2322111576795578,0.61802768707275391,0.87108814716339111,0.60625839233398438,0.063898921012878418,-0.42544066905975342,-0.012801051139831543,-1,-1,-0.69801658391952515,-0.44497853517532349,-0.62741202116012573,0.45424628257751465,-0.24096299707889557,-0.3689497709274292,0.09851112961769104,-0.34138739109039307,0.75352460145950317,0.78144800662994385,-0.22430318593978882,1,-0.59178692102432251,0.6979137659072876,0.5,0.56836539506912231,-0.67039263248443604,-0.36914432048797607,-0.16475588083267212,-0.23476278781890869,1,0.11622496694326401,-0.57982027530670166,-0.79348039627075195,-0.42717981338500977,-0.35308325290679932,-0.45544135570526123,0.20565676689147949,-0.16652886569499969,-0.098072350025177002,-0.30530822277069092,-0.48098897933959961,-0.59656953811645508,0.33874839544296265,-0.5,1,-0.51652234792709351,0.19363139569759369,-0.51574355363845825,-0.21491123735904694,-0.50738537311553955,0.33199703693389893,0.58854222297668457,-1,-0.54455411434173584,0.48174241185188293,0.44858944416046143,0.9116750955581665,-0.39533442258834839,0.26348686218261719,0.70957750082015991,0.28862762451171875,-0.36343675851821899,0.28002142906188965,-0.65366071462631226,-0.62347102165222168,-0.77841830253601074,0.87912106513977051,0.29504656791687012,-1,0.24856805801391602,1]],"id":"55CE81D1-6469-4263-9F0C-C87B0802394B","generation":213,"hiddenCounts":[24,12],"inputCount":30,"outputCount":8},
{"biases":[[],[0.61071884632110596,-0.22176051139831543,-0.070320367813110352,1,0.41997909545898438,1,0.5,0.049905449151992798,0.29435735940933228,-0.15423963963985443,1,-0.29378616809844971,-1,1,-0.62602055072784424,0.40931928157806396,-0.062685012817382812,0.15546244382858276,0.040679275989532471,-1,0.50270217657089233,-0.27295386791229248,1,0.22979363799095154],[-0.32877629995346069,-0.07980559766292572,0.91798406839370728,1,0.5,-0.3785862922668457,-0.098999738693237305,1,-0.30935552716255188,-0.32980060577392578,0.12931537628173828,-0.92209100723266602],[-1,-0.10016734898090363,-0.43939307332038879,0.25747573375701904,0.47301608324050903,0.56564867496490479,-0.19925767183303833,-1]],"weights":[[],[0.83471083641052246,0.23415458202362061,0.17623376846313477,1,-0.13221269845962524,0.63587343692779541,-0.9471735954284668,0.11822164058685303,-0.72527265548706055,0.3061671257019043,0.7829359769821167,0.90638339519500732,1,0.86246895790100098,0.53011834621429443,0.93449509143829346,-0.26897251605987549,0.077516078948974609,0.14006876945495605,0.3318864107131958,-0.035900354385375977,-0.57409608364105225,0.022897958755493164,-0.47490525245666504,-0.50750279426574707,0.073002934455871582,-0.84689033031463623,0.4064018726348877,0.41522550582885742,0.78853309154510498,-0.16709542274475098,-0.77447378635406494,0.77021479606628418,0.76954472064971924,0.29576468467712402,0.046635150909423828,-0.56744086742401123,-0.9558863639831543,-0.28558540344238281,0.92856490612030029,-0.29932701587677002,-0.6501929759979248,0.46565008163452148,0.46384024620056152,0.32681706547737122,0.93388521671295166,-0.41338264942169189,-0.34027540683746338,-0.60024845600128174,-0.37590456008911133,0.59420275688171387,-0.34125983715057373,-0.38934326171875,-0.49976587295532227,0.53663468360900879,0.046949386596679688,-0.10785936564207077,-0.37868070602416992,-0.14480309188365936,0.44518101215362549,-0.12537467479705811,0.2949211597442627,0.1160968542098999,-0.53260362148284912,0.63197028636932373,-0.45124983787536621,-0.49427735805511475,-0.45092272758483887,-0.027807235717773438,0.46182727813720703,-0.46890425682067871,-0.82280147075653076,0.46197417378425598,-0.018207669258117676,0.90611302852630615,-0.0069859027862548828,-0.19828963279724121,-0.3794935941696167,0.21865721046924591,0.18526405096054077,-0.35532879829406738,-0.69602310657501221,0.74225974082946777,-0.85596215724945068,0.025901556015014648,0.4119952917098999,-0.30887418985366821,0.35259795188903809,-0.38375377655029297,-0.34340190887451172,-0.67637801170349121,0.85736513137817383,0.91062676906585693,-0.029362082481384277,-0.27443921566009521,-0.55513477325439453,-0.89399826526641846,0.56658852100372314,-0.13853967189788818,-0.82393383979797363,-0.43370664119720459,-0.45009756088256836,-0.63047480583190918,-1,0.81746292114257812,-0.59461379051208496,0.19047534465789795,0.45122358202934265,0.63027095794677734,-0.40919995307922363,0.66928887367248535,-0.38845312595367432,-0.66295516490936279,0.73053061962127686,0.14814317226409912,0.059529542922973633,0.1317894458770752,-0.43821847438812256,-0.89268898963928223,-1,0.4462311863899231,0.17189168930053711,-0.57932507991790771,-0.2857433557510376,-0.19448018074035645,0.89790987968444824,-0.22187244892120361,-0.29247450828552246,-0.25650811195373535,-0.95513850450515747,0.69682037830352783,0.019708752632141113,0.10078664869070053,-0.98438310623168945,-0.60315001010894775,-0.90945184230804443,-0.8620525598526001,0.59499156475067139,-0.67774415016174316,-0.6287226676940918,-0.59550321102142334,0.8198474645614624,0.0063936710357666016,0.80645382404327393,-0.80184781551361084,-0.61003673076629639,-0.066138148307800293,0.46820414066314697,0.26267468929290771,-0.28274059295654297,0.19899415969848633,-0.74405884742736816,0.36235237121582031,0.20515525341033936,-0.62701821327209473,0.23906505107879639,-0.27931118011474609,0.35358226299285889,0.25607800483703613,0.38347703218460083,0.79023849964141846,-0.78617513179779053,-0.91454434394836426,0.92367053031921387,-0.91539514064788818,0.40694409608840942,-0.6725085973739624,-0.79000568389892578,-0.18480956554412842,0.70529067516326904,-0.87079763412475586,0.61771988868713379,0.17220854759216309,-0.51045596599578857,0.6777644157409668,-0.95627415180206299,0.46600109338760376,0.25715100765228271,0.95740377902984619,-0.097296833992004395,-0.910957932472229,0.61284899711608887,-0.17666608095169067,-0.016330957412719727,0.49549150466918945,0.86007571220397949,-0.17125129699707031,0.23296694457530975,-0.47964441776275635,-0.85338795185089111,0.2873685359954834,-0.59280216693878174,-0.50517547130584717,-0.51149976253509521,0.9730372428894043,-0.064015030860900879,0.63982951641082764,-0.64720332622528076,0.45199012756347656,-0.19124555587768555,0.95607185363769531,-0.75857985019683838,0.6223376989364624,-0.51932978630065918,0.26517796516418457,-0.84740257263183594,-0.26646459102630615,0.91465187072753906,-0.2028128057718277,-0.32224118709564209,-0.11341904103755951,0.26208078861236572,0.89826250076293945,-0.35412335395812988,-0.12727272510528564,0.47110560536384583,0.62726223468780518,0.27403759956359863,0.59047770500183105,-0.27141451835632324,0.039591312408447266,-0.56212031841278076,0.81062912940979004,0.061515331268310547,0.4610896110534668,-0.76779448986053467,-0.98864269256591797,0.4942396879196167,0.12028205394744873,-0.39611241221427917,0.40781927108764648,-0.76166379451751709,-0.89333081245422363,-0.7070164680480957,-0.82070386409759521,0.84676152467727661,0.10951352119445801,0.062050938606262207,-0.61332070827484131,0.96076762676239014,0.77436947822570801,0.73548984527587891,0.37931382656097412,-0.35608780384063721,0.91367113590240479,-0.080689854919910431,-0.1057431697845459,-0.18796622753143311,0.93357527256011963,-0.23917269706726074,0.22714626789093018,0.075965762138366699,-0.85484945774078369,0.097517728805541992,-0.39845645427703857,0.46996235847473145,-0.99469590187072754,0.76639449596405029,-0.20463204383850098,-0.007350921630859375,-0.61877119541168213,-0.7026524543762207,0.90731477737426758,-0.28614246845245361,-0.83027005195617676,-0.45794987678527832,-0.33717918395996094,-0.84663403034210205,-0.5020749568939209,-0.69090437889099121,-0.99327564239501953,0.64682447910308838,-0.28477442264556885,0.99905145168304443,-0.7429124116897583,0.32446539402008057,-0.36954224109649658,-0.19071638584136963,-0.027706623077392578,0.14289867877960205,-0.43915951251983643,-0.34601044654846191,0.45557236671447754,0.2840893566608429,-0.49245810508728027,0.38046538829803467,0.58780276775360107,-0.72129952907562256,0.37448382377624512,0.40846538543701172,-0.019118666648864746,-0.14493870735168457,-0.079549908638000488,-0.10747838020324707,-0.33725547790527344,0.757781982421875,0.1756209135055542,0.58012712001800537,0.33308440446853638,-0.78341007232666016,-0.35619676113128662,0.91836822032928467,0.25530242919921875,-0.84221875667572021,-0.97927844524383545,-0.99347937107086182,0.99616026878356934,0.68150591850280762,0.71380174160003662,-0.99869954586029053,-0.52534902095794678,0.78282392024993896,-0.82794249057769775,0.67424607276916504,0.34098422527313232,0.22163784503936768,0.55456185340881348,-0.43512153625488281,-0.12352383136749268,-0.65931344032287598,-0.56366634368896484,-0.067865133285522461,-0.89501857757568359,0.86118650436401367,0.12940269708633423,-0.427777498960495,0.4138338565826416,-0.081867940723896027,0.44533872604370117,0.41553068161010742,-0.60207438468933105,0.21796929836273193,-0.7223128080368042,-0.84881925582885742,-0.27945280075073242,0.80960142612457275,-1,0.45692479610443115,-0.60088944435119629,0.6203690767288208,-0.71386241912841797,-0.17989778518676758,-0.99794161319732666,0.46576297283172607,0.85335338115692139,-0.15669047832489014,0.71214747428894043,0.53180599212646484,-0.20231246948242188,0.16435873508453369,-0.058586359024047852,0.46944820880889893,0.13369119167327881,-0.2131887674331665,0.40418124198913574,0.12507398426532745,0.96854281425476074,0.80404758453369141,-0.2155916690826416,0.0019251108169555664,0.036304235458374023,-0.47804057598114014,-0.62346470355987549,-0.75813519954681396,-0.1905982494354248,0.89475631713867188,0.83507835865020752,0.18981301784515381,-0.75533056259155273,-0.35563898086547852,0.099956631660461426,0.14289236068725586,-0.07223665714263916,-0.36160624027252197,-0.48743915557861328,0.47417771816253662,-0.0089015960693359375,1,-0.36275815963745117,-0.64231634140014648,0.24078905582427979,-0.49370956420898438,0.77358746528625488,0.11605501174926758,-0.93870371580123901,0.44416570663452148,0.97949862480163574,-0.43480992317199707,0.95365095138549805,0.83355069160461426,-0.99961209297180176,0.0013344287872314453,-0.6182093620300293,-0.31138837337493896,-0.70038747787475586,-0.78820884227752686,0.097438693046569824,0.18582510948181152,0.77752101421356201,0.20035374164581299,-0.97937202453613281,-0.75849056243896484,-0.2753446102142334,-0.58808362483978271,-0.98345792293548584,0.70690906047821045,-0.71439564228057861,0.40165567398071289,0.7322845458984375,-0.84328269958496094,-0.98926448822021484,0.026289701461791992,0.96293735504150391,0.094941973686218262,0.23401212692260742,-0.26386344432830811,0.82292580604553223,0.48854333162307739,-0.48492896556854248,-0.079880714416503906,-0.1991877555847168,-0.43072646856307983,-0.089298844337463379,0.88168537616729736,-0.42724186182022095,-0.039005637168884277,0.096050381660461426,-0.79021751880645752,0.18052518367767334,-0.80684566497802734,0.93530213832855225,0.47371625900268555,-0.5380016565322876,0.95978659391403198,-0.13835099339485168,-0.078915834426879883,-1,-0.26254260540008545,0.78046572208404541,-0.2441554069519043,-0.77884465456008911,0.33146631717681885,0.57403796911239624,0.91987717151641846,-0.26423633098602295,0.59476590156555176,0.44067597389221191,0.001800537109375,-0.23796713352203369,-0.1075061559677124,0.73841845989227295,-0.93875968456268311,0.3114166259765625,0.88415634632110596,0.33761990070343018,0.076332807540893555,0.55993354320526123,-0.28643327951431274,-0.2885194718837738,0.82004165649414062,-0.47220242023468018,0.61649990081787109,0.21221339702606201,-0.26707613468170166,0.37905490398406982,0.65795624256134033,-0.98324185609817505,0.026975870132446289,0.43007361888885498,0.84830081462860107,-0.87248611450195312,-0.20728054642677307,0.17948031425476074,-0.87503445148468018,-0.19546341896057129,-0.63414096832275391,-0.077528715133666992,-0.79598057270050049,0.83972537517547607,-0.4697934091091156,-0.17764317989349365,-0.054571628570556641,-0.10191738605499268,0.072756052017211914,0.041405059397220612,0.22445714473724365,0.70852541923522949,-0.42039227485656738,0.54367107152938843,-0.048665285110473633,-0.72595065832138062,0.32362210750579834,0.50004839897155762,0.20724010467529297,-0.567099928855896,0.3405381441116333,0.4631466269493103,0.95449113845825195,0.89458572864532471,-0.55849301815032959,0.70456874370574951,0.3696972131729126,-1,0.8361886739730835,0.081946134567260742,0.69156813621520996,-1,0.76867842674255371,0.10600578784942627,-0.23736786842346191,0.5294872522354126,-0.20301485061645508,-0.83865165710449219,1,0.013175487518310547,0.21322286128997803,-0.28731846809387207,0.19163894653320312,-0.25247621536254883,-0.53500628471374512,-1,-0.19922149181365967,-0.0058782100677490234,0.36683467030525208,-0.19308257102966309,-0.2479000985622406,0.47697943449020386,-0.92162466049194336,0.36336517333984375,0.75758194923400879,0.32978498935699463,-0.067628383636474609,-0.57563269138336182,0.0029902458190917969,0.98962581157684326,0.20828533172607422,-0.047561764717102051,0.59870588779449463,-0.18099057674407959,-0.76574981212615967,-0.6553952693939209,0.96885693073272705,0.1837763786315918,-0.86899936199188232,0.5480305552482605,-0.39915955066680908,0.12000524997711182,0.17233836650848389,-0.45103979110717773,-0.8254019021987915,-0.49070262908935547,-0.2905048131942749,0.2042548656463623,0.13890039920806885,-0.52605283260345459,0.2455066442489624,0.68930232524871826,-0.50136208534240723,-0.43726563453674316,0.77986586093902588,0.34107232093811035,0.57410871982574463,0.2556757926940918,0.82013070583343506,0.71112668514251709,0.66546213626861572,-0.25871813297271729,-0.55866527557373047,-0.055046916007995605,-0.25056758522987366,0.8049476146697998,-1,-0.14360761642456055,0.20836752653121948,-0.63075923919677734,0.47455120086669922,0.73933970928192139,-0.94847428798675537,0.48840081691741943,0.65212762355804443,0.27076888084411621,0.42567813396453857,0.41828274726867676,0.074150443077087402,-0.15720212459564209,0.71992439031600952,-0.37910473346710205,0.22207486629486084,-0.41767317056655884,-0.97640311717987061,-0.075455307960510254,-0.13546775281429291,0.84814620018005371,-0.61868667602539062,0.49660801887512207,-0.11380410194396973,0.028439760208129883,-0.72446072101593018,-0.97899031639099121,-0.73329997062683105,-0.0032279491424560547,-0.96835672855377197,0.078044652938842773,0.16163420677185059,-0.63356280326843262,-0.64578902721405029,-0.22505223751068115,0.60637855529785156,0.39049020409584045,-0.035551786422729492,0.30561518669128418,0.39353072643280029,-0.66225099563598633,-0.94295024871826172,-0.74660384654998779,-0.40858876705169678,0.25107800960540771,0.10792851448059082,-0.4266200065612793,-0.96420764923095703,0.95564806461334229,1,-0.36494499444961548,0.76016473770141602,0.21018731594085693,0.40332376956939697,0.18398433923721313,-0.57861208915710449,0.98620724678039551,-0.72414052486419678,0.28496718406677246,-0.61551904678344727,0.2631499171257019,-0.46668529510498047,-0.6323474645614624,-0.1938624382019043,-0.83980286121368408,0.85264766216278076,-1,0.36171233654022217,-0.80323970317840576,0.2056700736284256,-0.2094728946685791,-0.039093255996704102,0.56568443775177002,-0.88313460350036621,-0.17948365211486816,-0.065214395523071289,-0.80150294303894043,-0.51967525482177734,-0.072233676910400391,0.73510086536407471,-0.50577032566070557,-0.44232788681983948,0.40135133266448975,-0.71250760555267334,0.26407718658447266,0.92615199089050293,0.56624090671539307,0.64459741115570068,-0.090423703193664551,0.38470244407653809,-0.11251449584960938,0.45465362071990967,0.57405853271484375,-0.5576319694519043,0.69837594032287598,-0.23392951488494873,0.68869936466217041,0.78049027919769287,1,-0.10605335235595703,0.13756668567657471,0.12925219535827637,-0.99029767513275146,0.73915344476699829,-0.30221080780029297,0.50476562976837158,-0.3757634162902832,0.14552664756774902,-0.93379676342010498,-0.54351913928985596,-0.16624724864959717,-1,0.16053187847137451,-0.61391139030456543,-0.012598037719726562,-0.14333009719848633,1,0.324684739112854,-0.99895429611206055,-0.67872262001037598,-0.3721545934677124,0.42715167999267578,-0.51503068208694458,1,-0.53227734565734863,0.20819389820098877,-0.38647902011871338,0.5209047794342041,0.56892669200897217,-1,0.50381696224212646,1,0.69355595111846924,-0.33395016193389893,-0.24977076053619385,0.84642302989959717,0.79749250411987305,0.77109360694885254,0.95750510692596436,-0.64008438587188721,0.056456446647644043,0.37058770656585693,-0.2090374231338501,0.11995840072631836,-0.32912552356719971,-0.85924315452575684,0.94816279411315918,0.87939572334289551],[-0.49142551422119141,-0.97461545467376709,0.85872495174407959,-0.23144316673278809,-0.68049502372741699,-0.92988348007202148,-0.91771697998046875,0.86072611808776855,-0.6064453125,0.98981165885925293,-0.77939987182617188,0.019210696220397949,0.71488618850708008,1,-0.2639164924621582,0.032978653907775879,-0.4757688045501709,1,0.079956412315368652,1,0.52312600612640381,-1,-0.85434579849243164,-1,-0.82836568355560303,-0.40699854493141174,0.34390479326248169,0.41988217830657959,0.95303559303283691,0.78222441673278809,1,0.9528927206993103,-1,0.70211184024810791,0.66021108627319336,0.3354494571685791,-0.30076593160629272,1,0.4306025505065918,-0.11874891817569733,-0.86365985870361328,-0.15243661403656006,1,1,-0.31531453132629395,-0.13468527793884277,-1,0.93797051906585693,0.19707727432250977,-0.22044266760349274,1,0.63203489780426025,-0.75649511814117432,0.17359817028045654,-0.87830352783203125,0.064630746841430664,0.047314643859863281,-1,-0.22821879386901855,0.32155847549438477,0.061689198017120361,-0.37644198536872864,0.74709105491638184,0.049718379974365234,-0.88818371295928955,-1,-0.099478244781494141,-0.78942692279815674,-0.88978946208953857,0.77053791284561157,-0.60105180740356445,-0.43634533882141113,-0.24315395951271057,0.8710474967956543,0.43830549716949463,-0.95372247695922852,0.31337225437164307,0.88993394374847412,0.30663132667541504,-0.02544616162776947,0.83851385116577148,-0.8618701696395874,0.80798602104187012,-0.69111144542694092,-0.44497275352478027,-0.65311574935913086,0.6978304386138916,-0.15719366073608398,-0.79490935802459717,0.033921957015991211,-0.20753777027130127,-0.11747920513153076,-0.048609256744384766,-0.1884305477142334,0.34429526329040527,-0.075653083622455597,-0.98944532871246338,0.73386871814727783,-0.19452071189880371,-0.35685503482818604,-0.25296059250831604,-0.32189750671386719,-0.57695472240447998,-0.24157121777534485,-0.87526094913482666,-0.37253093719482422,0.1867213100194931,0.11174564063549042,0.97919166088104248,-0.5,-1,0.03339405357837677,-0.26127010583877563,-0.072148799896240234,-0.13620871305465698,-0.88590812683105469,-0.069113850593566895,0.97724318504333496,-0.39345192909240723,0.42715442180633545,-0.03652036190032959,0.65221321582794189,-0.787727952003479,0.73568964004516602,-0.68056172132492065,-0.23267048597335815,-0.31037229299545288,0.4883263111114502,0.53474545478820801,0.27122807502746582,1,0.63977146148681641,0.30022454261779785,0.78348016738891602,0.80125856399536133,-0.81477189064025879,0.62527167797088623,0.19571524858474731,0.92942309379577637,-0.30357050895690918,-0.38371050357818604,0.81030905246734619,0.65604352951049805,0.50877457857131958,0.43713438510894775,-0.53028666973114014,0.39172828197479248,-0.55611574649810791,0.090010583400726318,1,-0.043200850486755371,-0.88349413871765137,0.32222408056259155,0.63125514984130859,-0.80483758449554443,0.5187079906463623,-0.65538465976715088,-0.39107668399810791,0.31174153089523315,0.43911254405975342,0.3163529634475708,-0.53497213125228882,0.37931740283966064,-0.06604313850402832,0.69898271560668945,-0.02978062629699707,-0.58515393733978271,-0.2392430305480957,0.11920403689146042,-0.90390515327453613,0.48637354373931885,-0.5819244384765625,-0.60633325576782227,0.17079097032546997,-0.1888434886932373,-0.19145035743713379,0.22847986221313477,0.99374198913574219,-0.4519401490688324,0.87517130374908447,-0.26671266555786133,0.77699053287506104,0.98952591419219971,-1,0.22127652168273926,0.9871596097946167,-1,-0.73932445049285889,-0.47712498903274536,-0.62163424491882324,0.58915364742279053,-0.3345051109790802,1,-0.96934080123901367,-0.38720771670341492,0.07611382007598877,-0.087145090103149414,-0.33737087249755859,0.3768315315246582,-1,0.047235488891601562,-0.0016247025923803449,-0.40192723274230957,-0.21640434861183167,0.33474612236022949,-0.94939351081848145,0.91165006160736084,0.040960326790809631,-0.95642423629760742,0.3125883936882019,0.1231868714094162,-0.51314330101013184,-1,1,0.59043872356414795,0.321449875831604,0.24196279048919678,0.35710418224334717,-0.052123904228210449,0.45249900221824646,-0.12239634990692139,0.98156279325485229,-0.23640131950378418,0.57412928342819214,0.33686888217926025,0.71093368530273438,0.12821948528289795,-0.16030323505401611,0.17143028974533081,0.47309744358062744,0.94786155223846436,0.13779246807098389,-0.41286313533782959,-0.36060130596160889,-0.38123634457588196,0.58811473846435547,0.1650540828704834,-0.74131512641906738,-0.11884081363677979,0.85863816738128662,0.47459173202514648,0.61668252944946289,0.49253380298614502,0.43934929370880127,-0.21243917942047119,0.61997139453887939,-0.4722059965133667,0.62064874172210693,-0.17787899076938629,-0.62441045045852661,-0.98975324630737305,-1,-0.098477840423583984,0.91595423221588135,-0.061502933502197266,-0.84018123149871826,0.61328136920928955,0.59642612934112549,-0.92839968204498291,-0.0057828426361083984,0.53179383277893066,0.44514346122741699,0.59544360637664795,-1,0.43351456522941589,0.053102970123291016,-0.82852709293365479,-0.15923154354095459,-0.44767177104949951,0.89525091648101807,0.28297817707061768,-0.040244102478027344,1,0.35435611009597778,-0.021052718162536621,0.4192696213722229,0.20017218589782715,-0.97982525825500488,0.019412849098443985,0.69760453701019287,0.30746927857398987,0.028532451018691063,-0.45522224903106689,0.86136829853057861,-0.93107414245605469,-0.93406796455383301,0.29914712905883789,-0.74091070890426636],[0.050382494926452637,0.65847897529602051,0.10116636753082275,-1,0.15303096175193787,0.039660513401031494,0.11215126514434814,0.76026380062103271,-0.74294757843017578,0.22961436212062836,-0.22103700041770935,-0.51730501651763916,0.811279296875,-1,1,-0.82670485973358154,-0.68518936634063721,-0.35350090265274048,0.48843741416931152,-1,0.020440073683857918,-0.67325723171234131,-0.67553508281707764,0.38151726126670837,0.90507400035858154,0.2322111576795578,0.61802768707275391,0.87108814716339111,0.60625839233398438,0.063898921012878418,-0.42544066905975342,-0.012801051139831543,-1,-1,-0.69801658391952515,-0.44497853517532349,-0.62741202116012573,0.45424628257751465,-0.24096299707889557,-0.3689497709274292,0.09851112961769104,-0.34138739109039307,0.75352460145950317,0.78144800662994385,-0.22430318593978882,1,-0.59178692102432251,0.6979137659072876,0.5,0.56836539506912231,-0.67039263248443604,-0.36914432048797607,-0.16475588083267212,-0.23476278781890869,1,0.11622496694326401,-0.57982027530670166,-0.79348039627075195,-0.42717981338500977,-0.35308325290679932,-0.13729105889797211,0.20565676689147949,-0.16652886569499969,-0.098072350025177002,-0.30530822277069092,-0.48098897933959961,-0.59656953811645508,0.33874839544296265,-0.5,1,-0.51652234792709351,0.19363139569759369,-0.51574355363845825,-0.21491123735904694,-0.50738537311553955,0.33199703693389893,0.58854222297668457,-1,-0.54455411434173584,0.48174241185188293,0.44858944416046143,-0.1166156530380249,-0.39533442258834839,0.26348686218261719,0.70957750082015991,0.28862762451171875,-0.36343675851821899,0.28002142906188965,-0.65366071462631226,-0.62347102165222168,-0.77841830253601074,0.87912106513977051,0.29504656791687012,-1,0.24856805801391602,1]],"id":"EE34409F-9748-4F49-833C-7074AF249F37","generation":213,"hiddenCounts":[24,12],"inputCount":30,"outputCount":8},
{"biases":[[],[0.61071884632110596,-0.22176051139831543,-0.070320367813110352,1,0.41997909545898438,1,0.8965904712677002,0.049905449151992798,0.29435735940933228,0.17925335466861725,1,-0.29378616809844971,-1,1,-0.62602055072784424,0.40931928157806396,0.19924430549144745,0.15546244382858276,0.040679275989532471,-0.76531004905700684,0.50270217657089233,-0.27295386791229248,1,0.22979363799095154],[-0.32877629995346069,-0.15961119532585144,0.91798406839370728,1,0.5,-0.3785862922668457,-0.52265501022338867,1,-0.61871105432510376,-0.32980060577392578,0.12931537628173828,-0.92209100723266602],[-1,-0.10016734898090363,-0.43939307332038879,0.25747573375701904,0.47301608324050903,0.56564867496490479,-0.19925767183303833,-1]],"weights":[[],[0.83471083641052246,0.23415458202362061,0.17623376846313477,0.83597588539123535,-0.13221269845962524,0.63587343692779541,-0.9471735954284668,0.11822164058685303,-0.72527265548706055,0.3061671257019043,0.7829359769821167,0.90638339519500732,1,0.86246895790100098,0.53011834621429443,0.93449509143829346,-0.26897251605987549,0.077516078948974609,0.14006876945495605,0.3318864107131958,-0.035900354385375977,-0.57409608364105225,0.022897958755493164,-0.47490525245666504,-0.50750279426574707,0.073002934455871582,-0.84689033031463623,0.4064018726348877,0.41522550582885742,0.78853309154510498,-0.16709542274475098,-0.77447378635406494,0.77021479606628418,0.76954472064971924,0.29576468467712402,0.046635150909423828,-0.56744086742401123,-0.9558863639831543,-0.28558540344238281,0.92856490612030029,-0.29932701587677002,-0.6501929759979248,0.46565008163452148,0.46384024620056152,0.32681706547737122,0.93388521671295166,-0.41338264942169189,-0.34027540683746338,-0.60024845600128174,-0.37590456008911133,0.59420275688171387,-0.34125983715057373,-0.38934326171875,-0.49976587295532227,0.53663468360900879,0.046949386596679688,-0.10785936564207077,-0.37868070602416992,-0.14480309188365936,0.44518101215362549,-0.12537467479705811,0.2949211597442627,0.1160968542098999,-0.53260362148284912,0.63197028636932373,-0.45124983787536621,-0.49427735805511475,-0.45092272758483887,-0.027807235717773438,0.46182727813720703,-0.46890425682067871,-0.82280147075653076,0.46197417378425598,-0.018207669258117676,0.90611302852630615,-0.0069859027862548828,-0.19828963279724121,-0.3794935941696167,0.21865721046924591,0.18526405096054077,-0.35532879829406738,-0.69602310657501221,0.74225974082946777,-0.85596215724945068,0.025901556015014648,0.4119952917098999,-0.30887418985366821,0.35259795188903809,-0.38375377655029297,-0.34340190887451172,-0.67637801170349121,0.85736513137817383,0.91062676906585693,-0.029362082481384277,-0.27443921566009521,-0.55513477325439453,-0.89399826526641846,0.56658852100372314,-0.13853967189788818,-0.82393383979797363,-0.43370664119720459,-0.45009756088256836,-0.63047480583190918,-1,0.81746292114257812,-0.59461379051208496,0.19047534465789795,0.45122358202934265,0.63027095794677734,-0.40919995307922363,0.66928887367248535,-0.38845312595367432,-0.66295516490936279,0.73053061962127686,0.14814317226409912,0.059529542922973633,0.1317894458770752,-0.43821847438812256,-0.89268898963928223,-1,0.4462311863899231,0.17189168930053711,-0.57932507991790771,-0.2857433557510376,-0.19448018074035645,0.89790987968444824,-0.22187244892120361,-0.29247450828552246,-0.25650811195373535,-0.95513850450515747,0.69682037830352783,0.019708752632141113,0.10078664869070053,-0.98438310623168945,-0.60315001010894775,-0.90945184230804443,-0.8620525598526001,0.59499156475067139,-0.67774415016174316,-0.6287226676940918,-0.59550321102142334,0.8198474645614624,0.0063936710357666016,0.80645382404327393,-0.80184781551361084,-0.61003673076629639,-0.066138148307800293,0.46820414066314697,0.26267468929290771,-0.28274059295654297,0.19899415969848633,-0.74405884742736816,0.36235237121582031,0.20515525341033936,-0.62701821327209473,0.23906505107879639,-0.27931118011474609,0.35358226299285889,0.25607800483703613,0.38347703218460083,0.79023849964141846,-0.78617513179779053,-0.91454434394836426,0.92367053031921387,-0.91539514064788818,0.40694409608840942,-0.6725085973739624,-0.79000568389892578,-0.18480956554412842,0.70529067516326904,-0.87079763412475586,0.61771988868713379,0.17220854759216309,-0.51045596599578857,0.6777644157409668,-0.95627415180206299,0.46600109338760376,0.25715100765228271,0.95740377902984619,-0.097296833992004395,-0.910957932472229,0.61284899711608887,-0.17666608095169067,-0.016330957412719727,0.49549150466918945,0.86007571220397949,-0.17125129699707031,0.23296694457530975,-0.47964441776275635,-0.85338795185089111,0.2873685359954834,-0.59280216693878174,-0.50517547130584717,-0.51149976253509521,0.9730372428894043,-0.064015030860900879,0.63982951641082764,-0.64720332622528076,0.45199012756347656,-0.19124555587768555,0.95607185363769531,-0.75857985019683838,0.6223376989364624,-0.51932978630065918,0.26517796516418457,-0.84740257263183594,-0.26646459102630615,0.91465187072753906,-0.2028128057718277,-0.32224118709564209,-0.11341904103755951,0.26208078861236572,0.89826250076293945,-0.35412335395812988,-0.12727272510528564,0.47110560536384583,0.62726223468780518,0.27403759956359863,0.59047770500183105,-0.27141451835632324,0.039591312408447266,-0.56212031841278076,0.81062912940979004,0.061515331268310547,0.4610896110534668,-0.76779448986053467,-0.98864269256591797,0.4942396879196167,0.12028205394744873,-0.39611241221427917,0.40781927108764648,-0.76166379451751709,-0.89333081245422363,-0.7070164680480957,-0.82070386409759521,0.84676152467727661,0.10951352119445801,0.062050938606262207,-0.61332070827484131,0.96076762676239014,0.77436947822570801,0.73548984527587891,0.37931382656097412,-0.35608780384063721,0.91367113590240479,-0.080689854919910431,-0.1057431697845459,-0.18796622753143311,0.93357527256011963,-0.23917269706726074,0.22714626789093018,0.075965762138366699,-0.85484945774078369,0.097517728805541992,-0.39845645427703857,0.46996235847473145,-0.99469590187072754,0.76639449596405029,-0.20463204383850098,-0.007350921630859375,-0.61877119541168213,-0.7026524543762207,0.90731477737426758,-0.28614246845245361,-0.83027005195617676,-0.45794987678527832,-0.33717918395996094,-0.84663403034210205,-0.5020749568939209,-0.69090437889099121,-0.99327564239501953,0.64682447910308838,-0.28477442264556885,0.99905145168304443,-0.7429124116897583,0.32446539402008057,-0.36954224109649658,-0.19071638584136963,-0.027706623077392578,0.14289867877960205,-0.43915951251983643,-0.34601044654846191,0.45557236671447754,0.2840893566608429,-0.49245810508728027,0.38046538829803467,0.58780276775360107,-0.72129952907562256,0.37448382377624512,0.40846538543701172,-0.019118666648864746,-0.14493870735168457,-0.079549908638000488,-0.10747838020324707,-0.33725547790527344,0.757781982421875,0.1756209135055542,0.58012712001800537,0.33308440446853638,-0.78341007232666016,-0.35619676113128662,0.91836822032928467,0.25530242919921875,-0.84221875667572021,-0.97927844524383545,-0.99347937107086182,0.99616026878356934,0.68150591850280762,0.71380174160003662,-0.99869954586029053,-0.52534902095794678,0.78282392024993896,-0.82794249057769775,0.67424607276916504,0.34098422527313232,0.22163784503936768,0.55456185340881348,-0.43512153625488281,-0.12352383136749268,-0.65931344032287598,-0.56366634368896484,-0.067865133285522461,-0.89501857757568359,0.86118650436401367,0.12940269708633423,-0.427777498960495,0.4138338565826416,-0.081867940723896027,0.44533872604370117,0.41553068161010742,-0.60207438468933105,0.21796929836273193,-0.7223128080368042,-0.84881925582885742,-0.27945280075073242,0.80960142612457275,-1,0.45692479610443115,-0.60088944435119629,0.6203690767288208,-0.71386241912841797,-0.17989778518676758,-0.99794161319732666,0.46576297283172607,0.85335338115692139,-0.15669047832489014,0.71214747428894043,0.53180599212646484,-0.20231246948242188,0.16435873508453369,-0.058586359024047852,0.46944820880889893,0.13369119167327881,-0.2131887674331665,0.40418124198913574,0.12507398426532745,0.96854281425476074,0.80404758453369141,-0.2155916690826416,0.0019251108169555664,0.036304235458374023,-0.47804057598114014,-0.62346470355987549,-0.75813519954681396,-0.1905982494354248,0.89475631713867188,0.52583712339401245,0.18981301784515381,-0.75533056259155273,-0.35563898086547852,0.099956631660461426,0.14289236068725586,-0.07223665714263916,-0.36160624027252197,-0.48743915557861328,0.47417771816253662,-0.0089015960693359375,1,-0.36275815963745117,-0.64231634140014648,0.24078905582427979,-0.49370956420898438,0.77358746528625488,0.11605501174926758,-0.93870371580123901,0.44416570663452148,0.97949862480163574,-0.43480992317199707,0.95365095138549805,0.83355069160461426,-0.99961209297180176,0.0013344287872314453,-0.6182093620300293,-0.31138837337493896,-0.70038747787475586,-0.78820884227752686,0.097438693046569824,0.18582510948181152,0.77752101421356201,0.20035374164581299,-0.97937202453613281,-0.75849056243896484,-0.2753446102142334,-0.58808362483978271,-0.98345792293548584,0.70690906047821045,-0.71439564228057861,0.40165567398071289,0.7322845458984375,-0.84328269958496094,-0.98926448822021484,0.026289701461791992,0.96293735504150391,0.094941973686218262,0.23401212692260742,-0.26386344432830811,0.82292580604553223,0.48854333162307739,-0.48492896556854248,-0.079880714416503906,-0.1991877555847168,-0.43072646856307983,-0.089298844337463379,0.88168537616729736,-0.42724186182022095,-0.039005637168884277,0.096050381660461426,-0.79021751880645752,0.18052518367767334,-0.80684566497802734,0.93530213832855225,0.47371625900268555,-0.5380016565322876,0.95978659391403198,-0.13835099339485168,-0.078915834426879883,-1,-0.26254260540008545,0.78046572208404541,-0.2441554069519043,-0.77884465456008911,0.33146631717681885,0.57403796911239624,0.91987717151641846,-0.26423633098602295,0.59476590156555176,0.44067597389221191,0.001800537109375,-0.23796713352203369,-0.1075061559677124,0.73841845989227295,-0.93875968456268311,0.3114166259765625,0.88415634632110596,0.33761990070343018,0.076332807540893555,0.55993354320526123,-0.28643327951431274,-0.2885194718837738,0.82004165649414062,-0.47220242023468018,0.61649990081787109,0.21221339702606201,-0.26707613468170166,0.37905490398406982,0.65795624256134033,-0.98324185609817505,0.026975870132446289,0.43007361888885498,0.84830081462860107,-0.87248611450195312,-0.20728054642677307,0.17948031425476074,-0.87503445148468018,-0.19546341896057129,-0.63414096832275391,-0.077528715133666992,-0.79598057270050049,0.83972537517547607,-0.1141098216176033,-0.17764317989349365,-0.054571628570556641,-0.10191738605499268,0.072756052017211914,0.041405059397220612,0.22445714473724365,0.70852541923522949,-0.42039227485656738,0.54367107152938843,-0.048665285110473633,-0.40108907222747803,0.32362210750579834,0.50004839897155762,0.20724010467529297,-0.567099928855896,0.3405381441116333,0.4631466269493103,0.95449113845825195,0.89458572864532471,-0.55849301815032959,-0.86365401744842529,0.3696972131729126,-1,0.8361886739730835,0.081946134567260742,0.69156813621520996,-1,0.76867842674255371,0.10600578784942627,-0.23736786842346191,0.5294872522354126,-0.20301485061645508,-0.83865165710449219,1,0.013175487518310547,0.21322286128997803,-0.28731846809387207,0.19163894653320312,-0.25247621536254883,-0.53500628471374512,-1,-0.19922149181365967,-0.0058782100677490234,0.36683467030525208,-0.19308257102966309,-0.2479000985622406,0.47697943449020386,-0.92162466049194336,0.36336517333984375,0.75758194923400879,0.32978498935699463,-0.067628383636474609,-0.57563269138336182,0.0029902458190917969,0.98962581157684326,0.20828533172607422,-0.047561764717102051,0.59870588779449463,-0.18099057674407959,-0.76574981212615967,-0.6553952693939209,0.96885693073272705,0.1837763786315918,-0.86899936199188232,0.5480305552482605,-0.39915955066680908,0.12000524997711182,0.17233836650848389,-0.45103979110717773,-0.8254019021987915,-0.49070262908935547,-0.2905048131942749,0.2042548656463623,0.13890039920806885,-0.52605283260345459,0.2455066442489624,0.68930232524871826,-0.50136208534240723,-0.43726563453674316,0.77986586093902588,0.34107232093811035,0.57410871982574463,0.2556757926940918,0.82013070583343506,0.71112668514251709,0.66546213626861572,-0.25871813297271729,-0.55866527557373047,-0.055046916007995605,-0.25056758522987366,0.8049476146697998,-1,-0.14360761642456055,0.20836752653121948,-0.63075923919677734,0.47455120086669922,0.73933970928192139,-0.94847428798675537,0.48840081691741943,0.65212762355804443,0.27076888084411621,0.42567813396453857,0.41828274726867676,0.074150443077087402,-0.15720212459564209,0.71992439031600952,-0.37910473346710205,0.22207486629486084,-0.41767317056655884,-0.97640311717987061,-0.075455307960510254,-0.13546775281429291,0.84814620018005371,-0.61868667602539062,0.49660801887512207,-0.11380410194396973,0.028439760208129883,-0.72446072101593018,-0.97899031639099121,-0.73329997062683105,-0.0064558982849121094,-0.96835672855377197,0.078044652938842773,0.16163420677185059,-1,-0.64578902721405029,-0.22505223751068115,0.60637855529785156,0.39049020409584045,-0.035551786422729492,0.30561518669128418,0.39353072643280029,-0.66225099563598633,-0.94295024871826172,-0.74660384654998779,-0.40858876705169678,0.25107800960540771,0.10792851448059082,-0.4266200065612793,-0.96420764923095703,0.95564806461334229,1,-0.36494499444961548,0.76016473770141602,0.21018731594085693,0.40332376956939697,0.18398433923721313,-0.57861208915710449,0.98620724678039551,-0.72414052486419678,0.28496718406677246,-0.61551904678344727,0.2631499171257019,-0.46668529510498047,-0.6323474645614624,-0.1938624382019043,-0.83980286121368408,0.85264766216278076,-1,0.36171233654022217,-0.80323970317840576,0.2056700736284256,-0.2094728946685791,-0.039093255996704102,0.56568443775177002,-0.88313460350036621,-0.17948365211486816,-0.065214395523071289,-0.80150294303894043,-0.51967525482177734,-0.072233676910400391,0.73510086536407471,-0.50577032566070557,-0.44232788681983948,0.40135133266448975,-0.71250760555267334,0.26407718658447266,0.92615199089050293,0.56624090671539307,0.64459741115570068,-0.090423703193664551,0.38470244407653809,-0.11251449584960938,0.45465362071990967,0.57405853271484375,-0.5576319694519043,0.69837594032287598,-0.23392951488494873,0.68869936466217041,0.78049027919769287,1,-0.10605335235595703,0.13756668567657471,0.12925219535827637,-0.99029767513275146,0.73915344476699829,-0.30221080780029297,0.50476562976837158,-0.3757634162902832,0.14552664756774902,-0.93379676342010498,-0.54351913928985596,-0.16624724864959717,-1,0.16053187847137451,-0.61391139030456543,-0.012598037719726562,-0.14333009719848633,1,0.324684739112854,-0.99895429611206055,-0.67872262001037598,-0.3721545934677124,0.42715167999267578,-0.51503068208694458,1,-0.53227734565734863,0.20819389820098877,-0.38647902011871338,0.5209047794342041,0.56892669200897217,-1,0.50381696224212646,1,0.69355595111846924,-0.33395016193389893,-0.24977076053619385,0.84642302989959717,0.79749250411987305,0.77109360694885254,0.95750510692596436,-0.64008438587188721,0.056456446647644043,0.37058770656585693,-0.2090374231338501,0.11995840072631836,-0.32912552356719971,-0.85924315452575684,0.94816279411315918,0.87939572334289551],[-0.49142551422119141,-0.97461545467376709,0.85872495174407959,-0.23144316673278809,-0.68049502372741699,-0.92988348007202148,-0.91771697998046875,0.86072611808776855,-0.6064453125,0.98981165885925293,-0.77939987182617188,0.019210696220397949,0.71488618850708008,1,-0.2639164924621582,0.032978653907775879,-0.4757688045501709,1,0.079956412315368652,1,0.52312600612640381,-1,-0.85434579849243164,-1,-0.82836568355560303,-0.40699854493141174,0.34390479326248169,0.41988217830657959,0.95303559303283691,0.78222441673278809,1,0.9528927206993103,-1,0.70211184024810791,0.66021108627319336,0.3354494571685791,-0.30076593160629272,1,0.4306025505065918,-0.11874891817569733,-0.86365985870361328,-0.15243661403656006,1,1,-0.31531453132629395,-0.13468527793884277,-1,0.93797051906585693,0.19707727432250977,-0.22044266760349274,1,0.63203489780426025,-0.75649511814117432,0.17359817028045654,-0.87830352783203125,0.064630746841430664,0.047314643859863281,-1,-0.22821879386901855,0.32155847549438477,0.061689198017120361,-0.37644198536872864,0.74709105491638184,0.049718379974365234,-0.88818371295928955,-1,-0.099478244781494141,-0.78942692279815674,-0.88978946208953857,0.77053791284561157,-0.60105180740356445,-0.43634533882141113,-0.24315395951271057,0.8710474967956543,0.43830549716949463,-0.95372247695922852,0.31337225437164307,0.88993394374847412,0.30663132667541504,-0.02544616162776947,0.86468958854675293,-0.8618701696395874,0.80798602104187012,-0.69111144542694092,-0.44497275352478027,-0.65311574935913086,0.6978304386138916,-0.15719366073608398,-0.79490935802459717,0.033921957015991211,-0.20753777027130127,-0.11747920513153076,-0.048609256744384766,-0.1884305477142334,0.34429526329040527,-0.075653083622455597,-0.98944532871246338,0.73386871814727783,-0.19452071189880371,-0.35685503482818604,-0.25296059250831604,-0.32189750671386719,-0.57695472240447998,-0.24157121777534485,-0.87526094913482666,-0.37253093719482422,0.1867213100194931,0.11174564063549042,0.97919166088104248,-0.5,-1,0.03339405357837677,-0.26127010583877563,-0.072148799896240234,-0.13620871305465698,-0.88590812683105469,-0.069113850593566895,0.97724318504333496,-0.39345192909240723,0.42715442180633545,-0.03652036190032959,0.65221321582794189,-0.787727952003479,0.73568964004516602,-0.68056172132492065,-0.23267048597335815,-0.31037229299545288,0.4883263111114502,0.53474545478820801,0.27122807502746582,1,0.63977146148681641,0.30022454261779785,0.78348016738891602,0.80125856399536133,-0.81477189064025879,0.62527167797088623,0.19571524858474731,0.92942309379577637,-0.30357050895690918,-0.38371050357818604,0.81030905246734619,0.65604352951049805,0.50877457857131958,0.43713438510894775,-0.53028666973114014,0.39172828197479248,-0.55611574649810791,0.090010583400726318,1,-0.043200850486755371,-0.88349413871765137,0.32222408056259155,0.63125514984130859,-0.80483758449554443,0.5187079906463623,-0.65538465976715088,-0.39107668399810791,0.31174153089523315,0.43911254405975342,0.3163529634475708,-0.53497213125228882,0.37931740283966064,-0.18665456771850586,0.69898271560668945,-0.02978062629699707,-0.58515393733978271,-0.2392430305480957,0.11920403689146042,-0.90390515327453613,0.48637354373931885,-0.5819244384765625,-0.60633325576782227,0.17079097032546997,-0.1888434886932373,-0.19145035743713379,0.22847986221313477,0.99374198913574219,-0.4519401490688324,0.87517130374908447,-0.26671266555786133,0.77699053287506104,0.98952591419219971,-1,0.22127652168273926,0.9871596097946167,-1,-0.73932445049285889,-0.47712498903274536,-0.62163424491882324,0.58915364742279053,-0.76205122470855713,1,-0.96934080123901367,-0.38720771670341492,0.07611382007598877,-0.087145090103149414,-0.33737087249755859,0.3768315315246582,-1,0.047235488891601562,-0.0016247025923803449,-0.40192723274230957,0.082686059176921844,0.33474612236022949,-0.94939351081848145,0.91165006160736084,0.040960326790809631,-0.95642423629760742,0.3125883936882019,0.1231868714094162,-0.51314330101013184,-1,1,0.59043872356414795,0.321449875831604,0.24196279048919678,0.35710418224334717,-0.052123904228210449,0.45249900221824646,-0.12239634990692139,0.98156279325485229,-0.23640131950378418,0.57412928342819214,0.33686888217926025,0.71093368530273438,0.12821948528289795,-0.16030323505401611,0.17143028974533081,0.18246173858642578,0.94786155223846436,0.13779246807098389,-0.41286313533782959,-0.36060130596160889,-0.38123634457588196,0.58811473846435547,0.1650540828704834,-0.74131512641906738,-0.11884081363677979,0.85863816738128662,0.47459173202514648,0.61668252944946289,0.49253380298614502,0.43934929370880127,-0.21243917942047119,0.61997139453887939,-0.4722059965133667,0.62064874172210693,-0.17787899076938629,-0.62441045045852661,-0.98975324630737305,-1,-0.098477840423583984,0.91595423221588135,-0.061502933502197266,-0.84018123149871826,0.61328136920928955,0.59642612934112549,-0.92839968204498291,-0.0057828426361083984,0.53179383277893066,0.44514346122741699,0.59544360637664795,-1,0.43351456522941589,0.053102970123291016,-0.82852709293365479,-0.15923154354095459,-0.44767177104949951,0.89525091648101807,0.28297817707061768,-0.040244102478027344,1,0.35435611009597778,-0.021052718162536621,0.4192696213722229,0.20017218589782715,-0.97982525825500488,0.019412849098443985,0.69760453701019287,0.30746927857398987,0.028532451018691063,-0.45522224903106689,0.86136829853057861,-0.93107414245605469,-0.93406796455383301,0.29914712905883789,-0.74091070890426636],[0.050382494926452637,0.65847897529602051,0.10116636753082275,-1,0.15303096175193787,0.039660513401031494,0.11215126514434814,0.76026380062103271,-0.74294757843017578,0.22961436212062836,-0.22103700041770935,-0.51730501651763916,0.811279296875,-1,1,-0.82670485973358154,-0.68518936634063721,-0.35350090265274048,0.48843741416931152,-1,0.020440073683857918,-0.67325723171234131,-0.67553508281707764,0.38151726126670837,0.90507400035858154,0.2322111576795578,0.61802768707275391,0.87108814716339111,0.60625839233398438,0.063898921012878418,-0.42544066905975342,-0.012801051139831543,-1,-1,-0.69801658391952515,-0.44497853517532349,-0.62741202116012573,0.45424628257751465,-0.24096299707889557,-0.3689497709274292,0.09851112961769104,-0.34138739109039307,0.75352460145950317,0.20397472381591797,-0.53687483072280884,0.5,-0.59178692102432251,0.6979137659072876,0.5,0.56836539506912231,-0.67039263248443604,-0.36914432048797607,-0.16475588083267212,-0.23476278781890869,1,0.11622496694326401,-0.57982027530670166,-0.79348039627075195,-0.42717981338500977,-0.35308325290679932,-0.13729105889797211,0.20565676689147949,-0.16652886569499969,-0.098072350025177002,-0.30530822277069092,-0.48098897933959961,-0.59656953811645508,0.33874839544296265,-0.5,1,-0.51652234792709351,0.19363139569759369,-0.51574355363845825,-0.21491123735904694,-0.50738537311553955,0.33199703693389893,0.58854222297668457,-1,-0.54455411434173584,0.48174241185188293,0.44858944416046143,-0.1166156530380249,-0.39533442258834839,0.26348686218261719,0.70957750082015991,0.28862762451171875,-0.36343675851821899,0.28002142906188965,-0.65366071462631226,-0.62347102165222168,-0.77841830253601074,0.87912106513977051,0.29504656791687012,-1,0.24856805801391602,1]],"id":"263D5E7D-1702-4FBD-A2F1-1DE31AE0C32D","generation":213,"hiddenCounts":[24,12],"inputCount":30,"outputCount":8},
{"biases":[[],[0.61071884632110596,-0.22176051139831543,-0.070320367813110352,1,0.41997909545898438,1,0.5,0.049905449151992798,0.29435735940933228,0.17925335466861725,1,-0.29378616809844971,-1,1,-0.62602055072784424,0.40931928157806396,-0.062685012817382812,0.15546244382858276,0.040679275989532471,-0.76531004905700684,0.50270217657089233,-0.27295386791229248,1,0.22979363799095154],[-0.32877629995346069,-0.15961119532585144,0.91798406839370728,1,0.5,-0.3785862922668457,-0.52265501022338867,1,-0.61871105432510376,-0.32980060577392578,0.12931537628173828,-0.92209100723266602],[-1,-0.10016734898090363,-0.43939307332038879,0.25747573375701904,0.47301608324050903,0.39956748485565186,-0.64996945858001709,-1]],"weights":[[],[0.83471083641052246,0.23415458202362061,0.17623376846313477,0.83597588539123535,-0.13221269845962524,0.63587343692779541,-0.9471735954284668,0.11822164058685303,-0.72527265548706055,0.3061671257019043,0.7829359769821167,0.90638339519500732,1,0.86246895790100098,0.53011834621429443,0.93449509143829346,-0.26897251605987549,0.077516078948974609,0.14006876945495605,0.3318864107131958,-0.035900354385375977,-0.57409608364105225,0.022897958755493164,-0.47490525245666504,-0.50750279426574707,0.073002934455871582,-0.84689033031463623,0.4064018726348877,0.41522550582885742,0.78853309154510498,-0.16709542274475098,-0.77447378635406494,0.77021479606628418,0.76954472064971924,0.29576468467712402,0.046635150909423828,-0.56744086742401123,-0.9558863639831543,-0.28558540344238281,0.92856490612030029,-0.29932701587677002,-0.6501929759979248,0.46565008163452148,0.46384024620056152,0.32681706547737122,0.93388521671295166,-0.41338264942169189,-0.34027540683746338,-0.60024845600128174,-0.37590456008911133,0.59420275688171387,-0.34125983715057373,-0.38934326171875,-0.49976587295532227,0.53663468360900879,0.046949386596679688,-0.10785936564207077,-0.37868070602416992,-0.14480309188365936,0.44518101215362549,-0.12537467479705811,0.2949211597442627,0.1160968542098999,-0.53260362148284912,0.63197028636932373,-0.45124983787536621,-0.49427735805511475,-0.45092272758483887,-0.027807235717773438,0.46182727813720703,-0.46890425682067871,-0.82280147075653076,0.46197417378425598,-0.018207669258117676,0.90611302852630615,-0.0069859027862548828,-0.19828963279724121,-0.3794935941696167,0.21865721046924591,0.18526405096054077,-0.35532879829406738,-0.69602310657501221,0.74225974082946777,-0.85596215724945068,0.025901556015014648,0.4119952917098999,-0.30887418985366821,0.35259795188903809,-0.38375377655029297,-0.34340190887451172,-0.67637801170349121,0.85736513137817383,0.91062676906585693,-0.029362082481384277,-0.27443921566009521,-0.55513477325439453,-0.89399826526641846,0.56658852100372314,-0.13853967189788818,-0.82393383979797363,-0.43370664119720459,-0.45009756088256836,-0.63047480583190918,-1,0.81746292114257812,-0.59461379051208496,0.19047534465789795,0.45122358202934265,0.63027095794677734,-0.40919995307922363,0.66928887367248535,-0.38845312595367432,-0.66295516490936279,0.73053061962127686,0.14814317226409912,0.059529542922973633,0.1317894458770752,-0.43821847438812256,-0.89268898963928223,-1,0.4462311863899231,0.17189168930053711,-0.57932507991790771,-0.2857433557510376,-0.19448018074035645,0.89790987968444824,-0.22187244892120361,-0.29247450828552246,-0.25650811195373535,-0.95513850450515747,0.69682037830352783,0.019708752632141113,0.10078664869070053,-0.98438310623168945,-0.60315001010894775,-0.90945184230804443,-0.8620525598526001,0.59499156475067139,-0.67774415016174316,-0.6287226676940918,-0.59550321102142334,0.8198474645614624,0.0063936710357666016,0.80645382404327393,-0.80184781551361084,-0.61003673076629639,-0.066138148307800293,0.46820414066314697,0.26267468929290771,-0.28274059295654297,0.19899415969848633,-0.74405884742736816,0.36235237121582031,0.20515525341033936,-0.62701821327209473,0.23906505107879639,-0.27931118011474609,0.35358226299285889,0.25607800483703613,0.38347703218460083,0.79023849964141846,-0.78617513179779053,-0.91454434394836426,0.92367053031921387,-0.91539514064788818,0.40694409608840942,-0.6725085973739624,-0.79000568389892578,-0.18480956554412842,0.70529067516326904,-0.87079763412475586,0.61771988868713379,0.17220854759216309,-0.51045596599578857,0.6777644157409668,-0.95627415180206299,0.46600109338760376,0.25715100765228271,0.95740377902984619,-0.097296833992004395,-0.910957932472229,0.61284899711608887,-0.17666608095169067,-0.016330957412719727,0.49549150466918945,0.86007571220397949,-0.17125129699707031,0.23296694457530975,-0.47964441776275635,-0.85338795185089111,0.2873685359954834,-0.59280216693878174,-0.50517547130584717,-0.51149976253509521,0.9730372428894043,-0.064015030860900879,0.63982951641082764,-0.64720332622528076,0.45199012756347656,-0.19124555587768555,0.95607185363769531,-0.75857985019683838,0.6223376989364624,-0.51932978630065918,0.26517796516418457,-0.84740257263183594,-0.26646459102630615,0.91465187072753906,-0.2028128057718277,-0.32224118709564209,-0.11341904103755951,0.26208078861236572,0.89826250076293945,-0.35412335395812988,-0.12727272510528564,0.47110560536384583,0.62726223468780518,0.27403759956359863,0.59047770500183105,-0.27141451835632324,0.039591312408447266,-0.56212031841278076,0.81062912940979004,0.061515331268310547,0.4610896110534668,-0.76779448986053467,-0.98864269256591797,0.4942396879196167,0.12028205394744873,-0.39611241221427917,0.40781927108764648,-0.76166379451751709,-0.89333081245422363,-0.7070164680480957,-0.82070386409759521,0.84676152467727661,0.10951352119445801,0.062050938606262207,-0.61332070827484131,0.96076762676239014,0.77436947822570801,0.73548984527587891,0.37931382656097412,-0.35608780384063721,0.91367113590240479,-0.080689854919910431,-0.1057431697845459,-0.18796622753143311,0.93357527256011963,-0.23917269706726074,0.22714626789093018,0.075965762138366699,-0.85484945774078369,0.097517728805541992,-0.39845645427703857,0.46996235847473145,-0.99469590187072754,0.76639449596405029,-0.20463204383850098,-0.007350921630859375,-0.61877119541168213,-0.7026524543762207,0.90731477737426758,-0.28614246845245361,-0.83027005195617676,-0.45794987678527832,-0.33717918395996094,-0.84663403034210205,-0.5020749568939209,-0.69090437889099121,-0.99327564239501953,0.64682447910308838,-0.28477442264556885,0.99905145168304443,-0.7429124116897583,0.32446539402008057,-0.36954224109649658,-0.19071638584136963,-0.027706623077392578,0.14289867877960205,-0.43915951251983643,-0.34601044654846191,0.45557236671447754,0.2840893566608429,-0.49245810508728027,0.38046538829803467,0.58780276775360107,-0.72129952907562256,0.37448382377624512,0.40846538543701172,-0.019118666648864746,-0.14493870735168457,-0.079549908638000488,-0.10747838020324707,-0.33725547790527344,0.757781982421875,0.1756209135055542,0.58012712001800537,0.33308440446853638,-0.78341007232666016,-0.35619676113128662,0.91836822032928467,0.25530242919921875,-0.84221875667572021,-0.97927844524383545,-0.99347937107086182,0.99616026878356934,0.68150591850280762,0.71380174160003662,-0.99869954586029053,-0.52534902095794678,0.78282392024993896,-0.82794249057769775,0.67424607276916504,0.34098422527313232,0.22163784503936768,0.55456185340881348,-0.43512153625488281,-0.12352383136749268,-0.65931344032287598,-0.56366634368896484,-0.067865133285522461,-0.89501857757568359,0.86118650436401367,0.12940269708633423,-0.427777498960495,0.4138338565826416,-0.081867940723896027,0.44533872604370117,0.41553068161010742,-0.60207438468933105,0.21796929836273193,-0.7223128080368042,-0.84881925582885742,-0.27945280075073242,0.80960142612457275,-1,0.45692479610443115,-0.60088944435119629,0.6203690767288208,-0.71386241912841797,-0.17989778518676758,-0.99794161319732666,0.46576297283172607,0.85335338115692139,-0.15669047832489014,0.71214747428894043,0.53180599212646484,-0.20231246948242188,0.16435873508453369,-0.058586359024047852,0.46944820880889893,0.13369119167327881,-0.2131887674331665,0.40418124198913574,0.12507398426532745,0.96854281425476074,0.80404758453369141,-0.2155916690826416,0.0019251108169555664,0.036304235458374023,-0.47804057598114014,-0.62346470355987549,-0.75813519954681396,-0.1905982494354248,0.89475631713867188,0.52583712339401245,0.18981301784515381,-0.75533056259155273,-0.35563898086547852,0.099956631660461426,0.14289236068725586,-0.07223665714263916,-0.36160624027252197,-0.48743915557861328,0.47417771816253662,-0.0089015960693359375,1,-0.36275815963745117,-0.64231634140014648,0.24078905582427979,-0.49370956420898438,0.77358746528625488,0.11605501174926758,-0.93870371580123901,0.44416570663452148,0.97949862480163574,-0.43480992317199707,0.95365095138549805,0.83355069160461426,-0.99961209297180176,0.0013344287872314453,-0.6182093620300293,-0.31138837337493896,-0.70038747787475586,-0.78820884227752686,0.097438693046569824,0.18582510948181152,0.77752101421356201,0.20035374164581299,-0.97937202453613281,-0.75849056243896484,-0.2753446102142334,-0.58808362483978271,-0.98345792293548584,0.70690906047821045,-0.71439564228057861,0.40165567398071289,0.7322845458984375,-0.84328269958496094,-0.98926448822021484,0.026289701461791992,0.96293735504150391,0.094941973686218262,0.23401212692260742,-0.26386344432830811,0.82292580604553223,0.48854333162307739,-0.48492896556854248,-0.079880714416503906,-0.1991877555847168,-0.43072646856307983,-0.089298844337463379,0.88168537616729736,-0.42724186182022095,-0.039005637168884277,0.096050381660461426,-0.79021751880645752,0.18052518367767334,-0.80684566497802734,0.93530213832855225,0.47371625900268555,-0.5380016565322876,0.95978659391403198,-0.13835099339485168,-0.078915834426879883,-1,-0.26254260540008545,0.78046572208404541,-0.2441554069519043,-0.77884465456008911,0.33146631717681885,0.57403796911239624,0.91987717151641846,-0.26423633098602295,0.59476590156555176,0.44067597389221191,0.001800537109375,-0.23796713352203369,-0.1075061559677124,0.73841845989227295,-0.93875968456268311,0.3114166259765625,0.88415634632110596,0.33761990070343018,0.076332807540893555,0.55993354320526123,-0.28643327951431274,-0.2885194718837738,0.82004165649414062,-0.47220242023468018,0.61649990081787109,0.21221339702606201,-0.26707613468170166,0.37905490398406982,0.65795624256134033,-0.98324185609817505,0.026975870132446289,0.43007361888885498,0.84830081462860107,-0.87248611450195312,-0.20728054642677307,0.17948031425476074,-0.87503445148468018,-0.19546341896057129,-0.63414096832275391,-0.077528715133666992,-0.79598057270050049,0.83972537517547607,-0.1141098216176033,-0.17764317989349365,-0.054571628570556641,-0.10191738605499268,0.072756052017211914,0.041405059397220612,0.22445714473724365,0.70852541923522949,-0.42039227485656738,0.54367107152938843,-0.048665285110473633,-0.40108907222747803,0.32362210750579834,0.50004839897155762,0.20724010467529297,-0.567099928855896,0.3405381441116333,0.4631466269493103,0.95449113845825195,0.89458572864532471,-0.55849301815032959,-0.86365401744842529,0.3696972131729126,-1,0.8361886739730835,0.081946134567260742,0.69156813621520996,-1,0.76867842674255371,0.10600578784942627,-0.23736786842346191,0.5294872522354126,-0.20301485061645508,-0.83865165710449219,1,0.013175487518310547,0.21322286128997803,-0.28731846809387207,0.19163894653320312,-0.25247621536254883,-0.53500628471374512,-1,-0.19922149181365967,-0.0058782100677490234,0.36683467030525208,-0.19308257102966309,-0.2479000985622406,0.47697943449020386,-0.92162466049194336,0.36336517333984375,0.75758194923400879,0.32978498935699463,-0.067628383636474609,-0.57563269138336182,0.0029902458190917969,0.98962581157684326,0.20828533172607422,-0.047561764717102051,0.59870588779449463,-0.18099057674407959,-0.76574981212615967,-0.6553952693939209,0.96885693073272705,0.1837763786315918,-0.86899936199188232,0.5480305552482605,-0.39915955066680908,0.12000524997711182,0.17233836650848389,-0.45103979110717773,-0.8254019021987915,-0.49070262908935547,-0.2905048131942749,0.2042548656463623,0.13890039920806885,-0.52605283260345459,0.2455066442489624,0.68930232524871826,-0.50136208534240723,-0.43726563453674316,0.77986586093902588,0.34107232093811035,0.57410871982574463,0.2556757926940918,0.82013070583343506,0.71112668514251709,0.66546213626861572,-0.25871813297271729,-0.55866527557373047,-0.055046916007995605,-0.25056758522987366,0.8049476146697998,-1,-0.14360761642456055,0.20836752653121948,-0.63075923919677734,0.47455120086669922,0.73933970928192139,-0.94847428798675537,0.48840081691741943,0.65212762355804443,0.27076888084411621,0.42567813396453857,0.41828274726867676,0.074150443077087402,-0.15720212459564209,0.71992439031600952,-0.37910473346710205,0.22207486629486084,-0.41767317056655884,-0.97640311717987061,-0.075455307960510254,-0.13546775281429291,0.84814620018005371,-0.61868667602539062,0.49660801887512207,-0.11380410194396973,0.028439760208129883,-0.72446072101593018,-0.97899031639099121,-0.73329997062683105,-0.0064558982849121094,-0.96835672855377197,0.078044652938842773,0.16163420677185059,-0.63356280326843262,-0.64578902721405029,-0.22505223751068115,0.60637855529785156,0.39049020409584045,-0.035551786422729492,0.30561518669128418,0.39353072643280029,-0.66225099563598633,-0.94295024871826172,-0.74660384654998779,-0.40858876705169678,0.25107800960540771,0.10792851448059082,-0.4266200065612793,-0.96420764923095703,0.95564806461334229,1,-0.36494499444961548,0.76016473770141602,0.21018731594085693,0.40332376956939697,0.18398433923721313,-0.57861208915710449,0.98620724678039551,-0.72414052486419678,0.28496718406677246,-0.61551904678344727,0.2631499171257019,-0.46668529510498047,-0.6323474645614624,-0.1938624382019043,-0.83980286121368408,0.85264766216278076,-1,0.36171233654022217,-0.80323970317840576,0.2056700736284256,-0.2094728946685791,-0.039093255996704102,0.56568443775177002,-0.88313460350036621,-0.17948365211486816,-0.065214395523071289,-0.80150294303894043,-0.51967525482177734,-0.072233676910400391,0.73510086536407471,-0.50577032566070557,-0.44232788681983948,0.40135133266448975,-0.71250760555267334,0.26407718658447266,0.92615199089050293,0.56624090671539307,0.64459741115570068,-0.090423703193664551,0.38470244407653809,-0.11251449584960938,0.45465362071990967,0.57405853271484375,-0.5576319694519043,0.69837594032287598,-0.23392951488494873,0.68869936466217041,0.78049027919769287,1,-0.10605335235595703,0.13756668567657471,0.12925219535827637,-0.99029767513275146,0.73915344476699829,-0.30221080780029297,0.50476562976837158,-0.3757634162902832,0.14552664756774902,-0.93379676342010498,-0.54351913928985596,-0.16624724864959717,-1,0.16053187847137451,-0.61391139030456543,-0.012598037719726562,-0.14333009719848633,1,0.324684739112854,-0.99895429611206055,-0.67872262001037598,-0.3721545934677124,0.42715167999267578,-0.51503068208694458,1,-0.53227734565734863,0.20819389820098877,-0.38647902011871338,0.5209047794342041,0.56892669200897217,-1,0.50381696224212646,1,0.69355595111846924,-0.33395016193389893,-0.24977076053619385,0.84642302989959717,0.79749250411987305,0.77109360694885254,0.95750510692596436,-0.64008438587188721,0.056456446647644043,0.37058770656585693,-0.2090374231338501,0.11995840072631836,-0.32912552356719971,-0.85924315452575684,0.94816279411315918,0.87939572334289551],[-0.49142551422119141,-0.97461545467376709,0.85872495174407959,-0.23144316673278809,-0.68049502372741699,-0.92988348007202148,-0.91771697998046875,0.86072611808776855,-0.6064453125,0.98981165885925293,-0.77939987182617188,0.019210696220397949,0.71488618850708008,1,-0.2639164924621582,0.032978653907775879,-0.4757688045501709,1,0.079956412315368652,1,0.52312600612640381,-1,-0.85434579849243164,-1,-0.82836568355560303,-0.40699854493141174,0.34390479326248169,0.41988217830657959,0.95303559303283691,0.78222441673278809,1,0.9528927206993103,-1,0.70211184024810791,0.66021108627319336,0.3354494571685791,-0.30076593160629272,1,0.4306025505065918,-0.11874891817569733,-0.86365985870361328,-0.15243661403656006,1,1,-0.31531453132629395,-0.13468527793884277,-1,0.93797051906585693,0.19707727432250977,-0.22044266760349274,1,0.63203489780426025,-0.75649511814117432,0.17359817028045654,-0.87830352783203125,0.064630746841430664,0.047314643859863281,-1,-0.22821879386901855,0.32155847549438477,0.061689198017120361,-0.37644198536872864,0.74709105491638184,0.049718379974365234,-0.88818371295928955,-1,-0.099478244781494141,-0.78942692279815674,-0.88978946208953857,0.77053791284561157,-0.60105180740356445,-0.43634533882141113,-0.24315395951271057,0.8710474967956543,0.43830549716949463,-0.95372247695922852,0.31337225437164307,0.88993394374847412,0.30663132667541504,-0.02544616162776947,0.86468958854675293,-0.8618701696395874,0.80798602104187012,-0.69111144542694092,-0.44497275352478027,-0.65311574935913086,0.6978304386138916,-0.15719366073608398,-0.79490935802459717,0.033921957015991211,-0.20753777027130127,-0.11747920513153076,-0.048609256744384766,-0.1884305477142334,0.34429526329040527,-0.075653083622455597,-0.98944532871246338,0.73386871814727783,-0.19452071189880371,-0.35685503482818604,-0.25296059250831604,-0.32189750671386719,-0.57695472240447998,-0.24157121777534485,-0.87526094913482666,-0.37253093719482422,0.1867213100194931,0.11174564063549042,0.97919166088104248,-0.5,-1,0.03339405357837677,-0.26127010583877563,-0.072148799896240234,-0.13620871305465698,-0.88590812683105469,-0.069113850593566895,0.97724318504333496,-0.39345192909240723,0.42715442180633545,-0.07304072380065918,0.65221321582794189,-0.787727952003479,0.73568964004516602,-0.68056172132492065,-0.23267048597335815,-0.31037229299545288,0.4883263111114502,0.53474545478820801,0.27122807502746582,1,0.63977146148681641,0.30022454261779785,0.78348016738891602,0.80125856399536133,-0.81477189064025879,0.62527167797088623,0.19571524858474731,0.92942309379577637,-0.30357050895690918,-0.38371050357818604,0.81030905246734619,0.65604352951049805,0.50877457857131958,0.43713438510894775,-0.53028666973114014,0.39172828197479248,-0.55611574649810791,0.090010583400726318,1,-0.043200850486755371,-0.88349413871765137,0.32222408056259155,0.63125514984130859,-0.80483758449554443,0.5187079906463623,-0.65538465976715088,-0.39107668399810791,0.31174153089523315,0.43911254405975342,0.3163529634475708,-0.53497213125228882,0.37931740283966064,-0.18665456771850586,0.69898271560668945,-0.02978062629699707,-0.58515393733978271,-0.2392430305480957,0.11920403689146042,-0.90390515327453613,0.48637354373931885,-0.5819244384765625,-0.60633325576782227,0.17079097032546997,-0.1888434886932373,-0.19145035743713379,0.22847986221313477,0.99374198913574219,-0.4519401490688324,0.87517130374908447,-0.26671266555786133,0.77699053287506104,0.98952591419219971,-1,0.22127652168273926,0.9871596097946167,-1,-0.73932445049285889,-0.47712498903274536,-0.62163424491882324,0.58915364742279053,-0.76205122470855713,1,-0.96934080123901367,-0.38720771670341492,0.07611382007598877,-0.087145090103149414,-0.33737087249755859,0.3768315315246582,-1,0.047235488891601562,-0.0016247025923803449,-0.40192723274230957,0.082686059176921844,0.33474612236022949,-0.94939351081848145,0.91165006160736084,0.040960326790809631,-0.95642423629760742,0.3125883936882019,0.1231868714094162,-0.51314330101013184,-1,1,0.59043872356414795,0.321449875831604,0.24196279048919678,0.35710418224334717,-0.052123904228210449,0.45249900221824646,-0.12239634990692139,0.98156279325485229,-0.23640131950378418,0.57412928342819214,0.33686888217926025,0.71093368530273438,0.12821948528289795,-0.16030323505401611,0.17143028974533081,0.18246173858642578,0.94786155223846436,0.13779246807098389,-0.41286313533782959,-0.36060130596160889,-0.38123634457588196,0.58811473846435547,0.1650540828704834,-0.74131512641906738,-0.11884081363677979,0.85863816738128662,0.47459173202514648,0.61668252944946289,0.49253380298614502,0.43934929370880127,-0.21243917942047119,0.61997139453887939,-0.4722059965133667,0.62064874172210693,-0.17787899076938629,-0.62441045045852661,-0.98975324630737305,-1,-0.098477840423583984,0.91595423221588135,-0.061502933502197266,-0.84018123149871826,0.61328136920928955,0.59642612934112549,-0.92839968204498291,-0.0057828426361083984,0.53179383277893066,0.44514346122741699,0.59544360637664795,-1,0.43351456522941589,0.053102970123291016,-0.82852709293365479,-0.15923154354095459,-0.44767177104949951,0.89525091648101807,0.28297817707061768,-0.040244102478027344,1,0.35435611009597778,-0.021052718162536621,0.4192696213722229,0.20017218589782715,-0.97982525825500488,0.019412849098443985,0.69760453701019287,0.30746927857398987,0.028532451018691063,-0.45522224903106689,0.86136829853057861,-0.93107414245605469,-0.93406796455383301,0.29914712905883789,-0.74091070890426636],[0.050382494926452637,0.65847897529602051,0.10116636753082275,-1,0.15303096175193787,0.039660513401031494,0.11215126514434814,0.76026380062103271,-0.74294757843017578,0.22961436212062836,-0.22103700041770935,-0.51730501651763916,0.811279296875,-1,1,-0.82670485973358154,-0.68518936634063721,-0.35350090265274048,0.48843741416931152,-1,0.020440073683857918,-0.67325723171234131,-0.67553508281707764,0.38151726126670837,0.90507400035858154,0.2322111576795578,0.61802768707275391,0.87108814716339111,0.60625839233398438,0.063898921012878418,-0.42544066905975342,-0.012801051139831543,-1,-1,-0.69801658391952515,-0.44497853517532349,-0.62741202116012573,0.45424628257751465,-0.24096299707889557,-0.3689497709274292,0.09851112961769104,-0.34138739109039307,0.75352460145950317,0.20397472381591797,-0.53687483072280884,1,-0.59178692102432251,0.6979137659072876,0.5,0.56836539506912231,-0.67039263248443604,-0.36914432048797607,-0.16475588083267212,-0.23476278781890869,1,0.11622496694326401,-0.57982027530670166,-0.79348039627075195,-0.42717981338500977,-0.35308325290679932,-0.13729105889797211,0.20565676689147949,-0.16652886569499969,-0.098072350025177002,-0.30530822277069092,-0.48098897933959961,-0.59656953811645508,0.33874839544296265,-0.5,1,-0.51652234792709351,0.19363139569759369,-0.51574355363845825,-0.21491123735904694,-0.50738537311553955,0.33199703693389893,0.58854222297668457,-1,-0.54455411434173584,0.48174241185188293,0.44858944416046143,-0.1166156530380249,-0.39533442258834839,0.26348686218261719,0.70957750082015991,0.28862762451171875,-0.36343675851821899,0.28002142906188965,-0.65366071462631226,-0.62347102165222168,-0.77841830253601074,0.87912106513977051,0.29504656791687012,-1,0.24856805801391602,1]],"id":"60937F52-9887-43A2-9A2A-70BC6F1B5212","generation":213,"hiddenCounts":[24,12],"inputCount":30,"outputCount":8},
