[
    {"marker2":false,"marker1":false,"weights":[[],[0,0.49225211143493652,0,0,-0.31834906339645386,0,0.46819743514060974,0,0,0,0,0.41276693344116211,0,-0.41218742728233337,0,-0.13630135357379913,0,0,0,0,0,0,0,0.87747687101364136,0.26635020971298218,0.41843393445014954,0.39299619197845459,0,0,0,0,0,0.30293449759483337,0,0.83597862720489502,0,-0.35368326306343079,0,0,0,-0.42940118908882141,0,0,0,0.41687166690826416,0.35979652404785156,0,0,-0.33303511142730713,-0.26133480668067932,0,0.57253181934356689,0.58861458301544189,-0.29952159523963928,0,0,0.28157913684844971,0,0,0,-0.3833693265914917,0,0,-0.42946478724479675,0.9443289041519165,0,-0.33244836330413818,-0.31274279952049255,0,0,0,-0.7441403865814209,-0.55803537368774414,0,-0.42780232429504395,-0.46200588345527649,0,0,0,0,0.68114537000656128,0,0.4058915376663208,-0.25148648023605347,0,0,0.40028926730155945,-0.62254625558853149,0,0.29494574666023254,0,-0.46904745697975159,0.093187220394611359,0.4789736270904541,0.69220805168151855,0,0,0,-0.41173136234283447,0.37454971671104431,0,0,0.51377952098846436,0.32450568675994873,-0.34370025992393494,0,0.9356229305267334,0.47288504242897034,0.41271817684173584,0,0,0.34816426038742065,-0.1655907928943634,0,0,0.089635379612445831,0.30993053317070007,0,0,0,-1,-0.26465120911598206,-0.18015952408313751,-0.57067239284515381,0,0.32721385359764099,-0.9197317361831665,0.053325548768043518,0.027478976175189018,0,0,0,-0.41980710625648499,0,0.2646624743938446,0.33407935500144958,0,-0.35219186544418335,0.26280093193054199,-0.65196812152862549,0,0.78017085790634155,0.45686960220336914,-0.5922551155090332,-0.38270771503448486,-0.75760555267333984,-0.010518312454223633,-0.27047652006149292,-0.41558343172073364,0,0,0,-0.24058377742767334,0,0,0,0,0,0,0,0.47015306353569031,-0.30946698784828186,0.3978380560874939,0,0,0.32432493567466736,-0.05543150007724762,0,0,0.8097074031829834,0,0.21993410587310791,0,0,1,0.39402729272842407,0,0,0,0.34745877981185913,0,-0.51085573434829712,-0.35992047190666199,-0.3958665132522583,1,0.35975965857505798,-0.14807642996311188,0,0.88809418678283691,-0.33988547325134277,0,0.96855676174163818,0,0.44719576835632324,0.31857803463935852,0,0,0,0.35455185174942017,0,0,1,0,-0.68284058570861816,-0.42958015203475952,0.94110298156738281,0,0,-0.3385850191116333,0,0,0,0,-0.3679535984992981,0,0,-0.44093361496925354,0,0.12778511643409729,-0.1406712532043457,0.36590012907981873,0,0,0.13880956172943115,0,0.66270506381988525,0,0,0,-0.83268159627914429,0,-0.11232554912567139,0,-0.68966591358184814,0,0,0,0,0,0,0,-0.13577018678188324,0,0,-0.26165783405303955,0,0.26513031125068665,0,-0.36073297262191772,0.83472537994384766,-0.448233962059021,0,0,0,0.28162792325019836,0,0,0.3003237247467041,0,-0.33892115950584412,0,0,0.40540856122970581,-0.29444852471351624,-0.3197249174118042,0.33329424262046814,-0.46631583571434021,0,-0.18897390365600586,0,0,0,0,-0.02526247501373291,0.35591080784797668,-0.32710438966751099,0.097406372427940369,0,-0.72701090574264526,-0.39941743016242981,0,0,0,0,0,0,0.33142125606536865,0,-0.19231931865215302,0.83642774820327759,-0.51707184314727783,-0.44627729058265686,0,0,0,0,-0.26281282305717468,0,0,-0.40620124340057373,0,0.30427783727645874,0,0,0,-0.25762617588043213,-0.49835413694381714,0.75177925825119019,0,-0.45801466703414917,0.93795454502105713,-0.31135186553001404,0.2800527811050415,-0.36719802021980286,0,0,0,-0.32961165904998779,0,0,0,0.39337801933288574,0.0889468714594841,0,0.28578430414199829,-0.34231853485107422,0,-0.82380568981170654,-0.27918943762779236,0.4897005558013916,0.30009299516677856,0,0.62241780757904053,0,0,0.48175397515296936,-0.38267660140991211,0,0.25415363907814026,0,-0.41041171550750732,-0.88551390171051025,0,0,0,0.94307327270507812,0.4606914222240448,-0.59008932113647461,-0.96238231658935547,0,0.63901591300964355,0.62030601501464844,0.79495060443878174,0,0,0,0,0,0,0,0,0,0,0,-0.32980954647064209,0.39042201638221741,0.33576881885528564,0,-0.20407302677631378,0,0,0.060984313488006592,-1,0,0,-0.58458435535430908,0,0.16776573657989502,1,-0.44190648198127747,0.48307457566261292,0.48612672090530396,0,0,-1,0.53103178739547729,0.49869176745414734,0,-0.027664706110954285,0,0.42301568388938904,-0.28317967057228088,-1,0,-0.72697734832763672,-0.47864511609077454,-0.087470538914203644,-0.087927632033824921,0,0,0.33117774128913879,0,0,0.3386898934841156,0,0,0.34389331936836243,1,-0.49301174283027649,0,0.062765359878540039,0,0.11807847768068314,0,0,0,0,0,-0.4507749080657959,0,-0.04813385009765625,0,-0.38456562161445618,0,0,-0.41353952884674072,0,0.52984112501144409,0.81527674198150635,0,0,0.40055692195892334,0,-0.81501013040542603,-0.39692473411560059,0,0,0,0,0,0.0042574829421937466,-0.31872841715812683,0,0.11423516273498535,-0.39891105890274048,0,0,0,0,0.088855914771556854,0,0.20711767673492432,-1,0,0.31268033385276794,-0.77585959434509277,0,0,-0.25975733995437622,0.49340754747390747,0,0,0,0,0,0.39226853847503662,0.18941354751586914,-0.57428497076034546,0.90909767150878906,0,-0.29048055410385132,0.37964913249015808,0,0,0.81033408641815186,0.083824455738067627,0,0,0.11384725570678711,0,0,0,0,0.46870529651641846,0,0,-0.71642929315567017,-0.33516180515289307,0.37522163987159729,0,-0.48574960231781006,-0.75399810075759888,0,-0.46622291207313538,-0.20111918449401855,0,0,0,0.14591896533966064,0,-1,0,-0.16062080860137939,0.45747140049934387,0,0,0,0,-0.42986771464347839,-0.003847853746265173,0.35169267654418945,0,0,0,0,-0.34054550528526306,0,-0.31274518370628357,0,-0.49491024017333984,0.34299153089523315,0.57857304811477661,0,0,-0.022320536896586418,0,0,0,-0.8235088586807251,-0.33312779664993286,0,0.41468244791030884,0.43018797039985657,0,0,0,-0.31622481346130371,0.43535763025283813,0.47306105494499207,0,-0.28968948125839233,0.39822754263877869,-0.30783489346504211,0,-0.25153195858001709,0,0,0,0.35440900921821594,-0.98035919666290283,0,-0.015296101570129395,0,0,-0.47696861624717712,0,-0.57891476154327393,0,0,-0.32164075970649719,0.27694016695022583,0,0,0,0,0,0.59251201152801514,-0.0006888597272336483,0,-0.48897585272789001,0,0,-0.012220397591590881,0,0,0,0,0,0.11642806977033615,0.32442045211791992,0,0,-0.2520606517791748,0,0.45076695084571838,-0.37125378847122192,-0.1441609114408493,-0.39901432394981384,0,0.44319126009941101,-0.42259559035301208,0,0,-0.45113644003868103,0,-0.033670425415039062,0,0,0,0,0,0,0.30884295701980591,-0.5,0.32724004983901978,0,0.73157584667205811,0,0,0,0,0.45578169822692871,0,-0.080842949450016022,0,0.30936750769615173,0.44525662064552307,0,0,0,0,0,-0.3737102746963501,1,0,-0.43230855464935303,0,0.34587892889976501,0,0,0,0,0,-0.32873642444610596,0,-0.40094426274299622,0.011492020450532436,-0.44920778274536133,-0.16897691786289215,0,0.2865334153175354,0.31657084822654724,0.074131391942501068,0.3411155641078949,0,0,0,0,0,0,0.48329034447669983,0,-0.35920014977455139,0,0,0.4519118070602417,0,0,-0.37363985180854797,0,0.59528505802154541,0.026416491717100143,-0.36532974243164062,-0.88134241104125977,0,-1,0,0,-0.34863272309303284,-0.12926006317138672,-0.2574647068977356,-1,-0.43128126859664917,-0.42269405722618103,0,0.1567540168762207,0,0.43560880422592163,0,0.35577559471130371,0,0,0,0,0,-0.16219975054264069,0.38427752256393433,0,0,0.38172581791877747,0,-0.29190996289253235,0,-0.03562517836689949,0,0.35702574253082275,0,-0.54726606607437134,-0.45876887440681458,-0.50609076023101807,0,0.53740555047988892,0,-0.35212424397468567,-0.38898801803588867,-0.73537522554397583,-0.90955579280853271,0,-0.27686357498168945,0.030718568712472916,0,-0.32613730430603027,0,0,-0.61559516191482544,-0.46765023469924927,0,0.40341830253601074,0,0.45551913976669312,0.43997716903686523,0.44371858239173889,0.43013718724250793,0.40762335062026978,0.92461174726486206,-0.040337204933166504,0.24013061821460724,0,0,0,0,-0.21267855167388916,0.34507814049720764,0,-1,0,0,0,0.65936106443405151,0,-0.42779406905174255,0,0,-0.86803030967712402,-0.82735365629196167,0,0,0.80699372291564941,0.46884942054748535,-0.55768460035324097,0.19803404808044434,-0.62423628568649292,0,0,-0.43591234087944031,0,-0.085525631904602051,0,0,0,0,0,0.10791974514722824,0,0,0.20411548018455505,0.3911857008934021,0],[0,0,-0.49085381627082825,0,0,0,-0.022682107985019684,0,0,-0.43576139211654663,0,-1,-0.4443238377571106,0.11552207916975021,0,0,0.097570419311523438,0,0,0.57729876041412354,0.34648111462593079,1,-0.71391373872756958,-0.360240638256073,0,-0.30265825986862183,0.50270992517471313,1,0,0.38929200172424316,0.26964998245239258,-0.30763342976570129,0.45473989844322205,0.23417937755584717,0.46199679374694824,0,0.65705430507659912,-0.264884352684021,0.36885830760002136,-0.2971949577331543,-0.31767892837524414,0.39266508817672729,0.48221167922019958,0,0,-0.41520550847053528,0.8468475341796875,0,0.23480655252933502,0.23674656450748444,0.72949939966201782,0,0,0,0.37670058012008667,0.81700736284255981,0,-0.70481479167938232,-1,0,0.3049214780330658,0.25342059135437012,0,0.087862133979797363,0.69443172216415405,0,0,1,0.044539585709571838,0.25071576237678528,0.0082294689491391182,0.67149800062179565,0.47193959355354309,0,-0.78470885753631592,0.30196022987365723,0.27582356333732605,-0.36734229326248169,-0.40563401579856873,0,0.78382259607315063,-0.36309415102005005,0.57868313789367676,-0.35423681139945984,-0.55822014808654785,0,-0.31756243109703064,0.19877192378044128,0.36268454790115356,0,-0.33810949325561523,0.48370969295501709,-0.45671546459197998,0,-0.53741663694381714,0,-0.22475230693817139,-0.60963809490203857,0.67795121669769287,0.50999963283538818,-0.081651873886585236,0.36003825068473816,-0.74123656749725342,0.97300517559051514,0,0.25781160593032837,0,0.042181875556707382,0.022787632420659065,0,0.016001343727111816,0.080350384116172791,-0.41778632998466492,0,-0.94472450017929077,-0.15846535563468933,0.25543302297592163,-0.25158718228340149,-0.35079798102378845,0,0.8635108470916748,0.16576001048088074,0.47795864939689636,0,0,-0.012847171165049076,0,-0.27295702695846558,0.5,0.48522394895553589,-0.37624260783195496,0,-0.2587660551071167,0.48046866059303284,0.47886011004447937,0.44485428929328918,0,0,-0.80522274971008301,0.9142758846282959,-0.065083876252174377,0,0,-0.13045673072338104,0,-0.34094244241714478,0.3876626193523407,0.055974427610635757,0,0.69549661874771118,0,0,-0.83679676055908203,-1,0,0.14017868041992188,0.4629959762096405,0.85996407270431519,0.69013798236846924,0.36924859881401062,0,0.27207177877426147,-0.50117635726928711,-0.089600749313831329,0.33084583282470703,0,-0.062596596777439117,1,-0.25602558255195618,-0.39816665649414062,0.31852948665618896,0,0.38367545604705811,0,0.82505077123641968,-0.27445641160011292,-0.56056344509124756,-0.16761833429336548,0.45125845074653625,0,0.46603855490684509,0,0.29603376984596252,0,-0.13938067853450775,0.38430404663085938,1,0.40222376585006714,-0.37246516346931458,-0.024417951703071594,0,-0.41131222248077393]],"id":"57C80197-5158-4A6D-AC3A-31B703C48B3D","generation":1292,"biases":[[],[0.46341460943222046,0.17917166650295258,-0.59274762868881226,-0.3978937566280365,1,-0.275339275598526,0.053634569048881531,1,-1,1,-0.008791821077466011,-0.5,-0.55945670604705811,-0.45947918295860291,0.5,0.49457582831382751,-1,-1,-0.47313386201858521,0.20254100859165192,0.88001281023025513,-1,0.20557104051113129,0.36636868119239807],[0.54211008548736572,-0.073529757559299469,-0.33272701501846313,-0.1745772510766983,0.14118015766143799,0.10155539214611053,0.14308454096317291,-0.64309334754943848]],"inputCount":32,"hiddenCount":24,"outputCount":8},{"marker2":false,"marker1":false,"weights":[[],[0,0.49225211143493652,0,0,-0.31834906339645386,0,0.46819743514060974,0,0,0,0,0.41276693344116211,0,-0.41218742728233337,0,-0.13630135357379913,0,0,0,0,0,0,0,0.87747687101364136,0.26635020971298218,0.41843393445014954,0.39299619197845459,0,0,0,0,0,0.30293449759483337,0,0.83597862720489502,0,-0.35368326306343079,0,0,0,-0.42940118908882141,0,0,0,0.41687166690826416,0.35979652404785156,0,0,-0.33303511142730713,-0.26133480668067932,0,0.57253181934356689,0.58861458301544189,-0.29952159523963928,0,0,0.28157913684844971,0,0,0,-0.3833693265914917,0,0,-0.42946478724479675,0.9443289041519165,0,-0.33244836330413818,-0.31274279952049255,0,0,0,-0.7441403865814209,-0.55803537368774414,0,-0.42780232429504395,-0.46200588345527649,0,0,0,0,0.68114537000656128,0,0.4058915376663208,-0.25148648023605347,0,0,0.40028926730155945,-0.62254625558853149,0,0.29494574666023254,0,-0.46904745697975159,0.093187220394611359,0.4789736270904541,0.69220805168151855,0,0,0,-0.41173136234283447,0.37454971671104431,0,0,0.51377952098846436,0.32450568675994873,-0.34370025992393494,0,0.9356229305267334,0.47288504242897034,0.41271817684173584,0,0,0.34816426038742065,-0.1655907928943634,0,0,0.089635379612445831,0.30993053317070007,0,0,0,-1,-0.26465120911598206,-0.18015952408313751,-0.57067239284515381,0,0.32721385359764099,-0.9197317361831665,0.053325548768043518,0.027478976175189018,0,0,0,-0.41980710625648499,0,0.2646624743938446,0.33407935500144958,0,-0.35219186544418335,0.26280093193054199,-0.65196812152862549,0,0.78017085790634155,0.45686960220336914,-0.5922551155090332,-0.38270771503448486,-0.75760555267333984,-0.010518312454223633,-0.27047652006149292,-0.41558343172073364,0,0,0,-0.24058377742767334,0,0,0,0,0,0,0,0.47015306353569031,-0.30946698784828186,0.3978380560874939,0,0,0.32432493567466736,-0.05543150007724762,0,0,0.8097074031829834,0,0.21993410587310791,0,0,1,0.39402729272842407,0,0,0,0.34745877981185913,0,-0.51085573434829712,-0.35992047190666199,-0.7917330265045166,1,0.35975965857505798,-0.14807642996311188,0,0.88809418678283691,-0.33988547325134277,0,0.96855676174163818,0,0.44719576835632324,0.31857803463935852,0,0,0,0.35455185174942017,0,0,1,0,-0.68284058570861816,-0.42958015203475952,0.94110298156738281,0,0,-0.3385850191116333,0,0,0,0,-0.3679535984992981,0,0,-0.44093361496925354,0,0.12778511643409729,-0.1406712532043457,0.36590012907981873,0,0,0.13880956172943115,0,0.66270506381988525,0,0,0,-0.83268159627914429,0,-0.11232554912567139,0,-0.68966591358184814,0,0,0,0,0,0,0,-0.13577018678188324,0,0,-0.26165783405303955,0,0.26513031125068665,0,-0.36073297262191772,0.83472537994384766,-0.448233962059021,0,0,0,0.28162792325019836,0,0,0.3003237247467041,0,-0.33892115950584412,0,0,0.40540856122970581,-0.29444852471351624,-0.3197249174118042,0.33329424262046814,-0.46631583571434021,0,-0.18897390365600586,0,0,0,0,-0.02526247501373291,0.35591080784797668,-0.32710438966751099,0.097406372427940369,0,-0.72701090574264526,-0.39941743016242981,0,0,0,0,0,0,0.33142125606536865,0,0.29935178160667419,0.83642774820327759,-0.51707184314727783,-0.44627729058265686,0,0,0,0,-0.26281282305717468,0,0,-0.40620124340057373,0,0.30427783727645874,0,0,0,-0.25762617588043213,-0.49835413694381714,0.75177925825119019,0,-0.45801466703414917,0.93795454502105713,-0.31135186553001404,0.2800527811050415,-0.36719802021980286,0,0,0,-0.32961165904998779,0,0,0,0.39337801933288574,0.0889468714594841,0,0.28578430414199829,-0.34231853485107422,0,-0.82380568981170654,-0.27918943762779236,0.4897005558013916,0.30009299516677856,0,0.62241780757904053,0,0,0.48175397515296936,-0.38267660140991211,0,0.25415363907814026,0,-0.41041171550750732,-0.88551390171051025,0,0,0,0.94307327270507812,0.4606914222240448,-0.59008932113647461,-0.96238231658935547,0,0.63901591300964355,0.62030601501464844,0.79495060443878174,0,0,0,0,0,0,0,0,0,0,0,-0.32980954647064209,0.39042201638221741,0.33576881885528564,0,-0.20407302677631378,0,0,0.060984313488006592,-1,0,0,-0.58458435535430908,0,0.16776573657989502,1,-0.44190648198127747,0.48307457566261292,0.48612672090530396,0,0,-1,0.53103178739547729,0.49869176745414734,0,-0.027664706110954285,0,0.42301568388938904,-0.28317967057228088,-1,0,-0.72697734832763672,-0.47864511609077454,-0.087470538914203644,-0.087927632033824921,0,0,0.33117774128913879,0,0,0.3386898934841156,0,0,0.34389331936836243,1,-0.49301174283027649,0,0.062765359878540039,0,0.11807847768068314,0,0,0,0,0,-0.4507749080657959,0,-0.04813385009765625,0,-0.38456562161445618,0,0,-0.41353952884674072,0,0.52984112501144409,0.81527674198150635,0,0,0.40055692195892334,0,-0.81501013040542603,-0.39692473411560059,0,0,0,0,0,0.0042574829421937466,-0.31872841715812683,0,0.11423516273498535,-0.39891105890274048,0,0,0,0,0.088855914771556854,0,0.20711767673492432,-1,0,0.31268033385276794,-0.77585959434509277,0,0,-0.25975733995437622,0.49340754747390747,0,0,0,0,0,0.39226853847503662,0.18941354751586914,-0.57428497076034546,0.90909767150878906,0,-0.29048055410385132,0.37964913249015808,0,0,0.81033408641815186,0.083824455738067627,0,0,0.11384725570678711,0,0,0,0,0.46870529651641846,0,0,-0.71642929315567017,-0.33516180515289307,0.37522163987159729,0,-0.48574960231781006,-0.75399810075759888,0,-0.46622291207313538,-0.20111918449401855,0,0,0,0.14591896533966064,0,-1,0,-0.16062080860137939,0.45747140049934387,0,0,0,0,-0.42986771464347839,-0.003847853746265173,0.35169267654418945,0,0,0,0,-0.34054550528526306,0,-0.31274518370628357,0,-0.49491024017333984,0.34299153089523315,0.57857304811477661,0,0,-0.022320536896586418,0,0,0,-0.8235088586807251,-0.33312779664993286,0,0.41468244791030884,0.43018797039985657,0,0,0,-0.31622481346130371,0.43535763025283813,0.47306105494499207,0,-0.28968948125839233,0.39822754263877869,-0.30783489346504211,0,-0.25153195858001709,0,0,0,0.35440900921821594,-0.98035919666290283,0,-0.015296101570129395,0,0,-0.47696861624717712,0,-0.57891476154327393,0,0,-0.32164075970649719,0.27694016695022583,0,0,0,0,0,0.59251201152801514,-0.0006888597272336483,0,-0.48897585272789001,0,0,-0.012220397591590881,0,0,0,0,0,0.11642806977033615,0.32442045211791992,0,0,-0.2520606517791748,0,0.45076695084571838,-0.37125378847122192,-0.1441609114408493,-0.39901432394981384,0,0.44319126009941101,-0.42259559035301208,0,0,-0.45113644003868103,0,-0.033670425415039062,0,0,0,0,0,0,0.30884295701980591,-0.5,0.32724004983901978,0,0.73157584667205811,0,0,0,0,0.45578169822692871,0,-0.080842949450016022,0,0.30936750769615173,0.44525662064552307,0,0,0,0,0,-0.3737102746963501,1,0,-0.43230855464935303,0,0.34587892889976501,0,0,0,0,0,-0.32873642444610596,0,-0.40094426274299622,0.011492020450532436,-0.44920778274536133,-0.16897691786289215,0,0.2865334153175354,0.31657084822654724,0.074131391942501068,0.3411155641078949,0,0,0,0,0,0,0.48329034447669983,0,-0.35920014977455139,0,0,0.4519118070602417,0,0,-0.37363985180854797,0,0.59528505802154541,0.026416491717100143,-0.36532974243164062,-0.88134241104125977,0,-1,0,0,-0.34863272309303284,-0.12926006317138672,0,-1,-0.43128126859664917,-0.42269405722618103,0,0.1567540168762207,0,0.43560880422592163,0,0.35577559471130371,0,0,0,0,0,-0.16219975054264069,0.38427752256393433,0,0,0.38172581791877747,0,-0.29190996289253235,0,-0.03562517836689949,0,0.35702574253082275,0,-0.54726606607437134,-0.45876887440681458,-0.50609076023101807,0,0.53740555047988892,0,-0.35212424397468567,-0.38898801803588867,-0.73537522554397583,-0.90955579280853271,0,-0.27686357498168945,0.030718568712472916,0,-0.32613730430603027,0,0,-0.61559516191482544,-0.46765023469924927,0,0.40341830253601074,0,0.45551913976669312,0.43997716903686523,0.44371858239173889,0.43013718724250793,0.40762335062026978,0.92461174726486206,-0.040337204933166504,0.24013061821460724,0,0,0,0,-0.21267855167388916,0.34507814049720764,0,-1,0,0,0,0.65936106443405151,0,-0.42779406905174255,0,0,-0.86803030967712402,-0.82735365629196167,0,0,0.80699372291564941,0.46884942054748535,-0.55768460035324097,0.19803404808044434,-0.62423628568649292,0,0,-0.43591234087944031,0,-0.085525631904602051,0,0,0,0,0,0.10791974514722824,0,0,0.20411548018455505,0.3911857008934021,0],[0,0,-0.49085381627082825,0,0,0,-0.022682107985019684,0,0,-0.43576139211654663,0,-1,-0.4443238377571106,0.11552207916975021,0,0,0.097570419311523438,0,0,0.57729876041412354,0.34648111462593079,1,-0.71391373872756958,-0.360240638256073,0,-0.30265825986862183,0.50270992517471313,1,0,0.38929200172424316,0.26964998245239258,-0.30763342976570129,0.45473989844322205,0.23417937755584717,0.46199679374694824,0,0.65705430507659912,-0.264884352684021,0.36885830760002136,-0.2971949577331543,-0.31767892837524414,0.39266508817672729,0.48221167922019958,0,0,-0.41520550847053528,0.8468475341796875,0,0.23480655252933502,0.23674656450748444,0.72949939966201782,0,0,0,0.37670058012008667,0.81700736284255981,0,-0.70481479167938232,-1,0,0.3049214780330658,0.25342059135437012,0,0.087862133979797363,0.69443172216415405,0,0,1,0.044539585709571838,0.25071576237678528,0.0082294689491391182,0.67149800062179565,0.47193959355354309,0,-0.78470885753631592,0.30196022987365723,0.27582356333732605,-0.36734229326248169,-0.40563401579856873,0,0.78382259607315063,-0.61421495676040649,0.57868313789367676,-0.35423681139945984,-0.55822014808654785,0,-0.31756243109703064,0.19877192378044128,0.36268454790115356,0,-0.33810949325561523,0.48370969295501709,-0.45671546459197998,0,-0.53741663694381714,0,-0.22475230693817139,-0.60963809490203857,0.67795121669769287,0.50999963283538818,-0.081651873886585236,0.36003825068473816,-0.74123656749725342,0.97300517559051514,0,0.25781160593032837,0,0.042181875556707382,0.022787632420659065,0,0.016001343727111816,0.080350384116172791,-0.41778632998466492,0,-0.94472450017929077,-0.15846535563468933,0.25543302297592163,-0.25158718228340149,-0.35079798102378845,0,0.8635108470916748,0.16576001048088074,0.47795864939689636,0,0,-0.012847171165049076,0,-0.27295702695846558,0.5,0.48522394895553589,-0.37624260783195496,0,-0.2587660551071167,0.48046866059303284,0.47886011004447937,0.44485428929328918,0,0,-0.80522274971008301,0.9142758846282959,-0.065083876252174377,0,0,-0.13045673072338104,0,-0.34094244241714478,0.3876626193523407,0.055974427610635757,0,0.69549661874771118,0,0,-0.83679676055908203,-1,0,0.14017868041992188,0.4629959762096405,0.85996407270431519,0.69013798236846924,0.36924859881401062,0,0.27207177877426147,-0.50117635726928711,-0.089600749313831329,0.33084583282470703,0,-0.062596596777439117,1,-0.25602558255195618,-0.39816665649414062,0.31852948665618896,0,0.38367545604705811,0,0.82505077123641968,-0.27445641160011292,-0.56056344509124756,-0.16761833429336548,0.45125845074653625,0,0.46603855490684509,0,0.29603376984596252,0,-0.13938067853450775,0.38430404663085938,1,0.40222376585006714,-0.37246516346931458,-0.024417951703071594,0,-0.41131222248077393]],"id":"0E3A09E7-E5FD-4F1C-A09D-6484634C0092","generation":1292,"biases":[[],[0.46341460943222046,0.50490725040435791,-0.59274762868881226,-0.3978937566280365,1,-0.275339275598526,0.053634569048881531,1,-1,1,-0.008791821077466011,-0.5,-0.55945670604705811,-0.45947918295860291,0.5,0.49457582831382751,-1,-1,-0.47313386201858521,0.20254100859165192,0.88001281023025513,-1,0.20557104051113129,0.36636868119239807],[0.92097026109695435,-0.073529757559299469,-0.33272701501846313,-0.1745772510766983,0.14118015766143799,0.10155539214611053,0.14308454096317291,-0.64309334754943848]],"inputCount":32,"hiddenCount":24,"outputCount":8},{"marker2":false,"marker1":false,"weights":[[],[0,0.49225211143493652,0,0,-0.31834906339645386,0,0.46819743514060974,0,0,0,0,0.41276693344116211,0,-0.41218742728233337,0,-0.13630135357379913,0,0,0,0,0,0,0,0.87747687101364136,0.26635020971298218,0.41843393445014954,0.39299619197845459,0,0,0,0,0,0.30293449759483337,0,0.83597862720489502,0,-0.35368326306343079,0,0,0,-0.42940118908882141,0,0,0,0.41687166690826416,0.35979652404785156,0,0,-0.33303511142730713,-0.26133480668067932,0,0.57253181934356689,0.58861458301544189,-0.29952159523963928,0,0,0.28157913684844971,0,0,0,-0.3833693265914917,0,0,-0.42946478724479675,0.9443289041519165,0,-0.33244836330413818,-0.31274279952049255,0,0,0,-0.7441403865814209,-0.55803537368774414,0,-0.42780232429504395,-0.46200588345527649,0,0,0,0,0.68114537000656128,0,0.4058915376663208,-0.25148648023605347,0,0,0.40028926730155945,-0.62254625558853149,0,0.29494574666023254,0,-0.46904745697975159,0.093187220394611359,0.4789736270904541,0.69220805168151855,0,0,0,-0.41173136234283447,0.37454971671104431,0,0,0.51377952098846436,0.32450568675994873,-0.34370025992393494,0,0.9356229305267334,0.47288504242897034,0.41271817684173584,0,0,0.34816426038742065,-0.1655907928943634,0,0,0.089635379612445831,0.30993053317070007,0,0,0,-1,-0.26465120911598206,-0.18015952408313751,-0.57067239284515381,0,0.32721385359764099,-0.9197317361831665,0.053325548768043518,0.027478976175189018,0,0,0,-0.41980710625648499,0,0.2646624743938446,0.33407935500144958,0,-0.35219186544418335,0.26280093193054199,-0.65196812152862549,0,0.78017085790634155,0.45686960220336914,-0.5922551155090332,-0.38270771503448486,-0.75760555267333984,-0.010518312454223633,-0.27047652006149292,-0.41558343172073364,0,0,0,-0.24058377742767334,0,0,0,0,0,0,0,0.47015306353569031,-0.30946698784828186,0.3978380560874939,0,0,0.32432493567466736,-0.05543150007724762,0,0,0.8097074031829834,0,0.21993410587310791,0,0,1,0.39402729272842407,0,0,0,0.34745877981185913,0,-0.51085573434829712,-0.35992047190666199,-0.7917330265045166,1,0.35975965857505798,-0.14807642996311188,0,0.88809418678283691,-0.33988547325134277,0,0.96855676174163818,0,0.44719576835632324,0.31857803463935852,0,0,0,0.35455185174942017,0,0,1,0,-0.68284058570861816,-0.42958015203475952,0.94110298156738281,0,0,-0.3385850191116333,0,0,0,0,-0.3679535984992981,0,0,-0.44093361496925354,0,0.12778511643409729,-0.1406712532043457,0.36590012907981873,0,0,0.13880956172943115,0,0.66270506381988525,0,0,0,-0.83268159627914429,0,-0.11232554912567139,0,-0.68966591358184814,0,0,0,0,0,0,0,-0.13577018678188324,0,0,-0.26165783405303955,0,0.26513031125068665,0,-0.36073297262191772,0.83472537994384766,-0.448233962059021,0,0,0,0.28162792325019836,0,0,0.3003237247467041,0,-0.33892115950584412,0,0,0.40540856122970581,-0.29444852471351624,-0.3197249174118042,0.33329424262046814,-0.46631583571434021,0,-0.18897390365600586,0,0,0,0,-0.02526247501373291,0.35591080784797668,-0.32710438966751099,0.097406372427940369,0,-0.72701090574264526,-0.39941743016242981,0,0,0,0,0,0,0.33142125606536865,0,0.29935178160667419,0.83642774820327759,-0.51707184314727783,-0.44627729058265686,0,0,0,0,-0.26281282305717468,0,0,-0.40620124340057373,0,0.30427783727645874,0,0,0,-0.25762617588043213,-0.49835413694381714,0.75177925825119019,0,-0.45801466703414917,0.93795454502105713,-0.31135186553001404,0.2800527811050415,-0.36719802021980286,0,0,0,-0.32961165904998779,0,0,0,0.39337801933288574,0.0889468714594841,0,0.28578430414199829,-0.34231853485107422,0,-0.82380568981170654,-0.27918943762779236,0.4897005558013916,0.30009299516677856,0,0.62241780757904053,0,0,0.48175397515296936,-0.38267660140991211,0,0.25415363907814026,0,-0.41041171550750732,-0.88551390171051025,0,0,0,0.94307327270507812,0.4606914222240448,-0.59008932113647461,-0.96238231658935547,0,0.63901591300964355,0.62030601501464844,0.79495060443878174,0,0,0,0,0,0,0,0,0,0,0,-0.32980954647064209,0.39042201638221741,0.33576881885528564,0,-0.20407302677631378,0,0,0.060984313488006592,-1,0,0,-0.58458435535430908,0,0.16776573657989502,1,-0.44190648198127747,0.48307457566261292,0.48612672090530396,0,0,-1,0.53103178739547729,0.49869176745414734,0,-0.027664706110954285,0,0.42301568388938904,-0.28317967057228088,-1,0,-0.72697734832763672,-0.47864511609077454,-0.087470538914203644,-0.087927632033824921,0,0,0.33117774128913879,0,0,0.3386898934841156,0,0,0.34389331936836243,1,-0.49301174283027649,0,0.062765359878540039,0,0.11807847768068314,0,0,0,0,0,-0.4507749080657959,0,-0.04813385009765625,0,-0.38456562161445618,0,0,-0.41353952884674072,0,0.52984112501144409,0.81527674198150635,0,0,0.40055692195892334,0,-0.81501013040542603,-0.39692473411560059,0,0,0,0,0,0.0042574829421937466,-0.31872841715812683,0,0.11423516273498535,-0.39891105890274048,0,0,0,0,0.088855914771556854,0,0.20711767673492432,-1,0,0.31268033385276794,-0.77585959434509277,0,0,-0.25975733995437622,0.49340754747390747,0,0,0,0,0,0.39226853847503662,0.18941354751586914,-0.57428497076034546,0.90909767150878906,0,-0.29048055410385132,0.37964913249015808,0,0,0.81033408641815186,0.083824455738067627,0,0,0.11384725570678711,0,0,0,0,0.46870529651641846,0,0,-0.71642929315567017,-0.33516180515289307,0.37522163987159729,0,-0.48574960231781006,-0.75399810075759888,0,-0.46622291207313538,-0.20111918449401855,0,0,0,0.14591896533966064,0,-1,0,-0.16062080860137939,0.45747140049934387,0,0,0,0,-0.42986771464347839,-0.003847853746265173,0.35169267654418945,0,0,0,0,-0.34054550528526306,0,-0.31274518370628357,0,-0.49491024017333984,0.34299153089523315,0.57857304811477661,0,0,-0.022320536896586418,0,0,0,-0.8235088586807251,-0.33312779664993286,0,0.41468244791030884,0.43018797039985657,0,0,0,-0.31622481346130371,0.43535763025283813,0.47306105494499207,0,-0.28968948125839233,0.39822754263877869,-0.30783489346504211,0,-0.25153195858001709,0,0,0,0.35440900921821594,-0.98035919666290283,0,-0.015296101570129395,0,0,-0.47696861624717712,0,-0.57891476154327393,0,0,-0.32164075970649719,0.27694016695022583,0,0,0,0,0,0.59251201152801514,-0.0006888597272336483,0,-0.48897585272789001,0,0,-0.012220397591590881,0,0,0,0,0,0.11642806977033615,0.32442045211791992,0,0,-0.2520606517791748,0,0.45076695084571838,-0.37125378847122192,-0.1441609114408493,-0.39901432394981384,0,0.44319126009941101,-0.42259559035301208,0,0,-0.45113644003868103,0,-0.033670425415039062,0,0,0,0,0,0,0.30884295701980591,-0.5,0.32724004983901978,0,0.73157584667205811,0,0,0,0,0.45578169822692871,0,-0.080842949450016022,0,0.30936750769615173,0.44525662064552307,0,0,0,0,0,-0.3737102746963501,1,0,-0.43230855464935303,0,0.34587892889976501,0,0,0,0,0,-0.32873642444610596,0,-0.40094426274299622,0.011492020450532436,-0.44920778274536133,-0.16897691786289215,0,0.2865334153175354,0.31657084822654724,0.074131391942501068,0.3411155641078949,0,0,0,0,0,0,0.48329034447669983,0,-0.35920014977455139,0,0,0.4519118070602417,0,0,-0.37363985180854797,0,0.59528505802154541,0.026416491717100143,-0.36532974243164062,-0.88134241104125977,0,-1,0,0,-0.34863272309303284,-0.12926006317138672,0,-1,-0.43128126859664917,-0.42269405722618103,0,0.1567540168762207,0,0.43560880422592163,0,0.35577559471130371,0,0,0,0,0,-0.16219975054264069,0.38427752256393433,0,0,0.38172581791877747,0,-0.29190996289253235,0,-0.03562517836689949,0,0.35702574253082275,0,-0.54726606607437134,-0.45876887440681458,-0.50609076023101807,0,0.53740555047988892,0,-0.35212424397468567,-0.38898801803588867,-0.73537522554397583,-0.90955579280853271,0,-0.27686357498168945,0.030718568712472916,0,-0.32613730430603027,0,0,-0.61559516191482544,-0.46765023469924927,0,0.40341830253601074,0,0.45551913976669312,0.43997716903686523,0.44371858239173889,0.43013718724250793,0.40762335062026978,0.92461174726486206,-0.040337204933166504,0.24013061821460724,0,0,0,0,-0.21267855167388916,0.34507814049720764,0,-1,0,0,0,0.65936106443405151,0,-0.42779406905174255,0,0,-0.86803030967712402,-0.82735365629196167,0,0,0.80699372291564941,0.46884942054748535,-0.55768460035324097,0.19803404808044434,-0.62423628568649292,0,0,-0.43591234087944031,0,-0.085525631904602051,0,0,0,0,0,0.10791974514722824,0,0,0.20411548018455505,0.3911857008934021,0],[0,0,-0.49085381627082825,0,0,0,-0.022682107985019684,0,0,-0.43576139211654663,0,-1,-0.4443238377571106,0.11552207916975021,0,0,0.097570419311523438,0,0,0.57729876041412354,0.34648111462593079,1,-0.71391373872756958,-0.360240638256073,0,-0.30265825986862183,0.50270992517471313,1,0,0.38929200172424316,0.26964998245239258,-0.30763342976570129,0.45473989844322205,0.23417937755584717,0.46199679374694824,0,0.65705430507659912,-0.264884352684021,0.36885830760002136,-0.2971949577331543,-0.31767892837524414,0.39266508817672729,0.48221167922019958,0,0,-0.41520550847053528,0.8468475341796875,0,0.23480655252933502,0.23674656450748444,0.72949939966201782,0,0,0,0.37670058012008667,0.81700736284255981,0,-0.70481479167938232,-1,0,0.3049214780330658,0.25342059135437012,0,0.087862133979797363,0.69443172216415405,0,0,1,0.044539585709571838,0.25071576237678528,0.0082294689491391182,0.67149800062179565,0.47193959355354309,0,-0.78470885753631592,0.30196022987365723,0.27582356333732605,-0.36734229326248169,-0.40563401579856873,0,0.78382259607315063,-0.61421495676040649,0.57868313789367676,-0.35423681139945984,-0.55822014808654785,0,-0.31756243109703064,0.19877192378044128,0.36268454790115356,0,-0.33810949325561523,0.48370969295501709,-0.45671546459197998,0,-0.53741663694381714,0,-0.22475230693817139,-0.60963809490203857,0.67795121669769287,0.50999963283538818,-0.081651873886585236,0.36003825068473816,-0.74123656749725342,0.97300517559051514,0,0.25781160593032837,0,0.042181875556707382,0.022787632420659065,0,0.016001343727111816,0.080350384116172791,-0.41778632998466492,0,-0.94472450017929077,-0.15846535563468933,0.25543302297592163,-0.25158718228340149,-0.35079798102378845,0,0.8635108470916748,0.16576001048088074,0.47795864939689636,0,0,-0.012847171165049076,0,-0.27295702695846558,0.5,0.48522394895553589,-0.37624260783195496,0,-0.2587660551071167,0.48046866059303284,0.47886011004447937,0.44485428929328918,0,0,-0.80522274971008301,0.9142758846282959,-0.065083876252174377,0,0,-0.13045673072338104,0,-0.34094244241714478,0.3876626193523407,0.055974427610635757,0,0.69549661874771118,0,0,-0.83679676055908203,-1,0,0.14017868041992188,0.4629959762096405,0.85996407270431519,0.69013798236846924,0.36924859881401062,0,0.27207177877426147,-0.50117635726928711,-0.089600749313831329,0.33084583282470703,0,-0.062596596777439117,1,-0.25602558255195618,-0.39816665649414062,0.31852948665618896,0,0.38367545604705811,0,0.82505077123641968,-0.27445641160011292,-0.56056344509124756,-0.16761833429336548,0.45125845074653625,0,0.46603855490684509,0,0.29603376984596252,0,-0.13938067853450775,0.38430404663085938,1,0.40222376585006714,-0.37246516346931458,-0.024417951703071594,0,-0.41131222248077393]],"id":"972A1ABC-6DC3-464D-86BD-467EB86691B9","generation":1292,"biases":[[],[0.46341460943222046,0.17917166650295258,-0.59274762868881226,-0.3978937566280365,1,-0.275339275598526,0.053634569048881531,1,-1,1,-0.008791821077466011,-0.5,-0.55945670604705811,-0.45947918295860291,0.5,0.49457582831382751,-1,-1,-0.47313386201858521,0.20254100859165192,0.88001281023025513,-1,0.20557104051113129,0.36636868119239807],[0.92097026109695435,-0.073529757559299469,-0.33272701501846313,-0.1745772510766983,0.14118015766143799,0.10155539214611053,0.14308454096317291,-0.64309334754943848]],"inputCount":32,"hiddenCount":24,"outputCount":8},{"marker2":false,"marker1":true,"weights":[[],[0,0.49225211143493652,0,0,-0.31834906339645386,0,0.46819743514060974,0,0,0,0,0.41276693344116211,0,-0.41218742728233337,0,-0.13630135357379913,0,0,0,0,0,0,0,0.87747687101364136,0.26635020971298218,0.41843393445014954,0.39299619197845459,0,0,0,0,0,0.30293449759483337,0,0.83597862720489502,0,-0.35368326306343079,0,0,0,-0.42940118908882141,0,0,0,0.41687166690826416,0.35979652404785156,0,0,-0.33303511142730713,-0.26133480668067932,0,0.57253181934356689,0.58861458301544189,-0.29952159523963928,0,0,0.28157913684844971,0,0,0,-0.3833693265914917,0,0,-0.42946478724479675,0.9443289041519165,0,-0.33244836330413818,-0.31274279952049255,0,0,0,-0.7441403865814209,-0.55803537368774414,0,-0.42780232429504395,-0.46200588345527649,0,0,0,0,0.68114537000656128,0,0.4058915376663208,-0.25148648023605347,0,0,0.40028926730155945,-0.62254625558853149,0,0.29494574666023254,0,-0.46904745697975159,0.093187220394611359,0.4789736270904541,0.69220805168151855,0,0,0,-0.41173136234283447,0.37454971671104431,0,0,0.51377952098846436,0.32450568675994873,-0.34370025992393494,0,0.9356229305267334,0.47288504242897034,0.41271817684173584,0,0,0.34816426038742065,-0.1655907928943634,0,0,0.089635379612445831,0.30993053317070007,0,0,0,-1,-0.26465120911598206,-0.18015952408313751,-0.57067239284515381,0,0.32721385359764099,-0.9197317361831665,0.053325548768043518,0.027478976175189018,0,0,0,-0.41980710625648499,0,0.2646624743938446,0.33407935500144958,0,-0.35219186544418335,0.26280093193054199,-0.65196812152862549,0,0.78017085790634155,0.45686960220336914,-0.5922551155090332,-0.38270771503448486,-0.75760555267333984,-0.010518312454223633,-0.27047652006149292,-0.41558343172073364,0,0,0,-0.24058377742767334,0,0,0,0,0,0,0,0.47015306353569031,-0.30946698784828186,0.3978380560874939,0,0,0.32432493567466736,-0.05543150007724762,0,0,0.8097074031829834,0,0.21993410587310791,0,0,1,0.39402729272842407,0,0,0,0.34745877981185913,0,-0.51085573434829712,-0.35992047190666199,-0.3958665132522583,1,0.35975965857505798,-0.14807642996311188,0,0.88809418678283691,-0.33988547325134277,0,0.96855676174163818,0,0.44719576835632324,0.31857803463935852,0,0,0,0.35455185174942017,0,0,1,0,-0.68284058570861816,-0.42958015203475952,0.94110298156738281,0,0,-0.3385850191116333,0,0,0,0,-0.3679535984992981,0,0,-0.44093361496925354,0,0.12778511643409729,-0.1406712532043457,0.36590012907981873,0,0,0.13880956172943115,0,0.66270506381988525,0,0,0,-0.83268159627914429,-0.40906697511672974,-0.11232554912567139,0,-0.68966591358184814,0,0,0,0,0,0,0,-0.13577018678188324,0,0,-0.26165783405303955,0,0.26513031125068665,0,-0.36073297262191772,0.83472537994384766,-0.448233962059021,0,0,0,0.28162792325019836,0,0,0.3003237247467041,0,-0.33892115950584412,0,0,0.40540856122970581,-0.29444852471351624,-0.3197249174118042,0.33329424262046814,-0.46631583571434021,0,-0.18897390365600586,0,0,0,0,-0.02526247501373291,0.35591080784797668,-0.32710438966751099,0.097406372427940369,0,-0.72701090574264526,-0.39941743016242981,0,0,0,0,0,0,0.33142125606536865,0,0.29935178160667419,0.83642774820327759,-0.51707184314727783,-0.44627729058265686,0,0,0,0,-0.26281282305717468,0,0,-0.40620124340057373,0,0.30427783727645874,0,0,0,-0.25762617588043213,-0.49835413694381714,0.75177925825119019,0,-0.45801466703414917,0.93795454502105713,-0.31135186553001404,0.2800527811050415,-0.36719802021980286,0,0,0,-0.32961165904998779,0,0,0,0.39337801933288574,0.0889468714594841,0,0.28578430414199829,-0.34231853485107422,0,-0.82380568981170654,-0.27918943762779236,0.4897005558013916,0.30009299516677856,0,0.62241780757904053,0,0,0.48175397515296936,-0.38267660140991211,0,0.25415363907814026,0,-0.41041171550750732,-0.88551390171051025,0,0,0,0.94307327270507812,0.4606914222240448,-0.59008932113647461,-0.96238231658935547,0,0.63901591300964355,0.62030601501464844,0.79495060443878174,0,0,0,0,0,0,0,0,0,0,0,-0.32980954647064209,0.39042201638221741,0.33576881885528564,0,-0.20407302677631378,0,0,0.060984313488006592,-1,0,0,-0.58458435535430908,0,0.16776573657989502,1,-0.44190648198127747,0.48307457566261292,0.48612672090530396,0,0,-1,0.53103178739547729,0.49869176745414734,0,-0.027664706110954285,0,0.42301568388938904,-0.28317967057228088,-1,0,-0.72697734832763672,-0.47864511609077454,-0.087470538914203644,-0.087927632033824921,0,0,0.33117774128913879,0,0,0.3386898934841156,0,0,0.34389331936836243,1,-0.49301174283027649,0,0.062765359878540039,0,0.11807847768068314,0,0,0,0,0,-0.4507749080657959,0,-0.04813385009765625,0,-0.38456562161445618,0,0,-0.41353952884674072,0,0.52984112501144409,0.81527674198150635,0,0,0.40055692195892334,0,-0.81501013040542603,-0.39692473411560059,0,0,0,0,0,0.0042574829421937466,-0.31872841715812683,0,0.11423516273498535,-0.39891105890274048,0,0,0,0,0.088855914771556854,0,0.20711767673492432,-1,0,0.31268033385276794,-0.77585959434509277,0,0,-0.25975733995437622,0.49340754747390747,0,0,0,0,0,0.39226853847503662,0.18941354751586914,-0.57428497076034546,0.90909767150878906,0,-0.29048055410385132,0.37964913249015808,0,0,0.81033408641815186,0.083824455738067627,0,0,0.11384725570678711,0,0,0,0,0.46870529651641846,0,0,-0.71642929315567017,-0.33516180515289307,0.37522163987159729,0,-0.48574960231781006,-0.75399810075759888,0,-0.46622291207313538,-0.20111918449401855,0,0,0,0.14591896533966064,0,-1,0,-0.16062080860137939,0.45747140049934387,0,0,0,0,-0.42986771464347839,-0.003847853746265173,0.35169267654418945,0,0,0,0,-0.34054550528526306,0,-0.31274518370628357,0,-0.49491024017333984,0.34299153089523315,0.57857304811477661,0,0,-0.022320536896586418,0,0,0,-0.8235088586807251,-0.33312779664993286,0,0.41468244791030884,0.43018797039985657,0,0,0,-0.31622481346130371,0.43535763025283813,0.47306105494499207,0,-0.28968948125839233,0.39822754263877869,-0.30783489346504211,0,-0.25153195858001709,0,0,0,0.35440900921821594,-0.98035919666290283,0,-0.015296101570129395,0,0,-0.47696861624717712,0,-0.57891476154327393,0,0,-0.32164075970649719,0.27694016695022583,0,0,0,0,0,0.59251201152801514,-0.0006888597272336483,0,-0.48897585272789001,0,0,-0.012220397591590881,0,0,0,0,0,0.11642806977033615,0.32442045211791992,0,0,-0.2520606517791748,0,0.45076695084571838,-0.37125378847122192,-0.1441609114408493,-0.39901432394981384,0,0.44319126009941101,-0.42259559035301208,0,0,-0.45113644003868103,0,-0.033670425415039062,0,0,0,0,0,0,0.30884295701980591,-0.5,0.32724004983901978,0,0.73157584667205811,0,0,0,0,0.45578169822692871,0,-0.080842949450016022,0,0.30936750769615173,0.44525662064552307,0,0,0,0,0,-0.3737102746963501,1,0,-0.43230855464935303,0,0.34587892889976501,0,0,0,0,0,-0.32873642444610596,0,-0.40094426274299622,0.011492020450532436,-0.44920778274536133,-0.16897691786289215,0,0.2865334153175354,0.31657084822654724,0.074131391942501068,0.3411155641078949,0,0,0,0,0,0,0.48329034447669983,0,-0.35920014977455139,0,0,0.4519118070602417,0,0,-0.37363985180854797,0,0.59528505802154541,0.026416491717100143,-0.36532974243164062,-0.88134241104125977,0,-1,0,0,-0.34863272309303284,-0.12926006317138672,0,-1,-0.43128126859664917,-0.42269405722618103,0,0.1567540168762207,0,0.43560880422592163,0,0.35577559471130371,0,0,0,0,0,-0.16219975054264069,0.38427752256393433,0,0,0.38172581791877747,0,-0.29190996289253235,0,-0.03562517836689949,0,0.35702574253082275,0,-0.54726606607437134,-0.45876887440681458,-0.50609076023101807,0,0.53740555047988892,0,-0.35212424397468567,-0.38898801803588867,-0.73537522554397583,-0.90955579280853271,0,-0.27686357498168945,0.030718568712472916,0,-0.32613730430603027,0,0,-0.61559516191482544,-0.46765023469924927,0,0.40341830253601074,0,0.45551913976669312,0.43997716903686523,0.44371858239173889,0.43013718724250793,0.40762335062026978,0.92461174726486206,-0.040337204933166504,0.24013061821460724,0,0,0,0,-0.21267855167388916,0.34507814049720764,0,-0.62782818078994751,0,0,0,0.65936106443405151,0,-0.42779406905174255,0,0,-0.86803030967712402,-0.82735365629196167,0,0,0.80699372291564941,0.46884942054748535,-0.55768460035324097,0.19803404808044434,-0.62423628568649292,0,0,-0.43591234087944031,0,-0.085525631904602051,0,0,0,0,0,0.10791974514722824,0,0,0.20411548018455505,0.3911857008934021,0],[0,0,-0.49085381627082825,0,0,0,-0.022682107985019684,0,0,-0.43576139211654663,0,-1,-0.4443238377571106,0.11552207916975021,0,0,0.097570419311523438,0,0,0.57729876041412354,0.34648111462593079,1,-0.71391373872756958,-0.360240638256073,0,-0.30265825986862183,0.50270992517471313,1,0,0.38929200172424316,0.26964998245239258,-0.30763342976570129,0.45473989844322205,0.23417937755584717,0.46199679374694824,0,0.65705430507659912,-0.264884352684021,0.36885830760002136,-0.2971949577331543,-0.31767892837524414,0.39266508817672729,0.48221167922019958,0,0,-0.41520550847053528,0.8468475341796875,0,0.23480655252933502,0.23674656450748444,0.72949939966201782,0,0,0,0.37670058012008667,0.81700736284255981,0,-0.70481479167938232,-1,0,0.3049214780330658,0.25342059135437012,0,0.087862133979797363,0.69443172216415405,0,0,1,0.044539585709571838,0.25071576237678528,0.0082294689491391182,0.67149800062179565,0.47193959355354309,0,-0.78470885753631592,0.30196022987365723,0.27582356333732605,-0.36734229326248169,-0.40563401579856873,0,0.78382259607315063,-0.61421495676040649,0.57868313789367676,-0.35423681139945984,-0.55822014808654785,0,-0.31756243109703064,0.19877192378044128,0.36268454790115356,0,-0.33810949325561523,0.48370969295501709,-0.45671546459197998,0,-0.53741663694381714,0,-0.22475230693817139,-0.60963809490203857,0.67795121669769287,0.50999963283538818,-0.081651873886585236,0.36003825068473816,-0.74123656749725342,0.97300517559051514,0,0.25781160593032837,0,0.042181875556707382,0.022787632420659065,0,0.016001343727111816,0.080350384116172791,-0.41778632998466492,0,-0.94472450017929077,-0.15846535563468933,0.25543302297592163,-0.25158718228340149,-0.35079798102378845,0,0.8635108470916748,0.16576001048088074,0.47795864939689636,0,0,-0.012847171165049076,0,-0.27295702695846558,0.5,0.48522394895553589,-0.37624260783195496,0,-0.2587660551071167,0.48046866059303284,0.47886011004447937,0.44485428929328918,0,0,-0.80522274971008301,0.9142758846282959,-0.065083876252174377,0,0,-0.13045673072338104,0,-0.34094244241714478,0.3876626193523407,0.055974427610635757,0,0.69549661874771118,0,0,-0.83679676055908203,-1,0,0.14017868041992188,0.4629959762096405,0.85996407270431519,0.69013798236846924,0.36924859881401062,0,0.27207177877426147,-0.50117635726928711,-0.089600749313831329,0.33084583282470703,0,-0.062596596777439117,1,-0.25602558255195618,-0.39816665649414062,0.31852948665618896,0,0.38367545604705811,0,0.82505077123641968,-0.27445641160011292,-0.56056344509124756,-0.16761833429336548,0.45125845074653625,0,0.85229635238647461,0,0.29603376984596252,0,-0.13938067853450775,0.38430404663085938,1,0.40222376585006714,-0.37246516346931458,-0.024417951703071594,0,-0.41131222248077393]],"id":"155A4E1A-BF55-4991-B568-25FDD118A3B2","generation":1290,"biases":[[],[0.46341460943222046,0.17917166650295258,-0.59274762868881226,-0.3978937566280365,1,-0.275339275598526,0.053634569048881531,1,-1,1,-0.008791821077466011,-0.5,-0.085977077484130859,-0.45947918295860291,0.5,0.49457582831382751,-1,-1,-0.47313386201858521,0.20254100859165192,0.88001281023025513,-1,0.20557104051113129,0.36636868119239807],[0.92097026109695435,-0.073529757559299469,-0.33272701501846313,-0.1745772510766983,0.14118015766143799,0.10155539214611053,0.14308454096317291,-0.64309334754943848]],"inputCount":32,"hiddenCount":24,"outputCount":8},{"marker2":false,"marker1":false,"weights":[[],[0,0.49225211143493652,0,0,-0.31834906339645386,0,0.46819743514060974,0,0,0,0,0.41276693344116211,0,-0.41218742728233337,0,-0.13630135357379913,0,0,0,0,0,0,0,0.87747687101364136,0.26635020971298218,0.41843393445014954,0.39299619197845459,0,0,0,0,0,0.30293449759483337,0,0.83597862720489502,0,-0.35368326306343079,0,0,0,-0.42940118908882141,0,0,0,0.41687166690826416,0.35979652404785156,0,0,-0.33303511142730713,-0.26133480668067932,0,0.57253181934356689,0.58861458301544189,-0.29952159523963928,0,0,0.28157913684844971,0,0,0,-0.3833693265914917,0,0,-0.42946478724479675,0.9443289041519165,0,-0.33244836330413818,-0.31274279952049255,0,0,0,-0.7441403865814209,-0.55803537368774414,0,-0.42780232429504395,-0.46200588345527649,0,0,0,0,0.68114537000656128,0,0.4058915376663208,-0.25148648023605347,0,0,0.40028926730155945,-0.62254625558853149,0,0.29494574666023254,0,-0.46904745697975159,0.093187220394611359,0.4789736270904541,0.69220805168151855,0,0,0,-0.41173136234283447,0.37454971671104431,0,0,0.51377952098846436,0.32450568675994873,-0.34370025992393494,0,0.9356229305267334,0.47288504242897034,0.41271817684173584,0,0,0.34816426038742065,-0.1655907928943634,0,0,0.089635379612445831,0.30993053317070007,0,0,0,-1,-0.26465120911598206,-0.18015952408313751,-0.57067239284515381,0,0.32721385359764099,-0.9197317361831665,0.053325548768043518,0.027478976175189018,0,0,0,-0.41980710625648499,0,0.2646624743938446,0.33407935500144958,0,-0.35219186544418335,0.26280093193054199,-0.65196812152862549,0,0.78017085790634155,0.45686960220336914,-0.5922551155090332,-0.38270771503448486,-0.75760555267333984,-0.010518312454223633,-0.27047652006149292,-0.41558343172073364,0,0,0,-0.24058377742767334,0,0,0,0,0,0,0,0.47015306353569031,-0.30946698784828186,0.3978380560874939,0,0,0.32432493567466736,-0.05543150007724762,0,0,0.8097074031829834,0,0.21993410587310791,0,0,1,0.39402729272842407,0,0,0,0.34745877981185913,0,-0.51085573434829712,-0.35992047190666199,-0.7917330265045166,1,0.35975965857505798,-0.14807642996311188,0,0.88809418678283691,-0.33988547325134277,0,0.96855676174163818,0,0.44719576835632324,0.31857803463935852,0,0,0,0.35455185174942017,0,0,1,0,-0.68284058570861816,-0.42958015203475952,0.94110298156738281,0,0,-0.3385850191116333,0,0,0,0,-0.3679535984992981,0,0,-0.44093361496925354,0,0.12778511643409729,-0.1406712532043457,0.36590012907981873,0,0,0.13880956172943115,0,0.66270506381988525,0,0,0,-0.83268159627914429,0,-0.11232554912567139,0,-0.68966591358184814,0,0,0,0,0,0,0,-0.13577018678188324,0,0,-0.26165783405303955,0,0.26513031125068665,0,-0.36073297262191772,0.83472537994384766,-0.448233962059021,0,0,0,0.28162792325019836,0,0,0.3003237247467041,0,-0.33892115950584412,0,0,0.40540856122970581,-0.29444852471351624,-0.3197249174118042,0.33329424262046814,-0.46631583571434021,0,-0.18897390365600586,0,0,0,0,-0.02526247501373291,0.35591080784797668,-0.32710438966751099,0.097406372427940369,0,-0.72701090574264526,-0.39941743016242981,0,0,0,0,0,0,0.33142125606536865,0,0.29935178160667419,0.83642774820327759,-0.51707184314727783,-0.44627729058265686,0,0,0,0,-0.26281282305717468,0,0,-0.40620124340057373,0,0.30427783727645874,0,0,0,-0.25762617588043213,-0.49835413694381714,0.75177925825119019,0,-0.45801466703414917,0.93795454502105713,-0.31135186553001404,0.2800527811050415,-0.36719802021980286,0,0,0,-0.32961165904998779,0,0,0,0.39337801933288574,0.0889468714594841,0,0.28578430414199829,-0.34231853485107422,0,-0.82380568981170654,-0.27918943762779236,0.4897005558013916,0.30009299516677856,0,0.62241780757904053,0,0,0.48175397515296936,-0.38267660140991211,0,0.25415363907814026,0,-0.41041171550750732,-0.88551390171051025,0,0,0,0.94307327270507812,0.4606914222240448,-0.59008932113647461,-0.96238231658935547,0,0.63901591300964355,0.62030601501464844,0.79495060443878174,0,0,0,0,0,0,0,0,0,0,0,-0.32980954647064209,0.39042201638221741,0.33576881885528564,0,-0.20407302677631378,0,0,0.060984313488006592,-1,0,0,-0.58458435535430908,0,0.16776573657989502,1,-0.44190648198127747,0.48307457566261292,0.48612672090530396,0,0,-1,0.53103178739547729,0.49869176745414734,0,-0.027664706110954285,0,0.42301568388938904,-0.28317967057228088,-1,0,-0.72697734832763672,-0.47864511609077454,-0.087470538914203644,-0.087927632033824921,0,0,0.33117774128913879,0,0,0.3386898934841156,0,0,0.34389331936836243,1,-0.49301174283027649,0,0.062765359878540039,0,0.11807847768068314,0,0,0,0,0,-0.4507749080657959,0,-0.04813385009765625,0,-0.38456562161445618,0,0,-0.41353952884674072,0,0.52984112501144409,0.81527674198150635,0,0,0.40055692195892334,0,-0.81501013040542603,-0.39692473411560059,0,0,0,0,0,0.0042574829421937466,-0.31872841715812683,0,0.11423516273498535,-0.39891105890274048,0,0,0,0,0.088855914771556854,0,0.20711767673492432,-1,0,0.31268033385276794,-0.77585959434509277,0,0,-0.25975733995437622,0.49340754747390747,0,0,0,0,0,0.39226853847503662,0.18941354751586914,-0.57428497076034546,0.90909767150878906,0,-0.29048055410385132,0.37964913249015808,0,0,0.81033408641815186,0.083824455738067627,0,0,0.11384725570678711,0,0,0,0,0.46870529651641846,0,0,-0.71642929315567017,-0.33516180515289307,0.37522163987159729,0,-0.48574960231781006,-0.75399810075759888,0,-0.46622291207313538,-0.20111918449401855,0,0,0,0.14591896533966064,0,-1,0,-0.16062080860137939,0.45747140049934387,0,0,0,0,-0.42986771464347839,-0.003847853746265173,0.35169267654418945,0,0,0,0,-0.34054550528526306,0,-0.31274518370628357,0,-0.49491024017333984,0.34299153089523315,0.57857304811477661,0,0,-0.022320536896586418,0,0,0,-0.8235088586807251,-0.33312779664993286,0,0.41468244791030884,0.43018797039985657,0,0,0,-0.31622481346130371,0.43535763025283813,0.47306105494499207,0,-0.28968948125839233,0.39822754263877869,-0.30783489346504211,0,-0.25153195858001709,0,0,0,0.35440900921821594,-0.98035919666290283,0,-0.015296101570129395,0,0,-0.47696861624717712,0,-0.57891476154327393,0,0,-0.32164075970649719,0.27694016695022583,0,0,0,0,0,0.59251201152801514,-0.0006888597272336483,0,-0.48897585272789001,0,0,-0.012220397591590881,0,0,0,0,0,0.11642806977033615,0.32442045211791992,0,0,-0.2520606517791748,0,0.45076695084571838,-0.37125378847122192,-0.1441609114408493,-0.39901432394981384,0,0.44319126009941101,-0.42259559035301208,0,0,-0.45113644003868103,0,-0.033670425415039062,0,0,0,0,0,0,0.30884295701980591,-0.5,0.32724004983901978,0,0.73157584667205811,0,0,0,0,0.45578169822692871,0,-0.080842949450016022,0,0.30936750769615173,0.44525662064552307,0,0,0,0,0,-0.3737102746963501,1,0,-0.43230855464935303,0,0.34587892889976501,0,0,0,0,0,-0.32873642444610596,0,-0.40094426274299622,0.011492020450532436,-0.44920778274536133,-0.16897691786289215,0,0.2865334153175354,0.31657084822654724,0.074131391942501068,0.3411155641078949,0,0,0,0,0,0,0.48329034447669983,0,-0.35920014977455139,0,0,0.4519118070602417,0,0,-0.37363985180854797,0,0.59528505802154541,0.026416491717100143,-0.36532974243164062,-0.88134241104125977,0,-1,0,0,-0.34863272309303284,-0.12926006317138672,0,-1,-0.43128126859664917,-0.42269405722618103,0,0.1567540168762207,0,0.43560880422592163,0,0.35577559471130371,0,0,0,0,0,-0.16219975054264069,0.38427752256393433,0,0,0.38172581791877747,0,-0.29190996289253235,0,-0.03562517836689949,0,0.35702574253082275,0,-0.54726606607437134,-0.45876887440681458,-0.50609076023101807,0,0.53740555047988892,0,-0.35212424397468567,-0.38898801803588867,-0.73537522554397583,-0.90955579280853271,0,-0.27686357498168945,0.030718568712472916,0,-0.32613730430603027,0,0,-0.61559516191482544,-0.46765023469924927,0,0.40341830253601074,0,0.45551913976669312,0.43997716903686523,0.44371858239173889,0.43013718724250793,0.40762335062026978,0.92461174726486206,-0.040337204933166504,0.24013061821460724,0,0,0,0,-0.21267855167388916,0.34507814049720764,0,-1,0,0,0,0.65936106443405151,0,-0.42779406905174255,0,0,-0.86803030967712402,-0.82735365629196167,0,0,0.80699372291564941,0.46884942054748535,-0.55768460035324097,0.19803404808044434,-0.62423628568649292,0,0,-0.43591234087944031,0,-0.085525631904602051,0,0,0,0,0,0.10791974514722824,0,0,0.20411548018455505,0.3911857008934021,0],[0,0,-0.49085381627082825,0,0,0,-0.022682107985019684,0,0,-0.43576139211654663,0,-1,-0.4443238377571106,0.11552207916975021,0,0,0.097570419311523438,0,0,0.57729876041412354,0.34648111462593079,1,-0.71391373872756958,-0.360240638256073,0,-0.30265825986862183,0.50270992517471313,1,0,0.38929200172424316,0.26964998245239258,-0.30763342976570129,0.45473989844322205,0.23417937755584717,0.46199679374694824,0,0.65705430507659912,-0.264884352684021,0.36885830760002136,-0.2971949577331543,-0.31767892837524414,0.39266508817672729,0.48221167922019958,0,0,-0.41520550847053528,0.8468475341796875,0,0.23480655252933502,0.23674656450748444,0.72949939966201782,0,0,0,0.37670058012008667,0.81700736284255981,0,-0.70481479167938232,-1,0,0.3049214780330658,0.25342059135437012,0,0.087862133979797363,0.69443172216415405,0,0,1,0.044539585709571838,0.25071576237678528,0.0082294689491391182,0.67149800062179565,0.47193959355354309,0,-0.78470885753631592,0.30196022987365723,0.27582356333732605,-0.36734229326248169,-0.40563401579856873,0,0.78382259607315063,-0.61421495676040649,0.57868313789367676,-0.35423681139945984,-0.55822014808654785,0,-0.31756243109703064,0.19877192378044128,0.36268454790115356,0,-0.33810949325561523,0.48370969295501709,-0.45671546459197998,0,-0.53741663694381714,0,-0.22475230693817139,-0.60963809490203857,0.67795121669769287,0.50999963283538818,-0.081651873886585236,0.36003825068473816,-0.74123656749725342,0.97300517559051514,0,0.25781160593032837,0,0.042181875556707382,0.022787632420659065,0,0.016001343727111816,0.080350384116172791,-0.41778632998466492,0,-0.94472450017929077,-0.15846535563468933,0.25543302297592163,-0.25158718228340149,-0.35079798102378845,0,0.8635108470916748,0.16576001048088074,0.47795864939689636,0,0,-0.012847171165049076,0,-0.27295702695846558,0.5,0.48522394895553589,-0.37624260783195496,0,-0.2587660551071167,0.48046866059303284,0.47886011004447937,0.44485428929328918,0,0,-0.80522274971008301,0.9142758846282959,-0.065083876252174377,0,0,-0.13045673072338104,0,-0.34094244241714478,0.3876626193523407,0.055974427610635757,0,0.69549661874771118,0,0,-0.83679676055908203,-1,0,0.14017868041992188,0.4629959762096405,0.85996407270431519,0.69013798236846924,0.36924859881401062,0,0.27207177877426147,-0.50117635726928711,-0.089600749313831329,0.33084583282470703,0,-0.062596596777439117,1,-0.25602558255195618,-0.39816665649414062,0.31852948665618896,0,0.38367545604705811,0,0.82505077123641968,-0.27445641160011292,-0.56056344509124756,-0.16761833429336548,0.45125845074653625,0,0.46603855490684509,0,0.29603376984596252,0,-0.13938067853450775,0.38430404663085938,1,0.40222376585006714,-0.37246516346931458,-0.024417951703071594,0,-0.41131222248077393]],"id":"B954AA02-AC73-4A20-920C-E519E514CDC9","generation":1293,"biases":[[],[0.46341460943222046,0.50490725040435791,-0.59274762868881226,-0.3978937566280365,1,-0.275339275598526,0.053634569048881531,1,-1,1,-0.008791821077466011,-0.5,-0.55945670604705811,-0.45947918295860291,0.5,0.49457582831382751,-1,-1,-0.47313386201858521,0.20254100859165192,0.88001281023025513,-1,0.20557104051113129,0.36636868119239807],[0.92097026109695435,-0.073529757559299469,-0.33272701501846313,-0.1745772510766983,0.14118015766143799,0.10155539214611053,0.14308454096317291,-0.64309334754943848]],"inputCount":32,"hiddenCount":24,"outputCount":8},{"marker2":false,"marker1":true,"weights":[[],[0,0.49225211143493652,0,0,-0.31834906339645386,0,0.46819743514060974,0,0,0,0,0.41276693344116211,0,-0.41218742728233337,0,-0.13630135357379913,0,0,0,0,0,0,0,0.87747687101364136,0.26635020971298218,0.41843393445014954,0.39299619197845459,0,0,0,0,0,0.30293449759483337,0,0.83597862720489502,0,-0.35368326306343079,0,0,0,-0.42940118908882141,0,0,0,0.41687166690826416,0.35979652404785156,0,0,-0.33303511142730713,-0.26133480668067932,0,0.57253181934356689,0.58861458301544189,-0.29952159523963928,0,0,0.28157913684844971,0,0,0,-0.3833693265914917,0,0,-0.42946478724479675,0.9443289041519165,0,-0.33244836330413818,-0.31274279952049255,0,0,0,-0.7441403865814209,-0.55803537368774414,0,-0.42780232429504395,-0.46200588345527649,0,0,0,0,0.68114537000656128,0,0.4058915376663208,-0.25148648023605347,0,0,0.40028926730155945,-0.62254625558853149,0,0.29494574666023254,0,-0.46904745697975159,0.093187220394611359,0.4789736270904541,0.69220805168151855,0,0,0,-0.41173136234283447,0.37454971671104431,0,0,0.51377952098846436,0.32450568675994873,-0.34370025992393494,0,0.9356229305267334,0.47288504242897034,0.41271817684173584,0,0,0.34816426038742065,-0.1655907928943634,0,0,0.089635379612445831,0.30993053317070007,0,0,0,-1,-0.26465120911598206,-0.18015952408313751,-0.57067239284515381,0,0.32721385359764099,-0.9197317361831665,0.053325548768043518,0.027478976175189018,0,0,0,-0.41980710625648499,0,0.2646624743938446,0.33407935500144958,0,-0.35219186544418335,0.26280093193054199,-0.65196812152862549,0,0.78017085790634155,0.45686960220336914,-0.5922551155090332,-0.38270771503448486,-0.75760555267333984,-0.010518312454223633,-0.27047652006149292,-0.41558343172073364,0,0,0,-0.24058377742767334,0,0,0,0,0,0,0,0.47015306353569031,-0.30946698784828186,0.3978380560874939,0,0,0.32432493567466736,-0.05543150007724762,0,0,0.8097074031829834,0,0.21993410587310791,0,0,1,0.39402729272842407,0,0,0,0.34745877981185913,0,-0.51085573434829712,-0.35992047190666199,-0.3958665132522583,1,0.35975965857505798,-0.14807642996311188,0,0.88809418678283691,-0.33988547325134277,0,0.96855676174163818,0,0.44719576835632324,0.31857803463935852,0,0,0,0.35455185174942017,0,0,1,0,-0.68284058570861816,-0.42958015203475952,0.94110298156738281,0,0,-0.3385850191116333,0,0,0,0,-0.3679535984992981,0,0,-0.44093361496925354,0,0.12778511643409729,-0.1406712532043457,0.36590012907981873,0,0,0.13880956172943115,0,0.66270506381988525,0,0,0,-0.83268159627914429,0,-0.11232554912567139,0,-0.68966591358184814,0,0,0,0,0,0,0,-0.13577018678188324,0,0,-0.26165783405303955,0,0.26513031125068665,0,-0.36073297262191772,0.83472537994384766,-0.448233962059021,0,0,0,0.28162792325019836,0,0,0.3003237247467041,0,-0.33892115950584412,0,0,0.40540856122970581,-0.29444852471351624,-0.3197249174118042,0.33329424262046814,-0.46631583571434021,0,-0.18897390365600586,0,0,0,0,-0.02526247501373291,0.35591080784797668,-0.32710438966751099,0.097406372427940369,0,-0.72701090574264526,-0.39941743016242981,0,0,0,0,0,0,0.33142125606536865,0,0.29935178160667419,0.83642774820327759,-0.51707184314727783,-0.44627729058265686,0,0,0,0,-0.26281282305717468,0,0,-0.40620124340057373,0,0.30427783727645874,0,0,0,-0.25762617588043213,-0.49835413694381714,0.75177925825119019,0,-0.45801466703414917,0.93795454502105713,-0.31135186553001404,0.2800527811050415,-0.36719802021980286,0,0,0,-0.32961165904998779,0,0,0,0.39337801933288574,0.0889468714594841,0,0.28578430414199829,-0.34231853485107422,0,-0.82380568981170654,-0.27918943762779236,0.4897005558013916,0.30009299516677856,0,0.62241780757904053,0,0,0.48175397515296936,-0.38267660140991211,0,0.25415363907814026,0,-0.41041171550750732,-0.88551390171051025,0,0,0,0.94307327270507812,0.4606914222240448,-0.59008932113647461,-0.96238231658935547,0,0.63901591300964355,0.62030601501464844,0.79495060443878174,0,0,0,0,0,0,0,0,0,0,0,-0.32980954647064209,0.39042201638221741,0.33576881885528564,0,-0.20407302677631378,0,0,0.060984313488006592,-1,0,0,-0.58458435535430908,0,0.16776573657989502,1,-0.44190648198127747,0.48307457566261292,0.48612672090530396,0,0,-1,0.53103178739547729,0.49869176745414734,0,-0.027664706110954285,0,0.42301568388938904,-0.28317967057228088,-1,0,-0.72697734832763672,-0.47864511609077454,-0.087470538914203644,-0.087927632033824921,0,0,0.33117774128913879,0,0,0.3386898934841156,0,0,0.34389331936836243,1,-0.49301174283027649,0,0.062765359878540039,0,0.11807847768068314,0,0,0,0,0,-0.096164368093013763,0,-0.04813385009765625,0,-0.38456562161445618,0,0,-0.41353952884674072,0,0.52984112501144409,0.81527674198150635,0,0,0.40055692195892334,0,-0.81501013040542603,-0.39692473411560059,0,0,0,0,0,0.0042574829421937466,-0.31872841715812683,0,0.11423516273498535,-0.39891105890274048,0,0,0,0,0.088855914771556854,0,0.20711767673492432,-1,0,0.31268033385276794,-0.77585959434509277,0,0,-0.25975733995437622,0.49340754747390747,0,0,0,0,0,0.39226853847503662,0.18941354751586914,-0.57428497076034546,0.90909767150878906,0,-0.29048055410385132,0.37964913249015808,0,0,0.81033408641815186,0.083824455738067627,0,0,0.11384725570678711,0,0,0,0,0.46870529651641846,0,0,-0.71642929315567017,-0.33516180515289307,0.37522163987159729,0,-0.48574960231781006,-0.75399810075759888,0,-0.46622291207313538,-0.20111918449401855,0,0,0,0.14591896533966064,0,-1,0,-0.16062080860137939,0.45747140049934387,0,0,0,0,-0.42986771464347839,-0.003847853746265173,0.35169267654418945,0,0,0,0,-0.34054550528526306,0,-0.31274518370628357,0,-0.49491024017333984,0.34299153089523315,0.57857304811477661,0,0,-0.022320536896586418,0,0,0,-0.8235088586807251,-0.33312779664993286,0,0.41468244791030884,0.43018797039985657,0,0,0,-0.31622481346130371,0.43535763025283813,0.47306105494499207,0,-0.28968948125839233,0.39822754263877869,-0.30783489346504211,0,-0.25153195858001709,0,0,0,0.35440900921821594,-0.98035919666290283,0,-0.015296101570129395,0,0,-0.47696861624717712,0,-0.57891476154327393,0,0,-0.32164075970649719,0.27694016695022583,0,0,0,0,0,0.59251201152801514,-0.0006888597272336483,0,-0.48897585272789001,0,0,-0.012220397591590881,0,0,0,0,0,0.11642806977033615,0.32442045211791992,0,0,-0.2520606517791748,0,0.45076695084571838,-0.37125378847122192,-0.1441609114408493,-0.39901432394981384,0,0.44319126009941101,-0.42259559035301208,0,0,-0.45113644003868103,0,-0.033670425415039062,0,0,0,0,0,0,0.30884295701980591,-0.5,0.32724004983901978,0,0.73157584667205811,0,0,0,0,0.45578169822692871,0,-0.080842949450016022,0,0.30936750769615173,0.44525662064552307,0,0,0,0,0,-0.3737102746963501,1,0,-0.43230855464935303,0,0.34587892889976501,0,0,0,0,0,-0.32873642444610596,0,-0.40094426274299622,0.011492020450532436,-0.44920778274536133,-0.16897691786289215,0,0.2865334153175354,0.31657084822654724,0.074131391942501068,0.3411155641078949,0,0,0,0,0,0,0.48329034447669983,0,-0.35920014977455139,0,0,0.4519118070602417,0,0,-0.37363985180854797,0,0.59528505802154541,0.026416491717100143,-0.36532974243164062,-0.88134241104125977,0,-1,0,0,-0.34863272309303284,-0.12926006317138672,-0.2574647068977356,-1,-0.43128126859664917,-0.42269405722618103,0,0.1567540168762207,0,0.43560880422592163,0,0.35577559471130371,0,0,0,0,0,-0.16219975054264069,0.38427752256393433,0,0,0.38172581791877747,0,-0.29190996289253235,0,-0.03562517836689949,0,0.35702574253082275,0,-0.54726606607437134,-0.45876887440681458,-0.50609076023101807,0,0.53740555047988892,0,-0.35212424397468567,-0.38898801803588867,-0.73537522554397583,-0.90955579280853271,0,-0.27686357498168945,0.030718568712472916,0,-0.32613730430603027,0,0,-0.61559516191482544,-0.46765023469924927,0,0.80683660507202148,0,0.45551913976669312,0.43997716903686523,0.44371858239173889,0.43013718724250793,0.40762335062026978,0.92461174726486206,-0.040337204933166504,0.24013061821460724,0,0,0,0,-0.21267855167388916,0.34507814049720764,0,-1,0,0,0,0.65936106443405151,0,-0.42779406905174255,0,0,-0.86803030967712402,-0.82735365629196167,0,0,0.80699372291564941,0.46884942054748535,-0.55768460035324097,0.19803404808044434,-0.62423628568649292,0,0,-0.43591234087944031,0,-0.085525631904602051,0,0,0,0,0,0.10791974514722824,0,0,0.20411548018455505,0.3911857008934021,0],[0,0,-0.49085381627082825,0,0,0,-0.022682107985019684,0,0,-0.43576139211654663,0,-1,-0.4443238377571106,0.11552207916975021,0,0,0.097570419311523438,0,0,0.57729876041412354,0.34648111462593079,1,-0.71391373872756958,-0.360240638256073,0,-0.30265825986862183,0.50270992517471313,1,0,0.38929200172424316,0.26964998245239258,-0.30763342976570129,0.45473989844322205,0.23417937755584717,0.46199679374694824,0,0.65705430507659912,-0.264884352684021,0.36885830760002136,-0.2971949577331543,-0.31767892837524414,0.39266508817672729,0.48221167922019958,0,0,-0.41520550847053528,0.8468475341796875,0,0.23480655252933502,0.23674656450748444,0.72949939966201782,0,0,0,0.37670058012008667,0.81700736284255981,0,-0.70481479167938232,-1,0,0.3049214780330658,0.25342059135437012,0,0.087862133979797363,0.69443172216415405,0,0,1,0.044539585709571838,0.25071576237678528,0.0082294689491391182,0.67149800062179565,0.47193959355354309,0,-0.78470885753631592,0.30196022987365723,0.27582356333732605,-0.36734229326248169,-0.40563401579856873,0,0.78382259607315063,-0.61421495676040649,0.57868313789367676,-0.35423681139945984,-0.55822014808654785,0,-0.31756243109703064,0.19877192378044128,0.36268454790115356,0,-0.33810949325561523,0.48370969295501709,-0.45671546459197998,0,-0.53741663694381714,0,-0.22475230693817139,-0.60963809490203857,0.67795121669769287,0.50999963283538818,-0.081651873886585236,0.36003825068473816,-0.74123656749725342,0.97300517559051514,0,0.25781160593032837,0,0.042181875556707382,0.022787632420659065,0,0.016001343727111816,0.080350384116172791,-0.41778632998466492,0,-0.94472450017929077,-0.15846535563468933,0.25543302297592163,-0.25158718228340149,-0.35079798102378845,0,0.8635108470916748,0.16576001048088074,0.47795864939689636,0,0,-0.012847171165049076,0,-0.27295702695846558,0.5,0.48522394895553589,-0.37624260783195496,0,-0.2587660551071167,0.48046866059303284,0.47886011004447937,0.44485428929328918,0,0,-0.80522274971008301,0.9142758846282959,-0.065083876252174377,0,0,-0.13045673072338104,0,-0.34094244241714478,0.3876626193523407,0.055974427610635757,0,0.69549661874771118,0,0,-0.83679676055908203,-1,0,0.14017868041992188,0.4629959762096405,0.85996407270431519,0.69013798236846924,0.36924859881401062,0,0.27207177877426147,-0.50117635726928711,-0.089600749313831329,0.33084583282470703,0,-0.062596596777439117,1,-0.25602558255195618,-0.39816665649414062,0.31852948665618896,0,0.38367545604705811,0,0.82505077123641968,-0.27445641160011292,-0.56056344509124756,-0.16761833429336548,0.45125845074653625,0,0.46603855490684509,0,0.29603376984596252,0,-0.13938067853450775,0.38430404663085938,1,0.40222376585006714,-0.37246516346931458,-0.024417951703071594,0,-0.41131222248077393]],"id":"A264C26E-C244-414A-9182-20B9B2376AA1","generation":1292,"biases":[[],[0.46341460943222046,0.17917166650295258,-0.59274762868881226,0.00066398392664268613,1,-0.275339275598526,0.053634569048881531,1,-1,1,-0.008791821077466011,-0.5,-0.55945670604705811,-0.45947918295860291,0.5,0.49457582831382751,-1,-1,-0.47313386201858521,0.20254100859165192,0.88001281023025513,-1,0.20557104051113129,0.36636868119239807],[0.92097026109695435,-0.073529757559299469,-0.33272701501846313,-0.1745772510766983,0.14118015766143799,0.10155539214611053,0.14308454096317291,-0.64309334754943848]],"inputCount":32,"hiddenCount":24,"outputCount":8},{"marker2":false,"marker1":false,"weights":[[],[0,0.49225211143493652,0,0,-0.31834906339645386,0,0.46819743514060974,0,0,0,0,0.41276693344116211,0,-0.41218742728233337,0,-0.13630135357379913,0,0,0,0,0,0,0,0.87747687101364136,0.26635020971298218,0.41843393445014954,0.39299619197845459,0,0,0,0,0,0.30293449759483337,0,0.83597862720489502,0,-0.35368326306343079,0,0,0,-0.42940118908882141,0,0,0,0.41687166690826416,0.35979652404785156,0,0,-0.33303511142730713,-0.26133480668067932,0,0.57253181934356689,0.58861458301544189,-0.29952159523963928,0,0,0.28157913684844971,0,0,0,-0.3833693265914917,0,0,-0.42946478724479675,0.9443289041519165,0,-0.33244836330413818,-0.31274279952049255,0,0,0,-0.7441403865814209,-0.55803537368774414,0,-0.42780232429504395,-0.46200588345527649,0,0,0,0,0.68114537000656128,0,0.4058915376663208,-0.25148648023605347,0,0,0.40028926730155945,-0.62254625558853149,0,0.039841614663600922,0,-0.46904745697975159,0.093187220394611359,0.4789736270904541,0.69220805168151855,0,0,0,-0.41173136234283447,0.37454971671104431,0,0,0.51377952098846436,0.32450568675994873,-0.34370025992393494,0,0.9356229305267334,0.47288504242897034,0.41271817684173584,0,0,0.34816426038742065,-0.1655907928943634,0,0,0.089635379612445831,0.30993053317070007,0,0,0,-1,-0.26465120911598206,-0.18015952408313751,-0.57067239284515381,0,0.32721385359764099,-0.9197317361831665,0.053325548768043518,0.027478976175189018,0,0,0,-0.41980710625648499,0,0.2646624743938446,0.33407935500144958,0,-0.35219186544418335,0.26280093193054199,-0.65196812152862549,0,0.78017085790634155,0.45686960220336914,-0.5922551155090332,-0.38270771503448486,-0.75760555267333984,-0.010518312454223633,-0.27047652006149292,-0.41558343172073364,0,0,0,-0.24058377742767334,0,0,0,0,0,0,0,0.47015306353569031,-0.30946698784828186,0.3978380560874939,0,0,0.32432493567466736,-0.05543150007724762,0,0,0.8097074031829834,0,0.21993410587310791,0,0,1,0.39402729272842407,0,0,0,0.34745877981185913,0,-0.51085573434829712,-0.35992047190666199,-0.3958665132522583,1,0.35975965857505798,-0.14807642996311188,0,0.88809418678283691,-0.33988547325134277,0,0.96855676174163818,0,0.44719576835632324,0.31857803463935852,0,0,0,0.35455185174942017,0,0,1,0,-0.68284058570861816,-0.42958015203475952,0.94110298156738281,0,0,-0.3385850191116333,0,0,0,0,-0.3679535984992981,0,0,-0.44093361496925354,0,0.12778511643409729,-0.1406712532043457,0.36590012907981873,0,0,0.13880956172943115,0,0.66270506381988525,0,0,0,-0.83268159627914429,0,-0.11232554912567139,0,-0.68966591358184814,0,0,0,0,0,0,0,-0.13577018678188324,0,0,-0.26165783405303955,0,0.26513031125068665,0,-0.36073297262191772,0.83472537994384766,-0.448233962059021,0,0,0,0.28162792325019836,0,0,0.3003237247467041,0,-0.33892115950584412,0,0,0.40540856122970581,-0.29444852471351624,-0.3197249174118042,0.33329424262046814,-0.46631583571434021,0,-0.18897390365600586,0,0,0,0,-0.02526247501373291,0.35591080784797668,-0.32710438966751099,0.097406372427940369,0,-0.72701090574264526,-0.39941743016242981,0,0,0,0,0,0,0.33142125606536865,0,0.29935178160667419,0.83642774820327759,-0.51707184314727783,-0.44627729058265686,0,0,0,0,-0.26281282305717468,0,0,-0.40620124340057373,0,0.30427783727645874,0,0,0,-0.25762617588043213,-0.49835413694381714,0.75177925825119019,0,-0.45801466703414917,0.93795454502105713,-0.31135186553001404,0.2800527811050415,-0.36719802021980286,0,0,0,-0.32961165904998779,0,0,0,0.39337801933288574,0.0889468714594841,0,0.28578430414199829,-0.34231853485107422,0,-0.82380568981170654,-0.27918943762779236,0.4897005558013916,0.30009299516677856,0,0.62241780757904053,0,0,0.48175397515296936,-0.38267660140991211,0,0.25415363907814026,0,-0.41041171550750732,-0.88551390171051025,0,0,0,0.94307327270507812,0.4606914222240448,-0.59008932113647461,-0.96238231658935547,0,0.63901591300964355,0.62030601501464844,0.79495060443878174,0,0,0,0,0,0,0,0,0,0,0,-0.32980954647064209,0.39042201638221741,0.33576881885528564,0,-0.20407302677631378,0,0,0.060984313488006592,-1,0,0,-0.58458435535430908,0,0.16776573657989502,1,-0.44190648198127747,0.48307457566261292,0.48612672090530396,0,0,-1,0.53103178739547729,0.49869176745414734,0,-0.027664706110954285,0,0.42301568388938904,-0.28317967057228088,-1,0,-0.72697734832763672,-0.47864511609077454,-0.087470538914203644,-0.087927632033824921,0,0,0.33117774128913879,0,0,0.3386898934841156,0,0,0.34389331936836243,1,-0.49301174283027649,0,0.062765359878540039,0,0.11807847768068314,0,0,0,0,0,-0.4507749080657959,0,-0.04813385009765625,0,-0.38456562161445618,0,0,-0.41353952884674072,0,0.52984112501144409,0.81527674198150635,0,0,0.40055692195892334,0,-0.81501013040542603,-0.39692473411560059,0,0,0,0,0,0.0042574829421937466,-0.31872841715812683,0,0.11423516273498535,-0.39891105890274048,0,0,0,0,0.088855914771556854,0,0.20711767673492432,-1,0,0.31268033385276794,-0.77585959434509277,0,0,-0.25975733995437622,0.49340754747390747,0,0,0,0,0,0.39226853847503662,0.18941354751586914,-0.57428497076034546,0.90909767150878906,0,-0.29048055410385132,0.37964913249015808,0,0,0.81033408641815186,0.083824455738067627,0,0,0.11384725570678711,0,0,0,0,0.46870529651641846,0,0,-0.71642929315567017,-0.33516180515289307,0.37522163987159729,0,-0.48574960231781006,-0.75399810075759888,0,-0.46622291207313538,-0.20111918449401855,0,0,0,0.14591896533966064,0,-1,0,-0.16062080860137939,0.45747140049934387,0,0,0,0,-0.42986771464347839,-0.003847853746265173,0.35169267654418945,0,0,0,0,-0.34054550528526306,0,-0.31274518370628357,0,0.069257020950317383,0.34299153089523315,0.57857304811477661,0,0,-0.022320536896586418,0,0,0,-0.8235088586807251,-0.33312779664993286,0,0.41468244791030884,0.43018797039985657,0,0,0,-0.31622481346130371,0.43535763025283813,0.47306105494499207,0,-0.28968948125839233,0.39822754263877869,-0.30783489346504211,0,-0.25153195858001709,0,0,0,0.35440900921821594,-0.98035919666290283,0,-0.015296101570129395,0,0,-0.47696861624717712,0,-0.57891476154327393,0,0,-0.32164075970649719,0.27694016695022583,0,0,0,0,0,0.59251201152801514,-0.0006888597272336483,0,-0.48897585272789001,0,0,-0.012220397591590881,0,0,0,0,0,0.11642806977033615,0.32442045211791992,0,0,-0.2520606517791748,0,0.45076695084571838,-0.37125378847122192,-0.1441609114408493,-0.39901432394981384,0,0.44319126009941101,-0.42259559035301208,0,0,-0.45113644003868103,0,-0.033670425415039062,0,0,0,0,0,0,0.30884295701980591,-0.5,0.32724004983901978,0,0.73157584667205811,0,0,0,0,0.45578169822692871,0,-0.080842949450016022,0,0.30936750769615173,0.44525662064552307,0,0,0,0,0,-0.3737102746963501,1,0,-0.43230855464935303,0,0.34587892889976501,0,0,0,0,0,-0.32873642444610596,0,-0.40094426274299622,0.011492020450532436,-0.44920778274536133,-0.16897691786289215,0,0.2865334153175354,0.31657084822654724,0.074131391942501068,0.3411155641078949,0,0,0,0,0,0,0.48329034447669983,0,-0.35920014977455139,0,0,0.4519118070602417,0,0,-0.37363985180854797,0,0.59528505802154541,0.026416491717100143,-0.36532974243164062,-0.88134241104125977,0,-1,0,0,-0.34863272309303284,-0.12926006317138672,0,-1,-0.43128126859664917,-0.42269405722618103,0,0.1567540168762207,0,0.43560880422592163,0,0.35577559471130371,0,0,0,0,0,-0.16219975054264069,0.38427752256393433,0,0,0.38172581791877747,0,-0.29190996289253235,0,-0.03562517836689949,0,0.35702574253082275,0,-0.54726606607437134,-0.45876887440681458,-0.50609076023101807,0,0.53740555047988892,0,-0.35212424397468567,-0.38898801803588867,-0.73537522554397583,-0.90955579280853271,0,-0.27686357498168945,0.030718568712472916,0,-0.32613730430603027,0,0,-0.61559516191482544,-0.46765023469924927,0,0.40341830253601074,0,0.45551913976669312,0.43997716903686523,0.44371858239173889,0.43013718724250793,0.40762335062026978,0.92461174726486206,-0.040337204933166504,0.24013061821460724,0,0,0,0,-0.21267855167388916,0.34507814049720764,0,-0.62782818078994751,0,0,0,0.65936106443405151,0,-0.42779406905174255,0,0,-0.86803030967712402,-0.82735365629196167,0,0,0.80699372291564941,0.46884942054748535,-0.55768460035324097,0.19803404808044434,-0.62423628568649292,0,0,-0.43591234087944031,0,-0.085525631904602051,0,0,0,0,0,0.10791974514722824,0,0,0.20411548018455505,0.3911857008934021,0],[0,0,-0.49085381627082825,0,0,0,-0.022682107985019684,0,0,-0.43576139211654663,0,-1,-0.4443238377571106,0.11552207916975021,0,0,0.097570419311523438,0,0,0.57729876041412354,0.34648111462593079,1,-0.71391373872756958,-0.360240638256073,0,-0.30265825986862183,0.50270992517471313,1,0,0.38929200172424316,0.26964998245239258,-0.30763342976570129,0.45473989844322205,0.23417937755584717,0.46199679374694824,0,0.65705430507659912,-0.264884352684021,0.36885830760002136,-0.2971949577331543,-0.31767892837524414,0.39266508817672729,0.48221167922019958,0,0,-0.41520550847053528,0.8468475341796875,0,0.23480655252933502,0.23674656450748444,0.72949939966201782,0,0,0,0.37670058012008667,0.81700736284255981,0,-0.70481479167938232,-1,0,0.3049214780330658,0.25342059135437012,0,0.087862133979797363,0.69443172216415405,0,0,1,0.044539585709571838,0.25071576237678528,0.0082294689491391182,0.67149800062179565,0.47193959355354309,0,-0.78470885753631592,0.30196022987365723,0.27582356333732605,-0.36734229326248169,-0.40563401579856873,0,0.78382259607315063,-0.61421495676040649,0.57868313789367676,-0.35423681139945984,-0.55822014808654785,0,-0.31756243109703064,0.19877192378044128,0.36268454790115356,0,-0.33810949325561523,0.48370969295501709,-0.45671546459197998,0,-0.53741663694381714,0,-0.22475230693817139,-0.60963809490203857,0.67795121669769287,0.50999963283538818,-0.081651873886585236,0.36003825068473816,-0.74123656749725342,0.97300517559051514,0,0.25781160593032837,0,0.042181875556707382,0.022787632420659065,0,0.016001343727111816,0.080350384116172791,-0.41778632998466492,0,-0.94472450017929077,-0.15846535563468933,0.25543302297592163,-0.25158718228340149,-0.35079798102378845,0,0.8635108470916748,0.16576001048088074,0.47795864939689636,0,0,-0.012847171165049076,0,-0.27295702695846558,0.5,0.48522394895553589,-0.37624260783195496,0,-0.2587660551071167,0.48046866059303284,0.47886011004447937,0.44485428929328918,0,0,-0.80522274971008301,0.9142758846282959,-0.065083876252174377,0,0,-0.13045673072338104,0,-0.34094244241714478,0.3876626193523407,0.055974427610635757,0,0.69549661874771118,0,0,-0.83679676055908203,-1,0,0.14017868041992188,0.4629959762096405,0.85996407270431519,0.69013798236846924,0.36924859881401062,0,0.27207177877426147,-0.50117635726928711,-0.089600749313831329,0.33084583282470703,0,-0.062596596777439117,1,-0.25602558255195618,-0.39816665649414062,0.31852948665618896,0,0.38367545604705811,0,0.82505077123641968,-0.27445641160011292,-0.56056344509124756,-0.16761833429336548,0.45125845074653625,0,0.85229635238647461,0,0.29603376984596252,0,-0.13938067853450775,0.38430404663085938,1,0.40222376585006714,-0.37246516346931458,-0.024417951703071594,0,-0.41131222248077393]],"id":"8AA81364-C0B1-4B30-A3A9-68EBE542CC4F","generation":1291,"biases":[[],[0.46341460943222046,0.17917166650295258,-0.59274762868881226,-0.3978937566280365,1,-0.275339275598526,0.053634569048881531,1,-1,1,-0.008791821077466011,-0.5,-0.085977077484130859,-0.45947918295860291,0.5,0.49457582831382751,-1,-1,-0.47313386201858521,0.20254100859165192,0.88001281023025513,-1,0.20557104051113129,0.36636868119239807],[1,-0.073529757559299469,-0.33272701501846313,-0.1745772510766983,0.14118015766143799,0.10155539214611053,0.14308454096317291,-0.64309334754943848]],"inputCount":32,"hiddenCount":24,"outputCount":8},{"marker2":false,"marker1":true,"weights":[[],[0,0.49225211143493652,0,0,-0.31834906339645386,0,0.46819743514060974,0,0,0,0,0.41276693344116211,0,-0.41218742728233337,0,-0.13630135357379913,0,0,0,0,0,0,0,0.87747687101364136,0.26635020971298218,0.41843393445014954,0.39299619197845459,0,0,0,0,0,0.30293449759483337,0,0.83597862720489502,0,-0.35368326306343079,0,0,0,-0.42940118908882141,0,0,0,0.41687166690826416,0.35979652404785156,0,0,-0.33303511142730713,-0.26133480668067932,0,0.57253181934356689,0.58861458301544189,-0.29952159523963928,0,0,0.28157913684844971,0,0,0,-0.3833693265914917,0,0,-0.42946478724479675,0.9443289041519165,0,-0.33244836330413818,-0.31274279952049255,0,0,0,-0.7441403865814209,-0.55803537368774414,0,-0.42780232429504395,-0.46200588345527649,0,0,0,0,0.68114537000656128,0,0.4058915376663208,-0.25148648023605347,0,0,0.40028926730155945,-0.62254625558853149,0,0.29494574666023254,0,-0.46904745697975159,0.093187220394611359,0.4789736270904541,0.69220805168151855,0,0,0,-0.41173136234283447,0.37454971671104431,0,0,0.51377952098846436,0.32450568675994873,-0.34370025992393494,0,0.9356229305267334,0.47288504242897034,0.41271817684173584,0,0,0.34816426038742065,-0.1655907928943634,0,0,0.089635379612445831,0.30993053317070007,0,0,0,-1,-0.26465120911598206,-0.18015952408313751,-0.57067239284515381,0,0.32721385359764099,-0.9197317361831665,0.053325548768043518,0.027478976175189018,0,0,0,-0.41980710625648499,0,0.2646624743938446,0.33407935500144958,0,-0.35219186544418335,0.26280093193054199,-0.65196812152862549,0,1,0.45686960220336914,-0.5922551155090332,-0.38270771503448486,-0.75760555267333984,-0.010518312454223633,-0.27047652006149292,-0.41558343172073364,0,0,0,-0.24058377742767334,0,0,0,0,0,0,0,0.47015306353569031,-0.30946698784828186,0.3978380560874939,0,0,0.32432493567466736,-0.05543150007724762,0,0,0.8097074031829834,0,0.21993410587310791,0,0,1,0.39402729272842407,0,0,0,0.34745877981185913,0,-0.51085573434829712,-0.35992047190666199,-0.7917330265045166,1,0.35975965857505798,-0.14807642996311188,0,0.88809418678283691,-0.33988547325134277,0,0.96855676174163818,0,0.44719576835632324,0.31857803463935852,0,0,0,0.35455185174942017,0,0,1,0,-0.68284058570861816,-0.42958015203475952,0.94110298156738281,0,0,-0.3385850191116333,0,0,0,0,-0.3679535984992981,0,0,-0.44093361496925354,0,0.12778511643409729,-0.1406712532043457,0.36590012907981873,0,0,0.13880956172943115,0,0.66270506381988525,0,0,0,-0.83268159627914429,0,-0.11232554912567139,0,-0.68966591358184814,0,0,0,0,0,0,0,-0.13577018678188324,0,0,-0.26165783405303955,0,0.26513031125068665,0,-0.36073297262191772,0.83472537994384766,-0.448233962059021,0,0,0,0.28162792325019836,0,0,0.3003237247467041,0,-0.33892115950584412,0,0,0.40540856122970581,-0.29444852471351624,-0.3197249174118042,0.33329424262046814,-0.46631583571434021,0,-0.18897390365600586,0,0,0,0,-0.02526247501373291,0.35591080784797668,-0.32710438966751099,0.097406372427940369,0,-0.72701090574264526,-0.39941743016242981,0,0,0,0,0,0,0.33142125606536865,0,0.29935178160667419,0.83642774820327759,-0.51707184314727783,-0.44627729058265686,0,0,0,0,-0.26281282305717468,0,0,-0.40620124340057373,0,0.30427783727645874,0,0,0,-0.25762617588043213,-0.49835413694381714,0.75177925825119019,0,-0.45801466703414917,0.93795454502105713,-0.31135186553001404,0.2800527811050415,-0.36719802021980286,0,0,0,-0.32961165904998779,0,0,0,0.39337801933288574,0.0889468714594841,0,0.28578430414199829,-0.34231853485107422,0,-0.82380568981170654,-0.27918943762779236,0.4897005558013916,0.30009299516677856,0,0.62241780757904053,0,0,0.48175397515296936,-0.38267660140991211,0,0.25415363907814026,0,-0.41041171550750732,-0.88551390171051025,0,0,0,0.94307327270507812,0.4606914222240448,-0.59008932113647461,-0.96238231658935547,0,0.63901591300964355,0.62030601501464844,0.79495060443878174,0,0,0,0,0,0,0,0,0,0,0,-0.32980954647064209,0.39042201638221741,0.33576881885528564,0,-0.20407302677631378,0,0,0.060984313488006592,-1,0,0,-0.58458435535430908,0,0.16776573657989502,1,-0.44190648198127747,0.48307457566261292,0.48612672090530396,0,0,-1,0.53103178739547729,0.49869176745414734,0,-0.027664706110954285,0,0.42301568388938904,-0.28317967057228088,-1,0,-0.72697734832763672,-0.47864511609077454,-0.087470538914203644,-0.087927632033824921,0,0,0.33117774128913879,0,0,0.3386898934841156,0,0,0.34389331936836243,1,-0.49301174283027649,0,0.062765359878540039,0,0.11807847768068314,0,0,0,0,0,-0.4507749080657959,0,-0.04813385009765625,0,-0.38456562161445618,0,0,-0.41353952884674072,0,0.52984112501144409,0.81527674198150635,0,0,0.40055692195892334,0,-0.81501013040542603,-0.39692473411560059,0,0,0,0,0,0.0042574829421937466,-0.31872841715812683,0,0.11423516273498535,-0.39891105890274048,0,0,0,0,0.088855914771556854,0,0.20711767673492432,-1,0,0.31268033385276794,-0.77585959434509277,0,0,-0.25975733995437622,0.49340754747390747,0,0,0,0,0,0.39226853847503662,0.18941354751586914,-0.57428497076034546,0.90909767150878906,0,-0.29048055410385132,0.37964913249015808,0,0,0.81033408641815186,0.083824455738067627,0,0,0.11384725570678711,0,0,0,0,0.46870529651641846,0,0,-0.71642929315567017,-0.33516180515289307,0.37522163987159729,0,-0.48574960231781006,-0.75399810075759888,0,-0.46622291207313538,-0.20111918449401855,0,0,0,0.14591896533966064,0,-1,0,-0.16062080860137939,0.45747140049934387,0,0,0,0,-0.42986771464347839,-0.003847853746265173,0.35169267654418945,0,0,0,0,-0.34054550528526306,0,-0.31274518370628357,0,-0.49491024017333984,0.34299153089523315,0.57857304811477661,0,0,-0.022320536896586418,0,0,0,-0.8235088586807251,-0.33312779664993286,0,0.41468244791030884,0.43018797039985657,0,0,0,-0.31622481346130371,0.43535763025283813,0.47306105494499207,0,-0.28968948125839233,0.39822754263877869,-0.30783489346504211,0,-0.25153195858001709,0,0,0,0.35440900921821594,-0.98035919666290283,0,-0.015296101570129395,0,0,-0.47696861624717712,0,-0.57891476154327393,0,0,-0.32164075970649719,0.27694016695022583,0,0,0,0,0,0.59251201152801514,-0.0006888597272336483,0,-0.48897585272789001,0,0,-0.012220397591590881,0,0,0,0,0,0.11642806977033615,0.32442045211791992,0,0,-0.2520606517791748,0,0.45076695084571838,-0.37125378847122192,-0.1441609114408493,-0.39901432394981384,0,0.44319126009941101,-0.42259559035301208,0,0,-0.45113644003868103,0,-0.033670425415039062,0,0,0,0,0,0,0.30884295701980591,-0.5,0.32724004983901978,0,0.73157584667205811,0,0,0,0,0.45578169822692871,0,-0.080842949450016022,0,0.30936750769615173,0.44525662064552307,0,0,0,0,0,-0.3737102746963501,1,0,-0.43230855464935303,0,0.34587892889976501,0,0,0,0,0,-0.32873642444610596,0,-0.40094426274299622,0.011492020450532436,-0.44920778274536133,-0.16897691786289215,0,0.2865334153175354,0.31657084822654724,0.074131391942501068,0.3411155641078949,0,0,0,0,0,0,0.48329034447669983,0,-0.35920014977455139,0,0,0.4519118070602417,0,0,-0.37363985180854797,0,0.59528505802154541,0.026416491717100143,-0.36532974243164062,-0.88134241104125977,0,-1,0,0,-0.34863272309303284,-0.12926006317138672,0,-1,-0.43128126859664917,-0.42269405722618103,0,0.1567540168762207,0,0.43560880422592163,0,0.35577559471130371,0,0,0,0,0,-0.16219975054264069,0.38427752256393433,0,0,0.38172581791877747,0,-0.29190996289253235,0,-0.03562517836689949,0,0.35702574253082275,0,-0.54726606607437134,-0.45876887440681458,-0.50609076023101807,0,0.53740555047988892,0,-0.35212424397468567,-0.38898801803588867,-0.73537522554397583,-0.90955579280853271,0,-0.27686357498168945,0.030718568712472916,0,-0.32613730430603027,0,0,-0.61559516191482544,-0.46765023469924927,0,0.40341830253601074,0,0.45551913976669312,0.43997716903686523,0.44371858239173889,0.43013718724250793,0.40762335062026978,0.92461174726486206,-0.040337204933166504,0.24013061821460724,0,0,0,0,-0.21267855167388916,0.34507814049720764,0,-1,0,0,0,0.65936106443405151,0,-0.42779406905174255,0,0,-0.86803030967712402,-0.82735365629196167,0,0,0.80699372291564941,0.46884942054748535,-0.55768460035324097,0.19803404808044434,-0.62423628568649292,0,0,-0.43591234087944031,0,-0.085525631904602051,0,0,0,0,0,0.10791974514722824,0,0,0.20411548018455505,0.3911857008934021,0],[0,0,-0.49085381627082825,0,0,0,-0.022682107985019684,0,0,-0.43576139211654663,0,-1,-0.4443238377571106,0.11552207916975021,0,0,0.097570419311523438,0,0,0.57729876041412354,0.34648111462593079,1,-0.71391373872756958,-0.360240638256073,0,-0.30265825986862183,0.50270992517471313,1,0,0.38929200172424316,0.26964998245239258,-0.30763342976570129,0.45473989844322205,0.23417937755584717,0.46199679374694824,0,0.65705430507659912,-0.264884352684021,0.36885830760002136,-0.2971949577331543,-0.31767892837524414,0.39266508817672729,0.48221167922019958,0,0,-0.41520550847053528,0.8468475341796875,0,0.23480655252933502,0.23674656450748444,0.72949939966201782,0,0,0,0.37670058012008667,0.81700736284255981,0,-0.70481479167938232,-1,0,0.3049214780330658,0.25342059135437012,0,0.087862133979797363,0.69443172216415405,0,0,1,0.044539585709571838,0.25071576237678528,0.0082294689491391182,0.67149800062179565,0.47193959355354309,0,-0.78470885753631592,0.30196022987365723,0.27582356333732605,-0.36734229326248169,-0.40563401579856873,0,0.78382259607315063,-0.61421495676040649,0.57868313789367676,-0.35423681139945984,-0.55822014808654785,0,-0.31756243109703064,0.19877192378044128,0.36268454790115356,0,-0.33810949325561523,0.48370969295501709,-0.45671546459197998,0,-0.53741663694381714,0,-0.22475230693817139,-0.60963809490203857,0.67795121669769287,0.50999963283538818,-0.081651873886585236,0.36003825068473816,-0.74123656749725342,0.97300517559051514,0,0.25781160593032837,0,0.042181875556707382,0.022787632420659065,0,0.016001343727111816,0.080350384116172791,-0.41778632998466492,0,-0.94472450017929077,-0.15846535563468933,0.25543302297592163,-0.25158718228340149,-0.35079798102378845,0,0.8635108470916748,0.16576001048088074,0.47795864939689636,0,0,-0.012847171165049076,0,-0.27295702695846558,0.5,0.48522394895553589,-0.37624260783195496,0,-0.2587660551071167,0.48046866059303284,0.47886011004447937,0.44485428929328918,0,0,-0.80522274971008301,0.9142758846282959,-0.065083876252174377,0,0,-0.13045673072338104,0,-0.34094244241714478,0.3876626193523407,0.055974427610635757,0,0.69549661874771118,0,0,-0.83679676055908203,-1,0,0.14017868041992188,0.4629959762096405,0.85996407270431519,0.69013798236846924,0.36924859881401062,0,0.27207177877426147,-0.50117635726928711,-0.089600749313831329,0.33084583282470703,0,-0.062596596777439117,1,-0.25602558255195618,-0.39816665649414062,0.31852948665618896,0,0.38367545604705811,0,0.82505077123641968,-0.27445641160011292,-0.56056344509124756,-0.16761833429336548,0.45125845074653625,0,0.46603855490684509,0,0.29603376984596252,0,-0.13938067853450775,0.38430404663085938,1,0.40222376585006714,-0.37246516346931458,-0.024417951703071594,0,-0.41131222248077393]],"id":"5EBAFAC6-AE6F-45AF-892E-057486A3730F","generation":1292,"biases":[[],[0.46341460943222046,0.17917166650295258,-0.59274762868881226,-0.3978937566280365,1,-0.275339275598526,0.053634569048881531,1,-1,1,-0.008791821077466011,-0.5,-0.55945670604705811,-0.45947918295860291,0.5,0.49457582831382751,-1,-1,-0.47313386201858521,0.20254100859165192,0.88001281023025513,-1,0.20557104051113129,0.36636868119239807],[0.92097026109695435,-0.073529757559299469,-0.33272701501846313,-0.1745772510766983,0.14118015766143799,0.10155539214611053,0.14308454096317291,-0.64309334754943848]],"inputCount":32,"hiddenCount":24,"outputCount":8},{"marker2":false,"marker1":true,"weights":[[],[0,0.49225211143493652,0,0,-0.31834906339645386,0,0.46819743514060974,0,0,0,0,0.41276693344116211,0,-0.41218742728233337,0,-0.13630135357379913,0,0,0,0,0,0,0,0.87747687101364136,0.26635020971298218,0.41843393445014954,0.39299619197845459,0,0,0,0,0,0.30293449759483337,0,0.83597862720489502,0,-0.35368326306343079,0,0,0,-0.42940118908882141,0,0,0,0.41687166690826416,0.35979652404785156,0,0,-0.33303511142730713,-0.26133480668067932,0,0.57253181934356689,0.58861458301544189,-0.29952159523963928,0,0,0.28157913684844971,0,0,0,-0.3833693265914917,0,0,-0.42946478724479675,0.9443289041519165,0,-0.33244836330413818,-0.31274279952049255,0,0,0,-0.7441403865814209,-0.55803537368774414,0,-0.42780232429504395,-0.46200588345527649,0,0,0,0,0.68114537000656128,0,0.4058915376663208,-0.25148648023605347,0,0,0.40028926730155945,-0.62254625558853149,0,0.29494574666023254,0,-0.46904745697975159,0.093187220394611359,0.4789736270904541,0.69220805168151855,0,0,0,-0.41173136234283447,0.37454971671104431,0,0,0.51377952098846436,0.32450568675994873,-0.34370025992393494,0,0.9356229305267334,0.47288504242897034,0.41271817684173584,0,0,0.34816426038742065,-0.1655907928943634,0,0,0.089635379612445831,0.30993053317070007,0,0,0,-1,-0.26465120911598206,-0.18015952408313751,-0.57067239284515381,0,0.32721385359764099,-0.9197317361831665,0.053325548768043518,0.027478976175189018,0,0,0,-0.41980710625648499,0,0.2646624743938446,0.33407935500144958,0,-0.35219186544418335,0.26280093193054199,-0.65196812152862549,0,0.78017085790634155,0.45686960220336914,-0.5922551155090332,-0.38270771503448486,-0.75760555267333984,-0.010518312454223633,-0.27047652006149292,-0.41558343172073364,0,0,0,-0.24058377742767334,0,0,0,0,0,0,0,0.47015306353569031,-0.30946698784828186,0.3978380560874939,0,0,0.32432493567466736,-0.05543150007724762,0,0,0.8097074031829834,0,0.21993410587310791,0,0,1,0.39402729272842407,0,0,0,0.34745877981185913,0,-0.51085573434829712,-0.35992047190666199,-0.3958665132522583,1,0.35975965857505798,-0.14807642996311188,0,0.88809418678283691,-0.33988547325134277,0,0.96855676174163818,0,0.44719576835632324,0.31857803463935852,0,0,0,0.35455185174942017,0,0,1,0,-0.68284058570861816,-0.42958015203475952,0.94110298156738281,0,0,-0.3385850191116333,0,0,0,0,-0.3679535984992981,0,0,-0.44093361496925354,0,0.12778511643409729,-0.1406712532043457,0.36590012907981873,0,0,0.13880956172943115,0,0.66270506381988525,0,0,0,-0.83268159627914429,0,-0.11232554912567139,0,-0.68966591358184814,0,0,0,0,0,0,0,-0.13577018678188324,0,0,-0.26165783405303955,0,0.26513031125068665,0,-0.36073297262191772,0.83472537994384766,-0.448233962059021,0,0,0,0.28162792325019836,0,0,0.3003237247467041,0,-0.33892115950584412,0,0,0.40540856122970581,-0.29444852471351624,-0.3197249174118042,0.33329424262046814,-0.46631583571434021,0,-0.18897390365600586,0,0,0,0,-0.02526247501373291,0.35591080784797668,-0.32710438966751099,0.097406372427940369,0,-0.72701090574264526,-0.39941743016242981,0,0,0,0,0,0,0.33142125606536865,0,-0.19231931865215302,0.83642774820327759,-0.51707184314727783,-0.44627729058265686,0,0,0,0,-0.26281282305717468,0,0,-0.40620124340057373,0,0.30427783727645874,0,0,0,-0.25762617588043213,-0.49835413694381714,0.75177925825119019,0,-0.45801466703414917,0.93795454502105713,-0.31135186553001404,0.2800527811050415,-0.36719802021980286,0,0,0,-0.32961165904998779,0,0,0,0.39337801933288574,0.0889468714594841,0,0.28578430414199829,-0.34231853485107422,0,-0.82380568981170654,-0.27918943762779236,0.4897005558013916,0.30009299516677856,0,0.62241780757904053,0,0,0.48175397515296936,-0.38267660140991211,0,0.25415363907814026,0,-0.41041171550750732,-0.88551390171051025,0,0,0,0.94307327270507812,0.4606914222240448,-0.59008932113647461,-0.96238231658935547,0,0.63901591300964355,0.62030601501464844,0.79495060443878174,0,0,0,0,0,0,0,0,0,0,0,-0.32980954647064209,0.39042201638221741,0.33576881885528564,0,-0.20407302677631378,0,0,0.060984313488006592,-1,0,0,-0.58458435535430908,0,0.16776573657989502,1,-0.44190648198127747,0.48307457566261292,0.48612672090530396,0,0,-1,0.53103178739547729,0.49869176745414734,0,-0.027664706110954285,0,0.42301568388938904,-0.28317967057228088,-1,0,-0.72697734832763672,-0.47864511609077454,-0.087470538914203644,-0.087927632033824921,0,0,0.33117774128913879,0,0,0.3386898934841156,0,0,0.34389331936836243,1,-0.49301174283027649,0,0.062765359878540039,0,0.11807847768068314,0,0,0,0,0,-0.4507749080657959,0,-0.04813385009765625,0,-0.38456562161445618,0,0,-0.41353952884674072,0,0.52984112501144409,0.81527674198150635,0,0,0.40055692195892334,0,-0.81501013040542603,-0.39692473411560059,0,0,0,0,0,0.0042574829421937466,-0.31872841715812683,0,0.11423516273498535,-0.39891105890274048,0,0,0,0,0.088855914771556854,0,0.20711767673492432,-1,0,0.31268033385276794,-0.77585959434509277,0,0,-0.25975733995437622,0.49340754747390747,0,0,0,0,0,0.39226853847503662,0.18941354751586914,-0.57428497076034546,0.90909767150878906,0,-0.29048055410385132,0.37964913249015808,0,0,0.81033408641815186,0.083824455738067627,0,0,0.11384725570678711,0,0,0,0,0.46870529651641846,0,0,-0.71642929315567017,-0.33516180515289307,0.37522163987159729,0,-0.48574960231781006,-0.75399810075759888,0,-0.46622291207313538,-0.20111918449401855,0,0,0,0.14591896533966064,0,-1,0,-0.16062080860137939,0.45747140049934387,0,0,0,0,-0.42986771464347839,-0.003847853746265173,0.35169267654418945,0,0,0,0,-0.34054550528526306,0,-0.31274518370628357,0,-0.49491024017333984,0.34299153089523315,0.57857304811477661,0,0,-0.022320536896586418,0,0,0,-0.8235088586807251,-0.33312779664993286,0,0.41468244791030884,0.43018797039985657,0,0,0,-0.31622481346130371,0.43535763025283813,0.47306105494499207,0,-0.28968948125839233,0.39822754263877869,-0.30783489346504211,0,-0.25153195858001709,0,0,0,0.35440900921821594,-0.98035919666290283,0,-0.015296101570129395,0,0,-0.47696861624717712,0,-0.57891476154327393,0,0,-0.32164075970649719,0.27694016695022583,0,0,0,0,0,0.59251201152801514,-0.0006888597272336483,0,-0.48897585272789001,0,0,-0.012220397591590881,0,0,0,0,0,0.11642806977033615,0.32442045211791992,0,0,-0.2520606517791748,0,0.45076695084571838,-0.37125378847122192,-0.1441609114408493,-0.39901432394981384,0,0.44319126009941101,-0.42259559035301208,0,0,-0.45113644003868103,0,-0.033670425415039062,0,0,0,0,0,0,0.30884295701980591,-0.5,0.32724004983901978,0,0.73157584667205811,0,0,0,0,0.45578169822692871,0,-0.080842949450016022,0,0.30936750769615173,0.44525662064552307,0,0,0,0,0,-0.3737102746963501,1,0,-0.43230855464935303,0,0.34587892889976501,0,0,0,0,0,-0.32873642444610596,0,-0.40094426274299622,0.011492020450532436,-0.44920778274536133,-0.16897691786289215,0,0.2865334153175354,0.31657084822654724,0.074131391942501068,0.3411155641078949,0,0,0,0,0,0,0.48329034447669983,0,-0.35920014977455139,0,0,0.4519118070602417,0,0,-0.37363985180854797,0,0.59528505802154541,0.026416491717100143,-0.36532974243164062,-0.88134241104125977,0,-1,0,0,-0.34863272309303284,-0.12926006317138672,-0.2574647068977356,-1,-0.43128126859664917,-0.42269405722618103,0,0.1567540168762207,0,0.43560880422592163,0,0.35577559471130371,0,0,0,0,0,-0.16219975054264069,0.38427752256393433,0,0,0.38172581791877747,0,-0.29190996289253235,0,-0.03562517836689949,0,0.35702574253082275,0,-0.54726606607437134,-0.45876887440681458,-0.50609076023101807,0,0.53740555047988892,0,-0.35212424397468567,-0.38898801803588867,-0.73537522554397583,-0.90955579280853271,0,-0.27686357498168945,0.030718568712472916,0,-0.32613730430603027,0,0,-0.61559516191482544,-0.46765023469924927,0,0.40341830253601074,0,0.45551913976669312,0.43997716903686523,0.44371858239173889,0.43013718724250793,0.40762335062026978,0.92461174726486206,-0.040337204933166504,0.24013061821460724,0,0,0,0,-0.21267855167388916,0.34507814049720764,0,-1,0,0,0,0.65936106443405151,0,-0.42779406905174255,0,0,-0.86803030967712402,-0.82735365629196167,0,0,0.80699372291564941,0.46884942054748535,-0.55768460035324097,0.19803404808044434,-0.62423628568649292,0,0,-0.43591234087944031,0,-0.085525631904602051,0,0,0,0,0,0.10791974514722824,0,0,0.20411548018455505,0.3911857008934021,0],[0,0,-0.49085381627082825,0,0,0,-0.022682107985019684,0,0,-0.43576139211654663,0,-1,-0.4443238377571106,0.11552207916975021,0,0,0.097570419311523438,0,0,0.57729876041412354,0.34648111462593079,1,-0.71391373872756958,-0.360240638256073,0,-0.30265825986862183,0.50270992517471313,1,0,0.38929200172424316,0.26964998245239258,-0.30763342976570129,