{
	"minGen": 617,
	"maxGen": 620,
	"algaeTarget": 24000,
	"genomes": [
		{"marker2":false,"marker1":false,"weights":[[],[-0.013735532760620117,0.33642891049385071,0,0,0.3615473210811615,-0.046091794967651367,0.44071954488754272,0,0,0,0,0,0.47732090950012207,0,0.36849945783615112,0,0,-0.38567814230918884,0.45044624805450439,0,0,-0.3957851231098175,0,0,0,0,0,-0.35495713353157043,-0.47214066982269287,-0.41756188869476318,0.7854454517364502,-0.89462900161743164,0.44081145524978638,-0.88537514209747314,0,0,0,0.48449793457984924,0,0,0.86446428298950195,0.30385681986808777,0.22239747643470764,-0.31813770532608032,-0.32568556070327759,-0.35824021697044373,0,-0.37895852327346802,0.25021544098854065,0,-0.28085064888000488,0,0,-0.49818971753120422,0,-0.52864944934844971,0,0.046758651733398438,0.35102495551109314,0,0,0.0087005048990249634,0,-0.42771214246749878,-0.34605726599693298,-0.24032559990882874,0,0,0.22334404289722443,0,0.43471083045005798,0,0,0,0,0.1684453934431076,-0.39765545725822449,-0.43809416890144348,-0.41219565272331238,0,0,0,0.70601820945739746,-0.38949167728424072,0,0,0,0,0.48104193806648254,0,-0.32207506895065308,0,-0.33595901727676392,-0.18240860104560852,0,0.33924919366836548,-0.76056307554244995,0.2206398993730545,-1,0.43946659564971924,0,0.97591102123260498,0,-0.2503567636013031,0,0.32217684388160706,0,-0.2456420511007309,-0.38431236147880554,0,-0.43968430161476135,0,-0.14438140392303467,0,0,0,0,-0.15698035061359406,0,0,-0.28083553910255432,0,-0.16449673473834991,0,0,0,-0.46500065922737122,-0.91374552249908447,0,0,0.88477200269699097,0,0,0,0,0,0.70803797245025635,0.41332915425300598,0,0.58944320678710938,0,-0.34498140215873718,0,0,0.40084350109100342,0,0,0,-0.34868419170379639,0.48555207252502441,-0.25756239891052246,0,0.15748870372772217,0,0,-0.84311521053314209,0.15053632855415344,0,0.37744238972663879,0.45436033606529236,0,-0.79033952951431274,0,-0.38239562511444092,0.71446919441223145,0,-0.31197929382324219,0,0,0,-0.67988920211791992,0,0,0.40529707074165344,0,-0.73644208908081055,0,0.42668142914772034,0,-0.29770275950431824,0.47830790281295776,0,0,-0.078210353851318359,0,0,0.27570065855979919,0,0.62922108173370361,0.022935027256608009,0,0,0,0,0.46060991287231445,0,0,0,0.33212646842002869,0,0.4146285355091095,0,-0.24490547180175781,0,0,-0.35519805550575256,-0.27915665507316589,0,-0.1491989940404892,0,-0.34822416305541992,0,0,-0.4898865818977356,0.60361170768737793,0.13801892101764679,0,0,0,0,0.79303061962127686,0,0,0,0,0,0.016339235007762909,0.22278046607971191,0,-0.52190077304840088,0.34301057457923889,0,-0.46397146582603455,0.40330743789672852,0,0,0,0.34188291430473328,0,0,-0.25706225633621216,0,0,0,0,1,0.74941051006317139,0.073153972625732422,0,0,-0.49919202923774719,0,-0.83416581153869629,-0.25061413645744324,0,0.048822939395904541,-0.41356742382049561,0,-0.79850471019744873,0,0.91898107528686523,0,0.32469987869262695,-0.17636609077453613,0,0,0.54415726661682129,0,-0.0089692315086722374,0.42808109521865845,0,0,0,0,0.37675085663795471,0,0,0,0,0.81614232063293457,0,-0.91113686561584473,0,0.82852303981781006,0,0,0.47795867919921875,0,0.4650636613368988,0,0,0.40947812795639038,-0.2964608371257782,0,0,0,0,0,0.91415947675704956,0,0,0,0,-0.16471517086029053,0,0,0,0,0,0,0,-0.084572359919548035,0,-0.33478713035583496,0,0,0,0,-0.44798469543457031,0.36005085706710815,0,0,0.16231337189674377,0,0.47103717923164368,0.69012546539306641,0,0,0,0,-0.39853692054748535,-0.39612439274787903,-0.46293294429779053,0,1,0,0,0,0,0,0,0,-0.39943939447402954,0,0,0,0,0,0.45430541038513184,0,0,0,0.30605161190032959,0.046857144683599472,-0.00083220005035400391,0,0,-0.5791093111038208,-0.3647199273109436,-0.34809741377830505,0.55578100681304932,0,-0.058526962995529175,-0.4990120530128479,0,0,0.48852300643920898,0,0.30957776308059692,-0.47208023071289062,0.27790141105651855,0,0,0,0,0,0,0,0,-0.32883322238922119,-0.34752154350280762,0,0,-0.37119826674461365,0.47745481133460999,0.31928777694702148,0.34589296579360962,0,0.52345198392868042,-0.24346967041492462,-0.38599205017089844,0,0,-0.54181766510009766,-0.039520930498838425,0,0,-0.38457581400871277,-0.28262251615524292,0.98125076293945312,-0.71399128437042236,0,0,0.30936324596405029,0,-0.45081502199172974,0.47758418321609497,-0.32005923986434937,0,0.34496590495109558,0.45988604426383972,0,0.29252055287361145,-0.22944408655166626,0,0,-0.28977423906326294,0,0,-0.31899541616439819,0.43624311685562134,-0.072596579790115356,0,0,0.91613203287124634,0.30628478527069092,0,0,0,0,-0.53305685520172119,0,0,-0.43112713098526001,-0.51902711391448975,0,-1,-0.46057796478271484,0,-0.59015846252441406,-0.36539736390113831,-0.14276021718978882,0.73110264539718628,0,0.49394401907920837,0,0,-0.41211599111557007,-0.37458077073097229,0.35884743928909302,-0.76906144618988037,0.064040780067443848,-0.99181085824966431,0,0.28784215450286865,0,0,0.24742257595062256,0,0.12638208270072937,0.70003366470336914,-0.13240428268909454,-0.3764985203742981,0.40472394227981567,0,-0.94154798984527588,-0.80947422981262207,0,-0.0054085254669189453,0.47204709053039551,-0.47415170073509216,0,0,0,0,0,0,0.36561113595962524,0,0,0,0.33404257893562317,0.79807364940643311,0,0.34966644644737244,0,0,0,0.082535877823829651,0,0,0.24722495675086975,-0.15946829319000244,0.9605710506439209,0.34254178404808044,0,0.28268450498580933,0.012023660354316235,0,-0.70330154895782471,-0.49978348612785339,0,0,-0.13608503341674805,0,0,-0.46164476871490479,0,0,-0.4442976713180542,-0.42247968912124634,0,-0.26952895522117615,0.42961946129798889,0,0.25514018535614014,-0.32166028022766113,0,0,-0.2541009783744812,0.36645421385765076,0,0,-0.35419455170631409,0,0,0,0.42281359434127808,0,0.76078897714614868,0,0,0,-0.036751031875610352,-0.37169426679611206,-0.3855665922164917,-0.40948182344436646,0,0,0.046260412782430649,0,-0.87162315845489502,0,-0.78846168518066406,0.43147927522659302,-0.37675651907920837,-0.53197717666625977,0,0,0,0,0,0,0,0,0,0,0.053923346102237701,0,0,0,0,0,0.84524941444396973,-0.85628914833068848,-0.26283854246139526,0.20971871912479401,0.48830893635749817,0,0.31444385647773743,0,0,0.68110191822052002,0.42637655138969421,0.44206535816192627,0,0,0.41463348269462585,0.31428039073944092,0,0.27442947030067444,-0.44576933979988098,-0.39676862955093384,0,0,-0.34129941463470459,0,0,0.86244553327560425,-0.26010119915008545,0.82636559009552002,-0.1115562915802002,-0.25841057300567627,-0.49873751401901245,0,0,0,0,0.41876140236854553,-0.38039308786392212,0.49583560228347778,0.23549668490886688,-0.27662339806556702,0,0.35193955898284912,0,0,0,-0.29518675804138184,0.018366457894444466,0,0.99215251207351685,0.7744898796081543,0.40713727474212646,0,-0.10841343551874161,0,0,0,0,0.3646678626537323,0.085534907877445221,0.79611313343048096,-0.41171005368232727,0.27668464183807373,0,0.45229879021644592,0.45593857765197754,0,0,0.34526252746582031,-0.48452967405319214,0.48786658048629761,0,0,0,0,0,0.49556562304496765,0,0,0,0,0.49078470468521118,0,-0.45431298017501831,0,0,1,0,0,0,-1,-0.45393171906471252,0,0.40502148866653442,0,0,0.43596011400222778,0,0,-0.2805115282535553,0.48530998826026917,0,0.29537957906723022,0,0,0,0,0.5341343879699707,0,-0.39959648251533508],[0.34899124503135681,0,0,0,0,0,0,-0.46672752499580383,-0.10568980127573013,0,0,0,0.30715799331665039,0,-0.24229319393634796,-0.031846046447753906,0,0,0,0.39289239048957825,0,0,0,-0.34305638074874878,0.54693311452865601,0.25493195652961731,-0.28761357069015503,-0.86756086349487305,-0.35123035311698914,0,-0.013072848320007324,0.29782319068908691,0,0,0,0,0.49665772914886475,0.37224921584129333,-0.49778816103935242,1,0,0.67431145906448364,0.36174938082695007,-0.3628261387348175,0,-0.18323343992233276,-0.76097792387008667,0,0,0.1840088963508606,0.49136993288993835,0,-0.56026071310043335,0,0,-1,-0.43914476037025452,0.3390575647354126,0,0.94058716297149658,0,0.074991755187511444,0,0,0.22448016703128815,0,-0.42599520087242126,0,0,0,0,0,-0.20968973636627197,-0.51657038927078247,-0.42038336396217346,0,-0.34891745448112488,0,0.29309108853340149,-0.86410492658615112,0.1512976735830307,-0.37425541877746582,-0.38798454403877258,-0.46938294172286987,0,0.41246777772903442,-0.22171762585639954,0,-0.338337242603302,-0.29901063442230225,0,0,0,0.49836272001266479,1,-0.41058292984962463,0,0,0.46224930882453918,-0.14017951488494873,0,0,-0.68537229299545288,0.9126206636428833,0,0,0.20894847810268402,-0.43928632140159607,-0.45963335037231445,0.79561030864715576,0,0.44575107097625732,0,0.12922540307044983,-0.46195843815803528,0.75921750068664551,-0.78274500370025635,0.33648133277893066,-0.61130964756011963,-0.27339360117912292,0,-0.031456265598535538,0,-0.42754426598548889,1,-0.628379225730896,0,0,-0.45160382986068726,-1,-0.28640058636665344,0.42689931392669678,0.32222601771354675,0,-0.15895545482635498,0,-0.20842643082141876,0.2656065821647644,0,0,0,0,1,0,0,-0.039224106818437576,0.26899269223213196,0.38590046763420105,-0.3975892961025238,0.86670911312103271,0,-0.005867792759090662,-0.39096927642822266,0,0,0,0,0,0.013444256037473679,-0.96180176734924316,-0.40372109413146973,0,0,-0.33744895458221436,-0.37268739938735962,0,0,0,-0.43299046158790588,-0.15017808973789215,-0.82688033580780029,0.3712427020072937,-0.017087796702980995,0.3754427433013916,0,0.25642609596252441,-1,-0.52615511417388916,0,0,0.41349804401397705,0,0.10663612186908722,0,-0.46685850620269775,0.83411407470703125,-1,0.28248512744903564,0.53779637813568115,0,0.28059214353561401,0.36265969276428223]],"id":"C00B3350-7DE2-4829-B382-647A03183A4B","generation":618,"biases":[[],[0.51507586240768433,-0.78068792819976807,-0.52204209566116333,-0.087424635887145996,-0.97622114419937134,1,1,-0.63255536556243896,-0.28175434470176697,0.043941497802734375,0.287354975938797,0.065826095640659332,-0.39969357848167419,-1,-0.51754546165466309,0.13738448917865753,0.20375800132751465,-0.15230081975460052,0.68347811698913574,0.23782554268836975,-1,-1,-1,0.24040074646472931],[-0.93077385425567627,1,0.5,-0.13617435097694397,-0.5,-0.39506357908248901,0.88230705261230469,0.99719858169555664]],"inputCount":28,"hiddenCount":24,"outputCount":8},
		{"marker2":false,"marker1":false,"weights":[[],[-0.013735532760620117,0.33642891049385071,0,0,0.3615473210811615,-0.046091794967651367,0.44071954488754272,0,0,0,0,0,0.47732090950012207,0,0.36849945783615112,0,0,-0.38567814230918884,0.45044624805450439,0,0,-0.3957851231098175,0,0,0,0,0,-0.35495713353157043,-0.47214066982269287,-0.41756188869476318,0.7854454517364502,-0.89462900161743164,0.44081145524978638,-0.88537514209747314,0,0,0,0.48449793457984924,0,0,0.86446428298950195,0.30385681986808777,0.22239747643470764,-0.31813770532608032,-0.32568556070327759,-0.35824021697044373,0,-0.37895852327346802,0.25021544098854065,0,-0.28085064888000488,0,0,-0.49818971753120422,0,-0.52864944934844971,0,0.046758651733398438,0.35102495551109314,0,0,0.0087005048990249634,0,-0.42771214246749878,-0.34605726599693298,-0.24032559990882874,0,0,0.22334404289722443,0,0.43471083045005798,0,0,0,0,0.1684453934431076,-0.39765545725822449,-0.43809416890144348,-0.41219565272331238,0,0,0,0.70601820945739746,-0.38949167728424072,0,0,0,0,0.48104193806648254,0,-0.32207506895065308,0,-0.33595901727676392,-0.18240860104560852,0,0.33924919366836548,-0.76056307554244995,0.2206398993730545,-1,0.43946659564971924,0,0.97591102123260498,0,-0.2503567636013031,0,0.32217684388160706,0,-0.2456420511007309,-0.38431236147880554,0,-0.43968430161476135,0,-0.14438140392303467,0,0,0,0,-0.15698035061359406,0,0,-0.28083553910255432,0,-0.16449673473834991,0,0,0,-0.46500065922737122,-0.91374552249908447,0,0,0.88477200269699097,0,0,0,0,0,0.70803797245025635,0.41332915425300598,0,0.58944320678710938,0,-0.34498140215873718,0,0,0.40084350109100342,0,0,0,-0.34868419170379639,0.48555207252502441,-0.25756239891052246,0,0.15748870372772217,0,0,-0.84311521053314209,0.15053632855415344,0,0.37744238972663879,0.45436033606529236,0,-0.79033952951431274,0,-0.38239562511444092,0.71446919441223145,0,-0.31197929382324219,0,0,0,-0.67988920211791992,0,0,0.40529707074165344,0,-0.73644208908081055,0,0.42668142914772034,0,-0.29770275950431824,0.47830790281295776,0,0,-0.078210353851318359,0,0,0.27570065855979919,0,0.62922108173370361,0.022935027256608009,0,0,0,0,0.46060991287231445,0,0,0,0.33212646842002869,0,0.4146285355091095,0,-0.24490547180175781,0,0,-0.35519805550575256,-0.27915665507316589,0,-0.1491989940404892,0,-0.34822416305541992,0,0,-0.4898865818977356,0.60361170768737793,0.13801892101764679,0,0,0,0,0.79303061962127686,0,0,0,0,0,0.016339235007762909,0.22278046607971191,0,-0.52190077304840088,0.34301057457923889,0,-0.46397146582603455,0.40330743789672852,0,0,0,0.34188291430473328,0,0,-0.25706225633621216,0,0,0,0,1,0.74941051006317139,0.073153972625732422,0,0,-0.49919202923774719,0,-0.83416581153869629,-0.25061413645744324,0,0.048822939395904541,-0.41356742382049561,0,-0.79850471019744873,0,0.91898107528686523,0,0.32469987869262695,-0.17636609077453613,0,0,0.54415726661682129,0,-0.0089692315086722374,0.42808109521865845,0,0,0,0,0.37675085663795471,0,0,0,0,0.81614232063293457,0,-0.91113686561584473,0,0.82852303981781006,0,0,0.47795867919921875,0,0.4650636613368988,0,0,0.40947812795639038,-0.2964608371257782,0,0,0,0,0,0.91415947675704956,0,0,0,0,-0.16471517086029053,0,0,0,0,0,0,0,-0.084572359919548035,0,-0.33478713035583496,0,0,0,0,-0.44798469543457031,0.36005085706710815,0,0,0.16231337189674377,0,0.47103717923164368,0.69012546539306641,0,0,0,0,-0.39853692054748535,-0.39612439274787903,-0.46293294429779053,0,1,0,0,0,0,0,0,0,-0.39943939447402954,0,0,0,0,0,0.45430541038513184,0,0,0,0.30605161190032959,0.046857144683599472,-0.00083220005035400391,0,0,-0.5791093111038208,-0.3647199273109436,-0.34809741377830505,0,0,-0.058526962995529175,-0.4990120530128479,0,0,0.48852300643920898,0,0.30957776308059692,-0.47208023071289062,0.27790141105651855,0,0,0,0,0,0,0,0,-0.32883322238922119,-0.34752154350280762,0,0,-0.37119826674461365,0.47745481133460999,0.31928777694702148,0.34589296579360962,0,0.52345198392868042,-0.24346967041492462,-0.38599205017089844,0,0,-0.54181766510009766,-0.039520930498838425,0,0,-0.38457581400871277,-0.28262251615524292,0.98125076293945312,-0.71399128437042236,0,0,0.30936324596405029,0,-0.45081502199172974,0.47758418321609497,-0.32005923986434937,0,0.7589644193649292,0.45988604426383972,0,0.29252055287361145,-0.22944408655166626,0,0,-0.28977423906326294,0,0,-0.31899541616439819,0.43624311685562134,-0.072596579790115356,0,0,0.91613203287124634,0.30628478527069092,0,0,0,0,-0.53305685520172119,0,0,-0.43112713098526001,-0.51902711391448975,0,-1,-0.46057796478271484,0,-0.59015846252441406,-0.36539736390113831,-0.14276021718978882,0.73110264539718628,0,0.49394401907920837,0,0,-0.41211599111557007,-0.37458077073097229,0.35884743928909302,-0.76906144618988037,0.064040780067443848,-0.99181085824966431,0,0.28784215450286865,0,0,0.24742257595062256,0,0.12638208270072937,0.70003366470336914,-0.13240428268909454,-0.3764985203742981,0.40472394227981567,0,-0.94154798984527588,-0.80947422981262207,0,-0.0054085254669189453,0.47204709053039551,-0.47415170073509216,0,0,0,0,0,0,0.36561113595962524,0,0,0,0.33404257893562317,0.79807364940643311,0,0.34966644644737244,0,0,0,0.082535877823829651,0,0,0.24722495675086975,-0.15946829319000244,0.9605710506439209,0,0,0.28268450498580933,0.012023660354316235,0,-0.70330154895782471,-0.49978348612785339,0,0,-0.13608503341674805,0,0,-0.46164476871490479,0,0,0,-0.42247968912124634,0,-0.26952895522117615,0.42961946129798889,0,0.25514018535614014,-0.32166028022766113,0,0,-0.2541009783744812,0.36645421385765076,0,0,-0.35419455170631409,0,0,0,0.42281359434127808,0,0.76078897714614868,0,0,0,-0.036751031875610352,-0.37169426679611206,-0.3855665922164917,-0.40948182344436646,0,0,0.046260412782430649,0,-0.87162315845489502,0,-0.78846168518066406,0.43147927522659302,-0.37675651907920837,-0.53197717666625977,0,0,0,0,0,0,0,0,0,0,0.053923346102237701,0,0,0,0,0,0.84524941444396973,-0.85628914833068848,-0.26283854246139526,0.20971871912479401,0.48830893635749817,0,0.31444385647773743,0,0,0.68110191822052002,0.42637655138969421,0.44206535816192627,0,0,0.41463348269462585,0.31428039073944092,0,0.27442947030067444,-0.44576933979988098,-0.39676862955093384,0,0,-0.34129941463470459,0,0,0.86244553327560425,-0.26010119915008545,0.82636559009552002,-0.1115562915802002,-0.25841057300567627,-0.49873751401901245,0,0,0,0,0.41876140236854553,-0.38039308786392212,0.49583560228347778,0.23549668490886688,-0.27662339806556702,0,0.35193955898284912,0,0,0,-0.29518675804138184,0.018366457894444466,0,0.99215251207351685,0.7744898796081543,0.40713727474212646,0,-0.10841343551874161,0,0,0,0,0.3646678626537323,0.085534907877445221,0.79611313343048096,-0.41171005368232727,0.27668464183807373,0,0.45229879021644592,0.45593857765197754,0,0,0.34526252746582031,-0.48452967405319214,0.48786658048629761,0,0,0,0,0,0.49556562304496765,0,0,0,0,0.49078470468521118,0,-0.45431298017501831,0,0,1,0,0,0,-1,0,0,0.40502148866653442,0,0,0.43596011400222778,0,0,-0.2805115282535553,0.48530998826026917,0,0.29537957906723022,0,0,0,0,0.5341343879699707,0,-0.39959648251533508],[0.34899124503135681,0,0,0,0,0,0,-0.46672752499580383,-0.10568980127573013,0,0,0,0.30715799331665039,0,-0.24229319393634796,-0.031846046447753906,0,0,0,0.39289239048957825,0,0,0,-0.34305638074874878,0.54693311452865601,0.25493195652961731,-0.28761357069015503,-0.86756086349487305,-0.35123035311698914,0,-0.013072848320007324,0.29782319068908691,0,0,0,0,0.49665772914886475,0.37224921584129333,-0.49778816103935242,1,0,0.67431145906448364,0.36174938082695007,-0.3628261387348175,0,-0.18323343992233276,-0.76097792387008667,0,0,0.1840088963508606,0.49136993288993835,0,-0.56026071310043335,0,0,-1,-0.43914476037025452,0.3390575647354126,0,0.94058716297149658,0,0.074991755187511444,0,0,0.22448016703128815,0,-0.42599520087242126,0,0,0,0,0,-0.20968973636627197,-0.51657038927078247,-0.42038336396217346,0,-0.34891745448112488,0,0.29309108853340149,-0.86410492658615112,0.1512976735830307,-0.37425541877746582,-0.38798454403877258,-0.46938294172286987,0,0.41246777772903442,-0.22171762585639954,0,-0.338337242603302,-0.29901063442230225,0,0,0,0.49836272001266479,1,-0.41058292984962463,0,0,0.46224930882453918,-0.14017951488494873,0,0,-0.68537229299545288,0.9126206636428833,0,0,0.20894847810268402,-0.43928632140159607,-0.45963335037231445,0.79561030864715576,0,0.44575107097625732,0,0.12922540307044983,-0.46195843815803528,0.75921750068664551,-0.78274500370025635,0.33648133277893066,-0.61130964756011963,-0.27339360117912292,0,-0.031456265598535538,0,-0.42754426598548889,1,-0.628379225730896,0,0,-0.45160382986068726,-1,-0.28640058636665344,0.42689931392669678,0.32222601771354675,0,-0.15895545482635498,0,-0.20842643082141876,0.2656065821647644,0,0,0,0,1,0,0,-0.039224106818437576,0.26899269223213196,0.38590046763420105,-0.3975892961025238,0.86670911312103271,0,-0.005867792759090662,-0.39096927642822266,0,0,0,0,0,0.013444256037473679,-0.96180176734924316,-0.40372109413146973,0,0,-0.33744895458221436,-0.37268739938735962,0,0,0,-0.43299046158790588,-0.15017808973789215,-0.82688033580780029,0.3712427020072937,-0.017087796702980995,0.3754427433013916,0,0,-1,-0.52615511417388916,0,0,0.41349804401397705,0,0.10663612186908722,0,-0.46685850620269775,0.83411407470703125,-1,0.28248512744903564,0.53779637813568115,0,0.28059214353561401,0.36265969276428223]],"id":"01695C05-2EBC-4AC7-AF28-EE75236A6961","generation":617,"biases":[[],[0.51507586240768433,-0.78068792819976807,-0.52204209566116333,-0.087424635887145996,-0.39858877658843994,1,1,-0.63255536556243896,-0.28175434470176697,0.043941497802734375,0.287354975938797,0.065826095640659332,-0.39969357848167419,-1,-0.51754546165466309,0.13738448917865753,0.20375800132751465,-0.15230081975460052,0.68347811698913574,0.23782554268836975,-1,-1,-1,-0.088293664157390594],[-0.93077385425567627,1,0.5,0.23754239082336426,-0.5,0.098943226039409637,0.88230705261230469,0.99719858169555664]],"inputCount":28,"hiddenCount":24,"outputCount":8},
		{"marker2":false,"marker1":false,"weights":[[],[-0.013735532760620117,0.33642891049385071,0,0,0.3615473210811615,-0.046091794967651367,0.44071954488754272,0,0,0,0,0,0.47732090950012207,0,0.36849945783615112,0,0,-0.38567814230918884,0.45044624805450439,0,0,-0.3957851231098175,0,0,0,0,0,-0.35495713353157043,-0.47214066982269287,-0.41756188869476318,0.7854454517364502,-0.89462900161743164,0.44081145524978638,-0.88537514209747314,0,0,0,0.48449793457984924,0,0,0.86446428298950195,0.30385681986808777,0.22239747643470764,-0.31813770532608032,-0.32568556070327759,-0.35824021697044373,0,-0.37895852327346802,0.25021544098854065,0,-0.28085064888000488,0,0,-0.49818971753120422,0,-0.52864944934844971,0,0.046758651733398438,0.35102495551109314,0,0,0.0087005048990249634,0,-0.42771214246749878,-0.34605726599693298,-0.24032559990882874,0,0,0.22334404289722443,0,0.43471083045005798,0,0,0,0,0.1684453934431076,-0.39765545725822449,-0.43809416890144348,-0.41219565272331238,0,0,0,0.70601820945739746,-0.38949167728424072,0,0,0,0,0.48104193806648254,0,-0.32207506895065308,0,-0.33595901727676392,-0.18240860104560852,0,0.33924919366836548,-0.76056307554244995,0.2206398993730545,-1,0.43946659564971924,0,0.97591102123260498,0,-0.2503567636013031,0,0.32217684388160706,0,-0.2456420511007309,-0.38431236147880554,0,-0.43968430161476135,0,-0.14438140392303467,0,0,0,0,-0.15698035061359406,0,0,-0.28083553910255432,0,-0.16449673473834991,0,0,0,-0.46500065922737122,-0.91374552249908447,0,0,0.88477200269699097,0,0,0,0,0,0.70803797245025635,0.41332915425300598,0,0.58944320678710938,0,-0.34498140215873718,0,0,0.40084350109100342,0,0,0,-0.34868419170379639,0.48555207252502441,-0.25756239891052246,0,0.15748870372772217,0,0,-0.84311521053314209,0.15053632855415344,0,0.37744238972663879,0.45436033606529236,0,-0.79033952951431274,0,-0.38239562511444092,0.71446919441223145,0,-0.31197929382324219,0,0,0,-0.67988920211791992,0,0,0.40529707074165344,0,-0.73644208908081055,0,0.42668142914772034,0,-0.29770275950431824,0.47830790281295776,0,0,-0.078210353851318359,0,0,0.27570065855979919,0,0.62922108173370361,0.022935027256608009,0,0,0,0,0.46060991287231445,0,0,0,0.33212646842002869,0,0.4146285355091095,0,-0.24490547180175781,0,0,-0.35519805550575256,-0.27915665507316589,0,-0.1491989940404892,0,-0.34822416305541992,0,0,-0.4898865818977356,0.60361170768737793,0.13801892101764679,0,0,0,0,0.79303061962127686,0,0,0,0,0,0.016339235007762909,0.22278046607971191,0,-0.52190077304840088,0.34301057457923889,0,-0.46397146582603455,0.40330743789672852,0,0,0,0.34188291430473328,0,0,-0.25706225633621216,0,0,0,0,1,0.74941051006317139,0.073153972625732422,0,0,-0.49919202923774719,0,-0.83416581153869629,-0.25061413645744324,0,0.048822939395904541,-0.41356742382049561,0,-0.79850471019744873,0,0.91898107528686523,0,0.32469987869262695,-0.17636609077453613,0,0,0.54415726661682129,0,-0.0089692315086722374,0.42808109521865845,0,0,0,0,0.37675085663795471,0,0,0,0,0.81614232063293457,0,-0.91113686561584473,0,0.82852303981781006,0,0,0.47795867919921875,0,0.4650636613368988,0,0,0.40947812795639038,-0.2964608371257782,0,0,0,0,0,0.91415947675704956,0,0,0,0,-0.16471517086029053,0,0,0,0,0,0,0,-0.084572359919548035,0,-0.33478713035583496,0,0,0,0,-0.44798469543457031,0.36005085706710815,0,0,0.16231337189674377,0,0.47103717923164368,0.69012546539306641,0,0,0,0,-0.39853692054748535,-0.39612439274787903,-0.46293294429779053,0,1,0,0,0,0,0,0,0,-0.39943939447402954,0,0,0,0,0,0.45430541038513184,0,0,0,0.30605161190032959,0.046857144683599472,-0.00083220005035400391,0,0,-0.5791093111038208,-0.3647199273109436,-0.34809741377830505,0.55578100681304932,0,-0.058526962995529175,-0.4990120530128479,0,0,0.48852300643920898,0,0.30957776308059692,-0.47208023071289062,0.27790141105651855,0,0,0,0,0,0,0,0,-0.32883322238922119,-0.34752154350280762,0,0,-0.37119826674461365,0.47745481133460999,0.31928777694702148,0.34589296579360962,0,0.52345198392868042,-0.24346967041492462,-0.38599205017089844,0,0,-0.54181766510009766,-0.039520930498838425,0,0,-0.38457581400871277,-0.28262251615524292,0.98125076293945312,-0.71399128437042236,0,0,0.30936324596405029,0,-0.45081502199172974,0.47758418321609497,-0.32005923986434937,0,0.34496590495109558,0.45988604426383972,0,0.29252055287361145,-0.22944408655166626,0,0,-0.28977423906326294,0,0,-0.31899541616439819,0.43624311685562134,-0.072596579790115356,0,0,0.91613203287124634,0.30628478527069092,0,0,0,0,-0.53305685520172119,0,0,-0.43112713098526001,-0.51902711391448975,0,-1,-0.46057796478271484,0,-0.59015846252441406,-0.36539736390113831,-0.14276021718978882,0.73110264539718628,0,0.49394401907920837,0,0,-0.41211599111557007,-0.37458077073097229,0.35884743928909302,-0.76906144618988037,0.064040780067443848,-0.99181085824966431,0,0.28784215450286865,0,0,0.24742257595062256,0,0.12638208270072937,0.70003366470336914,-0.13240428268909454,-0.3764985203742981,0.40472394227981567,0,-0.94154798984527588,-0.80947422981262207,0,-0.0054085254669189453,0.47204709053039551,-0.47415170073509216,0,0,0,0,0,0,0.36561113595962524,0,0,0,0.33404257893562317,0.79807364940643311,0,0.34966644644737244,0,0,0,0.082535877823829651,0,0,0.24722495675086975,-0.15946829319000244,0.9605710506439209,0,0,0.28268450498580933,0.012023660354316235,0,-0.70330154895782471,-0.49978348612785339,0,0,-0.13608503341674805,0,0,-0.46164476871490479,0,0,0,-0.42247968912124634,0,-0.26952895522117615,0.42961946129798889,0,0.25514018535614014,-0.32166028022766113,0,0,-0.2541009783744812,0.36645421385765076,0,0,-0.35419455170631409,0,0,0,0.42281359434127808,0,0.76078897714614868,0,0,0,-0.036751031875610352,-0.37169426679611206,-0.3855665922164917,-0.40948182344436646,0,0,0.046260412782430649,0,-0.87162315845489502,0,-0.78846168518066406,0.43147927522659302,-0.37675651907920837,-0.53197717666625977,0,0,0,0,0,0,0,0,0,0,0.053923346102237701,0,0,0,0,0,0.84524941444396973,-0.85628914833068848,-0.26283854246139526,0.20971871912479401,0.48830893635749817,0,0.31444385647773743,0,0,0.68110191822052002,0.42637655138969421,0.44206535816192627,0,0,0.41463348269462585,0.31428039073944092,0,0.27442947030067444,-0.44576933979988098,-0.39676862955093384,0,0,-0.34129941463470459,0,0,0.86244553327560425,-0.26010119915008545,0.82636559009552002,-0.1115562915802002,-0.25841057300567627,-0.49873751401901245,0,0,0,0,0.41876140236854553,-0.38039308786392212,0.49583560228347778,0.23549668490886688,-0.27662339806556702,0,0.35193955898284912,0,0,0,-0.29518675804138184,0.018366457894444466,0,0.99215251207351685,0.7744898796081543,0.40713727474212646,0,-0.10841343551874161,0,0,0,0,0.3646678626537323,0.085534907877445221,0.79611313343048096,-0.41171005368232727,0.27668464183807373,0,0.45229879021644592,0.45593857765197754,0,0,0.34526252746582031,-0.48452967405319214,0.48786658048629761,0,0,0,0,0,0.49556562304496765,0,0,0,0,0.49078470468521118,0,-0.45431298017501831,0,0,1,0,0,0,-1,-0.45393171906471252,0,0.40502148866653442,0,0,0.43596011400222778,0,0,-0.2805115282535553,0.48530998826026917,0,0.29537957906723022,0,0,0,0,0.5341343879699707,0,-0.39959648251533508],[0.34899124503135681,0,0,0,0,0,0,-0.46672752499580383,-0.10568980127573013,0,0,0,0.30715799331665039,0,-0.24229319393634796,-0.031846046447753906,0,0,0,0.39289239048957825,0,0,0,-0.34305638074874878,0.54693311452865601,0.25493195652961731,-0.28761357069015503,-0.86756086349487305,-0.35123035311698914,0,-0.013072848320007324,0.29782319068908691,0,0,0,0,0.49665772914886475,0.37224921584129333,-0.49778816103935242,1,0,0.67431145906448364,0.36174938082695007,-0.3628261387348175,0,-0.18323343992233276,-0.76097792387008667,0,0,0.1840088963508606,0.49136993288993835,0,-0.56026071310043335,0,0,-1,-0.43914476037025452,0.3390575647354126,0,0.94058716297149658,0,0.074991755187511444,0,0,0.22448016703128815,0,-0.42599520087242126,0,0,0,0,0,-0.20968973636627197,-0.51657038927078247,-0.42038336396217346,0,-0.34891745448112488,0,0.29309108853340149,-0.86410492658615112,0.1512976735830307,-0.37425541877746582,-0.38798454403877258,-0.46938294172286987,0,0.41246777772903442,-0.22171762585639954,0,-0.338337242603302,-0.29901063442230225,0,0,0,0.49836272001266479,1,-0.41058292984962463,0,0,0.46224930882453918,-0.14017951488494873,0,0,-0.68537229299545288,0.9126206636428833,0,0,0.20894847810268402,-0.43928632140159607,-0.45963335037231445,0.79561030864715576,0,0.44575107097625732,0,0.12922540307044983,-0.46195843815803528,0.75921750068664551,-0.78274500370025635,0.33648133277893066,-0.61130964756011963,-0.27339360117912292,0,-0.031456265598535538,0,-0.42754426598548889,1,-0.628379225730896,0,0,-0.45160382986068726,-1,-0.28640058636665344,0.42689931392669678,0.32222601771354675,0,-0.15895545482635498,0,-0.20842643082141876,0.2656065821647644,0,0,0,0,1,0,0,-0.039224106818437576,0.26899269223213196,0.38590046763420105,-0.3975892961025238,0.86670911312103271,0,-0.005867792759090662,-0.39096927642822266,0,0,0,0,0,0.013444256037473679,-0.96180176734924316,-0.40372109413146973,0,0,-0.33744895458221436,-0.37268739938735962,0,0,0,-0.43299046158790588,-0.15017808973789215,-0.82688033580780029,0.3712427020072937,-0.017087796702980995,0.3754427433013916,0,0.25642609596252441,-1,-0.52615511417388916,0,0,0.41349804401397705,0,0.10663612186908722,0,-0.46685850620269775,0.83411407470703125,-1,0.28248512744903564,0.53779637813568115,0,0.28059214353561401,0.36265969276428223]],"id":"2DBA16BC-4F7A-4F31-BC9D-3B2277B1E8E1","generation":618,"biases":[[],[0.51507586240768433,-0.78068792819976807,-0.52204209566116333,-0.087424635887145996,-0.97622114419937134,1,1,-0.63255536556243896,-0.28175434470176697,0.043941497802734375,0.287354975938797,0.065826095640659332,-0.39969357848167419,-1,-0.51754546165466309,0.13738448917865753,0.20375800132751465,-0.15230081975460052,0.68347811698913574,0.23782554268836975,-1,-1,-1,-0.088293664157390594],[-0.93077385425567627,1,0.5,-0.13617435097694397,-0.5,-0.39506357908248901,0.44115352630615234,0.99719858169555664]],"inputCount":28,"hiddenCount":24,"outputCount":8},
		{"marker2":false,"marker1":false,"weights":[[],[-0.013735532760620117,0.33642891049385071,0,0,0.3615473210811615,-0.046091794967651367,0.44071954488754272,0,0,0,0,0,0.47732090950012207,0,0.36849945783615112,0,0,-0.38567814230918884,0.45044624805450439,0,0,-0.3957851231098175,0,0,0,0,0,-0.35495713353157043,-0.47214066982269287,-0.41756188869476318,0.7854454517364502,-0.89462900161743164,0.44081145524978638,-0.88537514209747314,0,0,0,0.48449793457984924,0,0,0.86446428298950195,0.30385681986808777,0.22239747643470764,-0.31813770532608032,-0.32568556070327759,-0.35824021697044373,0,-0.37895852327346802,0.25021544098854065,0,-0.28085064888000488,0,0,-0.49818971753120422,0,-0.52864944934844971,0,0.046758651733398438,0.35102495551109314,0,0,0.0087005048990249634,0,-0.42771214246749878,-0.34605726599693298,-0.24032559990882874,0,0,0.22334404289722443,0,0.43471083045005798,0,0,0,0,0.1684453934431076,-0.39765545725822449,-0.43809416890144348,-0.41219565272331238,0,0,0,0.70601820945739746,-0.38949167728424072,0,0,0,0,0.48104193806648254,0,-0.32207506895065308,0,-0.33595901727676392,-0.18240860104560852,0,0.33924919366836548,-0.76056307554244995,0.2206398993730545,-1,0.43946659564971924,0,0.97591102123260498,0,-0.2503567636013031,0,0.32217684388160706,0,-0.2456420511007309,-0.38431236147880554,0,-0.43968430161476135,0,-0.14438140392303467,0,0,0,0,-0.15698035061359406,0,0,-0.28083553910255432,0,-0.16449673473834991,0,0,0,-0.46500065922737122,-0.91374552249908447,0,0,0.88477200269699097,0,0,0,0,0,0.70803797245025635,0.41332915425300598,0,0.58944320678710938,0,-0.34498140215873718,0,0,0.40084350109100342,0,0,0,-0.34868419170379639,0.48555207252502441,-0.25756239891052246,0,0.15748870372772217,0,0,-0.84311521053314209,0.15053632855415344,0,0.37744238972663879,0.45436033606529236,0,-0.79033952951431274,0,-0.38239562511444092,0.71446919441223145,0,-0.31197929382324219,0,0,0,-0.67988920211791992,0,0,0.40529707074165344,0,-0.73644208908081055,0,0.42668142914772034,0,-0.29770275950431824,0.47830790281295776,0,0,-0.078210353851318359,0,0,0.27570065855979919,0,0.62922108173370361,0.022935027256608009,0,0,0,0,0.46060991287231445,0,0,0,0.33212646842002869,0,0.4146285355091095,0,-0.24490547180175781,0,0,-0.35519805550575256,-0.27915665507316589,0,-0.1491989940404892,0,-0.34822416305541992,0,0,-0.4898865818977356,0.60361170768737793,0.57755964994430542,0,0,0,0,0.79303061962127686,0,0,0,0,0,0.016339235007762909,0.22278046607971191,0,-0.52190077304840088,0.34301057457923889,0,-0.46397146582603455,0.40330743789672852,0,0,0,0.34188291430473328,0,0,-0.25706225633621216,0,0,0,0,1,0.74941051006317139,0.073153972625732422,0,0,-0.49919202923774719,0,-0.83416581153869629,-0.25061413645744324,0,0.048822939395904541,-0.41356742382049561,0,-0.79850471019744873,0,0.91898107528686523,0,0.32469987869262695,-0.17636609077453613,0,0,0.54415726661682129,0,-0.0089692315086722374,0.42808109521865845,0,0,0,0,0.37675085663795471,0,0,0,0,0.81614232063293457,0,-0.91113686561584473,0,0.82852303981781006,0,0,0.47795867919921875,0,0.4650636613368988,0,0,0.40947812795639038,-0.2964608371257782,0,0,0,0,0,0.91415947675704956,0,0,0,0,-0.16471517086029053,0,0,0,0,0.42682132124900818,0,0,-0.084572359919548035,0,-0.33478713035583496,0,0,0,0,-0.44798469543457031,0.36005085706710815,0,0,0.16231337189674377,0,0.47103717923164368,0.69012546539306641,0,0,0,0,-0.39853692054748535,-0.39612439274787903,-0.46293294429779053,0,1,0,0,0,0,0,0,0,-0.39943939447402954,0,0,0,0,0,0.45430541038513184,0,0,0,0.30605161190032959,0.046857144683599472,-0.00083220005035400391,0,0,-0.5791093111038208,-0.3647199273109436,-0.34809741377830505,0,0,-0.058526962995529175,-0.4990120530128479,0,0,0.48852300643920898,0,0.30957776308059692,-0.47208023071289062,0.27790141105651855,0,0,0,0,0,0,0,0,-0.32883322238922119,-0.34752154350280762,0,0,-0.37119826674461365,0.47745481133460999,0.31928777694702148,0.34589296579360962,0,0.52345198392868042,-0.24346967041492462,-0.38599205017089844,0,0,-0.54181766510009766,-0.039520930498838425,0,0,-0.38457581400871277,-0.28262251615524292,0.98125076293945312,-0.71399128437042236,0,0,0.30936324596405029,0,-0.45081502199172974,0.47758418321609497,-0.32005923986434937,0,0.34496590495109558,0.45988604426383972,0,0.67104828357696533,-0.22944408655166626,0,0,-0.28977423906326294,0,0,-0.31899541616439819,0.43624311685562134,-0.072596579790115356,0,0,0.91613203287124634,0.30628478527069092,0,0,0,0,-0.53305685520172119,0,0,-0.43112713098526001,-0.51902711391448975,0,-1,-0.46057796478271484,0,-0.59015846252441406,-0.36539736390113831,-0.14276021718978882,0.73110264539718628,0,0.49394401907920837,0,0,-0.41211599111557007,-0.37458077073097229,0.35884743928909302,-0.76906144618988037,0.064040780067443848,-0.99181085824966431,0,0.28784215450286865,0,0,0.24742257595062256,0,0.12638208270072937,0.70003366470336914,-0.13240428268909454,-0.3764985203742981,0.40472394227981567,0,-0.94154798984527588,-0.80947422981262207,0,-0.0054085254669189453,0.47204709053039551,-0.47415170073509216,0,0,0,0,0,0,0.36561113595962524,0,0,0,0.33404257893562317,0.79807364940643311,0,0.34966644644737244,0,0,0,0.082535877823829651,0,0,0.24722495675086975,-0.15946829319000244,0.9605710506439209,0,0,0.28268450498580933,0.012023660354316235,0,-0.70330154895782471,-0.49978348612785339,0,0,-0.13608503341674805,0,0,-0.46164476871490479,0,0,0,-0.42247968912124634,0,-0.26952895522117615,0.42961946129798889,0,0.25514018535614014,-0.32166028022766113,0,0,-0.2541009783744812,0.36645421385765076,0,0,-0.35419455170631409,0,0,0,0.42281359434127808,0,0.76078897714614868,0,0,0,-0.036751031875610352,-0.37169426679611206,-0.3855665922164917,-0.40948182344436646,0,0.42056763172149658,0.046260412782430649,0,-0.87162315845489502,0,-0.78846168518066406,0.43147927522659302,-0.37675651907920837,-0.53197717666625977,0,0,0,0,0,0,0,0,0,0,0.053923346102237701,0,0,0,0,0,0.84524941444396973,-0.85628914833068848,-0.26283854246139526,0.20971871912479401,0.48830893635749817,0,0.31444385647773743,0,0,0.68110191822052002,0.42637655138969421,0.44206535816192627,0,0,0.41463348269462585,0.31428039073944092,0,0.27442947030067444,-0.44576933979988098,-0.39676862955093384,0,0,-0.34129941463470459,0,0,0.86244553327560425,-0.26010119915008545,0.82636559009552002,-0.1115562915802002,-0.25841057300567627,-0.49873751401901245,0,0,0,0,0.41876140236854553,-0.38039308786392212,0.49583560228347778,0.23549668490886688,-0.27662339806556702,0,0.35193955898284912,0,0,0,-0.29518675804138184,0.018366457894444466,0,0.99215251207351685,0.7744898796081543,0.40713727474212646,0,-0.10841343551874161,0,0,0,0,0.3646678626537323,0.085534907877445221,0.79611313343048096,-0.41171005368232727,0.27668464183807373,0,0.45229879021644592,0.45593857765197754,0,0,0.34526252746582031,-0.48452967405319214,0.48786658048629761,0,0,0,0,0,0.49556562304496765,0,0,0,0,0.49078470468521118,0,-0.45431298017501831,0,0,1,0,0,0,-1,0,0,0.40502148866653442,0,0,0.43596011400222778,0,0,-0.2805115282535553,0.48530998826026917,0,0.29537957906723022,0,0,0,0,0.5341343879699707,0,-0.39959648251533508],[0.34899124503135681,0,0,0,0,0,0,-0.46672752499580383,-0.10568980127573013,0,0,0,0.30715799331665039,0,-0.24229319393634796,-0.031846046447753906,0,0,0,0.39289239048957825,0,0,0,-0.34305638074874878,0.54693311452865601,0.25493195652961731,-0.28761357069015503,-0.86756086349487305,-0.35123035311698914,0,-0.013072848320007324,0.29782319068908691,0,0,0,0,0.49665772914886475,0.37224921584129333,-0.49778816103935242,1,0,0.67431145906448364,0.36174938082695007,-0.3628261387348175,0,-0.18323343992233276,-0.76097792387008667,0,0,0.1840088963508606,0.49136993288993835,0,-0.56026071310043335,0,0,-1,-0.43914476037025452,0.3390575647354126,0,0.94058716297149658,0,0.074991755187511444,0,0,0.22448016703128815,0,-0.42599520087242126,0,0,0,0,0,-0.20968973636627197,-0.51657038927078247,-0.42038336396217346,0,-0.34891745448112488,0,0.29309108853340149,-0.86410492658615112,0.1512976735830307,-0.37425541877746582,-0.38798454403877258,-0.46938294172286987,0,0.41246777772903442,-0.22171762585639954,0,-0.338337242603302,-0.29901063442230225,0,0,0,0.49836272001266479,1,-0.41058292984962463,0,0,0.46224930882453918,-0.14017951488494873,0,0,-0.68537229299545288,0.9126206636428833,0,0,0.20894847810268402,-0.43928632140159607,-0.45963335037231445,0.79561030864715576,0,0.44575107097625732,0,0.12922540307044983,-0.46195843815803528,0.75921750068664551,-0.78274500370025635,0.33648133277893066,-0.61130964756011963,-0.27339360117912292,0,-0.031456265598535538,0,-0.42754426598548889,1,-0.26220524311065674,0,0,-0.45160382986068726,-1,-0.28640058636665344,0.42689931392669678,0.32222601771354675,0,-0.15895545482635498,0,-0.20842643082141876,0.2656065821647644,0,0,0,0,1,0,0,-0.039224106818437576,0.26899269223213196,0.38590046763420105,-0.3975892961025238,0.86670911312103271,0,-0.005867792759090662,-0.39096927642822266,0,0,0,0,0,0.013444256037473679,-0.96180176734924316,-0.40372109413146973,0,0,-0.33744895458221436,-0.37268739938735962,0,0,0,-0.43299046158790588,-0.15017808973789215,-0.82688033580780029,0.3712427020072937,-0.017087796702980995,0.3754427433013916,0,0,-1,-0.52615511417388916,0,0,0.41349804401397705,0,0.10663612186908722,0,-0.46685850620269775,0.83411407470703125,-1,0.28248512744903564,0.53779637813568115,0,0.28059214353561401,0.36265969276428223]],"id":"7B5B9B30-145E-4EC8-80BA-0233E801AE85","generation":619,"biases":[[],[0.51507586240768433,-1,-0.52204209566116333,-0.087424635887145996,-0.97622114419937134,1,1,-0.63255536556243896,-0.28175434470176697,0.043941497802734375,0.287354975938797,0.065826095640659332,-0.39969357848167419,-1,-0.51754546165466309,0.13738448917865753,0.20375800132751465,-0.15230081975460052,0.68347811698913574,0.23782554268836975,-1,-1,-1,-0.088293664157390594],[-0.93077385425567627,1,0.5,0.23754239082336426,-0.5,-0.023554122075438499,1,0.99719858169555664]],"inputCount":28,"hiddenCount":24,"outputCount":8},
		{"marker2":false,"marker1":false,"weights":[[],[-0.013735532760620117,0.33642891049385071,0,0,0.3615473210811615,-0.046091794967651367,0.44071954488754272,0,0,0,0,0,0.47732090950012207,0,0.36849945783615112,0,0,-0.38567814230918884,0.45044624805450439,0,0,-0.3957851231098175,0,0,0,0,0,-0.35495713353157043,-0.47214066982269287,-0.41756188869476318,0.7854454517364502,-0.89462900161743164,0.44081145524978638,-0.88537514209747314,0,0,0,0.48449793457984924,0,0,0.86446428298950195,0.30385681986808777,0.22239747643470764,-0.31813770532608032,-0.32568556070327759,-0.35824021697044373,0,-0.37895852327346802,0.25021544098854065,0,-0.28085064888000488,0,0,-0.49818971753120422,0,-0.52864944934844971,0,0.046758651733398438,0.35102495551109314,0,0,0.0087005048990249634,0,-0.42771214246749878,-0.34605726599693298,-0.24032559990882874,0,0,0.22334404289722443,0,0.43471083045005798,0,0,0,0,0.1684453934431076,-0.39765545725822449,-0.43809416890144348,-0.41219565272331238,0,0,0,0.70601820945739746,-0.38949167728424072,0,0,0,0,0.48104193806648254,0,-0.32207506895065308,0,-0.33595901727676392,-0.18240860104560852,0,0.33924919366836548,-0.76056307554244995,0.2206398993730545,-1,0.43946659564971924,0,0.97591102123260498,0,-0.2503567636013031,0,0.32217684388160706,0,-0.2456420511007309,-0.38431236147880554,0,-0.43968430161476135,0,-0.14438140392303467,0,0,0,0,-0.15698035061359406,0,0,-0.28083553910255432,0,-0.16449673473834991,0,0,0,-0.46500065922737122,-0.91374552249908447,0,0,0.88477200269699097,0,0,0,0,0,0.70803797245025635,0.41332915425300598,0,0.58944320678710938,0,-0.34498140215873718,0,0,0.40084350109100342,0,0,0,-0.34868419170379639,0.48555207252502441,-0.25756239891052246,0,0.15748870372772217,0,0,-0.84311521053314209,0.15053632855415344,0,0.37744238972663879,0.45436033606529236,0,-0.79033952951431274,0,-0.38239562511444092,0.71446919441223145,0,-0.31197929382324219,0,0,0,-0.67988920211791992,0,0,0.40529707074165344,0,-0.73644208908081055,0,0.42668142914772034,0,-0.29770275950431824,0.47830790281295776,0,0,-0.078210353851318359,0,0,0.27570065855979919,0,0.62922108173370361,0.022935027256608009,0,0,0,0,0.46060991287231445,0,0,0,0.33212646842002869,0,0.4146285355091095,0,-0.24490547180175781,0,0,-0.35519805550575256,-0.27915665507316589,0,-0.1491989940404892,0,-0.34822416305541992,0,0,-0.4898865818977356,0.60361170768737793,0.13801892101764679,0,0,0,0,0.79303061962127686,0,0,0,0,0,0.016339235007762909,0.22278046607971191,0,-0.52190077304840088,0.34301057457923889,0,-0.46397146582603455,0.40330743789672852,0,0,0,0.34188291430473328,0,0,-0.25706225633621216,0,0,0,0,1,0.74941051006317139,0.073153972625732422,0,0,-0.49919202923774719,0,-0.83416581153869629,-0.25061413645744324,0,0.048822939395904541,-0.41356742382049561,0,-0.79850471019744873,0,0.91898107528686523,0,0.32469987869262695,-0.17636609077453613,0,0,0.54415726661682129,0,-0.0089692315086722374,0.42808109521865845,0,0,0,0,0.37675085663795471,0,0,0,0,0.81614232063293457,0,-0.91113686561584473,0,0.82852303981781006,0,0,0.47795867919921875,0,0.4650636613368988,0,0,0.40947812795639038,-0.2964608371257782,0,0,0,0,0,0.91415947675704956,0,0,0,0,-0.16471517086029053,0,0,0,0,0,0,0,-0.084572359919548035,0,-0.33478713035583496,0,0,0,0,-0.44798469543457031,0.36005085706710815,0,0,0.16231337189674377,0,0.47103717923164368,0.69012546539306641,0,0,0,0,-0.39853692054748535,-0.39612439274787903,-0.46293294429779053,0,1,0,0,0,0,0,0,0,-0.39943939447402954,0,0,0,0,0,0.45430541038513184,0,0,0,0.30605161190032959,0.046857144683599472,-0.00083220005035400391,0,0,-0.5791093111038208,-0.3647199273109436,-0.34809741377830505,0,0,-0.058526962995529175,-0.4990120530128479,0,0,0.48852300643920898,0,0.30957776308059692,-0.47208023071289062,0.27790141105651855,0,0,0,0,0,0,0,0,-0.32883322238922119,-0.34752154350280762,0,0,-0.37119826674461365,0.47745481133460999,0.31928777694702148,0.34589296579360962,0,0.52345198392868042,-0.24346967041492462,-0.38599205017089844,0,0,-0.54181766510009766,-0.039520930498838425,0,0,-0.38457581400871277,-0.28262251615524292,0.98125076293945312,-0.71399128437042236,0,0,0.30936324596405029,0,-0.45081502199172974,0.47758418321609497,-0.32005923986434937,0,0.7589644193649292,0.45988604426383972,0,0.29252055287361145,-0.22944408655166626,0,0,-0.28977423906326294,0,0,-0.31899541616439819,0.43624311685562134,-0.072596579790115356,0,0,0.91613203287124634,0.30628478527069092,0,0,0,0,-0.53305685520172119,0,0,-0.43112713098526001,-0.51902711391448975,0,-1,-0.46057796478271484,0,-0.59015846252441406,-0.36539736390113831,-0.14276021718978882,0.73110264539718628,0,0.49394401907920837,0,0,-0.41211599111557007,-0.37458077073097229,0.35884743928909302,-0.76906144618988037,0.064040780067443848,-0.99181085824966431,0,0.28784215450286865,0,0,0.24742257595062256,0,0.12638208270072937,0.70003366470336914,-0.13240428268909454,-0.3764985203742981,0.40472394227981567,0,-0.94154798984527588,-0.80947422981262207,0,-0.0054085254669189453,0.47204709053039551,-0.47415170073509216,0,0,0,0,0,0,0.36561113595962524,0,0,0,0.33404257893562317,0.79807364940643311,0,0.34966644644737244,0,0,0,0.082535877823829651,0,0,0.24722495675086975,-0.15946829319000244,0.9605710506439209,0,0,0.28268450498580933,0.012023660354316235,0,-0.70330154895782471,-0.49978348612785339,0,0,-0.13608503341674805,0,0,-0.46164476871490479,0,0,0,-0.42247968912124634,0,-0.26952895522117615,0.42961946129798889,0,0.25514018535614014,-0.32166028022766113,0,0,-0.2541009783744812,0.36645421385765076,0,0,-0.35419455170631409,0,0,0,0.42281359434127808,0,0.76078897714614868,0,0,0,-0.036751031875610352,-0.37169426679611206,-0.3855665922164917,-0.40948182344436646,0,0,0.046260412782430649,0,-0.87162315845489502,0,-0.78846168518066406,0.43147927522659302,-0.37675651907920837,-0.53197717666625977,0,0,0,0,0,0,0,0,0,0,0.053923346102237701,0,0,0,0,0,0.84524941444396973,-0.85628914833068848,-0.26283854246139526,0.20971871912479401,0.48830893635749817,0,0.31444385647773743,0,0,0.68110191822052002,0.42637655138969421,0.44206535816192627,0,0,0.41463348269462585,0.31428039073944092,0,0.27442947030067444,-0.44576933979988098,-0.39676862955093384,0,0,-0.34129941463470459,0,0,0.86244553327560425,-0.26010119915008545,0.82636559009552002,-0.1115562915802002,-0.25841057300567627,-0.49873751401901245,0,0,0,0,0.41876140236854553,-0.38039308786392212,0.49583560228347778,0.23549668490886688,-0.27662339806556702,0,0.35193955898284912,0,0,0,-0.29518675804138184,0.018366457894444466,0,0.99215251207351685,0.7744898796081543,0.40713727474212646,0,-0.10841343551874161,0,0,0,0,0.3646678626537323,0.085534907877445221,0.79611313343048096,-0.41171005368232727,0.27668464183807373,0,0.45229879021644592,0.45593857765197754,0,0,0.34526252746582031,-0.48452967405319214,0.48786658048629761,0,0,0,0,0,0.49556562304496765,0,0,0,0,0.49078470468521118,0,-0.45431298017501831,0,0,1,0,0,0,-1,0,0,0.40502148866653442,0,0,0.43596011400222778,0,0,-0.2805115282535553,0.48530998826026917,0,0.29537957906723022,0,0,0,0,0.5341343879699707,0,-0.39959648251533508],[0.34899124503135681,0,0,0,0,0,0,-0.46672752499580383,-0.10568980127573013,0,0,0,0.30715799331665039,0,-0.24229319393634796,-0.031846046447753906,0,0,0,0.39289239048957825,0,0,0,-0.34305638074874878,0.54693311452865601,0.25493195652961731,-0.28761357069015503,-0.86756086349487305,-0.35123035311698914,0,-0.013072848320007324,0.29782319068908691,0,0,0,0,0.49665772914886475,0.37224921584129333,-0.49778816103935242,1,0,0.67431145906448364,0.36174938082695007,-0.3628261387348175,0,-0.18323343992233276,-0.76097792387008667,0,0,0.1840088963508606,0.49136993288993835,0,-0.56026071310043335,0,0,-1,-0.43914476037025452,0.3390575647354126,0,0.94058716297149658,0,0.074991755187511444,0,0,0.22448016703128815,0,-0.42599520087242126,0,0,0,0,0,-0.20968973636627197,-0.51657038927078247,-0.42038336396217346,0,-0.34891745448112488,0,0.29309108853340149,-0.86410492658615112,0.1512976735830307,-0.37425541877746582,-0.38798454403877258,-0.46938294172286987,0,0.41246777772903442,-0.22171762585639954,0,-0.338337242603302,-0.29901063442230225,0,0,0,0.49836272001266479,1,-0.41058292984962463,0,0,0.46224930882453918,-0.14017951488494873,0,0,-0.68537229299545288,0.9126206636428833,0,0,0.20894847810268402,-0.43928632140159607,-0.45963335037231445,0.79561030864715576,0,0.44575107097625732,0,0.12922540307044983,-0.46195843815803528,0.75921750068664551,-0.78274500370025635,0.33648133277893066,-0.61130964756011963,-0.27339360117912292,0,-0.031456265598535538,0,-0.42754426598548889,1,-0.628379225730896,0,0,-0.45160382986068726,-1,-0.28640058636665344,0.42689931392669678,0.32222601771354675,0,-0.15895545482635498,0,-0.20842643082141876,0.2656065821647644,0,0,0,0,1,0,0,-0.039224106818437576,0.26899269223213196,0.38590046763420105,-0.3975892961025238,0.86670911312103271,0,-0.005867792759090662,-0.39096927642822266,0,0,0,0,0,0.013444256037473679,-0.96180176734924316,-0.40372109413146973,0,0,-0.33744895458221436,-0.37268739938735962,0,0,0,-0.43299046158790588,-0.15017808973789215,-0.82688033580780029,0.3712427020072937,-0.017087796702980995,0.3754427433013916,0,0,-1,-0.52615511417388916,0,0,0.41349804401397705,0,0.10663612186908722,0,-0.46685850620269775,0.83411407470703125,-1,0.28248512744903564,0.53779637813568115,0,0.28059214353561401,0.36265969276428223]],"id":"9ECE7142-A73A-4DE6-8EF6-1249BC36C461","generation":618,"biases":[[],[0.51507586240768433,-0.78068792819976807,-0.52204209566116333,-0.087424635887145996,-0.39858877658843994,1,1,-0.63255536556243896,-0.28175434470176697,0.043941497802734375,0.287354975938797,0.065826095640659332,-0.39969357848167419,-1,-0.51754546165466309,0.13738448917865753,0.20375800132751465,-0.15230081975460052,0.68347811698913574,0.23782554268836975,-1,-1,-1,-0.088293664157390594],[-0.93077385425567627,1,0.5,0.23754239082336426,-0.5,0.098943226039409637,0.88230705261230469,0.99719858169555664]],"inputCount":28,"hiddenCount":24,"outputCount":8},
		{"marker2":false,"marker1":false,"weights":[[],[-0.013735532760620117,0.33642891049385071,0,0,0.3615473210811615,-0.046091794967651367,0.44071954488754272,0,0,0,0,0,0.47732090950012207,0,0.36849945783615112,0,0,-0.38567814230918884,0.45044624805450439,0,0,-0.3957851231098175,0,0,0,0,0,-0.35495713353157043,-0.47214066982269287,-0.41756188869476318,0.7854454517364502,-0.89462900161743164,0.44081145524978638,-0.88537514209747314,0,0,0,0.48449793457984924,0,0,0.86446428298950195,0.30385681986808777,0.22239747643470764,-0.31813770532608032,-0.32568556070327759,-0.35824021697044373,0,-0.37895852327346802,0.25021544098854065,0,-0.28085064888000488,0,0,-0.49818971753120422,0,-0.52864944934844971,0,0.046758651733398438,0.35102495551109314,0,0,0.0087005048990249634,0,-0.42771214246749878,-0.34605726599693298,-0.24032559990882874,0,0,0.22334404289722443,0,0.43471083045005798,0,0,0,0,0.1684453934431076,-0.39765545725822449,-0.43809416890144348,-0.41219565272331238,0,0,0,0.70601820945739746,-0.38949167728424072,0,0,0,0,0.48104193806648254,0,-0.32207506895065308,0,-0.33595901727676392,-0.18240860104560852,0,0.33924919366836548,-0.76056307554244995,0.2206398993730545,-1,0.43946659564971924,0,0.97591102123260498,0,-0.2503567636013031,0,0.32217684388160706,0,-0.2456420511007309,-0.38431236147880554,0,-0.43968430161476135,0,-0.14438140392303467,0,0,0,0,-0.15698035061359406,0,0,-0.28083553910255432,0,-0.16449673473834991,0,0,0,-0.46500065922737122,-0.91374552249908447,0,0,0.88477200269699097,0,0,0,0,0,0.97953063249588013,0.41332915425300598,0,0.58944320678710938,0,-0.34498140215873718,0,0,0.40084350109100342,0,0,0,-0.34868419170379639,0.48555207252502441,-0.25756239891052246,0,0.15748870372772217,0,0,-0.84311521053314209,0.15053632855415344,0,0.37744238972663879,0.45436033606529236,0,-0.79033952951431274,0,-0.38239562511444092,0.71446919441223145,0,-0.31197929382324219,0,0,0,-0.67988920211791992,0,0,0.40529707074165344,0,-0.73644208908081055,0,0.42668142914772034,0,-0.29770275950431824,0.47830790281295776,0,0,-0.078210353851318359,0,0,0.27570065855979919,0,0.62922108173370361,0.022935027256608009,0,0,0,0,0.46060991287231445,0,0,0,0.33212646842002869,0,0.4146285355091095,0,-0.24490547180175781,0,0,-0.35519805550575256,-0.27915665507316589,0,-0.1491989940404892,0,-0.34822416305541992,0,0,-0.4898865818977356,0.60361170768737793,0.13801892101764679,0,0,0,0,0.79303061962127686,0,0,0,0,0,0.016339235007762909,0.22278046607971191,0,-0.52190077304840088,0.34301057457923889,0,-0.46397146582603455,0.40330743789672852,0,0,0,0.34188291430473328,0,0,-0.25706225633621216,0,0,0,0,1,0.74941051006317139,0.073153972625732422,0,0,-0.49919202923774719,0,-0.83416581153869629,-0.25061413645744324,0,0.048822939395904541,-0.41356742382049561,0,-0.79850471019744873,0,0.91898107528686523,0,0.32469987869262695,-0.17636609077453613,0,0,0.54415726661682129,0,-0.0089692315086722374,0.42808109521865845,0,0,0,0,0.37675085663795471,0,0,0,0,0.81614232063293457,0,-0.91113686561584473,0,0.82852303981781006,0,0,0.47795867919921875,0,0.4650636613368988,0,0,0.40947812795639038,-0.2964608371257782,0,0,0,0,0,0.91415947675704956,0,0,0,0,-0.16471517086029053,0,0,0,0,0,0,0,-0.084572359919548035,0,-0.33478713035583496,0,0,0,0,-0.44798469543457031,0.36005085706710815,0,0,0.16231337189674377,0,0.47103717923164368,0.69012546539306641,0,0,0,0,-0.39853692054748535,-0.39612439274787903,-0.46293294429779053,0,1,0,0,0,0,0,0,0,-0.39943939447402954,0,0,0,0,0,0.45430541038513184,0,0,0,0.30605161190032959,0.046857144683599472,-0.00083220005035400391,0,0,-0.5791093111038208,-0.3647199273109436,-0.34809741377830505,0.55578100681304932,0,-0.058526962995529175,-0.4990120530128479,0,0,0.48852300643920898,0,0.30957776308059692,-0.47208023071289062,0.27790141105651855,0,0,0,0,0,0,0,0,-0.32883322238922119,-0.34752154350280762,0,0,-0.37119826674461365,0.47745481133460999,0.31928777694702148,0.34589296579360962,0,0.52345198392868042,-0.24346967041492462,-0.38599205017089844,0,0,-0.54181766510009766,-0.039520930498838425,0,0,-0.38457581400871277,-0.28262251615524292,0.98125076293945312,-0.71399128437042236,0,0,0.30936324596405029,0,-0.45081502199172974,0.47758418321609497,-0.32005923986434937,0,0.34496590495109558,0.45988604426383972,0,0.29252055287361145,-0.22944408655166626,0,0,-0.28977423906326294,0,0,-0.31899541616439819,0.43624311685562134,-0.072596579790115356,0,0,0.91613203287124634,0.30628478527069092,0,0,0,0,-0.53305685520172119,0,0,-0.43112713098526001,-0.51902711391448975,0,-1,-0.46057796478271484,0,-0.59015846252441406,-0.36539736390113831,-0.14276021718978882,0.73110264539718628,0,0.49394401907920837,0,0,-0.41211599111557007,-0.37458077073097229,0.35884743928909302,-0.76906144618988037,0.064040780067443848,-0.99181085824966431,0,0.28784215450286865,0,0,0.24742257595062256,0,0.12638208270072937,0.70003366470336914,-0.13240428268909454,-0.3764985203742981,0.40472394227981567,0,-0.94154798984527588,-0.80947422981262207,0,-0.0054085254669189453,0.47204709053039551,-0.47415170073509216,0,0,0,0,0,0,0.36561113595962524,0,0,0,0.33404257893562317,0.79807364940643311,0,0.34966644644737244,0,0,0,0.082535877823829651,0,0,0.24722495675086975,-0.15946829319000244,0.9605710506439209,0,0,0.28268450498580933,0.012023660354316235,0,-0.70330154895782471,-0.49978348612785339,0,0,-0.13608503341674805,0,0,-0.46164476871490479,0,0,0,-0.42247968912124634,0,-0.26952895522117615,0.42961946129798889,0,0.25514018535614014,-0.32166028022766113,0,0,-0.2541009783744812,0.36645421385765076,0,0,-0.35419455170631409,0,0,0,0.42281359434127808,0,0.76078897714614868,0,0,0,-0.036751031875610352,-0.37169426679611206,-0.3855665922164917,-0.40948182344436646,0,0,0.046260412782430649,0,-0.87162315845489502,0,-0.78846168518066406,0.43147927522659302,-0.37675651907920837,-0.53197717666625977,0,0,0,0,0,0,0,0,0,0,0.053923346102237701,0,0,0,0,0,0.84524941444396973,-0.85628914833068848,-0.26283854246139526,0.20971871912479401,0.48830893635749817,0,0.31444385647773743,0,0,0.68110191822052002,0.42637655138969421,0.44206535816192627,0,0,0.41463348269462585,0.31428039073944092,0,0.27442947030067444,-0.44576933979988098,-0.39676862955093384,0,0,-0.34129941463470459,0,0,0.86244553327560425,-0.26010119915008545,0.82636559009552002,-0.1115562915802002,-0.25841057300567627,-0.49873751401901245,0,0,0,0,0.41876140236854553,-0.38039308786392212,0.49583560228347778,0.23549668490886688,-0.27662339806556702,0,0.35193955898284912,0,0,0,-0.29518675804138184,0.018366457894444466,0,0.99215251207351685,0.7744898796081543,0.40713727474212646,0,-0.10841343551874161,0,0,0,0,0.3646678626537323,0.085534907877445221,0.79611313343048096,-0.41171005368232727,0.27668464183807373,0,0.45229879021644592,0.45593857765197754,0,0,0.34526252746582031,-0.48452967405319214,0.48786658048629761,0,0,0,0,0,0.49556562304496765,0,0,0,0,0.49078470468521118,0,-0.45431298017501831,0,0,1,0,0,0,-1,-0.45393171906471252,0,0.40502148866653442,0,0,0.43596011400222778,0,0,-0.2805115282535553,0.48530998826026917,0,0.29537957906723022,0,0,0,0,0.5341343879699707,0,-0.39959648251533508],[0.34899124503135681,0,0,0,0,0,0,-0.46672752499580383,-0.10568980127573013,0,0,0,0.30715799331665039,0,-0.24229319393634796,-0.031846046447753906,0,0,0,0.39289239048957825,0,0,0,-0.34305638074874878,0.54693311452865601,0.25493195652961731,-0.28761357069015503,-0.86756086349487305,-0.35123035311698914,0,-0.013072848320007324,0.29782319068908691,0,0,0,0,0.49665772914886475,0.37224921584129333,-0.49778816103935242,1,0,0.67431145906448364,0.36174938082695007,-0.3628261387348175,0,-0.18323343992233276,-0.76097792387008667,0,0,0.1840088963508606,0.49136993288993835,0,-0.56026071310043335,0,0,-1,-0.43914476037025452,0.3390575647354126,0,0.94058716297149658,0,0.074991755187511444,0,0,0.22448016703128815,0,-0.42599520087242126,0,0,0,0,0,-0.20968973636627197,-0.51657038927078247,-0.42038336396217346,0,-0.34891745448112488,0,0.29309108853340149,-0.86410492658615112,0.1512976735830307,-0.37425541877746582,-0.38798454403877258,-0.46938294172286987,0,0.41246777772903442,-0.22171762585639954,0,-0.338337242603302,-0.29901063442230225,0,0,0,0.49836272001266479,1,-0.41058292984962463,0,0,0.46224930882453918,-0.14017951488494873,0,0,-0.68537229299545288,0.9126206636428833,0,0,0.20894847810268402,-0.43928632140159607,-0.45963335037231445,0.79561030864715576,0,0.44575107097625732,0,0.12922540307044983,-0.46195843815803528,0.75921750068664551,-0.78274500370025635,0.33648133277893066,-0.61130964756011963,-0.27339360117912292,0,-0.031456265598535538,0,-0.42754426598548889,1,-0.628379225730896,0,0,-0.45160382986068726,-1,-0.28640058636665344,0.42689931392669678,0.32222601771354675,0,-0.15895545482635498,0,-0.20842643082141876,0.2656065821647644,0,0,0,0,1,0,0,-0.039224106818437576,0.26899269223213196,0.38590046763420105,-0.3975892961025238,0.86670911312103271,0,-0.005867792759090662,-0.39096927642822266,0,0,0,0,0,0.013444256037473679,-0.96180176734924316,-0.40372109413146973,0,0,-0.33744895458221436,-0.37268739938735962,0,0,0,-0.43299046158790588,-0.15017808973789215,-0.82688033580780029,0.3712427020072937,-0.017087796702980995,0.3754427433013916,0,0.25642609596252441,-1,-0.52615511417388916,0,0,0.41349804401397705,0,0.10663612186908722,0,-0.11293169856071472,0.83411407470703125,-1,0.28248512744903564,0.53779637813568115,0,0.28059214353561401,0.36265969276428223]],"id":"716ED92E-5628-46F1-9E65-81D091AB93D8","generation":619,"biases":[[],[0.51507586240768433,-0.78068792819976807,-0.52204209566116333,-0.087424635887145996,-0.97622114419937134,1,1,-0.63255536556243896,-0.28175434470176697,0.043941497802734375,0.287354975938797,0.065826095640659332,-0.39969357848167419,-1,-0.51754546165466309,0.13738448917865753,0.20375800132751465,-0.15230081975460052,0.68347811698913574,0.23782554268836975,-1,-1,-1,-0.088293664157390594],[-0.93077385425567627,1,0.5,-0.13617435097694397,-0.5,-0.39506357908248901,0.88230705261230469,0.99719858169555664]],"inputCount":28,"hiddenCount":24,"outputCount":8},
		{"marker2":false,"marker1":false,"weights":[[],[-0.013735532760620117,0.33642891049385071,0,0,0.3615473210811615,-0.046091794967651367,0.44071954488754272,0,0,0,0,0,0.47732090950012207,0,0.36849945783615112,0,0,-0.38567814230918884,0.45044624805450439,0,0,-0.3957851231098175,0,0,0,0,0,-0.35495713353157043,-0.47214066982269287,-0.41756188869476318,0.7854454517364502,-0.89462900161743164,0.44081145524978638,-0.88537514209747314,0,0,0,0.48449793457984924,0,0,0.86446428298950195,0.30385681986808777,0.22239747643470764,-0.31813770532608032,-0.32568556070327759,-0.35824021697044373,0,-0.37895852327346802,0.25021544098854065,0,-0.28085064888000488,0,0,-0.49818971753120422,0,-0.52864944934844971,0,0.046758651733398438,0.35102495551109314,0,0,0.0087005048990249634,0,-0.42771214246749878,-0.34605726599693298,-0.24032559990882874,0,0,0.22334404289722443,0,0.43471083045005798,0,0,0,0,0.1684453934431076,-0.39765545725822449,-0.43809416890144348,-0.41219565272331238,0,0,0,0.70601820945739746,-0.38949167728424072,0,0,0,0,0.48104193806648254,0,-0.32207506895065308,0,-0.33595901727676392,-0.18240860104560852,0,0.33924919366836548,-0.76056307554244995,0.2206398993730545,-1,0.43946659564971924,0,0.97591102123260498,0,-0.2503567636013031,0,0.32217684388160706,0,-0.2456420511007309,-0.38431236147880554,0,-0.43968430161476135,0,-0.14438140392303467,0,0,0,0,-0.15698035061359406,0,0,-0.28083553910255432,0,-0.16449673473834991,0,0,0,-0.46500065922737122,-0.91374552249908447,0,0,0.88477200269699097,0,0,0,0,0,0.70803797245025635,0.41332915425300598,0,0.58944320678710938,0,-0.34498140215873718,0,0,0.40084350109100342,0,0,0,-0.34868419170379639,0.48555207252502441,-0.25756239891052246,0,0.15748870372772217,0,0,-0.84311521053314209,0.15053632855415344,0,0.37744238972663879,0.45436033606529236,0,-0.79033952951431274,0,-0.38239562511444092,1,0,-0.31197929382324219,0,0,0,-0.67988920211791992,0,0,0.40529707074165344,0,-0.53210067749023438,0,0.42668142914772034,0,-0.29770275950431824,0.47830790281295776,0,0,-0.078210353851318359,0,0,0.27570065855979919,0,0.62922108173370361,0.022935027256608009,0,0,0,0,0.46060991287231445,0,0,0,0.33212646842002869,0,0.4146285355091095,0,-0.24490547180175781,0,0,-0.35519805550575256,-0.27915665507316589,0,-0.1491989940404892,0,-0.34822416305541992,0,0,-0.4898865818977356,0.60361170768737793,0.13801892101764679,0,0,0,0,0.79303061962127686,0,0,0,0,0,0.016339235007762909,0.22278046607971191,0,-0.52190077304840088,0.34301057457923889,0,-0.46397146582603455,0.40330743789672852,0,0,0,0.34188291430473328,0,0,-0.25706225633621216,0,0,0,0,1,0.74941051006317139,0.073153972625732422,0,0,-0.49919202923774719,0,-0.83416581153869629,-0.25061413645744324,0,0.048822939395904541,-0.41356742382049561,0,-0.79850471019744873,0,0.91898107528686523,0,0.32469987869262695,-0.17636609077453613,0,0,0.54415726661682129,0,-0.0089692315086722374,0.42808109521865845,0,0,0,0,0.37675085663795471,0,0,0,0,0.81614232063293457,0,-0.91113686561584473,0,0.82852303981781006,0,0,0.47795867919921875,0,0.4650636613368988,0,0,0.40947812795639038,-0.2964608371257782,0,0,0,0,0,0.91415947675704956,0,0,0,0,-0.16471517086029053,0,0,0,0,0,0,0,-0.084572359919548035,0,-0.33478713035583496,0,0,0,0,-0.44798469543457031,0.36005085706710815,0,0,0.16231337189674377,0,0.47103717923164368,0.69012546539306641,0,0,0,0,-0.39853692054748535,-0.39612439274787903,-0.46293294429779053,0,1,0,0,0,0,0,0,0,-0.39943939447402954,0,0,0,0,0,0.45430541038513184,0,0,0,0.30605161190032959,0.046857144683599472,-0.00083220005035400391,0,0,-0.5791093111038208,-0.3647199273109436,-0.34809741377830505,0,0,-0.058526962995529175,-0.4990120530128479,0,0,0.48852300643920898,0,0.30957776308059692,-0.47208023071289062,0.27790141105651855,0,0,0,0,0,0,0,0,-0.32883322238922119,-0.34752154350280762,0,0,-0.37119826674461365,0.47745481133460999,0.31928777694702148,0.34589296579360962,0,0.52345198392868042,-0.24346967041492462,-0.38599205017089844,0,0,-0.54181766510009766,-0.039520930498838425,0,0,-0.38457581400871277,-0.28262251615524292,0.98125076293945312,-0.71399128437042236,0,0,0.30936324596405029,0,-0.45081502199172974,0.47758418321609497,-0.32005923986434937,0,0.7589644193649292,0.45988604426383972,0,0.29252055287361145,-0.22944408655166626,0,0,-0.28977423906326294,0,0,-0.31899541616439819,0.43624311685562134,-0.072596579790115356,0,0,0.91613203287124634,0.30628478527069092,0,0,0,0,-0.53305685520172119,0,0,-0.43112713098526001,-0.51902711391448975,0,-1,-0.46057796478271484,0,-0.59015846252441406,-0.36539736390113831,-0.14276021718978882,0.73110264539718628,0,0.49394401907920837,0,0,-0.41211599111557007,-0.37458077073097229,0.35884743928909302,-0.76906144618988037,0.064040780067443848,-0.99181085824966431,0,0.28784215450286865,0,0,0.24742257595062256,0,0.12638208270072937,0.70003366470336914,-0.13240428268909454,-0.3764985203742981,0.40472394227981567,0,-0.94154798984527588,-0.80947422981262207,0,-0.0054085254669189453,0.47204709053039551,-0.47415170073509216,0,0,0,0,0,0,0.36561113595962524,0,0,0,0.33404257893562317,0.79807364940643311,0,0.34966644644737244,0,0,0,0.082535877823829651,0,0,0.24722495675086975,-0.15946829319000244,0.9605710506439209,0,0,0.28268450498580933,0.012023660354316235,0,-0.70330154895782471,-0.49978348612785339,0,0,-0.13608503341674805,0,0,-0.46164476871490479,0,0,0,-0.42247968912124634,0,-0.26952895522117615,0.42961946129798889,0,0.25514018535614014,-0.32166028022766113,0,0,-0.2541009783744812,0.36645421385765076,0,0,-0.35419455170631409,0,0,0,0.42281359434127808,0,0.76078897714614868,0,0,0,-0.036751031875610352,-0.37169426679611206,-0.3855665922164917,-0.40948182344436646,0,0,0.046260412782430649,0,-0.87162315845489502,0,-0.78846168518066406,0.43147927522659302,-0.37675651907920837,-0.53197717666625977,0,0,0,-0.49282357096672058,0,0,0,0,0,0,0.053923346102237701,0,0,0,0,0,0.84524941444396973,-0.44721817970275879,-0.26283854246139526,0.20971871912479401,0.48830893635749817,0,0.31444385647773743,0,0,0.68110191822052002,0.42637655138969421,0.44206535816192627,0,0,0.41463348269462585,0.31428039073944092,0,0.27442947030067444,-0.44576933979988098,-0.39676862955093384,0,0,-0.34129941463470459,0,0,0.86244553327560425,-0.26010119915008545,0.82636559009552002,-0.1115562915802002,-0.25841057300567627,-0.49873751401901245,0,0,0,0,0.41876140236854553,-0.38039308786392212,0.49583560228347778,0.23549668490886688,-0.27662339806556702,0,0.35193955898284912,0,0,0,-0.29518675804138184,0.018366457894444466,0,0.99215251207351685,0.7744898796081543,0.40713727474212646,0,-0.10841343551874161,0,0,0,0,0.3646678626537323,0.085534907877445221,0.79611313343048096,-0.41171005368232727,0.27668464183807373,0,0.45229879021644592,0.45593857765197754,0,0,0.34526252746582031,-0.48452967405319214,0.48786658048629761,0,0,0,0,0,0.49556562304496765,0,0,0,0,0.49078470468521118,0,-0.45431298017501831,0,0,1,0,0,0,-1,0,0,0.40502148866653442,0,0,0.43596011400222778,0,0,-0.2805115282535553,0.48530998826026917,0,0.29537957906723022,0,0,0,0,0.5341343879699707,0,-0.39959648251533508],[0.34899124503135681,0,0,0,0,0,0,-0.46672752499580383,-0.10568980127573013,0,0,0,0.30715799331665039,0,-0.24229319393634796,-0.031846046447753906,0,0,0,0.39289239048957825,0,0,0,-0.34305638074874878,0.54693311452865601,0.25493195652961731,-0.28761357069015503,-0.86756086349487305,-0.35123035311698914,0,-0.013072848320007324,0.29782319068908691,0,0,0,0,0.49665772914886475,0.37224921584129333,-0.49778816103935242,1,0,0.67431145906448364,0.36174938082695007,-0.3628261387348175,0,-0.18323343992233276,-0.76097792387008667,0,0,0.1840088963508606,0.49136993288993835,0,-0.56026071310043335,0,0,-1,-0.43914476037025452,0.3390575647354126,0,0.94058716297149658,0,0.074991755187511444,0,0,0.22448016703128815,0,-0.42599520087242126,0,0,0,0,0,-0.20968973636627197,-0.51657038927078247,-0.42038336396217346,0,-0.34891745448112488,0,0.29309108853340149,-0.86410492658615112,0.1512976735830307,-0.37425541877746582,-0.38798454403877258,-0.46938294172286987,0,0.41246777772903442,-0.22171762585639954,0,-0.338337242603302,-0.29901063442230225,0,0,0,0.49836272001266479,1,-0.41058292984962463,0,0,0.46224930882453918,-0.14017951488494873,0,0,-0.68537229299545288,0.9126206636428833,0,0,0.20894847810268402,-0.43928632140159607,-0.45963335037231445,0.79561030864715576,0,0.44575107097625732,0,0.12922540307044983,-0.46195843815803528,0.75921750068664551,-0.78274500370025635,0.33648133277893066,-0.61130964756011963,-0.27339360117912292,0,-0.031456265598535538,0,-0.42754426598548889,1,-0.628379225730896,0,0,-0.45160382986068726,-1,-0.28640058636665344,0.42689931392669678,0.32222601771354675,0,-0.15895545482635498,0,-0.20842643082141876,0.2656065821647644,0,0,0,0,1,0,0,-0.039224106818437576,0.26899269223213196,0.38590046763420105,-0.3975892961025238,0.86670911312103271,0,-0.005867792759090662,-0.39096927642822266,0,0,0,0,0,0.013444256037473679,-0.96180176734924316,-0.40372109413146973,0,0,-0.33744895458221436,-0.37268739938735962,0,0,0,-0.43299046158790588,-0.15017808973789215,-0.82688033580780029,0.3712427020072937,-0.017087796702980995,0.3754427433013916,0,0,-1,-0.52615511417388916,0,0,0.41349804401397705,0,0.10663612186908722,0,-0.46685850620269775,0.83411407470703125,-1,0.28248512744903564,0.53779637813568115,0,0.28059214353561401,0.36265969276428223]],"id":"8726F5FC-71DE-4183-A228-90EE3EFA5F22","generation":618,"biases":[[],[0.51507586240768433,-0.78068792819976807,-0.52204209566116333,-0.087424635887145996,-0.97622114419937134,1,1,-0.63255536556243896,-0.28175434470176697,0.043941497802734375,0.287354975938797,0.065826095640659332,-0.39969357848167419,-1,-0.51754546165466309,0.13738448917865753,0.20375800132751465,-0.15230081975460052,0.68347811698913574,0.11891277134418488,-1,-1,-1,-0.17658732831478119],[-0.93077385425567627,1,0.5,0.23754239082336426,-0.5,-0.39506357908248901,0.88230705261230469,0.99719858169555664]],"inputCount":28,"hiddenCount":24,"outputCount":8},
		{"marker2":false,"marker1":false,"weights":[[],[-0.013735532760620117,0.33642891049385071,0,0,0.3615473210811615,-0.046091794967651367,0.44071954488754272,0,0,0,0,0,0.47732090950012207,0,0.36849945783615112,0,0,-0.38567814230918884,0.45044624805450439,0,0,-0.3957851231098175,0,0,0,0,0,-0.35495713353157043,-0.47214066982269287,-0.41756188869476318,0.7854454517364502,-0.89462900161743164,0.44081145524978638,-0.88537514209747314,0,0,0,0.48449793457984924,0,0,0.86446428298950195,0.30385681986808777,0.22239747643470764,-0.31813770532608032,-0.32568556070327759,-0.35824021697044373,0,-0.37895852327346802,0.25021544098854065,0,-0.28085064888000488,0,0,-0.49818971753120422,0,-0.52864944934844971,0,0.046758651733398438,0.35102495551109314,0,0,0.0087005048990249634,0,-0.42771214246749878,-0.34605726599693298,-0.24032559990882874,0,0,0.22334404289722443,0,0.43471083045005798,0,0,0,0,0.1684453934431076,-0.39765545725822449,-0.43809416890144348,-0.41219565272331238,0,0,0,0.70601820945739746,-0.38949167728424072,0,0,0,0,0.48104193806648254,0,-0.32207506895065308,0,-0.33595901727676392,-0.18240860104560852,0,0.33924919366836548,-0.76056307554244995,0.2206398993730545,-1,0.43946659564971924,0,0.97591102123260498,0,-0.2503567636013031,0,0.32217684388160706,0,-0.2456420511007309,-0.38431236147880554,0,-0.43968430161476135,0,-0.14438140392303467,0,0,0,0,-0.15698035061359406,0,0,-0.28083553910255432,0,-0.16449673473834991,0,0,0,-0.46500065922737122,-0.91374552249908447,0,0,0.88477200269699097,0,0,0,0,0,0.70803797245025635,0.41332915425300598,0,0.58944320678710938,0,-0.34498140215873718,0,0,0.40084350109100342,0,0,0,-0.34868419170379639,0.48555207252502441,-0.25756239891052246,0,0.15748870372772217,0,0,-0.84311521053314209,0.15053632855415344,0,0.37744238972663879,0.45436033606529236,0,-0.79033952951431274,0,-0.38239562511444092,0.71446919441223145,0,-0.31197929382324219,0,0,0,-0.67988920211791992,0,0,0.40529707074165344,0,-0.73644208908081055,0,0.42668142914772034,0,-0.29770275950431824,0.47830790281295776,0,0,-0.078210353851318359,0,0,0.27570065855979919,0,0.96563643217086792,0.022935027256608009,0,0,0,0,0.46060991287231445,0,0,0,0.33212646842002869,0,0.4146285355091095,0,-0.24490547180175781,0,0,-0.35519805550575256,-0.27915665507316589,0,-0.1491989940404892,0,-0.34822416305541992,0,0,-0.4898865818977356,0.60361170768737793,0.13801892101764679,0,0,0,0,0.79303061962127686,0,0,0,0,0,0.016339235007762909,0.22278046607971191,0,-0.52190077304840088,0.34301057457923889,0,-0.46397146582603455,0.40330743789672852,0,0,0,0.34188291430473328,0,0,-0.25706225633621216,0,0,0,0,1,0.74941051006317139,0.073153972625732422,0,0,-0.49919202923774719,0,-0.83416581153869629,-0.25061413645744324,0,0.048822939395904541,-0.41356742382049561,0,-0.79850471019744873,0,0.91898107528686523,0,0.32469987869262695,-0.17636609077453613,0,0,0.54415726661682129,0,-0.0089692315086722374,0.42808109521865845,0,0,0,0,0.37675085663795471,0,0,0,0,0.81614232063293457,0,-0.91113686561584473,0,0.82852303981781006,0,0,0.47795867919921875,0,0.4650636613368988,0,0,0.40947812795639038,-0.2964608371257782,0,0,0,0,0,0.91415947675704956,0,0,0,0,-0.16471517086029053,0,0,0,0,0,0,0,-0.084572359919548035,0,-0.33478713035583496,0,0,0,0,-0.44798469543457031,0.36005085706710815,0,0,0.16231337189674377,0,0.47103717923164368,0.69012546539306641,0,0,0,0,-0.39853692054748535,-0.39612439274787903,-0.46293294429779053,0,1,0,0,0,0,0,0,0,-0.39943939447402954,0,0,0,0,0,0.45430541038513184,0,0,0,0.30605161190032959,0.046857144683599472,-0.00083220005035400391,0,0,-0.5791093111038208,-0.3647199273109436,-0.34809741377830505,0.55578100681304932,0,-0.058526962995529175,-0.4990120530128479,0,0,0.48852300643920898,0,0.30957776308059692,-0.47208023071289062,0.27790141105651855,0,0,0,0,0,0,0,0,-0.32883322238922119,-0.34752154350280762,0,0,-0.37119826674461365,0.47745481133460999,0.31928777694702148,0.34589296579360962,0,0.52345198392868042,-0.24346967041492462,-0.38599205017089844,0,0,-0.54181766510009766,-0.039520930498838425,0,0,-0.38457581400871277,-0.28262251615524292,0.98125076293945312,-0.71399128437042236,0,0,0.30936324596405029,0,-0.45081502199172974,0.47758418321609497,-0.32005923986434937,0,0.34496590495109558,0.45988604426383972,0,0.29252055287361145,-0.22944408655166626,0,0,-0.28977423906326294,0,0,-0.31899541616439819,0.43624311685562134,-0.072596579790115356,0,0,0.91613203287124634,0.30628478527069092,0,0,0,0,-0.53305685520172119,0,0,-0.43112713098526001,-0.51902711391448975,0,-1,-0.46057796478271484,0,-0.59015846252441406,-0.36539736390113831,-0.14276021718978882,0.73110264539718628,0,0.49394401907920837,0,0,-0.41211599111557007,-0.37458077073097229,0.35884743928909302,-0.76906144618988037,0.064040780067443848,-0.99181085824966431,0,0.28784215450286865,0,0,0.24742257595062256,0,0.12638208270072937,0.70003366470336914,-0.13240428268909454,-0.3764985203742981,0.40472394227981567,0,-0.94154798984527588,-0.80947422981262207,0,-0.0054085254669189453,0.47204709053039551,-0.47415170073509216,0,0,0,0,0,0,0.36561113595962524,0,0,0,0.33404257893562317,0.79807364940643311,0,0.34966644644737244,0,0,0,0.082535877823829651,0,0,0.24722495675086975,-0.15946829319000244,0.9605710506439209,0.34254178404808044,0,0.28268450498580933,0.012023660354316235,0,-0.70330154895782471,-0.49978348612785339,0,0,-0.13608503341674805,0,0,-0.46164476871490479,0,0,-0.4442976713180542,-0.42247968912124634,0,-0.26952895522117615,0.42961946129798889,0,0.25514018535614014,-0.32166028022766113,0,0,-0.2541009783744812,0.36645421385765076,0,0,-0.35419455170631409,0,0,0,0.42281359434127808,0,0.76078897714614868,0,0,0,-0.036751031875610352,-0.37169426679611206,-0.3855665922164917,-0.40948182344436646,0,0,0.046260412782430649,0,-0.87162315845489502,0,-0.78846168518066406,0.43147927522659302,-0.37675651907920837,-0.53197717666625977,0,0,0,0,0,0,0,0,0,0,0.053923346102237701,0,0,0,0,0,0.84524941444396973,-0.85628914833068848,-0.26283854246139526,0.20971871912479401,0.48830893635749817,0,0.31444385647773743,0,0,0.68110191822052002,0.42637655138969421,0.44206535816192627,0,0,0.41463348269462585,0.31428039073944092,0,0.27442947030067444,-0.44576933979988098,-0.39676862955093384,0,0,-0.34129941463470459,0,0,0.86244553327560425,-0.26010119915008545,0.82636559009552002,-0.1115562915802002,-0.25841057300567627,-0.49873751401901245,0,0,0,0,0.41876140236854553,-0.38039308786392212,0.49583560228347778,0.23549668490886688,-0.27662339806556702,0,0.35193955898284912,0,0,0,-0.29518675804138184,0.018366457894444466,0,0.99215251207351685,0.7744898796081543,0.40713727474212646,0,-0.10841343551874161,0,0,0,0,0.3646678626537323,0.085534907877445221,0.79611313343048096,-0.41171005368232727,0.27668464183807373,0,0.45229879021644592,0.45593857765197754,0,0,0.34526252746582031,-0.48452967405319214,0.48786658048629761,0,0,0,0,0,0.49556562304496765,0,0,0,0,0.49078470468521118,0,-0.45431298017501831,0,0,1,0,0,0,-1,-0.45393171906471252,0,0.40502148866653442,0,0,0.43596011400222778,0,0,-0.2805115282535553,0.48530998826026917,0,0.29537957906723022,0,0,0,0,0.5341343879699707,0,-0.39959648251533508],[0.34899124503135681,0,0,0,0,0,0,-0.46672752499580383,-0.10568980127573013,0,0,0,0.30715799331665039,0,-0.24229319393634796,-0.031846046447753906,0,0,0,0.39289239048957825,0,0,0,-0.34305638074874878,0.54693311452865601,0.25493195652961731,-0.28761357069015503,-0.86756086349487305,-0.35123035311698914,0,-0.013072848320007324,0.29782319068908691,0,0,0,0,0.49665772914886475,0.37224921584129333,-0.49778816103935242,1,0,0.67431145906448364,0.36174938082695007,-0.3628261387348175,0,-0.18323343992233276,-0.76097792387008667,0,0,0.1840088963508606,0.49136993288993835,0,-0.56026071310043335,0,0,-1,-0.43914476037025452,0.3390575647354126,0,0.94058716297149658,0,0.074991755187511444,0,0,0.22448016703128815,0,-0.42599520087242126,0,0,0,0,0,-0.20968973636627197,-0.51657038927078247,-0.42038336396217346,0,-0.34891745448112488,0,0.29309108853340149,-0.86410492658615112,0.1512976735830307,-0.37425541877746582,-0.38798454403877258,-0.46938294172286987,0,0.41246777772903442,-0.22171762585639954,0,-0.338337242603302,-0.29901063442230225,0,0,0,0.49836272001266479,1,-0.41058292984962463,0,0,0.46224930882453918,-0.14017951488494873,0,0,-0.68537229299545288,0.9126206636428833,0,0,0.20894847810268402,-0.43928632140159607,-0.45963335037231445,0.79561030864715576,0,0.44575107097625732,0,0.12922540307044983,-0.46195843815803528,0.75921750068664551,-0.78274500370025635,0.33648133277893066,-0.61130964756011963,-0.27339360117912292,0,-0.031456265598535538,0,-0.42754426598548889,1,-0.628379225730896,0,0,-0.45160382986068726,-1,-0.28640058636665344,0.42689931392669678,0.32222601771354675,0,-0.15895545482635498,0,-0.20842643082141876,0.2656065821647644,0,0,0,0,1,0,0,-0.039224106818437576,0.26899269223213196,0.38590046763420105,-0.3975892961025238,0.86670911312103271,0,-0.005867792759090662,-0.39096927642822266,0,0,0,0,0,0.013444256037473679,-0.96180176734924316,-0.40372109413146973,0,0,-0.33744895458221436,-0.37268739938735962,0,0,0,-0.43299046158790588,-0.15017808973789215,-0.82688033580780029,0.3712427020072937,-0.017087796702980995,0.3754427433013916,0,0.25642609596252441,-1,-0.52615511417388916,0,0,0.41349804401397705,0,0.10663612186908722,0,-0.46685850620269775,0.83411407470703125,-1,0.28248512744903564,0.53779637813568115,0,0.28059214353561401,0.36265969276428223]],"id":"921634D2-C73F-48F1-9491-C335F7E32FB4","generation":619,"biases":[[],[0.51507586240768433,-0.78068792819976807,-0.52204209566116333,-0.087424635887145996,-0.97622114419937134,1,1,-0.63255536556243896,-0.28175434470176697,0.043941497802734375,0.287354975938797,0.065826095640659332,-0.39969357848167419,-1,-0.51754546165466309,0.13738448917865753,0.20375800132751465,-0.15230081975460052,0.68347811698913574,0.23782554268836975,-1,-1,-1,0.24040074646472931],[-0.93077385425567627,1,0.5,-0.13617435097694397,-0.5,-0.39506357908248901,0.88230705261230469,0.99719858169555664]],"inputCount":28,"hiddenCount":24,"outputCount":8},
		{"marker2":false,"marker1":false,"weights":[[],[-0.013735532760620117,0.33642891049385071,0,0,0.3615473210811615,-0.046091794967651367,0.44071954488754272,0,0,0,0,0,0.47732090950012207,0,0.36849945783615112,0,0,-0.38567814230918884,0.45044624805450439,0,0,-0.3957851231098175,0,0,0,0,0,-0.35495713353157043,-0.47214066982269287,-0.41756188869476318,0.7854454517364502,-0.89462900161743164,0.44081145524978638,-0.88537514209747314,0,0,0,0.48449793457984924,0,0,0.86446428298950195,0.30385681986808777,0.22239747643470764,-0.31813770532608032,-0.32568556070327759,-0.35824021697044373,0,-0.37895852327346802,0.25021544098854065,0,-0.28085064888000488,0,0,-0.49818971753120422,0,-0.52864944934844971,0,0.046758651733398438,0.35102495551109314,0,0,0.0087005048990249634,0,-0.42771214246749878,-0.34605726599693298,-0.24032559990882874,0,0,0.22334404289722443,0,0.43471083045005798,0,0,0,0,0.1684453934431076,-0.39765545725822449,-0.43809416890144348,-0.41219565272331238,0,0,0,0.70601820945739746,-0.38949167728424072,0,0,0,0,0.48104193806648254,0,-0.32207506895065308,0,-0.33595901727676392,-0.18240860104560852,0,0.33924919366836548,-0.76056307554244995,0.2206398993730545,-1,0.43946659564971924,0,0.97591102123260498,0,-0.2503567636013031,0,0.32217684388160706,0,-0.2456420511007309,-0.38431236147880554,0,-0.43968430161476135,0,-0.14438140392303467,0,0,0,0,-0.15698035061359406,0,0,-0.28083553910255432,0,-0.16449673473834991,0,0,0,-0.46500065922737122,-0.91374552249908447,0,0,0.88477200269699097,0,0,0,0,0,0.97953063249588013,0.41332915425300598,0,0.58944320678710938,0,-0.34498140215873718,0,0,0.40084350109100342,0,0,0,-0.34868419170379639,0.48555207252502441,-0.25756239891052246,0,0.15748870372772217,0,0,-0.84311521053314209,0.15053632855415344,0,0.37744238972663879,0.45436033606529236,0,-0.79033952951431274,0,-0.38239562511444092,0.71446919441223145,0,-0.31197929382324219,0,0,0,-0.67988920211791992,0,0,0.40529707074165344,0,-0.73644208908081055,0,0.42668142914772034,0,-0.29770275950431824,0.47830790281295776,0,0,-0.078210353851318359,0,0,0.27570065855979919,0,0.62922108173370361,0.022935027256608009,0,0,0,0,0.46060991287231445,0,0,0,0.33212646842002869,0,0.4146285355091095,0,-0.24490547180175781,0,0,-0.35519805550575256,-0.27915665507316589,0,-0.1491989940404892,0,-0.34822416305541992,0,0,-0.4898865818977356,0.60361170768737793,0.13801892101764679,0,0,0,0,0.79303061962127686,0,0,0,0,0,0.016339235007762909,0.22278046607971191,0,-0.52190077304840088,0.34301057457923889,0,-0.46397146582603455,0.40330743789672852,0,0,0,0.34188291430473328,0,0,-0.25706225633621216,0,0,0,0,1,0.74941051006317139,0.073153972625732422,0,0,-0.49919202923774719,0,-0.83416581153869629,-0.25061413645744324,0,0.048822939395904541,-0.41356742382049561,0,-0.79850471019744873,0,0.91898107528686523,0,0.32469987869262695,-0.17636609077453613,0,0,0.54415726661682129,0,-0.0089692315086722374,0.42808109521865845,0,0,0,0,0.37675085663795471,0,0,0,0,0.81614232063293457,0,-0.91113686561584473,0,0.82852303981781006,0,0,0.47795867919921875,0,0.4650636613368988,0,0,0.40947812795639038,-0.2964608371257782,0,0,0,0,0,0.91415947675704956,0,0,0,0,-0.16471517086029053,0,0,0,0,0,0,0,-0.084572359919548035,0,-0.33478713035583496,0,0,0,0,-0.44798469543457031,0.36005085706710815,0,0,0.16231337189674377,0,0.47103717923164368,0.69012546539306641,0,0,0,0,-0.39853692054748535,-0.39612439274787903,-0.46293294429779053,0,1,0,0,0,0,0,0,0,-0.39943939447402954,0,0,0,0,0,0.45430541038513184,0,0,0,0.30605161190032959,0.046857144683599472,-0.00083220005035400391,0,0,-0.5791093111038208,-0.3647199273109436,-0.34809741377830505,0.55578100681304932,0,-0.058526962995529175,-0.4990120530128479,0,0,0.48852300643920898,0,0.30957776308059692,-0.47208023071289062,0.27790141105651855,0,0,0,0,0,0,0,0,-0.32883322238922119,-0.34752154350280762,0,0,-0.37119826674461365,0.47745481133460999,0.31928777694702148,0.34589296579360962,0,0.52345198392868042,-0.24346967041492462,-0.38599205017089844,0,0,-0.54181766510009766,-0.039520930498838425,0,0,-0.38457581400871277,-0.28262251615524292,0.98125076293945312,-0.71399128437042236,0,0,0.30936324596405029,0,-0.45081502199172974,0.47758418321609497,-0.32005923986434937,0,0.34496590495109558,0.45988604426383972,0,0.29252055287361145,-0.22944408655166626,0,0,-0.28977423906326294,0,0,-0.31899541616439819,0.43624311685562134,-0.072596579790115356,0,0,0.91613203287124634,0.30628478527069092,0,0,0,0,-0.53305685520172119,0,0,-0.43112713098526001,-0.51902711391448975,0,-1,-0.46057796478271484,0,-0.59015846252441406,-0.36539736390113831,-0.14276021718978882,0.73110264539718628,0,0.49394401907920837,0,0,-0.41211599111557007,-0.37458077073097229,0.35884743928909302,-0.76906144618988037,0.064040780067443848,-0.99181085824966431,0,0.28784215450286865,0,0,0.24742257595062256,0,0.12638208270072937,0.70003366470336914,-0.13240428268909454,-0.3764985203742981,0.40472394227981567,0,-0.94154798984527588,-0.80947422981262207,0,-0.0054085254669189453,0.47204709053039551,-0.47415170073509216,0,0,0,0,0,0,0.36561113595962524,0,0,0,0.33404257893562317,0.79807364940643311,0,0.34966644644737244,0,0,0,0.082535877823829651,0,0,0.24722495675086975,-0.15946829319000244,0.9605710506439209,0,0,0.28268450498580933,0.012023660354316235,0,-0.70330154895782471,-0.49978348612785339,0,0,-0.13608503341674805,0,0,-0.46164476871490479,0,0,0,-0.42247968912124634,0,-0.26952895522117615,0.42961946129798889,0,0.25514018535614014,-0.32166028022766113,0,0,-0.2541009783744812,0.36645421385765076,0,0,-0.35419455170631409,0,0,0,0.42281359434127808,0,0.76078897714614868,0,0,0,-0.036751031875610352,-0.37169426679611206,-0.3855665922164917,-0.40948182344436646,0,0,0.046260412782430649,0,-0.87162315845489502,0,-0.78846168518066406,0.43147927522659302,-0.37675651907920837,-0.53197717666625977,0,0,0,0,0,0,0,0,0,0,0.053923346102237701,0,0,0,0,0,0.84524941444396973,-0.85628914833068848,-0.26283854246139526,0.20971871912479401,0.48830893635749817,0,0.31444385647773743,0,0,0.68110191822052002,0.42637655138969421,0.44206535816192627,0,0,0.41463348269462585,0.31428039073944092,0,0.27442947030067444,-0.44576933979988098,-0.39676862955093384,0,0,-0.34129941463470459,0,0,0.86244553327560425,-0.26010119915008545,0.82636559009552002,-0.1115562915802002,-0.25841057300567627,-0.49873751401901245,0,0,0,0,0.41876140236854553,-0.38039308786392212,0.49583560228347778,0.23549668490886688,-0.27662339806556702,0,0.35193955898284912,0,0,0,-0.29518675804138184,0.018366457894444466,0,0.99215251207351685,0.7744898796081543,0.40713727474212646,0,-0.10841343551874161,0,0,0,0,0.3646678626537323,0.085534907877445221,0.79611313343048096,-0.41171005368232727,0.27668464183807373,0,0.45229879021644592,0.45593857765197754,0,0,0.34526252746582031,-0.48452967405319214,0.48786658048629761,0,0,0,0,0,0.49556562304496765,0,0,0,0,0.49078470468521118,0,-0.45431298017501831,0,0,1,0,0,0,-1,-0.45393171906471252,0,0.40502148866653442,0,0,0.43596011400222778,0,0,-0.2805115282535553,0.48530998826026917,0,0.29537957906723022,0,0,0,0,0.5341343879699707,0,-0.39959648251533508],[0.34899124503135681,0,0,0,0,0,0,-0.46672752499580383,-0.10568980127573013,0,0,0,0.30715799331665039,0,-0.24229319393634796,-0.031846046447753906,0,0,0,0.39289239048957825,0,0,0,-0.34305638074874878,0.54693311452865601,0.25493195652961731,-0.28761357069015503,-0.86756086349487305,-0.35123035311698914,0,-0.013072848320007324,0.29782319068908691,0,0,0,0,0.49665772914886475,0.37224921584129333,-0.49778816103935242,1,0,0.67431145906448364,0.36174938082695007,-0.3628261387348175,0,-0.18323343992233276,-0.76097792387008667,0,0,0.1840088963508606,0.49136993288993835,0,-0.56026071310043335,0,0,-1,-0.43914476037025452,0.3390575647354126,0,0.94058716297149658,0,0.074991755187511444,0,0,0.22448016703128815,0,-0.42599520087242126,0,0,0,0,0,-0.20968973636627197,-0.51657038927078247,-0.42038336396217346,0,-0.34891745448112488,0,0.29309108853340149,-0.86410492658615112,0.1512976735830307,-0.37425541877746582,-0.38798454403877258,-0.46938294172286987,0,0.41246777772903442,-0.22171762585639954,0,-0.338337242603302,-0.29901063442230225,0,0,0,0.49836272001266479,1,-0.41058292984962463,0,0,0.46224930882453918,-0.14017951488494873,0,0,-0.68537229299545288,0.9126206636428833,0,0,0.20894847810268402,-0.43928632140159607,-0.45963335037231445,0.79561030864715576,0,0.44575107097625732,0,0.12922540307044983,-0.46195843815803528,0.75921750068664551,-0.78274500370025635,0.33648133277893066,-0.61130964756011963,-0.27339360117912292,0,-0.031456265598535538,0,-0.42754426598548889,1,-0.628379225730896,0,0,-0.45160382986068726,-1,-0.28640058636665344,0.42689931392669678,0.32222601771354675,0,-0.15895545482635498,0,-0.20842643082141876,0.2656065821647644,0,0,0,0,1,0,0,-0.039224106818437576,0.26899269223213196,0.38590046763420105,-0.3975892961025238,0.86670911312103271,0,-0.005867792759090662,-0.39096927642822266,0,0,0,0,0,0.013444256037473679,-0.96180176734924316,-0.40372109413146973,0,0,-0.33744895458221436,-0.37268739938735962,0,0,0,-0.43299046158790588,-0.15017808973789215,-0.82688033580780029,0.3712427020072937,-0.017087796702980995,0.3754427433013916,0,0.25642609596252441,-1,-0.52615511417388916,0,0,0.41349804401397705,0,0.10663612186908722,0,-0.46685850620269775,0.83411407470703125,-1,0.28248512744903564,0.53779637813568115,0,0.28059214353561401,0.36265969276428223]],"id":"C0EFDF8D-8D65-402C-8564-74210694B12B","generation":618,"biases":[[],[0.51507586240768433,-0.78068792819976807,-0.52204209566116333,-0.087424635887145996,-0.97622114419937134,1,1,-0.63255536556243896,-0.28175434470176697,0.043941497802734375,0.287354975938797,0.065826095640659332,-0.39969357848167419,-1,-0.51754546165466309,0.13738448917865753,0.20375800132751465,-0.15230081975460052,0.68347811698913574,0.23782554268836975,-1,-1,-1,-0.088293664157390594],[-0.93077385425567627,1,0.5,-0.13617435097694397,-0.5,-0.39506357908248901,0.88230705261230469,0.99719858169555664]],"inputCount":28,"hiddenCount":24,"outputCount":8},
		{"marker2":false,"marker1":false,"weights":[[],[-0.013735532760620117,0.33642891049385071,0,0,0.3615473210811615,-0.046091794967651367,0.44071954488754272,0,0,0,0,0,0.47732090950012207,0,0.36849945783615112,0,0,-0.38567814230918884,0.45044624805450439,0,0,-0.3957851231098175,0,0,0,0,0,-0.35495713353157043,-0.47214066982269287,-0.41756188869476318,0.7854454517364502,-0.89462900161743164,0.44081145524978638,-0.88537514209747314,0,0,0,0.48449793457984924,0,0,0.86446428298950195,0.30385681986808777,0.22239747643470764,-0.31813770532608032,-0.32568556070327759,-0.35824021697044373,0,-0.37895852327346802,0.25021544098854065,0,-0.28085064888000488,0,0,-0.49818971753120422,0,-0.52864944934844971,0,0.046758651733398438,0.35102495551109314,0,0,0.0087005048990249634,0,-0.42771214246749878,-0.34605726599693298,-0.24032559990882874,0,0,0.22334404289722443,0,0.43471083045005798,0,0,0,0,0.1684453934431076,-0.39765545725822449,-0.43809416890144348,-0.41219565272331238,0,0,0,0.70601820945739746,-0.38949167728424072,0,0,0,0,0.48104193806648254,0,-0.32207506895065308,0,-0.33595901727676392,-0.18240860104560852,0,0.33924919366836548,-0.76056307554244995,0.2206398993730545,-1,0.43946659564971924,0,0.97591102123260498,0,-0.2503567636013031,0,0.32217684388160706,0,-0.2456420511007309,-0.38431236147880554,0,-0.43968430161476135,0,-0.14438140392303467,0,0,0,0,-0.15698035061359406,0,0,-0.28083553910255432,0,-0.16449673473834991,0,0,0,-0.46500065922737122,-0.91374552249908447,0,0,0.88477200269699097,0,0,0,0,0,0.70803797245025635,0.41332915425300598,0,0.58944320678710938,0,-0.34498140215873718,0,0,0.40084350109100342,0,0,0,-0.34868419170379639,0.48555207252502441,-0.25756239891052246,0,0.15748870372772217,0,0,-0.84311521053314209,0.15053632855415344,0,0.37744238972663879,0.45436033606529236,0,-0.79033952951431274,0,-0.38239562511444092,0.71446919441223145,0,-0.31197929382324219,0,0,0,-0.67988920211791992,0,0,0.40529707074165344,0,-0.73644208908081055,0,0.42668142914772034,0,-0.29770275950431824,0.47830790281295776,0,0,-0.078210353851318359,0,0,0.27570065855979919,0,0.96563643217086792,0.022935027256608009,0,0,0,0,0.46060991287231445,0,0,0,0.33212646842002869,0,0.4146285355091095,0,-0.24490547180175781,0,0,-0.35519805550575256,0.60239529609680176,0,-0.1491989940404892,0,-0.34822416305541992,0,0,-0.4898865818977356,0.60361170768737793,0.13801892101764679,0,0,0,0,0.79303061962127686,0,0,0,0,0,0.016339235007762909,0.22278046607971191,0,-0.52190077304840088,0.34301057457923889,0,-0.46397146582603455,0.40330743789672852,0,0,0,0.34188291430473328,0,0,-0.25706225633621216,0,0,0,0,1,0.74941051006317139,0.073153972625732422,0,0,-0.49919202923774719,0,-0.83416581153869629,-0.25061413645744324,0,0.048822939395904541,-0.41356742382049561,0,-0.79850471019744873,0,0.91898107528686523,0,0.32469987869262695,-0.17636609077453613,0,0,0.54415726661682129,0,-0.0089692315086722374,0.42808109521865845,0,0,0,0,0.37675085663795471,0,0,0,0,0.81614232063293457,0,-0.91113686561584473,0,0.82852303981781006,0,0,0.47795867919921875,0,0.4650636613368988,0,0,0.40947812795639038,-0.2964608371257782,0,0,0,0,0,0.91415947675704956,0,0,0,0,-0.16471517086029053,0,0,0,0,0,0,0,-0.084572359919548035,0,-0.33478713035583496,0,0,0,0,-0.44798469543457031,0.36005085706710815,0,0,0.16231337189674377,0,0.47103717923164368,0.69012546539306641,0,0,0,0,-0.39853692054748535,-0.39612439274787903,-0.46293294429779053,0,1,0,0,0,0,0,0,0,-0.39943939447402954,0,0,0,0,0,0.45430541038513184,0,0,0,0.30605161190032959,0.046857144683599472,-0.00083220005035400391,0,0,-0.5791093111038208,-0.3647199273109436,-0.34809741377830505,0.55578100681304932,0,-0.058526962995529175,-0.4990120530128479,0,0,0.48852300643920898,0,0.30957776308059692,-0.47208023071289062,0.27790141105651855,0,0,0,0,0,0,0,0,-0.32883322238922119,-0.34752154350280762,0,0,-0.37119826674461365,0.47745481133460999,0.31928777694702148,0.34589296579360962,0,0.52345198392868042,-0.24346967041492462,-0.38599205017089844,0,0,-0.54181766510009766,-0.039520930498838425,0,0,-0.38457581400871277,-0.28262251615524292,0.98125076293945312,-0.71399128437042236,0,0,0.30936324596405029,0,-0.45081502199172974,0.47758418321609497,-0.32005923986434937,0,0.34496590495109558,0.45988604426383972,0,0.29252055287361145,-0.22944408655166626,0,0,-0.28977423906326294,0,0,-0.31899541616439819,0.43624311685562134,-0.072596579790115356,0,0,0.91613203287124634,0.30628478527069092,0,0,0,0,-0.53305685520172119,0,0,-0.43112713098526001,-0.51902711391448975,0,-1,-0.46057796478271484,0,-0.59015846252441406,-0.36539736390113831,-0.14276021718978882,0.73110264539718628,0,0.49394401907920837,0,0,-0.41211599111557007,-0.37458077073097229,0.35884743928909302,-0.76906144618988037,0.064040780067443848,-0.99181085824966431,0,0.28784215450286865,0,0,0.24742257595062256,0,0.12638208270072937,0.70003366470336914,-0.13240428268909454,-0.3764985203742981,0.40472394227981567,0,-0.94154798984527588,-0.80947422981262207,0,-0.0054085254669189453,0.47204709053039551,-0.47415170073509216,0,0,0,0,0,0,0.36561113595962524,0,0,0,0.33404257893562317,0.79807364940643311,0,0.34966644644737244,0,0,0,0.082535877823829651,0,0,0.24722495675086975,-0.15946829319000244,0.9605710506439209,0.34254178404808044,0,0.28268450498580933,0.012023660354316235,0,-0.70330154895782471,-0.49978348612785339,0,0,-0.13608503341674805,0,0,-0.46164476871490479,0,0,-0.4442976713180542,-0.42247968912124634,0,-0.26952895522117615,0.42961946129798889,0,0.25514018535614014,-0.32166028022766113,0,0,-0.2541009783744812,0.36645421385765076,0,0,-0.35419455170631409,0,0,0,0.42281359434127808,0,0.76078897714614868,0,0,0,-0.036751031875610352,-0.37169426679611206,-0.3855665922164917,-0.40948182344436646,0,0,0.046260412782430649,0,-0.87162315845489502,0,-0.78846168518066406,0.43147927522659302,-0.37675651907920837,-0.53197717666625977,0,0,0,0,0,0,0,0,0,0,0.053923346102237701,0,0,0,0,0,0.84524941444396973,-0.85628914833068848,-0.26283854246139526,0.20971871912479401,0.48830893635749817,0,0.31444385647773743,0,0,0.68110191822052002,0.42637655138969421,0.44206535816192627,0,0,0.41463348269462585,0.31428039073944092,0,0.27442947030067444,-0.44576933979988098,-0.39676862955093384,0,0,-0.34129941463470459,0,0,0.86244553327560425,-0.26010119915008545,0.82636559009552002,-0.1115562915802002,-0.25841057300567627,-0.49873751401901245,0,0,0,0,0.41876140236854553,-0.38039308786392212,0.49583560228347778,0.23549668490886688,-0.27662339806556702,0,0.35193955898284912,0,0,0,-0.29518675804138184,0.018366457894444466,0,0.99215251207351685,0.7744898796081543,0.40713727474212646,0,-0.10841343551874161,0,0,0,0,0.3646678626537323,0.085534907877445221,0.79611313343048096,-0.41171005368232727,0.27668464183807373,0,0.45229879021644592,0.45593857765197754,0,0,0.34526252746582031,-0.48452967405319214,0.48786658048629761,0,0,0,0,0,0.49556562304496765,0,0,0,0,0.49078470468521118,0,-0.45431298017501831,0,0,1,0,0,0,-1,-0.45393171906471252,0,0.40502148866653442,0,0,0.43596011400222778,0,0,-0.2805115282535553,0.48530998826026917,0,0.29537957906723022,0,0,0,0,0.5341343879699707,0,-0.39959648251533508],[0.34899124503135681,0,0,0,0,0,0,-0.46672752499580383,-0.10568980127573013,0,0,0,0.30715799331665039,0,-0.24229319393634796,-0.031846046447753906,0,0,0,0.39289239048957825,0,0,0,-0.34305638074874878,0.54693311452865601,0.25493195652961731,-0.28761357069015503,-0.86756086349487305,-0.35123035311698914,0,-0.013072848320007324,0.29782319068908691,0,0,0,0,0.49665772914886475,0.37224921584129333,-0.49778816103935242,1,0,0.67431145906448364,0.36174938082695007,-0.3628261387348175,0,-0.18323343992233276,-0.76097792387008667,0,0,0.1840088963508606,0.49136993288993835,0,-0.56026071310043335,0,0,-1,-0.43914476037025452,0.3390575647354126,0,0.94058716297149658,0,0.074991755187511444,0,0,0.22448016703128815,0,-0.42599520087242126,0,0,0,0,0,-0.20968973636627197,-0.51657038927078247,-0.42038336396217346,0,-0.34891745448112488,0,0.29309108853340149,-0.86410492658615112,0.1512976735830307,-0.37425541877746582,-0.38798454403877258,-0.46938294172286987,0,0.41246777772903442,-0.22171762585639954,0,-0.338337242603302,-0.29901063442230225,0,0,0,0.49836272001266479,1,-0.41058292984962463,0,0,0.46224930882453918,-0.14017951488494873,0,0,-0.68537229299545288,0.9126206636428833,0,0,0.20894847810268402,-0.43928632140159607,-0.45963335037231445,0.79561030864715576,0,0.44575107097625732,0,0.12922540307044983,-0.46195843815803528,0.75921750068664551,-0.78274500370025635,0.33648133277893066,-0.61130964756011963,-0.27339360117912292,0,-0.031456265598535538,0,-0.42754426598548889,1,-0.628379225730896,0,0,-0.45160382986068726,-1,-0.28640058636665344,0.42689931392669678,0.32222601771354675,0,-0.15895545482635498,0,-0.20842643082141876,0.2656065821647644,0,0,0,0,1,0,0,-0.039224106818437576,0.26899269223213196,0.38590046763420105,-0.3975892961025238,0.86670911312103271,0,-0.005867792759090662,-0.39096927642822266,0,0,0,0,0,0.013444256037473679,-0.96180176734924316,-0.40372109413146973,0,0,-0.33744895458221436,-0.37268739938735962,0,0,0,-0.43299046158790588,-0.15017808973789215,-0.82688033580780029,0.3712427020072937,-0.017087796702980995,0.3754427433013916,0,0.25642609596252441,-1,-0.52615511417388916,0,0,0.41349804401397705,0,0.10663612186908722,0,-0.46685850620269775,0.83411407470703125,-1,0.28248512744903564,0.53779637813568115,0,0.28059214353561401,0.36265969276428223]],"id":"1E714C3D-70AE-4E90-A342-B9B34B63EBBA","generation":620,"biases":[[],[0.51507586240768433,-0.78068792819976807,-0.52204209566116333,-0.087424635887145996,-1,1,1,-0.63255536556243896,-0.28175434470176697,0.043941497802734375,0.287354975938797,0.065826095640659332,-0.39969357848167419,-1,-0.51754546165466309,0.13738448917865753,0.20375800132751465,-0.15230081975460052,0.68347811698913574,0.23782554268836975,-1,-1,-1,0.24040074646472931],[-0.93077385425567627,1,0.5,-0.13617435097694397,-0.5,-0.39506357908248901,0.88230705261230469,0.99719858169555664]],"inputCount":28,"hiddenCount":24,"outputCount":8},
