
[
{"biases":[[],[-0.78023672103881836,-0.21120750904083252,-0.43458104133605957,0.24020099639892578,-0.87365388870239258,0.68317043781280518,-0.058682441711425781,-0.33340442180633545,-1,-0.16024982929229736,0.19861018657684326,0.22144627571105957,-0.037111401557922363,-0.74442732334136963],[0.4143531322479248,0.34850084781646729,-0.47201037406921387,0.22887909412384033,0.0052158832550048828,-0.11262321472167969,-0.33355066180229187,-0.019412994384765625],[-0.09052884578704834,0.15854024887084961,0.9488067626953125,-0.10217975080013275,0.45486569404602051,0.30975604057312012,0.56385540962219238,-0.3923361599445343]],"weights":[[],[-0.6973804235458374,-0.47680330276489258,-0.82756602764129639,-0.83963501453399658,-0.69616281986236572,0.92284798622131348,-0.1441422700881958,-0.54894781112670898,0.35993099212646484,0.21626079082489014,-0.6324007511138916,0.31655538082122803,0.75172281265258789,-0.9540870189666748,-0.61840999126434326,0.81446433067321777,-0.83166241645812988,-0.87997281551361084,0.72399330139160156,-0.021088600158691406,-0.70391368865966797,-0.090975761413574219,-0.45530319213867188,0.29034698009490967,-0.55429661273956299,0.21608424186706543,0.46185088157653809,-0.76552271842956543,0.76463854312896729,-0.75591623783111572,-0.022141575813293457,0.94298708438873291,-0.0058159828186035156,0.75049924850463867,-0.025182008743286133,-1,0.81611001491546631,-0.67058002948760986,-0.36629247665405273,0.24300360679626465,0.10714733600616455,-0.60431236028671265,-0.7071765661239624,-0.33805274963378906,0.96021342277526855,-0.6326221227645874,0.51668453216552734,-0.38196825981140137,0.046598911285400391,-0.85600292682647705,-0.25096642971038818,0.80198240280151367,0.30056452751159668,-0.90208280086517334,0.45052552223205566,0.43378210067749023,-0.48819363117218018,-0.73704707622528076,0.62378406524658203,-0.63737130165100098,-0.90076792240142822,-0.15755546092987061,0.79035496711730957,-0.38409614562988281,0.73519277572631836,-0.78136253356933594,-0.93429386615753174,0.11517882347106934,-0.82735836505889893,0.23519635200500488,1,0.09673011302947998,0.92376530170440674,-0.98416352272033691,0.70582175254821777,0.62539553642272949,-0.14765274524688721,-0.93916189670562744,0.035103678703308105,0.13472259044647217,-0.35563004016876221,-0.84745550155639648,0.12526953220367432,-0.023143887519836426,-0.6565709114074707,0.079018950462341309,0.36190927028656006,0.56493830680847168,-0.092212915420532227,0.73143124580383301,0.71247363090515137,-0.36504518985748291,-0.72241926193237305,0.43395686149597168,0.92980694770812988,-0.81510508060455322,1,0.50036954879760742,0.58301186561584473,0.053540229797363281,-0.35716807842254639,-0.72110199928283691,0.75795245170593262,0.77173542976379395,0.74214386940002441,0.95629251003265381,0.076732039451599121,0.32868766784667969,-0.60084831714630127,0.97903192043304443,0.96394813060760498,-0.86261665821075439,0.57579982280731201,-0.097535252571105957,0.37419354915618896,-0.82028293609619141,-0.77361094951629639,-0.39502048492431641,-0.052406549453735352,0.8304513692855835,-0.1641232967376709,0.91308808326721191,0.27512001991271973,0.60777938365936279,0.1068115234375,-0.90821397304534912,-0.63091146945953369,-0.10794520378112793,-0.77087855339050293,-0.52583408355712891,-0.3332904577255249,0.04761970043182373,-0.84520721435546875,-0.17120909690856934,0.9317176342010498,0.00055396556854248047,0.81756138801574707,0.031314611434936523,-0.21770322322845459,0.48300254344940186,0.99119532108306885,0.69266235828399658,-0.63944458961486816,0.75500345230102539,0.03869175910949707,0.19312632083892822,0.3335038423538208,0.57427847385406494,-0.39957714080810547,0.14811480045318604,-0.31614851951599121,0.58630502223968506,0.91237545013427734,-0.53528106212615967,-0.77707195281982422,-0.40166127681732178,-0.40301716327667236,-0.14197158813476562,0.38987934589385986,0.65406203269958496,-0.20498943328857422,0.57710742950439453,-0.83823120594024658,-0.053786754608154297,-0.20479345321655273,-0.14421367645263672,0.92955732345581055,0.16818916797637939,0.85455834865570068,-0.77241778373718262,-0.2986595630645752,0.12851357460021973,0.041242837905883789,-0.056438207626342773,-0.21763110160827637,-0.42626404762268066,0.36755919456481934,-0.85189211368560791,0.61106765270233154,-0.62966835498809814,0.7674567699432373,-0.12098550796508789,0.051320433616638184,-0.84315884113311768,1,0.85587716102600098,0.61496591567993164,0.77163755893707275,-0.9497678279876709,0.37859487533569336,-0.37016952037811279,0.62675201892852783,0.99925410747528076,-0.31207859516143799,-0.32704925537109375,-0.84330081939697266,0.0093343257904052734,-0.45131850242614746,-0.007584691047668457,-0.74584782123565674,-0.89661550521850586,0.97519826889038086,-0.39767301082611084,0.12913310527801514,0.25648117065429688,-0.70779240131378174,0.52744746208190918,0.59239470958709717,-0.62921714782714844,1,0.80891931056976318,0.095032930374145508,-0.50576603412628174,-0.64874565601348877,-0.1345670223236084,-0.57405054569244385,0.95811128616333008,0.1908726692199707,-0.800994873046875,-0.53901934623718262,-0.21984219551086426,-0.55165612697601318,-0.60484087467193604,-0.21898937225341797,-0.96488630771636963,-0.3129420280456543,0.13919186592102051,0.15640044212341309,0.70571744441986084,0.089148283004760742,0.42331099510192871,-0.12214076519012451,0.38189518451690674,-0.83739817142486572,0.8797304630279541,0.44837033748626709,0.81647193431854248,0.22424209117889404,-0.88258111476898193,0.063117146492004395,-0.54846251010894775,0.51206731796264648,0.17879354953765869,-0.10680615901947021,0.077886700630187988,-0.95881760120391846,0.76344597339630127,0.78701460361480713,0.060055017471313477,0.89318346977233887,0.86131930351257324,0.2797311544418335,-0.70107871294021606,-0.37257087230682373,-0.97733962535858154,0.52150297164916992,-0.73631668090820312,-0.40331530570983887,-0.68475532531738281,0.50942409038543701,-0.40203237533569336,0.57205379009246826,0.034013032913208008,0.46639442443847656,-0.5805133581161499,0.55878078937530518,-0.10493230819702148,0.14161813259124756,-0.31643527746200562,-0.94410097599029541,-0.69383323192596436,0.99131405353546143,-0.35670781135559082,-0.96127212047576904,-0.10217487812042236,-0.57892358303070068,0.33781516551971436,-0.66886687278747559,-0.80938351154327393,0.47573304176330566,-0.27853667736053467,-0.45344376564025879,0.41672635078430176,0.61910605430603027,-0.66626906394958496,-0.42677795886993408,0.37249886989593506,0.86956191062927246,0.61695694923400879,0.99878871440887451,-0.72537267208099365,0.18205451965332031,-0.86010193824768066,-0.48904669284820557,-0.67375349998474121,0.91606199741363525,-0.94388628005981445,0.51743185520172119,0.97685408592224121,-0.22776484489440918,0.57971453666687012,0.87334787845611572,0.51449334621429443,0.027056574821472168,0.77894163131713867,-0.87189924716949463,-0.4655836820602417,0.23677873611450195,0.30728960037231445,0.6747967004776001,-0.63528084754943848,-0.96003615856170654,-0.45075333118438721,-0.78753280639648438,0.87631487846374512,0.16634452342987061,0.34326088428497314,-0.84865617752075195,0.20492184162139893,0.63206493854522705,0.88537633419036865,-0.12576282024383545,1,-0.89062356948852539,-0.73124945163726807,-0.37151861190795898,-0.97309005260467529,0.58966207504272461,-0.10863947868347168,-0.45691287517547607,0.077136039733886719,0.17645609378814697,-0.19449222087860107,-0.85579407215118408,-0.46732378005981445,0.063391804695129395,0.13827610015869141,0.35516071319580078,-0.30789840221405029,0.7427675724029541,0.83570528030395508,-0.2167365550994873,-0.0092608928680419922,-0.95189440250396729,-0.08577263355255127,-0.12142407894134521,-0.1362757682800293,-0.49313783645629883,-0.85420739650726318,-0.18009495735168457,0.6442948579788208,0.78455078601837158,-0.28105664253234863,0.38930320739746094,0.4654465913772583,0.88036751747131348,-0.23112940788269043,-0.53362560272216797,0.83691596984863281,0.32825565338134766,0.0050696134567260742,-0.31386804580688477,-0.84887588024139404,0.13155961036682129,-0.46283257007598877,-0.32422018051147461,-0.52318799495697021,-0.17194569110870361,-0.5695645809173584,0.31074225902557373,0.66818571090698242,-0.15285658836364746,0.27491378784179688,-0.85854721069335938,0.20621287822723389,0.78268873691558838,-0.63950204849243164,0.018078327178955078,-0.89071464538574219,0.28560459613800049,-0.6316148042678833,0.96111607551574707,0.1897118091583252,0.063363075256347656,-0.46447074413299561,0.94076228141784668,-0.35032689571380615,-0.82762181758880615,0.58360922336578369,0.13468837738037109,-0.21592199802398682,-0.29796093702316284],[-0.27779793739318848,0.070798993110656738,0.66580545902252197,-0.82308340072631836,-0.8016510009765625,-0.6246110200881958,-0.16820013523101807,-0.51078975200653076,0.80617725849151611,-0.69302129745483398,0.91982591152191162,0.072618007659912109,-0.019582390785217285,0.26482665538787842,0.32933557033538818,-0.7101210355758667,-0.95225000381469727,0.67157387733459473,-0.63463437557220459,0.32870209217071533,0.86802089214324951,-0.54335892200469971,0.27115273475646973,-0.025002479553222656,-0.79496479034423828,-0.13770878314971924,-0.53182816505432129,-0.095001101493835449,-0.60091829299926758,-0.47008919715881348,0.38455092906951904,-0.4675980806350708,-0.38296538591384888,-0.32638514041900635,-0.1410757303237915,0.24674475193023682,0.85484421253204346,0.11138975620269775,-0.32866597175598145,-0.55297756195068359,0.65507018566131592,-0.89698243141174316,0.66874587535858154,0.98655271530151367,-0.77050292491912842,-0.78781616687774658,0.015532851219177246,0.37621462345123291,0.61756360530853271,-0.60170519351959229,0.43453645706176758,-0.40171331167221069,0.05916905403137207,-0.16935873031616211,-0.23518550395965576,-0.67243480682373047,-0.012182354927062988,-0.87456190586090088,0.80400514602661133,0.62975668907165527,-0.58236062526702881,-0.20865964889526367,0.3191373348236084,0.24750876426696777,0.13585436344146729,-0.47780656814575195,-0.67439723014831543,-1,0.93723201751708984,0.48050945997238159,0.49936068058013916,0.73762392997741699,-0.61385083198547363,0.51217257976531982,-0.77571827173233032,0.58234000205993652,-0.72881996631622314,0.86224627494812012,0.22285997867584229,0.72726500034332275,0.51837790012359619,-0.96997988224029541,-0.07585906982421875,0.12297117710113525,0.55831944942474365,0.91921329498291016,0.35717427730560303,-0.61699438095092773,-0.59682750701904297,-0.96957945823669434,-0.38335579633712769,0.35690581798553467,-0.70326173305511475,-0.57967758178710938,0.16659677028656006,0.1915736198425293,0.04366910457611084,-0.66165065765380859,0.38381743431091309,0.56466937065124512,0.69962632656097412,-0.41670560836791992,0.79786109924316406,0.71137779951095581,0.19193148612976074,-0.96531510353088379,-0.48327350616455078,0.89601242542266846,0.96321284770965576,0.50722241401672363,0.52976727485656738,0.079549789428710938],[0.6781885027885437,0.94983458518981934,0.70844936370849609,0.34089016914367676,-0.44500958919525146,0.18152618408203125,-0.23754894733428955,-0.96203601360321045,0.28150308132171631,-0.34246444702148438,0.77037793397903442,-0.28014254570007324,0.17397594451904297,0.93958401679992676,-0.28728246688842773,0.49297049641609192,-0.8432694673538208,0.18127799034118652,0.94730377197265625,0.24532210826873779,0.031240701675415039,-0.37576666474342346,0.0022405385971069336,0.16779792308807373,-1,0.77707743644714355,-0.10442626476287842,0.46210205554962158,-1,-0.54681396484375,0.014745354652404785,-0.022653460502624512,-0.29927492141723633,0.70311689376831055,-0.68563258647918701,0.11517441272735596,0.89203834533691406,0.74171078205108643,-0.42761111259460449,-0.60985279083251953,-0.46503400802612305,-0.14066398143768311,0.68308484554290771,-0.91189002990722656,0.41621243953704834,-0.80089807510375977,-0.9502413272857666,0.37636768817901611,-0.80962038040161133,-0.56545889377593994,-0.72029411792755127,-0.64318728446960449,-0.68486392498016357,-0.52278697490692139,0.78350341320037842,-0.63828575611114502,-0.98541969060897827,-0.80592143535614014,0.90416085720062256,-0.31019175052642822,-0.28089475631713867,-0.39163970947265625,0.58409333229064941,-0.6220325231552124]],"id":"6133C9B3-1C6C-4255-B5A1-C6C8DDABA37F","generation":32,"hiddenCounts":[14,8],"inputCount":28,"outputCount":8},
{"biases":[[],[-0.78023672103881836,-0.21120750904083252,-0.21729052066802979,-0.15243116021156311,-0.87365388870239258,0.68317043781280518,-0.058682441711425781,-0.33340442180633545,-1,-0.16024982929229736,-0.23972724378108978,0.22144627571105957,-0.074222803115844727,-0.74442732334136963],[0.4143531322479248,0.34850084781646729,-0.47201037406921387,0.22887909412384033,0.0052158832550048828,-0.11262321472167969,0.14757859706878662,-0.019412994384765625],[-0.09052884578704834,0.15854024887084961,0.9488067626953125,-0.10217975080013275,-0.011599902994930744,0.30975604057312012,0.56385540962219238,-0.75073540210723877]],"weights":[[],[-0.6973804235458374,-0.47680330276489258,-0.82756602764129639,-0.83963501453399658,-0.69616281986236572,0.92284798622131348,-0.1441422700881958,-0.54894781112670898,0.35993099212646484,0.21626079082489014,-0.6324007511138916,0.31655538082122803,0.75172281265258789,-0.9540870189666748,-0.61840999126434326,0.81446433067321777,-0.83166241645812988,-0.87997281551361084,0.72399330139160156,-0.021088600158691406,-0.70391368865966797,-0.090975761413574219,-0.45530319213867188,0.29034698009490967,-0.55429661273956299,0.21608424186706543,0.46185088157653809,-0.76552271842956543,0.76463854312896729,-0.75591623783111572,-0.022141575813293457,0.94298708438873291,-0.0058159828186035156,0.75049924850463867,-0.025182008743286133,-1,0.81611001491546631,-0.67058002948760986,-0.36629247665405273,0.24300360679626465,0.10714733600616455,-0.19100642204284668,-0.7071765661239624,-0.33805274963378906,0.96021342277526855,-0.6326221227645874,0.51668453216552734,-0.38196825981140137,0.046598911285400391,-0.85600292682647705,-0.25096642971038818,0.80198240280151367,0.30056452751159668,-1,0.45052552223205566,0.43378210067749023,-0.48819363117218018,-0.73704707622528076,0.62378406524658203,-0.63737130165100098,-0.90076792240142822,-0.15755546092987061,0.79035496711730957,-0.38409614562988281,0.73519277572631836,-0.78136253356933594,-0.93429386615753174,0.11517882347106934,-0.82735836505889893,0.23519635200500488,1,0.09673011302947998,0.92376530170440674,-0.98416352272033691,0.70582175254821777,0.62539553642272949,-0.14765274524688721,-0.93916189670562744,0.035103678703308105,0.13472259044647217,-0.35563004016876221,-0.84745550155639648,0.12526953220367432,-0.023143887519836426,-0.6565709114074707,0.079018950462341309,0.36190927028656006,0.56493830680847168,-0.092212915420532227,0.73143124580383301,0.71247363090515137,-0.36504518985748291,-0.72241926193237305,0.43395686149597168,0.92980694770812988,-0.81510508060455322,1,0.50036954879760742,0.58301186561584473,0.053540229797363281,-0.71433615684509277,-0.72110199928283691,0.75795245170593262,0.77173542976379395,0.74214386940002441,0.95629251003265381,0.076732039451599121,0.32868766784667969,-0.60084831714630127,0.97903192043304443,0.96394813060760498,-0.86261665821075439,0.57579982280731201,-0.097535252571105957,0.37419354915618896,-0.82028293609619141,-0.77361094951629639,-0.39502048492431641,-0.052406549453735352,0.8304513692855835,-0.1641232967376709,0.91308808326721191,0.27512001991271973,0.60777938365936279,0.1068115234375,-0.90821397304534912,-0.63091146945953369,-0.10794520378112793,-0.77087855339050293,-0.52583408355712891,-0.3332904577255249,0.04761970043182373,-0.84520721435546875,-0.17120909690856934,0.9317176342010498,0.00055396556854248047,0.81756138801574707,0.031314611434936523,-0.21770322322845459,0.48300254344940186,0.99119532108306885,0.69266235828399658,-0.63944458961486816,0.75500345230102539,0.03869175910949707,0.19312632083892822,0.3335038423538208,0.57427847385406494,-0.39957714080810547,0.14811480045318604,-0.31614851951599121,0.58630502223968506,0.91237545013427734,-0.53528106212615967,-0.77707195281982422,-0.40166127681732178,-0.40301716327667236,-0.14197158813476562,0.38987934589385986,0.65406203269958496,-0.20498943328857422,0.57710742950439453,-0.83823120594024658,0.21052250266075134,-0.20479345321655273,-0.14421367645263672,0.92955732345581055,0.16818916797637939,0.85455834865570068,-0.77241778373718262,-0.2986595630645752,0.12851357460021973,0.041242837905883789,-0.056438207626342773,-0.21763110160827637,-0.42626404762268066,0.36755919456481934,-0.85189211368560791,0.61106765270233154,-0.62966835498809814,0.7674567699432373,-0.12098550796508789,0.051320433616638184,-0.84315884113311768,0.79864382743835449,0.85587716102600098,0.61496591567993164,0.77163755893707275,-0.9497678279876709,0.37859487533569336,-0.37016952037811279,0.62675201892852783,0.99925410747528076,-0.31207859516143799,-0.32704925537109375,-0.84330081939697266,0.0093343257904052734,-0.45131850242614746,-0.007584691047668457,-0.74584782123565674,-0.89661550521850586,0.97519826889038086,-0.39767301082611084,0.12913310527801514,0.25648117065429688,-0.70779240131378174,0.52744746208190918,0.59239470958709717,-0.62921714782714844,1,0.80891931056976318,0.095032930374145508,-0.50576603412628174,-0.64874565601348877,-0.63030952215194702,-0.57405054569244385,0.95811128616333008,0.1908726692199707,-0.800994873046875,-0.53901934623718262,-0.21984219551086426,-0.55165612697601318,-0.60484087467193604,-0.21898937225341797,-0.96488630771636963,-0.3129420280456543,0.13919186592102051,0.15640044212341309,0.70571744441986084,0.089148283004760742,0.42331099510192871,-0.12214076519012451,0.38189518451690674,-0.83739817142486572,0.8797304630279541,0.44837033748626709,0.81647193431854248,0.22424209117889404,-0.88258111476898193,0.063117146492004395,-0.54846251010894775,0.51206731796264648,0.17879354953765869,-0.10680615901947021,0.077886700630187988,-0.95881760120391846,0.76344597339630127,0.78701460361480713,0.060055017471313477,0.89318346977233887,0.86131930351257324,0.2797311544418335,-0.26567339897155762,-0.37257087230682373,-0.97733962535858154,0.52150297164916992,-0.73631668090820312,-0.40331530570983887,-0.68475532531738281,0.50942409038543701,-0.40203237533569336,0.57205379009246826,0.034013032913208008,0.46639442443847656,-0.5805133581161499,0.55878078937530518,-0.10493230819702148,0.14161813259124756,-0.31643527746200562,-0.94410097599029541,-0.69383323192596436,0.99131405353546143,-0.35670781135559082,-0.96127212047576904,-0.10217487812042236,-0.57892358303070068,0.33781516551971436,-0.66886687278747559,-0.80938351154327393,0.47573304176330566,-0.27853667736053467,-0.45344376564025879,0.41672635078430176,0.61910605430603027,-0.66626906394958496,-0.42677795886993408,0.37249886989593506,0.86956191062927246,0.61695694923400879,0.99878871440887451,-0.72537267208099365,0.18205451965332031,-0.86010193824768066,-0.48904669284820557,-0.67375349998474121,0.45803099870681763,-0.94388628005981445,0.51743185520172119,0.97685408592224121,-0.22776484489440918,0.57971453666687012,0.87334787845611572,0.51449334621429443,0.027056574821472168,1,-0.87189924716949463,-0.4655836820602417,0.23677873611450195,0.30728960037231445,0.6747967004776001,-0.63528084754943848,-0.96003615856170654,-0.45075333118438721,-0.78753280639648438,0.87631487846374512,0.16634452342987061,0.34326088428497314,-0.84865617752075195,0.20492184162139893,0.63206493854522705,0.88537633419036865,-0.12576282024383545,0.62753570079803467,-0.89062356948852539,-0.36562472581863403,-0.37151861190795898,-0.97309005260467529,0.58966207504272461,-0.05431973934173584,-0.45691287517547607,0.077136039733886719,0.17645609378814697,-0.19449222087860107,-0.85579407215118408,-0.46732378005981445,0.063391804695129395,0.13827610015869141,0.35516071319580078,-0.30789840221405029,0.7427675724029541,0.83570528030395508,-0.2167365550994873,-0.0092608928680419922,-0.95189440250396729,-0.08577263355255127,-0.12142407894134521,-0.1362757682800293,-0.49313783645629883,-0.85420739650726318,-0.18009495735168457,0.6442948579788208,0.78455078601837158,-0.28105664253234863,0.77860641479492188,0.4654465913772583,0.88036751747131348,-0.23112940788269043,-0.53362560272216797,0.83691596984863281,0.32825565338134766,0.0050696134567260742,-0.31386804580688477,-0.84887588024139404,0.13155961036682129,-0.46283257007598877,-0.32422018051147461,-0.52318799495697021,-0.17194569110870361,-0.5695645809173584,0.31074225902557373,0.66818571090698242,-0.15285658836364746,0.27491378784179688,-0.85854721069335938,0.20621287822723389,0.78268873691558838,-0.63950204849243164,0.018078327178955078,-0.89071464538574219,0.28560459613800049,-0.6316148042678833,0.96111607551574707,0.1897118091583252,0.063363075256347656,-0.46447074413299561,0.94076228141784668,-0.35032689571380615,-0.82762181758880615,0.58360922336578369,0.13468837738037109,-0.21592199802398682,-0.29796093702316284],[-0.27779793739318848,0.070798993110656738,0.66580545902252197,-0.82308340072631836,-0.8016510009765625,-0.6246110200881958,-0.16820013523101807,-0.78882813453674316,0.80617725849151611,-0.69302129745483398,0.91982591152191162,0.072618007659912109,-0.019582390785217285,0.26482665538787842,0.32933557033538818,-0.7101210355758667,-0.95225000381469727,-0.79145467281341553,-0.63463437557220459,0.32870209217071533,0.86802089214324951,-0.54335892200469971,0.27115273475646973,0.76969969272613525,-0.79496479034423828,0.17193859815597534,-0.53182816505432129,-0.095001101493835449,-0.60091829299926758,-0.47008919715881348,0.38455092906951904,-0.4675980806350708,-0.38296538591384888,-0.32638514041900635,-0.1410757303237915,0.24674475193023682,0.48930671811103821,0.11138975620269775,-0.32866597175598145,-0.55297756195068359,0.65507018566131592,-0.89698243141174316,0.66874587535858154,0.98655271530151367,-0.77050292491912842,-0.78781616687774658,0.015532851219177246,0.37621462345123291,0.61756360530853271,-0.60170519351959229,0.73022276163101196,-0.081482060253620148,0.05916905403137207,-0.16935873031616211,-0.23518550395965576,-0.67243480682373047,0.086071968078613281,-0.87456190586090088,0.80400514602661133,0.62975668907165527,-0.58236062526702881,-0.20865964889526367,0.3191373348236084,0.24750876426696777,0.13585436344146729,-0.47780656814575195,-0.67439723014831543,-1,0.93723201751708984,0.48050945997238159,0.49936068058013916,0.73762392997741699,-0.61385083198547363,0.51217257976531982,-0.77571827173233032,0.58234000205993652,-0.72881996631622314,0.86224627494812012,0.22285997867584229,0.72726500034332275,0.51837790012359619,-0.96997988224029541,-0.07585906982421875,0.12297117710113525,0.55831944942474365,0.91921329498291016,0.35717427730560303,-0.61699438095092773,-0.59682750701904297,-0.96957945823669434,-0.38335579633712769,0.35690581798553467,-0.70326173305511475,-0.57967758178710938,0.16659677028656006,-0.7357940673828125,0.04366910457611084,-1,0.38381743431091309,0.56466937065124512,0.69962632656097412,-0.20835280418395996,0.79786109924316406,0.71137779951095581,0.19193148612976074,-0.96531510353088379,-0.48327350616455078,0.89601242542266846,0.96321284770965576,0.50722241401672363,0.52976727485656738,0.079549789428710938],[0.42216801643371582,0.94983458518981934,0.70844936370849609,0.34089016914367676,-0.44500958919525146,0.3630523681640625,-0.23754894733428955,-0.96203601360321045,0.28150308132171631,-0.34246444702148438,0.77037793397903442,-0.28014254570007324,0.17397594451904297,0.93958401679992676,-0.28728246688842773,0.49297049641609192,-0.8432694673538208,0.18127799034118652,0.94730377197265625,0.24532210826873779,0.031240701675415039,-0.37576666474342346,-0.25605487823486328,0.16779792308807373,-1,0.77707743644714355,-0.10442626476287842,0.46210205554962158,-1,-0.54681396484375,0.014745354652404785,-0.022653460502624512,-0.29927492141723633,0.70311689376831055,-0.68563258647918701,0.11517441272735596,0.89203834533691406,0.74171078205108643,-0.42761111259460449,-0.60985279083251953,-0.46503400802612305,-0.14066398143768311,0.68308484554290771,-0.91189002990722656,0.41621243953704834,-0.80089807510375977,-0.9502413272857666,0.37636768817901611,-0.80962038040161133,-0.96964657306671143,-0.72029411792755127,-0.64318728446960449,-0.68486392498016357,-0.52278697490692139,0.78350341320037842,-0.63828575611114502,-0.98541969060897827,-0.80592143535614014,0.90416085720062256,-0.31019175052642822,-0.28089475631713867,-0.39163970947265625,0.58409333229064941,-0.6220325231552124]],"id":"183EDE98-4CB5-41AD-A578-6DFFC5125657","generation":33,"hiddenCounts":[14,8],"inputCount":28,"outputCount":8},
{"biases":[[],[-0.78023672103881836,-0.21120750904083252,-0.21729052066802979,-0.15243116021156311,-0.87365388870239258,0.27478888630867004,-0.058682441711425781,-0.33340442180633545,-1,-0.080124914646148682,-0.23972724378108978,0.22144627571105957,-0.074222803115844727,-0.74442732334136963],[0.4143531322479248,0.34850084781646729,-0.47201037406921387,0.22887909412384033,0.0052158832550048828,-0.11262321472167969,0.14757859706878662,-0.019412994384765625],[-0.09052884578704834,0.31708049774169922,0.9488067626953125,-0.10217975080013275,0.45486569404602051,0.30975604057312012,0.56385540962219238,-0.75073540210723877]],"weights":[[],[-0.6973804235458374,-0.47680330276489258,-0.82756602764129639,-0.83963501453399658,-0.69616281986236572,0.92284798622131348,-0.1441422700881958,-0.54894781112670898,0.35993099212646484,0.21626079082489014,-0.6324007511138916,0.31655538082122803,0.75172281265258789,-0.9540870189666748,-0.61840999126434326,0.81446433067321777,-0.83166241645812988,-0.87997281551361084,0.72399330139160156,-0.021088600158691406,-0.70391368865966797,-0.090975761413574219,-0.45530319213867188,0.29034698009490967,-0.55429661273956299,0.21608424186706543,0.46185088157653809,-0.76552271842956543,0.76463854312896729,-0.75591623783111572,-0.022141575813293457,0.94298708438873291,-0.0058159828186035156,0.75049924850463867,-0.025182008743286133,-1,0.81611001491546631,-0.67058002948760986,-0.36629247665405273,0.24300360679626465,0.10714733600616455,-0.19100642204284668,-0.7071765661239624,-0.33805274963378906,0.96021342277526855,-0.6326221227645874,0.51668453216552734,-0.38196825981140137,0.046598911285400391,-0.85600292682647705,-0.25096642971038818,0.80198240280151367,0.30056452751159668,-1,0.45052552223205566,0.43378210067749023,-0.48819363117218018,-0.73704707622528076,0.62378406524658203,-0.63737130165100098,-0.90076792240142822,-0.15755546092987061,0.79035496711730957,-0.38409614562988281,0.73519277572631836,-0.78136253356933594,-0.93429386615753174,0.11517882347106934,-0.82735836505889893,0.23519635200500488,1,0.09673011302947998,0.92376530170440674,-0.98416352272033691,0.70582175254821777,0.62539553642272949,-0.14765274524688721,-0.93916189670562744,0.035103678703308105,0.13472259044647217,-0.35563004016876221,-0.84745550155639648,0.12526953220367432,-0.023143887519836426,-0.6565709114074707,0.079018950462341309,0.36190927028656006,0.56493830680847168,-0.092212915420532227,0.73143124580383301,0.71247363090515137,-0.36504518985748291,-0.72241926193237305,0.43395686149597168,0.92980694770812988,-0.81510508060455322,1,0.50036954879760742,0.58301186561584473,0.053540229797363281,-0.35716807842254639,-0.72110199928283691,0.75795245170593262,0.77173542976379395,0.74214386940002441,0.95629251003265381,0.076732039451599121,0.32868766784667969,-0.60084831714630127,0.97903192043304443,0.96394813060760498,-0.86261665821075439,0.57579982280731201,-0.097535252571105957,0.37419354915618896,-0.82028293609619141,-0.77361094951629639,-0.39502048492431641,-0.052406549453735352,0.8304513692855835,-0.1641232967376709,0.91308808326721191,0.27512001991271973,0.60777938365936279,0.1068115234375,-0.90821397304534912,-0.63091146945953369,-0.10794520378112793,-0.77087855339050293,-0.52583408355712891,-0.3332904577255249,0.04761970043182373,-0.84520721435546875,-0.17120909690856934,0.9317176342010498,0.00055396556854248047,0.81756138801574707,0.031314611434936523,-0.21770322322845459,0.48300254344940186,0.99119532108306885,0.69266235828399658,-0.63944458961486816,0.75500345230102539,0.03869175910949707,0.19312632083892822,0.3335038423538208,0.57427847385406494,-0.39957714080810547,0.14811480045318604,-0.31614851951599121,0.58630502223968506,0.91237545013427734,-0.53528106212615967,-0.77707195281982422,-0.40166127681732178,-0.40301716327667236,-0.14197158813476562,0.38987934589385986,0.65406203269958496,-0.20498943328857422,0.57710742950439453,-0.83823120594024658,-0.053786754608154297,-0.20479345321655273,-0.14421367645263672,0.92955732345581055,0.16818916797637939,0.85455834865570068,-0.77241778373718262,-0.2986595630645752,0.12851357460021973,0.041242837905883789,-0.056438207626342773,-0.21763110160827637,-0.42626404762268066,0.36755919456481934,-0.85189211368560791,0.61106765270233154,-0.62966835498809814,0.7674567699432373,-0.12098550796508789,0.051320433616638184,-0.84315884113311768,0.79864382743835449,0.85587716102600098,0.61496591567993164,0.77163755893707275,-0.9497678279876709,0.37859487533569336,-0.37016952037811279,0.62675201892852783,0.99925410747528076,-0.31207859516143799,-0.32704925537109375,-0.84330081939697266,0.0093343257904052734,-0.45131850242614746,-0.007584691047668457,-0.74584782123565674,-0.89661550521850586,0.97519826889038086,-0.39767301082611084,0.12913310527801514,0.25648117065429688,-0.70779240131378174,0.52744746208190918,0.59239470958709717,-0.62921714782714844,1,0.80891931056976318,0.095032930374145508,-0.50576603412628174,-0.64874565601348877,-0.63030952215194702,-0.57405054569244385,0.95811128616333008,0.1908726692199707,-0.800994873046875,-0.53901934623718262,-0.21984219551086426,-0.55165612697601318,-0.60484087467193604,-0.21898937225341797,-0.96488630771636963,-0.3129420280456543,0.13919186592102051,0.15640044212341309,0.70571744441986084,0.089148283004760742,0.42331099510192871,-0.12214076519012451,0.38189518451690674,-0.83739817142486572,0.8797304630279541,0.44837033748626709,0.81647193431854248,0.22424209117889404,-0.88258111476898193,0.063117146492004395,-0.54846251010894775,0.51206731796264648,0.17879354953765869,-0.10680615901947021,0.077886700630187988,-0.95881760120391846,0.76344597339630127,0.78701460361480713,0.060055017471313477,0.89318346977233887,0.86131930351257324,0.2797311544418335,-0.26567339897155762,-0.37257087230682373,-0.97733962535858154,0.52150297164916992,-0.73631668090820312,-0.40331530570983887,-0.68475532531738281,0.50942409038543701,-0.40203237533569336,0.57205379009246826,0.034013032913208008,0.46639442443847656,-0.5805133581161499,0.55878078937530518,-0.10493230819702148,0.14161813259124756,-0.31643527746200562,-0.94410097599029541,-0.69383323192596436,0.99131405353546143,-0.35670781135559082,-0.96127212047576904,-0.10217487812042236,-0.57892358303070068,0.33781516551971436,-0.66886687278747559,-0.80938351154327393,0.47573304176330566,-0.27853667736053467,-0.45344376564025879,0.41672635078430176,0.61910605430603027,-0.66626906394958496,-0.42677795886993408,0.37249886989593506,0.86956191062927246,0.61695694923400879,0.99878871440887451,-0.72537267208099365,0.18205451965332031,-0.86010193824768066,-0.48904669284820557,-0.67375349998474121,0.45803099870681763,-0.94388628005981445,0.51743185520172119,0.97685408592224121,-0.22776484489440918,0.57971453666687012,0.87334787845611572,0.51449334621429443,0.027056574821472168,0.77894163131713867,-0.87189924716949463,-0.4655836820602417,0.23677873611450195,0.30728960037231445,0.6747967004776001,-0.63528084754943848,-0.96003615856170654,-0.45075333118438721,-0.78753280639648438,0.87631487846374512,0.16634452342987061,0.34326088428497314,-0.84865617752075195,0.20492184162139893,0.63206493854522705,0.88537633419036865,-0.12576282024383545,0.62753570079803467,-0.89062356948852539,-0.73124945163726807,-0.37151861190795898,-0.97309005260467529,0.58966207504272461,-0.05431973934173584,-0.45691287517547607,0.077136039733886719,0.17645609378814697,-0.19449222087860107,-0.85579407215118408,-0.46732378005981445,0.063391804695129395,0.13827610015869141,0.35516071319580078,-0.30789840221405029,0.7427675724029541,0.83570528030395508,-0.2167365550994873,-0.0092608928680419922,-0.95189440250396729,-0.08577263355255127,-0.12142407894134521,-0.1362757682800293,-0.49313783645629883,-0.85420739650726318,-0.18009495735168457,0.6442948579788208,0.78455078601837158,-0.28105664253234863,0.77860641479492188,0.4654465913772583,0.88036751747131348,-0.23112940788269043,-0.53362560272216797,0.83691596984863281,0.32825565338134766,0.0050696134567260742,-0.31386804580688477,-0.84887588024139404,0.13155961036682129,-0.46283257007598877,-0.32422018051147461,-0.52318799495697021,-0.17194569110870361,-0.5695645809173584,0.31074225902557373,0.66818571090698242,-0.15285658836364746,0.27491378784179688,-0.85854721069335938,0.20621287822723389,0.78268873691558838,-0.63950204849243164,0.018078327178955078,-0.89071464538574219,0.28560459613800049,-0.6316148042678833,0.96111607551574707,0.1897118091583252,0.063363075256347656,-0.46447074413299561,0.94076228141784668,-0.35032689571380615,-0.82762181758880615,0.58360922336578369,0.13468837738037109,-0.21592199802398682,-0.29796093702316284],[-0.27779793739318848,0.070798993110656738,0.66580545902252197,-0.82308340072631836,-0.8016510009765625,-0.6246110200881958,-0.16820013523101807,-0.78882813453674316,0.80617725849151611,-0.69302129745483398,0.91982591152191162,0.072618007659912109,-0.019582390785217285,0.26482665538787842,0.32933557033538818,-0.7101210355758667,-0.95225000381469727,-0.79145467281341553,-0.63463437557220459,0.32870209217071533,0.86802089214324951,-0.54335892200469971,0.27115273475646973,0.76969969272613525,-0.79496479034423828,-0.13770878314971924,-0.53182816505432129,-0.095001101493835449,-0.60091829299926758,-0.47008919715881348,0.38455092906951904,-0.4675980806350708,-0.38296538591384888,-0.32638514041900635,-0.1410757303237915,0.24674475193023682,0.85484421253204346,0.11138975620269775,-0.32866597175598145,-0.55297756195068359,0.65507018566131592,-0.89698243141174316,0.66874587535858154,0.98655271530151367,-0.77050292491912842,-0.78781616687774658,0.015532851219177246,0.37621462345123291,0.61756360530853271,-0.60170519351959229,0.43453645706176758,-0.40171331167221069,0.05916905403137207,-0.16935873031616211,-0.23518550395965576,-0.67243480682373047,-0.012182354927062988,-0.87456190586090088,0.80400514602661133,0.62975668907165527,-0.58236062526702881,-0.20865964889526367,0.3191373348236084,0.24750876426696777,0.13585436344146729,-0.47780656814575195,-0.67439723014831543,-1,0.93723201751708984,0.48050945997238159,0.49936068058013916,0.73762392997741699,-0.61385083198547363,0.51217257976531982,-0.77571827173233032,0.58234000205993652,-0.72881996631622314,0.86224627494812012,0.22285997867584229,0.72726500034332275,0.51837790012359619,-0.96997988224029541,-0.07585906982421875,0.12297117710113525,0.55831944942474365,0.91921329498291016,0.35717427730560303,-0.61699438095092773,-0.59682750701904297,-0.96957945823669434,-0.38335579633712769,0.72318929433822632,-0.70326173305511475,-0.97878444194793701,0.16659677028656006,-0.7357940673828125,0.04366910457611084,-1,0.38381743431091309,0.56466937065124512,0.69962632656097412,-0.20835280418395996,0.79786109924316406,0.71137779951095581,-0.81552588939666748,-0.96531510353088379,-0.48327350616455078,0.89601242542266846,0.96321284770965576,0.50722241401672363,0.52976727485656738,0.079549789428710938],[0.42216801643371582,0.94983458518981934,0.70844936370849609,0.34089016914367676,-0.014052038080990314,0.3630523681640625,-0.23754894733428955,-0.48101800680160522,0.14075154066085815,-0.34246444702148438,0.38518896698951721,-0.28014254570007324,0.17397594451904297,0.93958401679992676,-0.28728246688842773,0.49297049641609192,-0.8432694673538208,0.18127799034118652,0.94730377197265625,0.24532210826873779,0.031240701675415039,-0.37576666474342346,-0.25605487823486328,0.16779792308807373,-1,0.77707743644714355,-0.10442626476287842,0.46210205554962158,-1,-0.54681396484375,0.014745354652404785,-0.022653460502624512,-0.29927492141723633,0.70311689376831055,-0.68563258647918701,0.11517441272735596,0.89203834533691406,0.74171078205108643,-0.42761111259460449,-0.60985279083251953,-0.46503400802612305,-0.14066398143768311,0.68308484554290771,-0.91189002990722656,0.41621243953704834,-0.80089807510375977,-0.9502413272857666,0.37636768817901611,-0.80962038040161133,-0.96964657306671143,-0.72029411792755127,-0.64318728446960449,-0.68486392498016357,-0.52278697490692139,0.78350341320037842,-0.63828575611114502,-0.98541969060897827,-0.80592143535614014,0.90416085720062256,-0.31019175052642822,-0.28089475631713867,-0.39163970947265625,0.58409333229064941,-0.6220325231552124]],"id":"7715F75A-F9B6-4D00-967C-6408699947C9","generation":33,"hiddenCounts":[14,8],"inputCount":28,"outputCount":8},
{"biases":[[],[-0.78023672103881836,-0.21120750904083252,-0.21729052066802979,0.24020099639892578,-0.87365388870239258,0.68317043781280518,-0.058682441711425781,-0.33340442180633545,-1,-0.16024982929229736,-0.23972724378108978,0.22144627571105957,-0.074222803115844727,-0.74442732334136963],[0.4143531322479248,0.67360842227935791,-0.47201037406921387,0.22887909412384033,-0.28757378458976746,-0.11262321472167969,0.14757859706878662,-0.019412994384765625],[-0.09052884578704834,0.31708049774169922,0.9488067626953125,-0.10217975080013275,0.45486569404602051,0.30975604057312012,0.56385540962219238,-0.2562408447265625]],"weights":[[],[-0.6973804235458374,-0.47680330276489258,-0.82756602764129639,-0.41233628988265991,-0.69616281986236572,0.92284798622131348,-0.1441422700881958,-0.54894781112670898,0.35993099212646484,0.21626079082489014,-0.6324007511138916,0.31655538082122803,0.75172281265258789,-0.9540870189666748,-0.61840999126434326,0.81446433067321777,-0.83166241645812988,-0.87997281551361084,0.72399330139160156,-0.021088600158691406,-0.70391368865966797,-0.090975761413574219,-0.45530319213867188,0.29034698009490967,-0.55429661273956299,0.21608424186706543,0.46185088157653809,-0.76552271842956543,0.76463854312896729,-0.75591623783111572,-0.022141575813293457,0.94298708438873291,-0.0058159828186035156,0.75049924850463867,-0.025182008743286133,-1,0.81611001491546631,-0.67058002948760986,-0.36629247665405273,0.24300360679626465,0.10714733600616455,-0.19100642204284668,-0.7071765661239624,-0.33805274963378906,0.96021342277526855,-0.6326221227645874,0.51668453216552734,-0.38196825981140137,0.046598911285400391,-0.85600292682647705,-0.25096642971038818,0.80198240280151367,0.30056452751159668,-0.90208280086517334,0.45052552223205566,0.43378210067749023,-0.48819363117218018,-0.73704707622528076,0.62378406524658203,-0.63737130165100098,-0.90076792240142822,-0.15755546092987061,0.79035496711730957,-0.38409614562988281,0.73519277572631836,-0.78136253356933594,-0.93429386615753174,0.11517882347106934,-0.82735836505889893,0.23519635200500488,1,0.09673011302947998,0.92376530170440674,-0.98416352272033691,0.70582175254821777,0.62539553642272949,-0.14765274524688721,-0.93916189670562744,0.035103678703308105,0.13472259044647217,-0.35563004016876221,-0.84745550155639648,0.12526953220367432,-0.023143887519836426,-0.6565709114074707,0.079018950462341309,0.36190927028656006,0.56493830680847168,-0.092212915420532227,0.73143124580383301,0.71247363090515137,-0.36504518985748291,-0.72241926193237305,0.43395686149597168,0.92980694770812988,-0.81510508060455322,1,0.50036954879760742,0.58301186561584473,0.053540229797363281,-0.35716807842254639,-0.72110199928283691,0.75795245170593262,0.77173542976379395,0.74214386940002441,0.95629251003265381,0.076732039451599121,0.32868766784667969,-0.60084831714630127,0.97903192043304443,0.96394813060760498,-0.86261665821075439,0.57579982280731201,-0.097535252571105957,0.37419354915618896,-0.82028293609619141,-0.77361094951629639,-0.39502048492431641,-0.052406549453735352,0.8304513692855835,-0.1641232967376709,0.91308808326721191,0.27512001991271973,0.60777938365936279,0.1068115234375,-0.90821397304534912,-0.63091146945953369,-0.10794520378112793,-0.77087855339050293,-0.52583408355712891,-0.3332904577255249,0.04761970043182373,-0.84520721435546875,-0.17120909690856934,0.9317176342010498,0.00055396556854248047,0.81756138801574707,0.031314611434936523,-0.21770322322845459,0.48300254344940186,0.99119532108306885,0.69266235828399658,-0.63944458961486816,0.75500345230102539,0.03869175910949707,0.19312632083892822,0.3335038423538208,0.57427847385406494,-0.39957714080810547,0.14811480045318604,-0.31614851951599121,0.58630502223968506,0.91237545013427734,-0.53528106212615967,-0.38912695646286011,-0.40166127681732178,-0.40301716327667236,-0.14197158813476562,0.38987934589385986,0.65406203269958496,-0.20498943328857422,0.57710742950439453,-0.83823120594024658,-0.053786754608154297,-0.20479345321655273,-0.14421367645263672,0.92955732345581055,0.16818916797637939,0.85455834865570068,-0.77241778373718262,-0.2986595630645752,0.12851357460021973,0.041242837905883789,-0.056438207626342773,-0.21763110160827637,-0.42626404762268066,0.36755919456481934,-0.85189211368560791,0.61106765270233154,-0.62966835498809814,0.7674567699432373,-0.12098550796508789,0.051320433616638184,-0.84315884113311768,0.79864382743835449,0.85587716102600098,0.61496591567993164,0.77163755893707275,-0.9497678279876709,0.37859487533569336,-0.37016952037811279,0.62675201892852783,0.99925410747528076,-0.31207859516143799,-0.32704925537109375,-0.84330081939697266,0.0093343257904052734,-0.45131850242614746,-0.007584691047668457,-0.74584782123565674,-0.89661550521850586,0.97519826889038086,-0.39767301082611084,0.12913310527801514,0.25648117065429688,-0.70779240131378174,0.52744746208190918,0.59239470958709717,-0.62921714782714844,1,0.80891931056976318,0.095032930374145508,-0.50576603412628174,-0.64874565601348877,-0.1345670223236084,-0.57405054569244385,0.95811128616333008,0.1908726692199707,-0.800994873046875,-0.53901934623718262,-0.21984219551086426,-0.55165612697601318,-0.60484087467193604,-0.21898937225341797,-0.96488630771636963,-0.3129420280456543,0.13919186592102051,0.15640044212341309,0.70571744441986084,0.089148283004760742,0.42331099510192871,-0.12214076519012451,0.38189518451690674,-0.83739817142486572,0.8797304630279541,0.44837033748626709,0.81647193431854248,0.22424209117889404,-0.88258111476898193,0.063117146492004395,-0.54846251010894775,0.51206731796264648,0.17879354953765869,-0.10680615901947021,0.077886700630187988,-0.95881760120391846,0.76344597339630127,0.78701460361480713,0.060055017471313477,0.89318346977233887,0.86131930351257324,0.2797311544418335,-0.26567339897155762,-0.37257087230682373,-0.97733962535858154,0.52150297164916992,-0.73631668090820312,-0.40331530570983887,-0.68475532531738281,0.50942409038543701,-0.40203237533569336,0.57205379009246826,0.034013032913208008,0.46639442443847656,-0.5805133581161499,0.55878078937530518,-0.10493230819702148,0.14161813259124756,-0.31643527746200562,-0.94410097599029541,-0.69383323192596436,0.99131405353546143,-0.35670781135559082,-0.96127212047576904,-0.10217487812042236,-0.57892358303070068,0.33781516551971436,-0.66886687278747559,-0.80938351154327393,0.47573304176330566,-0.27853667736053467,-0.45344376564025879,0.41672635078430176,0.61910605430603027,-0.66626906394958496,-0.42677795886993408,0.37249886989593506,0.86956191062927246,0.61695694923400879,0.99878871440887451,-0.72537267208099365,0.18205451965332031,-0.86010193824768066,-0.48904669284820557,-0.67375349998474121,0.91606199741363525,-0.94388628005981445,0.51743185520172119,0.97685408592224121,-0.22776484489440918,0.57971453666687012,0.87334787845611572,0.51449334621429443,0.027056574821472168,0.77894163131713867,-0.87189924716949463,-0.4655836820602417,0.23677873611450195,0.30728960037231445,0.6747967004776001,-0.63528084754943848,-0.96003615856170654,-0.45075333118438721,-0.78753280639648438,0.87631487846374512,0.16634452342987061,0.34326088428497314,-0.84865617752075195,0.20492184162139893,0.63206493854522705,0.88537633419036865,-0.12576282024383545,0.62753570079803467,-0.89062356948852539,-0.73124945163726807,-0.37151861190795898,-0.97309005260467529,0.58966207504272461,-0.05431973934173584,-0.45691287517547607,0.077136039733886719,0.17645609378814697,-0.19449222087860107,-0.85579407215118408,-0.46732378005981445,0.063391804695129395,0.13827610015869141,0.85122394561767578,-0.30789840221405029,0.7427675724029541,0.83570528030395508,-0.2167365550994873,-0.0092608928680419922,-0.95189440250396729,-0.08577263355255127,-0.12142407894134521,-0.1362757682800293,-0.49313783645629883,-1,-0.18009495735168457,0.6442948579788208,0.78455078601837158,-0.28105664253234863,0.77860641479492188,0.4654465913772583,0.88036751747131348,-0.23112940788269043,-0.53362560272216797,0.83691596984863281,0.32825565338134766,0.0050696134567260742,-0.31386804580688477,-0.84887588024139404,0.13155961036682129,-0.46283257007598877,-0.32422018051147461,-0.52318799495697021,-0.17194569110870361,-0.5695645809173584,0.31074225902557373,0.66818571090698242,-0.15285658836364746,0.27491378784179688,-0.85854721069335938,0.20621287822723389,0.78268873691558838,-0.63950204849243164,0.018078327178955078,-0.89071464538574219,0.28560459613800049,-0.6316148042678833,0.96111607551574707,0.1897118091583252,0.063363075256347656,-0.46447074413299561,0.94076228141784668,-0.35032689571380615,-0.82762181758880615,0.58360922336578369,0.13468837738037109,-0.21592199802398682,-0.29796093702316284],[-0.27779793739318848,0.070798993110656738,0.66580545902252197,-0.82308340072631836,-0.8016510009765625,-0.6246110200881958,-0.16820013523101807,-0.88078129291534424,0.80617725849151611,-0.69302129745483398,0.91982591152191162,0.072618007659912109,-0.019582390785217285,0.26482665538787842,0.32933557033538818,-0.7101210355758667,-0.95225000381469727,-0.79145467281341553,-0.63463437557220459,0.32870209217071533,0.86802089214324951,-0.54335892200469971,0.27115273475646973,0.76969969272613525,-0.79496479034423828,-0.13770878314971924,-0.53182816505432129,-0.095001101493835449,-0.60091829299926758,-0.47008919715881348,0.38455092906951904,-0.4675980806350708,-0.38296538591384888,-0.32638514041900635,-0.1410757303237915,0.24674475193023682,0.85484421253204346,0.11138975620269775,-0.32866597175598145,-0.12244969606399536,0.65507018566131592,-0.89698243141174316,0.66874587535858154,0.98655271530151367,-0.77050292491912842,-0.78781616687774658,0.015532851219177246,0.37621462345123291,0.61756360530853271,-0.60170519351959229,0.43453645706176758,-0.40171331167221069,0.05916905403137207,-0.16935873031616211,-0.23518550395965576,-0.67243480682373047,-0.012182354927062988,-0.87456190586090088,0.80400514602661133,0.62975668907165527,-0.58236062526702881,-0.20865964889526367,0.3191373348236084,0.24750876426696777,0.13585436344146729,-0.81885027885437012,-0.67439723014831543,-1,0.93723201751708984,0.48050945997238159,0.49936068058013916,0.73762392997741699,-0.61385083198547363,0.51217257976531982,-0.77571827173233032,0.58234000205993652,-0.72881996631622314,0.86224627494812012,0.22285997867584229,0.72726500034332275,0.51837790012359619,-0.96997988224029541,-0.07585906982421875,0.12297117710113525,0.55831944942474365,0.91921329498291016,0.35717427730560303,-0.61699438095092773,-0.59682750701904297,-0.96957945823669434,-0.38335579633712769,0.35690581798553467,-0.70326173305511475,-0.57967758178710938,0.16659677028656006,0.1915736198425293,0.04366910457611084,-0.66165065765380859,0.38381743431091309,0.56466937065124512,0.69962632656097412,-0.20835280418395996,0.79786109924316406,0.71137779951095581,0.19193148612976074,-0.96531510353088379,-0.48327350616455078,0.89601242542266846,0.96321284770965576,0.50722241401672363,0.52976727485656738,0.079549789428710938],[0.42216801643371582,0.94983458518981934,0.70844936370849609,0.34089016914367676,-0.44500958919525146,0.51813590526580811,-0.23754894733428955,-0.96203601360321045,0.28150308132171631,-0.34246444702148438,0.77037793397903442,-0.28014254570007324,0.17397594451904297,0.93958401679992676,-0.28728246688842773,0.49297049641609192,-0.8432694673538208,0.18127799034118652,0.94730377197265625,0.24532210826873779,0.031240701675415039,-0.37576666474342346,0.0022405385971069336,0.16779792308807373,-1,0.77707743644714355,-0.10442626476287842,0.46210205554962158,-1,-0.54681396484375,0.014745354652404785,-0.022653460502624512,-0.29927492141723633,0.70311689376831055,-0.68563258647918701,0.11517441272735596,0.47938749194145203,0.74171078205108643,-0.42761111259460449,-0.60985279083251953,-0.46503400802612305,-0.14066398143768311,0.68308484554290771,-0.91189002990722656,0.47955751419067383,-0.80089807510375977,-0.9502413272857666,0.37636768817901611,-0.80962038040161133,-0.96964657306671143,-0.72029411792755127,-0.64318728446960449,0.86523997783660889,-0.52278697490692139,0.39175170660018921,-0.63828575611114502,-0.98541969060897827,-0.80592143535614014,0.90416085720062256,-0.31019175052642822,-0.54095405340194702,-0.39163970947265625,0.58409333229064941,-0.6220325231552124]],"id":"F8A35772-3859-426D-A29D-E5FD7B09BB2B","generation":32,"hiddenCounts":[14,8],"inputCount":28,"outputCount":8},
{"biases":[[],[-0.78023672103881836,-0.21120750904083252,-0.21729052066802979,0.24020099639892578,-0.87365388870239258,0.68317043781280518,-0.058682441711425781,-0.33340442180633545,-1,-0.16024982929229736,-0.23972724378108978,0.22144627571105957,-0.074222803115844727,-0.74442732334136963],[0.4143531322479248,0.17425042390823364,-0.47201037406921387,0.22887909412384033,-0.28757378458976746,-0.11262321472167969,0.14757859706878662,-0.019412994384765625],[-0.09052884578704834,0.31708049774169922,0.9488067626953125,-0.10217975080013275,0.45486569404602051,0.30975604057312012,0.56385540962219238,-0.12812042236328125]],"weights":[[],[-0.6973804235458374,-0.47680330276489258,-0.82756602764129639,-0.41233628988265991,-0.69616281986236572,0.92284798622131348,-0.1441422700881958,-0.54894781112670898,0.35993099212646484,0.21626079082489014,-0.6324007511138916,0.31655538082122803,0.75172281265258789,-0.9540870189666748,-0.61840999126434326,0.81446433067321777,-0.83166241645812988,-0.87997281551361084,0.72399330139160156,-0.021088600158691406,-0.70391368865966797,-0.090975761413574219,-0.45530319213867188,0.29034698009490967,-0.55429661273956299,0.21608424186706543,0.46185088157653809,-0.76552271842956543,0.76463854312896729,-0.75591623783111572,-0.022141575813293457,0.94298708438873291,-0.0058159828186035156,0.75049924850463867,-0.025182008743286133,-1,0.81611001491546631,-0.67058002948760986,-0.36629247665405273,0.24300360679626465,0.10714733600616455,-0.19100642204284668,-0.7071765661239624,-0.33805274963378906,0.96021342277526855,-0.6326221227645874,0.51668453216552734,-0.38196825981140137,0.046598911285400391,-0.85600292682647705,-0.25096642971038818,0.80198240280151367,0.30056452751159668,-0.90208280086517334,0.45052552223205566,0.43378210067749023,-0.48819363117218018,-0.73704707622528076,0.62378406524658203,-0.63737130165100098,-0.90076792240142822,-0.15755546092987061,0.79035496711730957,-0.38409614562988281,0.73519277572631836,-0.78136253356933594,-0.93429386615753174,0.11517882347106934,-0.82735836505889893,0.23519635200500488,1,0.09673011302947998,0.92376530170440674,-0.98416352272033691,0.70582175254821777,0.62539553642272949,-0.14765274524688721,-0.93916189670562744,0.035103678703308105,0.13472259044647217,-0.35563004016876221,-0.84745550155639648,0.12526953220367432,-0.023143887519836426,-0.6565709114074707,0.079018950462341309,0.36190927028656006,0.56493830680847168,-0.092212915420532227,0.73143124580383301,0.71247363090515137,-0.36504518985748291,-0.72241926193237305,0.43395686149597168,0.92980694770812988,-0.81510508060455322,1,0.50036954879760742,0.58301186561584473,0.053540229797363281,-0.35716807842254639,-0.72110199928283691,0.75795245170593262,0.77173542976379395,0.74214386940002441,0.95629251003265381,0.076732039451599121,0.32868766784667969,-0.60084831714630127,0.97903192043304443,0.96394813060760498,-0.86261665821075439,0.57579982280731201,-0.097535252571105957,0.37419354915618896,-0.82028293609619141,-0.77361094951629639,-0.39502048492431641,-0.052406549453735352,0.8304513692855835,-0.1641232967376709,0.91308808326721191,0.27512001991271973,0.60777938365936279,0.1068115234375,-0.90821397304534912,-0.63091146945953369,-0.10794520378112793,-0.77087855339050293,-0.52583408355712891,-0.3332904577255249,0.04761970043182373,-0.84520721435546875,-0.17120909690856934,0.9317176342010498,0.00055396556854248047,0.81756138801574707,0.031314611434936523,-0.21770322322845459,0.48300254344940186,0.99119532108306885,0.69266235828399658,-0.63944458961486816,0.75500345230102539,0.03869175910949707,0.19312632083892822,0.3335038423538208,0.57427847385406494,-0.39957714080810547,0.14811480045318604,-0.31614851951599121,0.58630502223968506,0.91237545013427734,-0.53528106212615967,-0.38912695646286011,-0.40166127681732178,-0.40301716327667236,-0.14197158813476562,0.38987934589385986,0.65406203269958496,-0.20498943328857422,0.57710742950439453,-0.83823120594024658,-0.053786754608154297,-0.20479345321655273,-0.14421367645263672,0.92955732345581055,0.16818916797637939,0.85455834865570068,-0.77241778373718262,-0.2986595630645752,0.12851357460021973,0.041242837905883789,-0.056438207626342773,-0.21763110160827637,-0.42626404762268066,0.36755919456481934,-0.85189211368560791,0.61106765270233154,-0.62966835498809814,0.7674567699432373,-0.12098550796508789,0.051320433616638184,-0.84315884113311768,0.79864382743835449,0.85587716102600098,0.61496591567993164,0.77163755893707275,-0.9497678279876709,0.37859487533569336,-0.37016952037811279,0.62675201892852783,0.99925410747528076,-0.31207859516143799,-0.32704925537109375,-0.84330081939697266,0.0093343257904052734,-0.45131850242614746,-0.007584691047668457,-0.74584782123565674,-0.89661550521850586,0.97519826889038086,-0.39767301082611084,0.12913310527801514,0.25648117065429688,-0.70779240131378174,0.52744746208190918,0.59239470958709717,-0.62921714782714844,1,0.80891931056976318,0.095032930374145508,-0.50576603412628174,-0.64874565601348877,-0.1345670223236084,-0.57405054569244385,0.95811128616333008,0.1908726692199707,-0.800994873046875,-0.53901934623718262,-0.21984219551086426,-0.55165612697601318,-0.60484087467193604,-0.21898937225341797,-0.96488630771636963,-0.3129420280456543,0.13919186592102051,0.15640044212341309,0.70571744441986084,0.089148283004760742,0.42331099510192871,0.51236188411712646,0.38189518451690674,-0.83739817142486572,0.8797304630279541,0.44837033748626709,0.81647193431854248,0.22424209117889404,-0.88258111476898193,0.063117146492004395,-0.54846251010894775,0.51206731796264648,0.17879354953765869,-0.10680615901947021,0.077886700630187988,-0.95881760120391846,0.76344597339630127,0.78701460361480713,0.060055017471313477,0.89318346977233887,0.86131930351257324,0.2797311544418335,-0.26567339897155762,-0.37257087230682373,-0.97733962535858154,0.52150297164916992,-0.73631668090820312,-0.40331530570983887,-0.68475532531738281,0.50942409038543701,-0.40203237533569336,0.57205379009246826,0.034013032913208008,0.46639442443847656,-0.5805133581161499,0.55878078937530518,-0.10493230819702148,0.14161813259124756,-0.31643527746200562,-0.94410097599029541,-0.69383323192596436,0.99131405353546143,-0.35670781135559082,-0.96127212047576904,-0.10217487812042236,-0.57892358303070068,0.33781516551971436,-0.66886687278747559,-0.80938351154327393,0.47573304176330566,-0.27853667736053467,-0.45344376564025879,0.41672635078430176,0.61910605430603027,-0.66626906394958496,-0.42677795886993408,0.37249886989593506,0.86956191062927246,0.61695694923400879,0.99878871440887451,-0.72537267208099365,0.18205451965332031,-0.86010193824768066,-0.48904669284820557,-0.67375349998474121,0.91606199741363525,-0.94388628005981445,0.51743185520172119,0.97685408592224121,-0.22776484489440918,0.57971453666687012,0.87334787845611572,0.51449334621429443,0.027056574821472168,0.77894163131713867,-0.87189924716949463,-0.4655836820602417,0.23677873611450195,0.30728960037231445,0.6747967004776001,-0.63528084754943848,-0.96003615856170654,-0.45075333118438721,-0.78753280639648438,0.87631487846374512,0.16634452342987061,0.34326088428497314,-0.84865617752075195,0.20492184162139893,0.63206493854522705,0.88537633419036865,-0.12576282024383545,0.62753570079803467,-0.89062356948852539,-0.73124945163726807,-0.37151861190795898,-0.97309005260467529,0.58966207504272461,-0.05431973934173584,-0.45691287517547607,0.077136039733886719,0.17645609378814697,-0.19449222087860107,-0.85579407215118408,-0.46732378005981445,0.063391804695129395,0.13827610015869141,0.85122394561767578,-0.30789840221405029,0.7427675724029541,0.83570528030395508,-0.2167365550994873,-0.0092608928680419922,-0.95189440250396729,-0.08577263355255127,-0.12142407894134521,-0.1362757682800293,-0.49313783645629883,-0.85420739650726318,-0.18009495735168457,0.6442948579788208,0.78455078601837158,-0.28105664253234863,0.77860641479492188,0.4654465913772583,0.88036751747131348,-0.23112940788269043,-0.53362560272216797,0.83691596984863281,0.32825565338134766,0.0050696134567260742,-0.31386804580688477,-0.84887588024139404,0.13155961036682129,-0.46283257007598877,-0.32422018051147461,-0.52318799495697021,-0.17194569110870361,-0.5695645809173584,0.31074225902557373,0.66818571090698242,-0.15285658836364746,0.27491378784179688,-0.85854721069335938,0.20621287822723389,0.78268873691558838,-0.63950204849243164,0.018078327178955078,-0.89071464538574219,0.28560459613800049,-0.6316148042678833,0.96111607551574707,0.1897118091583252,0.063363075256347656,-0.46447074413299561,0.94076228141784668,-0.35032689571380615,-0.82762181758880615,0.58360922336578369,0.13468837738037109,-0.21592199802398682,-0.29796093702316284],[-0.27779793739318848,0.070798993110656738,0.66580545902252197,-0.82308340072631836,-0.8016510009765625,-0.6246110200881958,-0.16820013523101807,-0.88078129291534424,0.80617725849151611,-0.69302129745483398,0.91982591152191162,0.072618007659912109,-0.019582390785217285,0.26482665538787842,0.32933557033538818,-0.7101210355758667,-0.95225000381469727,-0.53805315494537354,-0.63463437557220459,0.32870209217071533,0.86802089214324951,-0.54335892200469971,0.27115273475646973,0.76969969272613525,-0.79496479034423828,-0.13770878314971924,-0.53182816505432129,-0.095001101493835449,-0.60091829299926758,-0.47008919715881348,0.38455092906951904,-0.4675980806350708,-0.38296538591384888,-0.32638514041900635,-0.1410757303237915,0.24674475193023682,0.85484421253204346,0.11138975620269775,-0.32866597175598145,-0.55297756195068359,0.65507018566131592,-0.89698243141174316,0.66874587535858154,0.98655271530151367,-0.77050292491912842,-0.78781616687774658,0.015532851219177246,0.37621462345123291,0.61756360530853271,-0.60170519351959229,0.43453645706176758,-0.40171331167221069,0.05916905403137207,-0.16935873031616211,-0.23518550395965576,-0.4043157696723938,-0.012182354927062988,-0.87456190586090088,0.80400514602661133,0.62975668907165527,-0.58236062526702881,-0.20865964889526367,0.3191373348236084,0.24750876426696777,0.13585436344146729,-0.81885027885437012,-0.67439723014831543,-1,0.93723201751708984,0.48050945997238159,0.49936068058013916,0.73762392997741699,-0.96239560842514038,0.51217257976531982,-0.77571827173233032,0.58234000205993652,-0.72881996631622314,0.86224627494812012,0.22285997867584229,0.72726500034332275,0.51837790012359619,-0.96997988224029541,-0.07585906982421875,0.12297117710113525,0.55831944942474365,0.91921329498291016,0.35717427730560303,-0.61699438095092773,-0.59682750701904297,-0.96957945823669434,-0.38335579633712769,0.35690581798553467,-0.70326173305511475,-0.57967758178710938,0.16659677028656006,0.1915736198425293,0.04366910457611084,-0.66165065765380859,0.38381743431091309,0.56466937065124512,0.69962632656097412,-0.20835280418395996,0.79786109924316406,0.71137779951095581,0.19193148612976074,-0.96531510353088379,-0.48327350616455078,0.89601242542266846,0.96321284770965576,0.50722241401672363,0.52976727485656738,0.079549789428710938],[0.42216801643371582,0.94983458518981934,0.70844936370849609,0.34089016914367676,-0.44500958919525146,0.51813590526580811,-0.23754894733428955,-0.46821179986000061,0.28150308132171631,-0.34246444702148438,0.77037793397903442,-0.28014254570007324,0.17397594451904297,0.93958401679992676,-0.28728246688842773,0.49297049641609192,-0.8432694673538208,0.18127799034118652,0.94730377197265625,0.24532210826873779,0.031240701675415039,-0.37576666474342346,0.0022405385971069336,0.16779792308807373,-1,0.77707743644714355,-0.10442626476287842,0.46210205554962158,-1,-0.54681396484375,0.014745354652404785,-0.022653460502624512,-0.14963746070861816,0.70311689376831055,-0.68563258647918701,0.11517441272735596,0.47938749194145203,0.74171078205108643,-0.42761111259460449,-0.60985279083251953,-0.46503400802612305,-0.14066398143768311,0.68308484554290771,-0.91189002990722656,0.41621243953704834,-0.80089807510375977,-0.9502413272857666,0.37636768817901611,-0.80962038040161133,-0.96964657306671143,-0.72029411792755127,-0.64318728446960449,0.86523997783660889,-0.52278697490692139,0.39175170660018921,-0.63828575611114502,-0.98541969060897827,-0.80592143535614014,0.90416085720062256,-0.31019175052642822,-0.54095405340194702,-0.39163970947265625,0.58409333229064941,-0.6220325231552124]],"id":"64D72924-CEE0-41CA-83F3-2D0FCDA5F559","generation":32,"hiddenCounts":[14,8],"inputCount":28,"outputCount":8},
{"biases":[[],[-0.78023672103881836,-0.21120750904083252,-0.21729052066802979,-0.15243116021156311,-0.87365388870239258,0.68317043781280518,-0.058682441711425781,-0.74966484308242798,-1,-0.16024982929229736,-0.23972724378108978,0.22144627571105957,-0.074222803115844727,-0.74442732334136963],[0.4143531322479248,0.34850084781646729,-0.47201037406921387,0.22887909412384033,0.0052158832550048828,-0.11262321472167969,0.14757859706878662,-0.019412994384765625],[-0.09052884578704834,0.31708049774169922,0.9488067626953125,-0.10217975080013275,-0.011599902994930744,0.30975604057312012,0.56385540962219238,-0.75073540210723877]],"weights":[[],[-0.6973804235458374,-0.47680330276489258,-0.82756602764129639,-0.83963501453399658,-0.69616281986236572,0.92284798622131348,-0.1441422700881958,-0.54894781112670898,0.35993099212646484,0.21626079082489014,-0.6324007511138916,0.31655538082122803,0.75172281265258789,-0.9540870189666748,-0.61840999126434326,0.81446433067321777,-0.83166241645812988,-0.87997281551361084,0.72399330139160156,-0.021088600158691406,-0.70391368865966797,-0.090975761413574219,-0.45530319213867188,0.29034698009490967,-0.55429661273956299,0.21608424186706543,0.46185088157653809,-0.76552271842956543,0.76463854312896729,-0.75591623783111572,-0.022141575813293457,0.94298708438873291,-0.0058159828186035156,0.75049924850463867,-0.025182008743286133,-1,0.81611001491546631,-0.67058002948760986,-0.36629247665405273,0.24300360679626465,0.10714733600616455,-0.19100642204284668,-0.7071765661239624,-0.33805274963378906,0.96021342277526855,-0.6326221227645874,0.51668453216552734,-0.38196825981140137,0.046598911285400391,-0.85600292682647705,-0.25096642971038818,0.80198240280151367,0.30056452751159668,-1,0.45052552223205566,0.43378210067749023,-0.48819363117218018,-0.73704707622528076,0.62378406524658203,-0.63737130165100098,-0.90076792240142822,-0.15755546092987061,0.79035496711730957,-0.38409614562988281,0.73519277572631836,-0.78136253356933594,-0.93429386615753174,0.11517882347106934,-0.82735836505889893,0.23519635200500488,1,0.09673011302947998,0.92376530170440674,-0.98416352272033691,0.70582175254821777,0.62539553642272949,-0.14765274524688721,-0.93916189670562744,0.035103678703308105,0.13472259044647217,-0.35563004016876221,-0.84745550155639648,0.12526953220367432,-0.023143887519836426,-0.6565709114074707,0.079018950462341309,0.36190927028656006,0.56493830680847168,-0.092212915420532227,0.73143124580383301,0.71247363090515137,-0.36504518985748291,-0.72241926193237305,0.43395686149597168,0.92980694770812988,-0.81510508060455322,1,0.50036954879760742,0.58301186561584473,0.053540229797363281,-0.71433615684509277,-0.72110199928283691,0.75795245170593262,0.77173542976379395,0.74214386940002441,0.95629251003265381,0.076732039451599121,0.32868766784667969,-0.60084831714630127,0.97903192043304443,0.96394813060760498,-0.86261665821075439,0.57579982280731201,-0.097535252571105957,0.37419354915618896,-0.82028293609619141,-0.77361094951629639,-0.39502048492431641,-0.052406549453735352,0.8304513692855835,-0.1641232967376709,0.91308808326721191,0.27512001991271973,0.60777938365936279,0.1068115234375,-0.90821397304534912,-0.63091146945953369,-0.10794520378112793,-0.77087855339050293,-0.52583408355712891,-0.3332904577255249,0.04761970043182373,-0.84520721435546875,-0.17120909690856934,0.9317176342010498,0.00055396556854248047,0.81756138801574707,0.031314611434936523,-0.21770322322845459,0.48300254344940186,0.99119532108306885,0.69266235828399658,-0.63944458961486816,0.75500345230102539,0.03869175910949707,0.19312632083892822,0.3335038423538208,0.57427847385406494,-0.39957714080810547,0.14811480045318604,-0.31614851951599121,0.58630502223968506,0.91237545013427734,-0.53528106212615967,-0.77707195281982422,-0.40166127681732178,-0.40301716327667236,-0.14197158813476562,0.38987934589385986,0.65406203269958496,-0.20498943328857422,0.57710742950439453,-0.83823120594024658,0.21052250266075134,-0.20479345321655273,-0.14421367645263672,0.92955732345581055,0.16818916797637939,0.85455834865570068,-0.77241778373718262,-0.2986595630645752,0.12851357460021973,0.041242837905883789,-0.056438207626342773,-0.21763110160827637,-0.42626404762268066,0.36755919456481934,-0.85189211368560791,0.61106765270233154,-0.62966835498809814,0.7674567699432373,-0.12098550796508789,0.051320433616638184,-0.84315884113311768,0.79864382743835449,0.85587716102600098,0.61496591567993164,0.77163755893707275,-0.9497678279876709,0.37859487533569336,-0.37016952037811279,0.62675201892852783,0.99925410747528076,-0.31207859516143799,-0.32704925537109375,-0.84330081939697266,0.0093343257904052734,-0.45131850242614746,-0.007584691047668457,-0.74584782123565674,-0.89661550521850586,0.97519826889038086,-0.39767301082611084,0.12913310527801514,0.25648117065429688,-0.70779240131378174,0.52744746208190918,0.59239470958709717,-0.62921714782714844,1,0.80891931056976318,0.095032930374145508,-0.50576603412628174,-0.64874565601348877,-0.63030952215194702,-0.57405054569244385,0.95811128616333008,0.1908726692199707,-0.800994873046875,-0.53901934623718262,-0.21984219551086426,-0.55165612697601318,-0.60484087467193604,-0.21898937225341797,-0.96488630771636963,-0.3129420280456543,0.13919186592102051,0.15640044212341309,0.70571744441986084,0.089148283004760742,0.42331099510192871,-0.12214076519012451,0.38189518451690674,-0.83739817142486572,0.8797304630279541,0.44837033748626709,0.81647193431854248,0.22424209117889404,-0.88258111476898193,0.063117146492004395,-0.54846251010894775,0.51206731796264648,0.17879354953765869,-0.10680615901947021,0.077886700630187988,-0.95881760120391846,0.76344597339630127,0.78701460361480713,0.060055017471313477,0.89318346977233887,0.86131930351257324,0.2797311544418335,-0.26567339897155762,-0.37257087230682373,-0.97733962535858154,0.52150297164916992,-0.73631668090820312,-0.40331530570983887,-0.68475532531738281,0.50942409038543701,-0.40203237533569336,0.57205379009246826,0.034013032913208008,0.46639442443847656,-0.5805133581161499,0.55878078937530518,-0.10493230819702148,0.14161813259124756,-0.31643527746200562,-0.94410097599029541,-0.69383323192596436,0.99131405353546143,-0.35670781135559082,-0.96127212047576904,-0.10217487812042236,-0.57892358303070068,0.33781516551971436,-0.66886687278747559,-0.80938351154327393,0.47573304176330566,-0.27853667736053467,-0.45344376564025879,0.41672635078430176,0.61910605430603027,-0.66626906394958496,-0.42677795886993408,0.37249886989593506,0.86956191062927246,0.61695694923400879,0.99878871440887451,-0.72537267208099365,0.18205451965332031,-0.86010193824768066,-0.48904669284820557,-0.67375349998474121,0.45803099870681763,-0.94388628005981445,0.51743185520172119,0.97685408592224121,-0.22776484489440918,0.57971453666687012,0.87334787845611572,0.51449334621429443,0.027056574821472168,1,-0.87189924716949463,-0.4655836820602417,0.23677873611450195,0.30728960037231445,0.6747967004776001,-0.63528084754943848,-0.96003615856170654,-0.45075333118438721,-0.78753280639648438,0.87631487846374512,0.16634452342987061,0.34326088428497314,-0.84865617752075195,0.20492184162139893,0.63206493854522705,0.88537633419036865,-0.12576282024383545,0.62753570079803467,-0.89062356948852539,-0.36562472581863403,-0.37151861190795898,-0.97309005260467529,0.58966207504272461,-0.05431973934173584,-0.45691287517547607,0.077136039733886719,0.17645609378814697,-0.19449222087860107,-0.85579407215118408,-0.46732378005981445,0.063391804695129395,0.13827610015869141,0.35516071319580078,-0.30789840221405029,0.7427675724029541,0.83570528030395508,-0.2167365550994873,-0.0092608928680419922,-0.95189440250396729,-0.08577263355255127,-0.12142407894134521,-0.1362757682800293,-0.49313783645629883,-0.85420739650726318,-0.18009495735168457,0.6442948579788208,0.78455078601837158,-0.28105664253234863,0.77860641479492188,0.4654465913772583,0.88036751747131348,-0.23112940788269043,-0.53362560272216797,0.83691596984863281,0.32825565338134766,0.0050696134567260742,-0.31386804580688477,-0.84887588024139404,0.13155961036682129,-0.46283257007598877,-0.32422018051147461,-0.52318799495697021,-0.17194569110870361,-0.5695645809173584,0.31074225902557373,0.66818571090698242,-0.15285658836364746,0.27491378784179688,-0.85854721069335938,0.20621287822723389,0.78268873691558838,-0.63950204849243164,0.018078327178955078,-0.89071464538574219,0.28560459613800049,-0.6316148042678833,0.96111607551574707,0.1897118091583252,0.063363075256347656,-0.46447074413299561,0.94076228141784668,-0.35032689571380615,-0.82762181758880615,0.58360922336578369,0.13468837738037109,-0.21592199802398682,-0.29796093702316284],[-0.27779793739318848,0.070798993110656738,0.66580545902252197,-0.82308340072631836,-0.8016510009765625,-0.6246110200881958,-0.16820013523101807,-0.78882813453674316,0.80617725849151611,-0.69302129745483398,0.91982591152191162,0.072618007659912109,-0.019582390785217285,0.26482665538787842,0.32933557033538818,-0.7101210355758667,-0.95225000381469727,-0.79145467281341553,-0.63463437557220459,0.32870209217071533,0.86802089214324951,-0.54335892200469971,0.27115273475646973,0.76969969272613525,-0.79496479034423828,-0.13770878314971924,-0.53182816505432129,-0.095001101493835449,-0.60091829299926758,-0.47008919715881348,0.38455092906951904,-0.4675980806350708,-0.38296538591384888,-0.32638514041900635,-0.1410757303237915,0.24674475193023682,0.48930671811103821,0.11138975620269775,-0.32866597175598145,-0.55297756195068359,0.65507018566131592,-0.89698243141174316,0.66874587535858154,0.98655271530151367,-0.77050292491912842,-0.78781616687774658,0.015532851219177246,0.37621462345123291,0.61756360530853271,-0.60170519351959229,0.73022276163101196,-0.081482060253620148,0.05916905403137207,-0.16935873031616211,-0.23518550395965576,-0.67243480682373047,0.086071968078613281,-0.87456190586090088,0.80400514602661133,0.62975668907165527,-0.58236062526702881,-0.20865964889526367,0.3191373348236084,0.24750876426696777,0.13585436344146729,-0.47780656814575195,-0.67439723014831543,-1,0.93723201751708984,0.48050945997238159,0.49936068058013916,0.73762392997741699,-0.61385083198547363,0.51217257976531982,-0.77571827173233032,0.58234000205993652,-0.72881996631622314,0.86224627494812012,0.22285997867584229,0.72726500034332275,0.51837790012359619,-0.96997988224029541,-0.07585906982421875,0.12297117710113525,0.55831944942474365,0.91921329498291016,0.35717427730560303,-0.61699438095092773,-0.59682750701904297,-0.96957945823669434,-0.38335579633712769,0.35690581798553467,-0.70326173305511475,-0.57967758178710938,0.16659677028656006,-0.7357940673828125,0.04366910457611084,-1,0.38381743431091309,0.56466937065124512,0.69962632656097412,-0.20835280418395996,0.79786109924316406,0.71137779951095581,0.19193148612976074,-0.96531510353088379,-0.48327350616455078,0.89601242542266846,0.96321284770965576,0.50722241401672363,0.52976727485656738,0.079549789428710938],[0.42216801643371582,0.94983458518981934,0.70844936370849609,0.34089016914367676,-0.44500958919525146,0.3630523681640625,-0.23754894733428955,-0.96203601360321045,0.28150308132171631,-0.34246444702148438,0.77037793397903442,-0.28014254570007324,0.17397594451904297,0.93958401679992676,-0.28728246688842773,0.49297049641609192,-0.8432694673538208,0.18127799034118652,0.94730377197265625,0.24532210826873779,0.031240701675415039,-0.37576666474342346,-0.25605487823486328,0.16779792308807373,-1,0.77707743644714355,-0.10442626476287842,0.46210205554962158,-1,-0.54681396484375,0.014745354652404785,-0.022653460502624512,-0.29927492141723633,0.70311689376831055,-0.68563258647918701,0.11517441272735596,0.89203834533691406,0.74171078205108643,-0.42761111259460449,-0.60985279083251953,-0.46503400802612305,-0.14066398143768311,0.68308484554290771,-0.91189002990722656,0.41621243953704834,-0.80089807510375977,-0.9502413272857666,0.37636768817901611,-0.80962038040161133,-0.96964657306671143,-0.72029411792755127,-0.64318728446960449,-0.68486392498016357,-0.52278697490692139,0.78350341320037842,-0.63828575611114502,-0.98541969060897827,-0.80592143535614014,0.90416085720062256,-0.31019175052642822,-0.28089475631713867,-0.39163970947265625,0.58409333229064941,-0.6220325231552124]],"id":"A81E649B-C865-49A9-8DFD-2CA7E7FA2CDF","generation":33,"hiddenCounts":[14,8],"inputCount":28,"outputCount":8},
{"biases":[[],[-0.78023672103881836,-0.21120750904083252,-0.21729052066802979,-0.15243116021156311,-0.87365388870239258,0.68317043781280518,-0.058682441711425781,-0.33340442180633545,-1,-0.16024982929229736,-0.23972724378108978,0.22144627571105957,-0.074222803115844727,-0.74442732334136963],[0.4143531322479248,0.34850084781646729,-0.47201037406921387,0.22887909412384033,0.0052158832550048828,-0.11262321472167969,0.14757859706878662,-0.019412994384765625],[-0.09052884578704834,0.31708049774169922,0.9488067626953125,-0.10217975080013275,0.22743284702301025,0.30975604057312012,0.56385540962219238,-0.75073540210723877]],"weights":[[],[-0.6973804235458374,-0.47680330276489258,-0.82756602764129639,-0.83963501453399658,-0.69616281986236572,0.92284798622131348,-0.1441422700881958,-0.54894781112670898,0.35993099212646484,0.21626079082489014,-0.6324007511138916,0.31655538082122803,0.75172281265258789,-0.9540870189666748,-0.61840999126434326,0.81446433067321777,-0.83166241645812988,-0.87997281551361084,0.72399330139160156,-0.021088600158691406,-0.70391368865966797,-0.30111587047576904,-0.45530319213867188,0.29034698009490967,-0.55429661273956299,0.21608424186706543,0.46185088157653809,-0.76552271842956543,0.76463854312896729,-0.75591623783111572,-0.022141575813293457,0.94298708438873291,-0.0058159828186035156,0.75049924850463867,-0.025182008743286133,-1,0.81611001491546631,-0.67058002948760986,-0.36629247665405273,0.24300360679626465,0.10714733600616455,-0.19100642204284668,-0.7071765661239624,-0.33805274963378906,0.96021342277526855,-0.6326221227645874,0.51668453216552734,-0.38196825981140137,0.046598911285400391,-0.85600292682647705,-0.25096642971038818,0.80198240280151367,0.30056452751159668,-1,0.45052552223205566,0.43378210067749023,-0.48819363117218018,-0.73704707622528076,0.62378406524658203,-0.63737130165100098,-0.90076792240142822,-0.15755546092987061,0.79035496711730957,-0.38409614562988281,0.73519277572631836,-0.78136253356933594,-0.93429386615753174,0.11517882347106934,-0.82735836505889893,0.23519635200500488,1,0.09673011302947998,0.92376530170440674,-0.98416352272033691,0.70582175254821777,0.62539553642272949,-0.14765274524688721,-0.93916189670562744,0.035103678703308105,0.13472259044647217,-0.35563004016876221,-0.84745550155639648,0.12526953220367432,-0.023143887519836426,-0.6565709114074707,0.079018950462341309,0.36190927028656006,0.56493830680847168,-0.092212915420532227,0.73143124580383301,0.71247363090515137,-0.36504518985748291,-0.72241926193237305,0.43395686149597168,0.92980694770812988,-0.81510508060455322,1,0.50036954879760742,0.58301186561584473,0.053540229797363281,-0.35716807842254639,-0.72110199928283691,0.75795245170593262,0.77173542976379395,0.74214386940002441,0.95629251003265381,0.076732039451599121,0.32868766784667969,-0.60084831714630127,0.97903192043304443,0.96394813060760498,-0.86261665821075439,0.57579982280731201,-0.097535252571105957,0.37419354915618896,-0.82028293609619141,-0.77361094951629639,-0.39502048492431641,-0.052406549453735352,0.8304513692855835,-0.1641232967376709,0.91308808326721191,0.27512001991271973,0.60777938365936279,0.1068115234375,-0.90821397304534912,-0.63091146945953369,-0.10794520378112793,-0.77087855339050293,-0.52583408355712891,-0.3332904577255249,0.04761970043182373,-0.84520721435546875,-0.17120909690856934,0.9317176342010498,0.00055396556854248047,0.81756138801574707,0.031314611434936523,-0.21770322322845459,0.48300254344940186,0.99119532108306885,0.69266235828399658,-0.63944458961486816,0.75500345230102539,0.03869175910949707,0.19312632083892822,0.3335038423538208,0.57427847385406494,-0.39957714080810547,0.14811480045318604,-0.31614851951599121,0.58630502223968506,0.91237545013427734,-0.53528106212615967,-0.77707195281982422,-0.40166127681732178,-0.40301716327667236,-0.14197158813476562,0.38987934589385986,0.65406203269958496,-0.20498943328857422,0.57710742950439453,-0.83823120594024658,-0.053786754608154297,-0.20479345321655273,-0.14421367645263672,0.92955732345581055,0.16818916797637939,0.85455834865570068,-0.77241778373718262,-0.2986595630645752,0.12851357460021973,0.041242837905883789,-0.056438207626342773,-0.21763110160827637,-0.42626404762268066,0.36755919456481934,-0.85189211368560791,0.61106765270233154,-0.62966835498809814,0.7674567699432373,-0.12098550796508789,0.051320433616638184,-0.84315884113311768,0.79864382743835449,0.85587716102600098,0.61496591567993164,0.77163755893707275,-0.9497678279876709,0.37859487533569336,-0.37016952037811279,0.62675201892852783,0.99925410747528076,-0.31207859516143799,-0.32704925537109375,-0.84330081939697266,0.0093343257904052734,-0.45131850242614746,-0.007584691047668457,-0.74584782123565674,-0.89661550521850586,0.97519826889038086,-0.39767301082611084,0.12913310527801514,0.25648117065429688,-0.70779240131378174,0.52744746208190918,0.59239470958709717,-0.62921714782714844,1,0.80891931056976318,0.095032930374145508,-0.50576603412628174,-0.64874565601348877,-0.63030952215194702,-0.57405054569244385,0.95811128616333008,0.1908726692199707,-0.800994873046875,-0.53901934623718262,-0.21984219551086426,-0.55165612697601318,-0.60484087467193604,-0.21898937225341797,-0.96488630771636963,-0.3129420280456543,0.13919186592102051,0.15640044212341309,0.70571744441986084,0.089148283004760742,0.42331099510192871,-0.12214076519012451,0.38189518451690674,-0.83739817142486572,0.8797304630279541,0.44837033748626709,0.81647193431854248,0.22424209117889404,-0.88258111476898193,0.063117146492004395,-0.54846251010894775,0.51206731796264648,0.17879354953765869,-0.10680615901947021,0.077886700630187988,-0.95881760120391846,0.76344597339630127,0.78701460361480713,0.060055017471313477,0.89318346977233887,0.86131930351257324,0.2797311544418335,-0.26567339897155762,-0.37257087230682373,-0.97733962535858154,0.52150297164916992,-0.73631668090820312,-0.40331530570983887,-0.68475532531738281,0.50942409038543701,-0.40203237533569336,0.57205379009246826,0.034013032913208008,0.46639442443847656,-0.5805133581161499,0.55878078937530518,-0.10493230819702148,0.14161813259124756,-0.31643527746200562,-0.94410097599029541,-0.69383323192596436,0.99131405353546143,-0.35670781135559082,-0.96127212047576904,-0.10217487812042236,-0.57892358303070068,0.33781516551971436,-0.66886687278747559,-0.80938351154327393,0.47573304176330566,-0.27853667736053467,-0.45344376564025879,0.41672635078430176,0.61910605430603027,-0.66626906394958496,-0.42677795886993408,0.37249886989593506,0.86956191062927246,0.61695694923400879,0.99878871440887451,-0.72537267208099365,0.18205451965332031,-0.86010193824768066,-0.48904669284820557,-0.67375349998474121,0.45803099870681763,-0.94388628005981445,0.51743185520172119,0.97685408592224121,-0.22776484489440918,0.57971453666687012,0.87334787845611572,0.51449334621429443,0.027056574821472168,0.77894163131713867,-0.87189924716949463,-0.4655836820602417,0.23677873611450195,0.30728960037231445,0.6747967004776001,-0.63528084754943848,-0.96003615856170654,-0.45075333118438721,-0.78753280639648438,0.87631487846374512,0.16634452342987061,0.34326088428497314,-0.84865617752075195,0.20492184162139893,0.63206493854522705,0.88537633419036865,-0.12576282024383545,0.62753570079803467,-0.89062356948852539,-0.73124945163726807,-0.37151861190795898,-0.97309005260467529,0.58966207504272461,-0.05431973934173584,-0.45691287517547607,0.077136039733886719,0.17645609378814697,-0.19449222087860107,-0.85579407215118408,-0.46732378005981445,0.063391804695129395,0.13827610015869141,0.35516071319580078,-0.30789840221405029,0.7427675724029541,0.83570528030395508,-0.2167365550994873,-0.0092608928680419922,-0.95189440250396729,-0.08577263355255127,-0.12142407894134521,-0.1362757682800293,-0.49313783645629883,-0.85420739650726318,-0.18009495735168457,0.6442948579788208,-0.66979944705963135,-0.28105664253234863,0.77860641479492188,0.4654465913772583,0.88036751747131348,-0.23112940788269043,-0.53362560272216797,0.83691596984863281,0.32825565338134766,0.0050696134567260742,-0.31386804580688477,-0.84887588024139404,0.13155961036682129,-0.46283257007598877,-0.32422018051147461,-0.52318799495697021,-0.17194569110870361,-0.5695645809173584,0.31074225902557373,0.66818571090698242,-0.15285658836364746,0.27491378784179688,-0.85854721069335938,0.20621287822723389,0.78268873691558838,-0.63950204849243164,0.018078327178955078,-0.89071464538574219,0.28560459613800049,-0.6316148042678833,0.96111607551574707,0.1897118091583252,0.063363075256347656,-0.46447074413299561,0.94076228141784668,-0.35032689571380615,-0.82762181758880615,0.58360922336578369,0.13468837738037109,-0.21592199802398682,-0.29796093702316284],[-0.27779793739318848,0.070798993110656738,0.66580545902252197,-0.82308340072631836,-0.8016510009765625,-0.6246110200881958,-0.16820013523101807,-0.78882813453674316,0.80617725849151611,-0.69302129745483398,0.91982591152191162,0.072618007659912109,-0.019582390785217285,0.26482665538787842,0.32933557033538818,-0.7101210355758667,-0.95225000381469727,-0.79145467281341553,-0.63463437557220459,0.32870209217071533,0.86802089214324951,-0.54335892200469971,0.27115273475646973,0.76969969272613525,-0.79496479034423828,-0.13770878314971924,-0.53182816505432129,-0.095001101493835449,-0.60091829299926758,-0.47008919715881348,0.38455092906951904,-0.4675980806350708,-0.38296538591384888,-0.32638514041900635,-0.1410757303237915,0.24674475193023682,0.85484421253204346,0.11138975620269775,-0.32866597175598145,-0.55297756195068359,0.65507018566131592,-0.89698243141174316,0.66874587535858154,0.98655271530151367,-0.77050292491912842,-0.78781616687774658,0.015532851219177246,0.37621462345123291,0.61756360530853271,-0.60170519351959229,0.43453645706176758,-0.40171331167221069,0.05916905403137207,-0.16935873031616211,-0.23518550395965576,-0.67243480682373047,-0.012182354927062988,-0.87456190586090088,0.80400514602661133,0.62975668907165527,-0.58236062526702881,-0.20865964889526367,0.3191373348236084,0.24750876426696777,0.13585436344146729,-0.47780656814575195,-0.67439723014831543,-1,0.93723201751708984,0.48050945997238159,0.49936068058013916,0.73762392997741699,-0.61385083198547363,0.51217257976531982,-0.77571827173233032,0.58234000205993652,-0.72881996631622314,0.86224627494812012,0.22285997867584229,0.72726500034332275,0.51837790012359619,-0.96997988224029541,-0.07585906982421875,0.12297117710113525,0.55831944942474365,0.91921329498291016,0.35717427730560303,-0.61699438095092773,-0.59682750701904297,-0.96957945823669434,-0.38335579633712769,0.35690581798553467,-0.70326173305511475,-0.57967758178710938,0.16659677028656006,-0.7357940673828125,0.04366910457611084,-1,0.38381743431091309,0.56466937065124512,0.69962632656097412,-0.20835280418395996,0.79786109924316406,0.71137779951095581,0.19193148612976074,-0.96531510353088379,-0.48327350616455078,0.89601242542266846,0.96321284770965576,-0.93111348152160645,0.52976727485656738,0.079549789428710938],[0.42216801643371582,0.94983458518981934,0.70844936370849609,0.34089016914367676,-0.44500958919525146,0.3630523681640625,-0.23754894733428955,-0.48101800680160522,0.14075154066085815,-0.34246444702148438,0.77037793397903442,-0.28014254570007324,0.17397594451904297,0.93958401679992676,-0.28728246688842773,0.49297049641609192,-0.8432694673538208,0.18127799034118652,0.94730377197265625,0.24532210826873779,0.031240701675415039,-0.37576666474342346,-0.25605487823486328,0.16779792308807373,-1,0.77707743644714355,-0.10442626476287842,0.46210205554962158,-1,-0.54681396484375,0.014745354652404785,-0.022653460502624512,-0.29927492141723633,0.70311689376831055,-0.68563258647918701,0.11517441272735596,0.89203834533691406,0.74171078205108643,-0.42761111259460449,-0.60985279083251953,-0.46503400802612305,-0.14066398143768311,0.68308484554290771,-0.91189002990722656,0.41621243953704834,-0.80089807510375977,-0.9502413272857666,0.37636768817901611,-0.80962038040161133,-0.96964657306671143,-0.72029411792755127,-0.64318728446960449,-0.68486392498016357,-0.52278697490692139,0.78350341320037842,-0.63828575611114502,-0.98541969060897827,-0.80592143535614014,0.90416085720062256,-0.31019175052642822,-0.28089475631713867,-0.39163970947265625,0.58409333229064941,-0.6220325231552124]],"id":"ADF896EE-8DA7-4CE4-A8CD-1243DC9D2C00","generation":32,"hiddenCounts":[14,8],"inputCount":28,"outputCount":8},
{"biases":[[],[-0.78023672103881836,-0.21120750904083252,-0.21729052066802979,-0.15243116021156311,-0.87365388870239258,0.68317043781280518,-0.058682441711425781,-0.33340442180633545,-1,-0.16024982929229736,-0.23972724378108978,0.22144627571105957,-0.074222803115844727,-0.74442732334136963],[0.4143531322479248,0.34850084781646729,-0.47201037406921387,0.22887909412384033,0.0052158832550048828,-0.11262321472167969,0.14757859706878662,-0.019412994384765625],[-0.09052884578704834,0.31708049774169922,0.9488067626953125,-0.10217975080013275,0.45486569404602051,0.61951208114624023,0.56385540962219238,-0.75073540210723877]],"weights":[[],[-0.6973804235458374,-0.47680330276489258,-0.82756602764129639,-0.83963501453399658,-0.69616281986236572,0.92284798622131348,-0.1441422700881958,-0.54894781112670898,0.35993099212646484,0.21626079082489014,-0.6324007511138916,0.31655538082122803,0.75172281265258789,-0.9540870189666748,-0.61840999126434326,0.81446433067321777,-0.83166241645812988,-0.87997281551361084,0.72399330139160156,-0.021088600158691406,-0.70391368865966797,-0.090975761413574219,-0.45530319213867188,0.29034698009490967,-0.55429661273956299,0.21608424186706543,0.46185088157653809,-0.76552271842956543,0.76463854312896729,-0.75591623783111572,-0.022141575813293457,0.94298708438873291,-0.0058159828186035156,0.75049924850463867,-0.025182008743286133,-1,0.81611001491546631,-0.67058002948760986,-0.36629247665405273,0.24300360679626465,0.10714733600616455,-0.19100642204284668,-0.7071765661239624,-0.33805274963378906,0.96021342277526855,-0.6326221227645874,0.51668453216552734,-0.38196825981140137,0.046598911285400391,-0.85600292682647705,-0.25096642971038818,0.80198240280151367,0.30056452751159668,-1,0.45052552223205566,0.43378210067749023,-0.48819363117218018,-0.73704707622528076,0.62378406524658203,-0.63737130165100098,-0.90076792240142822,-0.15755546092987061,0.79035496711730957,-0.38409614562988281,0.73519277572631836,-0.78136253356933594,-0.93429386615753174,0.11517882347106934,-0.82735836505889893,0.23519635200500488,1,0.09673011302947998,0.92376530170440674,-0.98416352272033691,0.70582175254821777,0.62539553642272949,-0.14765274524688721,-0.93916189670562744,0.035103678703308105,0.13472259044647217,-0.35563004016876221,-0.84745550155639648,0.12526953220367432,-0.023143887519836426,-0.6565709114074707,0.079018950462341309,0.36190927028656006,0.56493830680847168,-0.092212915420532227,0.73143124580383301,0.71247363090515137,-0.36504518985748291,-0.72241926193237305,0.43395686149597168,0.92980694770812988,-0.81510508060455322,1,0.50036954879760742,0.58301186561584473,0.053540229797363281,-0.35716807842254639,-0.72110199928283691,0.75795245170593262,0.77173542976379395,0.74214386940002441,0.95629251003265381,0.076732039451599121,0.32868766784667969,-0.60084831714630127,0.97903192043304443,0.96394813060760498,-0.86261665821075439,0.57579982280731201,-0.097535252571105957,0.37419354915618896,-0.82028293609619141,-0.77361094951629639,-0.39502048492431641,-0.052406549453735352,0.8304513692855835,-0.1641232967376709,0.91308808326721191,0.27512001991271973,0.60777938365936279,0.1068115234375,-0.90821397304534912,-0.63091146945953369,-0.10794520378112793,-0.77087855339050293,-0.52583408355712891,-0.3332904577255249,0.04761970043182373,-0.84520721435546875,-0.17120909690856934,0.9317176342010498,0.00055396556854248047,0.81756138801574707,0.031314611434936523,-0.21770322322845459,0.48300254344940186,0.99119532108306885,0.69266235828399658,-0.63944458961486816,0.75500345230102539,0.03869175910949707,0.19312632083892822,0.3335038423538208,0.57427847385406494,-0.39957714080810547,0.14811480045318604,-0.31614851951599121,0.58630502223968506,0.91237545013427734,-0.53528106212615967,-0.77707195281982422,-0.40166127681732178,-0.40301716327667236,-0.14197158813476562,0.38987934589385986,0.65406203269958496,-0.20498943328857422,0.57710742950439453,-0.83823120594024658,-0.053786754608154297,-0.20479345321655273,-0.14421367645263672,0.92955732345581055,0.16818916797637939,0.85455834865570068,-0.77241778373718262,-0.1493297815322876,0.12851357460021973,0.041242837905883789,-0.056438207626342773,-0.21763110160827637,-0.42626404762268066,0.36755919456481934,-0.85189211368560791,0.61106765270233154,-0.62966835498809814,0.7674567699432373,-0.12098550796508789,0.051320433616638184,-0.84315884113311768,0.79864382743835449,0.85587716102600098,0.61496591567993164,0.77163755893707275,-0.9497678279876709,0.37859487533569336,-0.37016952037811279,0.62675201892852783,0.99925410747528076,-0.31207859516143799,-0.32704925537109375,-0.84330081939697266,0.0093343257904052734,-0.45131850242614746,-0.007584691047668457,-0.74584782123565674,-0.89661550521850586,0.97519826889038086,-0.39767301082611084,0.12913310527801514,0.25648117065429688,-0.70779240131378174,0.52744746208190918,0.59239470958709717,-0.62921714782714844,1,0.80891931056976318,0.095032930374145508,-0.50576603412628174,-0.64874565601348877,-0.63030952215194702,-0.57405054569244385,0.95811128616333008,0.1908726692199707,-0.800994873046875,-0.53901934623718262,-0.21984219551086426,-0.55165612697601318,-0.60484087467193604,-0.21898937225341797,-0.96488630771636963,-0.3129420280456543,0.13919186592102051,0.15640044212341309,0.70571744441986084,0.089148283004760742,0.42331099510192871,-0.12214076519012451,0.38189518451690674,-0.83739817142486572,0.8797304630279541,0.44837033748626709,0.81647193431854248,0.22424209117889404,-0.88258111476898193,0.063117146492004395,-0.54846251010894775,0.51206731796264648,0.17879354953765869,-0.10680615901947021,0.077886700630187988,-0.95881760120391846,0.76344597339630127,0.78701460361480713,0.060055017471313477,0.89318346977233887,0.86131930351257324,0.2797311544418335,-0.26567339897155762,-0.37257087230682373,-0.97733962535858154,0.52150297164916992,-0.73631668090820312,-0.40331530570983887,-0.68475532531738281,0.50942409038543701,-0.40203237533569336,0.57205379009246826,0.034013032913208008,0.46639442443847656,-0.5805133581161499,0.55878078937530518,-0.10493230819702148,0.14161813259124756,-0.31643527746200562,-0.94410097599029541,-0.69383323192596436,0.99131405353546143,-0.35670781135559082,-0.96127212047576904,-0.10217487812042236,-0.57892358303070068,0.33781516551971436,-0.66886687278747559,-0.80938351154327393,0.47573304176330566,-0.27853667736053467,-0.45344376564025879,0.41672635078430176,0.61910605430603027,-0.66626906394958496,-0.42677795886993408,0.37249886989593506,0.86956191062927246,0.61695694923400879,0.99878871440887451,-0.72537267208099365,0.18205451965332031,-0.86010193824768066,-0.48904669284820557,-0.67375349998474121,0.45803099870681763,-0.94388628005981445,0.51743185520172119,0.97685408592224121,-0.22776484489440918,0.57971453666687012,0.87334787845611572,0.51449334621429443,0.027056574821472168,0.77894163131713867,-0.87189924716949463,-0.4655836820602417,0.23677873611450195,0.30728960037231445,0.6747967004776001,-0.63528084754943848,-0.96003615856170654,-0.45075333118438721,-0.78753280639648438,0.87631487846374512,0.16634452342987061,0.34326088428497314,-0.84865617752075195,0.20492184162139893,0.63206493854522705,0.88537633419036865,-0.12576282024383545,0.62753570079803467,-0.89062356948852539,-0.73124945163726807,-0.37151861190795898,-0.97309005260467529,0.58966207504272461,-0.05431973934173584,-0.45691287517547607,0.077136039733886719,0.17645609378814697,-0.19449222087860107,-0.85579407215118408,-0.46732378005981445,0.063391804695129395,0.13827610015869141,0.35516071319580078,-0.30789840221405029,0.7427675724029541,0.83570528030395508,-0.2167365550994873,-0.0092608928680419922,-0.95189440250396729,-0.08577263355255127,-0.12142407894134521,-0.1362757682800293,-0.49313783645629883,-0.85420739650726318,-0.18009495735168457,0.6442948579788208,0.78455078601837158,-0.28105664253234863,0.77860641479492188,0.4654465913772583,0.88036751747131348,-0.23112940788269043,-0.53362560272216797,0.83691596984863281,0.32825565338134766,0.0050696134567260742,-0.31386804580688477,-0.84887588024139404,0.13155961036682129,-0.46283257007598877,-0.32422018051147461,-0.52318799495697021,-0.17194569110870361,-0.5695645809173584,0.31074225902557373,0.66818571090698242,-0.15285658836364746,0.27491378784179688,-0.85854721069335938,0.20621287822723389,0.78268873691558838,-0.63950204849243164,0.018078327178955078,-0.89071464538574219,0.28560459613800049,-0.6316148042678833,0.96111607551574707,0.1897118091583252,0.063363075256347656,-0.46447074413299561,0.94076228141784668,-0.35032689571380615,-0.82762181758880615,0.58360922336578369,0.13468837738037109,-0.21592199802398682,-0.29796093702316284],[-0.27779793739318848,0.070798993110656738,0.66580545902252197,-0.82308340072631836,-0.8016510009765625,-0.6246110200881958,-0.16820013523101807,-0.78882813453674316,0.80617725849151611,-0.69302129745483398,0.91982591152191162,0.072618007659912109,-0.019582390785217285,0.26482665538787842,0.32933557033538818,-0.7101210355758667,-0.95225000381469727,-0.79145467281341553,-0.63463437557220459,0.32870209217071533,0.86802089214324951,-0.54335892200469971,0.27115273475646973,0.76969969272613525,-0.79496479034423828,-0.13770878314971924,-0.53182816505432129,-0.095001101493835449,-0.60091829299926758,-0.47008919715881348,0.38455092906951904,-0.4675980806350708,-0.38296538591384888,-0.32638514041900635,-0.1410757303237915,0.24674475193023682,0.85484421253204346,0.11138975620269775,-0.32866597175598145,-0.55297756195068359,0.65507018566131592,-0.89698243141174316,0.66874587535858154,0.98655271530151367,-0.77050292491912842,-0.78781616687774658,0.015532851219177246,0.37621462345123291,0.61756360530853271,-0.60170519351959229,0.43453645706176758,-0.40171331167221069,0.05916905403137207,-0.16935873031616211,-0.23518550395965576,-0.67243480682373047,-0.012182354927062988,-0.87456190586090088,0.80400514602661133,0.62975668907165527,-0.58236062526702881,-0.20865964889526367,0.3191373348236084,0.24750876426696777,0.13585436344146729,-0.47780656814575195,-0.67439723014831543,-1,0.93723201751708984,0.48050945997238159,0.49936068058013916,0.73762392997741699,-0.61385083198547363,0.51217257976531982,-0.77571827173233032,0.58234000205993652,-0.72881996631622314,0.86224627494812012,0.22285997867584229,0.72726500034332275,0.51837790012359619,-0.96997988224029541,-0.07585906982421875,0.12297117710113525,0.55831944942474365,0.91921329498291016,0.35717427730560303,-0.61699438095092773,0.18247151374816895,-0.96957945823669434,-0.38335579633712769,0.35690581798553467,-0.70326173305511475,-0.57967758178710938,0.16659677028656006,-0.7357940673828125,0.04366910457611084,-1,0.38381743431091309,0.56466937065124512,0.69962632656097412,-0.20835280418395996,1,0.71137779951095581,0.19193148612976074,-0.96531510353088379,-0.48327350616455078,0.54003876447677612,0.96321284770965576,0.50722241401672363,0.52976727485656738,0.079549789428710938],[0.42216801643371582,0.94983458518981934,0.70844936370849609,0.34089016914367676,-0.44500958919525146,0.3630523681640625,-0.23754894733428955,-0.48101800680160522,0.14075154066085815,-0.34246444702148438,0.77037793397903442,-0.28014254570007324,0.17397594451904297,0.93958401679992676,-0.28728246688842773,0.49297049641609192,-0.8432694673538208,0.18127799034118652,0.94730377197265625,0.24532210826873779,0.031240701675415039,-0.37576666474342346,-0.25605487823486328,0.16779792308807373,-1,0.77707743644714355,-0.10442626476287842,0.46210205554962158,-1,-0.54681396484375,0.014745354652404785,-0.022653460502624512,-0.29927492141723633,0.70311689376831055,-0.68563258647918701,0.11517441272735596,0.89203834533691406,0.74171078205108643,-0.42761111259460449,-0.60985279083251953,-0.46503400802612305,-0.14066398143768311,0.68308484554290771,-0.91189002990722656,0.70119893550872803,-0.80089807510375977,-0.9502413272857666,0.37636768817901611,-0.80962038040161133,-0.96964657306671143,-0.72029411792755127,-0.64318728446960449,-0.68486392498016357,-0.89571297168731689,0.78350341320037842,-0.63828575611114502,-0.98541969060897827,-0.80592143535614014,0.90416085720062256,-0.31019175052642822,-0.28089475631713867,-0.39163970947265625,0.58409333229064941,-0.6220325231552124]],"id":"7DFEDB90-4250-4314-A4D8-69E0EEC57950","generation":33,"hiddenCounts":[14,8],"inputCount":28,"outputCount":8},
