
[
{"marker2":false,"marker1":false,"weights":[[],[0.4396253228187561,0,0.31246867775917053,0,0.4456937313079834,0,0,0,0,0,-0.28028386831283569,0.23282909393310547,0,0,0,0,0,0,0,0.76895684003829956,0,-0.45961815118789673,0,-0.5096970796585083,0,0,0,0.68922936916351318,0.087782144546508789,0,0.48173579573631287,0,0,0,0.26812398433685303,0,-0.42384177446365356,0,0,-0.27927422523498535,0,0,0.42291221022605896,0,0.28747150301933289,-0.27666756510734558,0,0,0.95408904552459717,0.42307835817337036,0.30265694856643677,0,0,0.25664970278739929,0,0.31082242727279663,0,0,0,-0.65178203582763672,0,-0.70220679044723511,0,0,-0.26561248302459717,0,0.87586486339569092,0,0,-0.3407178521156311,-0.27583852410316467,0.50727415084838867,0,0.47229868173599243,0,0,0,-0.12751173973083496,0,0,0.25118261575698853,0,0,-0.44081628322601318,0,0.27873703837394714,-1,0,-0.057895198464393616,0.37269464135169983,-0.33276209235191345,0,-0.98762142658233643,0,0.54107171297073364,0,0,0.3149029016494751,-0.6300920844078064,0,0,0.43363183736801147,0,0,0.071643233299255371,0,0,0,-0.6088712215423584,0,0.35790711641311646,0,0,-0.47236204147338867,-0.12745471298694611,0.71727389097213745,0,0,0.44291722774505615,0,-0.48240664601325989,-0.79205375909805298,0.0072505474090576172,0,0.34021833539009094,-0.437996506690979,0,0,0.40373969078063965,0.3593408465385437,0,0,0,-0.31168538331985474,0,0,-0.20786735415458679,0,0,0,0,0,-0.73587119579315186,0,-0.39055559039115906,-0.12261641770601273,0,0,-0.060002047568559647,0,0,0,0.41032728552818298,-0.62658941745758057,0,0.35253545641899109,0,0,0,0,0.58789694309234619,0,0,0,-0.39646658301353455,-0.45610517263412476,0,0,-0.23716390132904053,0,0,0,0,0,0,-0.38845968246459961,0,0,0,0,0,0.22414088249206543,0,0.15541040897369385,0.29139402508735657,-0.36265528202056885,0,0.31136736273765564,0,-0.39856109023094177,0,-0.29173526167869568,0.25295087695121765,0,-0.28999963402748108,-0.3656061589717865,0,0,-0.99345993995666504,0,-0.82392668724060059,-0.88671857118606567,0.29096263647079468,-0.29827284812927246,0,0,-0.27195960283279419,0,-0.5331573486328125,0.30585861206054688,-0.47340208292007446,0.41463100910186768,0.41174069046974182,0.21444451808929443,0,0,0,-0.44739273190498352,0,-0.72840654850006104,0,0.31695759296417236,0,0.45988175272941589,0,0,-0.45657914876937866,0,0,0,0,0,0,0,0,0,0,0,0,0,0.3468514084815979,0,0.45013397932052612,-0.93654382228851318,0,0,0,0,0,0,0,0,0.12543286383152008,0,0,0,0,0,0,-0.4811992347240448,0,0.73317009210586548,0,0,0.3258843719959259,0,0,-0.87189233303070068,0,0,0,-0.35993129014968872,0,0,0,0,0.034280139952898026,0.10675045847892761,0.8208240270614624,0,0,-0.41842108964920044,-0.25383469462394714,0,0,-0.71661639213562012,0,0.70389378070831299,0,0,0.18447721004486084,0,-0.72879707813262939,-0.67357683181762695,0.6309128999710083,0,0.2647724449634552,-0.36508259177207947,0.31776091456413269,-0.45113682746887207,0,-0.44495168328285217,-0.34922787547111511,0,0,0.45155957341194153,0,-0.45749509334564209,0,0,0,0,0,-1,0,0,0,0,0,0,0.33001258969306946,0.4281635582447052,0,0,1,0,0.6338992714881897,0,0.54577815532684326,0.36788928508758545,0.82873833179473877,-0.25084754824638367,0,0,0,0,0,0,0,-0.41527047753334045,-0.34646284580230713,0,0.25100356340408325,0.68904674053192139,0,0,0.4214896559715271,-0.66665375232696533,0,0,0,-0.31139132380485535],[0.35588753223419189,-0.27188423275947571,0,0,0,0,0,0.60780739784240723,0,0.49395132064819336,0,0,0.22929346561431885,0,0,0.63111972808837891,0,0.41810226440429688,0,0,-0.48677155375480652,0,0,0,0,0,0,0,-0.15901379287242889,0.46253669261932373,0,0,0,0.43777543306350708,-0.31905040144920349,0,0.88492584228515625,0.67394709587097168,0.48246383666992188,0,0.30381721258163452,0,0,-0.37770754098892212,0,0.42161354422569275,0,0,-0.88141071796417236,-0.256053626537323,0.81361138820648193,-0.56561756134033203,0,0,0.44988435506820679,0,0,-0.42190727591514587,-0.77746486663818359,0.22324991226196289,0.49173945188522339,0,0,0,0,0,0,0,0,0,0.37384107708930969,0.45874163508415222,0,-0.29894921183586121,0.25901487469673157,0,0.56946802139282227,0,0,0.4505830705165863,0,0,0.29247263073921204,0,-0.19804716110229492,0,0,0,-0.68486642837524414,0,0,-0.62453991174697876,-0.2862568199634552,-0.46339011192321777,0.44731616973876953,0.40288707613945007,0,-0.79538255929946899,0.1031031608581543,-0.70235466957092285,-0.30535674095153809,0,0.15149602293968201,-0.284638911485672,0.9961169958114624,0,0.31099063158035278,0,0,0,0,-0.62191259860992432,-0.35297045111656189,-0.62475621700286865,0,-0.29414653778076172,0.048792038112878799,0.47307345271110535,0.46799027919769287,0,-0.59173876047134399,0.31376898288726807,0,0,0.25817182660102844,-0.35842296481132507,0,0]],"id":"D3BC5DCE-352C-48B5-ACDE-40BB83CD9073","generation":18,"biases":[[],[0.12393135577440262,-0.12372174113988876,0,-0.20928716659545898,-0.63161349296569824,-0.42854392528533936,-0.61576253175735474,-0.0017386766849085689,0.94301891326904297,-0.24945452809333801,0.38283154368400574,-0.83315354585647583,0.152180016040802,0.37869974970817566,-0.46980026364326477,0.46298074722290039],[0.75020134449005127,0.44226539134979248,0.36745861172676086,0.33143001794815063,0.8023034930229187,0,0.16101193428039551,-0.3521401584148407]],"inputCount":22,"hiddenCount":16,"outputCount":8},
{"marker2":false,"marker1":false,"weights":[[],[0.4396253228187561,0,0.31246867775917053,0,0.4456937313079834,0,0,0,0,0,-0.28028386831283569,0.23282909393310547,0,0,0,0,0,0,0,0.76895684003829956,0,-0.45961815118789673,0,-0.5096970796585083,0,0,0,0.68922936916351318,0.087782144546508789,0,0.48173579573631287,0,0,0,0.26812398433685303,0,-0.42384177446365356,0,0,-0.27927422523498535,0,0,0.42291221022605896,0,0.28747150301933289,-0.27666756510734558,0,0,0.95408904552459717,0.42307835817337036,0.30265694856643677,0,0,0.25664970278739929,0,0.31082242727279663,0,0,0,-0.65178203582763672,0,-0.70220679044723511,0,0,-0.26561248302459717,0,0.87586486339569092,0,0,-0.3407178521156311,-0.27583852410316467,0.50727415084838867,0,0.47229868173599243,0,0,0,-0.12751173973083496,0,0,0.25118261575698853,0,0,-0.44081628322601318,0,0.27873703837394714,-1,0,-0.057895198464393616,0.37269464135169983,-0.33276209235191345,0,-0.98762142658233643,0,0.54107171297073364,0,0,0.3149029016494751,-0.6300920844078064,0,0,0.43363183736801147,0,0,0.071643233299255371,0,0,0,-0.6088712215423584,0,0.35790711641311646,0,0,-0.47236204147338867,-0.12745471298694611,0.71727389097213745,0,0,0.44291722774505615,0,-0.48240664601325989,-0.79205375909805298,0.0072505474090576172,0,0.34021833539009094,-0.437996506690979,0,0,0.40373969078063965,0.3593408465385437,0,0,0,-0.31168538331985474,0,0,-0.20786735415458679,0,0,0,0,0,-0.73587119579315186,0,-0.39055559039115906,-0.12261641770601273,0,0,-0.060002047568559647,0,0,0,0.41032728552818298,-0.62658941745758057,0,0.35253545641899109,0,0,0,0,0.58789694309234619,0,0,0,-0.39646658301353455,-0.45610517263412476,0,0,-0.23716390132904053,0,0,0,0,0,0,-0.38845968246459961,0,0,0,0,0,0.22414088249206543,0,0.15541040897369385,0.29139402508735657,-0.36265528202056885,0,0.31136736273765564,0,-0.39856109023094177,0,-0.29173526167869568,0.25295087695121765,0,-0.28999963402748108,-0.3656061589717865,0,0,-0.99345993995666504,0,-0.82392668724060059,-0.88671857118606567,0.29096263647079468,-0.29827284812927246,0,0,-0.27195960283279419,0,-0.5331573486328125,0.30585861206054688,-0.47340208292007446,0.41463100910186768,0.41174069046974182,0.21444451808929443,0,0,0,-0.44739273190498352,0,-0.72840654850006104,0,0.31695759296417236,0,0.45988175272941589,0,0,-0.45657914876937866,0,0,0,0,0,0,0,0,0,0,0,0,0,0.3468514084815979,0,0.45013397932052612,-0.93654382228851318,0,0,0,0,0,0,0,0,0.12543286383152008,0,0,0,0,0,0,-0.4811992347240448,0,0.73317009210586548,0,0,0.3258843719959259,0,0,-0.87189233303070068,0,0,0,-0.35993129014968872,0,0,0,0,0.034280139952898026,0.10675045847892761,0.8208240270614624,0,0,-0.41842108964920044,-0.25383469462394714,0,0,-0.71661639213562012,0,0.70389378070831299,0,0,0.18447721004486084,0,-0.72879707813262939,-0.67357683181762695,0.6309128999710083,0,0.2647724449634552,-0.36508259177207947,0.31776091456413269,-0.45113682746887207,0,-0.44495168328285217,-0.34922787547111511,0,0,0.45155957341194153,0,-0.45749509334564209,0,0,0,0,0,-1,0,0,0,0,0,0,0.33001258969306946,0.4281635582447052,0,0,1,0,0.6338992714881897,0,0.54577815532684326,0.36788928508758545,0.82873833179473877,-0.25084754824638367,0,0,0,0,0,0,0,-0.41527047753334045,-0.34646284580230713,0,0.25100356340408325,0.68904674053192139,0,0,0.4214896559715271,-0.66665375232696533,0,0,0,-0.31139132380485535],[0.35588753223419189,-0.27188423275947571,0,0,0,0,0,0.60780739784240723,0,0.49395132064819336,0,0,0.22929346561431885,0,0,0.63111972808837891,0,0.41810226440429688,0,0,-0.48677155375480652,0,0,0,0,0,0,0,-0.15901379287242889,0.46253669261932373,0,0,0,0.43777543306350708,-0.31905040144920349,0,0.88492584228515625,0.67394709587097168,0.48246383666992188,0,0.30381721258163452,0,0,-0.37770754098892212,0,0.42161354422569275,0,0,-0.88141071796417236,-0.256053626537323,0.81361138820648193,-0.56561756134033203,0,0,0.44988435506820679,0,0,-0.42190727591514587,-0.77746486663818359,0.22324991226196289,0.49173945188522339,0,0,0,0,0,0,0,0,0,0.37384107708930969,0.45874163508415222,0,-0.29894921183586121,0.25901487469673157,0,0.56946802139282227,0,0,0.4505830705165863,0,0,0.29247263073921204,0,-0.19804716110229492,0,0,0,-0.68486642837524414,0,0,-0.62453991174697876,-0.2862568199634552,-0.46339011192321777,0.44731616973876953,0.40288707613945007,0,-0.79538255929946899,0.1031031608581543,-0.70235466957092285,-0.30535674095153809,0,0.15149602293968201,-0.284638911485672,0.9961169958114624,0,0.31099063158035278,0,0,0,0,-0.62191259860992432,-0.35297045111656189,-0.62475621700286865,0,-0.29414653778076172,0.048792038112878799,0.47307345271110535,0.46799027919769287,0,-0.59173876047134399,0.31376898288726807,0,0,0.25817182660102844,-0.35842296481132507,0,0]],"id":"F526D50E-75AB-42C1-AA99-6540064A1CFB","generation":19,"biases":[[],[0.12393135577440262,-0.12372174113988876,0,-0.20928716659545898,-0.63161349296569824,-0.42854392528533936,-0.61576253175735474,-0.0017386766849085689,0.94301891326904297,-0.24945452809333801,0.38283154368400574,-0.83315354585647583,0.152180016040802,-0.008009646087884903,-0.46980026364326477,0.46298074722290039],[0.75020134449005127,0.44226539134979248,0.36745861172676086,0.33143001794815063,0.8023034930229187,0,0.16101193428039551,-0.3521401584148407]],"inputCount":22,"hiddenCount":16,"outputCount":8},
{"marker2":false,"marker1":false,"weights":[[],[0.4396253228187561,0,0.31246867775917053,-0.29902207851409912,0.4456937313079834,0,0,0,0,0,-0.28028386831283569,-1,0,0,0,0,0,0,0,0.76895684003829956,0,-0.45961815118789673,0,-0.5096970796585083,0,0,0,0,0.087782144546508789,0,0.48173579573631287,0,0,0,0.26812398433685303,0,-0.42384177446365356,0,0,-0.27927422523498535,0,0,0.42291221022605896,0,0,-0.27666756510734558,0,0,0.95408904552459717,0.42307835817337036,0.30265694856643677,0,0,0.25664970278739929,0,0.31082242727279663,0,0,0,-0.65178203582763672,0,-0.70220679044723511,0,0,-0.26561248302459717,0,0,0,0,-0.3407178521156311,0,0.50727415084838867,0,0.47229868173599243,0,0,0,-0.12751173973083496,0,0,0.25118261575698853,0,0,-0.44081628322601318,0,0.27873703837394714,-1,0,-0.057895198464393616,0.37269464135169983,-0.33276209235191345,0,-0.98762142658233643,0,0.4332980215549469,0,0,0.3149029016494751,-0.6300920844078064,0,0,0.43363183736801147,0,0,0.071643233299255371,0,0,0,-0.6088712215423584,0,0,0,0,-0.47236204147338867,-0.12745471298694611,-0.043165922164916992,0,0,0.44291722774505615,0,-0.48240664601325989,-0.79205375909805298,0.0072505474090576172,0,0.34021833539009094,-0.437996506690979,0,0,0.40373969078063965,0.3593408465385437,0,0,0,-0.31168538331985474,0,0,-0.20786735415458679,0,0,0,0,0,-0.73587119579315186,0,-0.39055559039115906,0.21082770824432373,0,0,-0.060002047568559647,0,0,0,0.41032728552818298,-0.62658941745758057,0,0.35253545641899109,0,0,0,0,0.58789694309234619,0,0,0,-0.39646658301353455,-0.45610517263412476,0,0,-0.23716390132904053,0,0,0,0,0,0,-0.38845968246459961,0,0,0,0,0,0,0,0.15541040897369385,0.29139402508735657,-0.36265528202056885,0,0.31136736273765564,0,-0.39856109023094177,0,-0.29173526167869568,0.25295087695121765,0,-0.28999963402748108,-0.3656061589717865,0,0,-0.99345993995666504,0,-0.82392668724060059,-0.88671857118606567,0.29096263647079468,-0.29827284812927246,0,0,-0.27195960283279419,0,-0.5331573486328125,0.30585861206054688,-0.47340208292007446,0.41463100910186768,0.41174069046974182,0.21444451808929443,0,0,0,-0.44739273190498352,0,-0.72840654850006104,0,0.31695759296417236,0,0.45988175272941589,0,0,-0.45657914876937866,0,0,0,0,0,0,0,0,0,0,0,0,0,0.3468514084815979,0,0,-0.93654382228851318,0,0,0,0,0,0,0,0,0.12543286383152008,0,0,0,0,0,0,-0.4811992347240448,0,0.73317009210586548,0,0,0.3258843719959259,0,0,-0.87189233303070068,0,0,0,-0.35993129014968872,0,0,0,0,0.034280139952898026,0.43908977508544922,0.8208240270614624,0,0,-0.41842108964920044,-0.25383469462394714,0,0,-0.71661639213562012,0,0.70389378070831299,0,0,0.18447721004486084,0,-0.72879707813262939,0,0.6309128999710083,0,0.2647724449634552,-0.36508259177207947,0.31776091456413269,-0.45113682746887207,0,-0.44495168328285217,-0.34922787547111511,0,0,0.45155957341194153,0,-0.45749509334564209,0,0,0,0,0,-1,0,0,0,0,0,0,0.33001258969306946,0.4281635582447052,0,0,1,0,0.6338992714881897,0,0.54577815532684326,0.36788928508758545,0.82873833179473877,-0.25084754824638367,0,0,0,0,0,0,0,-0.41527047753334045,-0.34646284580230713,0,0.25100356340408325,0.68904674053192139,0,0,0.4214896559715271,-0.66665375232696533,0,0,0,-0.31139132380485535],[0.35588753223419189,-0.27188423275947571,0,0,0,0,0,0.60780739784240723,0,0,0,0,0.22929346561431885,0,0,0.63111972808837891,0,0.41810226440429688,0,0,-0.48677155375480652,0,0,0,0,0,0,0,-0.15901379287242889,0.46253669261932373,0,0,0,0.43777543306350708,-0.31905040144920349,0,0.88492584228515625,0.67394709587097168,0.48246383666992188,0.47726330161094666,0.30381721258163452,0,0,0,0,0.42161354422569275,0,0,-0.88141071796417236,-0.256053626537323,0.81361138820648193,-0.56561756134033203,0,0,0.44988435506820679,0,0,-0.42190727591514587,-0.77746486663818359,0.22324991226196289,0.49173945188522339,0,0,0,0,0,0,0,0,0,0.37384107708930969,0.45874163508415222,0,-0.29894921183586121,0.25901487469673157,0,0.56946802139282227,0,0,0.4505830705165863,0,0,0.73080337047576904,0,-0.19804716110229492,0,0,0,-0.68486642837524414,0,0,-0.62453991174697876,-0.2862568199634552,-0.46339011192321777,0.44731616973876953,0.40288707613945007,0,-0.79538255929946899,0.1031031608581543,-0.70235466957092285,-0.30535674095153809,0,0.15149602293968201,-0.284638911485672,0.9961169958114624,0,0,0,0,-0.49092373251914978,0,-1,-0.35297045111656189,-0.62475621700286865,0,-0.29414653778076172,0.048792038112878799,0,0.46799027919769287,0,-0.59173876047134399,0.31376898288726807,0,0,0.25817182660102844,-0.35842296481132507,0,0]],"id":"68AED48C-C69D-4245-8952-9BAD764ACB84","generation":6,"biases":[[],[-0.34847822785377502,-0.24744348227977753,0,-0.20928716659545898,-0.63161349296569824,-0.42854392528533936,-0.31811723113059998,-0.0017386766849085689,0.94301891326904297,-0.24945452809333801,0.38283154368400574,-0.83315354585647583,0.152180016040802,-0.020456632599234581,-0.46980026364326477,0.46298074722290039],[0.75020134449005127,0.44226539134979248,0.36745861172676086,0.33143001794815063,0.8023034930229187,0,0.16101193428039551,-0.3521401584148407]],"inputCount":22,"hiddenCount":16,"outputCount":8},
{"marker2":false,"marker1":false,"weights":[[],[0.4396253228187561,0,0.31246867775917053,-0.29902207851409912,0.4456937313079834,0,0,0,0,0,-0.28028386831283569,-1,0,0,0,0,0,0,0,0.76895684003829956,0,-0.45961815118789673,0,-0.5096970796585083,0,0,0,0,0.087782144546508789,0,0.48173579573631287,0,0,0,0.26812398433685303,0,-0.42384177446365356,0,0,-0.27927422523498535,0,0,0.42291221022605896,0,0,-0.27666756510734558,0,0,0.95408904552459717,0.42307835817337036,0.30265694856643677,0,0,0.25664970278739929,0,0.31082242727279663,0,0,0,-0.65178203582763672,0,-0.70220679044723511,0,0,-0.26561248302459717,0,0,0,0,-0.3407178521156311,0,0.50727415084838867,0,0.47229868173599243,0,0,0,-0.12751173973083496,0,0,0.25118261575698853,0,0,-0.44081628322601318,0,0.27873703837394714,-1,0,-0.057895198464393616,0.37269464135169983,-0.33276209235191345,0,-0.98762142658233643,0.26362892985343933,0.4332980215549469,0,0,0.3149029016494751,-0.6300920844078064,0,0,0.43363183736801147,0,0,0.071643233299255371,0,0,0,-0.6088712215423584,0,0,0,0,-0.47236204147338867,-0.12745471298694611,-0.043165922164916992,0,0,0.44291722774505615,0,-0.48240664601325989,-0.79205375909805298,0.0072505474090576172,0,0.34021833539009094,-0.437996506690979,0,0,0.40373969078063965,0.3593408465385437,0,0,0,-0.31168538331985474,0,0,-0.20786735415458679,0,0,0,0,0,-0.73587119579315186,0,-0.39055559039115906,0.21082770824432373,0,0,-0.060002047568559647,0,0,0,0.41032728552818298,-0.62658941745758057,0,0.35253545641899109,0,0,0,0,0.58789694309234619,0,0,0,-0.39646658301353455,-0.45610517263412476,0,0,-0.23716390132904053,0,0,0,0,0,0,-0.38845968246459961,0,0,0,0,0,0,0,0.15541040897369385,0.29139402508735657,-0.36265528202056885,0,0.31136736273765564,0,-0.39856109023094177,0,-0.29173526167869568,0.25295087695121765,0,-0.28999963402748108,-0.3656061589717865,0,0,-0.99345993995666504,0,-0.82392668724060059,-0.88671857118606567,0.29096263647079468,-0.33080685138702393,0,0,-0.27195960283279419,0,-0.5331573486328125,0.30585861206054688,-0.47340208292007446,0.41463100910186768,0.41174069046974182,0.21444451808929443,0,0,0,-0.44739273190498352,0,-0.72840654850006104,0,0.31695759296417236,0,0.45988175272941589,0,0,-0.45657914876937866,0,0,0,0,0,0,0,0,0,0,0,0,0,0.3468514084815979,0,0,-0.93654382228851318,0,0,0,0,0,0,0,0,0.12543286383152008,0,0,0,0,0,0,-0.4811992347240448,0,0.73317009210586548,0,0,0.3258843719959259,0,0,-0.87189233303070068,0,0,0,-0.35993129014968872,0,0,0,0,0.034280139952898026,0.43908977508544922,0.8208240270614624,0,0,-0.41842108964920044,-0.25383469462394714,0,0,-0.71661639213562012,0,0.70389378070831299,0,0,0.18447721004486084,0,-0.72879707813262939,0,0.6309128999710083,0,0.2647724449634552,-0.36508259177207947,0.31776091456413269,-0.45113682746887207,0,-0.44495168328285217,-0.34922787547111511,0,0,0.45155957341194153,0,-0.45749509334564209,0,0,0,0,0,-1,0,0,0,0,0,0,0.33001258969306946,0.4281635582447052,0,0,1,0,0.6338992714881897,0,0.54577815532684326,0.36788928508758545,0.82873833179473877,-0.25084754824638367,0,0,0,0,0,0,0,-0.41527047753334045,-0.34646284580230713,0,0.25100356340408325,0.68904674053192139,0,0,0.4214896559715271,-0.66665375232696533,0,0,0,-0.31139132380485535],[0.35588753223419189,-0.27188423275947571,0,0,0,0,0,0.60780739784240723,0,0,0,0,0.22929346561431885,0,0,0.63111972808837891,0,0.41810226440429688,0,0,-0.48677155375480652,0,0,0,0,0,0,0,-0.15901379287242889,0.46253669261932373,0,0,0,0.43777543306350708,-0.31905040144920349,0,0.88492584228515625,0.67394709587097168,0.89826780557632446,0.47726330161094666,0.30381721258163452,0,0,0,0,0.42161354422569275,0,0,-0.88141071796417236,-0.256053626537323,0.81361138820648193,-0.56561756134033203,0,0,0.44988435506820679,0,0,-0.42190727591514587,-0.77746486663818359,0.22324991226196289,0.49173945188522339,0,0,0,0,0,0,0,0,0,0.37384107708930969,0.45874163508415222,0.49423485994338989,-0.29894921183586121,0.25901487469673157,0,0.56946802139282227,0,0,0.4505830705165863,0,0,0.73080337047576904,0,-0.19804716110229492,0,0,0,-0.68486642837524414,0,0,-0.62453991174697876,-0.2862568199634552,-0.46339011192321777,0.44731616973876953,0.86393988132476807,0,-0.79538255929946899,0.1031031608581543,-0.70235466957092285,-0.30535674095153809,0,0.15149602293968201,-0.284638911485672,0.9961169958114624,0,0,0,0,-0.49092373251914978,0,-0.62191259860992432,-0.35297045111656189,-0.62475621700286865,0,-0.29414653778076172,0.048792038112878799,0,0.46799027919769287,0,-0.59173876047134399,0.31376898288726807,0,0,0.25817182660102844,-0.35842296481132507,0,0]],"id":"49E467AC-78CB-46B9-8FF9-4F610673DB04","generation":7,"biases":[[],[-0.34847822785377502,-0.24744348227977753,0,-0.20928716659545898,-0.63161349296569824,-0.42854392528533936,-0.31811723113059998,-0.0017386766849085689,0.94301891326904297,-0.24945452809333801,0.38283154368400574,-0.83315354585647583,0.65110468864440918,-0.020456632599234581,-0.46980026364326477,0.46298074722290039],[0.75020134449005127,0.44226539134979248,0.36745861172676086,0.33143001794815063,0.8023034930229187,0,0.16101193428039551,-0.3521401584148407]],"inputCount":22,"hiddenCount":16,"outputCount":8},
{"marker2":false,"marker1":false,"weights":[[],[0.4396253228187561,0,0.31246867775917053,-0.29902207851409912,0.4456937313079834,0,0,0,0,0,-0.28028386831283569,-1,0,0,0,0,0,0,0,0.76895684003829956,0,-0.45961815118789673,0,-0.5096970796585083,0,0,0,0,0.087782144546508789,0,0.48173579573631287,0,0,0,0.26812398433685303,0,-0.42384177446365356,0,0,-0.27927422523498535,0,0,0.42291221022605896,0,0,-0.27666756510734558,0,0,0.95408904552459717,0.42307835817337036,0.30265694856643677,0,0,0.25664970278739929,0,0.31082242727279663,0,0,0,-0.65178203582763672,0,-0.70220679044723511,0,0,-0.26561248302459717,0,0,0,0,-0.3407178521156311,0,0.50727415084838867,0,0.47229868173599243,0,0,0,-0.12751173973083496,0,0,0.25118261575698853,0,0,-0.44081628322601318,0,0.27873703837394714,-1,0,-0.057895198464393616,0.37269464135169983,-0.33276209235191345,0,-0.98762142658233643,0.26362892985343933,0.4332980215549469,0,0,0.3149029016494751,-0.6300920844078064,0,0,0.43363183736801147,0,0,0.071643233299255371,0,0,0,-0.6088712215423584,0,0,0,0,-0.47236204147338867,-0.12745471298694611,-0.043165922164916992,0,0,0.44291722774505615,0,-0.48240664601325989,-0.79205375909805298,0.0072505474090576172,0,0.34021833539009094,-0.437996506690979,0,0,0.40373969078063965,0.3593408465385437,0,0,0,-0.31168538331985474,0,0,-0.20786735415458679,0,0,0,0,0,-0.73587119579315186,0,-0.39055559039115906,0.21082770824432373,0,0,-0.060002047568559647,0,0,0,0.41032728552818298,-0.62658941745758057,0,0.35253545641899109,0,0,0,0,0.58789694309234619,0,0,0,-0.39646658301353455,-0.45610517263412476,0,0,-0.23716390132904053,0,0,0,0,0,0,-0.38845968246459961,0,0,0,0,0,0,0,0.15541040897369385,0.29139402508735657,-0.36265528202056885,0,0.31136736273765564,0,-0.39856109023094177,0,-0.29173526167869568,0.25295087695121765,0,-0.28999963402748108,-0.3656061589717865,0,0,-0.99345993995666504,0,-0.82392668724060059,-0.88671857118606567,0.29096263647079468,-0.29827284812927246,0,0,-0.27195960283279419,0,-0.5331573486328125,0.30585861206054688,-0.47340208292007446,0.41463100910186768,0.41174069046974182,0.21444451808929443,0,0,0,-0.44739273190498352,0,-0.72840654850006104,0,0.31695759296417236,0,0.45988175272941589,0,0,-0.45657914876937866,0,0,0,0,0,0,0,0,0,0,0,0,0,0.3468514084815979,0,0,-0.93654382228851318,0,0,0,0,0,0,0,0,0.12543286383152008,0,0,0,0,0,0,-0.4811992347240448,0,0.73317009210586548,0,0,0.3258843719959259,0,0,-0.87189233303070068,0,0,0,-0.35993129014968872,0,0,0,0,0.034280139952898026,0.43908977508544922,0.8208240270614624,0,0,-0.41842108964920044,-0.25383469462394714,0,0,-0.71661639213562012,0,0.70389378070831299,0,0,0.18447721004486084,0,-0.72879707813262939,0,0.6309128999710083,0,0.2647724449634552,-0.36508259177207947,0.31776091456413269,-0.45113682746887207,0,-0.44495168328285217,-0.34922787547111511,0,0,0.45155957341194153,0,-0.45749509334564209,0,0,0,0,0,-1,0,0,0,0,0,0,0.33001258969306946,0.4281635582447052,0,0,1,0,0.6338992714881897,0,0.54577815532684326,0.36788928508758545,0.82873833179473877,-0.25084754824638367,0,0,0,0,0,0,0,-0.41527047753334045,-0.34646284580230713,0,0.25100356340408325,0.68904674053192139,0,0,0.4214896559715271,-0.66665375232696533,0,0,0,-0.31139132380485535],[0.35588753223419189,-0.27188423275947571,0,0,0,0,0,0.60780739784240723,0,0,0,0,0.22929346561431885,0,0,0.63111972808837891,0,0.41810226440429688,0,0,-0.48677155375480652,0,0,0,0,0,0,0,-0.15901379287242889,0.46253669261932373,0,0,0,0.43777543306350708,-0.31905040144920349,0,0.88492584228515625,0.67394709587097168,0.89826780557632446,0.47726330161094666,0.30381721258163452,0,0,0,0,0.42161354422569275,0,0,-0.88141071796417236,-0.256053626537323,0.81361138820648193,-0.56561756134033203,0,0,0.44988435506820679,0,0,-0.42190727591514587,-0.77746486663818359,0.22324991226196289,0.49173945188522339,0,0,0,0,0,0,0,0,0,0.37384107708930969,0.45874163508415222,0.49423485994338989,-0.29894921183586121,0.25901487469673157,0,0.56946802139282227,0,0,0.4505830705165863,0,0,0.73080337047576904,0,-0.19804716110229492,0,0,0,-0.68486642837524414,0,0,-0.62453991174697876,-0.2862568199634552,-0.46339011192321777,0.44731616973876953,0.86393988132476807,0,-0.79538255929946899,0.1031031608581543,-0.70235466957092285,-0.30535674095153809,0,0.15149602293968201,-0.284638911485672,0.9961169958114624,0,0,0,0,-0.49092373251914978,0,-0.62191259860992432,-0.35297045111656189,-0.62475621700286865,0,-0.29414653778076172,0.048792038112878799,0,0.46799027919769287,0,-0.59173876047134399,0.31376898288726807,0,0,0.25817182660102844,-0.35842296481132507,0,0]],"id":"6A2A4C38-CE91-4DBE-939E-2E38B7AC81BC","generation":7,"biases":[[],[-0.34847822785377502,-0.24744348227977753,0,-0.20928716659545898,-0.63161349296569824,-0.42854392528533936,-0.31811723113059998,-0.0017386766849085689,0.94301891326904297,-0.24945452809333801,0.38283154368400574,-0.83315354585647583,0.65110468864440918,-0.020456632599234581,-0.46980026364326477,0.46298074722290039],[0.75020134449005127,0.44226539134979248,0.36745861172676086,0.33143001794815063,0.8023034930229187,0,0.16101193428039551,-0.3521401584148407]],"inputCount":22,"hiddenCount":16,"outputCount":8},
{"marker2":false,"marker1":false,"weights":[[],[0.4396253228187561,-0.34237572550773621,0.31246867775917053,0,0.4456937313079834,0,0,0,0,0,-0.28028386831283569,-1,0,0,0,0,0,0,0,0.76895684003829956,0,-0.45961815118789673,0,-0.5096970796585083,0,0,0,0,0.087782144546508789,0,0.48173579573631287,0,0,0,0.26812398433685303,0,-0.42384177446365356,0,0,-0.27927422523498535,0,0,0.42291221022605896,0,0,-0.27666756510734558,0,0,0.95408904552459717,0.42307835817337036,0.30265694856643677,0,0,0.25664970278739929,0,0.31082242727279663,0,0,0,-0.65178203582763672,0,-0.70220679044723511,0,0,-0.26561248302459717,0,0,0,0,-0.3407178521156311,0,0.50727415084838867,0,0.47229868173599243,0,0,0,-0.12751173973083496,0,0,0.25118261575698853,0,0,-0.44081628322601318,0,0.27873703837394714,-1,0,-0.057895198464393616,0.37269464135169983,-0.33276209235191345,0,-0.98762142658233643,0,0.4332980215549469,-0.68395888805389404,0,0.3149029016494751,-0.6300920844078064,0,0,0.43363183736801147,0,0,0.071643233299255371,0,0,0,-0.6088712215423584,0,0,0,0,-0.47236204147338867,-0.12745471298694611,-0.043165922164916992,0,0,0.44291722774505615,0,-0.48240664601325989,-0.79205375909805298,0.0072505474090576172,0,0.34021833539009094,-0.437996506690979,0,0,0.40373969078063965,0.3593408465385437,0,0,0,-0.31168538331985474,0,0,-0.20786735415458679,0,0,0,0,0,-0.73587119579315186,0,-0.39055559039115906,0.21082770824432373,0,0,-0.060002047568559647,0,0,0,0.41032728552818298,-0.62658941745758057,0,0.35253545641899109,0,0,0,0,0.58789694309234619,0,0,0,-0.39646658301353455,-0.45610517263412476,0,0,-0.23716390132904053,0,0,0,0,0,0,-0.38845968246459961,0,0,0,0,0,0,0,0.15541040897369385,0.29139402508735657,-0.36265528202056885,0,0.31136736273765564,0,-0.39856109023094177,0,-0.29173526167869568,0.25295087695121765,0,-0.28999963402748108,-0.3656061589717865,0,0,-0.99345993995666504,0,-0.82392668724060059,-0.88671857118606567,0.29096263647079468,-0.29827284812927246,0,0,-0.27195960283279419,0,-0.5331573486328125,0.30585861206054688,-0.47340208292007446,0.41463100910186768,0.41174069046974182,0.21444451808929443,0,0,0,-0.44739273190498352,0,-0.72840654850006104,0,0.31695759296417236,0,0.45988175272941589,0,0,-0.45657914876937866,0,0,0,0,0,0,0,0,0,0,0,0,0,0.3468514084815979,0,0,-0.93654382228851318,0,0,0,0,0,0,0,0,0.12543286383152008,0,0,0,0,0,0,-0.4811992347240448,0,0.73317009210586548,0,0,0.16294218599796295,0,0,-0.87189233303070068,0,0,0,-0.35993129014968872,0,0,0,0,0.034280139952898026,0.43908977508544922,0.8208240270614624,0,0,-0.41842108964920044,-0.25383469462394714,0,0,-0.71661639213562012,0,0.70389378070831299,0,0,0.18447721004486084,0,-0.72879707813262939,0,0.6309128999710083,0,0.2647724449634552,-0.36508259177207947,0.31776091456413269,-0.45113682746887207,0,-0.44495168328285217,-0.34922787547111511,0,0,0.45155957341194153,0,-0.45749509334564209,0,0,0,0,0,-1,0,0,0,0,0,0,0.33001258969306946,0.4281635582447052,0,0,1,0,0.6338992714881897,0,0.54577815532684326,0.36788928508758545,0.82873833179473877,-0.25084754824638367,0,0,0,0,0,0,0,-0.41527047753334045,-0.34646284580230713,0,0.25100356340408325,0.68904674053192139,0,0,0.4214896559715271,-0.66665375232696533,0,0,0,-0.31139132380485535],[0.35588753223419189,-0.27188423275947571,0,0,0,0,0,0.60780739784240723,0,0,0,0,0.22929346561431885,0,0,0.63111972808837891,0,0.41810226440429688,0,0,-0.48677155375480652,0,0,0,0,0,0,0,-0.15901379287242889,0.46253669261932373,-0.44691964983940125,0,0,0.43777543306350708,-0.31905040144920349,0,0.88492584228515625,0.67394709587097168,0.48246383666992188,0,0.30381721258163452,0,0,0,0,0.42161354422569275,0,0,-0.88141071796417236,-0.256053626537323,0.81361138820648193,-0.56561756134033203,0,0,0.44988435506820679,0,0,-0.42190727591514587,-0.77746486663818359,0.22324991226196289,0.49173945188522339,0,0,0,0,0,0,0,0,0,0.37384107708930969,0.45874163508415222,0,-0.29894921183586121,0.25901487469673157,0,0.56946802139282227,0,0,0.4505830705165863,0,0,0.29247263073921204,0,-0.19804716110229492,0,0,0,-0.68486642837524414,0,0,-0.62453991174697876,-0.2862568199634552,-0.46339011192321777,0.44731616973876953,0.40288707613945007,0,-0.79538255929946899,0.1031031608581543,-0.70235466957092285,-0.30535674095153809,0,0.15149602293968201,-0.284638911485672,0.9961169958114624,0,0,0,0,0,0,-0.62191259860992432,-0.35297045111656189,-0.62475621700286865,0,-0.29414653778076172,0.048792038112878799,0,0.46799027919769287,0,-0.59173876047134399,0.31376898288726807,0,0,0.25817182660102844,-0.17921148240566254,0,0]],"id":"683046ED-1BED-4950-9F18-0F42F9BF4258","generation":8,"biases":[[],[-0.34847822785377502,-0.24744348227977753,0.35658979415893555,-0.20928716659545898,-0.63161349296569824,-0.42854392528533936,-0.31811723113059998,-0.0017386766849085689,0.94301891326904297,-0.24945452809333801,0.38283154368400574,-0.83315354585647583,0.152180016040802,-0.020456632599234581,-0.46980026364326477,0.46298074722290039],[0.75020134449005127,0.44226539134979248,0.36745861172676086,0.33143001794815063,0.8023034930229187,0,0.16101193428039551,-0.7042803168296814]],"inputCount":22,"hiddenCount":16,"outputCount":8},
{"marker2":false,"marker1":false,"weights":[[],[0.4396253228187561,-0.34237572550773621,0.31246867775917053,0,0.4456937313079834,0,0,0,0,0,-0.28028386831283569,-1,0,0,0,0,0,0,0,0.76895684003829956,0,-0.45961815118789673,0,-0.5096970796585083,0,0,0,0,0.087782144546508789,0,0.48173579573631287,0,0,0,0.26812398433685303,0,-0.42384177446365356,0,0,-0.27927422523498535,0,0,0.42291221022605896,0,0,-0.27666756510734558,0,0,0.95408904552459717,0.42307835817337036,0.30265694856643677,0,0,0.25664970278739929,0,0.31082242727279663,0,0,0,-0.65178203582763672,0,-0.70220679044723511,0,0,-0.26561248302459717,0,0,0,0,-0.3407178521156311,0,0.50727415084838867,0,0.47229868173599243,0,0,0,-0.12751173973083496,0,0,0.25118261575698853,0,0,-0.44081628322601318,0,0.27873703837394714,-1,0,-0.057895198464393616,0.37269464135169983,-0.33276209235191345,0,-0.98762142658233643,0,0.4332980215549469,-0.68395888805389404,0,0.3149029016494751,-0.6300920844078064,0,0,0.43363183736801147,0,0,0.071643233299255371,0,0,0,-0.6088712215423584,0,0,0,0,-0.47236204147338867,-0.12745471298694611,-0.043165922164916992,0,0,0.44291722774505615,0,-0.48240664601325989,-0.79205375909805298,0.0072505474090576172,0,0.34021833539009094,-0.437996506690979,0,0,0.40373969078063965,0.3593408465385437,0,0,0,-0.31168538331985474,0,0,-0.20786735415458679,0,0,0,0,0,-0.73587119579315186,0,-0.39055559039115906,0.21082770824432373,0,0,-0.060002047568559647,0,0,0,0.41032728552818298,-0.62658941745758057,0,0.35253545641899109,0,0,0,0,0.58789694309234619,0,0,0,-0.39646658301353455,-0.45610517263412476,0,0,-0.23716390132904053,0,0,0,0,0,0,-0.38845968246459961,0,0,0,0,0,0,0,0.15541040897369385,0.29139402508735657,-0.36265528202056885,0,0.31136736273765564,0,-0.39856109023094177,0,-0.29173526167869568,0.25295087695121765,0,-0.28999963402748108,-0.3656061589717865,0,0,-0.99345993995666504,0,-0.82392668724060059,-0.88671857118606567,0.29096263647079468,-0.29827284812927246,0,0,-0.27195960283279419,0,-0.5331573486328125,0.30585861206054688,-0.47340208292007446,0.41463100910186768,0.41174069046974182,0.21444451808929443,0,0,0,-0.44739273190498352,0,-0.72840654850006104,0,0.31695759296417236,0,0.45988175272941589,0,0,-0.45657914876937866,0,0,0,0,0,0,0,0,0,0,0,0,0,0.3468514084815979,0,0,-0.93654382228851318,0,0,0,0,0,0,0,0,0.12543286383152008,0,0,0,0,0,0,-0.4811992347240448,0,0.73317009210586548,0,0,0.16294218599796295,0,0,-0.87189233303070068,0,0,0,-0.35993129014968872,0,0,0,0,0.034280139952898026,0.43908977508544922,0.8208240270614624,0,0,-0.41842108964920044,-0.25383469462394714,0,0,-0.71661639213562012,0,0.70389378070831299,0,0,0.18447721004486084,0,-0.72879707813262939,0,0.6309128999710083,0,0.2647724449634552,-0.36508259177207947,0.31776091456413269,-0.45113682746887207,0,-0.44495168328285217,-0.34922787547111511,0,0,0.45155957341194153,0,-0.45749509334564209,0,0,0,0,0,-1,0,0,0,0,0,0,0.33001258969306946,0.4281635582447052,0,0,1,0,0.6338992714881897,0,0.54577815532684326,0.36788928508758545,0.82873833179473877,-0.25084754824638367,0,0,0,0,0,0,0,-0.41527047753334045,-0.34646284580230713,0,0.25100356340408325,0.68904674053192139,0,0,0.4214896559715271,-0.66665375232696533,0,0,0,-0.31139132380485535],[0.35588753223419189,-0.27188423275947571,0,0,0,0,0,0.60780739784240723,0,0,0,0,0.22929346561431885,0,0,0.63111972808837891,0,0.41810226440429688,0,0,-0.48677155375480652,0,0,0,0,0,0,0,-0.15901379287242889,0.46253669261932373,-0.44691964983940125,0,0,0.43777543306350708,-0.31905040144920349,0,0.88492584228515625,0.67394709587097168,0.48246383666992188,0,0.30381721258163452,0,0,0,0,0.42161354422569275,0,0,-0.88141071796417236,-0.256053626537323,0.81361138820648193,-0.56561756134033203,0,0,0.44988435506820679,0,0,-0.42190727591514587,-0.77746486663818359,0.22324991226196289,0.49173945188522339,0,0,0,0,0,0,0,0,0,0.37384107708930969,0.45874163508415222,0,-0.29894921183586121,0.25901487469673157,0,0.56946802139282227,0,0,0.4505830705165863,0,0,0.29247263073921204,0,-0.19804716110229492,0,0,0,-0.68486642837524414,0,0,-0.62453991174697876,-0.2862568199634552,-0.46339011192321777,0.44731616973876953,0.40288707613945007,0,-0.79538255929946899,0.1031031608581543,-0.70235466957092285,-0.30535674095153809,0,0.15149602293968201,-0.284638911485672,0.9961169958114624,0,0.39082041382789612,0,0,0,0,-0.62191259860992432,-0.35297045111656189,-0.62475621700286865,0,-0.29414653778076172,0.048792038112878799,0,0.46799027919769287,0,-0.59173876047134399,0.31376898288726807,0,0,0.25817182660102844,-0.17921148240566254,0,0]],"id":"F7A07C46-A207-4644-8E45-5AD6E72CEF2B","generation":8,"biases":[[],[-0.34847822785377502,-0.24744348227977753,0.35658979415893555,-0.20928716659545898,-0.63161349296569824,-0.42854392528533936,-0.31811723113059998,-0.0017386766849085689,0.94301891326904297,-0.24945452809333801,0.38283154368400574,-0.83315354585647583,0.152180016040802,-0.020456632599234581,-0.46980026364326477,0.46298074722290039],[0.75020134449005127,0.44226539134979248,0.36745861172676086,0.33143001794815063,0.8023034930229187,0,0.16101193428039551,-0.7042803168296814]],"inputCount":22,"hiddenCount":16,"outputCount":8},
{"marker2":false,"marker1":false,"weights":[[],[0.4396253228187561,0,0.31246867775917053,0,0.4456937313079834,0,0,0,0,0,-0.28028386831283569,-1,0,0,0,0,0,0,0,0.76895684003829956,0,-0.45961815118789673,0,-0.5096970796585083,0,0,0,0,0.087782144546508789,0,0.48173579573631287,0,0,0,0.26812398433685303,0,-0.42384177446365356,0,0,-0.27927422523498535,0,0,0.42291221022605896,0,0,-0.27666756510734558,0,0,0.95408904552459717,0.42307835817337036,0.30265694856643677,0,0,0.25664970278739929,0,0.31082242727279663,0,0,0,-0.65178203582763672,0,-0.70220679044723511,0,0,-0.26561248302459717,0,0,0,0,-0.3407178521156311,0,0.50727415084838867,0,0.47229868173599243,0,0,0,-0.12751173973083496,0,0,0.25118261575698853,0,0,-0.44081628322601318,0,0.27873703837394714,-1,0,-0.057895198464393616,0.37269464135169983,-0.33276209235191345,0,-0.98762142658233643,0,0.4332980215549469,0,0,0.3149029016494751,-0.6300920844078064,0,0,0.43363183736801147,0,0,0.071643233299255371,0,0,0,-0.6088712215423584,0,0,0,0,-0.47236204147338867,-0.12745471298694611,-0.043165922164916992,0,0,0.44291722774505615,0,-0.48240664601325989,-0.79205375909805298,0.0072505474090576172,0,0.34021833539009094,-0.437996506690979,0,0,0.40373969078063965,0.3593408465385437,0,0,0,-0.31168538331985474,0,0,-0.20786735415458679,0,0,0,0,0,-0.73587119579315186,0,-0.39055559039115906,0.21082770824432373,0,0,-0.060002047568559647,0,0,0,0.41032728552818298,-0.62658941745758057,0,0.35253545641899109,0,0,0,0,0.58789694309234619,0,0,0,-0.39646658301353455,-0.45610517263412476,0,0,-0.23716390132904053,0,0,0,0,0,0,-0.38845968246459961,0,0,0,0,0,0,0,0.15541040897369385,0.29139402508735657,-0.36265528202056885,0,0.31136736273765564,0,-0.39856109023094177,0,-0.29173526167869568,0.25295087695121765,0,-0.28999963402748108,-0.3656061589717865,0,0,-0.99345993995666504,0,-0.82392668724060059,-0.88671857118606567,0.29096263647079468,-0.29827284812927246,0,0,-0.27195960283279419,0,-0.5331573486328125,0.30585861206054688,-0.47340208292007446,0.41463100910186768,0.41174069046974182,0.21444451808929443,0,0,0,-0.44739273190498352,0,-0.72840654850006104,0,0.31695759296417236,0,0.45988175272941589,0,0,-0.45657914876937866,0,0,0,0,0,0,0,0,0,0,0,0,0,0.3468514084815979,0,0,-0.93654382228851318,0,0,0,0,0,0,0,0,0.12543286383152008,0,0,0,0,0,0,-0.4811992347240448,0,0.73317009210586548,0,0,0.3258843719959259,0,0,-0.87189233303070068,0,0,0,-0.35993129014968872,0,0,0,0,0.034280139952898026,0.43908977508544922,0.8208240270614624,0,0,-0.41842108964920044,-0.25383469462394714,0,0,-0.71661639213562012,0,0.70389378070831299,0,0,0.18447721004486084,0,-0.72879707813262939,0,0.6309128999710083,0,0.2647724449634552,-0.36508259177207947,0.31776091456413269,-0.45113682746887207,0,-0.44495168328285217,-0.34922787547111511,0,0,0.45155957341194153,0,-0.45749509334564209,0,0,0,0,0,-1,0,0,0,0,0,0,0.33001258969306946,0.4281635582447052,0,0,1,0,0.6338992714881897,0,0.54577815532684326,0.36788928508758545,0.82873833179473877,-0.25084754824638367,0,0,0,0,0,0,0,-0.41527047753334045,-0.34646284580230713,0,0.25100356340408325,0.68904674053192139,0,0,0.4214896559715271,-0.66665375232696533,0,0,0,-0.31139132380485535],[0.35588753223419189,-0.27188423275947571,0,0,0,0,0,0.60780739784240723,0,0,0,0,0.22929346561431885,0,0,0.63111972808837891,0,0.41810226440429688,0,0,-0.48677155375480652,0,0,0,0,0,0,0,-0.15901379287242889,0.46253669261932373,0,0,0,0.43777543306350708,-0.31905040144920349,0,0.88492584228515625,0.67394709587097168,0.48246383666992188,0,0.30381721258163452,0,0,0,0,0.42161354422569275,0,0,-0.88141071796417236,-0.256053626537323,0.81361138820648193,-0.56561756134033203,0,0,0.44988435506820679,0,0,-0.42190727591514587,-0.77746486663818359,0.22324991226196289,0.49173945188522339,0,0,0,0,0,0,0,0,0,0.37384107708930969,0.45874163508415222,0,-0.29894921183586121,0.25901487469673157,0,0.56946802139282227,0,0,0.4505830705165863,0,0,0.29247263073921204,0,-0.19804716110229492,0,0,0,-0.68486642837524414,0,0,-0.62453991174697876,-0.2862568199634552,-0.46339011192321777,0.44731616973876953,0.40288707613945007,0,-0.79538255929946899,0.1031031608581543,-0.70235466957092285,-0.30535674095153809,0,0.15149602293968201,-0.284638911485672,0.9961169958114624,0,0,0,0,0.30794292688369751,0,-0.62191259860992432,-0.35297045111656189,-0.62475621700286865,0,-0.29414653778076172,0.048792038112878799,0,0.46799027919769287,0,-0.59173876047134399,0.31376898288726807,0,0,0.25817182660102844,-0.35842296481132507,0,0]],"id":"CBDEC7D7-70F5-483F-9301-D20F03C672F3","generation":6,"biases":[[],[-0.34847822785377502,-0.24744348227977753,0,-0.20928716659545898,-0.63161349296569824,-0.42854392528533936,-0.31811723113059998,-0.0017386766849085689,0.94301891326904297,-0.24945452809333801,0.38283154368400574,-0.83315354585647583,0.152180016040802,-0.020456632599234581,-0.46980026364326477,0.46298074722290039],[0.75020134449005127,0.44226539134979248,0.36745861172676086,0.33143001794815063,0.8023034930229187,0,0.16101193428039551,-0.3521401584148407]],"inputCount":22,"hiddenCount":16,"outputCount":8},
{"marker2":false,"marker1":false,"weights":[[],[0.4396253228187561,0,0.31246867775917053,-0.29902207851409912,0.4456937313079834,0,0,0,0,0,-0.28028386831283569,-1,0,0,0,0,0,0,0,0.76895684003829956,0,-0.45961815118789673,0,-0.5096970796585083,0,0,0,0,0.087782144546508789,0,0.48173579573631287,0,0,0,0.26812398433685303,0,-0.42384177446365356,0,0,-0.27927422523498535,0,0,0.42291221022605896,0,0,-0.27666756510734558,0,0,0.95408904552459717,0.42307835817337036,0.30265694856643677,0,0,0.25664970278739929,0,0.31082242727279663,0,0,0,-0.65178203582763672,0,-0.70220679044723511,0,0,-0.26561248302459717,0,0,0,0,-0.3407178521156311,0,0.50727415084838867,0,0.47229868173599243,0,0,0,-0.12751173973083496,0,0,0.25118261575698853,0,0,-0.44081628322601318,0,0.27873703837394714,-1,0,-0.057895198464393616,0.37269464135169983,-0.33276209235191345,0,-0.98762142658233643,0.26362892985343933,0.4332980215549469,0,0,0.3149029016494751,-0.6300920844078064,0,0,0.43363183736801147,0,0,0.071643233299255371,0,0,0,-0.6088712215423584,0,0,0,0,-0.47236204147338867,-0.12745471298694611,-0.043165922164916992,0,0,0.44291722774505615,0,-0.48240664601325989,-0.79205375909805298,0.0072505474090576172,0,0.34021833539009094,-0.437996506690979,0,0,0.40373969078063965,0.3593408465385437,0,0,0,-0.31168538331985474,0,0,-0.20786735415458679,0,0,0,0,0,-0.73587119579315186,0,-0.39055559039115906,0.21082770824432373,0,0,-0.060002047568559647,0,0,0,0.41032728552818298,-0.62658941745758057,0,0.35253545641899109,0,0,0,0,0.58789694309234619,0,0,0,-0.39646658301353455,-0.45610517263412476,0,0,-0.23716390132904053,0,0,0,0,0,0,-0.38845968246459961,0,0,0,0,0,0,0,0.15541040897369385,0.29139402508735657,-0.36265528202056885,0,0.31136736273765564,0,-0.39856109023094177,0,-0.29173526167869568,0.25295087695121765,0,-0.28999963402748108,-0.3656061589717865,0,0,-0.99345993995666504,0,-0.82392668724060059,-0.88671857118606567,0.29096263647079468,-0.29827284812927246,0,0,-0.27195960283279419,0,-0.5331573486328125,0.30585861206054688,-0.47340208292007446,0.41463100910186768,0.41174069046974182,0.21444451808929443,0,0,0,-0.44739273190498352,0,-0.72840654850006104,0,0.31695759296417236,0,0.45988175272941589,0,0,-0.45657914876937866,0,0,0,0,0,0,0,0,0,0,0,0,0,0.3468514084815979,0,0,-0.93654382228851318,0,0,0,0,0,0,0,0,0.12543286383152008,0,0,0,0,0,0,-0.4811992347240448,0,0.73317009210586548,0,0,0.3258843719959259,0,0,-0.87189233303070068,0,0,0,-0.35993129014968872,0,0,0,0,0.034280139952898026,0.43908977508544922,0.8208240270614624,0,0,-0.41842108964920044,-0.25383469462394714,0,0,-0.71661639213562012,0,0.70389378070831299,0,0,0.18447721004486084,0,-0.72879707813262939,0,0.6309128999710083,0,0.2647724449634552,-0.36508259177207947,0.31776091456413269,-0.45113682746887207,0,-0.44495168328285217,-0.34922787547111511,0,0,0.45155957341194153,0,-0.45749509334564209,0,0,0,0,0,-1,0,0,0,0,0,0,0.33001258969306946,0.4281635582447052,0,0,1,0,0.6338992714881897,0,0.54577815532684326,0.36788928508758545,0.82873833179473877,-0.25084754824638367,0,0,0,0,0,0,0,-0.41527047753334045,-0.34646284580230713,0,0.25100356340408325,0.68904674053192139,0,0,0.4214896559715271,-0.66665375232696533,0,0,0,-0.31139132380485535],[0.35588753223419189,-0.27188423275947571,0,0,0,0,0,0.60780739784240723,0,0,0,0,0.22929346561431885,0,0,0.63111972808837891,0,0.41810226440429688,0,0,-0.48677155375480652,0,0,0,0,0,0,0,-0.15901379287242889,0.46253669261932373,0,0,0,0.43777543306350708,-0.31905040144920349,0,0.88492584228515625,0.67394709587097168,0.89826780557632446,0.47726330161094666,0.30381721258163452,0,0,0,0,0.42161354422569275,0,0,-0.88141071796417236,-0.256053626537323,0.81361138820648193,-0.56561756134033203,0,0,0.44988435506820679,0,0,-0.42190727591514587,-0.77746486663818359,0.22324991226196289,0.49173945188522339,0,0,0,0,0,0,0,0,0,0.37384107708930969,0.45874163508415222,0.49423485994338989,-0.29894921183586121,0.25901487469673157,0,0.56946802139282227,0,0,0.4505830705165863,0,0,0.73080337047576904,0,-0.19804716110229492,0,0,0,-0.68486642837524414,0,0,-0.62453991174697876,-0.2862568199634552,-0.46339011192321777,0.44731616973876953,0.86393988132476807,0,-0.79538255929946899,0.1031031608581543,-0.70235466957092285,-0.30535674095153809,0,0.15149602293968201,-0.284638911485672,0.9961169958114624,0,0,0,0,-0.49092373251914978,0,-0.62191259860992432,-0.35297045111656189,-0.62475621700286865,0,-0.29414653778076172,0.048792038112878799,0,0.46799027919769287,0,-0.59173876047134399,0.31376898288726807,0,0,0.25817182660102844,-0.35842296481132507,0,0]],"id":"BA7E1634-8EC5-408B-BA01-8E218334A6FA","generation":6,"biases":[[],[-0.34847822785377502,-0.24744348227977753,0,-0.20928716659545898,-0.63161349296569824,-0.42854392528533936,-0.31811723113059998,-0.0017386766849085689,0.94301891326904297,-0.24945452809333801,0.38283154368400574,-0.83315354585647583,0.65110468864440918,-0.020456632599234581,-0.46980026364326477,0.46298074722290039],[0.75020134449005127,0.44226539134979248,0.36745861172676086,0.33143001794815063,0.8023034930229187,0,0.16101193428039551,-0.3521401584148407]],"inputCount":22,"hiddenCount":16,"outputCount":8},
{"marker2":false,"marker1":false,"weights":[[],[0.4396253228187561,0,0.31246867775917053,0,0.4456937313079834,0,0,0,0,0,-0.28028386831283569,0.23282909393310547,0,0,0,0,0,0,0,0.76895684003829956,0,-0.45961815118789673,0,-0.5096970796585083,0,0,0,0.68922936916351318,0.087782144546508789,0,0.48173579573631287,0,0,0,0.26812398433685303,0,-0.42384177446365356,0,0,-0.27927422523498535,0,0,0.42291221022605896,0,0.28747150301933289,-0.27666756510734558,0,0,0.95408904552459717,0.42307835817337036,0.30265694856643677,0,0,0.25664970278739929,0,0.31082242727279663,0,0,0,-0.65178203582763672,0,-0.70220679044723511,0,0,-0.26561248302459717,0,0.87586486339569092,0,0,-0.3407178521156311,-0.27583852410316467,0.50727415084838867,0,0.47229868173599243,0,0,0,-0.12751173973083496,0,0,0.25118261575698853,0,0,-0.44081628322601318,0,0.27873703837394714,-1,0,-0.057895198464393616,0.37269464135169983,-0.33276209235191345,0,-0.98762142658233643,0,0.54107171297073364,0,0,0.3149029016494751,-0.6300920844078064,0,0,0.43363183736801147,0,0,0.071643233299255371,0,0,0,-0.6088712215423584,0,0.35790711641311646,0,0,-0.47236204147338867,-0.12745471298694611,0.71727389097213745,0,0,0.44291722774505615,0,-0.48240664601325989,-0.79205375909805298,0.0072505474090576172,0,0.34021833539009094,-0.437996506690979,0,0,0.40373969078063965,0.3593408465385437,0,0,0,-0.31168538331985474,0,0,-0.20786735415458679,0,0,0,0,0,-0.73587119579315186,0,-0.39055559039115906,-0.12261641770601273,0,0,-0.060002047568559647,0,0,0,0.41032728552818298,-0.62658941745758057,0,0.35253545641899109,0,0,0,0,0.58789694309234619,0,0,0,-0.39646658301353455,-0.45610517263412476,0,0,-0.23716390132904053,0,0,0,0,0,0,-0.38845968246459961,0,0,0,0,0,0.22414088249206543,0,0.15541040897369385,0.29139402508735657,-0.36265528202056885,0,0.31136736273765564,0,-0.39856109023094177,0,-0.29173526167869568,0.25295087695121765,0,-0.28999963402748108,-0.3656061589717865,0,0,-0.99345993995666504,0,-0.82392668724060059,-0.88671857118606567,0.29096263647079468,-0.29827284812927246,0,0,-0.27195960283279419,0,-0.5331573486328125,0.30585861206054688,-0.47340208292007446,0.41463100910186768,0.41174069046974182,0.21444451808929443,0,0,0,-0.44739273190498352,0,-0.72840654850006104,0,0.31695759296417236,0,0.45988175272941589,0,0,-0.45657914876937866,0,0,0,0,0,0,0,0,0,0,0,0,0,0.3468514084815979,0,0.45013397932052612,-0.93654382228851318,0,0,0,0,0,0,0,0,0.12543286383152008,0,0,0,0,0,0,-0.4811992347240448,0,0.73317009210586548,0,0,0.3258843719959259,0,0,-0.87189233303070068,0,0,0,-0.35993129014968872,0,0,0,0,0.034280139952898026,0.10675045847892761,0.8208240270614624,0,0,-0.41842108964920044,-0.25383469462394714,0,0,-0.71661639213562012,0,0.70389378070831299,0,0,0.09223860502243042,0,-0.72879707813262939,-0.67357683181762695,0.6309128999710083,0,0.2647724449634552,-0.36508259177207947,0.31776091456413269,-0.45113682746887207,0,-0.44495168328285217,-0.34922787547111511,0,0,0.45155957341194153,0,-0.45749509334564209,0,0,0,0,0,-1,0,0,0,0,0,0,0.33001258969306946,0.4281635582447052,0,0,1,0,0.6338992714881897,0,0.54577815532684326,0.36788928508758545,0.82873833179473877,-0.25084754824638367,0,0,0,0,0,0,0,-0.41527047753334045,-0.34646284580230713,0,0.25100356340408325,0.68904674053192139,0,0,0.4214896559715271,-0.66665375232696533,0,0,0,-0.31139132380485535],[0.35588753223419189,-0.27188423275947571,0,0,0,0,0,0.60780739784240723,0,0.49395132064819336,0,0,0.22929346561431885,0,0,0.63111972808837891,0,0.41810226440429688,0,0,-0.48677155375480652,0,0,0,0,0,0,0,-0.15901379287242889,0.46253669261932373,0,0,0,0.43777543306350708,-0.31905040144920349,0,0.88492584228515625,0.67394709587097168,0.48246383666992188,0,0.30381721258163452,0,0,-0.37770754098892212,0,0.42161354422569275,0,0,-0.88141071796417236,-0.256053626537323,0.81361138820648193,-0.56561756134033203,0,0,0.44988435506820679,0,0,-0.42190727591514587,-0.77746486663818359,0.22324991226196289,0.49173945188522339,0,0,0,0,0,0,0,0,0,0.37384107708930969,0.45874163508415222,0,-0.29894921183586121,0.25901487469673157,0,0.56946802139282227,0,0,0.4505830705165863,0,0,0.29247263073921204,0,-0.19804716110229492,0,0,0,-0.68486642837524414,0,0,-0.62453991174697876,-0.2862568199634552,-0.46339011192321777,0.44731616973876953,0.40288707613945007,0,-0.79538255929946899,0.1031031608581543,-0.70235466957092285,-0.30535674095153809,0,0.15149602293968201,-0.284638911485672,0.9961169958114624,0,0.31099063158035278,0,0,0,0,-0.62191259860992432,-0.35297045111656189,-0.62475621700286865,0,-0.29414653778076172,0.048792038112878799,0.47307345271110535,0.46799027919769287,0,-0.59173876047134399,0.31376898288726807,0,0,0.25817182660102844,-0.35842296481132507,0,0]],"id":"1E62DA2E-530B-4B52-93EA-ADFD6355C190","generation":19,"biases":[[],[0.12393135577440262,-0.12372174113988876,0,-0.20928716659545898,-0.63161349296569824,-0.42854392528533936,-0.61576253175735474,-0.0017386766849085689,0.94301891326904297,-0.24945452809333801,0.38283154368400574,-0.83315354585647583,0.152180016040802,0.37869974970817566,-0.46980026364326477,0.46298074722290039],[0.75020134449005127,0.44226539134979248,0.36745861172676086,0.33143001794815063,0.8023034930229187,0,0.16101193428039551,-0.3521401584148407]],"inputCount":22,"hiddenCount":16,"outputCount":8},
{"marker2":false,"marker1":false,"weights":[[],[0.4396253228187561,0,0.31246867775917053,-0.29902207851409912,0.4456937313079834,0,0,0,0,0,-0.28028386831283569,-1,0,0,0,0,0,0,0,0.76895684003829956,0,-0.45961815118789673,0,-0.5096970796585083,0,0,0,0,0.087782144546508789,0,0.48173579573631287,0,0,0,0.26812398433685303,0,-0.42384177446365356,0,0,-0.27927422523498535,0,0,0.42291221022605896,0,0,-0.27666756510734558,0,0,0.95408904552459717,0.42307835817337036,0.30265694856643677,0,0,0.25664970278739929,0,0.31082242727279663,0,0,0,-0.65178203582763672,0,-0.70220679044723511,0,0,-0.26561248302459717,0,0,0,0,-0.3407178521156311,0,0.50727415084838867,0,0.47229868173599243,0,0,0,-0.12751173973083496,0,0,0.25118261575698853,0,0,-0.44081628322601318,0,0.27873703837394714,-1,0,-0.057895198464393616,0.37269464135169983,-0.33276209235191345,0,-0.98762142658233643,0,0.4332980215549469,0,0,0.3149029016494751,-0.6300920844078064,0,0,0.43363183736801147,0,0,0.071643233299255371,0,0,0,-0.6088712215423584,0,0,0,0,-0.47236204147338867,-0.12745471298694611,-0.043165922164916992,0,0,0.44291722774505615,0,-0.48240664601325989,-0.79205375909805298,0.0072505474090576172,0,0.34021833539009094,-0.437996506690979,0,0,0.40373969078063965,0.3593408465385437,0,0,0,-0.31168538331985474,0,0,-0.20786735415458679,0,0,0,0,0,-0.73587119579315186,0,-0.39055559039115906,0.21082770824432373,0,0,-0.060002047568559647,0,0,0,0.41032728552818298,-0.62658941745758057,0,0.35253545641899109,0,0,0,0,0.58789694309234619,0,0,0,-0.39646658301353455,-0.45610517263412476,0,0,-0.23716390132904053,0,0,0,0,0,0,-0.38845968246459961,0,0,0,0,0,0,0,0.15541040897369385,0.29139402508735657,-0.36265528202056885,0,0.31136736273765564,0,-0.39856109023094177,0,-0.29173526167869568,0.25295087695121765,0,-0.28999963402748108,-0.3656061589717865,0,0,-0.99345993995666504,0,-0.82392668724060059,-0.88671857118606567,0.29096263647079468,-0.29827284812927246,0,0,-0.27195960283279419,0,-0.5331573486328125,0.30585861206054688,-0.47340208292007446,0.41463100910186768,0.41174069046974182,0.21444451808929443,0,0,0,-0.44739273190498352,0,-0.72840654850006104,0,0.31695759296417236,0,0.45988175272941589,0,0,-0.45657914876937866,0,0,0,0,0,0,0,0,0,0,0,0,0,0.3468514084815979,0,0,-0.93654382228851318,0,0,0,0,0,0,0,0,0.12543286383152008,0,0,0,0,0,0,-0.4811992347240448,0,0.73317009210586548,0,0,0.3258843719959259,0,0,-0.87189233303070068,0,0,0,-0.35993129014968872,0,0,0,0,0.034280139952898026,0.43908977508544922,0.8208240270614624,0,0,-0.41842108964920044,-0.25383469462394714,0,0,-0.71661639213562012,0,0.70389378070831299,0,0,0.18447721004486084,0,-0.72879707813262939,0,0.6309128999710083,0,0.2647724449634552,-0.36508259177207947,0.31776091456413269,-0.45113682746887207,0,-0.44495168328285217,-0.34922787547111511,0,0,0.45155957341194153,0,-0.45749509334564209,0,0,0,0,0,-1,0,0,0,0,0,0,0.33001258969306946,0.4281635582447052,0,0,1,0,0.6338992714881897,0,0.54577815532684326,0.36788928508758545,0.82873833179473877,-0.25084754824638367,0,0,0,0,0,0,0,-0.41527047753334045,-0.34646284580230713,0,0.25100356340408325,0.68904674053192139,0,0,0.4214896559715271,-0.66665375232696533,0,0,0,-0.31139132380485535],[0.35588753223419189,-0.27188423275947571,0,0,0,0,0,0.60780739784240723,0,0,0,0,0.22929346561431885,0,0,0.63111972808837891,0,0.41810226440429688,0,0,-0.48677155375480652,0,0,0,0,0,0,0,-0.15901379287242889,0.46253669261932373,0,0,0,0.43777543306350708,-0.31905040144920349,0,0.88492584228515625,0.67394709587097168,0.48246383666992188,0.47726330161094666,0.30381721258163452,0,0,0,0,0.42161354422569275,0,0,-0.88141071796417236,-0.256053626537323,0.81361138820648193,-0.56561756134033203,0,0,0.44988435506820679,0,0,-0.42190727591514587,-0.77746486663818359,0.22324991226196289,0.49173945188522339,0,0,0,0,0,0,0,0,0,0.37384107708930969,0.45874163508415222,0,-0.29894921183586121,0.25901487469673157,0,0.56946802139282227,0,0,0.4505830705165863,0,0,0.73080337047576904,0,-0.19804716110229492,0,0,0,-0.68486642837524414,0,0,-0.62453991174697876,-0.2862568199634552,-0.46339011192321777,0.44731616973876953,0.40288707613945007,0,-0.79538255929946899,0.1031031608581543,-0.70235466957092285,-0.30535674095153809,0,0.15149602293968201,-0.284638911485672,0.9961169958114624,0,0,0,0,-0.49092373251914978,0,-1,-0.35297045111656189,-0.62475621700286865,0,-0.29414653778076172,0.048792038112878799,0,0.46799027919769287,0,-0.59173876047134399,0.31376898288726807,0,0,0.25817182660102844,-0.35842296481132507,0,0]],"id":"9ABB79B2-476B-47F2-A9B2-DE8B9679C776","generation":5,"biases":[[],[-0.34847822785377502,-0.24744348227977753,0,-0.20928716659545898,-0.63161349296569824,-0.42854392528533936,-0.31811723113059998,-0.0017386766849085689,0.94301891326904297,-0.24945452809333801,0.38283154368400574,-0.83315354585647583,0.152180016040802,-0.020456632599234581,-0.46980026364326477,0.46298074722290039],[0.75020134449005127,0.44226539134979248,0.36745861172676086,0.33143001794815063,0.8023034930229187,0,0.16101193428039551,-0.3521401584148407]],"inputCount":22,"hiddenCount":16,"outputCount":8},
{"marker2":false,"marker1":false,"weights":[[],[0.4396253228187561,-0.34237572550773621,0.31246867775917053,0,0.4456937313079834,0,0,0,0,0,-0.28028386831283569,-1,0,0,0,0,0,0,0,0.76895684003829956,0,-0.45961815118789673,0,-0.5096970796585083,0,0,0,0,0.087782144546508789,0,0.48173579573631287,0,0,0,0.26812398433685303,0,-0.42384177446365356,0,0,-0.27927422523498535,0,0,0.42291221022605896,0,0,-0.27666756510734558,0,0,0.95408904552459717,0.42307835817337036,0.30265694856643677,0,0,0.25664970278739929,0,0.31082242727279663,0,0,0,-0.65178203582763672,0,-0.70220679044723511,0,0,-0.26561248302459717,0,0,0,0,-0.3407178521156311,0,0.50727415084838867,0,0.47229868173599243,0,0,0,-0.12751173973083496,0,0,0.25118261575698853,0,0,-0.44081628322601318,0,0.27873703837394714,-1,0,-0.057895198464393616,0.37269464135169983,-0.33276209235191345,0,-0.98762142658233643,0,0.4332980215549469,-0.68395888805389404,0,0.3149029016494751,-0.6300920844078064,0,0,0.43363183736801147,0,0,0.071643233299255371,0,0,0,-0.6088712215423584,0,0,0,0,-0.47236204147338867,-0.12745471298694611,-0.043165922164916992,0,0,0.44291722774505615,0,-0.48240664601325989,-0.79205375909805298,0.0072505474090576172,0,0.34021833539009094,-0.437996506690979,0,0,0.40373969078063965,0.3593408465385437,0,0,0,-0.31168538331985474,0,0,-0.20786735415458679,0,0,0,0,0,-0.73587119579315186,0,-0.39055559039115906,0.21082770824432373,0,0,-0.060002047568559647,0,0,0,0.41032728552818298,-0.62658941745758057,0,0.35253545641899109,0,0,0,0,0.58789694309234619,0,0,0,-0.39646658301353455,-0.45610517263412476,0,0,-0.23716390132904053,0,0,0,0,0,0,-0.38845968246459961,0,0,0,0,0,0,0,0.15541040897369385,0.29139402508735657,-0.36265528202056885,0,0.31136736273765564,0,-0.39856109023094177,0,-0.29173526167869568,0.25295087695121765,0,-0.28999963402748108,-0.3656061589717865,0,0,-0.99345993995666504,0,-0.82392668724060059,-0.88671857118606567,0.29096263647079468,-0.29827284812927246,0,0,-0.27195960283279419,0,-0.5331573486328125,0.30585861206054688,-0.47340208292007446,0.41463100910186768,0.41174069046974182,0.21444451808929443,0,0,0,-0.44739273190498352,0,-0.72840654850006104,0,0.31695759296417236,0,0.45988175272941589,0,0,-0.45657914876937866,0,0,0,0,0,0,0,0,0,0,0,0,0,0.3468514084815979,0,0,-0.93654382228851318,0,0,0,0,0,0,0,0,0.12543286383152008,0,0,0,0,0,0,-0.4811992347240448,0,0.73317009210586548,0,0,0.16294218599796295,0,0,-0.87189233303070068,0,0,0,-0.35993129014968872,0,0,0,0,0.034280139952898026,0.43908977508544922,0.8208240270614624,0,0,-0.41842108964920044,-0.25383469462394714,0,0,-0.71661639213562012,0,0.70389378070831299,0,0,0.18447721004486084,0,-0.72879707813262939,0,0.6309128999710083,0,0.2647724449634552,-0.36508259177207947,0.31776091456413269,-0.45113682746887207,0,-0.44495168328285217,-0.34922787547111511,0,0,0.45155957341194153,0,-0.45749509334564209,0,0,0,0,0,-1,0,0,0,0,0,0,0.33001258969306946,0.4281635582447052,0,0,1,0,0.6338992714881897,0,0.54577815532684326,0.36788928508758545,0.82873833179473877,-0.25084754824638367,0,0,0,0,0,0,0,-0.41527047753334045,-0.34646284580230713,0,0.25100356340408325,0.68904674053192139,0,0,0.4214896559715271,-0.66665375232696533,0,0,0,-0.31139132380485535],[0.35588753223419189,-0.27188423275947571,0,0,0,0,0,0.60780739784240723,0,0,0,0,0.22929346561431885,0,0,0.63111972808837891,0,0.41810226440429688,0,0,-0.48677155375480652,0,0,0,0,0,0,0,-0.15901379287242889,0.46253669261932373,-0.44691964983940125,0,0,0.43777543306350708,-0.31905040144920349,0,0.88492584228515625,0.67394709587097168,0.48246383666992188,0,0.30381721258163452,0,0,0,0,0.42161354422569275,0,0,-0.88141071796417236,-0.256053626537323,0.81361138820648193,-0.56561756134033203,0,0,0.44988435506820679,0,0,-0.42190727591514587,-0.77746486663818359,0.22324991226196289,0.49173945188522339,0,0,0,0,0,0,0,0,0,0.37384107708930969,0.45874163508415222,0,-0.29894921183586121,0.25901487469673157,0,0.56946802139282227,0,0,0.4505830705165863,0,0,0.29247263073921204,0,-0.19804716110229492,0,0,0,-0.68486642837524414,0,0,-0.62453991174697876,-0.2862568199634552,-0.46339011192321777,0.44731616973876953,0.40288707613945007,0,-0.79538255929946899,0.1031031608581543,-0.70235466957092285,-0.30535674095153809,0,0.15149602293968201,-0.284638911485672,0.9961169958114624,0,0,0,0,0,0,-0.62191259860992432,-0.35297045111656189,-0.62475621700286865,0,-0.29414653778076172,0.048792038112878799,0,0.46799027919769287,0,-0.59173876047134399,0.31376898288726807,0,0,0.25817182660102844,-0.17921148240566254,0,0]],"id":"5822D0FA-BD5C-4D2A-ACD0-208091BEE1C4","generation":7,"biases":[[],[-0.34847822785377502,-0.24744348227977753,0.35658979415893555,-0.20928716659545898,-0.63161349296569824,-0.42854392528533936,-0.31811723113059998,-0.0017386766849085689,0.94301891326904297,-0.24945452809333801,0.38283154368400574,-0.83315354585647583,0.152180016040802,-0.020456632599234581,-0.46980026364326477,0.46298074722290039],[0.75020134449005127,0.44226539134979248,0.36745861172676086,0.33143001794815063,0.8023034930229187,0,0.16101193428039551,-0.7042803168296814]],"inputCount":22,"hiddenCount":16,"outputCount":8},
{"marker2":false,"marker1":false,"weights":[[],[0.4396253228187561,-0.34237572550773621,0.31246867775917053,0,0.4456937313079834,0,0,0,0,0,-0.28028386831283569,-1,0,0,0,0,0,0,0,0.76895684003829956,0,-0.45961815118789673,0,-0.5096970796585083,0,0,0,0,0.087782144546508789,0,0.48173579573631287,0,0,0,0.26812398433685303,0,-0.42384177446365356,0,0,-0.27927422523498535,0,0,0.42291221022605896,0,0,-0.27666756510734558,0,0,0.95408904552459717,0.42307835817337036,0.30265694856643677,0,0,0.25664970278739929,0,0.31082242727279663,0,0,0,-0.65178203582763672,0,-0.70220679044723511,0,0,-0.26561248302459717,0,0,0,0,-0.3407178521156311,0,0.50727415084838867,0,0.47229868173599243,0,0,0,-0.12751173973083496,0,0,0.25118261575698853,0,0,-0.44081628322601318,0,0.27873703837394714,-1,0,-0.057895198464393616,0.37269464135169983,-0.33276209235191345,0,-0.98762142658233643,0,0.4332980215549469,-0.68395888805389404,0,0.3149029016494751,-0.6300920844078064,0,0,0.43363183736801147,0,0,0.071643233299255371,0,0,0,-0.6088712215423584,0,0,0,0,-0.47236204147338867,-0.12745471298694611,-0.043165922164916992,0,0,0.44291722774505615,0,-0.48240664601325989,-0.79205375909805298,0.0072505474090576172,0,0.34021833539009094,-0.437996506690979,0,0,-0.09347369521856308,0.3593408465385437,0,0,0,-0.31168538331985474,0,0,-0.20786735415458679,0,0,0,0,0,-0.73587119579315186,0,-0.39055559039115906,0.21082770824432373,0,0,-0.060002047568559647,0,0,0,0.41032728552818298,-0.62658941745758057,0,0.35253545641899109,0,0,0,0,0.58789694309234619,0,0,0,-0.39646658301353455,-0.45610517263412476,0,0,-0.23716390132904053,0,0,0,0,0,0,-0.38845968246459961,0,0,0,0,0,0,0,0.15541040897369385,0.29139402508735657,-0.36265528202056885,0,0.31136736273765564,0,-0.39856109023094177,0,-0.29173526167869568,0.25295087695121765,0,-0.28999963402748108,-0.3656061589717865,0,0,-0.99345993995666504,0,-0.82392668724060059,-0.88671857118606567,0.29096263647079468,-0.29827284812927246,0,0,-0.27195960283279419,0,-0.5331573486328125,0.30585861206054688,-0.47340208292007446,0.41463100910186768,0.41174069046974182,0.21444451808929443,0,0,0,-0.44739273190498352,0,-0.72840654850006104,0,0.31695759296417236,0,0.45988175272941589,0,0,-0.45657914876937866,0,0,0,0,0,0,0,0,0,0,0,0,0,0.3468514084815979,0,0,-0.93654382228851318,0,0,0,0,0,0,0,0,0.12543286383152008,0,0,0,0,0,0,-0.4811992347240448,0,0.73317009210586548,0,0,0.16294218599796295,0,0,-0.87189233303070068,0,0,0,-0.35993129014968872,0,0,0,0,0.034280139952898026,0.43908977508544922,0.8208240270614624,0,0,-0.41842108964920044,-0.25383469462394714,0,0,-0.71661639213562012,0,0.70389378070831299,0,0,0.18447721004486084,0,-0.72879707813262939,0,0.6309128999710083,0,0.2647724449634552,-0.36508259177207947,0.31776091456413269,-0.45113682746887207,0,-0.44495168328285217,-0.34922787547111511,0,0,0.45155957341194153,0,-0.45749509334564209,0,0,0,0,0,-1,0,0,0,0,0,0,0.33001258969306946,0.4281635582447052,0,0,1,0,0.6338992714881897,0,0.54577815532684326,0.36788928508758545,0.82873833179473877,-0.25084754824638367,0,0,0,0,0,0,0,-0.41527047753334045,-0.34646284580230713,0,0.25100356340408325,0.68904674053192139,0,0,0.4214896559715271,-0.66665375232696533,0,0,0,-0.31139132380485535],[0.35588753223419189,-0.27188423275947571,0,0,0,0,0,0.60780739784240723,0,0,0,0,0.22929346561431885,0,0,0.63111972808837891,0,0.41810226440429688,0,0,-0.48677155375480652,0,0,0,0,0,0,0,-0.15901379287242889,0.46253669261932373,-0.44691964983940125,0,0,0.43777543306350708,-0.31905040144920349,0,0.88492584228515625,0.67394709587097168,0.48246383666992188,0,0.30381721258163452,0,0,0,0,0.42161354422569275,0,0,-0.88141071796417236,-0.256053626537323,0.81361138820648193,-0.56561756134033203,0,0,0.44988435506820679,0,0,-0.42190727591514587,-0.77746486663818359,0.22324991226196289,0.49173945188522339,0,0,0,0.79067146778106689,0,0,0,0,0,0.37384107708930969,0.45874163508415222,0,-0.29894921183586121,0.25901487469673157,0,0.56946802139282227,0,0,0.4505830705165863,0,0,0.29247263073921204,0,-0.19804716110229492,0,0,0,-0.68486642837524414,0,0,-0.62453991174697876,-0.2862568199634552,-0.46339011192321777,0.44731616973876953,0.40288707613945007,0,-0.79538255929946899,0.1031031608581543,-0.70235466957092285,-0.30535674095153809,0,0.15149602293968201,-0.284638911485672,0.9961169958114624,0,0,0,0,0,0,-0.62191259860992432,-0.35297045111656189,-0.62475621700286865,0,-0.29414653778076172,0.048792038112878799,0,0.46799027919769287,0,-0.59173876047134399,0.31376898288726807,0,0,0.25817182660102844,-0.17921148240566254,0,0]],"id":"0DD37872-D45A-4CED-9674-E489E0E45920","generation":8,"biases":[[],[-0.34847822785377502,-0.24744348227977753,-0.12161117047071457,-0.20928716659545898,-0.63161349296569824,-0.42854392528533936,-0.31811723113059998,-0.0017386766849085689,0.94301891326904297,-0.24945452809333801,0.38283154368400574,-0.83315354585647583,0.152180016040802,-0.020456632599234581,-0.46980026364326477,0.46298074722290039],[0.75020134449005127,0.44226539134979248,0.36745861172676086,0.33143001794815063,0.8023034930229187,0,0.16101193428039551,-0.7042803168296814]],"inputCount":22,"hiddenCount":16,"outputCount":8},
{"marker2":false,"marker1":false,"weights":[[],[0.4396253228187561,0,0.31246867775917053,0,0.4456937313079834,0,0,0,0,0,-0.28028386831283569,0.23282909393310547,0,0,0,0,0,0,0,0.76895684003829956,0,-0.45961815118789673,0,-0.5096970796585083,0,0,0,0.68922936916351318,0.087782144546508789,0,0.48173579573631287,0,0,0,0.26812398433685303,0,-0.42384177446365356,0,0,-0.27927422523498535,0,0,0.42291221022605896,0,0.28747150301933289,-0.27666756510734558,0,0,0.95408904552459717,0.42307835817337036,0.30265694856643677,0,0,0.25664970278739929,0,0.31082242727279663,0,0,0,-0.65178203582763672,0,-0.70220679044723511,0,0,-0.26561248302459717,0,0.87586486339569092,0,0,-0.3407178521156311,-0.27583852410316467,0.50727415084838867,0,0.47229868173599243,0,0,0,-0.12751173973083496,0,0,0.25118261575698853,0,0,-0.44081628322601318,0,0.27873703837394714,-1,0,-0.057895198464393616,0.37269464135169983,-0.33276209235191345,0,-0.98762142658233643,0,0.54107171297073364,0,0,0.3149029016494751,-0.6300920844078064,0,0,0.43363183736801147,0,0,0.071643233299255371,0,0,0,-0.6088712215423584,0,0.35790711641311646,0,0,-0.47236204147338867,-0.12745471298694611,0.71727389097213745,0,0,0.44291722774505615,0,-0.48240664601325989,-0.79205375909805298,0.0072505474090576172,0,0.34021833539009094,-0.437996506690979,0,0,0.40373969078063965,0.3593408465385437,0,0,0,-0.31168538331985474,0,0,-0.20786735415458679,0,0,0,0,0,-0.73587119579315186,0,-0.39055559039115906,-0.12261641770601273,0,0,-0.060002047568559647,0,0,0,0.41032728552818298,-0.62658941745758057,0,0.35253545641899109,0,0,0,0,0.95358598232269287,0,0,0,-0.39646658301353455,-0.45610517263412476,0,0,-0.23716390132904053,0,0,0,0,0,0,-0.38845968246459961,0,0,0,0,0,0.22414088249206543,0,0.15541040897369385,0.29139402508735657,-0.36265528202056885,0,0.31136736273765564,0,-0.39856109023094177,0,-0.29173526167869568,0.25295087695121765,0,-0.28999963402748108,-0.3656061589717865,0,0,-0.99345993995666504,0,-0.82392668724060059,-0.88671857118606567,0.29096263647079468,-0.29827284812927246,0,0,-0.27195960283279419,0,-0.5331573486328125,0.30585861206054688,-0.47340208292007446,0.41463100910186768,0.41174069046974182,0.21444451808929443,0,0,0,-0.44739273190498352,0,-0.72840654850006104,0,0.31695759296417236,0,0.45988175272941589,0,0,-0.45657914876937866,0,0,0,0,0,0,0,0,0,0,0,0,0,0.3468514084815979,0,0.45013397932052612,-0.93654382228851318,0,0,0,0,0,0,0,0,0.12543286383152008,0,0,0,0,0,0,-0.4811992347240448,0,0.73317009210586548,0,0,0.3258843719959259,0,0,-0.87189233303070068,0,0,0,-0.35993129014968872,0,0,0,0,0.034280139952898026,0.10675045847892761,0.8208240270614624,0,0,-0.41842108964920044,-0.25383469462394714,0,0,-0.71661639213562012,0,0.70389378070831299,0,0,0.18447721004486084,0,-0.72879707813262939,-0.67357683181762695,0.6309128999710083,0,0.2647724449634552,-0.36508259177207947,0.31776091456413269,-0.45113682746887207,0,-0.44495168328285217,-0.34922787547111511,0,0,0.45155957341194153,0,-0.45749509334564209,0,0,0,0,0,-1,0,0,0,0,0,0,0.33001258969306946,0.4281635582447052,0,0,1,0,0.6338992714881897,0,0.54577815532684326,0.36788928508758545,0.82873833179473877,-0.25084754824638367,0,0,0,0,0,0,0,-0.41527047753334045,-0.34646284580230713,0,0.25100356340408325,0.68904674053192139,0,0,0.4214896559715271,-0.66665375232696533,0,0,0,-0.31139132380485535],[0.35588753223419189,-0.27188423275947571,0,0,0,0,0,0.60780739784240723,0,0.49395132064819336,0,0,0.22929346561431885,0,0,0.63111972808837891,0,0.41810226440429688,0,0,-0.48677155375480652,0,0,0,0,0,0,0,-0.15901379287242889,0.46253669261932373,0,0,0,0.43777543306350708,-0.31905040144920349,0,0.88492584228515625,0.67394709587097168,0.48246383666992188,0,0.30381721258163452,0,0,-0.37770754098892212,0,0.42161354422569275,0,0,-0.88141071796417236,-0.256053626537323,0.81361138820648193,-0.56561756134033203,0,0,0.44988435506820679,0,0,-0.42190727591514587,-0.77746486663818359,0.22324991226196289,0.49173945188522339,0,0,0,0,0,0,0,0,0,0.37384107708930969,0.45874163508415222,0,-0.29894921183586121,0.25901487469673157,0,0.56946802139282227,0,0,0.4505830705165863,0,0,0.29247263073921204,0,-0.19804716110229492,0,0,0,-0.68486642837524414,0,0,-0.62453991174697876,-0.2862568199634552,-0.46339011192321777,0.44731616973876953,0.40288707613945007,0,-0.79538255929946899,0.1031031608581543,-0.70235466957092285,-0.30535674095153809,0,0.15149602293968201,-0.284638911485672,0.9961169958114624,0,0.31099063158035278,0,0,0,0,-0.62191259860992432,-0.35297045111656189,-0.62475621700286865,0,-0.29414653778076172,0.048792038112878799,0.47307345271110535,0.46799027919769287,0,-0.59173876047134399,0.31376898288726807,0,0,0.25817182660102844,-0.35842296481132507,0,0]],"id":"0C8594E2-FA75-4E72-9256-5C19C6B8DE43","generation":19,"biases":[[],[0.12393135577440262,-0.12372174113988876,0,-0.20928716659545898,-0.63161349296569824,-0.42854392528533936,-0.61576253175735474,-0.0017386766849085689,0.94301891326904297,-0.24945452809333801,0.38283154368400574,-0.83315354585647583,0.152180016040802,0.37869974970817566,-0.46980026364326477,0.46298074722290039],[0.75020134449005127,0.44226539134979248,0.36745861172676086,0.33143001794815063,0.8023034930229187,0,0.16101193428039551,-0.3521401584148407]],"inputCount":22,"hiddenCount":16,"outputCount":8},
{"marker2":false,"marker1":false,"weights":[[],[0.4396253228187561,-0.34237572550773621,0.31246867775917053,0,0.4456937313079834,0,0,0,0,0,-0.28028386831283569,-1,0,0,0,0,0,0,0,0.76895684003829956,0,-0.45961815118789673,0,-0.5096970796585083,0,0,0,0,0.087782144546508789,0,0.48173579573631287,0,0,0,0.26812398433685303,0,-0.42384177446365356,0,0,-0.27927422523498535,0,0,0.42291221022605896,0,0,-0.27666756510734558,0,0,0.95408904552459717,0.42307835817337036,0.30265694856643677,0,0,0.25664970278739929,0,0.31082242727279663,0,0,0,-0.65178203582763672,0,-0.70220679044723511,0,0,-0.26561248302459717,0,0,0,0,-0.3407178521156311,0,0.50727415084838867,0,0.47229868173599243,0,0,0,-0.12751173973083496,0,0,0.25118261575698853,0,0,-0.44081628322601318,0,0.27873703837394714,-1,0,-0.057895198464393616,0.37269464135169983,-0.33276209235191345,0,-0.98762142658233643,0,0.4332980215549469,-0.68395888805389404,0,0.3149029016494751,-0.6300920844078064,0,0,0.43363183736801147,0,0,0.071643233299255371,0,0,0,-0.6088712215423584,0,0,0,0,-0.47236204147338867,-0.12745471298694611,-0.043165922164916992,0,0,0.44291722774505615,0,-0.48240664601325989,-0.79205375909805298,0.0072505474090576172,0,0.34021833539009094,-0.437996506690979,0,0,0.40373969078063965,0.3593408465385437,0,0,0,-0.31168538331985474,0,0,-0.20786735415458679,0,0,0,0,0,-0.73587119579315186,0,-0.39055559039115906,0.21082770824432373,0,0,-0.060002047568559647,0,0,0,0.41032728552818298,-0.62658941745758057,0,0.35253545641899109,0,0,0,0,0.58789694309234619,0,0,0,-0.39646658301353455,-0.45610517263412476,0,0,-0.23716390132904053,0,0,0,0,0,0,-0.38845968246459961,0,0,0,0,0,0,0,0.15541040897369385,0.29139402508735657,-0.36265528202056885,0,0.31136736273765564,0,-0.39856109023094177,0,-0.29173526167869568,0.25295087695121765,0,-0.28999963402748108,-0.731212317943573,0,0,-0.99345993995666504,0,-0.82392668724060059,-0.88671857118606567,0.29096263647079468,-0.29827284812927246,0,0,-0.27195960283279419,0,-0.5331573486328125,0.30585861206054688,-0.47340208292007446,0.41463100910186768,0.41174069046974182,0.21444451808929443,0,0,0,-0.44739273190498352,0,-0.72840654850006104,0,0.31695759296417236,0,0.45988175272941589,0,0,-0.45657914876937866,0,0,0,0,0,0,0,0,0,0,0,0,0,0.3468514084815979,0,0,-0.93654382228851318,0,0,0,0,0,0,0,0,0.12543286383152008,0,0,0,0,0,0,-0.4811992347240448,0,0.73317009210586548,0,0,0.16294218599796295,0,0,-0.87189233303070068,0,0,0,-0.35993129014968872,0,0,0,0,0.034280139952898026,0.43908977508544922,0.8208240270614624,0,0,-0.41842108964920044,-0.25383469462394714,0,0,-0.71661639213562012,0,0.70389378070831299,0,0,0.18447721004486084,0,-0.72879707813262939,0,0.6309128999710083,0,0.2647724449634552,-0.36508259177207947,0.31776091456413269,-0.45113682746887207,0,-0.44495168328285217,-0.34922787547111511,0,0,0.45155957341194153,0,-0.45749509334564209,0,0,0,0,0,-1,0,0,0,0,0,0,0.33001258969306946,0.4281635582447052,0,0,1,0,0.6338992714881897,0,0.54577815532684326,0.36788928508758545,0.82873833179473877,-0.25084754824638367,0,0,0,0,0,0,0,-0.41527047753334045,-0.34646284580230713,0,0.25100356340408325,0.68904674053192139,0,0,0.4214896559715271,-0.66665375232696533,0,0,0,-0.31139132380485535],[0.35588753223419189,-0.27188423275947571,0,0,0,0,0,0.60780739784240723,0,0,0,0,0.22929346561431885,0,0,0.63111972808837891,0,0.41810226440429688,0,0,-0.48677155375480652,0,0,0,0,0,0,0,-0.15901379287242889,0.46253669261932373,-0.44691964983940125,0,0,0.43777543306350708,-0.31905040144920349,0,0.88492584228515625,0.67394709587097168,0.48246383666992188,0,0.30381721258163452,0,0,0,0,0.42161354422569275,0,0,-0.88141071796417236,-0.256053626537323,0.81361138820648193,-0.56561756134033203,0,0,0.44988435506820679,0,0,-0.42190727591514587,-0.77746486663818359,0.22324991226196289,0.49173945188522339,0,0,0,0,0,0,0,0,0,0.37384107708930969,0.45874163508415222,0,-0.29894921183586121,0.25901487469673157,0,0.56946802139282227,0,0,0.4505830705165863,0,0,0.29247263073921204,0,-0.19804716110229492,0,0,0,-0.68486642837524414,0,0,-0.62453991174697876,-0.2862568199634552,-0.46339011192321777,0.44731616973876953,0.40288707613945007,0,-0.79538255929946899,0.1031031608581543,-0.70235466957092285,-0.30535674095153809,0,0.15149602293968201,-0.284638911485672,0.9961169958114624,0,0,0,0,0,0,-0.62191259860992432,-0.35297045111656189,-0.62475621700286865,0,-0.29414653778076172,0.048792038112878799,0,0.46799027919769287,0,-0.59173876047134399,0.31376898288726807,0,0,0.25817182660102844,-0.17921148240566254,0,0]],"id":"311F0B19-3809-4925-9729-CAA6B4E29C8B","generation":8,"biases":[[],[-0.34847822785377502,-0.24744348227977753,0.35658979415893555,-0.20928716659545898,-0.63161349296569824,-0.42854392528533936,-0.31811723113059998,-0.0017386766849085689,0.94301891326904297,-0.24945452809333801,0.38283154368400574,-0.83315354585647583,0.152180016040802,-0.020456632599234581,-0.46980026364326477,0.46298074722290039],[0.75020134449005127,0.44226539134979248,0.36745861172676086,0.33143001794815063,0.8023034930229187,0,0.16101193428039551,-0.7042803168296814]],"inputCount":22,"hiddenCount":16,"outputCount":8},
{"marker2":false,"marker1":false,"weights":[[],[0.4396253228187561,0,0.31246867775917053,0,0.4456937313079834,0,0,0,0,0,-0.28028386831283569,-1,0,0,0,0,0,0,0,0.76895684003829956,0,-0.45961815118789673,0,-0.5096970796585083,0,0,0,0,0.087782144546508789,0,0.48173579573631287,0,0,0,0.26812398433685303,0,-0.42384177446365356,0,0,-0.27927422523498535,0,0,0.42291221022605896,0,0,-0.27666756510734558,0,0,0.95408904552459717,0.42307835817337036,0.30265694856643677,0,0,0.25664970278739929,0,0.31082242727279663,0,0,0,-0.65178203582763672,0,-0.70220679044723511,0,0,-0.26561248302459717,0,0,0,0,-0.3407178521156311,0,0.50727415084838867,0,0.47229868173599243,0,0,0,-0.12751173973083496,0,0,0.25118261575698853,0,0,-0.44081628322601318,0,0.27873703837394714,-1,0,-0.057895198464393616,0.37269464135169983,-0.33276209235191345,0,-0.98762142658233643,0,0.4332980215549469,0,0,0.3149029016494751,-0.6300920844078064,0,0,0.43363183736801147,0,0,0.071643233299255371,0,0,0,-0.6088712215423584,0,0,0,0,-0.47236204147338867,-0.12745471298694611,-0.043165922164916992,0,0,0.44291722774505615,0,-0.48240664601325989,-0.79205375909805298,0.0072505474090576172,0,0.34021833539009094,-0.437996506690979,0,0,0.40373969078063965,0.3593408465385437,0,0,0,-0.31168538331985474,0,0,-0.20786735415458679,0,0,0,0,0,-0.73587119579315186,0,-0.39055559039115906,0.21082770824432373,0,0,-0.060002047568559647,0,0,0,0.41032728552818298,-0.62658941745758057,0,0.35253545641899109,0,0,0,0,0.58789694309234619,0,0,0,-0.39646658301353455,-0.45610517263412476,0,0,-0.23716390132904053,0,0,0,0,0,0,-0.38845968246459961,0,0,0,0,0,0,0,0.15541040897369385,0.29139402508735657,-0.36265528202056885,0,0.31136736273765564,0,-0.39856109023094177,0,-0.29173526167869568,0.25295087695121765,0,-0.28999963402748108,-0.3656061589717865,0,0,-0.99345993995666504,0,-0.82392668724060059,-0.88671857118606567,0.29096263647079468,-0.29827284812927246,0,0,-0.27195960283279419,0,-0.5331573486328125,0.30585861206054688,-0.47340208292007446,0.41463100910186768,0.41174069046974182,0.21444451808929443,0,0,0,-0.44739273190498352,0,-0.72840654850006104,0,0.31695759296417236,0,0.45988175272941589,0,0,-0.45657914876937866,0,0,0,0,0,0,0,0,0,0,0,0,0,0.3468514084815979,0,0,-0.93654382228851318,0,0,0,0,0,0,0,0,0.12543286383152008,0,0,0,0,0,0,-0.4811992347240448,0,0.73317009210586548,0,0,0.3258843719959259,0,0,-0.87189233303070068,0,0,0,-0.35993129014968872,0,0,0,0,0.034280139952898026,0.43908977508544922,0.8208240270614624,0,0,-0.41842108964920044,-0.25383469462394714,0,0,-0.71661639213562012,0,0.70389378070831299,0,0,0.18447721004486084,0,-0.72879707813262939,0,0.6309128999710083,0,0.2647724449634552,-0.36508259177207947,0.31776091456413269,-0.45113682746887207,0,-0.44495168328285217,-0.34922787547111511,0,0,0.45155957341194153,0,-0.45749509334564209,0,0,0,0,0,-1,0,0,0,0,0,0,0.33001258969306946,0.4281635582447052,0,0,1,0,0.6338992714881897,0,0.54577815532684326,0.36788928508758545,0.82873833179473877,-0.25084754824638367,0,0,0,0,0,0,0,-0.41527047753334045,-0.34646284580230713,0,0.25100356340408325,0.68904674053192139,0,0,0.4214896559715271,-0.66665375232696533,0,0,0,-0.31139132380485535],[0.35588753223419189,-0.27188423275947571,0,0,0,0,0,0.60780739784240723,0,0,0,0,0.22929346561431885,0,0,0.63111972808837891,0,0.41810226440429688,0,0,-0.48677155375480652,0,0,0,0,0,0,0,-0.15901379287242889,0.46253669261932373,0,0,0,0.43777543306350708,-0.31905040144920349,0,0.88492584228515625,0.67394709587097168,0.48246383666992188,0,0.30381721258163452,0,0,0,0,0.42161354422569275,0,0,-0.88141071796417236,-0.256053626537323,0.81361138820648193,-0.56561756134033203,0,0,0.44988435506820679,0,0,-0.42190727591514587,-0.77746486663818359,0.22324991226196289,0.49173945188522339,0,0,0,0,0,0,0,0,0,0.37384107708930969,0.45874163508415222,0,-0.29894921183586121,0.25901487469673157,0,0.56946802139282227,0,0,0.4505830705165863,0,0,0.29247263073921204,0,-0.19804716110229492,0,0,0,-0.68486642837524414,0,0,-0.62453991174697876,-0.2862568199634552,-0.46339011192321777,0.44731616973876953,0.40288707613945007,0,-0.79538255929946899,0.1031031608581543,-0.70235466957092285,-0.30535674095153809,0,0.15149602293968201,-0.284638911485672,0.9961169958114624,0,0,0,0,0.30794292688369751,0,-0.62191259860992432,-0.35297045111656189,-0.62475621700286865,0,-0.29414653778076172,0.048792038112878799,0,0.46799027919769287,0,-0.59173876047134399,0.31376898288726807,0,0,0.25817182660102844,-0.35842296481132507,0,0]],"id":"CAE929B2-51CC-4590-A1AF-B975E49090D0","generation":6,"biases":[[],[-0.34847822785377502,-0.24744348227977753,0,-0.20928716659545898,-0.63161349296569824,-0.42854392528533936,-0.31811723113059998,-0.0017386766849085689,0.94301891326904297,-0.24945452809333801,0.38283154368400574,-0.83315354585647583,0.152180016040802,-0.020456632599234581,-0.46980026364326477,0.46298074722290039],[0.75020134449005127,0.44226539134979248,0.36745861172676086,0.33143001794815063,0.8023034930229187,0,0.16101193428039551,-0.3521401584148407]],"inputCount":22,"hiddenCount":16,"outputCount":8},
{"marker2":false,"marker1":false,"weights":[[],[0.4396253228187561,0,0.31246867775917053,0,0.4456937313079834,0,0,0,0,0,-0.28028386831283569,-1,0,0,0,0,0,0,0,0.76895684003829956,0,-0.45961815118789673,0,-0.5096970796585083,0,0,0,0,0.087782144546508789,0,0.48173579573631287,0,0,0,0.26812398433685303,0,-0.42384177446365356,0,0,-0.27927422523498535,0,0,0.42291221022605896,0,0,-0.27666756510734558,0,0,0.95408904552459717,0.42307835817337036,0.30265694856643677,0,0,0.25664970278739929,0,0.31082242727279663,0,0,0,-0.65178203582763672,0,-0.70220679044723511,0,0,-0.26561248302459717,0,0,0,0,-0.3407178521156311,0,0.50727415084838867,0,0.47229868173599243,0,0,0,-0.12751173973083496,0,0,0.25118261575698853,0,0,-0.44081628322601318,0,0.27873703837394714,-1,0,-0.057895198464393616,0.37269464135169983,-0.33276209235191345,0,-0.98762142658233643,0,0.4332980215549469,-0.68395888805389404,0,0.3149029016494751,-0.6300920844078064,0,0,0.43363183736801147,0,0,0.071643233299255371,0,0,0,-0.6088712215423584,0,0,0,0,-0.47236204147338867,-0.12745471298694611,-0.043165922164916992,0,0,0.44291722774505615,0,-0.48240664601325989,-0.79205375909805298,0.0072505474090576172,0,0.34021833539009094,-0.437996506690979,0,0,0.40373969078063965,0.3593408465385437,0,0,0,-0.31168538331985474,0,0,-0.20786735415458679,0,0,0,0,0,-0.73587119579315186,0,-0.39055559039115906,0.21082770824432373,0,0,-0.060002047568559647,0,0,0,0.41032728552818298,-0.62658941745758057,0,0.35253545641899109,0,0,0,0,0.58789694309234619,0,0,0,-0.39646658301353455,-0.45610517263412476,0,0,-0.23716390132904053,0,0,0,0,0,0,-0.38845968246459961,0,0,0,0,0,0,0,0.15541040897369385,0.29139402508735657,-0.36265528202056885,0,0.31136736273765564,0,-0.39856109023094177,0,-0.29173526167869568,0.25295087695121765,0,-0.28999963402748108,-0.3656061589717865,0,0,-0.99345993995666504,0,-0.82392668724060059,-0.88671857118606567,0.29096263647079468,-0.29827284812927246,0,0,-0.27195960283279419,0,-0.5331573486328125,0.30585861206054688,-0.47340208292007446,0.41463100910186768,0.41174069046974182,0.21444451808929443,0,0,0,-0.44739273190498352,0,-0.72840654850006104,0,0.31695759296417236,0,0.45988175272941589,0,0,-0.45657914876937866,0,0,0,0,0,0,0,0,0,0,0,0,0,0.3468514084815979,0,0,-0.93654382228851318,0,0,0,0,0,0,0,0,0.12543286383152008,0,0,0,0,0,0,-0.4811992347240448,0,0.73317009210586548,0,0,0.16294218599796295,0,0,-0.87189233303070068,0,0,0,-0.35993129014968872,0,0,0,0,0.034280139952898026,0.43908977508544922,0.8208240270614624,0,0,-0.41842108964920044,-0.25383469462394714,0,0,-0.71661639213562012,0,0.70389378070831299,0,0,0.18447721004486084,0,-0.72879707813262939,0,0.33353856205940247,0,0.2647724449634552,-0.36508259177207947,0.31776091456413269,-0.45113682746887207,0,-0.44495168328285217,-0.34922787547111511,0,0,0.45155957341194153,0,-0.45749509334564209,0,0,0,0,0,-1,0,0,0,0,0,0,0.33001258969306946,0.4281635582447052,0,0,1,0,0.6338992714881897,0,0.54577815532684326,0.36788928508758545,0.82873833179473877,-0.25084754824638367,0,0,0,0,0,0,0,-0.41527047753334045,-0.34646284580230713,0,0.25100356340408325,0.68904674053192139,0,0,0.4214896559715271,-0.66665375232696533,0,0,0,-0.31139132380485535],[0.35588753223419189,-0.27188423275947571,0,0,0,0,0,0.60780739784240723,0,0,0,0,0.22929346561431885,0,0,0.63111972808837891,0,0.41810226440429688,0,0,-0.48677155375480652,0,0,0,0,0,0,0,-0.15901379287242889,0.46253669261932373,0,0,0,0.43777543306350708,-0.31905040144920349,0,0.88492584228515625,0.67394709587097168,0.48246383666992188,0,0.30381721258163452,0,0,0,0,0.42161354422569275,0,0,-0.88141071796417236,-0.256053626537323,0.81361138820648193,-0.56561756134033203,0,0,0.44988435506820679,0,0,-0.42190727591514587,-0.77746486663818359,0.22324991226196289,0.49173945188522339,0,0,0,0,0,0,0,0,0,0.37384107708930969,0.45874163508415222,0,-0.29894921183586121,0.25901487469673157,0,0.56946802139282227,0,0,0.4505830705165863,0,0,0.29247263073921204,0,-0.19804716110229492,0,0,0,-0.68486642837524414,0,0,-0.62453991174697876,-0.2862568199634552,-0.46339011192321777,0.44731616973876953,0.40288707613945007,0.27413490414619446,-0.79538255929946899,0.1031031608581543,-0.70235466957092285,-0.30535674095153809,0,0.15149602293968201,-0.284638911485672,0.9961169958114624,0,0,0,0,0,0,-0.62191259860992432,-0.35297045111656189,-0.62475621700286865,0,-0.29414653778076172,0.048792038112878799,0,0.46799027919769287,0,-0.59173876047134399,0.31376898288726807,0,0,0.25817182660102844,-0.17921148240566254,0,0]],"id":"D41E28BD-8EE2-44DE-B77F-38F494E204AB","generation":7,"biases":[[],[-0.34847822785377502,-0.24744348227977753,0.35658979415893555,-0.20928716659545898,-0.63161349296569824,-0.42854392528533936,-0.63623446226119995,-0.0017386766849085689,0.94301891326904297,-0.24945452809333801,0.38283154368400574,-0.83315354585647583,0.152180016040802,-0.020456632599234581,-0.46980026364326477,0.46298074722290039],[0.75020134449005127,0.44226539134979248,0.36745861172676086,0.33143001794815063,0.8023034930229187,0,0.16101193428039551,-0.7042803168296814]],"inputCount":22,"hiddenCount":16,"outputCount":8}
]


