[
{"marker2":false,"marker1":false,"weights":[[],[0.27382215857505798,0,0,0,0,0,-0.94025993347167969,0,0.52780115604400635,0.39552709460258484,0,-0.48349258303642273,0,0,0,0.36515375971794128,0,0.13398529589176178,0.42077597975730896,0,0,0,0.19552497565746307,0,0,-0.37250185012817383,-1,0.96871626377105713,-0.86975777149200439,0,1,0.068436607718467712,1,0,0,0,0,0.38406577706336975,-0.14847637712955475,0.33484628796577454,0,0,0,0,0,0,-0.29720830917358398,0,0,0,0,0,0,0,0,0,0,0.93821370601654053,-0.65105670690536499,0,0,-0.32406002283096313,-0.36071497201919556,0,0,-0.894858717918396,0,-0.46641349792480469,0.44995784759521484,0,0,0,0.16834095120429993,0,0,0,0,0,0,0.50871050357818604,0,-0.20798872411251068,0,0,0,0.34870591759681702,-0.30855488777160645,-0.38001111149787903,0.30994012951850891,-0.29144865274429321,0.43126177787780762,-0.66295933723449707,0,0,0.44905441999435425,0,0.84101951122283936,0,0.12572737038135529,0,0,0,0,0,0.7396196722984314,0,0.13729685544967651,0,0,0,0,0.49595478177070618,0,0.38065776228904724,0,0,0.82755059003829956,0,0,0,-0.35220715403556824,0,0,0,0,0,0,0.39951014518737793,0,0,0,-0.46273535490036011,0.21390330791473389,0.22971606254577637,0,0,0,-0.2526925802230835,-0.84971284866333008,0,-0.36594510078430176,0,0.42835652828216553,-0.32427608966827393,0.38594686985015869,0.31079882383346558,0.33343517780303955,-0.41399788856506348,-0.073208771646022797,0,-0.92010736465454102,0.84436976909637451,0,0,0,-0.37674105167388916,0,0,0,0.71387290954589844,0,-0.40266051888465881,0,0.41271239519119263,0,0.86737293004989624,0,0,-0.44538885354995728,-0.19687585532665253,0,0,0,0,0,0.20523573458194733,0,0,0,-0.91588151454925537,0.0040044724009931087,-0.35854721069335938,0.3580344021320343,0.91801238059997559,0,0,0,0,-0.80052191019058228,0.26451832056045532,0.37940186262130737,0.69140398502349854,0,0,0,0.50973570346832275,-0.43485313653945923,-0.29415065050125122,0,-0.38240733742713928,0,0,0,0.60215502977371216,-0.33881798386573792,0,0.39092326164245605,0,0.2123793363571167,-0.47884118556976318,-0.32106924057006836,0.037480711936950684,0,0.3447190523147583,0,0,0,0,-0.68126010894775391,0,0,1,-0.4564628005027771,0,0.90284544229507446,-0.80819195508956909,0.30885589122772217,0,0,0,0.66184598207473755,0,-0.36434087157249451,0.22647666931152344,0.29844614863395691,1,0,0,0,0.46952652931213379,0.53320670127868652,0,0,-0.60067176818847656,0.38272693753242493,0.46259355545043945,0,0,0,0,0,0,0,0,0,-0.35217270255088806,0,0.33866909146308899,0,0,0,-0.17203497886657715,0.40543356537818909,0,0,0,0.38082462549209595,0.01677323505282402,0.40677571296691895,0.40015321969985962,0,1,0.94998764991760254,0.28970947861671448,-0.46930631995201111,0.32098802924156189,0,-0.12184321880340576,0,0,0,0.053183525800704956,-0.94084739685058594,0,0,-0.39885187149047852,0,0,0,0.37993153929710388,0,0.75348329544067383,-0.36172550916671753,-0.42640006542205811,0,0.8767474889755249,0,0.45185351371765137,0,0.28674423694610596,0,0,-0.058693408966064453,0,0,0,0,0,-0.075594782829284668,0,0,0,0.57303786277770996,0.16513395309448242,1,0,-0.77780604362487793,-0.79395484924316406,0.054367899894714355,0,0.62038028240203857,-0.30739870667457581,0,0,0.48478007316589355,-0.38131868839263916,0.34016799926757812,0,0,0,0,0,-0.25966963171958923,0,-0.25151455402374268,0,-0.61471927165985107,-0.25016161799430847,0.049080155789852142,0,0.26787656545639038,-0.43793809413909912,0,0,0,-0.039931058883666992,0,0,0.47095835208892822,-0.45237517356872559,0,0.2646634578704834],[0,-0.47313150763511658,0,0,0,0.69020992517471313,0,0,-0.28768399357795715,0,0.049695592373609543,0.49418297410011292,0,0.71199244260787964,-0.43177375197410583,-0.49367555975914001,1,0,0,0,0,-0.31815811991691589,0.35178115963935852,0,-0.73387384414672852,0,0,0.27062121033668518,0.68148362636566162,0.32665359973907471,0.36092084646224976,0,0,0,0,0.30441156029701233,0.0037344561424106359,-0.047604210674762726,-0.78559911251068115,0,0.46842953562736511,0,0,0.37393686175346375,0,0,-0.24210861325263977,0,0,0,0,0.36405310034751892,-0.35744041204452515,-0.88132929801940918,0,0,0.04639352485537529,0.47624030709266663,0.30990141630172729,0,-0.68802285194396973,0.62450432777404785,0,0.22366461157798767,0,0,-0.36131501197814941,0.42162469029426575,-0.31559407711029053,-0.22977711260318756,0,0,0,0.3776434063911438,-0.01417839527130127,-0.33318412303924561,-0.16080039739608765,0,0,-0.097520746290683746,-0.1523766964673996,0,0,0,-0.89914107322692871,0.41596400737762451,0.11790952831506729,0,0,-0.029902815818786621,0.13334096968173981,0.69458013772964478,0,-0.93019157648086548,1,-0.042494058609008789,-0.33118763566017151,0.44427677989006042,0,-0.29011061787605286,0,0.41788548231124878,0,-0.40315151214599609,0,0,0.22639161348342896,0.13386274874210358,-0.34233251214027405,0,-0.47646793723106384,0.7430834174156189,0.26201003789901733,-0.19277395308017731,0.30199828743934631,0,0,0.28608772158622742,0,0,-0.42545270919799805,-0.34632286429405212,0,0,-0.44254502654075623,0,-0.19352304935455322,0.33039876818656921]],"id":"F6EB9322-2B42-4AE8-80D3-5447FDBB3114","generation":0,"biases":[[],[-0.4604266881942749,0.11075408756732941,-1,0.72283720970153809,-0.42542597651481628,0.16631007194519043,-0.053643282502889633,0.21781527996063232,0.90451908111572266,-0.097033791244029999,0.62573713064193726,-0.088486142456531525,0.11992621421813965,0.58155453205108643,0.42745557427406311,-0.35464388132095337],[-0.10755026340484619,0.043753147125244141,-0.52050530910491943,-0.097231626510620117,0.085982590913772583,0.02002529613673687,0,0.31142616271972656]],"inputCount":22,"hiddenCount":16,"outputCount":8},
{"marker2":false,"marker1":false,"weights":[[],[0,-0.589405357837677,0,0,0,0,0.61132234334945679,0,0,0,0,1,-0.46897459030151367,0,0,0,0.25631600618362427,0,0,0,0,0,-0.019716382026672363,-0.48872864246368408,0,0,0,0.33547627925872803,0.20900118350982666,0,-1,-0.92604923248291016,-0.80902749300003052,0,0,0,0,0,0,0,-1,0,0.36121848225593567,0,0.3755137026309967,0,0,0,-0.62946373224258423,0,0,-0.25997114181518555,0.017204482108354568,-0.9385828971862793,-0.40912848711013794,0,0,0,0,0,0.32772576808929443,0.29790407419204712,0,0,0,0,0,0,0,-0.39751237630844116,0,0,0,0,0,0,-0.26804554462432861,0,0,0,0,0,0,0,0.49903962016105652,0,0.21265900135040283,0,0,0.2523823082447052,-0.49614724516868591,0.70631146430969238,0,0,0,0,0,0.30879014730453491,0.66678762435913086,0.32712721824645996,0,0.55237162113189697,0.33173799514770508,0,0,-0.44094350934028625,-0.29159927368164062,-0.024704447016119957,0.29780310392379761,0,0,-0.46327579021453857,0,-0.25019204616546631,0,-0.12927749752998352,-0.12691664695739746,0,0.27581480145454407,0.83200931549072266,-0.25875800848007202,0,-0.61813652515411377,0,0,0,0.39677846431732178,0.42833110690116882,0,0,0,0.44261571764945984,0,-0.43211507797241211,0.36683753132820129,0,0,0,0,0,0,0,0.13762554526329041,0,0.3461071252822876,0,0.26106002926826477,0,0,0,-0.29614648222923279,0,0,0,0.22593934834003448,-0.1796642541885376,0,0,-0.25918012857437134,0,0,0,0,0,-0.48857435584068298,0,0.75470530986785889,0.22154700756072998,0,0,0,0,0,0,0,-0.26786071062088013,0,-0.25261259078979492,-0.18485593795776367,-0.25551712512969971,0.4661882221698761,0,-0.42221841216087341,0,0.62942934036254883,0,0,0,0.40158089995384216,0.47360029816627502,0.64649450778961182,0,-0.37253454327583313,0.49184727668762207,0,0,0,0.45024752616882324,0,0,0,0.03686276450753212,0,0,0,0,-0.31470534205436707,0,-0.49950075149536133,-0.3062894344329834,0,0,-0.47953066229820251,0,0,0,0,0,0,0,0,0.49618685245513916,0,0,0,0,0,-0.42426276206970215,0,-0.74458855390548706,0,0,0,-0.016065077856183052,0,0,0,-0.39183670282363892,0,-0.26443326473236084,0,0,0,0.30366477370262146,0,-0.40042635798454285,0,-0.91274690628051758,0,0,1,0,-0.93352615833282471,0,0,0,0,-0.13340795040130615,0,0.66108465194702148,0,0.81704187393188477,0,-0.44411164522171021,0.45456570386886597,0,0,0,-0.4238242506980896,-0.41277366876602173,0,0,0.68615108728408813,0,0,-0.11260081827640533,0,0,0.41700625419616699,0.48418715596199036,0,-0.36919337511062622,0.30543273687362671,0,0,-0.31514078378677368,0,0.056112375110387802,0,-0.2762940526008606,0,-0.3483288586139679,0.26767459511756897,0,0,0,0,0,-0.33396145701408386,0,0,-0.26871997117996216,-0.32750898599624634,0,0,0.33616051077842712,0,0,-0.44660723209381104,0.45119309425354004,-0.31101870536804199,0,0.31166923046112061,0,0,0,-0.12457903474569321,0,0.42810142040252686,-0.33385354280471802,0,0,0.32963010668754578,-0.42559909820556641,0,0,0,0,0,0,0,0,0.92856866121292114,0.40637901425361633,0,0.15593788027763367,-1,0.91367101669311523,0.33931645750999451,0,0,-0.41051626205444336,0,0,0,-0.97624790668487549,0,0.43920278549194336,-0.71745479106903076,-0.31509876251220703,0,0],[0,-1,0,0,0,-0.21622061729431152,-0.4440385103225708,0.33013305068016052,0,0,0,0,0,0,0,0,0,0.4746590256690979,0,-0.31970107555389404,0,0,0,-0.13583110272884369,-0.10882914066314697,0.45536428689956665,0,0,0,0,0,0,-0.3115411102771759,0.44449877738952637,0,0,0,-0.39267784357070923,-0.11890780925750732,-0.33258280158042908,0,0,0,-0.40691611170768738,0,-0.34585297107696533,-0.15183244645595551,-0.7543753981590271,-0.06852257251739502,0,-0.21763947606086731,0,0,-0.43312039971351624,0.53167080879211426,-0.26506012678146362,0,-0.28379642963409424,0.41664829850196838,0,0,0,0.049160003662109375,0,0.42562985420227051,-0.46915459632873535,0,0,0,-0.39306187629699707,0,-0.47443705797195435,0.38129764795303345,0,0.38223522901535034,0,0,0.48303863406181335,0,0,0,0,-1,0,0,-0.29841926693916321,-0.46623682975769043,0,0,-0.31543862819671631,0,0,-0.74287903308868408,-0.8507310152053833,-0.26820951700210571,-0.30356255173683167,-0.26338914036750793,0,0,0,0,1,0.38733401894569397,0.18957710266113281,0,0,0,0,0,0.36413836479187012,0.46366739273071289,0,0.031849656254053116,0.021818540990352631,0,0,0,-0.41974064707756042,0,0,0.25987470149993896,0.42928594350814819,0,0,0,0,0,0]],"id":"46B5209D-DBAC-48B1-AB41-7C8BF73D30E3","generation":1,"biases":[[],[-0.020772583782672882,-0.14574421942234039,0.61436736583709717,0,0.32657825946807861,-0.45558422803878784,0.96625673770904541,-0.86545443534851074,0.1596347838640213,-0.062254894524812698,-0.18583966791629791,-1,0.47470587491989136,0.48365139961242676,0.10473703593015671,0.36665076017379761],[0.22130273282527924,0,0,0,0,0.41520455479621887,0,1]],"inputCount":22,"hiddenCount":16,"outputCount":8},
{"marker2":false,"marker1":false,"weights":[[],[0,0,-0.39754679799079895,0.27151858806610107,0,-0.66115009784698486,0,0,0,0,0.32788017392158508,0,0,0,-1,0,0,0,0,0,0,0,-0.26648059487342834,0.30402004718780518,0,0,0,0,-0.40453603863716125,0.40023013949394226,0,0,0.25618487596511841,0,0,0.34308502078056335,0,0,0,0,0,0,0,0,0,-0.01733243465423584,0.26602506637573242,0.36243921518325806,-1,-0.45189124345779419,0,0,0,-0.59988415241241455,0.2990964949131012,-0.40729019045829773,0.037741780281066895,0,0,0,0.41988098621368408,0,0,0.30641797184944153,0,0,0,0,-0.78663671016693115,-0.061894025653600693,-0.28713089227676392,0,0,0,0,0,-0.49095660448074341,-0.40691319108009338,0,-0.098098397254943848,0,0,0,0,0,-0.34293988347053528,0,0,0,0,0,0,0,0,0,-0.51403200626373291,0,-0.53741884231567383,0,0,0,0,0,0,0,0,0,0,0,0,0,0,0,0,-0.32745692133903503,0,0,0,0,0,-0.56325626373291016,-0.28851872682571411,0,0.26960161328315735,0,-0.45207065343856812,-0.33653220534324646,0,-0.27954754233360291,0.36761856079101562,0,-0.23094379901885986,0,0,0,0.36699408292770386,0,0,0,-0.675667405128479,0,0,-0.45800310373306274,0,0,0,-0.30854696035385132,0,-0.43381819128990173,0,0.45207497477531433,-0.3062320351600647,-0.49730861186981201,0,-0.38954195380210876,0,0,0,0,0,0,0,0,0,0,0,0,0,0,0,0,-0.52311360836029053,0,0,0.47188454866409302,0,0,0,0,0.94762927293777466,0,-0.39577555656433105,0,0,-0.25954961776733398,0,0,0,0,0,0,-0.1862785816192627,0,0,0,0,-0.18645584583282471,0,0,0,0,0,0,-0.484732985496521,0.026842668652534485,-0.071292638778686523,0.27068063616752625,0,0,0,0.33508938550949097,0,0,0,0,0,-0.37856999039649963,0,0,0,0.80837333202362061,0.016574859619140625,0,0,0.32039397954940796,0,0,0,0,-0.45596352219581604,-0.37411516904830933,0,0.14807146787643433,0,0,0,0,0,-0.42171525955200195,0,0,0.86983227729797363,0.028504252433776855,0,0,0,0,0.4322141706943512,0,0,-0.039069652557373047,0.94234859943389893,0,0,0,0,0,0.44840905070304871,0,0,0,-0.73558497428894043,0,0,-0.61374258995056152,0.13552045822143555,0,0,0,0,0,0,0,0,-0.45949974656105042,0,0.6129150390625,0,0,0,0,0,0,0,0,0,0,-0.63031256198883057,0,0.38209536671638489,0.33653378486633301,-0.49080026149749756,-0.75054579973220825,0,0,-0.37053567171096802,0.36455300450325012,0,0,-0.40918648242950439,0,0,0,0,0.25916385650634766,0,-1,0,0,0,0,0,-0.3361547589302063,0,-0.74832648038864136,0,0,0,0,0.37791624665260315,-0.35013017058372498,0.3049827516078949,0,0,0,0,0,0,0.39943477511405945,0,0,0,0,-0.25999188423156738,0.80215537548065186,0,0,0,0,0,0,0,0,0.61996626853942871,0,0,0.48719692230224609,0,0,0,-0.84621196985244751,0],[0.26763826608657837,0,0,0.38554257154464722,0.3851432204246521,0,0,-0.925345778465271,0.30970102548599243,-0.90660804510116577,-0.31871724128723145,0,0,-0.68843328952789307,0,0,0.99997580051422119,-0.34545207023620605,0,-0.4049016535282135,0.65912610292434692,-0.28289765119552612,0.20357239246368408,-0.48647013306617737,0,0,0,0.055575191974639893,0,0,0,0,0.54251474142074585,0,0,0,-0.46055778861045837,-0.15665054321289062,0,-0.43602877855300903,0.48123815655708313,0,0.8350832462310791,0,0.38785013556480408,0,-0.49563196301460266,0,0,0,0.085891447961330414,-0.35940089821815491,-0.77661812305450439,-0.19017577171325684,-0.90228468179702759,0,0.37364766001701355,0.48344314098358154,-0.37324228882789612,0.81927812099456787,0.29328620433807373,0,0,0.38854807615280151,0.41836643218994141,-0.49265184998512268,0,0,-0.33627867698669434,0,0,0.31908634305000305,0,0,0.0018514394760131836,0,0,0,0,0,0,-0.28623247146606445,0,0.35633412003517151,0.34917280077934265,0.41707959771156311,0,0,0,0,0,0,0,0,0,0.27962034940719604,-0.36460831761360168,0.019039591774344444,0.39890611171722412,0,0.5810544490814209,-0.42507010698318481,0,0.041947849094867706,0.3826286792755127,0,0.89180046319961548,0,0.34863817691802979,0.45742338895797729,0,-0.47790658473968506,0,0,0,0.46924096345901489,0,0,0,0,0,0,-1,0.67250871658325195,-0.43053758144378662,0,-0.56586211919784546,0]],"id":"B0612FF8-0B7E-47CE-A832-092B1A1D491C","generation":0,"biases":[[],[-0.35196611285209656,0.2392781674861908,0,-0.2235729992389679,0,0.51040267944335938,0.21306371688842773,0,0,0.65794974565505981,0,-0.033421196043491364,0.95012474060058594,0.80832469463348389,0,-0.69812703132629395],[0,-0.39871561527252197,0,0,-0.51376914978027344,-0.43435966968536377,-0.57325029373168945,-0.67049241065979004]],"inputCount":22,"hiddenCount":16,"outputCount":8},
{"marker2":false,"marker1":false,"weights":[[],[0,0,-0.28430771827697754,0,0,0,-0.33151376247406006,0,0,0,0.42942866683006287,0,-0.89357799291610718,0,0,0.35738173127174377,0,0,0.29484885931015015,0.35577285289764404,0.19198036193847656,0,0,0.36492785811424255,0,1,-0.2344997376203537,0,0,0,-0.20639216899871826,0,-0.38712716102600098,0.77700424194335938,-0.29623660445213318,0,0,0.90237641334533691,0.20046994090080261,-0.10865974426269531,0,0,0,0,0.96133512258529663,0.22148129343986511,-0.38997012376785278,0.44082257151603699,0.35384589433670044,0,0,0,0,0.43152880668640137,0,0.65423548221588135,0,0,0,0.30986151099205017,-0.52398931980133057,0,-0.24168561398983002,0,0.40418532490730286,0.28964254260063171,0.025029301643371582,0,0,0.46461907029151917,0,0,0.49479559063911438,0,0,0.4177020788192749,0.77149736881256104,0,-0.3268740177154541,0,0.50038933753967285,0,-0.53062182664871216,-0.16483578085899353,0.39524763822555542,0.33184918761253357,0.076582781970500946,0,0.86472821235656738,0,-0.62914371490478516,0,0,0,0,0,0.37518978118896484,0.39309287071228027,0.43316486477851868,0,0,0,0,0,0,-0.42745506763458252,0,0.48842179775238037,-0.43647304177284241,0,-1,0.41831696033477783,0.26937496662139893,0,0.17838585376739502,0,0,0,0,0,0,0,0,0,0.25054708123207092,-0.17532069981098175,0,0,0,0,0,0.36066564917564392,0,-0.19356751441955566,0,0,-0.39700478315353394,0,-0.59563052654266357,0.50686347484588623,-0.49782520532608032,0.37100306153297424,0,0,0.48841559886932373,0,0.44701904058456421,0,-0.0021665266249328852,0.36503279209136963,0,0,-0.31275847554206848,0.45531448721885681,0,0,0,0.45710265636444092,0,0,0,-0.56896495819091797,0,-0.41399103403091431,-0.75901502370834351,0,0,0.85534119606018066,0,0,0,0.6040576696395874,0,-0.69411182403564453,0,0.33984661102294922,-0.92365539073944092,0.45921671390533447,0.65752160549163818,-0.40174585580825806,0,-0.099112272262573242,-0.45828899741172791,0,0.68246066570281982,0,-0.34150350093841553,0.40215909481048584,0,0,0.1377219557762146,-0.34890735149383545,-0.46281516551971436,0.2537178099155426,-0.80253922939300537,0.48945537209510803,0,0,0,-0.71989262104034424,0,0.35298702120780945,-0.49642845988273621,0,-0.31315329670906067,0,0,-0.89341521263122559,0,0,-0.49769008159637451,0,-0.46650370955467224,-0.34047690033912659,0,-0.41600134968757629,0,-0.25973591208457947,0,0,0,0,-0.17346838116645813,0,0,-0.7727891206741333,-0.84963232278823853,-0.18012179434299469,0,0,0,0,0,-0.37186172604560852,0,-0.48292249441146851,0.94026768207550049,-0.38107717037200928,0,0,0,-0.66519367694854736,0,0,0,0,0,0,-0.91131734848022461,0,0,0,0.30766254663467407,0,-0.32356506586074829,0,-0.12248742580413818,0.58407771587371826,0.3995826244354248,0,0,0,0,0,0,0,-0.333881676197052,0.39982771873474121,0,0.35094082355499268,0,0,-0.44833242893218994,-0.14343254268169403,0,-0.27007007598876953,0,0.11537855863571167,0.420981764793396,0,-0.41998809576034546,0.48448023200035095,0.44184970855712891,0,0,-0.61420464515686035,0,-0.33911800384521484,0.79515910148620605,-0.15444803237915039,0,-0.046761274337768555,0.0048888218589127064,0,-0.36809375882148743,-0.56652247905731201,0,0.45694226026535034,0,0,0,-0.09616001695394516,0,-0.79883790016174316,0,-0.45760464668273926,0.29852688312530518,0,0,0,-0.037814497947692871,0,0,0,-0.47936233878135681,0.86078691482543945,-0.17979846894741058,0,0,-0.17849671840667725,0,0,0,0,0,0,0.71522927284240723,0,-0.06991983950138092,0,-0.60039293766021729,0.43344122171401978,-0.21727657318115234,0,-0.46714627742767334,0.28157848119735718,0,0,0,0.50693881511688232,0,0,-0.29450559616088867,0.2814735472202301,0,0,0,0,-1,0,-0.73800778388977051,0],[-0.33993753790855408,0,0.37404170632362366,0.11884266883134842,0,0.3653576672077179,0.25017094612121582,0,-0.15854199230670929,1,0,-0.36149445176124573,0.42562395334243774,0.10531437397003174,-0.33735430240631104,-0.72072237730026245,-0.71944916248321533,0,0.38988670706748962,-0.47680562734603882,0,0,0,-0.3125857412815094,0,-0.48377406597137451,0,-0.47870200872421265,-0.32848066091537476,-0.75329768657684326,0.32013851404190063,0,-0.59403383731842041,0.11944222450256348,0,-0.13149608671665192,0.088493093848228455,0,0,0.40447288751602173,0.28573194146156311,-0.36698007583618164,0.30147409439086914,0,0,0.44507613778114319,0,0.13544687628746033,0.51831275224685669,0,0,-0.35847759246826172,0.55501973628997803,0,-0.41580706834793091,0,0,0,0.1505512148141861,-0.69356000423431396,0.29482659697532654,0,0,0,0,0,0.46809753775596619,-0.29174068570137024,0,0,0,0,-0.44824427366256714,0.75844323635101318,0,0.33025345206260681,-0.32403603196144104,0.41340163350105286,0,0.38564586639404297,0,-0.36100375652313232,0,0.28767210245132446,0,0.88194191455841064,0,-0.20949137210845947,-0.47517544031143188,0,0,0.3153911828994751,0,0,0,0,-0.5920555591583252,0.53481876850128174,0,0,0,1,-0.86863493919372559,0.038077645003795624,0,0.27115479111671448,0,0.92569273710250854,0,0.49248716235160828,0.50498950481414795,0,-1,0,0,-0.28515005111694336,0,0,0.19025428593158722,0,0.33195418119430542,0,0.45296254754066467,0.50743132829666138,0,0,-0.75299489498138428,0]],"id":"9903A1A1-15B2-465B-B145-DF32ECC322EC","generation":19,"biases":[[],[-1,-0.15541458129882812,0.65928542613983154,-0.57454395294189453,0.40261101722717285,0.22648343443870544,-0.25202086567878723,-0.60587829351425171,0.12571956217288971,0.076509848237037659,-0.74314892292022705,0.16009366512298584,0.45124822854995728,0.34754493832588196,0.015112548135221004,-0.38299211859703064],[-0.42775270342826843,-0.35186511278152466,0.26539409160614014,0.56832164525985718,0.42819857597351074,-0.37220829725265503,0.077641934156417847,-0.88593220710754395]],"inputCount":22,"hiddenCount":16,"outputCount":8},
{"marker2":false,"marker1":false,"weights":[[],[0,0,0.35382887721061707,0,0,-0.26127210259437561,0,-0.27233615517616272,0,0,0.27831202745437622,0,0,0,0,-0.4288102388381958,-0.41085213422775269,0,0,0,0,0.30812302231788635,0,0,0,0.27350243926048279,-0.89564836025238037,0,-0.65994894504547119,0.067668788135051727,-0.43228816986083984,0,0,0.31068480014801025,0,0,-0.059812650084495544,0,0,0,0,0,0,0,-0.48916992545127869,0.066298790276050568,0,0,-0.28796768188476562,0.72018420696258545,0,0,0,0.43839380145072937,0,0,0,0,0,0,0.2528354823589325,0,-0.47210872173309326,0,-0.43066081404685974,-0.57733273506164551,0.42971023917198181,-0.29894781112670898,0,0,0,-0.23063027858734131,0,0,0,-0.38850516080856323,0,-0.073721528053283691,0.3327612578868866,0.099367544054985046,0,-0.34962382912635803,0,0,0,0,0.39420974254608154,-0.34492143988609314,0,0.34862414002418518,-0.31324735283851624,-0.48851838707923889,0,0,0,-0.33630025386810303,0.54542171955108643,0,0,0,0,0,0,-0.35219785571098328,0,0,0,0.44810140132904053,0,0,0,0,0,0,0,0,0,0,0,0.42273408174514771,0,0,0.36363068222999573,0,-0.30134186148643494,-0.43547916412353516,0,0,0,0.34747710824012756,1,0,0.47964388132095337,0,0,0,-0.39286381006240845,0,0,0,0,0,0,0.34302034974098206,0.46268007159233093,0,0,0,0,0,0,-0.42938649654388428,0,0,0,0,0,0,0,0,0.3537651002407074,0,0,-0.28613677620887756,0,0,0,0,0,0.23256033658981323,0,0,0,0,0,0,0.27168571949005127,-0.45382517576217651,0,0,0,0,0,0,0,0,0,-0.41575038433074951,0,0,0,0,1,0.42249524593353271,0,0,0.60011839866638184,0,0.40026158094406128,0.45129513740539551,-0.82094848155975342,0,0,0,0.26518556475639343,0,0.25217416882514954,0.44819542765617371,0.43321934342384338,0,-0.37291985750198364,0,0,0,0,0,0,0,0.4240453839302063,0.40255534648895264,-0.48003315925598145,0.0028298893012106419,0,0,0,0,0.51852691173553467,0.3638729453086853,0,-0.38692200183868408,0,0,0,0,0,0.35446804761886597,0.48620083928108215,0,0,0.26807746291160583,0,0,0,0,-0.37507405877113342,0,0,0,0,0,0.66970670223236084,1,0,0,0,0,0,0,0,0,0,0,0,0,0.4481881856918335,0,0,0,0,0,0,0,-0.47661855816841125,0,0,0,-0.276093989610672,0,0.39131179451942444,0,0,-0.4016779363155365,0,-0.40048423409461975,0.23056204617023468,0,0.80765712261199951,0,0,0,-0.47071850299835205,0,-0.35350382328033447,0,0,0,0,0,-0.30353221297264099,0,0,0,0,0,0,0,0,0,0,0,0,0,0,0,-0.33181750774383545,0.33853650093078613,-0.42949733138084412,0.41541948914527893,0,0,0,0,-0.015391909517347813,0,0,0,0,-0.49055206775665283,0.38134819269180298,0,0.41920071840286255,0,0,0,0,-0.21812021732330322,0,0,-0.71590316295623779,-0.44791325926780701,0,-0.85619997978210449,-0.8305436372756958,0,-0.45729443430900574,0,0,0,0,0,0.28387892246246338,0],[-0.40471720695495605,0,0.28403511643409729,0,-0.088934779167175293,0,0.4936559796333313,0,0,0,0.22975289821624756,-0.48060080409049988,-0.74997442960739136,0,0,0,0.47665336728096008,0,0,0.20639415085315704,0.45937106013298035,0,-0.34530836343765259,1,0,0,-0.69035089015960693,0,0,0,0,0,0,0,0,0,0.32019487023353577,0.091083288192749023,0,-0.077057346701622009,0.27668869495391846,0,0.66695374250411987,0,0,0,0,0,0,0,0,-0.28765922784805298,0,0,0,0.25642389059066772,0,0,-0.68166399002075195,0,0,0,0,0,0.27469810843467712,0,-0.39089784026145935,0,0,-0.74820095300674438,0,0,0,0,0,0.25825247168540955,0,0,0,0,0,-0.070100784301757812,0,-0.49884074926376343,0,0,-0.30272588133811951,0,0,0,0,0,-0.47806012630462646,-0.4720781147480011,0.2995326817035675,0,0,0,-0.87052100896835327,0,0,0.28695589303970337,0,0,0,-0.28344044089317322,-0.49503862857818604,0,0.46289724111557007,-0.37633225321769714,0,0,-0.3434385359287262,0,0,0,0,0,-0.167253777384758,0,0.34906899929046631,0,0.38834869861602783,0,0.40483367443084717,0,-0.62460589408874512,-0.26519644260406494]],"id":"C17AB08C-8027-421B-9775-E8C115EB7076","generation":0,"biases":[[],[-0.22799594700336456,0,-0.087968111038208008,-0.48574823141098022,0.47954219579696655,0,-0.87934321165084839,-0.040699601173400879,0,-1,0.77663463354110718,-0.7907295823097229,0,0,-0.82427120208740234,0.18692564964294434],[0,0,0,-1,0,0,0,0.71969878673553467]],"inputCount":22,"hiddenCount":16,"outputCount":8},
{"marker2":false,"marker1":false,"weights":[[],[0,-0.3197287917137146,0,0,0,0.77271527051925659,0.12407064437866211,0,1,0.98296785354614258,0.30211806297302246,0,0,0,0,0.99191147089004517,0,0.11825456470251083,0,0.7900841236114502,0,0,0.96121746301651001,0,0,0.86338424682617188,0,0,0,0,0,0,-0.39229214191436768,0,0.31630024313926697,0,0,0.342254638671875,0,0,0,0,0,-0.3487030565738678,0,-0.5641055703163147,0,0.28869035840034485,0,0,0,0,-0.17123812437057495,-0.66420924663543701,-0.049679875373840332,0.41256594657897949,0,0,0,0,0,-0.60811853408813477,0,0,0,0,0.38063275814056396,0,-0.34064587950706482,0.55826854705810547,0.5474625825881958,0,0.87280905246734619,-0.47618967294692993,0,0,-0.46744120121002197,-0.71920788288116455,0,0.32656562328338623,0,0,0,0,0.44784396886825562,-0.3185189962387085,0,-0.4677635133266449,-0.34945216774940491,0.81624299287796021,-0.34385308623313904,0,-0.29446864128112793,0,0,0,0.44810429215431213,-0.28268694877624512,0.020827407017350197,0.27606201171875,0.090533971786499023,0.48707160353660583,0,0.30186176300048828,-0.66000866889953613,0,0.32608720660209656,1,0,0,0,0,0,0,0.65286004543304443,0,0.27879810333251953,-0.29192164540290833,1,0,0.95385003089904785,0,0,-0.35412019491195679,0,0.68083047866821289,0,0.29308402538299561,0,0,-0.49779605865478516,0,0,0,-0.88450062274932861,0.77778029441833496,0.017996497452259064,0,0.74571549892425537,-0.31349214911460876,0.41666784882545471,-0.017751097679138184,0,0.13357166945934296,0,0,-0.14991100132465363,0,-0.9811665415763855,0,-0.76787924766540527,0.85357403755187988,-0.22721993923187256,-0.29907357692718506,-0.2076185941696167,-0.99991089105606079,0.1651921272277832,0,0.092072442173957825,0,0,0.59421145915985107,0,0.70988929271697998,0,-0.28997951745986938,0,0,0.55327475070953369,-0.80847907066345215,0,0.2516629695892334,-0.33520445227622986,0,0.25387370586395264,0,0,0.86459887027740479,0,0,0.30783650279045105,0,0,0,0,0,0,0.0078835766762495041,0,0,0,0,0,0,0,-0.42392066121101379,-0.34807252883911133,0.58688759803771973,0,0,0,0,0,0.72630047798156738,0.41386312246322632,-0.41023063659667969,-0.1425568163394928,-0.30076715350151062,-0.3420875072479248,0,0,0.25291848182678223,-0.25778931379318237,0.064905107021331787,-0.45467612147331238,0.42230534553527832,-0.87583363056182861,0.25195538997650146,0,0,0,0,0,0,-1,-0.0010425462387502193,-1,0,0,0,0,0,0,0.84210366010665894,0.33893752098083496,0,0,0,0.27495044469833374,-0.87125778198242188,0.025943046435713768,0.41282057762145996,0,0,0,0,0,0.26101577281951904,-0.10297477245330811,0.95604419708251953,0,0,0,0.42866754531860352,0,0,0,-0.096179716289043427,0,0,0,0,0,0.17705425620079041,-0.33643591403961182,0,0,0,-0.42949080467224121,-0.1847546249628067,0,0,0,-0.48709985613822937,0,0.55796933174133301,0.87676221132278442,-0.39735639095306396,0,0,0.3611476719379425,0,0,0,0,0,0.37832680344581604,0,0,0,0,0.2152782529592514,0.3768334686756134,0,0,0,0,0.33160039782524109,0,-0.37183108925819397,0.42676341533660889,0,0,0,0,0,0,0.39072814583778381,0,0.36197188496589661,-0.36841729283332825,0,-0.38768768310546875,0.32818892598152161,-0.91453015804290771,0,0.40543839335441589,0,0,0,-0.26856315135955811,0,0,0,0,0.56177425384521484,0,0.33667731285095215,0,0.61399745941162109,0,0,0,0,0.220277339220047,0,0,-0.29482248425483704,0,0,-0.2602277398109436,-0.27879539132118225,-0.78343802690505981,-0.39828208088874817,-0.25502204895019531,0,0,0,0,0.32859021425247192,0,0],[0,0.57798629999160767,0.36795076727867126,0.43821907043457031,0,-0.15615619719028473,-1,-0.45078364014625549,0,0.51138925552368164,0,-0.29211530089378357,0.36579260230064392,0.33242490887641907,0.49921011924743652,0,0,-0.70078420639038086,-1,0,0,0,-0.42874747514724731,-0.47143056988716125,0.46894404292106628,0,0.64028781652450562,0,0,0,-0.88588595390319824,0,-0.42622426152229309,0,-0.46871194243431091,0,0,0,0.94565308094024658,-0.30981582403182983,0,0,0,0,0,0.9032941460609436,0.62748730182647705,-0.89333146810531616,0,0,0,-0.31970170140266418,0,-0.20611521601676941,-0.28821000456809998,-0.8929288387298584,0,0,0.15515232086181641,-0.83929717540740967,-0.41822874546051025,0.10240322351455688,0.38990992307662964,0,0.2618274986743927,-0.33779150247573853,0,0.48899352550506592,0,0,0,0,0.26301223039627075,0.28585407137870789,-0.38859990239143372,0,0,0,0,0,0,0.065107226371765137,-0.72554659843444824,0.78753852844238281,0.79654240608215332,-0.41167387366294861,-0.65611982345581055,-0.33986151218414307,0,-0.10464370250701904,0,0.71380424499511719,0,0,-0.31097078323364258,0,0,0.4656139612197876,0.30351477861404419,0.060708541423082352,0,0.765125572681427,-0.37807884812355042,0.75875157117843628,-0.32810947299003601,0,0,0,0,0.61798536777496338,0,0,0.64982807636260986,0.26212471723556519,0.018962064757943153,-0.040423870086669922,0,0,0,0,0,0.83491420745849609,-1,0.11018753051757812,0.45587795972824097,0.59262198209762573,0.47225436568260193,-0.33150321245193481]],"id":"E7944168-0057-4105-A920-35CE7E1E5523","generation":0,"biases":[[],[0.38692495226860046,1,0,-1,-0.5,0,0,-0.87047725915908813,-0.65043371915817261,-0.83494877815246582,0.11196480691432953,-0.27461409568786621,0.91540825366973877,-0.27091094851493835,-0.5,0],[0.39372372627258301,-0.77284115552902222,-0.97853821516036987,0.31627783179283142,-0.4080827534198761,0.86069995164871216,0,0.32833695411682129]],"inputCount":22,"hiddenCount":16,"outputCount":8},
{"marker2":false,"marker1":false,"weights":[[],[0.8149750828742981,-0.4611416757106781,0,-0.22547399997711182,0.040340259671211243,0,0,0.46060499548912048,0,0,0,0,0.06877715140581131,-0.91048920154571533,0,0,0,0,0,0.93723535537719727,0.26389136910438538,0,0.32411107420921326,0,0.35414913296699524,0,0,0,0,0.4093010425567627,0,-0.29814994335174561,-0.48888298869132996,0.61728262901306152,-0.31067356467247009,0,0,-0.32877469062805176,-0.28053924441337585,0,0,0,0,0,0,0,0,0,0,1,0.43056914210319519,-0.038187824189662933,0,-0.49476191401481628,0,-0.68364334106445312,0,0,0,0,0,0,0.0064148902893066406,0,0,-0.2882462739944458,0,0.4444461464881897,-0.41878163814544678,0,0,0,0,0,0,0.4706786572933197,0,0,0.35141992568969727,0.026433616876602173,0.012791006825864315,0,-0.20776498317718506,-0.86608558893203735,0.25682106614112854,0,-0.44601497054100037,-0.64749562740325928,0,0,0,-0.1832273006439209,0,0.49107459187507629,0,0,0,0,0.25862592458724976,0,0,0,0,0,-0.42469117045402527,-0.36569228768348694,0,0.65657317638397217,0.039900075644254684,0,0.49620997905731201,0,0,0,0.75381755828857422,0,0,0,0,0.16690117120742798,0.20849911868572235,1,-0.042758092284202576,-0.16678045690059662,0.22948385775089264,0.44390371441841125,0,0.11669694632291794,-0.74314498901367188,0,0.40270742774009705,0,-0.71545392274856567,0.70848256349563599,0,0,0,0,0,0,-0.35968872904777527,0.79373914003372192,-0.86679768562316895,0,0.26928496360778809,0.49998557567596436,0,0,0,0,0,0,-0.55645757913589478,-0.133957639336586,-0.68942946195602417,0,0,-0.85541325807571411,-0.26746794581413269,-1,0,0,-0.61354243755340576,0,0.15843582153320312,-0.45202833414077759,0,-0.38168442249298096,-0.35860517621040344,0.35797703266143799,0,-0.42172890901565552,0,-0.46235540509223938,0,-0.43840029835700989,-0.34212052822113037,0,0,0,0,0,0,0.19473633170127869,0,-0.41155022382736206,-0.30191865563392639,0,0,0,0,-0.38725623488426208,0,0.40213817358016968,0,0.40985971689224243,0,0,0.17372214794158936,0,0,-0.41805052757263184,0,0.33000460267066956,0,-0.88189709186553955,0.34519407153129578,-0.32178696990013123,-0.39031586050987244,-0.87613564729690552,0,0.46707266569137573,0,0.18393492698669434,0,0,-0.3421485424041748,0,0.75858336687088013,0,0,0,-0.21100181341171265,-0.36161628365516663,0,0,0,0,0,0,1,0,0,-0.60471153259277344,-0.42761296033859253,0,0.46315035223960876,-0.42095267772674561,0,0.32470434904098511,-0.36091625690460205,0.41302889585494995,-0.15666915476322174,-0.028368955478072166,0,0,0,0.66812515258789062,0.44189509749412537,0,1,0.80258184671401978,0.0910477414727211,0,-0.64474993944168091,0,0,-0.37965798377990723,0,-0.80780291557312012,0,0,0,0,0.45158851146697998,-0.76646870374679565,0.71370828151702881,0.48181283473968506,0,-0.28589695692062378,-0.79182124137878418,0.47078675031661987,0,0.39284396171569824,0,0.12511524558067322,-0.48839893937110901,0,0.41637679934501648,0,0,0,0,0,0.32700285315513611,-0.40001606941223145,-0.42789959907531738,0,0.36824893951416016,-0.58196580410003662,0,0,0,0.045452296733856201,0.76655393838882446,-0.29716077446937561,-0.97868800163269043,0,0.75264739990234375,0,0,-0.044231414794921875,-0.40618470311164856,0,0,0.60737353563308716,0,0,0,0,0,0,0.37007766962051392,-0.47501564025878906,0.3346426784992218,-0.45825162529945374,0,0,0,0,0,0.35759434103965759,0.45189714431762695,-0.27142754197120667,0.4247819185256958,0,0,-0.89107620716094971,0.32926759123802185,0,0.33967882394790649,0,0,0,0.54281842708587646,-0.4879055917263031,0,0,-0.12148578464984894,0.21188250184059143,0,-0.47884899377822876,0,0.99426651000976562,-0.99219393730163574,-0.45178553462028503,0.66988074779510498,0,0.71951353549957275,0,0,0.95393139123916626],[0,0.64024358987808228,0,0,0,0,0.30614539980888367,0,0.4095337986946106,0,0,0,0,0.41521468758583069,0.48571479320526123,0.70266646146774292,0.23298238217830658,0,-0.45409497618675232,0,0.25313085317611694,-0.060861587524414062,0.40150651335716248,-0.44954836368560791,0,0,0,0,0,-0.42896509170532227,0,0.37905704975128174,0,0,0.43514367938041687,0.24971723556518555,-0.36774036288261414,0.80233591794967651,0.55812090635299683,0,0,0,0,0.37809816002845764,0.30755293369293213,-0.37541905045509338,-0.33876457810401917,0.21222314238548279,-0.56794059276580811,0.43227958679199219,0.44340333342552185,-0.48612785339355469,0,-0.061983704566955566,0,0,0.47499313950538635,0,-0.72746759653091431,0.45121818780899048,0,-0.3093254566192627,0,0.8195573091506958,-0.2002328634262085,-0.42122286558151245,0.25598311424255371,0.1125037670135498,0,0.38187700510025024,0,0,0,0,0,0.58339136838912964,-0.60637706518173218,-0.20713482797145844,0,-0.38061702251434326,0,-0.051219582557678223,-0.35027387738227844,0,0,0,0,0,0,-0.44747272133827209,0,0,0,-0.058773968368768692,0,-0.57816052436828613,-0.37385073304176331,0.46708366274833679,-0.18382823467254639,-0.38705986738204956,0.67920619249343872,-0.49168002605438232,0.090983092784881592,-0.39163020253181458,0,0.31395304203033447,0,0,-0.34027186036109924,0,-0.25311845541000366,-0.51436334848403931,0,0.62199938297271729,0.32419711351394653,-0.34175905585289001,0,0.001665085437707603,0.38973596692085266,0,0.28062787652015686,0.70121443271636963,0,0,0,0.25284683704376221,-0.38812220096588135,0.16529548168182373]],"id":"8A395D7F-1350-49FA-A270-A8996CC6C325","generation":20,"biases":[[],[-0.81594163179397583,0,0.46823856234550476,-0.42725029587745667,0.565357506275177,0.33865576982498169,-0.24951080977916718,0.041391529142856598,1,-1,0.42921096086502075,0.39375197887420654,0.098293207585811615,-0.46195495128631592,-0.29224634170532227,-0.36165159940719604],[0.56300055980682373,-0.47022977471351624,-0.36806261539459229,0,0.36778843402862549,-0.8602750301361084,0.20337165892124176,-0.065308146178722382]],"inputCount":22,"hiddenCount":16,"outputCount":8},
{"marker2":false,"marker1":false,"weights":[[],[0,-0.28763687610626221,-1,0,0,0,0,0.23221302032470703,0,0,0,0,0,0,0.19775784015655518,0,0,0.30524244904518127,0.15272849798202515,0.45155900716781616,0,0.66900044679641724,0.92695200443267822,0,-0.74689233303070068,0,0,0,0.3466503918170929,0,-0.69590073823928833,0,0,-0.36717388033866882,0,0,0,0,-0.35769101977348328,0,0.27744272351264954,-0.13072915375232697,0.86451351642608643,0.27788451313972473,0.32456374168395996,0,0,0,0,0.44777560234069824,-0.15560548007488251,0,-0.35016700625419617,0.62113672494888306,0,0,0,0.45115941762924194,0,-0.5663522481918335,0,0,-0.07519376277923584,0.17750728130340576,-1,-0.25511732697486877,0.46771934628486633,0,0,0,-0.41774278879165649,-0.31100338697433472,0,-0.26311105489730835,0,0,-0.157737135887146,0,0,0,0.87852287292480469,0,0,0,-0.39212501049041748,-1,0,-0.603340744972229,0.4402940571308136,0,-0.70107161998748779,0.41556772589683533,0,0,0,0,0,-0.80735397338867188,0,0.89740884304046631,-0.65100646018981934,0,0.2645532488822937,0,-1,0,0,0,0.0051466822624206543,0,-0.35511195659637451,0,0.12523484230041504,0,-0.21158874034881592,-0.97010338306427002,0,0,-0.72592216730117798,0.25439107418060303,-0.38135805726051331,0,0,0,0,-0.72627747058868408,0.49293267726898193,-0.027860132977366447,0,-0.32793131470680237,0.49169188737869263,0,0.37330737709999084,0,-0.27825468778610229,0,0,0,0.37280893325805664,-0.1568358838558197,-0.80859315395355225,-0.054524213075637817,-0.32375401258468628,0,-0.49962884187698364,-1,-0.7676389217376709,0,-0.42046645283699036,-0.44694945216178894,0,0,0.4771122932434082,-0.47059440612792969,0,0,0,0,-0.46869316697120667,0,0.5388486385345459,0,0,0,-0.55765712261199951,0,0,0,0,0,0,0,0.1283324807882309,0.43167239427566528,0,0,0,-0.94880592823028564,-0.59073185920715332,0,0,0,0.17824916541576385,0,0,0,0,0,0.26291021704673767,0,-0.38773342967033386,-0.27415719628334045,0,0,0,0,0,0,0,-0.27592206001281738,-0.45822617411613464,0,0,0.084925360977649689,0.46655929088592529,-0.28499284386634827,-0.055514693260192871,0.31576532125473022,0,-0.46052885055541992,0.25401484966278076,-0.4415113627910614,0.26251748204231262,0,0,-0.45767146348953247,0,0,0,0,0.25666731595993042,-0.46439844369888306,0,0,0.39642313122749329,-0.42349198460578918,0.36789774894714355,0.4280669093132019,0.03844606876373291,0,0.31747531890869141,0,0,-0.70506227016448975,0,-0.61046981811523438,0.49084976315498352,0,-0.45631808042526245,-0.26720303297042847,0,0,0.4308282732963562,0,0.4827447235584259,1,-0.46280154585838318,0,0,0,0,0,-0.46958419680595398,0,0,0.48295941948890686,0,0,0.21993984282016754,-0.48817366361618042,0,0,0,0.29239067435264587,-0.3792213499546051,0,-0.6744767427444458,0,0,0,-0.66763508319854736,0,0,0.83827686309814453,0.3391488790512085,-0.55915486812591553,0,0,-0.69594240188598633,-1,0.73005521297454834,0.80631804466247559,0.33087366819381714,0,0,0,0.11417160183191299,-0.79171770811080933,0,0,0,-0.37379765510559082,0,0.10057568550109863,-0.20467132329940796,0.50113856792449951,0,0,-0.91168183088302612,0,0,0,-0.46926552057266235,0,0.25768744945526123,0,0,-0.24120333790779114,0,0,0,-0.59078037738800049,0,0.28670519590377808,0,0,1,0,0.37599128484725952,0,0,0,0,-0.4387061595916748,0.26900500059127808,0,0.32085081934928894,0,0,0,0,-0.36763906478881836,0.42263484001159668,0,0,0,0,0,-0.25161877274513245,0,0,0,-0.38763940334320068,0,0,0.47182607650756836,-0.22896802425384521,0.26976495981216431,0,0,-0.47169658541679382,0.61439281702041626],[0,0,-0.37939977645874023,0,0,0.48347818851470947,0,-0.39679533243179321,-0.47518455982208252,0.6536027193069458,0.10696303844451904,-0.69273197650909424,0,0.41664379835128784,0,0,1,-0.33436578512191772,-0.37298938632011414,0,-0.14660513401031494,0,0.13005083799362183,0,0.13084536790847778,0,0,-0.43539220094680786,-0.17326772212982178,0,0.19665884971618652,0,0,0,0,-0.17194557189941406,-0.22369466722011566,0.16375637054443359,-0.37584757804870605,-0.35991767048835754,0,0,-0.71426975727081299,0,0,-1,0,0.43942996859550476,-0.23965311050415039,0,0.0037140846252441406,0,-0.48516744375228882,0.024574058130383492,0,-0.65017580986022949,-0.26653569936752319,0,0,0.34742560982704163,-0.97027242183685303,0,0,0,0,0.42720991373062134,0,0.37501424551010132,0.45765534043312073,0.59856647253036499,0,-0.38039231300354004,0,-0.36185908317565918,0,0.13610279560089111,0.34920430183410645,0.48074245452880859,0,-0.37879261374473572,0.27426958084106445,0,0,0.26214110851287842,-0.47004860639572144,-0.4679102897644043,0,-0.79664421081542969,-0.29472401738166809,-0.27123484015464783,0,0,-0.48108384013175964,0.67690610885620117,-0.39241847395896912,-0.43198025226593018,0,0.26833096146583557,0.27725145220756531,0.16057948768138885,-0.40009325742721558,0,0.81059658527374268,-1,0,0,0,0,0.46268701553344727,-0.99768853187561035,0,0,0,-0.60242819786071777,0,0,0,0.83492201566696167,0,0,-0.49064135551452637,1,0,0.43084299564361572,0.93458819389343262,0,0,0]],"id":"DF0BE4EB-38EA-4A71-B9D7-50F9D14C822A","generation":0,"biases":[[],[0.46911534667015076,-0.92919903993606567,0.26843166351318359,0.74211430549621582,0.13205039501190186,0.35943847894668579,0.13920770585536957,0.53024375438690186,-0.71874630451202393,-0.91958189010620117,0.36343225836753845,-0.41099697351455688,-0.22071033716201782,-0.82169955968856812,0.24663721024990082,0],[0.36956456303596497,0.98800694942474365,0.58447527885437012,1,0.42572760581970215,-0.41894516348838806,-0.78851449489593506,-0.34781086444854736]],"inputCount":22,"hiddenCount":16,"outputCount":8},
{"marker2":false,"marker1":false,"weights":[[],[-0.633431077003479,0,0.47668027877807617,-0.7017815113067627,0.4630984365940094,0.7886040210723877,0,0,0,0,0.8796805739402771,0,0.36321201920509338,0,0,0.47423052787780762,0,0,0,0.28053879737854004,-0.26840740442276001,0,0,-0.38363698124885559,-0.74953579902648926,0.010884876362979412,0,0,-0.47764396667480469,0,0,0,0,0,-0.47497060894966125,0,0.34016945958137512,-0.014056863263249397,-0.24669933319091797,0,0,0,0.29302576184272766,-1,0,0.37208208441734314,0,-0.031340375542640686,0,0,0.44512128829956055,0,0,0,-0.44596347212791443,-0.22043544054031372,0,-0.65137529373168945,0,0,0.29854214191436768,0,-0.45923775434494019,0.71650499105453491,0.88239288330078125,-1,0,0,-0.87553071975708008,0.86176002025604248,0,0,0,0,0,0,0,0,0,-0.43225747346878052,0,0,0,-0.40228784084320068,0,0,0,0,0,-0.3807334303855896,-0.51285767555236816,-0.38545712828636169,-0.42653852701187134,0,0,0,0,0,0.43715453147888184,0,0,-0.43204814195632935,0,0,0,0.22454655170440674,-0.32504680752754211,0,0,-0.027225645259022713,0,0,0.33592543005943298,0,0,0,0,-0.29631984233856201,0.37696680426597595,0.45447319746017456,0.33063796162605286,0,0,0.49384835362434387,0,-0.30235481262207031,0,0,0,0.41859990358352661,0,0.37543809413909912,0.37357589602470398,0,0,0,0,0,-0.44743853807449341,-0.67509329319000244,0,-0.0068079233169555664,-0.20421218872070312,0.43817350268363953,0.28255254030227661,0.26181668043136597,0.34423041343688965,0,0,0.39668530225753784,-0.46916183829307556,0,-0.58838522434234619,0,0,-0.44904214143753052,0.114012211561203,0,0,0,0.41386818885803223,0,0,0,0,0,0,0,0,0,0.36936977505683899,-0.016960643231868744,0,0,-0.72832667827606201,0,0,0,0,-0.084710359573364258,0,0,0,0,-0.24453602731227875,0,0.31236451864242554,0,-0.31808042526245117,0,0,0.52543222904205322,0,0,0.46874409914016724,-0.1285715252161026,0,0.10669737309217453,0,0.28835129737854004,0,-0.48749259114265442,0,0,0,0,0,0,0,-0.69089806079864502,0,0,0,-0.67304360866546631,-0.45641511678695679,0,0.39009416103363037,0,0,0,0,0.33762648701667786,0.35439947247505188,0,-0.40617802739143372,-0.3907892107963562,0.44338157773017883,0.33003976941108704,0,-0.38045012950897217,0,0,0,0,0,0.0095905410125851631,0,0,0,0,0.053476929664611816,0,0.93727493286132812,0,0,0,0,0,0,-0.49404242634773254,0.062147170305252075,0,0.46870779991149902,0,0,0,0,0,0.42474550008773804,0,0,-0.0057090893387794495,0,0.35545071959495544,0,0,0,0,0.8121497631072998,0.35589265823364258,0,0,-0.31987988948822021,0,-0.31705430150032043,0,0,0,0.25975432991981506,0.45022508502006531,0,0,-0.59409582614898682,0,0,0,-0.30539724230766296,0,0,0.44976335763931274,0.27518308162689209,0,0,-0.17342837154865265,-0.77554941177368164,0,-0.44201833009719849,0.75601077079772949,0,0,0,0,0,-0.26184692978858948,0,0.16533787548542023,-0.53492951393127441,-0.89035046100616455,0,0,-0.43743115663528442,0.37061372399330139,0,0,0,-0.50005322694778442,-0.87211716175079346,0.48004832863807678,0,0,0,0,0,0,-0.33642271161079407,-0.39072170853614807,-0.40230000019073486,0.33311119675636292,0,0,0,0,0,0,0,0.28647515177726746,0,0,0.41668474674224854,0.22333793342113495,0,0,0,0,0,0,-0.13314211368560791,0,0,0,0.47045710682868958,0],[0.38524839282035828,0,0.26545801758766174,-0.1495242565870285,0,0.52909040451049805,0,-0.48496019840240479,0,0.28893271088600159,0.40578997135162354,0.40352585911750793,0,0,0,0.11515462398529053,0,-0.32905414700508118,0.077491998672485352,-0.10833852738142014,0,0,-0.69073319435119629,0,0,0,0,0,0.19446873664855957,0,0,-0.60759192705154419,-0.48765233159065247,0,0.47330999374389648,0,0,0.18850460648536682,0.89487802982330322,0.22365927696228027,-0.027888339012861252,0.99268054962158203,0,-0.39816427230834961,0.78310132026672363,0,0,0.78308212757110596,0,0.44057157635688782,0,0,0,0.29386645555496216,0,0.92205178737640381,0,-0.31100708246231079,0.022726178169250488,0,0.31302833557128906,0,-0.20848393440246582,0,-0.44306910037994385,0,0,-0.32577195763587952,0,1,-0.1100996732711792,-0.6524357795715332,0,0.30451709032058716,0,0,0,0.27388378977775574,0,0.57926338911056519,-0.32584202289581299,0,-0.25002667307853699,0,0.43998733162879944,0,-0.53826618194580078,0,0,0,0,0.36912277340888977,0,0,0,0.39587834477424622,0,-0.49111694097518921,0,0,0,0,0.27679130434989929,0,0,0,0.48525238037109375,0,0,-0.29763433337211609,0,0.42098835110664368,0,0,0.56331288814544678,0.2732551097869873,0.40886837244033813,0,0,0,0,0.41839566826820374,0.70361518859863281,0,0,-0.48487934470176697,0,0.46610695123672485]],"id":"2EBBBE55-3C9F-4FE8-B40C-DA4663C66486","generation":0,"biases":[[],[0.04734957218170166,-0.6230621337890625,0.017122983932495117,-0.050839900970458984,-0.98727715015411377,-0.5809294581413269,-0.49459755420684814,0,0.74789649248123169,0.91166222095489502,0,0.97820115089416504,-0.59821528196334839,0,0.51223599910736084,1],[0,-0.21384724974632263,0.20853698253631592,-1,1,-0.08904498815536499,0.055374283343553543,0.57945293188095093]],"inputCount":22,"hiddenCount":16,"outputCount":8},
{"marker2":false,"marker1":false,"weights":[[],[0.48977699875831604,0,0.1362152099609375,-0.42425104975700378,0,0.28753194212913513,0,0.37003058195114136,0,0,0,0,0,-0.33867961168289185,0,0,-0.27711784839630127,-0.92113780975341797,0,0,0,0,0,0,0,0,0,0.25244814157485962,0,0,0,0,0,0,-0.43741405010223389,0,0,0,0.13685360550880432,-0.46574872732162476,0,0,0,-0.30686911940574646,0,0.69796431064605713,0,0.4270191490650177,0,0,0,0,0,-0.58142012357711792,0,0,0,0,0,0.32585912942886353,0.55809497833251953,0,0,-0.16296075284481049,-0.4197450578212738,-0.34072548151016235,0,0,0,0,0,0,0,0,0.3973219096660614,0,-0.3279021680355072,0.31051883101463318,0.41357451677322388,0,0,-0.46849706768989563,0,0,0,0,0,-0.38488352298736572,-0.373308926820755,0,0,-0.48007890582084656,-0.9669414758682251,0,0,0,0,0,0,0,0,-0.35204657912254333,0,-0.35375964641571045,0,0.793506920337677,0,0,-0.35396942496299744,0.41670474410057068,0,-0.084145545959472656,0.45670807361602783,0,-0.03275066614151001,0,0,0,-0.10973147302865982,0.37209492921829224,0,0.40244594216346741,0,0.30199876427650452,0.35627338290214539,-0.15557342767715454,0.091699004173278809,0,0.31575396656990051,0,-0.15579056739807129,0.57120496034622192,0,0,0.2206866443157196,-0.43181568384170532,0,0,0.41107714176177979,0,0,0,0,-0.33476138114929199,0,0.79358756542205811,0,0,0.4167344868183136,0.53027468919754028,0.2937130331993103,0,0,-0.49283605813980103,-0.48664718866348267,0,0,0,0.32641750574111938,0,0,0,-0.89771020412445068,0.63490760326385498,0.41152086853981018,0.86891770362854004,-0.77860391139984131,0,0,0,0,0.45980647206306458,0,0,0,0,0,0.2465425431728363,0,0.24821960926055908,0,-0.12417641282081604,0,-0.41214624047279358,0,0,-0.30127036571502686,0,0,0,0,0,0.99533987045288086,0,0.56578278541564941,-0.25861239433288574,0,0,0,-0.15622830390930176,-0.40804052352905273,0,0,0,-0.14744806289672852,0.34020626544952393,0.35906758904457092,0.4534447193145752,-0.60809564590454102,0,-0.42816483974456787,0,-0.83875668048858643,0,-0.33352193236351013,0,0,0,-0.7520287036895752,-0.89415735006332397,0,0.10538429021835327,0,0,-0.42106631398200989,0,0,0.34479689598083496,0.28761285543441772,-0.296428382396698,0,0,0,0,0.30628904700279236,0,0,0,0,0,0.53736811876296997,0,0,0.41427966952323914,0,0.0078609958291053772,0,-0.32126075029373169,0,0,0,0,0.2596375048160553,0,0,0.46876150369644165,0,0,0.49597373604774475,-0.44881027936935425,0,-0.38569757342338562,-0.49612134695053101,-0.3120591938495636,0,-0.10876107215881348,-0.39293086528778076,0,0,0,0.40307047963142395,0.49910962581634521,-0.57679831981658936,0,0.38536950945854187,0,0,0,-0.031234264373779297,-0.41777423024177551,-0.39815238118171692,-0.78587281703948975,0,-0.18106424808502197,0,0.59069812297821045,0.37235963344573975,-1,0,0,0,0,0,0,0,0,0,0,0,-0.3109128475189209,0,-0.13960722088813782,0,0,0,0,0,0.43158912658691406,0,-0.64061653614044189,0,0,0.46249592304229736,0,0,0,0.23604631423950195,0,-0.99575507640838623,-0.3034900426864624,-0.27129974961280823,0,-0.17230045795440674,0,-0.11914348602294922,0,0,-0.76052844524383545,0,-0.81364428997039795,0,0.360504150390625,0,0,0,-0.624531090259552,0,-0.42480796575546265,0,0,-0.42439115047454834,-0.67954963445663452,0.2737242579460144,0,0,-0.40448111295700073,0,0.4582161009311676,0,0,0,0.37743419408798218],[-0.26873108744621277,0.60215520858764648,0,-0.80670797824859619,0.06962883472442627,0.84597861766815186,-0.13747274875640869,-0.34546414017677307,0,0,0,0,0,0,-0.36170241236686707,0.61619359254837036,-0.47783723473548889,-0.27716240286827087,-0.6379731297492981,0,0,0.45072901248931885,0,0.74288523197174072,0.40951335430145264,0.86080348491668701,0.7598341703414917,0,0,-0.73265731334686279,0.28276145458221436,0.48495829105377197,0,0,0,-0.66809946298599243,0,0,0.40525847673416138,-0.95543074607849121,0,0,-0.48606884479522705,0,0,-0.67462742328643799,0,0,0.76895236968994141,0,0,0.25968313217163086,0,0,0,-0.68689113855361938,0,-0.8054271936416626,-0.30429947376251221,-0.28506007790565491,0.42393767833709717,0,0,0,-0.47330331802368164,0.31985616683959961,0.30036133527755737,1,0,0,0.21396860480308533,0,-0.18658933043479919,0,0,-0.45336920022964478,0,-0.51649534702301025,-0.41621538996696472,-0.37093004584312439,0.38961446285247803,0,0,-0.29146590828895569,0,0,0,0,0,0,0,0,0,0,0.45524385571479797,0,0,0.67833828926086426,0,0,-0.32637056708335876,-0.72553122043609619,-0.031639982014894485,0.99246513843536377,0,0,0,0.67533636093139648,0,0,0,0,0.11252643913030624,0,-0.14732983708381653,0,0.76501667499542236,0.99381589889526367,0,0.34062448143959045,0.30784839391708374,0,-0.83824974298477173,0,0,-0.27495548129081726,0,0.33505085110664368]],"id":"8F82FBBC-5568-4446-B961-AA04320151A1","generation":0,"biases":[[],[0.32316979765892029,0.16121496260166168,0,0.34622836112976074,0.45629659295082092,-0.20755058526992798,0.31157964468002319,0.32934018969535828,0.40221962332725525,0.07782541960477829,-0.85609591007232666,-0.24840478599071503,0.81354212760925293,0.4616929292678833,-0.1401437520980835,-0.43972641229629517],[-0.53905981779098511,0,0.46296191215515137,-0.20491516590118408,-0.18264187872409821,0,0.065714068710803986,0]],"inputCount":22,"hiddenCount":16,"outputCount":8},
{"marker2":false,"marker1":false,"weights":[[],[0,0,-0.76780796051025391,-0.30916336178779602,0.38512489199638367,0.35368242859840393,0,0.79654222726821899,0.5657188892364502,0,0,0,0,0,0,0,-0.49853649735450745,0,0,-0.77554887533187866,0,-0.92524826526641846,0,0,0,0,0,0,0.43665146827697754,0,0,0,0,0,0,0,0,-0.49098074436187744,0,0,0,0,0,-0.032000541687011719,0,0,0.3180241584777832,-0.47901275753974915,-0.11652424186468124,0,0,-0.63522833585739136,0,-0.69882494211196899,0,0,1,-0.44144624471664429,0.65145653486251831,0,0,-0.48882627487182617,0.56067526340484619,-0.39827731251716614,0,0,0.87638694047927856,0,0,0,0.69572198390960693,0,0,0,-0.43232572078704834,0,0,0,0,0,0,0.31677192449569702,0,0,0,0,-0.47170498967170715,0.13146710395812988,0,0,0,0.1554790586233139,0,0,0,0.38298887014389038,0,-1,0.85536295175552368,0,0,-0.27823889255523682,-0.61041629314422607,0,-0.65582489967346191,-0.1539313793182373,-0.4130004346370697,0.49761006236076355,-0.74516737461090088,0,0,-0.34857228398323059,0.28883931040763855,0,0,0,0.99691593647003174,0,0.48333895206451416,-0.30407479405403137,0,0,0.31512528657913208,0,0,0,0.45190882682800293,0,0,-0.54065978527069092,0,0,0,-0.37934195995330811,0,0.25279897451400757,0,0,0,0,0,-0.26666945219039917,0.20509922504425049,0,0,-0.43902361392974854,-0.17901505529880524,0.69634330272674561,-0.27204391360282898,0,0,-0.31464084982872009,0,-0.15757501125335693,0,0.26894760131835938,0,0,0,0.48455527424812317,0,0,0,0.6289222240447998,0,-0.76906198263168335,0,-0.48838746547698975,0,0,0,0,0,0,-0.89922606945037842,0,-0.51941299438476562,0,0,0,0.39344018697738647,0,0,0,-0.78296637535095215,0.51150649785995483,-0.48095816373825073,-0.41773948073387146,0,0,0,0.31627669930458069,0,-0.015240902081131935,0,-0.34269616007804871,1,-0.37690174579620361,0,0.31796658039093018,-0.088955998420715332,0,0,0,0.59995484352111816,0,-0.35054710507392883,0.23937857151031494,0,0,0.32203397154808044,0,0,0.91651105880737305,0,0.13616316020488739,0.17865283787250519,-0.68330889940261841,-0.068638995289802551,0,0,0.38573271036148071,0,0.037179946899414062,0,0,-0.31495821475982666,-0.95030254125595093,0.29633992910385132,0,0.41395485401153564,0,0.26249158382415771,-0.27726885676383972,0,0,0,0,0,0,0,0,0,0,0.33879402279853821,-0.32045233249664307,0,0,0.36532074213027954,0,0,0,0,0,-0.38230991363525391,0.26044732332229614,-0.31366443634033203,0,0,0.49848464131355286,0.28879436850547791,0,0,-0.73668038845062256,0,0.31734576821327209,0,-0.6676410436630249,0,0,0,0,0,0,0.3840736448764801,0.9687570333480835,0.56888735294342041,0,-0.26124128699302673,0,0,0,0,0,0,0,0,0,0,-0.33301803469657898,0,0,0.37751990556716919,0,0,0,0.35333603620529175,0,-0.36651167273521423,0.36846989393234253,-0.56663835048675537,0.32146883010864258,0,0.44047340750694275,0,0.2106783390045166,-0.40123024582862854,0.31730082631111145,0,0,0.48579859733581543,0.59761613607406616,0.92464220523834229,0,0,0.3827979564666748,0,0,-0.73284631967544556,0,0,-0.44101941585540771,-0.37539812922477722,0,0,0,0,0,0.36157912015914917,0,0,0.44197720289230347,-0.70724660158157349,0,-0.26453447341918945,0,0,0,0,0,0,0,0.35663160681724548,0.29419443011283875,0,0,0,0.16700732707977295,0,0,-0.76779353618621826,0],[-0.80262160301208496,0.37376224994659424,0.25341269373893738,0,0,-0.87567603588104248,0,-0.99934542179107666,0,0,0,0,0,0.19581902027130127,0.59034836292266846,-0.83423423767089844,0.42530640959739685,-0.40490877628326416,0.47842183709144592,0,-0.49757790565490723,0,0,0,0,0,0.2658267617225647,0,0,0,0,0,0,-0.34510025382041931,0,0,0.4278617799282074,0.18557266891002655,0,0,0.25260910391807556,-0.77168738842010498,-0.53886830806732178,-0.49243998527526855,0,0,0.36234840750694275,0.3343278169631958,0.18277738988399506,0.42984911799430847,-0.31069296598434448,0,0,-1,0,0.90278440713882446,-0.38785302639007568,0,-0.36136853694915771,-0.50297284126281738,0.27682650089263916,-0.2371671199798584,0,0,0.26175022125244141,-0.47244837880134583,-0.4366498589515686,-0.25535133481025696,0,0,0.18958421051502228,0,0,0,0.28032097220420837,0,0.40130481123924255,0.46467584371566772,0.25047290325164795,0.30007719993591309,0.92409384250640869,0,0,0,0.3928217887878418,-0.060047030448913574,0,0,-0.13816225528717041,-0.98133575916290283,0,0,0.75989192724227905,0,-0.73507845401763916,0,0.014309790916740894,0,0,0.39189958572387695,0,0,-0.39091360569000244,-0.90584003925323486,0,0,0,-0.29280805587768555,0.50751525163650513,-0.042809322476387024,0,0.38361015915870667,-0.29537263512611389,0.42097446322441101,0.12469258159399033,0,0.63217806816101074,-0.8519442081451416,0.19764113426208496,0.58880352973937988,-0.15233437716960907,0,0,0,0,-0.31334567070007324,0,-0.296791672706604]],"id":"2D2C743F-9128-475E-B24D-3B758F68F8FE","generation":0,"biases":[[],[0.41441166400909424,0.28134441375732422,0,0.50577878952026367,0,-0.23910978436470032,0.86877673864364624,0.0039853448979556561,0.40519341826438904,-0.65428745746612549,-0.44642332196235657,0.47805774211883545,0,-0.15653401613235474,0.57653337717056274,0.96023935079574585],[-0.51155704259872437,0.39322760701179504,1,-1,-0.45718333125114441,0,0.89635717868804932,0.28088772296905518]],"inputCount":22,"hiddenCount":16,"outputCount":8},
{"marker2":false,"marker1":false,"weights":[[],[0,-0.589405357837677,0,0,0,0,0.61132234334945679,0,0,0,0,0.79246330261230469,-0.46897459030151367,0,0,0,0.25631600618362427,0,0,0,0,0,-0.019716382026672363,-0.48872864246368408,0,0,0,0.33547627925872803,0.20900118350982666,0,-1,-0.92604923248291016,-0.80902749300003052,0,0,0,0,0,0,0,-1,0,0.36121848225593567,0,0.3755137026309967,0,0,0,-0.62946373224258423,0,0,-0.25997114181518555,0.017204482108354568,-0.9385828971862793,-0.40912848711013794,0,0,0,0,0,0.32772576808929443,0.29790407419204712,0,0,0,0,0,0,0,-0.39751237630844116,0,0,0,0,0,0,-0.26804554462432861,0,0,0,0,0,0,0,0.49903962016105652,0,0.21265900135040283,0,0,0.2523823082447052,-0.49614724516868591,0.70631146430969238,0,0,0,0,0,0.30879014730453491,0.66678762435913086,0.32712721824645996,0,0.55237162113189697,0.33173799514770508,0,0,-0.44094350934028625,-0.29159927368164062,-0.024704447016119957,0.29780310392379761,0,0,-0.46327579021453857,0,-0.25019204616546631,0,-0.12927749752998352,-0.12691664695739746,0,0.27581480145454407,0.83200931549072266,-0.25875800848007202,0,-0.61813652515411377,0,0,0,0.39677846431732178,0.42833110690116882,0,0,0,0.44261571764945984,0,-0.43211507797241211,0.36683753132820129,0,0,0,0,0,0,0,0.13762554526329041,0,0.3461071252822876,0,0.26106002926826477,0,0,0,-0.29614648222923279,0,0,0,0.22593934834003448,-0.1796642541885376,0,0,-0.25918012857437134,0,0,0,0,0,-0.48857435584068298,0,0.75470530986785889,0.22154700756072998,0,0,0,0,0,0,0,-0.26786071062088013,0,-0.25261259078979492,-0.18485593795776367,-0.25551712512969971,0.4661882221698761,0,-0.42221841216087341,0,0.62942934036254883,0,0,0,0.40158089995384216,0.47360029816627502,0.64649450778961182,0,-0.37253454327583313,0.49184727668762207,0,0,0,0.45024752616882324,0,0,0,0.03686276450753212,0,0,0,0,-0.31470534205436707,0,-0.49950075149536133,-0.3062894344329834,0,0,-0.47953066229820251,0,0,0,0,0,0,0,0,0.49618685245513916,0,0,0,0,0,-0.42426276206970215,0,-0.74458855390548706,0,0,0,-0.016065077856183052,0,0,0,-0.39183670282363892,0,-0.26443326473236084,0,0,0,0.30366477370262146,0,-0.40042635798454285,0,-0.91274690628051758,0,0,1,0,-0.93352615833282471,0,0,0,0,-0.13340795040130615,0,0.66108465194702148,0,0.81704187393188477,0,-0.44411164522171021,0.45456570386886597,0,0,0,-0.4238242506980896,-0.41277366876602173,0,0,0.68615108728408813,0,0,-0.11260081827640533,0,0,0.41700625419616699,0.48418715596199036,0,-0.36919337511062622,0.30543273687362671,0,0,-0.31514078378677368,0,0.056112375110387802,0,-0.2762940526008606,0,-0.3483288586139679,0.26767459511756897,0,0,0,0,0,-0.33396145701408386,0,0,-0.26871997117996216,-0.32750898599624634,0,0,0.33616051077842712,0,0,-0.44660723209381104,0.45119309425354004,-0.31101870536804199,0,0.31166923046112061,0,0,0,-0.12457903474569321,0,0.42810142040252686,-0.33385354280471802,0,0,0.32963010668754578,0,0,0,0,0,0,0,0,0,0.92856866121292114,0.40637901425361633,0,0.15593788027763367,-1,0.91367101669311523,0.33931645750999451,0,0,-0.41051626205444336,0,0,0,-0.97624790668487549,0,0.43920278549194336,-0.71745479106903076,-0.31509876251220703,0,0],[0,-1,0,0,0,-0.21622061729431152,-0.4440385103225708,0.33013305068016052,0,0,0,0,0,0,0,0,0,0.4746590256690979,0,-0.31970107555389404,0,0,0,-0.13583110272884369,-0.10882914066314697,0.45536428689956665,0,0,0,0,0,0,-0.3115411102771759,0.44449877738952637,0,0,0,-0.39267784357070923,-0.11890780925750732,-0.33258280158042908,0,0,0,-0.40691611170768738,0,-0.34585297107696533,-0.15183244645595551,-0.7543753981590271,-0.06852257251739502,0,-0.21763947606086731,0,0,-0.43312039971351624,0.53167080879211426,-0.26506012678146362,0,-0.28379642963409424,0.41664829850196838,0,0,0,0,0,0.42562985420227051,-0.46915459632873535,0,0,0,-0.39306187629699707,0,-0.47443705797195435,0.38129764795303345,0,0.38223522901535034,0,0,0.48303863406181335,0,0,0,0,-1,0,0,-0.29841926693916321,-0.46623682975769043,0,0,-0.31543862819671631,0,0,-0.74287903308868408,-0.8507310152053833,-0.26820951700210571,-0.30356255173683167,-0.26338914036750793,0,0,0,0,1,0.38733401894569397,0.18957710266113281,0,0,0,0,0,0.36413836479187012,0.46366739273071289,0,0.031849656254053116,0.021818540990352631,0,0,0,-0.41974064707756042,0,0,0.25987470149993896,0.42928594350814819,0,0,0,0,0,0]],"id":"3A96DE1B-0AA2-4FD3-B2EB-DD0854C3E32C","generation":1,"biases":[[],[-0.020772583782672882,-0.14574421942234039,0.61436736583709717,0,0.32657825946807861,-0.45558422803878784,0.96625673770904541,-0.86545443534851074,0.1596347838640213,-0.062254894524812698,-0.18583966791629791,-1,0.47470587491989136,0.48365139961242676,0.10473703593015671,0.36665076017379761],[0.22130273282527924,0,0,0,0,0.41520455479621887,0,1]],"inputCount":22,"hiddenCount":16,"outputCount":8},
{"marker2":false,"marker1":false,"weights":[[],[0,-0.51959395408630371,0,0,0,0.21193309128284454,0.48019465804100037,0,0.84457910060882568,0,0,0,0,0,0,-0.10183744877576828,0.43126893043518066,0,-0.29432773590087891,0,-0.46254575252532959,-0.37206980586051941,0,0,0.26499000191688538,0.32367026805877686,0,-0.34535306692123413,0,0,0,0,0,0,0,0.42805692553520203,0,0,-0.1206662654876709,-0.26689383387565613,0,0,0,0,0,0,0,0,0,0.46863710880279541,-0.35798269510269165,0,-0.10881960391998291,0,-0.3671802282333374,0,-0.55859518051147461,0,-0.14412504434585571,0,0,0,0,0,0,0.84539300203323364,-0.42698377370834351,0.73808848857879639,0.85386979579925537,0,0,0,-0.34384602308273315,0,0,0,0.93976378440856934,0,-0.30410262942314148,-0.27366355061531067,0,0,0.31275773048400879,0,0,0,0,0,0.43098706007003784,0,0.26953059434890747,-0.41215819120407104,0,0,-0.37434101104736328,-0.0277983658015728,0,0,0,0,0,-0.42769253253936768,0,0,-0.029756093397736549,0.82644569873809814,0,-0.93622207641601562,0,0,0,0,-0.8982357382774353,-0.47136270999908447,0,0,0,0.94854927062988281,0,0,-0.53097832202911377,-0.40765497088432312,0,0.30095452070236206,0,0.48836174607276917,0,-0.34181615710258484,0,0,0,0,-0.4415326714515686,0,0,0,0,0,-0.38415667414665222,0.092491619288921356,0,0,0,0,0,0,0,0.34691238403320312,0,0,-0.39545261859893799,0,0,-0.35661491751670837,0,-0.25172781944274902,-0.31248322129249573,0,0,0,0,0,0,0,-0.49407914280891418,0,0.37424314022064209,0,0,0,0,0,0.89572834968566895,0,0,0,0.5327875018119812,-0.40596160292625427,0,-0.22806525230407715,0.43113598227500916,0.026958584785461426,0,0,0,-0.51494705677032471,-0.79707098007202148,0,-0.49484622478485107,0,0.32046443223953247,0,0,-0.29582121968269348,0.30843394994735718,0,0,0,0,0,0.37298694252967834,0,0,0,0,-0.30833148956298828,-0.83078235387802124,0,0.14167200028896332,0,0.25923141837120056,0,0,0,0.48205259442329407,0.06745506078004837,0,0.30340912938117981,0.33210137486457825,0,0,-0.43351083993911743,-0.42696261405944824,0,-0.45562970638275146,-0.49444559216499329,-0.25039049983024597,0,-0.28404414653778076,0,0,0,0,0,0,-0.42974182963371277,0,0,0,0,-0.26775020360946655,0.31208860874176025,0,0,0,0,0,0.46353182196617126,0.47538599371910095,0,0,0,0,0.35804662108421326,0,0,0,0,-0.43279609084129333,0.32410788536071777,-0.77277135848999023,0,0,-0.72402191162109375,0,0,0,0,-0.38208222389221191,0,-0.27164679765701294,0,0,-0.80899339914321899,0,0,-0.75435799360275269,0,0,0,0,0.45147290825843811,0,-0.56685435771942139,0,-0.37994250655174255,-0.42431598901748657,0,0,0,0,-0.031548380851745605,0,0,0,0.37747493386268616,0,-0.30279353260993958,0,0,-0.2525688111782074,-0.36642277240753174,-0.46176660060882568,0,0,0,0,0,-0.40010935068130493,0.63491380214691162,0,0,0,0,-0.5183638334274292,0,-0.4279218316078186,0.1713106632232666,0.25601667165756226,-0.9057270884513855,0,0,0,0,0,0.39424848556518555,0,0,0,0.40386909246444702,-0.30008748173713684,0,0,0,-0.14376132190227509,0,0,-0.60130131244659424,0,0,0,0,0.26798418164253235,0,0,-0.41527676582336426,0,0,0,0,0,0],[0,-0.3514573872089386,0.35329386591911316,0.035240985453128815,0,0,-0.37574431300163269,-0.43133845925331116,0.44753643870353699,0,-0.072596609592437744,-0.22386610507965088,-0.89301192760467529,0,0,0,0,-0.18257668614387512,0.45719319581985474,-0.40726122260093689,0,0,0,0,0,0,-1,0,0.64259028434753418,0,0,0.30574643611907959,0,0,0.32852673530578613,0,0,0,0,0,0,0.29417052865028381,0,-0.71251600980758667,0,0,-0.28037706017494202,0,-0.26384136080741882,0,0,0.81333422660827637,0,0,0,0,0,0,0,-0.73717939853668213,0.59889048337936401,0.86385196447372437,0.30659836530685425,-0.44859305024147034,0,0,0.78824663162231445,-0.38726556301116943,-0.45015552639961243,0,0,-0.17849643528461456,-0.47175842523574829,0,-0.90809035301208496,0,0,0.39771592617034912,-0.28701075911521912,0,0,0,0,0,0,0,0,0,0,0.24354560673236847,0,0,0.63952004909515381,-0.30758035182952881,0,0,-0.40666985511779785,0,-0.026185406371951103,0,0,0.37270051240921021,0.45010939240455627,-0.47931116819381714,0,-0.13216853141784668,-0.03493858128786087,0,0.57749319076538086,0,0.19976532459259033,0.5975487232208252,0,-0.51114320755004883,0,0,0,0.86643457412719727,0.33032658696174622,0,0,0,0,0,0,-0.10157406330108643,0,0]],"id":"DA67C170-1C25-4E79-ABCA-B66DF9628BE1","generation":0,"biases":[[],[0.16975700855255127,-0.13028302788734436,0.9600982666015625,0.85927045345306396,-0.86161625385284424,1,-0.422923743724823,-0.54205888509750366,-0.51816248893737793,-0.25,-0.32136985659599304,-0.69681781530380249,0.44260689616203308,-0.36494463682174683,-0.12857481837272644,-0.35427957773208618],[0.4951862096786499,-0.34695398807525635,0.22643743455410004,0,-0.28496995568275452,0.34191179275512695,0,0]],"inputCount":22,"hiddenCount":16,"outputCount":8},
{"marker2":false,"marker1":false,"weights":[[],[0,0,-0.28430771827697754,0,0,0,-0.33151376247406006,0,0,0,0.42942866683006287,0,-0.89357799291610718,0,0,0.35738173127174377,0,0,0.29484885931015015,0.35577285289764404,0.19198036193847656,0,0,0.36492785811424255,0,1,-0.2344997376203537,0,0,0,-0.20639216899871826,0,-0.38712716102600098,0.77700424194335938,-0.29623660445213318,0,0,0.90237641334533691,0.20046994090080261,-0.10865974426269531,0,0,0,0,0.96133512258529663,0.22148129343986511,-0.38997012376785278,0.44082257151603699,0.35384589433670044,0,0,0,0,0.43152880668640137,0,0.65423548221588135,0,0,0,0.30986151099205017,-0.52398931980133057,0,-0.24168561398983002,0,0.40418532490730286,0.28964254260063171,0.025029301643371582,0,0,0.46461907029151917,0,0,0.49479559063911438,0,0,0.4177020788192749,0.77149736881256104,0,-0.3268740177154541,0,0.50038933753967285,0,-0.53062182664871216,-0.16483578085899353,0.39524763822555542,0.33184918761253357,0.076582781970500946,0,0.86472821235656738,0,-0.62914371490478516,0,0,0,0,0,0.37518978118896484,0.39309287071228027,0.43316486477851868,0,0,0,0,0,0,-0.42745506763458252,0,0.48842179775238037,-0.43647304177284241,0,-1,0.41831696033477783,0.26937496662139893,0,0.17838585376739502,0,0,0,0,0,0,0,0,0,0.25054708123207092,-0.17532069981098175,0,0,0,0,0,0.36066564917564392,0,-0.19356751441955566,0,0,-0.39700478315353394,0,-0.59563052654266357,0.50686347484588623,-0.49782520532608032,0.37100306153297424,0,0,0.48841559886932373,0,0.44701904058456421,0,-0.0021665266249328852,0.36503279209136963,0,0,-0.31275847554206848,0.45531448721885681,0,0,0,0.45710265636444092,0,0,0,-0.56896495819091797,0,-0.41399103403091431,-0.75901502370834351,0,0,0.85534119606018066,0,0,0,0.6040576696395874,0,-0.69411182403564453,0,0.33984661102294922,-0.92365539073944092,0.45921671390533447,0.65752160549163818,-0.40174585580825806,0,-0.099112272262573242,-0.45828899741172791,0,0.68246066570281982,0,-0.34150350093841553,0.40215909481048584,0,0,0.1377219557762146,-0.34890735149383545,-0.46281516551971436,0.2537178099155426,-0.80253922939300537,0.48945537209510803,0,0,0,-0.71989262104034424,0,0.35298702120780945,-0.49642845988273621,0,-0.31315329670906067,0,0,-0.89341521263122559,0,0,-0.49769008159637451,0,-0.46650370955467224,-0.34047690033912659,0,-0.41600134968757629,0,-0.25973591208457947,0,0,0,0,-0.17346838116645813,0,0,-0.7727891206741333,-0.84963232278823853,-0.18012179434299469,0,0,0,0,0,-0.37186172604560852,0,-0.48292249441146851,0.94026768207550049,-0.38107717037200928,0,0,0,-0.66519367694854736,0,0,0,0,0,0,-0.91131734848022461,0,0,0,0.30766254663467407,0,-0.32356506586074829,0,-0.12248742580413818,0.58407771587371826,0.3995826244354248,0,0,0,0,0,0,0,-0.333881676197052,0.39982771873474121,0,0.35094082355499268,0,0,-0.44833242893218994,-0.14343254268169403,0,-0.27007007598876953,0,0.11537855863571167,0.420981764793396,0,-0.41998809576034546,0.48448023200035095,0.44184970855712891,0,0,-0.61420464515686035,0,-0.33911800384521484,0.79515910148620605,-0.15444803237915039,0,-0.046761274337768555,0.0048888218589127064,0,-0.36809375882148743,-0.56652247905731201,0,0.45694226026535034,0,0,0,-0.09616001695394516,0,-0.79883790016174316,0,-0.45760464668273926,0.29852688312530518,0,0,0,-0.037814497947692871,0,0,0,-0.47936233878135681,0.86078691482543945,-0.17979846894741058,0,0,-0.17849671840667725,0,0,0,0,0,0,0.71522927284240723,0,-0.06991983950138092,0,-0.60039293766021729,0.43344122171401978,-0.21727657318115234,0,-0.46714627742767334,0.28157848119735718,0,0,0,0.50693881511688232,0,0,-0.29450559616088867,0.2814735472202301,0,0,0,0,-1,0,-0.73800778388977051,0],[-0.33993753790855408,0,0.37404170632362366,0.11884266883134842,0,0.3653576672077179,0.25017094612121582,0,-0.15854199230670929,1,0,-0.36149445176124573,0.42562395334243774,0.10531437397003174,-0.33735430240631104,-0.72072237730026245,-0.71944916248321533,0,0.38988670706748962,-0.47680562734603882,0,0,0,-0.3125857412815094,0,-0.48377406597137451,0,-0.47870200872421265,-0.32848066091537476,-0.75329768657684326,0.32013851404190063,0,-0.59403383731842041,0.11944222450256348,0,-0.13149608671665192,0.088493093848228455,0,0,0.40447288751602173,0.28573194146156311,-0.36698007583618164,0.30147409439086914,0,0,0.44507613778114319,0,0.13544687628746033,0.51831275224685669,0,0,-0.35847759246826172,0.55501973628997803,0,-0.41580706834793091,0,0,0,0.1505512148141861,-0.69356000423431396,0.29482659697532654,0,0,0,0,0,0.46809753775596619,-0.29174068570137024,0,0,0,0,-0.44824427366256714,0.75844323635101318,0,0.33025345206260681,-0.32403603196144104,0.41340163350105286,0,0.38564586639404297,0,-0.36100375652313232,0,0.28767210245132446,0,0.88194191455841064,0,-0.20949137210845947,-0.47517544031143188,0,0,0.3153911828994751,0,0,0,0,-0.5920555591583252,0.53481876850128174,0,0,0,1,-0.86863493919372559,0.038077645003795624,0,0.27115479111671448,0,0.92569273710250854,0,0.49248716235160828,0.50498950481414795,0,-1,0,0,-0.28515005111694336,0,0,0.19025428593158722,0,0.33195418119430542,0,0.45296254754066467,0.50743132829666138,0,0,-0.75299489498138428,0]],"id":"CAF942C6-71A7-4561-A51E-B29D45A25449","generation":19,"biases":[[],[-1,-0.15541458129882812,0.65928542613983154,-0.57454395294189453,0.40261101722717285,0.22648343443870544,-0.25202086567878723,-0.60587829351425171,0.12571956217288971,0.076509848237037659,-0.74314892292022705,0.16009366512298584,0.45124822854995728,0.34754493832588196,0.015112548135221004,-0.38299211859703064],[-0.42775270342826843,-0.35186511278152466,0.26539409160614014,0.56832164525985718,0.42819857597351074,-0.37220829725265503,0.077641934156417847,-0.88593220710754395]],"inputCount":22,"hiddenCount":16,"outputCount":8}
]
